~o
<STREAMINFO> 1 25
<VECSIZE> 25<NULLD><MFCC_E_D_N><DIAGC>
~h "jmodel"
<BEGINHMM>
<NUMSTATES> 3
<STATE> 2
<NUMMIXES> 128
<MIXTURE> 1 5.748963e-03
<MEAN> 25
 -2.586718e+00 3.188818e+00 2.310123e+00 8.740129e+00 4.369031e+00 3.439709e+00 4.053459e+00 3.925833e+00 5.822653e+00 5.230866e+00 5.868732e+00 3.078936e+00 -1.999639e+00 -1.629994e+00 -8.655305e-01 1.071543e+00 1.559928e+00 2.229574e+00 2.148395e+00 2.082781e+00 1.694565e+00 1.267003e+00 1.562025e+00 6.096254e-01 -4.682568e-02
<VARIANCE> 25
 1.003732e+01 1.174521e+01 1.491385e+01 1.869047e+01 2.315105e+01 2.211586e+01 2.186304e+01 2.198457e+01 2.097755e+01 2.261136e+01 2.097101e+01 1.706255e+01 1.790630e+00 2.114068e+00 3.018694e+00 3.205748e+00 3.731763e+00 3.349943e+00 3.326989e+00 3.374638e+00 3.513860e+00 3.719409e+00 3.514663e+00 2.832300e+00 3.116735e-03
<GCONST> 8.844485e+01
<MIXTURE> 2 4.549242e-03
<MEAN> 25
 -4.906831e+00 1.431283e+00 8.804339e-01 9.596919e+00 6.712314e+00 7.396953e+00 7.736285e+00 6.816972e+00 8.386058e+00 6.228510e+00 7.529535e+00 3.155300e+00 -6.412071e-02 2.225364e-02 1.290931e-01 2.346344e-01 2.602356e-01 2.673565e-01 2.810955e-01 3.363833e-01 3.813987e-01 3.378718e-01 2.008353e-01 8.238053e-02 -1.378936e-05
<VARIANCE> 25
 6.703197e+00 8.934825e+00 1.054846e+01 1.743301e+01 1.691553e+01 1.536222e+01 1.673870e+01 1.845310e+01 1.598610e+01 1.739462e+01 1.773587e+01 1.406562e+01 1.219753e-01 2.351512e-01 3.397380e-01 4.623716e-01 6.319706e-01 8.099038e-01 9.176891e-01 1.024225e+00 1.054193e+00 1.072938e+00 1.116857e+00 1.009065e+00 1.067462e-06
<GCONST> 5.805245e+01
<MIXTURE> 3 4.549242e-03
<MEAN> 25
 -4.906831e+00 1.431283e+00 8.804339e-01 9.596919e+00 6.712314e+00 7.396953e+00 7.736285e+00 6.816972e+00 8.386058e+00 6.228510e+00 7.529535e+00 3.155300e+00 -6.412071e-02 2.225364e-02 1.290931e-01 2.346344e-01 2.602356e-01 2.673565e-01 2.810955e-01 3.363833e-01 3.813987e-01 3.378718e-01 2.008353e-01 8.238053e-02 -1.378936e-05
<VARIANCE> 25
 6.703197e+00 8.934825e+00 1.054846e+01 1.743301e+01 1.691553e+01 1.536222e+01 1.673870e+01 1.845310e+01 1.598610e+01 1.739462e+01 1.773587e+01 1.406562e+01 1.219753e-01 2.351512e-01 3.397380e-01 4.623716e-01 6.319706e-01 8.099038e-01 9.176891e-01 1.024225e+00 1.054193e+00 1.072938e+00 1.116857e+00 1.009065e+00 1.067462e-06
<GCONST> 5.805245e+01
<MIXTURE> 4 1.671429e-02
<MEAN> 25
 3.468199e+00 3.237334e+00 -4.880787e+00 9.389862e-01 4.347445e+00 -1.335054e+00 -1.355597e-01 -1.727593e+00 9.497661e-01 1.799189e+00 -3.623764e-01 -1.186271e+00 -2.779064e+00 1.687141e+00 1.274971e+00 2.853761e+00 6.297394e-01 6.561658e-01 9.198834e-01 8.202507e-01 9.106860e-01 2.184221e-01 1.141970e+00 7.843586e-01 -8.879021e-02
<VARIANCE> 25
 1.999119e+01 3.132353e+01 3.165462e+01 3.508532e+01 3.914740e+01 6.537020e+01 5.737795e+01 6.331210e+01 4.891875e+01 5.505101e+01 5.500334e+01 3.969678e+01 2.065720e+00 5.546354e+00 4.446430e+00 4.485808e+00 4.839045e+00 5.546882e+00 7.129045e+00 5.071453e+00 5.081285e+00 5.685534e+00 6.097947e+00 4.198254e+00 6.285804e-03
<GCONST> 1.048775e+02
<MIXTURE> 5 3.206198e-03
<MEAN> 25
 -3.491857e+00 2.298302e+00 5.568019e-01 9.218424e+00 6.748907e+00 6.278545e+00 6.998257e+00 4.732609e+00 5.584527e+00 3.653143e+00 4.630596e+00 2.703658e+00 -3.043050e-01 7.289470e-01 1.208771e+00 1.035194e+00 2.804293e-01 -1.263837e-01 -1.133164e-01 2.897887e-02 4.787959e-01 6.941871e-01 3.547713e-01 9.560521e-02 1.509608e-05
<VARIANCE> 25
 1.016029e+01 1.393579e+01 2.284976e+01 2.623239e+01 1.974834e+01 1.904407e+01 2.008625e+01 1.980651e+01 2.106897e+01 2.177636e+01 2.375817e+01 1.614935e+01 1.185492e+00 1.223431e+00 1.322885e+00 1.636135e+00 2.289360e+00 2.369198e+00 2.299177e+00 2.303421e+00 2.264372e+00 2.216473e+00 2.118903e+00 1.829524e+00 1.043194e-06
<GCONST> 7.498679e+01
<MIXTURE> 6 5.475854e-03
<MEAN> 25
 9.761386e+00 -9.427416e-01 -6.140822e+00 -1.114595e+01 -1.964282e+00 8.010895e+00 -6.260500e+00 -4.969085e+00 -2.976979e+00 1.163603e+00 4.421540e+00 -1.515130e+00 4.982895e-01 8.049654e-01 -2.580965e-01 -1.334208e+00 -7.197535e-01 1.581550e+00 1.617182e+00 1.499077e-01 -1.383095e+00 -1.153818e+00 2.632049e-01 1.098846e+00 -8.346234e-03
<VARIANCE> 25
 7.848174e+00 1.657866e+01 2.382053e+01 3.433184e+01 3.670293e+01 3.926907e+01 4.048270e+01 3.457415e+01 4.063685e+01 3.759561e+01 3.750998e+01 2.618362e+01 3.380242e-01 7.993924e-01 1.183968e+00 1.873532e+00 1.510258e+00 2.673401e+00 2.230969e+00 1.941178e+00 2.659399e+00 1.791872e+00 2.260104e+00 1.686981e+00 5.458193e-04
<GCONST> 8.399652e+01
<MIXTURE> 7 5.475854e-03
<MEAN> 25
 9.761386e+00 -9.427416e-01 -6.140822e+00 -1.114595e+01 -1.964282e+00 8.010895e+00 -6.260500e+00 -4.969085e+00 -2.976979e+00 1.163603e+00 4.421540e+00 -1.515130e+00 4.982895e-01 8.049654e-01 -2.580965e-01 -1.334208e+00 -7.197535e-01 1.581550e+00 1.617182e+00 1.499077e-01 -1.383095e+00 -1.153818e+00 2.632049e-01 1.098846e+00 -8.346234e-03
<VARIANCE> 25
 7.848174e+00 1.657866e+01 2.382053e+01 3.433184e+01 3.670293e+01 3.926907e+01 4.048270e+01 3.457415e+01 4.063685e+01 3.759561e+01 3.750998e+01 2.618362e+01 3.380242e-01 7.993924e-01 1.183968e+00 1.873532e+00 1.510258e+00 2.673401e+00 2.230969e+00 1.941178e+00 2.659399e+00 1.791872e+00 2.260104e+00 1.686981e+00 5.458193e-04
<GCONST> 8.399652e+01
<MIXTURE> 8 1.165917e-02
<MEAN> 25
 -4.935791e+00 1.652945e+00 1.118469e+00 8.875287e+00 6.813649e+00 6.152443e+00 6.375455e+00 5.863957e+00 7.042410e+00 5.326266e+00 5.969280e+00 3.184374e+00 -5.629314e-01 -1.306387e+00 -8.029992e-01 -1.704748e+00 -8.997483e-02 -9.895659e-01 -2.775226e-01 -5.159456e-02 -6.068245e-01 6.110723e-02 -1.406383e-01 3.711010e-02 9.349626e-02
<VARIANCE> 25
 8.464688e+00 9.272417e+00 1.057859e+01 1.861251e+01 1.539552e+01 1.403716e+01 1.716416e+01 1.593783e+01 1.949544e+01 1.878969e+01 1.918147e+01 1.277586e+01 2.469095e+00 2.699075e+00 3.874600e+00 3.404979e+00 3.170335e+00 2.991837e+00 2.823148e+00 3.227412e+00 3.347313e+00 2.724602e+00 2.204179e+00 1.789377e+00 6.062958e-03
<GCONST> 8.539767e+01
<MIXTURE> 9 1.199672e-02
<MEAN> 25
 9.296618e+00 3.338538e+00 -6.162050e+00 -1.063745e+01 -2.203446e+00 4.993781e+00 -2.185396e+00 -2.314344e+00 -5.389356e+00 -1.249212e+00 5.506950e-01 -4.012958e-02 1.432032e+00 -1.264475e-01 -4.857885e-01 -2.682645e+00 -1.647494e+00 8.506463e-01 -9.663583e-01 -2.300576e-01 -1.904492e-01 -5.706526e-01 6.153882e-01 -1.582886e-01 7.291516e-02
<VARIANCE> 25
 1.217665e+01 2.170736e+01 3.388201e+01 5.352133e+01 5.032263e+01 3.341472e+01 4.344424e+01 5.187624e+01 4.185635e+01 4.167282e+01 3.603722e+01 2.690368e+01 2.092508e+00 2.454319e+00 4.558969e+00 4.901650e+00 4.981265e+00 4.107556e+00 4.252773e+00 6.034617e+00 5.031487e+00 4.072408e+00 4.041152e+00 2.813927e+00 2.235970e-03
<GCONST> 9.887022e+01
<MIXTURE> 10 6.596976e-03
<MEAN> 25
 8.064759e-01 7.597167e+00 5.412718e+00 7.065362e+00 1.435167e+00 -2.281513e+00 -5.947337e-01 -1.742965e+00 8.625857e-01 8.967685e-01 7.762169e-01 7.169170e-01 -1.865857e+00 -6.652145e-01 -5.186043e-01 2.938752e+00 2.418842e+00 2.702579e+00 2.352530e+00 2.193637e+00 1.855563e+00 1.486933e+00 2.301035e+00 5.466080e-01 -1.363436e-01
<VARIANCE> 25
 1.900782e+01 2.044802e+01 2.205499e+01 2.880294e+01 3.837970e+01 3.528219e+01 3.451155e+01 3.321014e+01 2.706674e+01 2.828710e+01 2.673745e+01 2.446593e+01 2.288403e+00 3.340785e+00 5.503329e+00 5.446136e+00 5.630434e+00 4.430505e+00 4.680499e+00 5.019920e+00 4.307390e+00 5.044013e+00 4.457447e+00 3.249166e+00 2.742647e-03
<GCONST> 9.740331e+01
<MIXTURE> 11 1.633820e-02
<MEAN> 25
 7.036242e+00 3.109432e+00 3.905396e+00 4.999540e+00 -4.664635e+00 -3.229870e+00 -2.362395e+00 -5.390909e+00 -4.017154e+00 -1.669218e-01 -2.485509e+00 -2.014003e+00 -2.469734e-01 4.292123e-01 1.719269e-01 1.245966e-01 5.666432e-01 -8.608854e-02 3.801633e-01 -8.552390e-02 -1.963995e-01 1.417243e-01 -2.591895e-01 4.796429e-02 -1.983880e-02
<VARIANCE> 25
 9.954343e+00 2.399428e+01 2.030871e+01 2.894332e+01 4.109517e+01 5.040246e+01 4.803973e+01 4.009935e+01 3.842672e+01 2.892647e+01 3.138141e+01 3.356662e+01 8.577338e-01 1.094980e+00 1.645722e+00 1.788878e+00 2.435298e+00 2.479305e+00 1.904079e+00 3.223675e+00 2.371181e+00 1.922767e+00 1.790138e+00 1.686046e+00 1.106596e-03
<GCONST> 8.741668e+01
<MIXTURE> 12 5.904134e-03
<MEAN> 25
 1.068109e+01 3.119449e+00 -3.799247e+00 -1.547364e+01 -8.428540e+00 9.679218e+00 -1.080387e+00 -1.903004e+00 -2.033097e+00 -4.930093e+00 1.734537e+00 -1.539383e-02 4.911235e-02 2.623848e-01 4.216388e-02 -3.518975e-01 -3.935874e-01 1.348283e-01 2.568410e-01 4.224691e-01 8.697196e-02 -3.506483e-01 -2.505530e-01 7.551166e-02 -4.958567e-03
<VARIANCE> 25
 8.322783e+00 2.367335e+01 2.601715e+01 3.449461e+01 3.938620e+01 4.055427e+01 3.935072e+01 4.563395e+01 4.108615e+01 3.412610e+01 3.576939e+01 3.186965e+01 2.335031e-01 6.488804e-01 7.714213e-01 1.070510e+00 1.240264e+00 1.179402e+00 1.224257e+00 1.331221e+00 1.237295e+00 1.135095e+00 1.398585e+00 1.211593e+00 5.580030e-04
<GCONST> 7.934973e+01
<MIXTURE> 13 5.904134e-03
<MEAN> 25
 1.068109e+01 3.119449e+00 -3.799247e+00 -1.547364e+01 -8.428540e+00 9.679218e+00 -1.080387e+00 -1.903004e+00 -2.033097e+00 -4.930093e+00 1.734537e+00 -1.539383e-02 4.911235e-02 2.623848e-01 4.216388e-02 -3.518975e-01 -3.935874e-01 1.348283e-01 2.568410e-01 4.224691e-01 8.697196e-02 -3.506483e-01 -2.505530e-01 7.551166e-02 -4.958567e-03
<VARIANCE> 25
 8.322783e+00 2.367335e+01 2.601715e+01 3.449461e+01 3.938620e+01 4.055427e+01 3.935072e+01 4.563395e+01 4.108615e+01 3.412610e+01 3.576939e+01 3.186965e+01 2.335031e-01 6.488804e-01 7.714213e-01 1.070510e+00 1.240264e+00 1.179402e+00 1.224257e+00 1.331221e+00 1.237295e+00 1.135095e+00 1.398585e+00 1.211593e+00 5.580030e-04
<GCONST> 7.934973e+01
<MIXTURE> 14 6.488954e-03
<MEAN> 25
 -4.494473e+00 2.886590e-01 -8.386778e-01 7.316411e+00 7.479696e+00 7.130489e+00 7.504948e+00 7.124612e+00 7.392629e+00 5.132731e+00 6.391825e+00 4.051733e+00 -3.258250e-01 2.983650e-01 4.311914e-01 2.987814e-01 8.920026e-02 1.249880e-01 -2.415936e-03 1.646065e-01 1.082492e-01 5.646926e-01 5.126227e-01 2.296671e-01 -6.188150e-03
<VARIANCE> 25
 7.960035e+00 1.332932e+01 1.877449e+01 2.396259e+01 1.889955e+01 1.736536e+01 1.886941e+01 2.234297e+01 1.784825e+01 2.365360e+01 1.945900e+01 1.494534e+01 8.973432e-01 1.456191e+00 1.609704e+00 1.807773e+00 1.994200e+00 1.983828e+00 1.928845e+00 2.119060e+00 2.665689e+00 2.621933e+00 1.940740e+00 1.789248e+00 1.221849e-03
<GCONST> 8.087679e+01
<MIXTURE> 15 2.475190e-03
<MEAN> 25
 -5.438991e+00 9.148044e-03 -3.079556e-01 6.789324e+00 5.784033e+00 5.827705e+00 5.921982e+00 4.943615e+00 5.590073e+00 3.893938e+00 5.388137e+00 2.749707e+00 -1.106205e-01 -3.523399e-02 7.102606e-02 2.403174e-01 4.825678e-01 7.644800e-01 9.961368e-01 1.167939e+00 1.057151e+00 7.382827e-01 3.867979e-01 1.590040e-01 -3.080885e-04
<VARIANCE> 25
 6.225941e+00 7.757162e+00 8.401336e+00 1.365367e+01 1.323495e+01 1.375266e+01 1.422138e+01 1.415992e+01 1.402122e+01 1.355900e+01 1.437611e+01 1.265053e+01 1.190871e-01 2.154172e-01 3.126095e-01 5.145954e-01 6.479170e-01 8.607342e-01 7.704625e-01 7.739176e-01 8.898279e-01 1.032912e+00 1.100640e+00 9.904800e-01 2.791319e-05
<GCONST> 5.845110e+01
<MIXTURE> 16 2.475190e-03
<MEAN> 25
 -5.438991e+00 9.148044e-03 -3.079556e-01 6.789324e+00 5.784033e+00 5.827705e+00 5.921982e+00 4.943615e+00 5.590073e+00 3.893938e+00 5.388137e+00 2.749707e+00 -1.106205e-01 -3.523399e-02 7.102606e-02 2.403174e-01 4.825678e-01 7.644800e-01 9.961368e-01 1.167939e+00 1.057151e+00 7.382827e-01 3.867979e-01 1.590040e-01 -3.080885e-04
<VARIANCE> 25
 6.225941e+00 7.757162e+00 8.401336e+00 1.365367e+01 1.323495e+01 1.375266e+01 1.422138e+01 1.415992e+01 1.402122e+01 1.355900e+01 1.437611e+01 1.265053e+01 1.190871e-01 2.154172e-01 3.126095e-01 5.145954e-01 6.479170e-01 8.607342e-01 7.704625e-01 7.739176e-01 8.898279e-01 1.032912e+00 1.100640e+00 9.904800e-01 2.791319e-05
<GCONST> 5.845110e+01
<MIXTURE> 17 9.518312e-03
<MEAN> 25
 4.930230e+00 -2.845835e+00 5.458183e+00 3.529285e+00 -6.652392e+00 -5.790936e+00 -5.944122e+00 2.185222e-01 -4.168459e+00 -3.129262e+00 1.751316e-01 5.114200e-01 -7.662226e-01 -8.349451e-01 9.575677e-01 -1.669000e+00 -2.230083e+00 -2.051944e-01 2.399269e-01 6.459476e-01 -6.272020e-01 -3.278266e-01 1.169787e+00 7.636384e-01 6.791619e-02
<VARIANCE> 25
 1.726272e+01 3.337195e+01 2.990764e+01 3.361553e+01 3.824114e+01 3.923998e+01 4.839702e+01 3.951986e+01 3.167396e+01 2.076394e+01 2.589153e+01 2.217748e+01 1.385800e+00 2.289189e+00 3.681049e+00 2.524365e+00 2.892986e+00 5.281227e+00 3.804503e+00 5.207447e+00 3.960711e+00 3.407990e+00 2.473774e+00 2.731619e+00 2.130457e-03
<GCONST> 9.438601e+01
<MIXTURE> 18 1.221018e-02
<MEAN> 25
 3.426613e+00 3.647999e+00 6.982049e+00 5.040250e+00 -4.722401e+00 -9.125181e+00 -1.720387e+00 -6.247030e-01 -3.840087e+00 -1.204189e+00 -1.319035e+00 1.714191e+00 -8.564966e-01 1.402755e+00 -8.315207e-01 1.742785e+00 3.348166e+00 9.757966e-01 4.779811e-01 2.725536e-01 7.473995e-01 8.342341e-02 -3.917454e-01 -4.942915e-01 -1.034580e-01
<VARIANCE> 25
 1.216372e+01 2.229149e+01 2.749120e+01 2.447730e+01 3.659010e+01 3.336601e+01 3.123019e+01 2.840779e+01 3.634771e+01 2.961866e+01 2.739939e+01 2.737653e+01 2.235924e+00 4.475483e+00 4.010192e+00 3.409846e+00 4.626683e+00 3.809584e+00 6.381884e+00 3.954013e+00 3.120528e+00 3.405052e+00 4.203585e+00 3.500970e+00 3.664870e-03
<GCONST> 9.601791e+01
<MIXTURE> 19 9.912824e-03
<MEAN> 25
 -1.066138e+01 2.629210e+00 -5.378032e-01 6.851168e-01 5.900627e+00 2.009473e+00 2.679167e+00 1.414828e+00 2.010838e+00 1.357752e+00 6.444577e-01 2.845764e+00 1.850765e+00 1.580189e+00 2.280738e+00 8.021568e-01 -1.296687e+00 -1.045711e+00 -1.253599e+00 -1.843467e+00 -1.739035e+00 -1.322152e+00 -9.049186e-01 -6.793901e-01 1.508220e-02
<VARIANCE> 25
 4.879877e+01 2.853452e+01 5.345544e+01 4.287460e+01 3.799795e+01 2.918257e+01 3.528162e+01 2.758637e+01 2.353942e+01 2.840497e+01 2.536248e+01 2.219764e+01 2.243494e+00 1.858505e+00 2.059453e+00 1.808195e+00 2.271001e+00 1.753710e+00 2.096348e+00 2.875382e+00 2.535334e+00 1.864290e+00 2.092072e+00 1.591598e+00 3.010526e-03
<GCONST> 9.052454e+01
<MIXTURE> 20 6.308331e-03
<MEAN> 25
 -1.418447e+01 7.506637e+00 8.307756e-01 6.033814e+00 4.999662e+00 1.410172e+00 5.066313e+00 8.565940e-01 9.731978e-01 6.882967e-01 2.609600e+00 -1.950021e-01 -3.292117e+00 -8.571172e-01 -1.552477e+00 3.445654e-01 1.568100e+00 2.014856e+00 1.936672e+00 2.051485e+00 2.119175e+00 1.994506e+00 1.704706e+00 9.213902e-01 4.743440e-02
<VARIANCE> 25
 1.934989e+01 2.348248e+01 3.043168e+01 3.725131e+01 3.159707e+01 3.015649e+01 3.048966e+01 3.093442e+01 2.760007e+01 2.837008e+01 2.480194e+01 2.116823e+01 2.059989e+00 2.149379e+00 1.884216e+00 2.503960e+00 2.697178e+00 2.398425e+00 2.365555e+00 2.279502e+00 2.230903e+00 2.716022e+00 2.229198e+00 1.863270e+00 1.854713e-03
<GCONST> 8.926112e+01
<MIXTURE> 21 7.928653e-03
<MEAN> 25
 3.816365e+00 -4.846745e+00 5.160490e+00 -8.452657e-01 -1.092806e+01 -7.070810e+00 -1.515326e+00 3.438699e+00 -2.557006e+00 -2.414968e+00 -1.724130e-01 6.242020e-01 -9.483867e-01 1.279922e+00 2.726810e+00 -6.083311e-01 -1.528068e+00 5.114613e-02 5.051036e-01 -1.524759e+00 -1.828997e+00 2.241509e-01 1.230084e+00 3.247370e-01 -1.746289e-04
<VARIANCE> 25
 6.266144e+00 1.581847e+01 2.558571e+01 1.928223e+01 2.653115e+01 3.156587e+01 5.848872e+01 2.936463e+01 3.246072e+01 1.936526e+01 2.445085e+01 2.538395e+01 2.867371e-01 7.848492e-01 2.867717e+00 1.192968e+00 1.675670e+00 2.295398e+00 5.098409e+00 2.102006e+00 3.184344e+00 1.660766e+00 2.526899e+00 1.682425e+00 4.385462e-04
<GCONST> 8.263594e+01
<MIXTURE> 22 8.827789e-03
<MEAN> 25
 -1.793943e+01 7.151178e+00 -4.059259e+00 7.334823e+00 4.789001e+00 2.612003e+00 8.323614e+00 1.855223e+00 5.380194e+00 3.131064e+00 5.759771e+00 1.207385e+00 -3.223824e-01 -2.294236e-01 -1.305876e-01 -1.575201e-01 6.026541e-03 1.747778e-01 2.047203e-01 1.977363e-01 2.160767e-01 2.123814e-01 1.784910e-01 1.929912e-01 8.496265e-03
<VARIANCE> 25
 8.019565e+00 1.655489e+01 1.740318e+01 2.497168e+01 2.457312e+01 2.182466e+01 1.946193e+01 1.907961e+01 1.786839e+01 2.223757e+01 1.904974e+01 1.359912e+01 1.082518e+00 1.363840e+00 1.343320e+00 1.550670e+00 1.396024e+00 1.587550e+00 1.518677e+00 1.533439e+00 1.650819e+00 1.521914e+00 1.338394e+00 1.149094e+00 1.725084e-03
<GCONST> 7.840736e+01
<MIXTURE> 23 6.455497e-03
<MEAN> 25
 7.910196e+00 2.445389e+00 3.153043e+00 2.370929e+00 -5.020319e+00 -3.148335e+00 -4.144311e+00 -6.516333e+00 -3.579920e+00 -1.026979e+00 -4.057960e+00 -2.081127e+00 3.672269e-02 1.734806e-01 9.664931e-03 5.706349e-02 1.794998e-02 2.577782e-02 3.152990e-02 -1.709040e-02 8.061978e-03 7.109859e-02 8.182248e-03 3.210359e-02 -4.057841e-03
<VARIANCE> 25
 1.027407e+01 2.188460e+01 2.477328e+01 4.110913e+01 3.860738e+01 5.686715e+01 5.908411e+01 5.360291e+01 4.783857e+01 4.606047e+01 4.810631e+01 4.003458e+01 1.169619e-01 2.962236e-01 3.758600e-01 4.785028e-01 6.162854e-01 7.945991e-01 7.844396e-01 9.440931e-01 8.754802e-01 8.810940e-01 8.077441e-01 7.912452e-01 9.320029e-05
<GCONST> 7.322355e+01
<MIXTURE> 24 6.455497e-03
<MEAN> 25
 7.910196e+00 2.445389e+00 3.153043e+00 2.370929e+00 -5.020319e+00 -3.148335e+00 -4.144311e+00 -6.516333e+00 -3.579920e+00 -1.026979e+00 -4.057960e+00 -2.081127e+00 3.672269e-02 1.734806e-01 9.664931e-03 5.706349e-02 1.794998e-02 2.577782e-02 3.152990e-02 -1.709040e-02 8.061978e-03 7.109859e-02 8.182248e-03 3.210359e-02 -4.057841e-03
<VARIANCE> 25
 1.027407e+01 2.188460e+01 2.477328e+01 4.110913e+01 3.860738e+01 5.686715e+01 5.908411e+01 5.360291e+01 4.783857e+01 4.606047e+01 4.810631e+01 4.003458e+01 1.169619e-01 2.962236e-01 3.758600e-01 4.785028e-01 6.162854e-01 7.945991e-01 7.844396e-01 9.440931e-01 8.754802e-01 8.810940e-01 8.077441e-01 7.912452e-01 9.320029e-05
<GCONST> 7.322355e+01
<MIXTURE> 25 1.118642e-02
<MEAN> 25
 2.853651e-03 2.879464e+00 1.455292e+01 -1.984717e+00 -1.150765e+01 -4.089089e-01 -5.205679e+00 -4.809601e+00 -8.081986e+00 -5.180335e+00 3.799273e+00 -8.464624e-01 4.227605e-02 5.152677e-01 2.536197e-01 -1.368416e-01 -2.633404e-01 3.132254e-01 3.593692e-01 1.428244e-02 2.801756e-01 3.083868e-01 2.128556e-01 1.138634e-01 -1.565031e-02
<VARIANCE> 25
 5.974421e+00 1.470120e+01 1.520387e+01 1.975656e+01 2.099553e+01 2.938326e+01 2.822910e+01 1.924380e+01 1.904193e+01 2.831619e+01 2.082408e+01 1.638655e+01 6.194782e-01 1.284057e+00 1.350866e+00 1.678572e+00 2.338693e+00 2.063378e+00 1.747859e+00 1.237940e+00 1.418068e+00 1.229260e+00 1.452580e+00 1.182451e+00 1.283923e-03
<GCONST> 7.834672e+01
<MIXTURE> 26 7.727677e-03
<MEAN> 25
 2.312737e+00 -6.060109e+00 -1.021581e+01 -2.526520e+00 8.573514e+00 5.473630e+00 6.159961e+00 -1.245613e-01 2.214267e+00 3.180846e+00 -3.231255e+00 -4.655804e+00 -6.282357e-01 7.056782e-01 3.975185e-01 7.833629e-01 1.471688e-01 3.251929e-01 9.526335e-02 1.867738e-01 5.234955e-01 1.818654e-01 4.669715e-01 5.213101e-01 -5.424074e-02
<VARIANCE> 25
 1.800563e+01 2.957888e+01 1.962653e+01 5.171395e+01 3.009135e+01 3.567426e+01 4.055017e+01 3.141971e+01 3.545140e+01 6.319186e+01 2.984171e+01 5.692110e+01 1.281503e+00 1.511873e+00 1.640321e+00 1.655773e+00 1.972066e+00 1.957310e+00 2.295266e+00 2.152219e+00 2.166961e+00 2.304649e+00 1.931989e+00 2.456319e+00 2.544210e-03
<GCONST> 9.022791e+01
<MIXTURE> 27 7.727677e-03
<MEAN> 25
 2.312737e+00 -6.060109e+00 -1.021581e+01 -2.526520e+00 8.573514e+00 5.473630e+00 6.159961e+00 -1.245613e-01 2.214267e+00 3.180846e+00 -3.231255e+00 -4.655804e+00 -6.282357e-01 7.056782e-01 3.975185e-01 7.833629e-01 1.471688e-01 3.251929e-01 9.526335e-02 1.867738e-01 5.234955e-01 1.818654e-01 4.669715e-01 5.213101e-01 -5.424074e-02
<VARIANCE> 25
 1.800563e+01 2.957888e+01 1.962653e+01 5.171395e+01 3.009135e+01 3.567426e+01 4.055017e+01 3.141971e+01 3.545140e+01 6.319186e+01 2.984171e+01 5.692110e+01 1.281503e+00 1.511873e+00 1.640321e+00 1.655773e+00 1.972066e+00 1.957310e+00 2.295266e+00 2.152219e+00 2.166961e+00 2.304649e+00 1.931989e+00 2.456319e+00 2.544210e-03
<GCONST> 9.022791e+01
<MIXTURE> 28 5.036674e-03
<MEAN> 25
 -5.483423e+00 4.198426e-01 -1.541281e+00 6.255676e+00 5.330197e+00 3.725589e+00 5.424764e+00 3.213951e+00 4.269853e+00 2.193775e+00 2.640555e+00 3.358907e+00 -9.133918e-02 2.240769e-01 4.985637e-01 7.984912e-01 7.985893e-01 6.970089e-01 4.928018e-01 4.073447e-01 4.600675e-01 5.019491e-01 4.124687e-01 2.218000e-01 -3.303505e-05
<VARIANCE> 25
 9.615331e+00 9.561972e+00 1.125019e+01 1.511649e+01 1.395583e+01 1.752792e+01 1.717773e+01 1.788623e+01 1.738240e+01 1.629650e+01 1.954979e+01 1.443727e+01 2.472409e-01 3.279182e-01 3.941566e-01 4.605169e-01 5.798534e-01 8.260457e-01 1.087724e+00 1.165192e+00 1.051455e+00 1.013265e+00 1.108126e+00 1.025054e+00 1.220477e-06
<GCONST> 5.997735e+01
<MIXTURE> 29 5.036674e-03
<MEAN> 25
 -5.483423e+00 4.198426e-01 -1.541281e+00 6.255676e+00 5.330197e+00 3.725589e+00 5.424764e+00 3.213951e+00 4.269853e+00 2.193775e+00 2.640555e+00 3.358907e+00 -9.133918e-02 2.240769e-01 4.985637e-01 7.984912e-01 7.985893e-01 6.970089e-01 4.928018e-01 4.073447e-01 4.600675e-01 5.019491e-01 4.124687e-01 2.218000e-01 -3.303505e-05
<VARIANCE> 25
 9.615331e+00 9.561972e+00 1.125019e+01 1.511649e+01 1.395583e+01 1.752792e+01 1.717773e+01 1.788623e+01 1.738240e+01 1.629650e+01 1.954979e+01 1.443727e+01 2.472409e-01 3.279182e-01 3.941566e-01 4.605169e-01 5.798534e-01 8.260457e-01 1.087724e+00 1.165192e+00 1.051455e+00 1.013265e+00 1.108126e+00 1.025054e+00 1.220477e-06
<GCONST> 5.997735e+01
<MIXTURE> 30 8.917812e-03
<MEAN> 25
 -4.845084e+00 1.422594e+00 -8.865216e-02 7.175330e+00 7.327083e+00 6.900827e+00 6.844771e+00 6.553840e+00 7.782195e+00 3.952615e+00 6.421821e+00 4.205946e+00 4.080383e-02 7.648584e-02 5.429508e-02 8.404861e-02 6.540514e-02 1.959298e-01 1.583601e-01 1.861137e-01 2.892938e-02 9.156663e-02 5.116333e-02 -6.689369e-03 -1.217113e-03
<VARIANCE> 25
 5.210719e+00 1.085244e+01 8.986205e+00 1.513801e+01 1.173231e+01 1.387315e+01 1.529092e+01 1.643810e+01 1.492688e+01 1.601679e+01 2.050904e+01 1.325693e+01 8.405254e-02 1.946528e-01 3.035034e-01 4.243990e-01 5.484122e-01 7.733721e-01 6.464645e-01 8.608000e-01 7.590156e-01 8.065942e-01 9.712437e-01 6.964270e-01 5.014320e-05
<GCONST> 5.820787e+01
<MIXTURE> 31 4.136493e-03
<MEAN> 25
 -3.479246e+00 -4.872647e+00 1.083345e-01 4.613860e+00 3.762805e+00 1.430894e+00 5.222970e+00 6.787244e+00 2.753083e+00 1.138412e+00 6.242638e+00 3.559087e+00 2.521555e-01 5.089070e-01 -1.994471e-01 3.499826e-01 6.483350e-02 3.667013e-01 1.092654e-01 -1.222123e-02 5.005451e-01 3.297692e-01 8.560900e-02 3.345677e-02 -1.885590e-02
<VARIANCE> 25
 6.765015e+00 2.032949e+01 1.617470e+01 1.748096e+01 2.359649e+01 2.305929e+01 2.239001e+01 2.490925e+01 2.646740e+01 2.600144e+01 1.965540e+01 2.055737e+01 1.751701e-01 4.734683e-01 5.932201e-01 7.318691e-01 9.628301e-01 1.141579e+00 1.297141e+00 1.321144e+00 1.584800e+00 1.406837e+00 1.185910e+00 1.189760e+00 2.662051e-04
<GCONST> 7.189798e+01
<MIXTURE> 32 4.136493e-03
<MEAN> 25
 -3.479246e+00 -4.872647e+00 1.083345e-01 4.613860e+00 3.762805e+00 1.430894e+00 5.222970e+00 6.787244e+00 2.753083e+00 1.138412e+00 6.242638e+00 3.559087e+00 2.521555e-01 5.089070e-01 -1.994471e-01 3.499826e-01 6.483350e-02 3.667013e-01 1.092654e-01 -1.222123e-02 5.005451e-01 3.297692e-01 8.560900e-02 3.345677e-02 -1.885590e-02
<VARIANCE> 25
 6.765015e+00 2.032949e+01 1.617470e+01 1.748096e+01 2.359649e+01 2.305929e+01 2.239001e+01 2.490925e+01 2.646740e+01 2.600144e+01 1.965540e+01 2.055737e+01 1.751701e-01 4.734683e-01 5.932201e-01 7.318691e-01 9.628301e-01 1.141579e+00 1.297141e+00 1.321144e+00 1.584800e+00 1.406837e+00 1.185910e+00 1.189760e+00 2.662051e-04
<GCONST> 7.189798e+01
<MIXTURE> 33 1.508826e-02
<MEAN> 25
 6.038857e+00 -4.403313e+00 -2.279351e+00 -2.133927e+00 -3.506606e+00 -4.559011e+00 -7.037313e+00 7.373552e-01 1.047719e+00 -4.212381e-01 -2.588911e+00 -3.610403e+00 5.456291e-01 -1.681880e+00 -2.243591e+00 -2.035418e+00 1.229936e+00 1.328164e+00 -2.660370e-01 8.177426e-01 9.368111e-01 8.674082e-01 -1.735683e-01 -1.430343e+00 4.431993e-02
<VARIANCE> 25
 7.094338e+00 2.194354e+01 2.394506e+01 2.601056e+01 3.389281e+01 3.253792e+01 4.296691e+01 3.944488e+01 4.607127e+01 4.085242e+01 3.279556e+01 2.441268e+01 1.138521e+00 2.182776e+00 1.768004e+00 1.598719e+00 2.822808e+00 3.038770e+00 3.770782e+00 4.144347e+00 4.219055e+00 3.437397e+00 3.600059e+00 1.815020e+00 1.141645e-03
<GCONST> 9.071915e+01
<MIXTURE> 34 1.588179e-02
<MEAN> 25
 8.815542e+00 -2.853103e-01 1.017892e-01 8.998539e-01 -2.788702e+00 -1.383371e+00 -5.585290e+00 -4.467818e+00 -1.838942e+00 1.085905e-01 -2.487658e+00 -3.821467e+00 -4.873598e-02 1.371239e+00 1.394267e+00 2.218926e+00 -1.631322e-01 -4.857114e-02 6.848562e-01 -1.528454e+00 -9.037657e-01 1.987315e-01 -4.730227e-01 1.120357e-01 -5.903733e-02
<VARIANCE> 25
 7.797715e+00 3.047574e+01 2.892195e+01 5.024501e+01 4.333669e+01 6.134305e+01 5.563368e+01 5.439910e+01 5.022791e+01 4.272834e+01 4.665630e+01 3.007492e+01 1.252534e+00 2.162891e+00 4.148845e+00 4.040961e+00 5.420883e+00 5.679614e+00 5.764006e+00 6.131866e+00 4.979853e+00 4.725234e+00 5.298996e+00 3.950151e+00 1.223663e-03
<GCONST> 9.981964e+01
<MIXTURE> 35 1.467755e-02
<MEAN> 25
 -2.289183e+00 -4.931611e+00 -1.013269e+01 3.089072e-01 9.962381e+00 5.204427e-01 2.994400e-01 8.534143e-01 7.133802e-01 3.527809e+00 -1.552534e+00 1.924143e+00 3.269695e-01 -1.087934e+00 -1.833452e+00 -1.208217e+00 9.851459e-01 -6.784202e-01 -1.008437e+00 -2.939347e-02 -1.012655e-01 3.801438e-01 -5.097336e-01 -7.237969e-01 1.128501e-01
<VARIANCE> 25
 1.758677e+01 2.480068e+01 4.731453e+01 4.761077e+01 3.734033e+01 4.376120e+01 6.595324e+01 3.822337e+01 3.850378e+01 3.942120e+01 3.509065e+01 2.587176e+01 2.840872e+00 3.341691e+00 7.505414e+00 4.142292e+00 5.319802e+00 4.333315e+00 4.633561e+00 3.844179e+00 4.351972e+00 4.216689e+00 4.592017e+00 3.058737e+00 5.584035e-03
<GCONST> 1.011815e+02
<MIXTURE> 36 1.093293e-02
<MEAN> 25
 5.165499e+00 -3.818059e+00 5.679128e+00 2.779689e+00 -9.819903e+00 -7.669534e+00 -6.926499e+00 2.137069e+00 -2.518167e+00 -4.317931e+00 2.624922e+00 7.324244e-02 1.962574e-01 3.191732e-01 -3.121171e-01 -2.889470e-02 5.486847e-01 4.163213e-02 3.001627e-02 2.287740e-01 2.553693e-01 6.752502e-01 -5.671654e-01 -5.360099e-02 -2.043639e-02
<VARIANCE> 25
 8.289073e+00 1.673124e+01 1.966239e+01 2.126898e+01 2.385050e+01 2.940349e+01 5.066480e+01 3.056453e+01 2.874514e+01 2.174886e+01 2.118976e+01 3.165765e+01 5.124831e-01 7.199752e-01 1.835792e+00 1.144818e+00 1.783254e+00 1.576544e+00 2.104141e+00 2.169998e+00 1.995258e+00 1.675442e+00 1.418781e+00 1.721536e+00 1.040222e-03
<GCONST> 8.128916e+01
<MIXTURE> 37 1.246826e-02
<MEAN> 25
 2.830980e-01 7.439172e+00 1.252112e+01 -4.395434e+00 -8.323256e+00 -1.817234e+00 -3.989374e+00 -7.039284e+00 -4.209261e+00 1.886794e-01 -2.549802e+00 1.855468e-01 2.173138e-01 4.509142e-01 -1.458095e+00 2.845472e+00 2.154078e+00 -2.394203e-01 1.151532e+00 4.885940e-01 8.244524e-01 -2.582417e-01 1.491937e-01 1.346443e-03 -8.928867e-02
<VARIANCE> 25
 1.265863e+01 2.066044e+01 2.610416e+01 4.405393e+01 3.209895e+01 2.950573e+01 3.528602e+01 2.978529e+01 3.280211e+01 3.122789e+01 3.979002e+01 2.744543e+01 2.264659e+00 3.128894e+00 2.528535e+00 4.081625e+00 3.956694e+00 3.000028e+00 4.741130e+00 3.190135e+00 2.798603e+00 2.886180e+00 4.835010e+00 2.251875e+00 2.987209e-03
<GCONST> 9.444543e+01
<MIXTURE> 38 1.154525e-02
<MEAN> 25
 -4.739910e+00 9.550763e+00 2.618139e+00 2.573523e+00 2.282079e+00 -5.485469e+00 -3.614584e-01 -2.334497e+00 -1.852142e+00 -2.887285e+00 -7.641954e-01 -5.534206e-02 -4.462130e+00 1.649821e+00 -6.176050e-01 1.130798e+00 3.027226e+00 1.121754e+00 1.587624e+00 7.661048e-01 6.309277e-01 1.691044e-01 8.999962e-01 1.785538e-01 4.805219e-02
<VARIANCE> 25
 3.133118e+01 2.541385e+01 5.145542e+01 2.583254e+01 5.014804e+01 2.778955e+01 3.012772e+01 3.795523e+01 2.885098e+01 3.421174e+01 2.367746e+01 2.952097e+01 2.108016e+00 3.751591e+00 3.258069e+00 4.164516e+00 6.123878e+00 4.403695e+00 4.187881e+00 3.609609e+00 3.315082e+00 4.065798e+00 4.559693e+00 3.071466e+00 1.701819e-03
<GCONST> 9.709556e+01
<MIXTURE> 39 9.501865e-03
<MEAN> 25
 1.080638e+00 2.116222e+00 1.104996e+01 -7.701746e+00 -1.228831e+01 -1.203554e+00 -2.184324e+00 -5.792087e+00 -5.851059e+00 7.017562e-01 -2.427543e+00 -1.548122e+00 -6.972924e-01 1.788944e+00 1.697094e+00 -1.115261e+00 1.351444e-01 1.205848e+00 -1.050808e+00 -1.542509e+00 5.246221e-02 4.745868e-01 -6.752002e-01 3.650911e-01 -5.796347e-03
<VARIANCE> 25
 6.981785e+00 2.469885e+01 2.666520e+01 3.379768e+01 3.293497e+01 3.632771e+01 3.825521e+01 2.915496e+01 3.527996e+01 2.540606e+01 3.252225e+01 2.433236e+01 5.499781e-01 1.645954e+00 1.296507e+00 2.524472e+00 2.493292e+00 2.719429e+00 3.327467e+00 2.784922e+00 2.648408e+00 2.103001e+00 2.207276e+00 1.922572e+00 1.252672e-03
<GCONST> 8.718367e+01
<MIXTURE> 40 1.030800e-02
<MEAN> 25
 -8.563882e+00 2.425676e+00 -1.176458e+00 6.806828e+00 4.240273e+00 5.471094e+00 5.211251e+00 4.243920e+00 5.000001e+00 3.926044e+00 5.266540e+00 2.275291e+00 -7.788114e-02 -1.616192e-01 3.678747e-02 -1.724481e-01 -8.820866e-02 -1.160063e-01 8.148481e-02 1.424577e-01 -8.836310e-02 8.791142e-02 1.358466e-02 9.546339e-02 6.058897e-03
<VARIANCE> 25
 3.551921e+01 1.726546e+01 2.509245e+01 2.888732e+01 2.344457e+01 1.715793e+01 1.738399e+01 1.743245e+01 1.636064e+01 1.833995e+01 1.669801e+01 1.492995e+01 7.570014e-01 7.308646e-01 8.695838e-01 9.855424e-01 1.078445e+00 1.238486e+00 1.311985e+00 1.332250e+00 1.297941e+00 1.497124e+00 1.098260e+00 1.155325e+00 8.451845e-04
<GCONST> 7.581335e+01
<MIXTURE> 41 6.713375e-03
<MEAN> 25
 1.406372e+00 1.674460e+00 1.048743e+01 -6.099033e+00 -1.065422e+01 -3.816641e+00 -2.271537e+00 -5.460697e+00 -4.928072e+00 2.417998e+00 -1.849606e+00 -2.599909e-01 7.746989e-02 -7.273275e-01 1.616011e+00 -3.337174e+00 -2.429516e+00 -2.686994e-01 -3.241483e-01 -3.419919e-01 -9.180297e-01 1.106476e+00 -1.049975e+00 1.012635e-01 8.346778e-02
<VARIANCE> 25
 1.095019e+01 2.773112e+01 3.027388e+01 4.653376e+01 3.712928e+01 3.854777e+01 3.594611e+01 3.015525e+01 3.195948e+01 2.746638e+01 3.062351e+01 3.220435e+01 2.983355e+00 3.102837e+00 3.637222e+00 4.058758e+00 4.555316e+00 6.076481e+00 4.739891e+00 4.285184e+00 3.808784e+00 3.970371e+00 3.700652e+00 3.005814e+00 2.801640e-03
<GCONST> 9.733634e+01
<MIXTURE> 42 1.106211e-02
<MEAN> 25
 -1.566041e+00 4.377112e+00 3.566534e+00 3.058950e+00 9.679878e-01 -5.059512e+00 -3.124956e+00 -3.066244e+00 -1.864216e+00 -1.571010e+00 -2.216680e+00 9.150700e-01 3.875196e+00 -5.296777e-01 2.070032e+00 4.652178e-01 -3.527060e+00 -1.197072e+00 -1.957427e+00 -1.018126e+00 -6.247712e-01 -9.973924e-01 7.010859e-01 -1.139547e+00 2.469619e-02
<VARIANCE> 25
 3.126053e+01 1.894245e+01 4.511538e+01 2.095771e+01 4.711493e+01 3.510822e+01 4.448767e+01 2.755571e+01 2.853085e+01 2.380771e+01 1.756256e+01 2.272887e+01 2.922159e+00 3.961708e+00 6.650911e+00 3.853049e+00 4.777428e+00 4.721590e+00 4.469751e+00 5.027520e+00 4.367314e+00 3.998887e+00 3.511153e+00 2.650151e+00 4.071047e-03
<GCONST> 9.772306e+01
<MIXTURE> 43 7.108249e-03
<MEAN> 25
 3.678151e+00 -7.433532e+00 -2.380334e+00 -4.791248e+00 -7.400120e+00 -4.253761e+00 4.009920e+00 1.312383e+00 -3.201902e+00 -6.319333e+00 -4.190452e+00 -1.804290e+00 3.173352e-01 1.994212e+00 2.018237e+00 -5.319028e-02 -1.410578e+00 -5.571159e-01 -1.058355e+00 -5.200630e-01 8.695285e-01 1.386978e+00 3.654358e-01 9.000164e-03 -4.762691e-02
<VARIANCE> 25
 9.643994e+00 2.754888e+01 2.426000e+01 3.329535e+01 3.469453e+01 3.484757e+01 3.359051e+01 3.607057e+01 5.580817e+01 3.638131e+01 2.346932e+01 2.707302e+01 7.384787e-01 1.210946e+00 1.565294e+00 2.327204e+00 2.061275e+00 2.456477e+00 2.359225e+00 2.991812e+00 2.272491e+00 2.594159e+00 2.218769e+00 1.636145e+00 1.022261e-03
<GCONST> 8.742590e+01
<MIXTURE> 44 7.328289e-03
<MEAN> 25
 -1.490050e+01 1.833781e+00 3.356871e+00 -3.050318e+00 3.695785e+00 1.830497e+00 5.191524e-02 2.635814e+00 1.685354e+00 -7.510489e-01 1.944335e+00 2.154047e+00 -1.869852e-01 5.692614e-03 1.451882e-01 3.023215e-01 -1.061373e-01 2.175640e-01 4.572705e-01 1.237674e-01 2.456604e-01 8.830918e-02 3.290644e-02 1.085406e-01 2.760419e-03
<VARIANCE> 25
 4.403881e+01 2.772649e+01 3.368429e+01 2.949541e+01 3.081882e+01 3.066260e+01 2.407390e+01 3.455273e+01 2.725811e+01 2.742650e+01 2.599919e+01 1.939932e+01 1.190941e+00 1.513220e+00 1.342586e+00 1.290079e+00 2.151609e+00 1.624567e+00 1.467703e+00 1.630425e+00 1.612331e+00 1.613750e+00 1.375508e+00 1.181705e+00 1.308710e-03
<GCONST> 8.443620e+01
<MIXTURE> 45 1.364932e-02
<MEAN> 25
 -1.207486e+01 4.129519e+00 -1.320013e+00 2.559720e+00 6.052604e+00 -1.330208e-01 4.624637e+00 2.883511e+00 3.423457e+00 2.127930e+00 2.405911e+00 2.855720e+00 -2.866883e+00 6.258472e-01 -4.197969e-01 -4.354626e-01 3.656332e-01 9.415612e-03 3.382285e-01 1.411580e-01 -1.432625e-01 -3.275268e-02 2.799629e-01 1.779184e-01 1.118339e-01
<VARIANCE> 25
 3.294799e+01 3.236713e+01 2.930587e+01 3.188970e+01 3.068167e+01 3.309070e+01 3.180699e+01 2.781228e+01 2.353318e+01 2.574409e+01 2.555258e+01 1.582210e+01 2.380064e+00 2.869186e+00 2.687617e+00 2.479172e+00 2.661751e+00 2.450973e+00 2.214807e+00 2.151110e+00 2.236070e+00 2.031797e+00 2.245308e+00 1.655028e+00 4.016972e-03
<GCONST> 9.043934e+01
<MIXTURE> 46 9.336259e-03
<MEAN> 25
 -9.425145e+00 2.334040e+00 1.183328e+00 7.484231e+00 5.956420e+00 3.336188e+00 7.046111e+00 4.559352e+00 5.731786e+00 4.677887e+00 5.017956e+00 2.945613e+00 1.044829e+00 -2.303379e-01 3.933851e-02 9.989594e-01 5.954161e-01 9.419812e-01 3.786356e-01 6.609266e-01 4.646130e-01 4.986459e-01 6.306400e-01 5.249068e-01 -1.046423e-01
<VARIANCE> 25
 3.404504e+01 4.343512e+01 3.821791e+01 5.003871e+01 5.039998e+01 4.051791e+01 3.684816e+01 3.579200e+01 3.295669e+01 3.080226e+01 2.802144e+01 2.013246e+01 3.893969e+00 4.111354e+00 3.850575e+00 4.106448e+00 4.147910e+00 3.665593e+00 3.356034e+00 3.117111e+00 2.982905e+00 2.878392e+00 2.302582e+00 1.774645e+00 7.986848e-03
<GCONST> 9.819736e+01
<MIXTURE> 47 7.116147e-03
<MEAN> 25
 6.826395e+00 -8.749031e+00 -7.337623e+00 -6.209415e+00 6.457023e-01 1.320945e-01 -2.049819e+00 1.615100e+00 2.020546e+00 6.523663e-01 -3.806565e+00 -7.135119e+00 -1.140161e-01 -1.314566e+00 -8.671223e-01 -5.260978e-01 8.795617e-01 6.458613e-01 1.202345e+00 3.144153e-01 2.418095e-01 -6.785120e-01 -7.082870e-01 -4.069370e-01 3.003473e-02
<VARIANCE> 25
 9.194867e+00 2.397543e+01 1.806646e+01 2.896994e+01 3.433926e+01 4.407203e+01 4.335723e+01 3.275245e+01 4.655079e+01 4.806813e+01 4.564005e+01 2.976383e+01 4.198128e-01 9.348670e-01 1.047404e+00 1.631767e+00 1.796096e+00 2.720183e+00 2.163307e+00 2.219467e+00 2.315071e+00 1.914790e+00 2.132514e+00 1.880084e+00 5.164010e-04
<GCONST> 8.517567e+01
<MIXTURE> 48 7.116147e-03
<MEAN> 25
 6.826395e+00 -8.749031e+00 -7.337623e+00 -6.209415e+00 6.457023e-01 1.320945e-01 -2.049819e+00 1.615100e+00 2.020546e+00 6.523663e-01 -3.806565e+00 -7.135119e+00 -1.140161e-01 -1.314566e+00 -8.671223e-01 -5.260978e-01 8.795617e-01 6.458613e-01 1.202345e+00 3.144153e-01 2.418095e-01 -6.785120e-01 -7.082870e-01 -4.069370e-01 3.003473e-02
<VARIANCE> 25
 9.194867e+00 2.397543e+01 1.806646e+01 2.896994e+01 3.433926e+01 4.407203e+01 4.335723e+01 3.275245e+01 4.655079e+01 4.806813e+01 4.564005e+01 2.976383e+01 4.198128e-01 9.348670e-01 1.047404e+00 1.631767e+00 1.796096e+00 2.720183e+00 2.163307e+00 2.219467e+00 2.315071e+00 1.914790e+00 2.132514e+00 1.880084e+00 5.164010e-04
<GCONST> 8.517567e+01
<MIXTURE> 49 5.548473e-03
<MEAN> 25
 -5.175567e+00 1.040341e+00 -1.224953e-01 7.398375e+00 6.599033e+00 5.775870e+00 5.546177e+00 4.417378e+00 5.052108e+00 3.430689e+00 4.638526e+00 2.683512e+00 3.177810e-01 6.490436e-01 7.258840e-01 4.110910e-01 -2.207052e-01 -6.588666e-01 -9.827572e-01 -1.059226e+00 -8.987435e-01 -6.910754e-01 -5.062810e-01 -1.614492e-01 -6.734612e-04
<VARIANCE> 25
 8.342122e+00 1.111285e+01 1.274464e+01 1.938340e+01 1.535315e+01 1.612808e+01 1.810652e+01 1.704610e+01 2.147510e+01 1.780888e+01 1.895254e+01 1.668420e+01 2.666896e-01 2.610653e-01 4.044145e-01 6.023965e-01 8.286126e-01 8.902668e-01 9.515175e-01 1.019955e+00 1.127118e+00 1.677092e+00 1.381891e+00 1.207453e+00 1.774636e-05
<GCONST> 6.473134e+01
<MIXTURE> 50 6.234641e-03
<MEAN> 25
 -4.820377e+00 4.137335e-01 -1.388673e+00 5.601193e+00 4.492961e+00 2.258419e+00 3.680542e+00 2.305981e+00 3.151286e+00 1.317087e+00 2.282593e+00 2.999750e+00 5.001280e-02 1.690591e-01 1.020005e-01 -1.885722e-01 -5.119979e-01 -6.462747e-01 -3.918815e-01 4.577379e-02 4.193710e-01 7.363937e-01 6.686344e-01 4.413262e-01 -1.001026e-04
<VARIANCE> 25
 9.740250e+00 1.134311e+01 1.337301e+01 1.741990e+01 1.497978e+01 1.796362e+01 1.738702e+01 1.932241e+01 2.058222e+01 1.784513e+01 2.046749e+01 1.422589e+01 1.371300e-01 2.411223e-01 3.674104e-01 5.521414e-01 6.211376e-01 7.499475e-01 9.340623e-01 1.300590e+00 1.115070e+00 9.466572e-01 1.105113e+00 9.602426e-01 1.251630e-06
<GCONST> 6.004331e+01
<MIXTURE> 51 6.234641e-03
<MEAN> 25
 -4.820377e+00 4.137335e-01 -1.388673e+00 5.601193e+00 4.492961e+00 2.258419e+00 3.680542e+00 2.305981e+00 3.151286e+00 1.317087e+00 2.282593e+00 2.999750e+00 5.001280e-02 1.690591e-01 1.020005e-01 -1.885722e-01 -5.119979e-01 -6.462747e-01 -3.918815e-01 4.577379e-02 4.193710e-01 7.363937e-01 6.686344e-01 4.413262e-01 -1.001026e-04
<VARIANCE> 25
 9.740250e+00 1.134311e+01 1.337301e+01 1.741990e+01 1.497978e+01 1.796362e+01 1.738702e+01 1.932241e+01 2.058222e+01 1.784513e+01 2.046749e+01 1.422589e+01 1.371300e-01 2.411223e-01 3.674104e-01 5.521414e-01 6.211376e-01 7.499475e-01 9.340623e-01 1.300590e+00 1.115070e+00 9.466572e-01 1.105113e+00 9.602426e-01 1.251630e-06
<GCONST> 6.004331e+01
<MIXTURE> 52 6.367945e-03
<MEAN> 25
 1.005301e+01 1.397797e+00 -5.875545e+00 -1.398222e+01 -4.661085e+00 1.009137e+01 -3.073205e+00 -3.016205e+00 -4.313828e+00 -2.602666e+00 3.535732e+00 3.403467e-01 -3.960042e-01 -4.488337e-01 -2.722510e-01 1.159833e+00 1.240987e+00 -5.798051e-01 -6.402524e-01 -7.227021e-01 1.593395e-01 1.257377e+00 2.634632e-01 -2.921034e-01 -1.153814e-02
<VARIANCE> 25
 8.457220e+00 2.209495e+01 2.467142e+01 3.559810e+01 4.324442e+01 4.776169e+01 4.303695e+01 4.481678e+01 3.901144e+01 4.346488e+01 3.672264e+01 2.919690e+01 4.135384e-01 1.344947e+00 1.563073e+00 2.608673e+00 2.306436e+00 2.362472e+00 2.744927e+00 2.618063e+00 2.925115e+00 2.490233e+00 2.672055e+00 2.643168e+00 1.439664e-03
<GCONST> 8.944987e+01
<MIXTURE> 53 6.367945e-03
<MEAN> 25
 1.005301e+01 1.397797e+00 -5.875545e+00 -1.398222e+01 -4.661085e+00 1.009137e+01 -3.073205e+00 -3.016205e+00 -4.313828e+00 -2.602666e+00 3.535732e+00 3.403467e-01 -3.960042e-01 -4.488337e-01 -2.722510e-01 1.159833e+00 1.240987e+00 -5.798051e-01 -6.402524e-01 -7.227021e-01 1.593395e-01 1.257377e+00 2.634632e-01 -2.921034e-01 -1.153814e-02
<VARIANCE> 25
 8.457220e+00 2.209495e+01 2.467142e+01 3.559810e+01 4.324442e+01 4.776169e+01 4.303695e+01 4.481678e+01 3.901144e+01 4.346488e+01 3.672264e+01 2.919690e+01 4.135384e-01 1.344947e+00 1.563073e+00 2.608673e+00 2.306436e+00 2.362472e+00 2.744927e+00 2.618063e+00 2.925115e+00 2.490233e+00 2.672055e+00 2.643168e+00 1.439664e-03
<GCONST> 8.944987e+01
<MIXTURE> 54 7.368620e-03
<MEAN> 25
 -3.838357e+00 5.276477e-01 -7.820399e-01 7.359140e+00 6.533900e+00 4.829709e+00 4.749660e+00 4.649252e+00 4.317161e+00 2.972642e+00 4.179422e+00 2.368573e+00 1.801492e-03 2.426484e-02 5.854520e-04 2.184881e-02 6.422515e-02 1.308898e-01 1.015280e-01 5.752394e-02 4.050460e-02 4.642988e-02 6.272722e-02 -2.993438e-02 9.236869e-05
<VARIANCE> 25
 8.536042e+00 1.103333e+01 8.512758e+00 1.981599e+01 1.257461e+01 1.457665e+01 1.129929e+01 1.132649e+01 1.116917e+01 1.599673e+01 1.696637e+01 1.173153e+01 3.899786e-02 9.307718e-02 1.716538e-01 2.209708e-01 2.944786e-01 4.457328e-01 4.729001e-01 5.128357e-01 5.372088e-01 5.022207e-01 5.110899e-01 5.270650e-01 1.177273e-06
<GCONST> 4.755037e+01
<MIXTURE> 55 7.368620e-03
<MEAN> 25
 -3.838357e+00 5.276477e-01 -7.820399e-01 7.359140e+00 6.533900e+00 4.829709e+00 4.749660e+00 4.649252e+00 4.317161e+00 2.972642e+00 4.179422e+00 2.368573e+00 1.801492e-03 2.426484e-02 5.854520e-04 2.184881e-02 6.422515e-02 1.308898e-01 1.015280e-01 5.752394e-02 4.050460e-02 4.642988e-02 6.272722e-02 -2.993438e-02 9.236869e-05
<VARIANCE> 25
 8.536042e+00 1.103333e+01 8.512758e+00 1.981599e+01 1.257461e+01 1.457665e+01 1.129929e+01 1.132649e+01 1.116917e+01 1.599673e+01 1.696637e+01 1.173153e+01 3.899786e-02 9.307718e-02 1.716538e-01 2.209708e-01 2.944786e-01 4.457328e-01 4.729001e-01 5.128357e-01 5.372088e-01 5.022207e-01 5.110899e-01 5.270650e-01 1.177273e-06
<GCONST> 4.755037e+01
<MIXTURE> 56 6.132464e-03
<MEAN> 25
 7.231533e+00 -7.702996e+00 -9.062917e+00 -9.023785e+00 4.204262e+00 4.560835e+00 -2.236972e+00 -1.099218e+00 1.305495e+00 1.176646e+00 -2.361099e+00 -7.444076e+00 -9.869039e-03 8.131644e-02 -1.833451e-01 -8.364397e-02 3.137245e-01 2.617518e-01 1.266055e-01 -7.869413e-02 -1.319794e-01 -4.173082e-02 -7.407005e-03 4.785505e-02 -6.154119e-03
<VARIANCE> 25
 9.534294e+00 2.671900e+01 2.038964e+01 3.817112e+01 3.235734e+01 5.464377e+01 5.631061e+01 3.274787e+01 3.693800e+01 3.935468e+01 3.529128e+01 2.836755e+01 1.955233e-01 4.147058e-01 4.876722e-01 7.813643e-01 9.244580e-01 1.517203e+00 1.025875e+00 8.351972e-01 8.874072e-01 8.346247e-01 1.087353e+00 9.833778e-01 2.295694e-04
<GCONST> 7.542660e+01
<MIXTURE> 57 6.132464e-03
<MEAN> 25
 7.231533e+00 -7.702996e+00 -9.062917e+00 -9.023785e+00 4.204262e+00 4.560835e+00 -2.236972e+00 -1.099218e+00 1.305495e+00 1.176646e+00 -2.361099e+00 -7.444076e+00 -9.869039e-03 8.131644e-02 -1.833451e-01 -8.364397e-02 3.137245e-01 2.617518e-01 1.266055e-01 -7.869413e-02 -1.319794e-01 -4.173082e-02 -7.407005e-03 4.785505e-02 -6.154119e-03
<VARIANCE> 25
 9.534294e+00 2.671900e+01 2.038964e+01 3.817112e+01 3.235734e+01 5.464377e+01 5.631061e+01 3.274787e+01 3.693800e+01 3.935468e+01 3.529128e+01 2.836755e+01 1.955233e-01 4.147058e-01 4.876722e-01 7.813643e-01 9.244580e-01 1.517203e+00 1.025875e+00 8.351972e-01 8.874072e-01 8.346247e-01 1.087353e+00 9.833778e-01 2.295694e-04
<GCONST> 7.542660e+01
<MIXTURE> 58 6.172147e-03
<MEAN> 25
 2.817349e+00 -2.838208e+00 6.821637e+00 -5.071237e+00 -1.337299e+01 -4.351511e+00 1.533263e+00 7.798395e-02 -2.776600e+00 1.145643e+00 8.249829e-01 -4.660451e-01 -7.127917e-02 -4.449927e-02 -9.930727e-02 2.232416e-02 -1.503785e-01 -9.372249e-02 4.718642e-01 3.067826e-01 1.046599e-01 -4.456357e-03 -1.716515e-01 -9.816667e-02 -2.507373e-03
<VARIANCE> 25
 6.534369e+00 1.718115e+01 2.041384e+01 2.455751e+01 2.002598e+01 5.343127e+01 3.024660e+01 3.185662e+01 3.025668e+01 2.787743e+01 2.138346e+01 1.779325e+01 3.110394e-01 7.897031e-01 8.157276e-01 1.100607e+00 1.125138e+00 1.477691e+00 1.065248e+00 1.198529e+00 1.019808e+00 9.802337e-01 1.076607e+00 8.296351e-01 7.456614e-04
<GCONST> 7.533647e+01
<MIXTURE> 59 6.172147e-03
<MEAN> 25
 2.817349e+00 -2.838208e+00 6.821637e+00 -5.071237e+00 -1.337299e+01 -4.351511e+00 1.533263e+00 7.798395e-02 -2.776600e+00 1.145643e+00 8.249829e-01 -4.660451e-01 -7.127917e-02 -4.449927e-02 -9.930727e-02 2.232416e-02 -1.503785e-01 -9.372249e-02 4.718642e-01 3.067826e-01 1.046599e-01 -4.456357e-03 -1.716515e-01 -9.816667e-02 -2.507373e-03
<VARIANCE> 25
 6.534369e+00 1.718115e+01 2.041384e+01 2.455751e+01 2.002598e+01 5.343127e+01 3.024660e+01 3.185662e+01 3.025668e+01 2.787743e+01 2.138346e+01 1.779325e+01 3.110394e-01 7.897031e-01 8.157276e-01 1.100607e+00 1.125138e+00 1.477691e+00 1.065248e+00 1.198529e+00 1.019808e+00 9.802337e-01 1.076607e+00 8.296351e-01 7.456614e-04
<GCONST> 7.533647e+01
<MIXTURE> 60 4.479129e-03
<MEAN> 25
 -4.629588e+00 2.098888e-02 -1.384956e+00 3.145406e+00 2.154096e+00 2.114224e+00 1.618621e+00 1.269212e+00 2.902887e+00 1.199008e+00 2.378550e+00 2.323305e+00 -5.034058e-02 4.828752e-02 9.625230e-02 9.594560e-02 1.543430e-01 1.345891e-01 7.104715e-02 3.413816e-01 5.697526e-01 7.133412e-01 5.918203e-01 3.545680e-01 5.206514e-04
<VARIANCE> 25
 6.367565e+00 5.773667e+00 8.991917e+00 1.161267e+01 1.256401e+01 1.532500e+01 1.259902e+01 1.153796e+01 1.330394e+01 1.252707e+01 1.505264e+01 1.117651e+01 7.622083e-02 1.580219e-01 2.615090e-01 4.154580e-01 5.282679e-01 7.303367e-01 7.756945e-01 9.108440e-01 8.902033e-01 8.428346e-01 8.975297e-01 8.190442e-01 2.762209e-05
<GCONST> 5.565028e+01
<MIXTURE> 61 4.479129e-03
<MEAN> 25
 -4.629588e+00 2.098888e-02 -1.384956e+00 3.145406e+00 2.154096e+00 2.114224e+00 1.618621e+00 1.269212e+00 2.902887e+00 1.199008e+00 2.378550e+00 2.323305e+00 -5.034058e-02 4.828752e-02 9.625230e-02 9.594560e-02 1.543430e-01 1.345891e-01 7.104715e-02 3.413816e-01 5.697526e-01 7.133412e-01 5.918203e-01 3.545680e-01 5.206514e-04
<VARIANCE> 25
 6.367565e+00 5.773667e+00 8.991917e+00 1.161267e+01 1.256401e+01 1.532500e+01 1.259902e+01 1.153796e+01 1.330394e+01 1.252707e+01 1.505264e+01 1.117651e+01 7.622083e-02 1.580219e-01 2.615090e-01 4.154580e-01 5.282679e-01 7.303367e-01 7.756945e-01 9.108440e-01 8.902033e-01 8.428346e-01 8.975297e-01 8.190442e-01 2.762209e-05
<GCONST> 5.565028e+01
<MIXTURE> 62 3.278034e-03
<MEAN> 25
 -5.053109e+00 1.428009e+00 9.895061e-01 8.553105e+00 6.115319e+00 5.071401e+00 5.449816e+00 4.073206e+00 5.158717e+00 3.765615e+00 4.748186e+00 2.786584e+00 -9.740362e-01 -1.147240e+00 -9.394848e-01 -2.859984e-01 4.097572e-01 9.636792e-01 1.342587e+00 1.513063e+00 1.481769e+00 1.257124e+00 1.073931e+00 7.691396e-01 -1.295296e-03
<VARIANCE> 25
 9.466048e+00 1.025887e+01 1.260720e+01 1.735608e+01 1.683102e+01 1.741785e+01 1.924135e+01 1.828770e+01 1.854926e+01 1.881756e+01 2.205279e+01 1.500522e+01 3.991608e-01 4.259144e-01 5.343551e-01 7.756347e-01 9.980350e-01 1.178569e+00 1.244862e+00 1.254865e+00 1.275455e+00 1.313641e+00 1.355205e+00 1.370183e+00 1.623578e-05
<GCONST> 6.717447e+01
<MIXTURE> 63 4.351215e-03
<MEAN> 25
 -4.404211e+00 -1.138574e+00 -4.046807e+00 2.539231e+00 3.581100e+00 -5.779231e-03 2.502339e+00 1.512431e+00 3.383057e+00 -7.848273e-01 -5.683992e-01 2.942701e+00 -7.888099e-02 3.253702e-01 3.606816e-01 4.559093e-01 3.299438e-01 4.146273e-01 3.680938e-01 1.145683e-01 8.069763e-02 2.128371e-01 3.031495e-01 2.161978e-01 -4.565592e-03
<VARIANCE> 25
 7.609968e+00 1.856396e+01 1.572111e+01 1.398434e+01 1.586127e+01 2.368798e+01 2.079435e+01 2.281996e+01 2.752886e+01 1.900197e+01 2.005369e+01 1.601455e+01 2.528832e-01 4.131296e-01 5.483630e-01 6.607967e-01 8.711613e-01 1.194806e+00 1.148972e+00 1.654027e+00 1.580193e+00 1.570202e+00 1.501216e+00 1.199987e+00 1.799578e-04
<GCONST> 7.069614e+01
<MIXTURE> 64 4.351215e-03
<MEAN> 25
 -4.404211e+00 -1.138574e+00 -4.046807e+00 2.539231e+00 3.581100e+00 -5.779231e-03 2.502339e+00 1.512431e+00 3.383057e+00 -7.848273e-01 -5.683992e-01 2.942701e+00 -7.888099e-02 3.253702e-01 3.606816e-01 4.559093e-01 3.299438e-01 4.146273e-01 3.680938e-01 1.145683e-01 8.069763e-02 2.128371e-01 3.031495e-01 2.161978e-01 -4.565592e-03
<VARIANCE> 25
 7.609968e+00 1.856396e+01 1.572111e+01 1.398434e+01 1.586127e+01 2.368798e+01 2.079435e+01 2.281996e+01 2.752886e+01 1.900197e+01 2.005369e+01 1.601455e+01 2.528832e-01 4.131296e-01 5.483630e-01 6.607967e-01 8.711613e-01 1.194806e+00 1.148972e+00 1.654027e+00 1.580193e+00 1.570202e+00 1.501216e+00 1.199987e+00 1.799578e-04
<GCONST> 7.069614e+01
<MIXTURE> 65 1.721197e-02
<MEAN> 25
 7.400659e+00 9.721161e-01 1.663126e+00 1.659877e+00 -5.565379e+00 -5.064887e+00 -5.886587e+00 -5.401046e+00 -3.881525e+00 -2.099633e+00 -3.881892e+00 -2.166024e+00 2.022773e-01 4.650441e-03 1.439966e-01 2.635476e-02 -3.192261e-01 3.503407e-01 1.060659e-01 2.755473e-02 2.378582e-01 2.600761e-02 -2.686198e-02 -1.997877e-01 -3.747023e-03
<VARIANCE> 25
 9.083694e+00 2.260393e+01 2.562505e+01 3.687368e+01 3.331856e+01 8.320676e+01 5.880177e+01 4.581278e+01 4.145789e+01 4.572999e+01 4.399869e+01 4.559741e+01 4.663140e-01 7.889132e-01 1.952147e+00 1.381084e+00 2.105284e+00 3.195841e+00 1.997113e+00 3.257591e+00 2.399470e+00 2.623549e+00 2.015869e+00 1.747228e+00 4.562815e-04
<GCONST> 8.827747e+01
<MIXTURE> 66 1.191532e-02
<MEAN> 25
 6.755449e+00 -4.400975e+00 -5.547184e+00 -4.342302e+00 7.745265e-01 -4.886185e+00 -6.519934e+00 1.181754e+00 1.417783e+00 -1.566097e+00 -5.820704e+00 -3.501539e+00 -8.937426e-02 1.636699e+00 2.203425e+00 2.207268e+00 -1.273720e+00 -1.311804e+00 -2.226016e-02 -4.315216e-01 -1.520516e-01 -1.589193e-01 -1.754458e-01 9.634193e-01 -5.864399e-02
<VARIANCE> 25
 8.231446e+00 2.341326e+01 2.532604e+01 3.198830e+01 4.137665e+01 5.413263e+01 5.652400e+01 4.271550e+01 5.775850e+01 6.221404e+01 3.399761e+01 3.541722e+01 1.356731e+00 2.350792e+00 2.313973e+00 2.360254e+00 3.744143e+00 5.421031e+00 4.546179e+00 4.811114e+00 3.921576e+00 4.564705e+00 3.940268e+00 3.171476e+00 1.616609e-03
<GCONST> 9.662525e+01
<MIXTURE> 67 1.559142e-02
<MEAN> 25
 8.920011e+00 2.043642e+00 -6.056688e+00 -8.087109e+00 1.008168e+00 2.832423e+00 -3.186203e+00 -2.506646e+00 -3.731925e+00 8.768675e-01 1.670651e-01 -1.957290e+00 -1.109363e+00 1.904876e+00 9.945644e-01 3.026801e+00 1.304212e+00 -4.707031e-01 1.180580e+00 9.599543e-02 1.682910e-01 2.183744e-01 -2.097700e-01 5.795972e-01 -1.266608e-01
<VARIANCE> 25
 1.148511e+01 3.849537e+01 3.042749e+01 5.577790e+01 4.837589e+01 5.612470e+01 6.144134e+01 5.427664e+01 6.305148e+01 5.629501e+01 5.639525e+01 4.793102e+01 2.180766e+00 3.611954e+00 3.390527e+00 4.463883e+00 4.680081e+00 4.524046e+00 5.145535e+00 4.971367e+00 5.342574e+00 4.696338e+00 5.239036e+00 3.740284e+00 3.329878e-03
<GCONST> 1.031391e+02
<MIXTURE> 68 1.485092e-02
<MEAN> 25
 -1.303185e+00 -1.706707e+00 -4.291094e+00 1.529151e+00 5.855943e+00 8.568768e-02 1.980659e+00 1.311621e+00 2.231130e+00 1.916961e+00 -5.417751e-01 1.841382e+00 2.908897e+00 3.265115e-01 3.596304e-02 -1.904933e+00 -2.235171e+00 -1.716362e+00 -2.702559e+00 -2.091243e+00 -1.835313e+00 -1.212559e+00 -1.653961e+00 -1.077913e+00 1.100506e-01
<VARIANCE> 25
 3.315507e+01 3.215472e+01 5.151797e+01 4.614883e+01 4.193428e+01 5.305887e+01 4.748695e+01 4.159978e+01 3.873687e+01 3.904580e+01 3.582345e+01 2.585703e+01 2.072689e+00 3.777208e+00 5.504466e+00 6.702685e+00 4.413982e+00 4.834193e+00 5.793656e+00 4.860075e+00 4.718792e+00 5.321765e+00 5.697981e+00 2.864018e+00 6.401655e-03
<GCONST> 1.031700e+02
<MIXTURE> 69 1.204884e-02
<MEAN> 25
 4.161355e+00 -3.969242e+00 -2.630933e+00 -2.315032e+00 -2.935810e+00 -7.200698e+00 3.977542e-01 1.971534e+00 -5.118410e-01 -4.767376e+00 -5.971852e+00 1.401964e+00 1.450812e+00 -2.361444e+00 -1.683719e+00 -1.947920e+00 2.422170e-01 -5.770192e-01 6.294316e-02 7.558756e-01 -3.529412e-01 -1.439264e+00 -2.617439e+00 -2.306826e-01 5.497569e-02
<VARIANCE> 25
 9.302108e+00 2.042854e+01 3.000805e+01 3.053859e+01 4.156141e+01 3.269268e+01 6.229913e+01 2.708712e+01 3.560229e+01 3.510891e+01 2.981775e+01 2.480303e+01 3.314481e+00 2.736772e+00 3.805533e+00 3.573122e+00 8.392496e+00 4.678070e+00 7.759980e+00 5.221624e+00 5.542164e+00 5.394747e+00 5.610924e+00 3.238244e+00 2.333020e-03
<GCONST> 9.882079e+01
<MIXTURE> 70 1.329190e-02
<MEAN> 25
 7.400659e+00 -2.296942e+00 -4.394100e+00 -2.116158e+00 7.344361e-01 -1.960758e+00 -7.702695e+00 -4.798270e+00 3.379157e-01 2.819191e+00 -2.494820e-01 -4.621266e+00 1.757551e+00 -1.100846e+00 -6.197006e-01 -1.697085e+00 -1.369858e+00 4.073673e-01 -1.785978e+00 -1.149766e-01 -1.159776e-01 7.762522e-02 9.141417e-01 -1.465151e+00 6.637236e-02
<VARIANCE> 25
 1.178321e+01 1.812641e+01 2.340128e+01 4.233157e+01 3.348320e+01 3.892886e+01 5.920982e+01 4.408111e+01 4.152463e+01 3.208339e+01 3.439470e+01 2.236051e+01 3.615274e+00 4.692317e+00 3.479063e+00 5.088641e+00 4.470875e+00 7.690592e+00 6.322921e+00 6.784643e+00 7.038110e+00 4.398308e+00 5.207428e+00 3.301924e+00 3.567530e-03
<GCONST> 1.007316e+02
<MIXTURE> 71 1.406903e-02
<MEAN> 25
 5.745125e+00 4.337131e+00 4.227961e+00 2.965833e+00 -3.763849e+00 -3.016524e+00 -2.915420e+00 -5.755399e+00 -4.301481e+00 -2.012481e+00 -5.173623e+00 -3.453271e+00 -1.646678e+00 -8.832089e-01 -4.333133e-01 -1.684442e+00 1.225540e+00 1.416121e-01 1.584654e-01 7.826055e-01 1.886984e-01 -3.426376e-01 5.912075e-01 5.824717e-01 4.084337e-02
<VARIANCE> 25
 1.759576e+01 2.431057e+01 2.097888e+01 3.874814e+01 3.488807e+01 4.105712e+01 3.990932e+01 3.843044e+01 3.504174e+01 3.809819e+01 3.289979e+01 3.228109e+01 1.750697e+00 2.790161e+00 4.567420e+00 4.105463e+00 4.664104e+00 4.580311e+00 4.161121e+00 7.079714e+00 3.641227e+00 3.952853e+00 3.356398e+00 4.070714e+00 1.674580e-03
<GCONST> 9.732462e+01
<MIXTURE> 72 8.134747e-03
<MEAN> 25
 4.039734e+00 -3.735286e+00 5.303086e+00 -1.602182e+00 -9.538733e+00 -8.339758e+00 -1.759401e+00 2.433761e+00 -5.604296e+00 -1.526909e+00 -3.394494e+00 1.303388e-01 8.931782e-01 -8.764520e-01 -2.567656e+00 6.495099e-01 2.086143e+00 -6.347494e-01 -1.239315e+00 1.483529e+00 1.877690e+00 -8.057220e-01 -1.007941e+00 2.676219e-01 -6.715018e-03
<VARIANCE> 25
 1.066028e+01 1.904988e+01 3.726556e+01 3.491784e+01 3.088322e+01 3.410497e+01 4.292458e+01 3.450652e+01 3.802416e+01 3.973456e+01 4.412079e+01 2.499071e+01 3.733249e-01 9.209716e-01 1.766631e+00 1.358804e+00 1.954965e+00 2.117943e+00 3.591368e+00 2.323808e+00 2.390628e+00 2.837051e+00 2.333384e+00 1.817398e+00 4.930704e-04
<GCONST> 8.611250e+01
<MIXTURE> 73 1.213625e-02
<MEAN> 25
 -5.633018e+00 -3.442153e-01 -1.430808e+00 4.524216e+00 4.183116e+00 2.670635e+00 5.146925e+00 3.423275e+00 4.714811e+00 3.230631e+00 3.983806e+00 3.031017e+00 1.070556e+00 -1.053712e+00 -9.564832e-01 -2.318919e+00 -1.086815e+00 -1.624944e+00 -1.237610e+00 -8.748759e-01 -9.735015e-01 -4.907109e-01 -1.140814e+00 -3.497406e-01 1.532130e-01
<VARIANCE> 25
 1.156810e+01 1.396660e+01 1.383939e+01 2.127851e+01 2.129771e+01 2.351882e+01 1.970433e+01 1.983856e+01 1.806067e+01 1.882785e+01 2.141796e+01 1.465269e+01 4.516621e+00 2.816406e+00 5.666547e+00 5.013063e+00 5.872192e+00 4.220844e+00 4.727557e+00 5.795605e+00 3.679382e+00 4.115396e+00 3.357717e+00 2.459182e+00 3.964540e-03
<GCONST> 9.218867e+01
<MIXTURE> 74 1.756491e-02
<MEAN> 25
 4.299561e+00 -1.632777e+00 5.064353e+00 9.709842e-01 -7.976696e+00 -8.148170e+00 -2.545859e+00 1.612691e+00 -4.155032e+00 -2.658569e+00 -1.969235e+00 7.074070e-01 1.631376e-01 1.737501e+00 -2.070386e-03 1.243324e+00 1.236048e+00 2.057531e-01 1.975915e-01 -8.377277e-01 2.142620e-01 3.089965e-02 -6.721539e-01 -3.387221e-01 -7.620297e-02
<VARIANCE> 25
 9.898560e+00 1.908557e+01 2.904133e+01 4.266140e+01 4.083592e+01 3.584506e+01 3.877829e+01 3.430453e+01 3.421796e+01 3.204283e+01 3.052866e+01 3.176474e+01 1.513216e+00 2.057148e+00 2.920604e+00 2.427326e+00 3.620779e+00 2.893158e+00 4.850007e+00 3.790722e+00 3.588902e+00 3.153636e+00 2.992877e+00 3.005329e+00 1.397245e-03
<GCONST> 9.307351e+01
<MIXTURE> 75 9.711651e-03
<MEAN> 25
 2.307793e+00 -9.457995e-01 9.694906e+00 2.220592e+00 -1.072340e+01 -5.752224e+00 -6.148998e+00 -2.295590e+00 -5.429103e+00 -5.434993e+00 2.597936e+00 2.558306e-01 1.610478e+00 -1.778788e+00 2.588076e-01 -2.367212e-01 -2.512066e+00 -3.239906e-01 -1.153971e+00 7.633505e-01 2.362846e-02 -3.503815e-01 1.219054e+00 -6.244828e-01 4.096568e-02
<VARIANCE> 25
 1.023948e+01 1.504516e+01 2.627857e+01 2.239062e+01 2.440195e+01 3.020396e+01 3.243576e+01 2.973300e+01 3.328713e+01 3.000510e+01 1.748247e+01 1.998337e+01 2.048226e+00 1.511877e+00 4.909685e+00 1.922148e+00 4.138941e+00 4.018859e+00 3.516850e+00 2.976756e+00 3.983852e+00 2.729031e+00 2.785234e+00 1.955819e+00 1.195830e-03
<GCONST> 8.948566e+01
<MIXTURE> 76 1.052359e-02
<MEAN> 25
 -6.711752e+00 -9.582406e-01 -2.713155e+00 3.665680e+00 4.585037e+00 2.130186e+00 4.049170e+00 2.151533e+00 2.695978e+00 7.710732e-01 1.781879e+00 2.583237e+00 -8.763282e-02 -5.165038e-01 -2.344557e-01 -7.743427e-01 -5.594953e-01 -8.131733e-01 -5.842237e-01 -2.821922e-01 -4.877472e-01 -3.928122e-01 -2.683896e-01 -1.385066e-01 2.047484e-02
<VARIANCE> 25
 3.286599e+01 3.005456e+01 2.844300e+01 2.631569e+01 2.924052e+01 3.019628e+01 2.613464e+01 2.996185e+01 2.382697e+01 2.493872e+01 2.528188e+01 1.886805e+01 1.040129e+00 1.105543e+00 1.415195e+00 1.248188e+00 1.485484e+00 1.645463e+00 1.634467e+00 1.876505e+00 1.710440e+00 1.658494e+00 1.448385e+00 1.323253e+00 1.226087e-03
<GCONST> 8.317413e+01
<MIXTURE> 77 1.244626e-02
<MEAN> 25
 -4.864888e-01 8.475997e+00 1.285058e+01 -9.933488e+00 -7.325504e+00 -2.642392e-01 -7.594244e+00 -6.746138e+00 -4.004170e+00 1.485361e-01 -4.742867e+00 -5.368556e-01 -4.348277e-02 1.856205e-01 4.320393e-03 2.831799e-01 2.946286e-01 -8.000061e-03 -1.579236e-02 1.085146e-01 9.501364e-02 2.367961e-03 1.653843e-02 1.146680e-01 -1.740531e-02
<VARIANCE> 25
 8.936612e+00 1.755586e+01 2.461580e+01 4.246158e+01 2.947688e+01 3.665236e+01 4.356073e+01 2.741478e+01 3.164374e+01 2.937911e+01 3.766512e+01 3.161021e+01 2.893904e-01 7.159778e-01 6.242312e-01 8.944355e-01 1.854753e+00 8.752412e-01 1.076725e+00 1.079452e+00 9.885221e-01 9.115727e-01 1.073054e+00 9.446777e-01 7.314013e-04
<GCONST> 7.710871e+01
<MIXTURE> 78 9.702551e-03
<MEAN> 25
 -1.130226e+01 1.152742e+00 -1.640363e+00 2.370295e+00 4.560874e+00 -2.373507e+00 3.602311e+00 2.733765e+00 2.525900e+00 7.821350e-01 -4.923379e-01 2.995341e+00 2.308298e+00 -2.630708e-01 1.492056e-01 5.849900e-01 -2.489885e-02 1.340295e-02 -3.451896e-01 -9.404060e-02 2.379684e-01 8.859162e-02 -3.956486e-01 -4.839885e-01 -6.105401e-02
<VARIANCE> 25
 4.256302e+01 3.272330e+01 3.204292e+01 3.384486e+01 3.923579e+01 3.774855e+01 3.680971e+01 3.512878e+01 2.912420e+01 2.732218e+01 2.710652e+01 2.012831e+01 4.979024e+00 2.530491e+00 2.811687e+00 2.976855e+00 2.844830e+00 3.445954e+00 3.237066e+00 2.796926e+00 2.341707e+00 2.509518e+00 2.238396e+00 2.105247e+00 4.650577e-03
<GCONST> 9.471593e+01
<MIXTURE> 79 1.156824e-02
<MEAN> 25
 2.426719e+00 1.729135e+00 9.729108e+00 -5.211349e+00 -1.259304e+01 -1.281906e+00 -1.286186e+00 -5.748557e+00 -6.833415e+00 -6.842324e-01 -2.235592e+00 -1.589050e+00 1.101061e+00 -5.475337e-01 -1.091624e+00 2.048307e+00 7.554827e-01 -1.233639e+00 1.897875e-01 1.187544e+00 -1.832151e-01 -4.118228e-01 1.805757e-01 1.984682e-01 -4.215100e-02
<VARIANCE> 25
 1.101595e+01 1.824669e+01 3.036372e+01 4.184412e+01 2.486300e+01 3.951971e+01 3.420954e+01 2.694226e+01 2.932083e+01 3.002044e+01 3.735128e+01 2.682493e+01 7.765492e-01 1.664660e+00 1.991714e+00 1.878122e+00 2.179645e+00 3.003730e+00 4.237021e+00 2.876017e+00 2.060345e+00 2.122757e+00 1.801857e+00 1.605505e+00 1.131225e-03
<GCONST> 8.751237e+01
<MIXTURE> 80 7.550998e-03
<MEAN> 25
 -1.520139e+01 3.837174e+00 6.912472e-01 2.683169e+00 3.765944e+00 1.088632e+00 6.608320e+00 2.725027e+00 2.474814e+00 1.044661e+00 4.208771e+00 1.558959e+00 4.282871e+00 1.017635e-01 1.606348e+00 -1.052980e+00 -2.932957e+00 -2.702489e+00 -2.577678e+00 -2.149528e+00 -2.079065e+00 -1.481170e+00 -1.584948e+00 -5.660533e-01 -4.500039e-02
<VARIANCE> 25
 2.207724e+01 1.820046e+01 3.117918e+01 3.170300e+01 4.235159e+01 2.737558e+01 2.612765e+01 2.630070e+01 2.480495e+01 4.161700e+01 2.791569e+01 1.766884e+01 2.169939e+00 2.537259e+00 2.428554e+00 3.792414e+00 3.107603e+00 2.498784e+00 3.368433e+00 3.043321e+00 2.589018e+00 2.822136e+00 2.560321e+00 1.956150e+00 1.394854e-03
<GCONST> 9.089590e+01
<MIXTURE> 81 8.025434e-03
<MEAN> 25
 -1.012680e+00 4.050492e+00 1.015395e+01 -1.457017e+01 -9.036771e+00 -1.291796e+00 -6.584606e+00 -8.369335e+00 -4.279208e+00 -5.385998e-01 -7.310943e+00 -2.128321e+00 1.180787e-01 -5.903283e-01 1.442395e-02 -5.376583e-01 -4.870362e-01 3.128857e-01 3.376082e-01 1.553923e-01 -1.410557e-01 1.128099e-01 -4.684124e-01 -9.928887e-02 1.178533e-02
<VARIANCE> 25
 1.042238e+01 3.212391e+01 2.596733e+01 3.074213e+01 3.318296e+01 3.127039e+01 4.608431e+01 2.764760e+01 3.769907e+01 3.206261e+01 2.732973e+01 3.076694e+01 7.711148e-01 2.243758e+00 1.535244e+00 2.813539e+00 2.680451e+00 2.118207e+00 3.230829e+00 2.242548e+00 2.317579e+00 2.486315e+00 2.266729e+00 2.095882e+00 1.201577e-03
<GCONST> 8.868321e+01
<MIXTURE> 82 8.213053e-03
<MEAN> 25
 -9.716810e+00 -4.061727e+00 1.398758e+00 -2.889081e+00 3.162650e+00 8.666377e-01 1.985993e+00 5.122625e-01 2.556050e+00 1.087161e+00 1.557546e+00 3.299659e+00 -1.232234e+00 -1.522646e-01 2.020037e-01 -2.477335e+00 -9.950256e-01 -1.272768e+00 -1.118791e+00 -7.689633e-01 -1.510747e-01 -5.414810e-01 -1.636481e-01 -1.327636e-02 1.751996e-01
<VARIANCE> 25
 1.787429e+01 2.396464e+01 3.144447e+01 2.942517e+01 3.119822e+01 3.102162e+01 3.005497e+01 3.454493e+01 3.228062e+01 2.999698e+01 3.028527e+01 1.790151e+01 3.728251e+00 2.889884e+00 3.254417e+00 3.316274e+00 3.566243e+00 3.123173e+00 3.037596e+00 3.047882e+00 3.080162e+00 2.438941e+00 2.687022e+00 2.000579e+00 3.385318e-03
<GCONST> 9.323039e+01
<MIXTURE> 83 1.167529e-02
<MEAN> 25
 -1.959235e+01 6.134593e+00 -1.440335e+00 -3.963159e-01 1.043039e+01 -2.427191e+00 4.771280e+00 4.027908e+00 8.711905e-01 -8.005133e-01 2.291310e+00 3.702411e+00 -3.207792e-01 -7.110927e-01 -3.653539e-03 -3.440752e-01 -2.146087e-01 3.770111e-01 2.584878e-01 -1.383488e-01 -2.720987e-01 -7.303353e-02 -1.692887e-01 7.779638e-02 1.184308e-03
<VARIANCE> 25
 6.861130e+00 1.349371e+01 2.011147e+01 1.701010e+01 2.446805e+01 2.370561e+01 1.776179e+01 1.948516e+01 1.749224e+01 2.954123e+01 2.076995e+01 1.242747e+01 9.350070e-01 7.697720e-01 8.785924e-01 8.977838e-01 1.101673e+00 1.578810e+00 1.229473e+00 1.500802e+00 1.337008e+00 1.152561e+00 1.289541e+00 7.972080e-01 6.324849e-04
<GCONST> 7.401505e+01
<MIXTURE> 84 1.066614e-02
<MEAN> 25
 5.819753e-01 8.751932e+00 7.121805e+00 6.837653e+00 2.262757e+00 -1.635590e+00 -1.310027e+00 -4.261073e+00 -3.310830e+00 -1.992714e+00 -2.165149e+00 -7.083265e-01 -1.418766e+00 -1.054154e+00 -1.432586e+00 1.256013e+00 2.120982e+00 1.480082e+00 1.175323e+00 1.137379e+00 1.114500e+00 7.393471e-02 4.022933e-01 1.651983e-01 -6.719492e-02
<VARIANCE> 25
 1.862871e+01 1.562208e+01 1.757533e+01 2.199446e+01 2.656655e+01 2.599029e+01 2.220719e+01 2.118630e+01 2.320091e+01 2.247573e+01 1.958372e+01 2.117529e+01 1.891696e+00 2.020067e+00 3.069352e+00 2.793062e+00 2.977556e+00 2.701474e+00 3.233498e+00 3.009098e+00 2.842021e+00 2.803791e+00 3.049568e+00 2.538314e+00 2.891386e-03
<GCONST> 8.867819e+01
<MIXTURE> 85 7.591393e-03
<MEAN> 25
 -3.559409e+00 8.079547e+00 5.660220e+00 9.805480e-01 -2.228565e+00 -5.243729e+00 -3.573773e+00 -6.770435e+00 -4.885069e+00 -3.578710e+00 -4.415047e-01 -4.310856e-01 4.075427e+00 2.033226e-01 1.705282e+00 -1.640083e+00 -3.744619e+00 -2.357272e+00 -3.066922e+00 -2.524719e+00 -2.358966e+00 -1.174537e+00 -1.917075e+00 -6.017753e-01 7.283138e-03
<VARIANCE> 25
 3.829390e+01 1.957071e+01 3.060659e+01 3.259590e+01 4.363608e+01 3.793570e+01 3.614915e+01 2.441729e+01 2.969135e+01 2.268309e+01 2.235296e+01 2.486914e+01 2.375601e+00 3.804582e+00 3.347284e+00 5.109117e+00 3.983337e+00 3.442590e+00 3.854961e+00 3.442994e+00 3.421588e+00 3.405639e+00 3.703437e+00 2.875435e+00 5.340908e-03
<GCONST> 9.633276e+01
<MIXTURE> 86 1.273941e-02
<MEAN> 25
 -5.122284e+00 8.782958e-01 -1.223226e+00 4.932416e+00 5.012134e+00 4.377787e+00 4.777703e+00 4.498445e+00 6.302698e+00 3.014218e+00 4.651617e+00 3.676075e+00 3.185392e-02 -4.787706e-02 -1.335859e-01 -9.805913e-02 -2.199851e-01 -3.505011e-01 -1.332992e-01 -1.825480e-01 -4.827569e-01 -4.820095e-01 -3.931627e-01 -1.309721e-01 -2.183497e-03
<VARIANCE> 25
 5.214871e+00 7.996628e+00 7.439116e+00 1.001680e+01 1.044550e+01 1.093731e+01 1.167475e+01 1.062834e+01 1.435859e+01 1.060083e+01 1.129205e+01 1.076052e+01 8.940496e-02 2.010543e-01 3.195070e-01 4.164318e-01 7.094604e-01 9.905543e-01 7.096013e-01 8.267334e-01 8.335232e-01 1.141753e+00 8.687821e-01 9.017767e-01 6.109399e-05
<GCONST> 5.645454e+01
<MIXTURE> 87 1.100681e-02
<MEAN> 25
 -3.379606e+00 4.004015e+00 3.091067e+00 6.323450e+00 5.288908e+00 9.499412e-01 1.505558e+00 -1.601899e+00 -6.359758e-01 -1.342589e+00 -1.130922e+00 4.277392e-01 -2.007202e+00 -2.647907e+00 -2.205039e+00 -2.077760e+00 2.529393e-01 -1.190684e-01 3.631416e-01 1.149721e+00 1.304724e+00 8.932014e-01 8.313763e-01 9.408819e-01 1.046177e-01
<VARIANCE> 25
 3.482623e+01 3.203028e+01 2.707410e+01 3.503696e+01 2.724765e+01 3.005399e+01 2.666780e+01 2.834536e+01 2.575648e+01 2.514829e+01 2.418183e+01 2.336585e+01 3.683364e+00 2.640654e+00 3.941032e+00 3.451519e+00 5.106312e+00 4.043865e+00 4.386405e+00 3.750583e+00 3.468260e+00 3.590663e+00 3.480938e+00 3.251471e+00 4.717270e-03
<GCONST> 9.627027e+01
<MIXTURE> 88 1.256585e-02
<MEAN> 25
 -4.543224e+00 9.396954e-01 -1.384408e+00 3.854519e+00 5.450006e+00 3.814324e+00 4.040411e+00 3.369143e+00 4.255257e+00 2.535987e+00 3.167091e+00 3.239872e+00 -1.084045e-01 2.395134e-01 2.042019e-01 3.320069e-01 2.095065e-01 2.177952e-01 -1.357554e-01 -2.573449e-01 -2.136716e-01 -1.325986e-01 -1.641969e-04 3.248209e-01 -3.662725e-03
<VARIANCE> 25
 6.019783e+00 8.797085e+00 1.282287e+01 1.275062e+01 1.655659e+01 1.870689e+01 1.589342e+01 2.186081e+01 1.456152e+01 1.807257e+01 1.627189e+01 1.441629e+01 1.040046e+00 1.324128e+00 1.579136e+00 1.665713e+00 2.200072e+00 1.893087e+00 2.087324e+00 2.304897e+00 3.538556e+00 2.515361e+00 1.670366e+00 2.212411e+00 1.421861e-03
<GCONST> 7.885230e+01
<MIXTURE> 89 9.333527e-03
<MEAN> 25
 6.202174e+00 -6.488286e+00 -3.993804e+00 -6.177863e-01 -3.276058e+00 -5.795678e+00 -3.618253e+00 3.654782e+00 1.775496e+00 -1.669914e+00 -5.815065e+00 -3.315366e+00 -6.412761e-01 1.751713e-01 2.104886e+00 5.223507e-01 -1.874223e+00 -1.465190e+00 7.100425e-01 1.200813e+00 -7.183087e-01 -1.168836e+00 4.781076e-01 1.148991e+00 -3.736755e-03
<VARIANCE> 25
 7.071631e+00 2.267983e+01 2.837070e+01 2.975307e+01 3.394299e+01 4.301044e+01 9.428674e+01 4.055004e+01 5.329633e+01 3.799177e+01 2.853222e+01 2.531498e+01 4.193688e-01 7.661570e-01 1.359300e+00 1.509463e+00 1.519330e+00 3.263501e+00 2.507780e+00 1.564103e+00 2.828958e+00 1.924497e+00 1.842496e+00 1.357397e+00 3.139211e-04
<GCONST> 8.458948e+01
<MIXTURE> 90 7.114505e-03
<MEAN> 25
 2.572251e+00 -9.659197e+00 -4.730531e+00 -3.722070e+00 -3.618569e+00 -2.019511e+00 3.274710e+00 1.288914e+00 -7.405282e+00 -9.765180e+00 -3.416038e+00 -7.566323e-01 -1.780138e-01 8.851674e-01 1.195369e+00 -8.621016e-01 -1.632697e+00 -2.177652e-01 6.463321e-01 -1.708590e-01 -1.656557e-01 7.310430e-01 1.611875e-01 -5.143765e-01 -1.110272e-02
<VARIANCE> 25
 8.623362e+00 1.769685e+01 2.053610e+01 2.866531e+01 3.728121e+01 3.244654e+01 4.311811e+01 3.579338e+01 3.572953e+01 3.212345e+01 2.754218e+01 2.737576e+01 2.387141e-01 6.079934e-01 7.959234e-01 1.018140e+00 1.474094e+00 1.547757e+00 1.737830e+00 1.680580e+00 1.820566e+00 1.635692e+00 1.477785e+00 1.298539e+00 2.154613e-04
<GCONST> 7.851994e+01
<MIXTURE> 91 7.852945e-03
<MEAN> 25
 5.915535e+00 -8.581913e+00 -8.911368e+00 -6.059804e+00 5.518898e+00 2.239017e-01 4.496154e-01 6.894861e-01 5.082312e-01 7.031276e-02 -4.481623e+00 -7.255051e+00 3.407001e-01 9.242107e-01 1.365956e-01 3.381609e-01 -1.256291e-01 -4.478208e-01 -2.760419e-03 -1.873594e-01 -1.227623e-01 5.778767e-01 -3.417367e-02 -8.739579e-03 -3.695395e-02
<VARIANCE> 25
 8.882811e+00 2.063819e+01 2.089269e+01 3.799883e+01 4.067050e+01 5.457645e+01 5.757357e+01 3.102086e+01 4.842311e+01 6.845804e+01 3.291893e+01 5.095335e+01 5.343286e-01 7.579169e-01 1.345144e+00 1.248686e+00 2.082696e+00 1.958253e+00 2.724086e+00 2.055112e+00 2.041760e+00 2.220882e+00 2.057059e+00 2.776089e+00 5.970100e-04
<GCONST> 8.713242e+01
<MIXTURE> 92 7.852945e-03
<MEAN> 25
 5.915535e+00 -8.581913e+00 -8.911368e+00 -6.059804e+00 5.518898e+00 2.239017e-01 4.496154e-01 6.894861e-01 5.082312e-01 7.031276e-02 -4.481623e+00 -7.255051e+00 3.407001e-01 9.242107e-01 1.365956e-01 3.381609e-01 -1.256291e-01 -4.478208e-01 -2.760419e-03 -1.873594e-01 -1.227623e-01 5.778767e-01 -3.417367e-02 -8.739579e-03 -3.695395e-02
<VARIANCE> 25
 8.882811e+00 2.063819e+01 2.089269e+01 3.799883e+01 4.067050e+01 5.457645e+01 5.757357e+01 3.102086e+01 4.842311e+01 6.845804e+01 3.291893e+01 5.095335e+01 5.343286e-01 7.579169e-01 1.345144e+00 1.248686e+00 2.082696e+00 1.958253e+00 2.724086e+00 2.055112e+00 2.041760e+00 2.220882e+00 2.057059e+00 2.776089e+00 5.970100e-04
<GCONST> 8.713242e+01
<MIXTURE> 93 6.122769e-03
<MEAN> 25
 -6.683678e+00 -4.131839e-01 -2.329562e+00 5.367371e+00 5.838219e+00 3.880234e+00 5.892359e+00 3.670762e+00 4.592872e+00 2.428042e+00 1.863335e+00 3.768446e+00 -5.925275e-02 -1.597418e-01 -2.679370e-01 -3.197721e-01 -3.343652e-01 -2.766362e-01 -2.075766e-01 -1.764709e-01 -1.505248e-01 -1.272436e-01 -1.183543e-01 -4.969045e-02 -3.505958e-05
<VARIANCE> 25
 8.254873e+00 7.526867e+00 7.594163e+00 1.179201e+01 1.048534e+01 1.508277e+01 1.436454e+01 1.578204e+01 1.541012e+01 1.425521e+01 1.626359e+01 1.245514e+01 8.022961e-02 1.600314e-01 2.626354e-01 3.663360e-01 5.322345e-01 7.836957e-01 7.662947e-01 9.176235e-01 9.041458e-01 8.298703e-01 1.006284e+00 9.678711e-01 1.158806e-06
<GCONST> 5.385663e+01
<MIXTURE> 94 6.122769e-03
<MEAN> 25
 -6.683678e+00 -4.131839e-01 -2.329562e+00 5.367371e+00 5.838219e+00 3.880234e+00 5.892359e+00 3.670762e+00 4.592872e+00 2.428042e+00 1.863335e+00 3.768446e+00 -5.925275e-02 -1.597418e-01 -2.679370e-01 -3.197721e-01 -3.343652e-01 -2.766362e-01 -2.075766e-01 -1.764709e-01 -1.505248e-01 -1.272436e-01 -1.183543e-01 -4.969045e-02 -3.505958e-05
<VARIANCE> 25
 8.254873e+00 7.526867e+00 7.594163e+00 1.179201e+01 1.048534e+01 1.508277e+01 1.436454e+01 1.578204e+01 1.541012e+01 1.425521e+01 1.626359e+01 1.245514e+01 8.022961e-02 1.600314e-01 2.626354e-01 3.663360e-01 5.322345e-01 7.836957e-01 7.662947e-01 9.176235e-01 9.041458e-01 8.298703e-01 1.006284e+00 9.678711e-01 1.158806e-06
<GCONST> 5.385663e+01
<MIXTURE> 95 5.258835e-03
<MEAN> 25
 -5.595840e+00 8.741315e-01 -1.611184e+00 4.359197e+00 4.429578e+00 3.123444e+00 4.207328e+00 2.370279e+00 3.673711e+00 5.447004e-01 9.533623e-01 2.618579e+00 9.279163e-02 6.626880e-02 -7.065222e-03 -1.475558e-01 -4.004405e-01 -6.689805e-01 -1.062289e+00 -1.388755e+00 -1.235085e+00 -1.022843e+00 -5.313736e-01 -1.875033e-01 -2.813323e-04
<VARIANCE> 25
 7.551232e+00 9.792621e+00 9.575249e+00 1.053416e+01 1.101997e+01 1.591768e+01 1.445951e+01 1.616504e+01 1.938271e+01 1.331301e+01 1.769000e+01 1.204676e+01 1.713536e-01 2.758795e-01 4.305706e-01 6.013300e-01 7.327281e-01 7.731534e-01 9.084795e-01 1.175137e+00 8.852440e-01 1.141661e+00 9.835850e-01 1.119200e+00 4.685386e-05
<GCONST> 6.163258e+01
<MIXTURE> 96 7.034694e-03
<MEAN> 25
 -5.197062e+00 3.055362e-01 -2.205927e+00 4.713357e+00 4.008721e+00 1.943048e+00 3.482763e+00 1.852673e+00 3.225436e+00 7.952242e-01 1.091060e+00 3.318406e+00 2.748840e-03 1.180148e-01 1.577898e-01 3.088799e-01 5.162295e-01 5.596583e-01 2.875549e-01 -9.746282e-02 -4.752499e-01 -6.736979e-01 -5.351528e-01 -4.164012e-01 -1.917022e-05
<VARIANCE> 25
 9.331819e+00 1.078571e+01 1.118356e+01 1.340624e+01 1.298415e+01 1.710026e+01 1.586574e+01 1.744065e+01 1.911042e+01 1.531496e+01 1.718603e+01 1.434092e+01 1.355074e-01 2.415991e-01 3.274160e-01 4.109719e-01 4.373502e-01 6.872103e-01 7.813966e-01 9.523329e-01 8.861527e-01 7.850000e-01 9.209235e-01 9.081157e-01 1.481490e-06
<GCONST> 5.689404e+01
<MIXTURE> 97 7.034694e-03
<MEAN> 25
 -5.197062e+00 3.055362e-01 -2.205927e+00 4.713357e+00 4.008721e+00 1.943048e+00 3.482763e+00 1.852673e+00 3.225436e+00 7.952242e-01 1.091060e+00 3.318406e+00 2.748840e-03 1.180148e-01 1.577898e-01 3.088799e-01 5.162295e-01 5.596583e-01 2.875549e-01 -9.746282e-02 -4.752499e-01 -6.736979e-01 -5.351528e-01 -4.164012e-01 -1.917022e-05
<VARIANCE> 25
 9.331819e+00 1.078571e+01 1.118356e+01 1.340624e+01 1.298415e+01 1.710026e+01 1.586574e+01 1.744065e+01 1.911042e+01 1.531496e+01 1.718603e+01 1.434092e+01 1.355074e-01 2.415991e-01 3.274160e-01 4.109719e-01 4.373502e-01 6.872103e-01 7.813966e-01 9.523329e-01 8.861527e-01 7.850000e-01 9.209235e-01 9.081157e-01 1.481490e-06
<GCONST> 5.689404e+01
<MIXTURE> 98 9.917808e-03
<MEAN> 25
 -1.284944e+00 9.903405e-01 -2.080740e-01 4.347866e+00 2.736988e+00 2.018377e+00 2.695396e+00 3.690519e-01 8.623701e-01 5.321289e-01 5.725571e-01 1.552606e+00 -1.632783e+00 -1.253521e+00 -9.853497e-01 -7.574669e-02 7.701395e-01 1.119050e+00 1.277103e+00 1.301456e+00 1.593486e+00 1.022921e+00 1.377567e+00 1.071715e+00 -3.582109e-02
<VARIANCE> 25
 1.248690e+01 1.788550e+01 2.818412e+01 2.781799e+01 4.112529e+01 3.334262e+01 2.915367e+01 3.312102e+01 2.769206e+01 2.641528e+01 2.285770e+01 2.221816e+01 1.272216e+00 1.542284e+00 2.059377e+00 2.375839e+00 2.601356e+00 3.030556e+00 2.706634e+00 2.527670e+00 2.261967e+00 2.737421e+00 2.609028e+00 2.208026e+00 2.095268e-03
<GCONST> 8.859735e+01
<MIXTURE> 99 6.696178e-03
<MEAN> 25
 -5.199152e+00 9.790584e+00 1.736179e+00 3.144846e+00 1.944287e+00 -4.146075e+00 -3.334272e+00 -6.468866e+00 -3.720591e+00 -2.095226e+00 -1.026548e+00 -7.841098e-01 6.976160e-01 -1.160572e+00 4.980340e-01 -1.481340e-01 -9.744956e-01 -5.215952e-01 -6.226871e-01 -1.295359e-02 -2.105308e-01 -1.024710e-01 -7.828912e-02 -1.239969e-01 8.603734e-03
<VARIANCE> 25
 2.622335e+01 2.239688e+01 7.214729e+01 2.330598e+01 3.042526e+01 2.909013e+01 2.662592e+01 2.710395e+01 2.220318e+01 3.143950e+01 1.517399e+01 2.367941e+01 1.990596e+00 1.762508e+00 1.043663e+00 1.334117e+00 2.600616e+00 2.746957e+00 1.722664e+00 1.631369e+00 1.060128e+00 1.544763e+00 1.133754e+00 1.076163e+00 1.135259e-03
<GCONST> 8.404664e+01
<MIXTURE> 100 4.498084e-03
<MEAN> 25
 -1.598026e+00 6.335813e+00 1.024752e+01 -7.405689e+00 -1.072989e+01 -5.082518e+00 -4.958657e+00 -9.954291e+00 -4.758691e+00 -9.048211e-01 -2.734865e+00 -2.655416e+00 2.910262e+00 -1.264621e+00 1.297468e+00 -2.165442e+00 -3.423274e+00 -7.773471e-01 -1.216647e+00 -8.136999e-01 -1.472755e+00 3.364838e-01 -1.646403e+00 -2.916476e-01 2.149639e-03
<VARIANCE> 25
 1.356924e+01 2.095904e+01 2.246321e+01 2.676186e+01 2.347277e+01 2.363544e+01 2.917418e+01 2.159978e+01 2.755556e+01 2.298182e+01 2.226575e+01 2.162705e+01 1.804503e+00 3.933326e+00 2.900929e+00 4.314330e+00 4.170964e+00 4.539990e+00 4.008532e+00 4.330708e+00 4.142146e+00 3.894727e+00 3.896742e+00 3.209524e+00 1.674005e-03
<GCONST> 9.258516e+01
<MIXTURE> 101 6.007792e-03
<MEAN> 25
 8.031656e+00 -3.683799e+00 -6.135828e+00 -6.898412e+00 8.946930e-01 -1.041566e+00 -1.057258e+01 -1.923534e+00 1.934834e+00 2.539493e+00 -2.325022e+00 -5.126420e+00 7.488323e-01 5.894915e-01 -1.444092e+00 -1.653850e+00 1.035295e+00 2.420317e+00 1.800041e-01 -1.456542e+00 -1.048849e+00 1.036736e+00 1.324770e+00 -3.944617e-01 -4.290233e-03
<VARIANCE> 25
 8.935887e+00 1.739481e+01 2.905420e+01 4.222077e+01 3.515491e+01 3.738263e+01 3.777604e+01 3.474819e+01 3.866041e+01 4.251847e+01 4.909996e+01 2.293361e+01 3.901246e-01 7.142938e-01 1.125291e+00 1.570549e+00 1.609793e+00 2.314262e+00 2.022931e+00 1.909691e+00 2.293689e+00 2.133906e+00 1.751237e+00 1.885929e+00 3.340570e-04
<GCONST> 8.363430e+01
<MIXTURE> 102 6.007792e-03
<MEAN> 25
 8.031656e+00 -3.683799e+00 -6.135828e+00 -6.898412e+00 8.946930e-01 -1.041566e+00 -1.057258e+01 -1.923534e+00 1.934834e+00 2.539493e+00 -2.325022e+00 -5.126420e+00 7.488323e-01 5.894915e-01 -1.444092e+00 -1.653850e+00 1.035295e+00 2.420317e+00 1.800041e-01 -1.456542e+00 -1.048849e+00 1.036736e+00 1.324770e+00 -3.944617e-01 -4.290233e-03
<VARIANCE> 25
 8.935887e+00 1.739481e+01 2.905420e+01 4.222077e+01 3.515491e+01 3.738263e+01 3.777604e+01 3.474819e+01 3.866041e+01 4.251847e+01 4.909996e+01 2.293361e+01 3.901246e-01 7.142938e-01 1.125291e+00 1.570549e+00 1.609793e+00 2.314262e+00 2.022931e+00 1.909691e+00 2.293689e+00 2.133906e+00 1.751237e+00 1.885929e+00 3.340570e-04
<GCONST> 8.363430e+01
<MIXTURE> 103 5.694618e-03
<MEAN> 25
 3.369750e+00 -9.493173e+00 -6.010309e+00 -2.835662e+00 -9.293442e-01 -2.289917e+00 3.012620e+00 2.664874e+00 -4.230741e+00 -9.018382e+00 -5.530038e+00 5.037012e-01 -1.293297e-01 -1.470012e+00 -1.072548e+00 2.766508e-01 1.339854e+00 8.797521e-01 2.124469e-01 -2.073067e-01 -5.964040e-01 -8.560595e-01 -7.965184e-02 1.684983e-02 2.569875e-02
<VARIANCE> 25
 1.034671e+01 1.924196e+01 2.171624e+01 3.069944e+01 4.956481e+01 3.419908e+01 4.973141e+01 3.474523e+01 4.267093e+01 2.991392e+01 3.264630e+01 2.682841e+01 6.238989e-01 1.203986e+00 1.549922e+00 2.046587e+00 3.101793e+00 2.496688e+00 2.797215e+00 2.513181e+00 2.848195e+00 2.606391e+00 2.098954e+00 2.074415e+00 8.020889e-04
<GCONST> 8.777303e+01
<MIXTURE> 104 5.694618e-03
<MEAN> 25
 3.369750e+00 -9.493173e+00 -6.010309e+00 -2.835662e+00 -9.293442e-01 -2.289917e+00 3.012620e+00 2.664874e+00 -4.230741e+00 -9.018382e+00 -5.530038e+00 5.037012e-01 -1.293297e-01 -1.470012e+00 -1.072548e+00 2.766508e-01 1.339854e+00 8.797521e-01 2.124469e-01 -2.073067e-01 -5.964040e-01 -8.560595e-01 -7.965184e-02 1.684983e-02 2.569875e-02
<VARIANCE> 25
 1.034671e+01 1.924196e+01 2.171624e+01 3.069944e+01 4.956481e+01 3.419908e+01 4.973141e+01 3.474523e+01 4.267093e+01 2.991392e+01 3.264630e+01 2.682841e+01 6.238989e-01 1.203986e+00 1.549922e+00 2.046587e+00 3.101793e+00 2.496688e+00 2.797215e+00 2.513181e+00 2.848195e+00 2.606391e+00 2.098954e+00 2.074415e+00 8.020889e-04
<GCONST> 8.777303e+01
<MIXTURE> 105 4.710235e-03
<MEAN> 25
 2.237761e+00 -1.481764e+00 9.235657e+00 -2.693818e+00 -1.158328e+01 -4.939927e+00 -4.186392e+00 -8.304777e-01 -3.866396e+00 -3.252378e+00 1.576119e+00 -1.176225e+00 1.062947e-02 3.021025e-02 5.245093e-02 -5.260626e-02 1.812272e-03 5.180651e-02 -5.743534e-03 5.664481e-02 -2.449998e-02 3.534291e-02 4.174504e-02 -2.430121e-02 -2.096171e-03
<VARIANCE> 25
 1.333901e+01 2.842814e+01 4.050162e+01 4.442645e+01 3.748108e+01 5.403084e+01 4.078904e+01 4.314019e+01 3.949752e+01 4.179508e+01 4.167180e+01 3.043071e+01 8.520435e-02 1.900052e-01 3.452748e-01 2.930486e-01 3.727798e-01 4.319856e-01 4.764073e-01 4.897200e-01 5.097395e-01 4.493672e-01 4.341286e-01 4.011524e-01 9.027105e-05
<GCONST> 6.679067e+01
<MIXTURE> 106 4.710235e-03
<MEAN> 25
 2.237761e+00 -1.481764e+00 9.235657e+00 -2.693818e+00 -1.158328e+01 -4.939927e+00 -4.186392e+00 -8.304777e-01 -3.866396e+00 -3.252378e+00 1.576119e+00 -1.176225e+00 1.062947e-02 3.021025e-02 5.245093e-02 -5.260626e-02 1.812272e-03 5.180651e-02 -5.743534e-03 5.664481e-02 -2.449998e-02 3.534291e-02 4.174504e-02 -2.430121e-02 -2.096171e-03
<VARIANCE> 25
 1.333901e+01 2.842814e+01 4.050162e+01 4.442645e+01 3.748108e+01 5.403084e+01 4.078904e+01 4.314019e+01 3.949752e+01 4.179508e+01 4.167180e+01 3.043071e+01 8.520435e-02 1.900052e-01 3.452748e-01 2.930486e-01 3.727798e-01 4.319856e-01 4.764073e-01 4.897200e-01 5.097395e-01 4.493672e-01 4.341286e-01 4.011524e-01 9.027105e-05
<GCONST> 6.679067e+01
<MIXTURE> 107 5.452374e-03
<MEAN> 25
 8.613933e+00 -2.521358e+00 -7.983599e+00 -9.401954e+00 1.481033e+00 3.996356e+00 -8.630218e+00 -4.707679e+00 -9.196169e-01 3.396729e+00 7.842014e-01 -4.765627e+00 -6.610954e-01 -7.154126e-01 7.824165e-01 1.892474e+00 2.195939e-01 -2.263153e+00 -8.875137e-01 8.643035e-01 1.804531e+00 1.266478e-01 -1.732144e+00 -6.307085e-01 -1.867971e-03
<VARIANCE> 25
 8.720339e+00 1.970781e+01 2.642849e+01 4.050127e+01 3.726623e+01 5.170333e+01 5.038123e+01 3.406392e+01 4.313219e+01 4.099730e+01 4.837546e+01 3.092776e+01 3.806427e-01 9.434329e-01 1.527918e+00 2.476837e+00 2.160841e+00 3.673216e+00 2.480560e+00 2.478083e+00 2.164875e+00 2.946005e+00 1.950455e+00 2.490155e+00 6.628163e-04
<GCONST> 8.817776e+01
<MIXTURE> 108 5.452374e-03
<MEAN> 25
 8.613933e+00 -2.521358e+00 -7.983599e+00 -9.401954e+00 1.481033e+00 3.996356e+00 -8.630218e+00 -4.707679e+00 -9.196169e-01 3.396729e+00 7.842014e-01 -4.765627e+00 -6.610954e-01 -7.154126e-01 7.824165e-01 1.892474e+00 2.195939e-01 -2.263153e+00 -8.875137e-01 8.643035e-01 1.804531e+00 1.266478e-01 -1.732144e+00 -6.307085e-01 -1.867971e-03
<VARIANCE> 25
 8.720339e+00 1.970781e+01 2.642849e+01 4.050127e+01 3.726623e+01 5.170333e+01 5.038123e+01 3.406392e+01 4.313219e+01 4.099730e+01 4.837546e+01 3.092776e+01 3.806427e-01 9.434329e-01 1.527918e+00 2.476837e+00 2.160841e+00 3.673216e+00 2.480560e+00 2.478083e+00 2.164875e+00 2.946005e+00 1.950455e+00 2.490155e+00 6.628163e-04
<GCONST> 8.817776e+01
<MIXTURE> 109 6.661064e-03
<MEAN> 25
 4.320612e+00 -1.059490e+01 -8.505982e+00 -1.249412e+00 2.422652e+00 -8.469657e-01 7.959557e-01 1.668767e+00 -1.947402e+00 -7.833166e+00 -5.616435e+00 -6.076211e-01 -3.147638e-02 -1.335542e-01 -1.188530e-01 2.908369e-01 5.538542e-02 3.799653e-02 2.266545e-02 -1.528424e-01 -7.926241e-03 -6.672020e-02 2.082553e-01 8.122134e-03 -2.845774e-03
<VARIANCE> 25
 9.199854e+00 1.761105e+01 1.834921e+01 3.084979e+01 3.762850e+01 3.815147e+01 4.943547e+01 3.139345e+01 4.634324e+01 3.432605e+01 2.772917e+01 2.964499e+01 2.152435e-01 3.802697e-01 6.297038e-01 6.054228e-01 1.335963e+00 9.544775e-01 1.324769e+00 1.118732e+00 1.103134e+00 9.527799e-01 8.827704e-01 8.574604e-01 1.814516e-04
<GCONST> 7.439979e+01
<MIXTURE> 110 6.661064e-03
<MEAN> 25
 4.320612e+00 -1.059490e+01 -8.505982e+00 -1.249412e+00 2.422652e+00 -8.469657e-01 7.959557e-01 1.668767e+00 -1.947402e+00 -7.833166e+00 -5.616435e+00 -6.076211e-01 -3.147638e-02 -1.335542e-01 -1.188530e-01 2.908369e-01 5.538542e-02 3.799653e-02 2.266545e-02 -1.528424e-01 -7.926241e-03 -6.672020e-02 2.082553e-01 8.122134e-03 -2.845774e-03
<VARIANCE> 25
 9.199854e+00 1.761105e+01 1.834921e+01 3.084979e+01 3.762850e+01 3.815147e+01 4.943547e+01 3.139345e+01 4.634324e+01 3.432605e+01 2.772917e+01 2.964499e+01 2.152435e-01 3.802697e-01 6.297038e-01 6.054228e-01 1.335963e+00 9.544775e-01 1.324769e+00 1.118732e+00 1.103134e+00 9.527799e-01 8.827704e-01 8.574604e-01 1.814516e-04
<GCONST> 7.439979e+01
<MIXTURE> 111 4.337247e-03
<MEAN> 25
 -4.575013e+00 -3.505712e-01 -1.718744e+00 1.614858e+00 1.181506e+00 1.161943e+00 5.947242e-01 2.983684e-01 4.739175e-01 -7.062032e-01 -4.900840e-01 2.189669e+00 -4.166888e-02 -5.444791e-02 -7.456458e-02 -1.008777e-01 -4.898117e-02 1.729468e-02 -2.081034e-02 -7.475754e-02 -1.386819e-01 -2.028831e-01 -1.490006e-01 -1.131317e-01 -1.581217e-04
<VARIANCE> 25
 6.415843e+00 7.003328e+00 9.409981e+00 8.743199e+00 1.247406e+01 2.272222e+01 1.433138e+01 1.331833e+01 1.265902e+01 1.194781e+01 1.333745e+01 1.130621e+01 8.029271e-02 1.752502e-01 2.740343e-01 4.244946e-01 5.702565e-01 7.249308e-01 8.007103e-01 9.058951e-01 8.693883e-01 8.265936e-01 8.829995e-01 8.308069e-01 2.356637e-05
<GCONST> 5.618026e+01
<MIXTURE> 112 4.337247e-03
<MEAN> 25
 -4.575013e+00 -3.505712e-01 -1.718744e+00 1.614858e+00 1.181506e+00 1.161943e+00 5.947242e-01 2.983684e-01 4.739175e-01 -7.062032e-01 -4.900840e-01 2.189669e+00 -4.166888e-02 -5.444791e-02 -7.456458e-02 -1.008777e-01 -4.898117e-02 1.729468e-02 -2.081034e-02 -7.475754e-02 -1.386819e-01 -2.028831e-01 -1.490006e-01 -1.131317e-01 -1.581217e-04
<VARIANCE> 25
 6.415843e+00 7.003328e+00 9.409981e+00 8.743199e+00 1.247406e+01 2.272222e+01 1.433138e+01 1.331833e+01 1.265902e+01 1.194781e+01 1.333745e+01 1.130621e+01 8.029271e-02 1.752502e-01 2.740343e-01 4.244946e-01 5.702565e-01 7.249308e-01 8.007103e-01 9.058951e-01 8.693883e-01 8.265936e-01 8.829995e-01 8.308069e-01 2.356637e-05
<GCONST> 5.618026e+01
<MIXTURE> 113 5.938666e-03
<MEAN> 25
 9.955210e+00 1.732584e+00 -8.505644e+00 -1.687336e+01 -1.087235e+00 5.829479e+00 -5.215682e+00 -1.544650e+00 -5.700725e+00 -5.768415e-01 3.450235e-01 -3.098447e-01 2.122455e-03 5.565730e-03 -6.477603e-02 -1.145679e-01 1.004760e-01 1.552659e-01 6.756111e-02 4.474768e-02 -5.834036e-02 -4.441623e-02 1.868504e-01 5.484074e-02 -1.066848e-03
<VARIANCE> 25
 8.741609e+00 1.636896e+01 3.279634e+01 3.500999e+01 5.182982e+01 3.513613e+01 3.919420e+01 3.903091e+01 3.668434e+01 4.581671e+01 3.587613e+01 2.867079e+01 1.197488e-01 3.219706e-01 3.147962e-01 6.188978e-01 6.190462e-01 6.504305e-01 8.178159e-01 8.328034e-01 9.437931e-01 8.907860e-01 7.335367e-01 7.331645e-01 1.297477e-04
<GCONST> 7.123062e+01
<MIXTURE> 114 5.938666e-03
<MEAN> 25
 9.955210e+00 1.732584e+00 -8.505644e+00 -1.687336e+01 -1.087235e+00 5.829479e+00 -5.215682e+00 -1.544650e+00 -5.700725e+00 -5.768415e-01 3.450235e-01 -3.098447e-01 2.122455e-03 5.565730e-03 -6.477603e-02 -1.145679e-01 1.004760e-01 1.552659e-01 6.756111e-02 4.474768e-02 -5.834036e-02 -4.441623e-02 1.868504e-01 5.484074e-02 -1.066848e-03
<VARIANCE> 25
 8.741609e+00 1.636896e+01 3.279634e+01 3.500999e+01 5.182982e+01 3.513613e+01 3.919420e+01 3.903091e+01 3.668434e+01 4.581671e+01 3.587613e+01 2.867079e+01 1.197488e-01 3.219706e-01 3.147962e-01 6.188978e-01 6.190462e-01 6.504305e-01 8.178159e-01 8.328034e-01 9.437931e-01 8.907860e-01 7.335367e-01 7.331645e-01 1.297477e-04
<GCONST> 7.123062e+01
<MIXTURE> 115 2.935202e-03
<MEAN> 25
 -4.093559e+00 -4.750079e-01 -3.078464e+00 3.492582e+00 2.627578e+00 -2.946262e-01 2.329978e+00 6.137249e-01 1.555078e+00 -7.477517e-02 6.516541e-02 2.617195e+00 2.203060e-02 -6.562767e-02 -2.121784e-01 -4.562258e-01 -6.427886e-01 -6.964461e-01 -5.246288e-01 -4.461722e-01 -4.822543e-01 -4.745308e-01 -3.544651e-01 -1.675341e-01 -1.005745e-05
<VARIANCE> 25
 8.851553e+00 1.061376e+01 1.297751e+01 1.263602e+01 1.357764e+01 1.701861e+01 1.647589e+01 2.069770e+01 1.904909e+01 1.768412e+01 1.904096e+01 1.424323e+01 2.025990e-01 3.354102e-01 4.747531e-01 5.498090e-01 6.528649e-01 8.237355e-01 1.071307e+00 1.211778e+00 1.085702e+00 9.559618e-01 1.080628e+00 1.030322e+00 1.066058e-06
<GCONST> 6.028833e+01
<MIXTURE> 116 2.935202e-03
<MEAN> 25
 -4.093559e+00 -4.750079e-01 -3.078464e+00 3.492582e+00 2.627578e+00 -2.946262e-01 2.329978e+00 6.137249e-01 1.555078e+00 -7.477517e-02 6.516541e-02 2.617195e+00 2.203060e-02 -6.562767e-02 -2.121784e-01 -4.562258e-01 -6.427886e-01 -6.964461e-01 -5.246288e-01 -4.461722e-01 -4.822543e-01 -4.745308e-01 -3.544651e-01 -1.675341e-01 -1.005745e-05
<VARIANCE> 25
 8.851553e+00 1.061376e+01 1.297751e+01 1.263602e+01 1.357764e+01 1.701861e+01 1.647589e+01 2.069770e+01 1.904909e+01 1.768412e+01 1.904096e+01 1.424323e+01 2.025990e-01 3.354102e-01 4.747531e-01 5.498090e-01 6.528649e-01 8.237355e-01 1.071307e+00 1.211778e+00 1.085702e+00 9.559618e-01 1.080628e+00 1.030322e+00 1.066058e-06
<GCONST> 6.028833e+01
<MIXTURE> 117 6.506003e-03
<MEAN> 25
 -4.639328e+00 1.581825e+00 9.475927e-01 9.123799e+00 6.359848e+00 5.886203e+00 6.043973e+00 5.052664e+00 6.733924e+00 4.733353e+00 5.989951e+00 3.017496e+00 -8.344396e-02 -2.558475e-01 -3.383100e-01 -3.914961e-01 -4.091491e-01 -3.507476e-01 -3.057771e-01 -4.560815e-01 -3.822879e-01 -3.086604e-01 -3.560459e-01 -1.629749e-01 -1.182103e-04
<VARIANCE> 25
 6.462885e+00 9.289653e+00 8.980652e+00 1.584797e+01 1.434496e+01 1.498905e+01 1.745434e+01 1.686144e+01 1.575079e+01 1.563583e+01 1.675025e+01 1.391183e+01 1.962874e-01 2.794371e-01 4.164933e-01 5.844260e-01 8.080910e-01 1.060603e+00 1.125231e+00 1.378829e+00 1.182363e+00 1.105596e+00 1.373278e+00 1.095484e+00 1.113139e-06
<GCONST> 5.994975e+01
<MIXTURE> 118 6.506003e-03
<MEAN> 25
 -4.639328e+00 1.581825e+00 9.475927e-01 9.123799e+00 6.359848e+00 5.886203e+00 6.043973e+00 5.052664e+00 6.733924e+00 4.733353e+00 5.989951e+00 3.017496e+00 -8.344396e-02 -2.558475e-01 -3.383100e-01 -3.914961e-01 -4.091491e-01 -3.507476e-01 -3.057771e-01 -4.560815e-01 -3.822879e-01 -3.086604e-01 -3.560459e-01 -1.629749e-01 -1.182103e-04
<VARIANCE> 25
 6.462885e+00 9.289653e+00 8.980652e+00 1.584797e+01 1.434496e+01 1.498905e+01 1.745434e+01 1.686144e+01 1.575079e+01 1.563583e+01 1.675025e+01 1.391183e+01 1.962874e-01 2.794371e-01 4.164933e-01 5.844260e-01 8.080910e-01 1.060603e+00 1.125231e+00 1.378829e+00 1.182363e+00 1.105596e+00 1.373278e+00 1.095484e+00 1.113139e-06
<GCONST> 5.994975e+01
<MIXTURE> 119 4.297961e-03
<MEAN> 25
 -4.982874e+00 -7.423251e+00 2.247761e+00 1.982574e+00 2.354758e+00 1.834944e-01 5.341055e+00 5.966144e+00 9.521815e-01 9.488971e-01 6.554135e+00 1.964022e+00 -4.132198e-02 -5.578531e-02 6.244015e-02 -5.239466e-02 -1.507799e-01 -2.230213e-01 -4.723190e-02 1.667781e-02 -8.801688e-02 -1.325892e-01 -6.332450e-02 -7.209601e-02 9.303999e-04
<VARIANCE> 25
 8.229666e+00 1.076148e+01 1.601221e+01 1.984640e+01 2.264841e+01 2.254065e+01 2.496227e+01 2.561752e+01 2.599664e+01 2.755198e+01 1.985628e+01 2.476331e+01 1.573115e-01 2.922544e-01 4.638014e-01 6.396358e-01 7.968999e-01 1.023840e+00 1.087530e+00 1.293175e+00 1.245218e+00 1.224619e+00 1.157758e+00 1.100823e+00 2.259040e-04
<GCONST> 6.977181e+01
<MIXTURE> 120 4.297961e-03
<MEAN> 25
 -4.982874e+00 -7.423251e+00 2.247761e+00 1.982574e+00 2.354758e+00 1.834944e-01 5.341055e+00 5.966144e+00 9.521815e-01 9.488971e-01 6.554135e+00 1.964022e+00 -4.132198e-02 -5.578531e-02 6.244015e-02 -5.239466e-02 -1.507799e-01 -2.230213e-01 -4.723190e-02 1.667781e-02 -8.801688e-02 -1.325892e-01 -6.332450e-02 -7.209601e-02 9.303999e-04
<VARIANCE> 25
 8.229666e+00 1.076148e+01 1.601221e+01 1.984640e+01 2.264841e+01 2.254065e+01 2.496227e+01 2.561752e+01 2.599664e+01 2.755198e+01 1.985628e+01 2.476331e+01 1.573115e-01 2.922544e-01 4.638014e-01 6.396358e-01 7.968999e-01 1.023840e+00 1.087530e+00 1.293175e+00 1.245218e+00 1.224619e+00 1.157758e+00 1.100823e+00 2.259040e-04
<GCONST> 6.977181e+01
<MIXTURE> 121 4.567511e-03
<MEAN> 25
 2.516142e-01 -2.329610e+00 5.166985e+00 -1.267075e+01 -1.267238e+01 -1.512068e+00 1.182853e+00 -5.168289e+00 -4.212428e+00 -5.343302e-01 -5.374302e+00 -4.134089e+00 1.908644e-02 1.336847e-01 -3.621131e-02 1.049529e-01 1.276100e-01 6.951344e-03 -5.860448e-02 -1.603947e-01 -2.370674e-01 -2.679120e-01 -1.450610e-01 -5.643918e-03 -7.315765e-03
<VARIANCE> 25
 7.595719e+00 1.626800e+01 1.712584e+01 2.146423e+01 2.372230e+01 2.914579e+01 2.975753e+01 2.399373e+01 3.423840e+01 2.752971e+01 1.970413e+01 2.147837e+01 1.516928e-01 6.272398e-01 6.472874e-01 7.388445e-01 7.910336e-01 1.275532e+00 1.109497e+00 1.137885e+00 1.244190e+00 1.164612e+00 9.444090e-01 8.481584e-01 2.081975e-04
<GCONST> 7.150082e+01
<MIXTURE> 122 4.567511e-03
<MEAN> 25
 2.516142e-01 -2.329610e+00 5.166985e+00 -1.267075e+01 -1.267238e+01 -1.512068e+00 1.182853e+00 -5.168289e+00 -4.212428e+00 -5.343302e-01 -5.374302e+00 -4.134089e+00 1.908644e-02 1.336847e-01 -3.621131e-02 1.049529e-01 1.276100e-01 6.951344e-03 -5.860448e-02 -1.603947e-01 -2.370674e-01 -2.679120e-01 -1.450610e-01 -5.643918e-03 -7.315765e-03
<VARIANCE> 25
 7.595719e+00 1.626800e+01 1.712584e+01 2.146423e+01 2.372230e+01 2.914579e+01 2.975753e+01 2.399373e+01 3.423840e+01 2.752971e+01 1.970413e+01 2.147837e+01 1.516928e-01 6.272398e-01 6.472874e-01 7.388445e-01 7.910336e-01 1.275532e+00 1.109497e+00 1.137885e+00 1.244190e+00 1.164612e+00 9.444090e-01 8.481584e-01 2.081975e-04
<GCONST> 7.150082e+01
<MIXTURE> 123 4.393044e-03
<MEAN> 25
 -4.180002e+00 2.431977e+00 2.921002e-01 5.518647e+00 5.237529e+00 3.274521e+00 3.303538e+00 1.288381e+00 1.638320e+00 -9.473563e-01 -1.025128e-01 8.704374e-01 -4.457341e-01 -7.474203e-01 -8.295954e-01 -5.393924e-01 -1.996247e-01 2.718273e-01 6.291316e-01 8.295553e-01 1.018400e+00 6.900453e-01 6.640373e-01 6.246229e-01 -4.602905e-03
<VARIANCE> 25
 7.315844e+00 1.082485e+01 1.130233e+01 1.306862e+01 1.624373e+01 2.038012e+01 1.708335e+01 1.670320e+01 1.821729e+01 1.407182e+01 1.616436e+01 1.473665e+01 2.751330e-01 2.775948e-01 4.250235e-01 5.588724e-01 1.002063e+00 1.118035e+00 1.028618e+00 1.529656e+00 1.128048e+00 1.103496e+00 1.033943e+00 1.310718e+00 1.524835e-04
<GCONST> 6.608153e+01
<MIXTURE> 124 4.069876e-03
<MEAN> 25
 -6.315516e+00 1.663162e-01 -2.709253e+00 4.182049e+00 5.088766e+00 3.746979e+00 5.315718e+00 2.663931e+00 3.986417e+00 1.028319e+00 1.189893e+00 2.853201e+00 -2.004749e-01 -3.084371e-01 -3.492365e-01 -2.508908e-01 1.595081e-01 5.512856e-01 8.091540e-01 8.665185e-01 6.129413e-01 1.974477e-01 -2.156349e-02 -7.681277e-02 -2.329587e-04
<VARIANCE> 25
 8.673103e+00 9.915815e+00 9.168077e+00 1.207022e+01 1.205868e+01 1.900008e+01 1.303062e+01 1.466721e+01 1.445944e+01 1.385233e+01 1.704949e+01 1.291673e+01 9.625822e-02 1.648237e-01 2.451003e-01 4.207199e-01 5.329198e-01 6.795675e-01 6.358014e-01 8.258708e-01 8.696629e-01 9.437203e-01 1.032964e+00 8.740133e-01 1.852657e-05
<GCONST> 5.721790e+01
<MIXTURE> 125 4.069876e-03
<MEAN> 25
 -6.315516e+00 1.663162e-01 -2.709253e+00 4.182049e+00 5.088766e+00 3.746979e+00 5.315718e+00 2.663931e+00 3.986417e+00 1.028319e+00 1.189893e+00 2.853201e+00 -2.004749e-01 -3.084371e-01 -3.492365e-01 -2.508908e-01 1.595081e-01 5.512856e-01 8.091540e-01 8.665185e-01 6.129413e-01 1.974477e-01 -2.156349e-02 -7.681277e-02 -2.329587e-04
<VARIANCE> 25
 8.673103e+00 9.915815e+00 9.168077e+00 1.207022e+01 1.205868e+01 1.900008e+01 1.303062e+01 1.466721e+01 1.445944e+01 1.385233e+01 1.704949e+01 1.291673e+01 9.625822e-02 1.648237e-01 2.451003e-01 4.207199e-01 5.329198e-01 6.795675e-01 6.358014e-01 8.258708e-01 8.696629e-01 9.437203e-01 1.032964e+00 8.740133e-01 1.852657e-05
<GCONST> 5.721790e+01
<MIXTURE> 126 2.402244e-03
<MEAN> 25
 -3.797303e+00 -6.891100e+00 -5.260740e+00 2.314572e+00 4.275180e+00 -3.225150e+00 8.181061e-02 3.550107e+00 3.357973e+00 -2.688811e+00 -1.422020e+00 3.065327e+00 -2.879334e-03 -5.954582e-03 -3.534101e-02 -1.575487e-01 -3.180008e-01 -3.869548e-01 -2.734841e-01 -1.595091e-01 -1.143124e-01 -1.164789e-01 -9.494554e-02 -2.790831e-02 -1.463813e-03
<VARIANCE> 25
 7.408799e+00 1.304082e+01 1.388524e+01 1.507176e+01 2.457316e+01 2.366162e+01 2.270763e+01 2.833741e+01 3.139560e+01 2.615693e+01 2.171494e+01 1.919091e+01 1.705100e-01 3.515169e-01 4.815926e-01 5.663451e-01 7.527632e-01 9.983911e-01 1.120145e+00 1.268604e+00 1.327431e+00 1.310449e+00 1.215835e+00 1.148961e+00 2.106627e-04
<GCONST> 6.981171e+01
<MIXTURE> 127 2.402244e-03
<MEAN> 25
 -3.797303e+00 -6.891100e+00 -5.260740e+00 2.314572e+00 4.275180e+00 -3.225150e+00 8.181061e-02 3.550107e+00 3.357973e+00 -2.688811e+00 -1.422020e+00 3.065327e+00 -2.879334e-03 -5.954582e-03 -3.534101e-02 -1.575487e-01 -3.180008e-01 -3.869548e-01 -2.734841e-01 -1.595091e-01 -1.143124e-01 -1.164789e-01 -9.494554e-02 -2.790831e-02 -1.463813e-03
<VARIANCE> 25
 7.408799e+00 1.304082e+01 1.388524e+01 1.507176e+01 2.457316e+01 2.366162e+01 2.270763e+01 2.833741e+01 3.139560e+01 2.615693e+01 2.171494e+01 1.919091e+01 1.705100e-01 3.515169e-01 4.815926e-01 5.663451e-01 7.527632e-01 9.983911e-01 1.120145e+00 1.268604e+00 1.327431e+00 1.310449e+00 1.215835e+00 1.148961e+00 2.106627e-04
<GCONST> 6.981171e+01
<MIXTURE> 128 3.790457e-03
<MEAN> 25
 -3.959583e+00 1.594017e+00 -3.631568e-01 6.486726e+00 3.642851e+00 1.878420e+00 3.561774e+00 2.347596e+00 4.016681e+00 3.617016e+00 3.729726e+00 3.564894e+00 -3.928904e-01 -1.977459e-01 8.908712e-02 7.114146e-01 1.170012e+00 1.127033e+00 7.137672e-01 1.204167e-01 -4.340191e-01 -7.860334e-01 -7.015085e-01 -3.958229e-01 -5.500999e-05
<VARIANCE> 25
 1.009836e+01 1.168154e+01 1.481064e+01 1.955649e+01 1.980871e+01 2.092336e+01 2.397278e+01 2.443657e+01 2.630970e+01 2.400260e+01 2.657971e+01 1.803198e+01 8.803843e-01 1.129529e+00 1.358629e+00 1.503329e+00 1.580341e+00 1.875342e+00 2.225146e+00 2.323946e+00 2.136667e+00 1.835340e+00 1.745571e+00 1.725872e+00 1.039099e-06
<GCONST> 7.353658e+01
<TRANSP> 3
 0.000000e+00 1.000000e+00 0.000000e+00
 0.000000e+00 9.999990e-01 9.999998e-07
 0.000000e+00 0.000000e+00 0.000000e+00
<ENDHMM>
