~o
<STREAMINFO> 1 25
<VECSIZE> 25<NULLD><MFCC_E_D_N><DIAGC>
~h "jmodel"
<BEGINHMM>
<NUMSTATES> 3
<STATE> 2
<NUMMIXES> 128
<MIXTURE> 1 5.748963e-03
<MEAN> 25
 -2.586351e+00 3.196795e+00 2.303666e+00 8.750517e+00 4.359913e+00 3.433361e+00 4.064284e+00 3.931774e+00 5.822601e+00 5.243223e+00 5.870514e+00 3.076911e+00 -2.006011e+00 -1.631282e+00 -8.628857e-01 1.073124e+00 1.562787e+00 2.233057e+00 2.152631e+00 2.083197e+00 1.691803e+00 1.267152e+00 1.564242e+00 6.142042e-01 -4.683193e-02
<VARIANCE> 25
 1.005221e+01 1.185280e+01 1.495233e+01 1.865582e+01 2.322862e+01 2.224165e+01 2.185334e+01 2.194118e+01 2.100538e+01 2.254482e+01 2.101348e+01 1.705641e+01 1.786025e+00 2.114802e+00 3.021235e+00 3.208687e+00 3.734115e+00 3.350113e+00 3.314425e+00 3.376150e+00 3.516874e+00 3.723376e+00 3.512543e+00 2.830043e+00 3.120569e-03
<GCONST> 8.846146e+01
<MIXTURE> 2 4.549242e-03
<MEAN> 25
 -4.873163e+00 1.312886e+00 9.922806e-01 9.897297e+00 6.692051e+00 7.423060e+00 7.846368e+00 6.959157e+00 8.373678e+00 6.371258e+00 7.621720e+00 3.074224e+00 -6.194233e-02 4.145835e-02 1.420835e-01 2.256501e-01 2.651325e-01 2.816117e-01 2.950309e-01 3.196311e-01 3.495880e-01 3.090901e-01 1.969624e-01 8.014346e-02 5.244405e-07
<VARIANCE> 25
 6.967375e+00 8.902659e+00 1.065956e+01 1.592292e+01 1.723172e+01 1.556576e+01 1.689445e+01 1.848293e+01 1.658188e+01 1.738868e+01 1.812411e+01 1.433556e+01 1.252160e-01 2.266443e-01 3.370080e-01 4.670886e-01 6.491181e-01 8.148705e-01 9.300936e-01 1.002838e+00 1.051444e+00 1.077666e+00 1.075437e+00 1.013658e+00 1.001581e-06
<GCONST> 5.804834e+01
<MIXTURE> 3 4.549242e-03
<MEAN> 25
 -4.873163e+00 1.312886e+00 9.922806e-01 9.897297e+00 6.692051e+00 7.423060e+00 7.846368e+00 6.959157e+00 8.373678e+00 6.371258e+00 7.621720e+00 3.074224e+00 -6.194233e-02 4.145835e-02 1.420835e-01 2.256501e-01 2.651325e-01 2.816117e-01 2.950309e-01 3.196311e-01 3.495880e-01 3.090901e-01 1.969624e-01 8.014346e-02 5.244405e-07
<VARIANCE> 25
 6.967375e+00 8.902659e+00 1.065956e+01 1.592292e+01 1.723172e+01 1.556576e+01 1.689445e+01 1.848293e+01 1.658188e+01 1.738868e+01 1.812411e+01 1.433556e+01 1.252160e-01 2.266443e-01 3.370080e-01 4.670886e-01 6.491181e-01 8.148705e-01 9.300936e-01 1.002838e+00 1.051444e+00 1.077666e+00 1.075437e+00 1.013658e+00 1.001581e-06
<GCONST> 5.804834e+01
<MIXTURE> 4 1.671429e-02
<MEAN> 25
 3.478930e+00 2.522621e+00 -3.801414e+00 9.458988e-01 4.296710e+00 -2.656175e-01 -8.799219e-02 -1.277985e-01 1.378217e+00 1.342822e+00 -1.780339e+00 9.544907e-02 -2.768461e+00 1.199587e+00 1.758010e+00 3.031921e+00 9.117890e-01 4.746828e-01 1.507050e+00 1.037041e+00 9.964352e-01 4.225977e-01 1.180923e+00 8.879819e-01 -1.017238e-01
<VARIANCE> 25
 2.089165e+01 2.914698e+01 2.910731e+01 3.918316e+01 4.513346e+01 6.778906e+01 6.592365e+01 5.412745e+01 5.557948e+01 6.126756e+01 4.960755e+01 3.536750e+01 2.334168e+00 5.016129e+00 3.740030e+00 5.051468e+00 4.950610e+00 6.117747e+00 6.002933e+00 5.482965e+00 5.922695e+00 6.323051e+00 6.230780e+00 4.399088e+00 6.409385e-03
<GCONST> 1.053943e+02
<MIXTURE> 5 3.206198e-03
<MEAN> 25
 -3.416119e+00 2.184162e+00 6.086035e-01 9.426818e+00 6.695151e+00 6.313236e+00 7.111631e+00 4.723231e+00 5.495230e+00 3.846611e+00 4.656400e+00 2.606242e+00 -3.251461e-01 7.526300e-01 1.224255e+00 1.032056e+00 3.081702e-01 -9.963574e-02 -8.359781e-02 3.397844e-02 4.578933e-01 6.833527e-01 4.034941e-01 8.823209e-02 -2.718578e-05
<VARIANCE> 25
 1.025146e+01 1.395934e+01 2.348578e+01 2.561616e+01 2.023415e+01 1.944313e+01 2.010646e+01 2.035420e+01 2.141501e+01 2.128091e+01 2.409890e+01 1.635368e+01 1.210962e+00 1.244035e+00 1.357480e+00 1.673668e+00 2.285235e+00 2.376910e+00 2.301023e+00 2.274921e+00 2.315012e+00 2.238037e+00 2.085235e+00 1.873817e+00 1.001151e-06
<GCONST> 7.516933e+01
<MIXTURE> 6 5.475854e-03
<MEAN> 25
 9.914368e+00 -5.571114e-01 -7.576404e+00 -1.200577e+01 -1.198147e+00 7.130505e+00 -5.858003e+00 -5.071077e+00 -2.613228e+00 1.461881e+00 4.488338e+00 -1.340897e+00 5.046003e-01 9.526207e-01 -2.841580e-01 -1.456181e+00 -6.863964e-01 1.249617e+00 1.617915e+00 1.052786e-01 -1.351448e+00 -9.748289e-01 4.536887e-01 1.148048e+00 -9.083054e-03
<VARIANCE> 25
 8.910353e+00 1.539973e+01 2.683087e+01 4.096807e+01 3.817915e+01 2.856554e+01 3.976960e+01 3.454068e+01 4.387031e+01 3.592730e+01 3.757218e+01 2.535335e+01 2.862223e-01 7.901456e-01 9.288001e-01 1.827831e+00 1.497617e+00 1.861940e+00 1.835173e+00 1.943832e+00 2.374853e+00 2.141044e+00 2.107170e+00 1.339787e+00 5.409974e-04
<GCONST> 8.279451e+01
<MIXTURE> 7 5.475854e-03
<MEAN> 25
 9.914368e+00 -5.571114e-01 -7.576404e+00 -1.200577e+01 -1.198147e+00 7.130505e+00 -5.858003e+00 -5.071077e+00 -2.613228e+00 1.461881e+00 4.488338e+00 -1.340897e+00 5.046003e-01 9.526207e-01 -2.841580e-01 -1.456181e+00 -6.863964e-01 1.249617e+00 1.617915e+00 1.052786e-01 -1.351448e+00 -9.748289e-01 4.536887e-01 1.148048e+00 -9.083054e-03
<VARIANCE> 25
 8.910353e+00 1.539973e+01 2.683087e+01 4.096807e+01 3.817915e+01 2.856554e+01 3.976960e+01 3.454068e+01 4.387031e+01 3.592730e+01 3.757218e+01 2.535335e+01 2.862223e-01 7.901456e-01 9.288001e-01 1.827831e+00 1.497617e+00 1.861940e+00 1.835173e+00 1.943832e+00 2.374853e+00 2.141044e+00 2.107170e+00 1.339787e+00 5.409974e-04
<GCONST> 8.279451e+01
<MIXTURE> 8 1.165917e-02
<MEAN> 25
 -4.727798e+00 1.365296e+00 1.285148e+00 9.554749e+00 6.580957e+00 6.253370e+00 6.481479e+00 5.690508e+00 6.658341e+00 5.630761e+00 6.566809e+00 3.153068e+00 -6.304699e-01 -1.424345e+00 -1.069935e+00 -1.730145e+00 -2.305186e-01 -9.452410e-01 -1.773260e-01 -2.891989e-01 -2.533460e-01 -1.741851e-01 -2.131135e-01 8.078264e-02 9.882925e-02
<VARIANCE> 25
 9.357219e+00 9.846798e+00 1.165578e+01 1.607127e+01 1.666069e+01 1.570119e+01 1.812364e+01 1.750852e+01 1.703311e+01 1.738482e+01 1.890224e+01 1.398905e+01 2.757670e+00 2.816674e+00 3.905264e+00 3.759851e+00 3.453582e+00 3.313496e+00 3.126384e+00 3.078951e+00 2.869697e+00 2.657361e+00 2.433908e+00 1.902278e+00 6.682076e-03
<GCONST> 8.629236e+01
<MIXTURE> 9 1.199672e-02
<MEAN> 25
 9.277043e+00 3.344003e+00 -6.206407e+00 -1.068433e+01 -2.187936e+00 4.948099e+00 -2.250767e+00 -2.351355e+00 -5.360559e+00 -1.243391e+00 5.817738e-01 -4.651268e-02 1.427862e+00 -1.224081e-01 -5.082167e-01 -2.713255e+00 -1.626856e+00 8.590679e-01 -9.698755e-01 -2.343754e-01 -1.696787e-01 -5.719798e-01 6.220558e-01 -1.593191e-01 7.312618e-02
<VARIANCE> 25
 1.226581e+01 2.173551e+01 3.344898e+01 5.338171e+01 5.001666e+01 3.221531e+01 4.327457e+01 5.233355e+01 4.212938e+01 4.140469e+01 3.599800e+01 2.703448e+01 2.119548e+00 2.450017e+00 4.620532e+00 4.889371e+00 5.054891e+00 4.084507e+00 4.219257e+00 6.011154e+00 5.033041e+00 4.063355e+00 4.013837e+00 2.797917e+00 2.211388e-03
<GCONST> 9.882313e+01
<MIXTURE> 10 6.596976e-03
<MEAN> 25
 8.342732e-01 7.619401e+00 5.356378e+00 7.137909e+00 1.570908e+00 -2.121084e+00 -5.174266e-01 -1.682699e+00 8.522804e-01 8.557816e-01 8.324398e-01 6.449170e-01 -1.920891e+00 -6.634622e-01 -4.620864e-01 3.018291e+00 2.454058e+00 2.703543e+00 2.368234e+00 2.270927e+00 1.872833e+00 1.537069e+00 2.321592e+00 5.261200e-01 -1.378827e-01
<VARIANCE> 25
 1.952956e+01 2.068939e+01 2.231348e+01 2.899997e+01 3.823905e+01 3.486749e+01 3.500676e+01 3.370963e+01 2.762011e+01 2.895960e+01 2.688083e+01 2.496347e+01 2.230614e+00 3.434589e+00 5.516044e+00 5.178182e+00 5.553382e+00 4.462763e+00 4.688776e+00 4.839931e+00 4.421364e+00 5.014958e+00 4.473124e+00 3.178097e+00 2.704796e-03
<GCONST> 9.744402e+01
<MIXTURE> 11 1.633820e-02
<MEAN> 25
 7.138870e+00 2.258141e+00 2.858383e+00 5.871718e+00 -4.783003e+00 -3.806491e+00 -1.288816e+00 -6.482335e+00 -5.139013e+00 4.830379e-01 -2.220436e+00 -2.845002e+00 -2.082807e-01 8.156475e-01 1.746791e-02 4.175921e-02 7.179751e-01 -1.125953e-01 8.605695e-02 3.880946e-01 -2.147612e-01 1.791009e-01 1.474866e-01 -7.043281e-03 -2.335591e-02
<VARIANCE> 25
 1.537466e+01 3.274649e+01 1.667369e+01 2.465371e+01 3.058137e+01 3.489228e+01 3.770016e+01 3.093723e+01 4.426784e+01 2.707639e+01 2.938358e+01 2.484352e+01 1.094990e+00 1.160952e+00 1.430769e+00 2.359337e+00 1.835701e+00 2.147608e+00 2.078583e+00 2.963779e+00 2.178361e+00 1.627623e+00 1.479300e+00 1.250921e+00 7.594032e-04
<GCONST> 8.524813e+01
<MIXTURE> 12 5.904134e-03
<MEAN> 25
 1.078670e+01 3.707538e+00 -4.588670e+00 -1.604298e+01 -8.575604e+00 8.671429e+00 -8.822215e-01 -1.963123e+00 -1.701983e+00 -4.812783e+00 1.813874e+00 6.739383e-01 7.239979e-02 2.978425e-01 8.589239e-02 -3.680843e-01 -3.200388e-01 3.083213e-02 3.238640e-01 4.357671e-01 1.192122e-01 -3.662008e-01 -3.745898e-01 4.845520e-02 -6.357121e-03
<VARIANCE> 25
 8.899223e+00 2.090508e+01 2.377567e+01 3.489397e+01 4.285003e+01 3.070085e+01 4.139889e+01 4.861223e+01 4.360675e+01 3.744650e+01 3.770613e+01 2.876098e+01 2.460358e-01 6.847771e-01 6.823500e-01 1.159791e+00 1.183465e+00 1.043446e+00 1.192831e+00 1.383188e+00 1.269014e+00 1.239820e+00 1.218413e+00 9.491817e-01 5.725795e-04
<GCONST> 7.889998e+01
<MIXTURE> 13 5.904134e-03
<MEAN> 25
 1.078670e+01 3.707538e+00 -4.588670e+00 -1.604298e+01 -8.575604e+00 8.671429e+00 -8.822215e-01 -1.963123e+00 -1.701983e+00 -4.812783e+00 1.813874e+00 6.739383e-01 7.239979e-02 2.978425e-01 8.589239e-02 -3.680843e-01 -3.200388e-01 3.083213e-02 3.238640e-01 4.357671e-01 1.192122e-01 -3.662008e-01 -3.745898e-01 4.845520e-02 -6.357121e-03
<VARIANCE> 25
 8.899223e+00 2.090508e+01 2.377567e+01 3.489397e+01 4.285003e+01 3.070085e+01 4.139889e+01 4.861223e+01 4.360675e+01 3.744650e+01 3.770613e+01 2.876098e+01 2.460358e-01 6.847771e-01 6.823500e-01 1.159791e+00 1.183465e+00 1.043446e+00 1.192831e+00 1.383188e+00 1.269014e+00 1.239820e+00 1.218413e+00 9.491817e-01 5.725795e-04
<GCONST> 7.889998e+01
<MIXTURE> 14 6.488954e-03
<MEAN> 25
 -3.936993e+00 -2.548454e-01 -7.698280e-01 8.701772e+00 7.854994e+00 7.448094e+00 7.705872e+00 7.183958e+00 7.305613e+00 5.157386e+00 6.502146e+00 4.170340e+00 -2.631850e-01 2.114181e-01 3.721312e-01 3.319116e-01 7.651747e-02 4.618457e-02 8.040282e-02 1.368730e-01 2.440709e-01 5.298450e-01 4.801899e-01 1.007778e-01 -7.406631e-03
<VARIANCE> 25
 1.054039e+01 1.328664e+01 2.012549e+01 1.750900e+01 2.125598e+01 1.879750e+01 2.040602e+01 2.018896e+01 1.890758e+01 2.291480e+01 2.178912e+01 1.527865e+01 9.066452e-01 1.563174e+00 1.668549e+00 1.846120e+00 2.200040e+00 2.126316e+00 2.132880e+00 2.149133e+00 2.194723e+00 2.432901e+00 2.071007e+00 1.721608e+00 1.029950e-03
<GCONST> 8.125149e+01
<MIXTURE> 15 2.475190e-03
<MEAN> 25
 -5.370029e+00 -6.115040e-01 -2.442731e-01 7.338776e+00 5.748623e+00 5.681286e+00 6.044573e+00 5.010101e+00 5.186139e+00 4.133358e+00 5.481169e+00 2.543684e+00 -1.202831e-01 -2.719506e-02 7.528138e-02 2.437532e-01 4.838780e-01 7.794225e-01 1.070418e+00 1.174638e+00 1.054676e+00 7.588603e-01 4.174376e-01 1.522465e-01 -6.669663e-05
<VARIANCE> 25
 7.318747e+00 5.713940e+00 9.213682e+00 1.284410e+01 1.413018e+01 1.434522e+01 1.489401e+01 1.494417e+01 1.408882e+01 1.415953e+01 1.509303e+01 1.244891e+01 1.241151e-01 2.061303e-01 3.187886e-01 5.031221e-01 7.000564e-01 7.993202e-01 7.591760e-01 7.944645e-01 9.068992e-01 1.025134e+00 1.066631e+00 1.034614e+00 2.802934e-05
<GCONST> 5.866374e+01
<MIXTURE> 16 2.475190e-03
<MEAN> 25
 -5.370029e+00 -6.115040e-01 -2.442731e-01 7.338776e+00 5.748623e+00 5.681286e+00 6.044573e+00 5.010101e+00 5.186139e+00 4.133358e+00 5.481169e+00 2.543684e+00 -1.202831e-01 -2.719506e-02 7.528138e-02 2.437532e-01 4.838780e-01 7.794225e-01 1.070418e+00 1.174638e+00 1.054676e+00 7.588603e-01 4.174376e-01 1.522465e-01 -6.669663e-05
<VARIANCE> 25
 7.318747e+00 5.713940e+00 9.213682e+00 1.284410e+01 1.413018e+01 1.434522e+01 1.489401e+01 1.494417e+01 1.408882e+01 1.415953e+01 1.509303e+01 1.244891e+01 1.241151e-01 2.061303e-01 3.187886e-01 5.031221e-01 7.000564e-01 7.993202e-01 7.591760e-01 7.944645e-01 9.068992e-01 1.025134e+00 1.066631e+00 1.034614e+00 2.802934e-05
<GCONST> 5.866374e+01
<MIXTURE> 17 9.518312e-03
<MEAN> 25
 3.701998e+00 -9.036943e-01 6.355818e+00 2.426521e+00 -6.118807e+00 -6.454566e+00 -3.231537e+00 -2.772505e-01 -2.664733e+00 -3.225041e+00 1.132770e-01 -3.128637e-02 -7.299578e-01 -1.254937e+00 1.309787e+00 -2.127098e+00 -2.370200e+00 -1.818847e-01 1.343690e-01 7.651953e-01 -2.580805e-01 -1.757715e-01 9.843892e-01 4.129642e-01 8.183888e-02
<VARIANCE> 25
 1.636893e+01 3.149262e+01 3.002213e+01 3.855557e+01 4.531225e+01 4.782579e+01 4.168692e+01 3.406139e+01 3.451475e+01 2.644345e+01 2.745112e+01 2.736552e+01 1.932811e+00 2.701699e+00 3.937657e+00 3.014496e+00 4.079154e+00 5.406252e+00 4.992269e+00 4.594716e+00 3.980670e+00 3.928644e+00 3.097961e+00 2.673495e+00 2.092781e-03
<GCONST> 9.667140e+01
<MIXTURE> 18 1.221018e-02
<MEAN> 25
 3.916556e+00 4.002958e+00 6.390521e+00 4.192723e+00 -4.548588e+00 -7.645669e+00 -2.135687e+00 -1.203488e+00 -4.016072e+00 -2.413429e+00 -3.150135e-01 5.433993e-01 -9.317573e-01 2.225139e+00 -2.680212e-01 1.604838e+00 2.934255e+00 1.195680e+00 9.193912e-01 9.815581e-02 1.051614e+00 4.571606e-01 -4.584243e-01 7.830888e-02 -1.152802e-01
<VARIANCE> 25
 1.435985e+01 2.497365e+01 2.973518e+01 2.697292e+01 4.020053e+01 3.150529e+01 3.486023e+01 2.967036e+01 4.440544e+01 3.755613e+01 2.965534e+01 3.236759e+01 2.396428e+00 2.669171e+00 4.047294e+00 4.358644e+00 3.925997e+00 4.481281e+00 4.364235e+00 4.271617e+00 4.963487e+00 3.756504e+00 4.141056e+00 3.108363e+00 3.853900e-03
<GCONST> 9.732878e+01
<MIXTURE> 19 9.912824e-03
<MEAN> 25
 -1.008037e+01 1.630384e+00 5.960943e-01 1.110663e-01 3.426278e+00 1.868517e+00 2.846527e+00 3.493433e-01 1.700989e+00 1.693846e+00 4.483682e-01 2.279078e+00 2.145302e+00 1.673431e+00 2.084281e+00 8.807709e-01 -1.217489e+00 -8.236279e-01 -8.247526e-01 -1.647853e+00 -1.906032e+00 -1.162737e+00 -5.260877e-01 -7.949119e-01 -5.394017e-04
<VARIANCE> 25
 4.608641e+01 2.658347e+01 4.203502e+01 5.235204e+01 3.084666e+01 2.857616e+01 3.362584e+01 3.216575e+01 2.590761e+01 2.495403e+01 2.974119e+01 1.763088e+01 2.238320e+00 2.038209e+00 1.926197e+00 2.105045e+00 2.502996e+00 2.211194e+00 2.397631e+00 2.387475e+00 2.742815e+00 1.982656e+00 2.401782e+00 1.672538e+00 2.092616e-03
<GCONST> 9.054385e+01
<MIXTURE> 20 6.308331e-03
<MEAN> 25
 -1.397355e+01 7.441268e+00 8.389999e-01 6.045117e+00 4.715082e+00 1.498084e+00 5.117351e+00 9.264889e-01 9.754623e-01 7.420004e-01 2.503650e+00 -1.904930e-01 -3.296143e+00 -8.391222e-01 -1.527478e+00 2.885320e-01 1.572829e+00 2.069094e+00 1.951939e+00 2.036831e+00 2.099383e+00 1.988250e+00 1.643003e+00 9.422894e-01 4.732690e-02
<VARIANCE> 25
 2.076338e+01 2.319567e+01 3.029005e+01 3.706004e+01 3.063330e+01 2.782097e+01 2.965049e+01 3.111521e+01 2.749018e+01 2.776087e+01 2.504513e+01 2.091982e+01 2.073702e+00 2.183544e+00 1.901821e+00 2.583343e+00 2.709444e+00 2.255936e+00 2.269244e+00 2.296467e+00 2.247503e+00 2.676935e+00 2.237373e+00 1.854895e+00 1.894407e-03
<GCONST> 8.913342e+01
<MIXTURE> 21 7.928653e-03
<MEAN> 25
 4.015165e+00 -4.538653e+00 5.779079e+00 -1.537737e+00 -1.058093e+01 -8.710573e+00 -2.617379e+00 4.154685e+00 -2.074590e+00 -3.419516e+00 2.324204e-01 3.391992e-01 -7.189562e-01 1.338798e+00 2.584126e+00 -4.720830e-02 -1.545188e+00 3.375401e-01 5.850953e-01 -1.496953e+00 -1.958217e+00 3.172487e-01 1.327087e+00 2.462600e-01 -1.276283e-02
<VARIANCE> 25
 8.929155e+00 1.872322e+01 2.961142e+01 2.839659e+01 2.850884e+01 3.329174e+01 4.287476e+01 3.951919e+01 4.285639e+01 3.158472e+01 3.384838e+01 2.319951e+01 3.760291e-01 9.528450e-01 1.866554e+00 1.291837e+00 2.232860e+00 2.186409e+00 3.644763e+00 2.498202e+00 2.158968e+00 2.599286e+00 2.015582e+00 2.281217e+00 4.282279e-04
<GCONST> 8.511040e+01
<MIXTURE> 22 8.827789e-03
<MEAN> 25
 -1.791537e+01 7.160760e+00 -4.059398e+00 7.263030e+00 4.681331e+00 2.771067e+00 8.408936e+00 1.854499e+00 5.335661e+00 3.325260e+00 5.674597e+00 1.198976e+00 -3.160678e-01 -2.087928e-01 -1.247147e-01 -1.355956e-01 8.372828e-03 1.384931e-01 1.901806e-01 1.645756e-01 2.366516e-01 1.794625e-01 1.614836e-01 1.869243e-01 9.428848e-03
<VARIANCE> 25
 8.377593e+00 1.659220e+01 1.760836e+01 2.634858e+01 2.319854e+01 2.077534e+01 1.922934e+01 1.925381e+01 1.802361e+01 2.066687e+01 1.909163e+01 1.361753e+01 1.079802e+00 1.350057e+00 1.347624e+00 1.572507e+00 1.409064e+00 1.512870e+00 1.499799e+00 1.524525e+00 1.605435e+00 1.592045e+00 1.351025e+00 1.176611e+00 1.746177e-03
<GCONST> 7.835752e+01
<MIXTURE> 23 6.455497e-03
<MEAN> 25
 8.070753e+00 2.392608e-01 3.649797e+00 2.966708e+00 -5.887585e+00 -3.346128e+00 -3.220509e+00 -6.377377e+00 -2.905439e+00 -2.295374e+00 -4.939862e+00 -2.512923e+00 2.746400e-02 1.800853e-01 5.110186e-02 3.382591e-02 6.675981e-03 1.668900e-01 -4.821381e-02 2.999299e-02 2.466669e-02 -4.915399e-02 2.811836e-02 3.076359e-01 -4.752555e-03
<VARIANCE> 25
 1.004670e+01 3.290958e+01 2.078684e+01 3.249180e+01 3.262073e+01 4.394068e+01 4.996770e+01 4.343763e+01 3.859444e+01 4.168989e+01 3.992821e+01 3.499537e+01 1.098242e-01 2.497239e-01 3.810776e-01 4.371287e-01 5.737636e-01 6.183462e-01 6.635522e-01 8.019446e-01 9.264634e-01 9.326165e-01 6.873966e-01 8.714435e-01 8.638606e-05
<GCONST> 7.076845e+01
<MIXTURE> 24 6.455497e-03
<MEAN> 25
 8.070753e+00 2.392608e-01 3.649797e+00 2.966708e+00 -5.887585e+00 -3.346128e+00 -3.220509e+00 -6.377377e+00 -2.905439e+00 -2.295374e+00 -4.939862e+00 -2.512923e+00 2.746400e-02 1.800853e-01 5.110186e-02 3.382591e-02 6.675981e-03 1.668900e-01 -4.821381e-02 2.999299e-02 2.466669e-02 -4.915399e-02 2.811836e-02 3.076359e-01 -4.752555e-03
<VARIANCE> 25
 1.004670e+01 3.290958e+01 2.078684e+01 3.249180e+01 3.262073e+01 4.394068e+01 4.996770e+01 4.343763e+01 3.859444e+01 4.168989e+01 3.992821e+01 3.499537e+01 1.098242e-01 2.497239e-01 3.810776e-01 4.371287e-01 5.737636e-01 6.183462e-01 6.635522e-01 8.019446e-01 9.264634e-01 9.326165e-01 6.873966e-01 8.714435e-01 8.638606e-05
<GCONST> 7.076845e+01
<MIXTURE> 25 1.118642e-02
<MEAN> 25
 3.167929e-01 3.386216e+00 1.670508e+01 -9.888459e-01 -1.135897e+01 -1.750683e+00 -5.003264e+00 -2.983981e+00 -6.967669e+00 -5.455065e+00 4.099882e+00 -1.640573e+00 -1.277659e-01 4.363149e-01 1.622905e-01 1.505515e-01 2.187338e-01 1.110002e-01 1.841823e-01 -1.652944e-01 -2.384281e-01 7.054536e-02 -7.629293e-02 -9.866352e-02 -1.299706e-02
<VARIANCE> 25
 8.822034e+00 2.293891e+01 2.139928e+01 2.886147e+01 3.145823e+01 4.079573e+01 2.743037e+01 2.984408e+01 2.840631e+01 3.699600e+01 2.102648e+01 2.738622e+01 6.049160e-01 1.460739e+00 1.403786e+00 1.379472e+00 2.262129e+00 2.050894e+00 1.785467e+00 1.637406e+00 1.545157e+00 1.650221e+00 1.352399e+00 1.303264e+00 1.276675e-03
<GCONST> 8.284483e+01
<MIXTURE> 26 7.727677e-03
<MEAN> 25
 2.192621e+00 -6.270393e+00 -1.031365e+01 -6.769666e-01 8.036238e+00 5.480468e+00 4.015335e+00 -1.552553e-01 2.313439e+00 -8.778717e-01 -2.787762e+00 -9.209151e-01 -6.687955e-01 6.281497e-01 3.499509e-01 6.685322e-01 1.958558e-01 2.195608e-01 2.902138e-01 3.135097e-01 2.897143e-01 1.021729e-01 3.793666e-01 4.125277e-01 -5.148354e-02
<VARIANCE> 25
 2.465007e+01 3.437265e+01 2.536701e+01 6.097953e+01 3.858772e+01 4.140747e+01 4.625954e+01 4.452213e+01 3.870044e+01 5.389939e+01 3.994225e+01 4.572489e+01 1.649865e+00 1.932070e+00 1.961275e+00 2.002389e+00 2.295329e+00 2.335470e+00 2.500559e+00 2.729795e+00 2.354631e+00 2.330889e+00 2.114213e+00 1.977073e+00 3.369837e-03
<GCONST> 9.375974e+01
<MIXTURE> 27 7.727677e-03
<MEAN> 25
 2.192621e+00 -6.270393e+00 -1.031365e+01 -6.769666e-01 8.036238e+00 5.480468e+00 4.015335e+00 -1.552553e-01 2.313439e+00 -8.778717e-01 -2.787762e+00 -9.209151e-01 -6.687955e-01 6.281497e-01 3.499509e-01 6.685322e-01 1.958558e-01 2.195608e-01 2.902138e-01 3.135097e-01 2.897143e-01 1.021729e-01 3.793666e-01 4.125277e-01 -5.148354e-02
<VARIANCE> 25
 2.465007e+01 3.437265e+01 2.536701e+01 6.097953e+01 3.858772e+01 4.140747e+01 4.625954e+01 4.452213e+01 3.870044e+01 5.389939e+01 3.994225e+01 4.572489e+01 1.649865e+00 1.932070e+00 1.961275e+00 2.002389e+00 2.295329e+00 2.335470e+00 2.500559e+00 2.729795e+00 2.354631e+00 2.330889e+00 2.114213e+00 1.977073e+00 3.369837e-03
<GCONST> 9.375974e+01
<MIXTURE> 28 5.036674e-03
<MEAN> 25
 -5.446410e+00 1.473637e-02 -1.571934e+00 6.613895e+00 5.234214e+00 3.516646e+00 5.414564e+00 3.134299e+00 3.924894e+00 2.392774e+00 2.636705e+00 3.220280e+00 -1.151672e-01 2.230646e-01 5.280356e-01 7.842106e-01 8.217256e-01 7.028614e-01 5.225618e-01 3.918327e-01 4.444956e-01 4.822584e-01 3.710195e-01 1.896414e-01 -1.204905e-05
<VARIANCE> 25
 1.046671e+01 8.360690e+00 1.216203e+01 1.484398e+01 1.470814e+01 1.772829e+01 1.804236e+01 1.902865e+01 1.718344e+01 1.673459e+01 2.060048e+01 1.499478e+01 2.563783e-01 3.364879e-01 4.077677e-01 4.645390e-01 6.216679e-01 8.471609e-01 1.056769e+00 1.144488e+00 1.102116e+00 1.029636e+00 1.036515e+00 1.066478e+00 1.004020e-06
<GCONST> 6.026131e+01
<MIXTURE> 29 5.036674e-03
<MEAN> 25
 -5.446410e+00 1.473637e-02 -1.571934e+00 6.613895e+00 5.234214e+00 3.516646e+00 5.414564e+00 3.134299e+00 3.924894e+00 2.392774e+00 2.636705e+00 3.220280e+00 -1.151672e-01 2.230646e-01 5.280356e-01 7.842106e-01 8.217256e-01 7.028614e-01 5.225618e-01 3.918327e-01 4.444956e-01 4.822584e-01 3.710195e-01 1.896414e-01 -1.204905e-05
<VARIANCE> 25
 1.046671e+01 8.360690e+00 1.216203e+01 1.484398e+01 1.470814e+01 1.772829e+01 1.804236e+01 1.902865e+01 1.718344e+01 1.673459e+01 2.060048e+01 1.499478e+01 2.563783e-01 3.364879e-01 4.077677e-01 4.645390e-01 6.216679e-01 8.471609e-01 1.056769e+00 1.144488e+00 1.102116e+00 1.029636e+00 1.036515e+00 1.066478e+00 1.004020e-06
<GCONST> 6.026131e+01
<MIXTURE> 30 8.917812e-03
<MEAN> 25
 -2.700601e+00 7.382383e-01 -1.136184e+00 7.771293e+00 8.439179e+00 6.666467e+00 7.092679e+00 7.835692e+00 7.448058e+00 4.164324e+00 5.631495e+00 3.277349e+00 -1.094595e-02 4.126538e-02 9.223716e-02 1.121169e-01 3.317859e-02 6.933283e-02 5.371326e-02 -5.535302e-02 1.153081e-01 -2.876135e-02 2.351166e-02 4.012710e-02 9.150014e-05
<VARIANCE> 25
 1.123543e+01 9.479354e+00 1.423455e+01 1.433646e+01 1.430406e+01 1.579389e+01 1.630986e+01 1.665783e+01 1.468888e+01 1.612759e+01 1.961063e+01 1.147279e+01 8.256225e-02 1.848411e-01 3.169075e-01 4.688557e-01 6.110049e-01 6.548793e-01 7.531838e-01 7.800338e-01 7.681792e-01 1.015821e+00 7.839292e-01 6.690888e-01 5.570801e-05
<GCONST> 5.961649e+01
<MIXTURE> 31 4.136493e-03
<MEAN> 25
 -3.236645e+00 -5.588232e+00 -2.939258e-02 4.869922e+00 3.756771e+00 1.710405e+00 5.237765e+00 6.682714e+00 2.808932e+00 1.240104e+00 6.470757e+00 3.162983e+00 2.499372e-01 4.692721e-01 -2.099635e-01 3.071108e-01 1.194198e-01 4.207363e-01 1.892884e-01 1.101496e-02 3.721897e-01 3.839187e-01 1.061487e-01 1.151592e-01 -1.821502e-02
<VARIANCE> 25
 7.426873e+00 1.597370e+01 1.789591e+01 1.781701e+01 2.540073e+01 2.373757e+01 2.343312e+01 2.511753e+01 2.605743e+01 2.774072e+01 2.043109e+01 1.851072e+01 1.903212e-01 4.929790e-01 5.991491e-01 7.621729e-01 9.593672e-01 1.086145e+00 1.217159e+00 1.383501e+00 1.340206e+00 1.314078e+00 1.235398e+00 1.123066e+00 2.582269e-04
<GCONST> 7.182973e+01
<MIXTURE> 32 4.136493e-03
<MEAN> 25
 -3.236645e+00 -5.588232e+00 -2.939258e-02 4.869922e+00 3.756771e+00 1.710405e+00 5.237765e+00 6.682714e+00 2.808932e+00 1.240104e+00 6.470757e+00 3.162983e+00 2.499372e-01 4.692721e-01 -2.099635e-01 3.071108e-01 1.194198e-01 4.207363e-01 1.892884e-01 1.101496e-02 3.721897e-01 3.839187e-01 1.061487e-01 1.151592e-01 -1.821502e-02
<VARIANCE> 25
 7.426873e+00 1.597370e+01 1.789591e+01 1.781701e+01 2.540073e+01 2.373757e+01 2.343312e+01 2.511753e+01 2.605743e+01 2.774072e+01 2.043109e+01 1.851072e+01 1.903212e-01 4.929790e-01 5.991491e-01 7.621729e-01 9.593672e-01 1.086145e+00 1.217159e+00 1.383501e+00 1.340206e+00 1.314078e+00 1.235398e+00 1.123066e+00 2.582269e-04
<GCONST> 7.182973e+01
<MIXTURE> 33 1.508826e-02
<MEAN> 25
 6.876159e+00 -4.565443e+00 -2.156601e+00 -3.085832e+00 -1.776310e+00 -4.442874e+00 -7.040640e+00 7.073974e-01 1.936786e+00 -3.333603e-01 -4.666435e+00 -2.964123e+00 5.749230e-01 -9.307610e-01 -2.599061e+00 -2.314842e+00 1.618739e+00 1.559809e+00 -9.274074e-01 2.658957e-01 1.097217e+00 6.096792e-01 1.139043e-01 -1.401801e+00 3.615324e-02
<VARIANCE> 25
 8.926302e+00 1.916561e+01 3.970426e+01 3.548084e+01 3.787393e+01 4.182331e+01 3.641106e+01 4.693130e+01 4.623590e+01 3.694698e+01 3.115186e+01 2.511507e+01 1.635889e+00 2.022670e+00 2.039715e+00 2.747849e+00 3.693048e+00 3.257261e+00 3.701117e+00 5.193852e+00 3.291624e+00 4.121995e+00 3.569670e+00 2.184346e+00 1.239899e-03
<GCONST> 9.358881e+01
<MIXTURE> 34 1.588179e-02
<MEAN> 25
 8.752411e+00 -1.056487e+00 2.867698e-01 4.521732e-01 -3.047135e+00 -9.922756e-01 -6.697689e+00 -5.235876e+00 -2.492447e+00 7.145626e-01 -1.766315e+00 -3.988135e+00 3.613465e-02 1.243609e+00 1.431869e+00 2.405395e+00 -3.822228e-02 -3.445226e-01 6.973269e-01 -1.184683e+00 -8.695618e-01 2.524413e-01 -4.626343e-01 3.415584e-01 -6.524242e-02
<VARIANCE> 25
 7.248039e+00 3.349628e+01 2.664416e+01 4.885972e+01 3.843620e+01 4.586924e+01 5.114002e+01 5.068776e+01 5.044730e+01 4.026970e+01 5.117930e+01 2.863576e+01 1.261830e+00 1.899374e+00 4.050130e+00 4.074011e+00 5.035179e+00 5.271327e+00 5.028118e+00 6.607890e+00 5.176834e+00 4.284366e+00 4.334141e+00 3.418456e+00 1.224655e-03
<GCONST> 9.840147e+01
<MIXTURE> 35 1.467755e-02
<MEAN> 25
 -2.102139e+00 -5.200376e+00 -9.961705e+00 2.198281e-01 9.684530e+00 7.800812e-01 1.533109e+00 2.476774e+00 1.447723e+00 4.563570e+00 6.731971e-02 1.874375e+00 5.235035e-01 -1.113657e+00 -1.407248e+00 -1.382353e+00 4.041921e-01 -8.013594e-01 -6.665064e-01 -1.274199e-01 -1.515287e-01 1.677571e-01 -6.618956e-01 -4.979181e-01 1.073912e-01
<VARIANCE> 25
 1.985069e+01 2.950086e+01 4.308319e+01 6.194381e+01 4.194128e+01 5.714361e+01 5.174710e+01 4.432796e+01 5.015361e+01 3.830611e+01 3.643130e+01 3.072089e+01 3.598631e+00 3.553849e+00 6.816296e+00 5.519720e+00 5.181927e+00 5.546522e+00 4.907694e+00 4.710747e+00 5.027145e+00 4.486974e+00 4.079691e+00 3.770779e+00 5.284921e-03
<GCONST> 1.035915e+02
<MIXTURE> 36 1.093293e-02
<MEAN> 25
 4.099962e+00 -4.899571e+00 6.102511e+00 3.846905e+00 -1.150802e+01 -6.176559e+00 -6.671306e+00 -3.297588e-01 -3.816280e+00 -6.430835e+00 2.984533e+00 -3.719247e-01 4.457272e-01 1.495696e-01 -8.802481e-01 -9.830275e-02 9.503611e-01 4.006051e-02 -4.937710e-01 -5.426594e-02 7.811083e-01 6.164989e-01 -4.929370e-01 -8.037916e-02 -1.771089e-02
<VARIANCE> 25
 8.320821e+00 1.570666e+01 1.699967e+01 2.557830e+01 2.413884e+01 3.295507e+01 3.982291e+01 3.785030e+01 4.299710e+01 3.325566e+01 3.902414e+01 2.222107e+01 4.099506e-01 6.811572e-01 1.059324e+00 1.069340e+00 1.351739e+00 1.187266e+00 1.811839e+00 1.626055e+00 2.408071e+00 1.250358e+00 1.528400e+00 1.223960e+00 5.041983e-04
<GCONST> 7.946091e+01
<MIXTURE> 37 1.246826e-02
<MEAN> 25
 5.702842e-01 7.734643e+00 1.202275e+01 -5.549251e+00 -7.974485e+00 -1.074048e+00 -5.090510e+00 -8.283710e+00 -3.778504e+00 -8.751162e-01 -3.629913e+00 -1.319449e+00 1.765501e-01 6.546164e-01 -1.348910e+00 3.561222e+00 1.983323e+00 -2.951134e-01 1.088326e+00 4.375650e-01 5.461422e-01 -3.267245e-01 5.246594e-01 -9.379362e-02 -9.496488e-02
<VARIANCE> 25
 1.593569e+01 2.611265e+01 3.085351e+01 5.079851e+01 3.441876e+01 3.196184e+01 4.375893e+01 3.512518e+01 3.927892e+01 3.599066e+01 3.777395e+01 3.091590e+01 2.957041e+00 3.406816e+00 3.007724e+00 4.148228e+00 4.612040e+00 3.736929e+00 4.189944e+00 3.789387e+00 3.505183e+00 3.603235e+00 3.880750e+00 2.777949e+00 3.909132e-03
<GCONST> 9.780766e+01
<MIXTURE> 38 1.154525e-02
<MEAN> 25
 -4.375919e+00 8.400730e+00 4.636282e+00 3.287209e+00 2.305021e-01 -5.267234e+00 -4.842449e-01 -2.010318e+00 -2.361009e+00 -3.461489e+00 -1.167488e+00 3.203309e-01 -4.446698e+00 1.436171e+00 -3.922685e-01 8.631520e-01 2.863910e+00 1.257268e+00 2.004775e+00 1.287639e+00 9.515041e-01 7.261156e-01 7.798916e-01 3.085332e-01 4.180421e-02
<VARIANCE> 25
 2.741215e+01 2.618821e+01 3.380364e+01 2.769480e+01 4.478447e+01 2.925116e+01 3.069569e+01 3.672463e+01 3.099743e+01 2.820297e+01 2.090529e+01 2.847171e+01 2.071463e+00 3.653670e+00 3.236022e+00 5.619907e+00 4.032594e+00 4.450495e+00 4.019671e+00 4.386017e+00 3.895748e+00 4.144784e+00 3.787402e+00 2.717592e+00 2.006487e-03
<GCONST> 9.631612e+01
<MIXTURE> 39 9.501865e-03
<MEAN> 25
 1.347654e+00 2.584409e+00 1.020923e+01 -9.193404e+00 -1.128782e+01 -9.933534e-01 -2.972430e+00 -6.571856e+00 -4.535305e+00 8.661475e-01 -3.669811e+00 -2.297529e+00 -7.271377e-01 1.521747e+00 1.621650e+00 -1.388470e+00 8.234084e-02 1.221505e+00 -1.198490e+00 -1.247820e+00 4.293979e-01 4.445266e-01 -5.060014e-01 1.242746e-01 1.195230e-03
<VARIANCE> 25
 8.920315e+00 3.020766e+01 3.159171e+01 3.844304e+01 3.716270e+01 4.261303e+01 4.440983e+01 3.340514e+01 3.945105e+01 3.328458e+01 3.622519e+01 2.937998e+01 6.955616e-01 1.548689e+00 1.516114e+00 2.922402e+00 2.417926e+00 2.828387e+00 3.057121e+00 2.760259e+00 2.436279e+00 2.616516e+00 2.121165e+00 2.066636e+00 1.188833e-03
<GCONST> 8.967905e+01
<MIXTURE> 40 1.030800e-02
<MEAN> 25
 -5.955299e+00 2.681728e+00 -3.177523e+00 6.665076e+00 5.778328e+00 5.246960e+00 5.322401e+00 5.516584e+00 5.566996e+00 3.698995e+00 4.016579e+00 2.123452e+00 -1.254238e-01 -2.550501e-01 3.389030e-03 -1.683930e-01 -3.023015e-02 4.487971e-02 1.185248e-01 2.325189e-02 2.842851e-03 -5.584786e-02 -1.648628e-02 -6.386217e-02 4.726631e-03
<VARIANCE> 25
 4.850374e+01 1.521866e+01 2.605842e+01 2.275751e+01 2.530956e+01 1.633948e+01 1.488147e+01 1.666689e+01 1.493267e+01 1.410223e+01 1.678209e+01 1.089500e+01 5.360839e-01 6.853493e-01 7.039038e-01 9.166768e-01 1.099942e+00 1.028434e+00 1.072539e+00 1.149061e+00 1.295646e+00 1.368077e+00 8.881450e-01 1.010759e+00 6.889285e-04
<GCONST> 7.311014e+01
<MIXTURE> 41 6.713375e-03
<MEAN> 25
 1.305940e+00 1.759329e+00 1.045557e+01 -6.935492e+00 -1.047617e+01 -3.850694e+00 -2.488300e+00 -5.062780e+00 -4.649285e+00 2.656402e+00 -1.726515e+00 -9.473101e-01 8.616715e-02 -7.661647e-01 1.695974e+00 -3.543174e+00 -2.466100e+00 -1.171948e-01 -5.019104e-01 -3.545344e-01 -8.242427e-01 1.080484e+00 -1.040379e+00 8.140941e-02 8.610439e-02
<VARIANCE> 25
 1.172118e+01 2.968464e+01 3.259887e+01 4.013481e+01 3.863642e+01 4.014880e+01 3.701932e+01 2.988247e+01 3.297298e+01 2.870247e+01 3.179518e+01 2.710807e+01 3.188412e+00 3.309639e+00 3.811781e+00 3.846445e+00 4.893019e+00 5.858940e+00 4.730694e+00 4.539875e+00 3.963848e+00 4.211138e+00 3.825019e+00 3.215684e+00 2.928941e-03
<GCONST> 9.789857e+01
<MIXTURE> 42 1.106211e-02
<MEAN> 25
 -3.069627e+00 4.326558e+00 4.418011e+00 2.462684e+00 -7.566230e-02 -5.209927e+00 -4.553675e-01 -3.207092e+00 -2.701036e+00 -2.841573e-01 -1.854688e+00 1.153669e+00 4.147556e+00 -6.987611e-01 1.505151e+00 6.315479e-01 -3.239347e+00 -1.265566e+00 -2.021982e+00 -1.262777e+00 -1.373036e+00 -1.111257e+00 7.432678e-01 -1.268245e+00 1.130276e-02
<VARIANCE> 25
 2.916815e+01 1.661132e+01 3.867885e+01 2.360858e+01 3.134465e+01 3.945786e+01 2.950040e+01 3.050880e+01 3.161720e+01 2.477802e+01 1.633877e+01 1.845689e+01 3.190312e+00 4.431059e+00 5.992222e+00 4.280412e+00 3.774673e+00 4.822584e+00 4.133819e+00 4.325988e+00 5.718084e+00 4.637292e+00 3.407106e+00 3.119774e+00 3.521874e-03
<GCONST> 9.691369e+01
<MIXTURE> 43 7.108249e-03
<MEAN> 25
 3.168001e+00 -6.311329e+00 -2.243001e+00 -5.176677e+00 -7.405063e+00 -3.406352e+00 4.119462e+00 1.300654e+00 -5.056839e+00 -7.091899e+00 -4.327274e+00 -1.256115e+00 2.396046e-01 2.162102e+00 1.911683e+00 -1.323569e-01 -1.425125e+00 -7.948468e-01 -9.663712e-01 -7.796325e-01 8.192788e-01 1.467483e+00 3.396466e-01 2.024387e-02 -4.509214e-02
<VARIANCE> 25
 9.592522e+00 1.966346e+01 2.734158e+01 3.524226e+01 3.836402e+01 3.658957e+01 3.350605e+01 3.979747e+01 3.962857e+01 3.859704e+01 2.660571e+01 2.955018e+01 6.949927e-01 1.255283e+00 1.571127e+00 2.489437e+00 2.386294e+00 2.380151e+00 2.657776e+00 3.031258e+00 2.609143e+00 2.574445e+00 2.333904e+00 1.918863e+00 9.416661e-04
<GCONST> 8.798649e+01
<MIXTURE> 44 7.328289e-03
<MEAN> 25
 -1.570393e+01 2.076782e+00 3.700953e+00 -3.468913e+00 3.688025e+00 1.908160e+00 -1.225983e-02 2.779304e+00 1.399419e+00 -7.455304e-01 1.772830e+00 2.260820e+00 -2.235557e-01 8.260500e-03 1.777908e-01 2.531882e-01 -6.463652e-02 1.786960e-01 4.096527e-01 -2.130448e-02 1.716244e-01 1.780930e-01 -8.325319e-02 9.041636e-02 5.743732e-03
<VARIANCE> 25
 3.960295e+01 3.187252e+01 3.265200e+01 2.852489e+01 2.876432e+01 2.969724e+01 2.457435e+01 3.107077e+01 2.646655e+01 2.794327e+01 2.515086e+01 1.943318e+01 1.343785e+00 1.541623e+00 1.320035e+00 1.270237e+00 2.075347e+00 1.596412e+00 1.473173e+00 1.729307e+00 1.745948e+00 1.449027e+00 1.538205e+00 1.234177e+00 1.383844e-03
<GCONST> 8.447488e+01
<MIXTURE> 45 1.364932e-02
<MEAN> 25
 -1.203784e+01 4.274015e+00 -8.118827e-01 8.008329e-01 7.010124e+00 3.648645e-01 5.360676e+00 5.605343e+00 3.800503e+00 2.322430e+00 1.677813e+00 3.572387e+00 -3.208397e+00 7.839299e-01 2.122141e-01 -9.351469e-01 2.878394e-01 3.076423e-02 3.199291e-01 3.278735e-01 1.681829e-02 2.872587e-01 4.041162e-01 3.225136e-01 1.111937e-01
<VARIANCE> 25
 3.014823e+01 2.526531e+01 2.481925e+01 2.888538e+01 3.129513e+01 2.012364e+01 2.821804e+01 2.858324e+01 2.381265e+01 2.740099e+01 2.053680e+01 1.421047e+01 1.807580e+00 2.157864e+00 2.399241e+00 2.015312e+00 3.032445e+00 2.281533e+00 1.613737e+00 2.019650e+00 1.885486e+00 1.659411e+00 1.403992e+00 1.338819e+00 2.859503e-03
<GCONST> 8.641994e+01
<MIXTURE> 46 9.336259e-03
<MEAN> 25
 -9.458330e+00 2.314680e+00 1.193916e+00 7.556461e+00 5.938795e+00 3.330188e+00 7.063278e+00 4.497207e+00 5.703399e+00 4.691671e+00 5.030398e+00 2.927814e+00 1.055473e+00 -2.391835e-01 4.037120e-02 9.989833e-01 6.046115e-01 9.431592e-01 3.874635e-01 6.733042e-01 4.731268e-01 5.076261e-01 6.392871e-01 5.245884e-01 -1.054571e-01
<VARIANCE> 25
 3.432239e+01 4.383970e+01 3.850288e+01 4.999806e+01 5.081500e+01 4.082583e+01 3.705125e+01 3.535726e+01 3.316005e+01 3.093158e+01 2.825086e+01 2.022033e+01 3.925518e+00 4.140042e+00 3.877922e+00 4.137003e+00 4.171648e+00 3.694148e+00 3.375882e+00 3.115197e+00 2.980797e+00 2.863204e+00 2.307130e+00 1.782735e+00 7.973879e-03
<GCONST> 9.830044e+01
<MIXTURE> 47 7.116147e-03
<MEAN> 25
 7.333882e+00 -7.379048e+00 -7.762694e+00 -6.458786e+00 1.508363e+00 8.430071e-01 -2.391596e+00 1.223987e+00 3.019815e+00 1.484173e-01 -4.257584e+00 -6.714601e+00 -1.838433e-01 -1.256929e+00 -6.931437e-01 -4.204080e-01 6.232529e-01 8.179598e-01 8.771613e-01 2.994775e-01 1.180981e-01 -8.861352e-01 -4.671133e-01 -4.573152e-01 3.012198e-02
<VARIANCE> 25
 1.068203e+01 2.103459e+01 2.050071e+01 3.321145e+01 3.621009e+01 5.278733e+01 4.531471e+01 4.082423e+01 4.340360e+01 4.701558e+01 4.864434e+01 3.354633e+01 5.195897e-01 7.730661e-01 1.125100e+00 1.669995e+00 1.978334e+00 2.203371e+00 2.319706e+00 2.481115e+00 2.193598e+00 2.143854e+00 2.187079e+00 2.011103e+00 5.497959e-04
<GCONST> 8.644642e+01
<MIXTURE> 48 7.116147e-03
<MEAN> 25
 7.333882e+00 -7.379048e+00 -7.762694e+00 -6.458786e+00 1.508363e+00 8.430071e-01 -2.391596e+00 1.223987e+00 3.019815e+00 1.484173e-01 -4.257584e+00 -6.714601e+00 -1.838433e-01 -1.256929e+00 -6.931437e-01 -4.204080e-01 6.232529e-01 8.179598e-01 8.771613e-01 2.994775e-01 1.180981e-01 -8.861352e-01 -4.671133e-01 -4.573152e-01 3.012198e-02
<VARIANCE> 25
 1.068203e+01 2.103459e+01 2.050071e+01 3.321145e+01 3.621009e+01 5.278733e+01 4.531471e+01 4.082423e+01 4.340360e+01 4.701558e+01 4.864434e+01 3.354633e+01 5.195897e-01 7.730661e-01 1.125100e+00 1.669995e+00 1.978334e+00 2.203371e+00 2.319706e+00 2.481115e+00 2.193598e+00 2.143854e+00 2.187079e+00 2.011103e+00 5.497959e-04
<GCONST> 8.644642e+01
<MIXTURE> 49 5.548473e-03
<MEAN> 25
 -4.361429e+00 7.810654e-01 -3.568528e-01 8.108262e+00 6.618662e+00 5.437586e+00 5.902481e+00 4.823287e+00 5.307272e+00 3.457655e+00 4.570434e+00 2.886339e+00 3.292961e-01 6.304401e-01 6.881927e-01 3.631600e-01 -1.505366e-01 -6.539249e-01 -9.680729e-01 -1.063715e+00 -9.338412e-01 -7.598601e-01 -4.687414e-01 -2.984050e-01 3.298339e-04
<VARIANCE> 25
 1.276817e+01 1.076452e+01 1.515751e+01 1.538361e+01 1.623661e+01 1.587351e+01 1.816703e+01 1.874780e+01 1.768811e+01 1.682619e+01 1.963155e+01 1.296418e+01 2.642478e-01 2.485943e-01 3.468174e-01 5.966976e-01 8.448755e-01 9.010871e-01 9.268611e-01 1.116493e+00 1.117737e+00 1.182950e+00 1.249044e+00 1.130315e+00 1.794877e-05
<GCONST> 6.409933e+01
<MIXTURE> 50 6.234641e-03
<MEAN> 25
 -4.386637e+00 2.232979e-01 -1.666514e+00 5.930519e+00 4.485750e+00 2.340419e+00 3.722881e+00 2.260732e+00 2.852681e+00 1.026870e+00 1.953859e+00 2.960725e+00 4.856412e-02 1.668033e-01 1.151969e-01 -1.669927e-01 -4.995554e-01 -6.250338e-01 -4.550257e-01 -1.052632e-01 4.361455e-01 7.294596e-01 7.691382e-01 4.830495e-01 -3.307754e-05
<VARIANCE> 25
 1.148906e+01 1.094716e+01 1.451176e+01 1.605178e+01 1.599599e+01 1.776032e+01 1.769255e+01 1.997530e+01 1.791884e+01 1.962347e+01 2.139040e+01 1.476549e+01 1.391510e-01 2.306216e-01 3.869410e-01 4.958108e-01 5.724721e-01 7.230424e-01 9.252425e-01 1.133843e+00 1.010628e+00 9.101125e-01 9.089930e-01 9.735435e-01 9.844169e-07
<GCONST> 5.940550e+01
<MIXTURE> 51 6.234641e-03
<MEAN> 25
 -4.386637e+00 2.232979e-01 -1.666514e+00 5.930519e+00 4.485750e+00 2.340419e+00 3.722881e+00 2.260732e+00 2.852681e+00 1.026870e+00 1.953859e+00 2.960725e+00 4.856412e-02 1.668033e-01 1.151969e-01 -1.669927e-01 -4.995554e-01 -6.250338e-01 -4.550257e-01 -1.052632e-01 4.361455e-01 7.294596e-01 7.691382e-01 4.830495e-01 -3.307754e-05
<VARIANCE> 25
 1.148906e+01 1.094716e+01 1.451176e+01 1.605178e+01 1.599599e+01 1.776032e+01 1.769255e+01 1.997530e+01 1.791884e+01 1.962347e+01 2.139040e+01 1.476549e+01 1.391510e-01 2.306216e-01 3.869410e-01 4.958108e-01 5.724721e-01 7.230424e-01 9.252425e-01 1.133843e+00 1.010628e+00 9.101125e-01 9.089930e-01 9.735435e-01 9.844169e-07
<GCONST> 5.940550e+01
<MIXTURE> 52 6.367945e-03
<MEAN> 25
 9.949961e+00 1.822928e+00 -6.224415e+00 -1.415506e+01 -3.963374e+00 8.450265e+00 -2.896905e+00 -3.331438e+00 -4.200613e+00 -1.768051e+00 3.501846e+00 5.948677e-01 -3.423907e-01 -4.711291e-01 -5.573046e-02 1.168846e+00 1.283493e+00 -4.832573e-01 -6.415296e-01 -6.746098e-01 3.243604e-02 1.226500e+00 3.890173e-01 -5.337616e-01 -1.474135e-02
<VARIANCE> 25
 9.543978e+00 2.088313e+01 2.427958e+01 3.900455e+01 4.513582e+01 2.975173e+01 4.515992e+01 4.884927e+01 4.248315e+01 4.719011e+01 3.874545e+01 2.977088e+01 4.835461e-01 1.503626e+00 1.447163e+00 2.719785e+00 2.369759e+00 2.114185e+00 2.926916e+00 2.718578e+00 3.017180e+00 2.648000e+00 2.413147e+00 2.189893e+00 1.517087e-03
<GCONST> 8.963934e+01
<MIXTURE> 53 6.367945e-03
<MEAN> 25
 9.949961e+00 1.822928e+00 -6.224415e+00 -1.415506e+01 -3.963374e+00 8.450265e+00 -2.896905e+00 -3.331438e+00 -4.200613e+00 -1.768051e+00 3.501846e+00 5.948677e-01 -3.423907e-01 -4.711291e-01 -5.573046e-02 1.168846e+00 1.283493e+00 -4.832573e-01 -6.415296e-01 -6.746098e-01 3.243604e-02 1.226500e+00 3.890173e-01 -5.337616e-01 -1.474135e-02
<VARIANCE> 25
 9.543978e+00 2.088313e+01 2.427958e+01 3.900455e+01 4.513582e+01 2.975173e+01 4.515992e+01 4.884927e+01 4.248315e+01 4.719011e+01 3.874545e+01 2.977088e+01 4.835461e-01 1.503626e+00 1.447163e+00 2.719785e+00 2.369759e+00 2.114185e+00 2.926916e+00 2.718578e+00 3.017180e+00 2.648000e+00 2.413147e+00 2.189893e+00 1.517087e-03
<GCONST> 8.963934e+01
<MIXTURE> 54 7.368620e-03
<MEAN> 25
 -3.552631e+00 1.181205e-01 -7.554013e-01 7.967599e+00 6.506815e+00 4.600043e+00 4.655116e+00 4.649914e+00 4.094316e+00 3.572834e+00 4.411089e+00 2.332199e+00 -2.084662e-03 2.681104e-02 3.011325e-02 4.451976e-02 5.255039e-02 4.924050e-02 3.292580e-02 3.533056e-02 2.588170e-02 2.370031e-02 1.118809e-02 -2.052264e-03 5.791862e-06
<VARIANCE> 25
 9.449073e+00 1.056007e+01 9.514281e+00 1.826001e+01 1.322396e+01 1.352227e+01 1.196509e+01 1.136944e+01 1.135760e+01 1.346360e+01 1.771763e+01 1.237182e+01 4.044794e-02 8.847012e-02 1.632608e-01 2.252520e-01 3.063200e-01 4.068957e-01 4.634613e-01 5.198038e-01 5.415994e-01 5.302250e-01 5.185328e-01 5.177308e-01 1.124648e-06
<GCONST> 4.752437e+01
<MIXTURE> 55 7.368620e-03
<MEAN> 25
 -3.552631e+00 1.181205e-01 -7.554013e-01 7.967599e+00 6.506815e+00 4.600043e+00 4.655116e+00 4.649914e+00 4.094316e+00 3.572834e+00 4.411089e+00 2.332199e+00 -2.084662e-03 2.681104e-02 3.011325e-02 4.451976e-02 5.255039e-02 4.924050e-02 3.292580e-02 3.533056e-02 2.588170e-02 2.370031e-02 1.118809e-02 -2.052264e-03 5.791862e-06
<VARIANCE> 25
 9.449073e+00 1.056007e+01 9.514281e+00 1.826001e+01 1.322396e+01 1.352227e+01 1.196509e+01 1.136944e+01 1.135760e+01 1.346360e+01 1.771763e+01 1.237182e+01 4.044794e-02 8.847012e-02 1.632608e-01 2.252520e-01 3.063200e-01 4.068957e-01 4.634613e-01 5.198038e-01 5.415994e-01 5.302250e-01 5.185328e-01 5.177308e-01 1.124648e-06
<GCONST> 4.752437e+01
<MIXTURE> 56 6.132464e-03
<MEAN> 25
 7.450597e+00 -6.587795e+00 -9.060083e+00 -8.946342e+00 3.862964e+00 4.136116e+00 -2.278345e+00 -1.808374e+00 1.878319e+00 6.738634e-01 -2.124519e+00 -6.958323e+00 1.644736e-02 1.862939e-03 -7.387523e-02 6.019787e-02 2.446388e-01 6.198163e-02 1.236568e-01 -1.469878e-01 -9.082642e-02 3.023497e-02 -5.349676e-02 2.950820e-02 -6.877173e-03
<VARIANCE> 25
 9.187839e+00 2.315460e+01 1.928420e+01 4.322249e+01 3.225331e+01 4.971423e+01 5.973822e+01 3.870584e+01 3.770767e+01 3.616374e+01 4.116454e+01 3.055536e+01 2.160647e-01 4.467833e-01 4.505502e-01 7.874188e-01 7.729911e-01 1.103817e+00 9.228045e-01 8.785846e-01 9.173831e-01 1.030149e+00 1.013937e+00 7.557310e-01 2.327746e-04
<GCONST> 7.508273e+01
<MIXTURE> 57 6.132464e-03
<MEAN> 25
 7.450597e+00 -6.587795e+00 -9.060083e+00 -8.946342e+00 3.862964e+00 4.136116e+00 -2.278345e+00 -1.808374e+00 1.878319e+00 6.738634e-01 -2.124519e+00 -6.958323e+00 1.644736e-02 1.862939e-03 -7.387523e-02 6.019787e-02 2.446388e-01 6.198163e-02 1.236568e-01 -1.469878e-01 -9.082642e-02 3.023497e-02 -5.349676e-02 2.950820e-02 -6.877173e-03
<VARIANCE> 25
 9.187839e+00 2.315460e+01 1.928420e+01 4.322249e+01 3.225331e+01 4.971423e+01 5.973822e+01 3.870584e+01 3.770767e+01 3.616374e+01 4.116454e+01 3.055536e+01 2.160647e-01 4.467833e-01 4.505502e-01 7.874188e-01 7.729911e-01 1.103817e+00 9.228045e-01 8.785846e-01 9.173831e-01 1.030149e+00 1.013937e+00 7.557310e-01 2.327746e-04
<GCONST> 7.508273e+01
<MIXTURE> 58 6.172147e-03
<MEAN> 25
 2.233201e+00 -3.930370e+00 7.138333e+00 -4.557852e+00 -1.359485e+01 -5.193496e+00 1.029855e+00 -4.172500e-01 -2.362230e+00 1.408308e+00 1.536655e-01 -1.398078e+00 8.483065e-03 -2.083166e-01 -1.829449e-01 -9.525681e-02 -3.072099e-02 3.579389e-01 2.529716e-01 3.555778e-01 1.201968e-01 -3.603429e-02 -3.142022e-01 -4.109921e-01 -2.492247e-04
<VARIANCE> 25
 5.969124e+00 1.390076e+01 1.691848e+01 2.286624e+01 1.838251e+01 3.877204e+01 2.774887e+01 3.374260e+01 2.779201e+01 2.752094e+01 1.843876e+01 1.694415e+01 3.179053e-01 7.275015e-01 6.719197e-01 9.619349e-01 8.271611e-01 1.254050e+00 1.057292e+00 1.287129e+00 1.005020e+00 8.703395e-01 8.559682e-01 9.501931e-01 6.896810e-04
<GCONST> 7.294308e+01
<MIXTURE> 59 6.172147e-03
<MEAN> 25
 2.233201e+00 -3.930370e+00 7.138333e+00 -4.557852e+00 -1.359485e+01 -5.193496e+00 1.029855e+00 -4.172500e-01 -2.362230e+00 1.408308e+00 1.536655e-01 -1.398078e+00 8.483065e-03 -2.083166e-01 -1.829449e-01 -9.525681e-02 -3.072099e-02 3.579389e-01 2.529716e-01 3.555778e-01 1.201968e-01 -3.603429e-02 -3.142022e-01 -4.109921e-01 -2.492247e-04
<VARIANCE> 25
 5.969124e+00 1.390076e+01 1.691848e+01 2.286624e+01 1.838251e+01 3.877204e+01 2.774887e+01 3.374260e+01 2.779201e+01 2.752094e+01 1.843876e+01 1.694415e+01 3.179053e-01 7.275015e-01 6.719197e-01 9.619349e-01 8.271611e-01 1.254050e+00 1.057292e+00 1.287129e+00 1.005020e+00 8.703395e-01 8.559682e-01 9.501931e-01 6.896810e-04
<GCONST> 7.294308e+01
<MIXTURE> 60 4.479129e-03
<MEAN> 25
 -3.950726e+00 -4.462760e-01 -1.347635e+00 3.664316e+00 2.085378e+00 2.098465e+00 1.785838e+00 1.863342e+00 2.432393e+00 1.249760e+00 2.387869e+00 2.027158e+00 -2.843237e-02 6.169795e-02 1.092778e-01 1.490804e-01 1.104409e-01 9.087873e-02 1.951408e-01 3.135272e-01 5.260121e-01 7.009999e-01 5.472996e-01 2.855282e-01 -2.070920e-04
<VARIANCE> 25
 8.159583e+00 5.078844e+00 1.085096e+01 1.079990e+01 1.488750e+01 1.630211e+01 1.390053e+01 1.310650e+01 1.349386e+01 1.270772e+01 1.559922e+01 1.197777e+01 8.411105e-02 1.670017e-01 2.775165e-01 4.328412e-01 5.731134e-01 7.390457e-01 8.148938e-01 8.627554e-01 8.620893e-01 8.600635e-01 8.028982e-01 8.297563e-01 2.351694e-05
<GCONST> 5.654746e+01
<MIXTURE> 61 4.479129e-03
<MEAN> 25
 -3.950726e+00 -4.462760e-01 -1.347635e+00 3.664316e+00 2.085378e+00 2.098465e+00 1.785838e+00 1.863342e+00 2.432393e+00 1.249760e+00 2.387869e+00 2.027158e+00 -2.843237e-02 6.169795e-02 1.092778e-01 1.490804e-01 1.104409e-01 9.087873e-02 1.951408e-01 3.135272e-01 5.260121e-01 7.009999e-01 5.472996e-01 2.855282e-01 -2.070920e-04
<VARIANCE> 25
 8.159583e+00 5.078844e+00 1.085096e+01 1.079990e+01 1.488750e+01 1.630211e+01 1.390053e+01 1.310650e+01 1.349386e+01 1.270772e+01 1.559922e+01 1.197777e+01 8.411105e-02 1.670017e-01 2.775165e-01 4.328412e-01 5.731134e-01 7.390457e-01 8.148938e-01 8.627554e-01 8.620893e-01 8.600635e-01 8.028982e-01 8.297563e-01 2.351694e-05
<GCONST> 5.654746e+01
<MIXTURE> 62 3.278034e-03
<MEAN> 25
 -5.086835e+00 1.244785e+00 1.021814e+00 8.815241e+00 6.130347e+00 5.048328e+00 5.499316e+00 4.036382e+00 4.986582e+00 3.915179e+00 4.962078e+00 2.949950e+00 -1.003272e+00 -1.166053e+00 -9.529208e-01 -2.768865e-01 4.278955e-01 1.005226e+00 1.384066e+00 1.551611e+00 1.477814e+00 1.242917e+00 1.066178e+00 7.259467e-01 -1.266252e-03
<VARIANCE> 25
 9.893262e+00 9.977173e+00 1.313505e+01 1.673819e+01 1.742561e+01 1.753432e+01 1.969045e+01 1.911655e+01 1.885825e+01 1.872764e+01 2.157463e+01 1.478721e+01 4.025050e-01 4.324729e-01 5.541002e-01 7.789481e-01 1.035701e+00 1.192172e+00 1.252667e+00 1.279215e+00 1.330144e+00 1.363615e+00 1.400297e+00 1.370641e+00 1.633034e-05
<GCONST> 6.753586e+01
<MIXTURE> 63 4.351215e-03
<MEAN> 25
 -3.294885e+00 -1.693478e+00 -5.174689e+00 2.858253e+00 4.151939e+00 4.028314e-01 3.126210e+00 2.442278e+00 3.133440e+00 -5.866908e-01 -9.218695e-01 2.571045e+00 -1.032367e-01 2.736182e-01 3.692337e-01 5.096935e-01 4.149041e-01 3.764113e-01 3.555982e-01 7.081673e-02 1.037805e-01 2.648401e-01 2.302671e-01 1.657370e-01 -3.226394e-03
<VARIANCE> 25
 1.165179e+01 1.568322e+01 1.540529e+01 1.434102e+01 1.917295e+01 2.679231e+01 2.107667e+01 2.641518e+01 2.481975e+01 2.005015e+01 1.791166e+01 1.477973e+01 2.373755e-01 4.575047e-01 5.973974e-01 6.715285e-01 9.137924e-01 1.050641e+00 1.192113e+00 1.409545e+00 1.340854e+00 1.378416e+00 1.183495e+00 1.129897e+00 1.871759e-04
<GCONST> 7.057129e+01
<MIXTURE> 64 4.351215e-03
<MEAN> 25
 -3.294885e+00 -1.693478e+00 -5.174689e+00 2.858253e+00 4.151939e+00 4.028314e-01 3.126210e+00 2.442278e+00 3.133440e+00 -5.866908e-01 -9.218695e-01 2.571045e+00 -1.032367e-01 2.736182e-01 3.692337e-01 5.096935e-01 4.149041e-01 3.764113e-01 3.555982e-01 7.081673e-02 1.037805e-01 2.648401e-01 2.302671e-01 1.657370e-01 -3.226394e-03
<VARIANCE> 25
 1.165179e+01 1.568322e+01 1.540529e+01 1.434102e+01 1.917295e+01 2.679231e+01 2.107667e+01 2.641518e+01 2.481975e+01 2.005015e+01 1.791166e+01 1.477973e+01 2.373755e-01 4.575047e-01 5.973974e-01 6.715285e-01 9.137924e-01 1.050641e+00 1.192113e+00 1.409545e+00 1.340854e+00 1.378416e+00 1.183495e+00 1.129897e+00 1.871759e-04
<GCONST> 7.057129e+01
<MIXTURE> 65 1.721197e-02
<MEAN> 25
 7.942263e+00 5.804300e-01 2.251167e+00 1.319259e+00 -5.924604e+00 -4.461998e+00 -5.056906e+00 -6.825780e+00 -3.868849e+00 -2.328295e+00 -5.439972e+00 -2.436546e+00 2.994735e-01 1.362555e-01 4.693707e-02 2.377745e-01 -8.120815e-02 2.247269e-01 -1.064373e-02 -2.468456e-01 3.564403e-02 8.119564e-03 9.250066e-02 -1.333415e-01 -7.185754e-03
<VARIANCE> 25
 1.058901e+01 2.799409e+01 2.395259e+01 3.271694e+01 3.370707e+01 5.067111e+01 5.349057e+01 4.852512e+01 4.804346e+01 5.120670e+01 5.322367e+01 4.747309e+01 6.861206e-01 8.551430e-01 1.575237e+00 1.734829e+00 1.900289e+00 2.023436e+00 2.384372e+00 2.633744e+00 2.323669e+00 2.475673e+00 2.169295e+00 1.814409e+00 3.927863e-04
<GCONST> 8.818383e+01
<MIXTURE> 66 1.191532e-02
<MEAN> 25
 6.695241e+00 -4.434541e+00 -5.345710e+00 -5.122355e+00 1.087327e+00 -4.468323e+00 -7.236554e+00 2.998697e-01 2.858515e-01 -1.474476e+00 -5.594622e+00 -3.675733e+00 3.970752e-02 1.492986e+00 2.248126e+00 2.418766e+00 -1.250044e+00 -1.321252e+00 -4.546815e-02 -4.033777e-01 -3.262772e-01 -1.012921e-01 -1.696662e-01 1.002158e+00 -6.350335e-02
<VARIANCE> 25
 8.418619e+00 2.183518e+01 2.608878e+01 3.349595e+01 3.634372e+01 5.460147e+01 5.302271e+01 5.065050e+01 5.192007e+01 6.564623e+01 4.160200e+01 3.407170e+01 1.314816e+00 2.588240e+00 2.207591e+00 2.492426e+00 3.954914e+00 4.104899e+00 4.305298e+00 4.922631e+00 4.316143e+00 4.710690e+00 3.606437e+00 3.067068e+00 1.390076e-03
<GCONST> 9.642108e+01
<MIXTURE> 67 1.559142e-02
<MEAN> 25
 8.807910e+00 1.468533e+00 -5.141851e+00 -7.819580e+00 7.018432e-01 2.767920e+00 -3.877005e+00 -2.446948e+00 -4.461303e+00 1.294175e+00 4.978893e-01 -1.897752e+00 -1.028679e+00 1.828762e+00 9.523515e-01 2.907756e+00 1.365796e+00 -5.171104e-01 1.213620e+00 2.537735e-01 2.743128e-01 2.262582e-01 -2.468326e-01 6.856319e-01 -1.280437e-01
<VARIANCE> 25
 1.083072e+01 3.944082e+01 3.479382e+01 5.301140e+01 4.624689e+01 5.170673e+01 5.998815e+01 4.974156e+01 6.741043e+01 5.416687e+01 5.317279e+01 4.418524e+01 2.027799e+00 3.203019e+00 3.381752e+00 4.757968e+00 4.263561e+00 4.195620e+00 4.460948e+00 4.904132e+00 5.504354e+00 4.377994e+00 4.698137e+00 3.466042e+00 2.825296e-03
<GCONST> 1.019915e+02
<MIXTURE> 68 1.485092e-02
<MEAN> 25
 -2.038589e+00 -2.289684e+00 -4.081080e+00 1.248607e+00 5.242793e+00 -6.660205e-01 2.118310e+00 1.792352e+00 1.986540e+00 1.690246e+00 4.785211e-01 1.867076e+00 2.770565e+00 5.419409e-01 2.356197e-02 -2.572262e+00 -2.423884e+00 -1.590308e+00 -2.348972e+00 -1.794076e+00 -1.655851e+00 -1.483239e+00 -1.972931e+00 -1.059521e+00 1.029896e-01
<VARIANCE> 25
 2.601070e+01 3.206393e+01 5.875369e+01 5.257192e+01 4.663691e+01 5.494383e+01 4.524755e+01 4.247958e+01 4.042323e+01 4.343277e+01 3.727827e+01 2.578042e+01 1.860012e+00 3.760171e+00 5.942276e+00 5.895644e+00 4.691565e+00 5.604939e+00 5.768856e+00 4.957640e+00 4.984742e+00 5.249998e+00 5.066389e+00 3.418570e+00 6.141925e-03
<GCONST> 1.036052e+02
<MIXTURE> 69 1.204884e-02
<MEAN> 25
 4.677977e+00 -4.223537e+00 -3.610481e+00 -3.637274e+00 -3.454527e+00 -7.846198e+00 -1.147274e+00 2.234089e+00 -3.088551e-01 -4.659179e+00 -5.680842e+00 9.152450e-01 1.718574e+00 -2.233341e+00 -1.363316e+00 -2.231823e+00 -5.227273e-01 -3.262858e-01 -4.690036e-01 5.965410e-01 -6.210031e-01 -1.444173e+00 -2.169229e+00 -1.939054e-01 6.186144e-02
<VARIANCE> 25
 8.869063e+00 2.163812e+01 2.682472e+01 2.571155e+01 4.268089e+01 3.533356e+01 4.856322e+01 3.151187e+01 3.950684e+01 3.810843e+01 3.085700e+01 2.454420e+01 3.719459e+00 2.896934e+00 3.406218e+00 3.688874e+00 5.713151e+00 5.018833e+00 7.040502e+00 6.049134e+00 5.898883e+00 5.831794e+00 4.431138e+00 3.707100e+00 2.468864e-03
<GCONST> 9.868748e+01
<MIXTURE> 70 1.329190e-02
<MEAN> 25
 7.271851e+00 -2.494698e+00 -4.543265e+00 -4.421093e+00 1.044659e-01 -8.485470e-01 -7.545719e+00 -3.825518e+00 7.858050e-01 2.760728e+00 -2.842940e-01 -4.804833e+00 1.902846e+00 -1.012128e+00 -1.337916e+00 -2.388350e+00 -1.035449e+00 1.299715e+00 -1.174860e+00 -2.462306e-01 6.045061e-01 -3.948891e-02 8.446566e-01 -1.493721e+00 5.347219e-02
<VARIANCE> 25
 8.819832e+00 2.011770e+01 2.832491e+01 4.602523e+01 3.034964e+01 3.807367e+01 4.279887e+01 4.990848e+01 4.248969e+01 2.739408e+01 4.072013e+01 2.366058e+01 5.331687e+00 3.176331e+00 5.569698e+00 4.873718e+00 5.331333e+00 5.675159e+00 5.731239e+00 6.299239e+00 5.313630e+00 4.500080e+00 5.315258e+00 3.577913e+00 2.264157e-03
<GCONST> 1.001034e+02
<MIXTURE> 71 1.406903e-02
<MEAN> 25
 6.575010e+00 3.906790e+00 3.831570e+00 3.021027e+00 -3.280014e+00 -3.163076e+00 -3.753887e+00 -6.829187e+00 -5.185651e+00 -1.929831e+00 -4.498101e+00 -3.048365e+00 -1.679491e+00 -4.789384e-01 -2.981283e-01 -1.894107e+00 1.250289e+00 -1.314527e-01 -8.769051e-02 1.323768e+00 4.313208e-01 2.723306e-02 6.236727e-01 9.608360e-02 3.789808e-02
<VARIANCE> 25
 1.679597e+01 3.323805e+01 2.641122e+01 3.947222e+01 3.966005e+01 3.567406e+01 3.957067e+01 3.567093e+01 3.726927e+01 3.935111e+01 3.649751e+01 3.083336e+01 1.656500e+00 3.022139e+00 5.304844e+00 4.917166e+00 4.508001e+00 4.285203e+00 4.561105e+00 5.017986e+00 4.312733e+00 3.802238e+00 3.910552e+00 3.114064e+00 1.589784e-03
<GCONST> 9.786111e+01
<MIXTURE> 72 8.134747e-03
<MEAN> 25
 3.711690e+00 -3.800619e+00 5.414645e+00 -2.227294e+00 -1.054760e+01 -9.397908e+00 -2.567465e+00 1.721944e+00 -5.007480e+00 -2.426683e+00 -1.805193e+00 4.709830e-01 9.349197e-01 -7.795098e-01 -2.524187e+00 4.605586e-01 2.107039e+00 -6.339586e-01 -1.315800e+00 1.429586e+00 1.761955e+00 -5.727396e-01 -1.276190e+00 4.035560e-01 -6.429335e-03
<VARIANCE> 25
 1.059304e+01 1.941050e+01 3.221305e+01 3.936045e+01 3.206693e+01 3.393156e+01 4.059370e+01 3.661804e+01 4.493732e+01 4.251441e+01 3.959698e+01 2.841008e+01 4.201634e-01 1.009102e+00 2.031226e+00 1.422448e+00 2.193600e+00 2.287504e+00 2.999807e+00 2.902208e+00 2.621011e+00 2.896960e+00 2.055019e+00 2.095226e+00 5.331053e-04
<GCONST> 8.722538e+01
<MIXTURE> 73 1.213625e-02
<MEAN> 25
 -5.642619e+00 -7.857217e-01 -1.306515e+00 4.917045e+00 4.241061e+00 2.343392e+00 5.519856e+00 3.452763e+00 4.363692e+00 3.429229e+00 4.263968e+00 3.023333e+00 8.033714e-01 -1.032097e+00 -9.435285e-01 -2.646727e+00 -1.262782e+00 -1.752226e+00 -9.021089e-01 -5.097739e-01 -9.201685e-01 -7.013995e-01 -1.103515e+00 -2.840386e-01 1.548108e-01
<VARIANCE> 25
 1.284719e+01 1.343129e+01 1.519670e+01 2.262831e+01 2.333365e+01 2.476355e+01 2.037803e+01 2.000393e+01 1.778757e+01 1.909684e+01 2.281019e+01 1.560775e+01 4.049567e+00 3.091571e+00 5.967004e+00 4.675645e+00 6.152053e+00 4.558400e+00 4.301888e+00 4.249103e+00 3.895147e+00 4.229452e+00 3.540969e+00 2.675276e+00 4.303429e-03
<GCONST> 9.270790e+01
<MIXTURE> 74 1.756491e-02
<MEAN> 25
 4.608927e+00 -2.070606e+00 4.922628e+00 -9.466957e-01 -7.737740e+00 -6.880137e+00 -4.114775e+00 -1.942913e-01 -5.311500e+00 -2.159391e+00 -6.865094e-01 -4.247604e-01 6.057864e-02 2.000061e+00 -3.270956e-02 1.245407e+00 1.389020e+00 9.767003e-02 3.449679e-01 -7.016411e-01 6.596088e-01 2.311794e-01 -4.799600e-01 1.450508e-01 -7.934110e-02
<VARIANCE> 25
 9.196623e+00 2.120808e+01 2.970918e+01 3.182575e+01 4.108062e+01 3.445687e+01 4.369345e+01 3.621064e+01 5.526212e+01 4.942783e+01 4.318718e+01 3.273154e+01 2.235845e+00 1.910696e+00 3.085226e+00 2.837329e+00 3.092206e+00 3.253051e+00 4.387035e+00 4.728097e+00 4.465383e+00 3.147489e+00 3.171567e+00 2.730971e+00 1.677455e-03
<GCONST> 9.523375e+01
<MIXTURE> 75 9.711651e-03
<MEAN> 25
 1.844701e+00 -2.202598e+00 1.032371e+01 2.663056e+00 -1.272039e+01 -5.699301e+00 -3.974128e+00 -2.806031e+00 -6.336428e+00 -4.934557e+00 3.593699e+00 -6.174488e-01 1.771586e+00 -2.071740e+00 3.301938e-01 1.934343e-02 -2.720004e+00 -6.537658e-01 -1.493522e+00 8.045195e-01 -2.162811e-01 -1.029754e+00 9.615524e-01 -3.147198e-01 4.237170e-02
<VARIANCE> 25
 8.703815e+00 1.468298e+01 2.381005e+01 2.543711e+01 2.152990e+01 3.621244e+01 2.300491e+01 2.878460e+01 4.267112e+01 3.153599e+01 1.517011e+01 1.689257e+01 1.710364e+00 1.530334e+00 3.420659e+00 2.978772e+00 3.581974e+00 3.190543e+00 4.099918e+00 2.393263e+00 2.923176e+00 4.617001e+00 2.325496e+00 2.344213e+00 1.193932e-03
<GCONST> 8.868001e+01
<MIXTURE> 76 1.052359e-02
<MEAN> 25
 -5.746863e+00 -2.513054e-01 -3.485800e+00 4.258033e+00 5.494564e+00 2.623021e+00 4.846305e+00 3.139068e+00 2.836241e+00 2.743044e-01 1.093929e+00 2.169120e+00 -8.904467e-02 -6.645246e-01 -1.807340e-01 -7.882418e-01 -6.097449e-01 -8.239663e-01 -5.707754e-01 -3.945477e-01 -4.915535e-01 -5.247224e-01 -2.054179e-01 -2.774884e-01 1.871416e-02
<VARIANCE> 25
 3.804388e+01 2.790380e+01 2.563872e+01 2.326164e+01 3.074389e+01 2.645333e+01 2.402027e+01 2.933254e+01 2.287230e+01 2.099528e+01 2.277184e+01 1.749953e+01 1.130369e+00 1.110040e+00 1.203729e+00 1.045172e+00 1.470203e+00 1.423699e+00 1.617134e+00 1.734801e+00 1.389835e+00 1.668395e+00 1.359323e+00 1.730779e+00 1.171664e-03
<GCONST> 8.189996e+01
<MIXTURE> 77 1.244626e-02
<MEAN> 25
 -4.662822e-01 8.586017e+00 1.246333e+01 -1.161915e+01 -7.008422e+00 9.565965e-01 -9.279278e+00 -7.239446e+00 -3.378285e+00 -1.970127e-01 -4.657367e+00 -1.486513e+00 6.834677e-02 1.374539e-01 7.343019e-02 2.508948e-01 -2.216783e-02 7.851443e-02 -6.504866e-02 -6.209432e-02 8.256544e-02 -4.494170e-02 2.568666e-02 1.180629e-01 -9.919233e-03
<VARIANCE> 25
 1.044031e+01 2.008579e+01 2.751537e+01 4.160883e+01 3.318651e+01 3.381196e+01 3.673281e+01 3.176483e+01 3.523985e+01 3.322442e+01 3.756305e+01 3.494598e+01 2.990925e-01 7.780354e-01 6.455453e-01 1.086030e+00 1.237742e+00 9.862393e-01 1.223839e+00 1.074138e+00 1.043599e+00 1.066027e+00 9.712774e-01 9.221822e-01 5.400825e-04
<GCONST> 7.779845e+01
<MIXTURE> 78 9.702551e-03
<MEAN> 25
 -1.200263e+01 1.842253e+00 -7.270761e-01 5.513093e-01 4.603459e+00 -2.818625e+00 2.261169e+00 3.196957e+00 2.927487e+00 4.703689e-01 -1.819224e+00 3.256876e+00 3.078440e+00 -8.804475e-01 -5.656681e-01 4.940231e-01 -2.343853e-01 -5.187994e-02 -3.208139e-01 -4.862209e-02 5.016333e-01 4.368704e-01 -4.949907e-01 -7.110019e-01 -6.223019e-02
<VARIANCE> 25
 4.168454e+01 2.954648e+01 3.061683e+01 3.560705e+01 3.192851e+01 3.119494e+01 3.775652e+01 2.706456e+01 2.455682e+01 2.269362e+01 2.856924e+01 1.817564e+01 6.118158e+00 3.232944e+00 4.333942e+00 2.468456e+00 2.433893e+00 2.942561e+00 2.619136e+00 2.303944e+00 2.150088e+00 2.169382e+00 2.014924e+00 2.113290e+00 3.849174e-03
<GCONST> 9.301560e+01
<MIXTURE> 79 1.156824e-02
<MEAN> 25
 3.401411e+00 -4.551837e-01 8.443588e+00 -4.556531e+00 -1.174639e+01 -2.418307e-01 -2.602985e+00 -7.186242e+00 -7.060857e+00 3.538402e-01 -3.104657e+00 -3.842053e+00 1.470961e+00 -4.685592e-01 -1.240794e+00 2.212883e+00 4.385877e-01 -1.221340e+00 4.596140e-01 6.079915e-01 -7.841970e-01 -5.037883e-01 3.902299e-01 8.205076e-02 -3.721349e-02
<VARIANCE> 25
 1.430611e+01 2.625359e+01 2.969283e+01 4.684579e+01 2.723147e+01 4.221549e+01 3.338384e+01 2.905263e+01 3.273001e+01 3.044945e+01 3.517202e+01 2.439233e+01 8.480834e-01 1.720509e+00 1.607594e+00 1.604616e+00 2.125117e+00 3.150291e+00 2.991073e+00 2.879095e+00 2.253366e+00 2.289128e+00 1.740020e+00 1.609234e+00 1.013484e-03
<GCONST> 8.785218e+01
<MIXTURE> 80 7.550998e-03
<MEAN> 25
 -1.501814e+01 4.586001e+00 8.467518e-01 2.113536e+00 3.023220e+00 6.183922e-01 7.021373e+00 2.504050e+00 2.103875e+00 2.119042e+00 4.048682e+00 1.271082e+00 4.347188e+00 -6.985860e-02 1.555624e+00 -6.945162e-01 -2.964457e+00 -2.763965e+00 -2.447724e+00 -2.370049e+00 -2.063847e+00 -1.498864e+00 -1.308230e+00 -6.263620e-01 -4.388142e-02
<VARIANCE> 25
 2.154894e+01 1.930721e+01 2.942129e+01 3.328599e+01 2.946451e+01 3.241449e+01 2.706603e+01 2.626753e+01 2.521707e+01 2.485026e+01 2.591928e+01 1.550719e+01 2.076811e+00 2.294973e+00 2.353828e+00 4.485670e+00 2.912101e+00 2.312787e+00 2.672256e+00 3.318158e+00 2.417813e+00 2.537774e+00 2.937169e+00 1.831171e+00 1.306773e-03
<GCONST> 8.959418e+01
<MIXTURE> 81 8.025434e-03
<MEAN> 25
 -1.113931e+00 4.054251e+00 1.017704e+01 -1.478817e+01 -9.086242e+00 -1.419872e+00 -6.759785e+00 -8.427886e+00 -4.153634e+00 -4.105171e-01 -7.564756e+00 -2.245811e+00 1.361856e-01 -5.877993e-01 -2.164600e-03 -5.544791e-01 -4.656181e-01 3.358418e-01 3.201459e-01 1.361643e-01 -1.405701e-01 1.056684e-01 -4.690646e-01 -1.264307e-01 1.150096e-02
<VARIANCE> 25
 1.016430e+01 3.288040e+01 2.642825e+01 2.942170e+01 3.369273e+01 3.050604e+01 4.543616e+01 2.823738e+01 3.795089e+01 3.187451e+01 2.536319e+01 3.102121e+01 7.756973e-01 2.275130e+00 1.544743e+00 2.872505e+00 2.665924e+00 2.126378e+00 3.282639e+00 2.286428e+00 2.353045e+00 2.536636e+00 2.295806e+00 2.077115e+00 1.183766e-03
<GCONST> 8.869134e+01
<MIXTURE> 82 8.213053e-03
<MEAN> 25
 -1.011577e+01 -4.084877e+00 1.560595e+00 -4.200569e+00 2.361108e+00 3.514583e-01 6.491597e-01 -2.532892e-01 3.509634e+00 3.434441e+00 9.907677e-01 2.811616e+00 -1.554495e+00 -1.922640e-01 6.573499e-01 -2.647738e+00 -1.329169e+00 -9.064388e-01 -6.579092e-01 -8.940094e-01 -4.553306e-01 -2.787598e-01 -3.624403e-01 -1.650770e-02 1.687963e-01
<VARIANCE> 25
 1.515009e+01 2.087963e+01 2.674943e+01 3.187413e+01 2.972898e+01 2.858853e+01 3.513245e+01 3.831876e+01 3.020532e+01 3.252594e+01 2.760248e+01 1.674541e+01 3.781486e+00 2.586826e+00 3.293148e+00 2.888888e+00 3.362825e+00 3.215771e+00 2.888114e+00 2.554152e+00 2.705303e+00 2.268685e+00 2.117078e+00 1.632885e+00 3.385078e-03
<GCONST> 9.170717e+01
<MIXTURE> 83 1.167529e-02
<MEAN> 25
 -2.022909e+01 6.923565e+00 6.455467e-01 -1.951654e+00 8.802079e+00 -1.052293e+00 6.337501e+00 5.573231e+00 1.281604e+00 2.032426e+00 7.036967e-01 3.472769e+00 -1.197699e-01 -3.186472e-01 -8.116708e-03 -9.320650e-02 -3.734429e-01 -3.148127e-01 4.772400e-02 -5.589143e-01 -2.871184e-01 -2.059210e-01 -5.171634e-01 -1.151620e-01 1.008635e-02
<VARIANCE> 25
 5.481038e+00 1.279672e+01 2.288883e+01 1.699478e+01 1.588028e+01 1.893221e+01 3.327739e+01 2.105385e+01 1.477761e+01 2.294530e+01 1.612070e+01 1.047028e+01 1.192322e+00 8.624543e-01 9.758868e-01 8.897351e-01 1.637384e+00 1.061420e+00 1.118855e+00 1.153391e+00 1.493885e+00 1.394270e+00 1.311148e+00 9.479232e-01 1.382447e-03
<GCONST> 7.443544e+01
<MIXTURE> 84 1.066614e-02
<MEAN> 25
 1.411648e+00 8.684229e+00 6.572546e+00 7.566814e+00 2.525561e+00 -1.186070e+00 -1.386811e+00 -4.244810e+00 -4.065974e+00 -2.623646e+00 -2.503679e+00 -1.787410e+00 -1.805602e+00 -1.012039e+00 -1.157102e+00 1.217438e+00 2.023856e+00 1.514745e+00 1.416621e+00 1.202955e+00 1.517015e+00 3.349641e-01 2.619191e-01 5.186568e-01 -6.689466e-02
<VARIANCE> 25
 2.255855e+01 1.760719e+01 2.300008e+01 2.348102e+01 2.788808e+01 2.666071e+01 2.562144e+01 2.494786e+01 2.309812e+01 2.338189e+01 2.174525e+01 2.297282e+01 1.997633e+00 2.602118e+00 3.484018e+00 3.128919e+00 3.437589e+00 3.045894e+00 2.981414e+00 3.194580e+00 4.505228e+00 2.955536e+00 3.437255e+00 2.643425e+00 3.658561e-03
<GCONST> 9.162463e+01
<MIXTURE> 85 7.591393e-03
<MEAN> 25
 -3.234401e+00 7.649689e+00 5.546851e+00 1.400326e+00 -3.419306e+00 -5.240899e+00 -2.718603e+00 -6.082654e+00 -3.579983e+00 -3.023705e+00 -4.718207e-01 -1.924853e+00 3.909378e+00 1.816957e-01 1.794093e+00 -1.939999e+00 -3.472429e+00 -2.577187e+00 -2.861392e+00 -2.324891e+00 -2.236378e+00 -1.280452e+00 -2.117563e+00 -6.308724e-01 1.108663e-02
<VARIANCE> 25
 4.077540e+01 2.353718e+01 3.615668e+01 3.690490e+01 3.846077e+01 4.076591e+01 3.194925e+01 2.735688e+01 2.690772e+01 2.580273e+01 2.522455e+01 2.057118e+01 2.613901e+00 4.564605e+00 3.885257e+00 5.444448e+00 4.238869e+00 3.764292e+00 3.748320e+00 3.847141e+00 3.859011e+00 3.989496e+00 4.352859e+00 3.420234e+00 5.279241e-03
<GCONST> 9.809509e+01
<MIXTURE> 86 1.273941e-02
<MEAN> 25
 -2.468924e+00 2.901075e-01 -2.824027e+00 5.342831e+00 6.386748e+00 4.105349e+00 5.091736e+00 5.814931e+00 5.911648e+00 3.362870e+00 4.131253e+00 2.977703e+00 3.369936e-02 1.338923e-02 -4.714198e-02 -5.514770e-02 -8.847243e-02 -1.028071e-01 -3.168305e-01 -3.100415e-01 -3.181362e-01 -1.859106e-01 -1.729972e-01 -8.166914e-02 -1.058661e-03
<VARIANCE> 25
 1.165926e+01 6.650580e+00 1.134509e+01 1.003072e+01 1.330359e+01 1.113488e+01 1.080065e+01 1.259300e+01 1.174101e+01 1.179684e+01 1.202071e+01 8.641206e+00 8.849509e-02 1.869526e-01 3.559891e-01 4.501655e-01 5.113534e-01 6.801400e-01 8.022271e-01 7.293729e-01 7.333807e-01 8.707323e-01 7.720705e-01 6.924213e-01 5.826855e-05
<GCONST> 5.616714e+01
<MIXTURE> 87 1.100681e-02
<MEAN> 25
 -2.468075e+00 4.232722e+00 3.103859e+00 5.660682e+00 5.054983e+00 7.070644e-01 2.035248e-01 -1.161502e+00 -6.843730e-02 -3.138748e-01 -7.058725e-01 2.664606e-01 -2.796233e+00 -2.666973e+00 -1.475765e+00 -2.311035e+00 -7.214193e-02 1.538770e-01 6.961504e-01 1.210998e+00 1.544531e+00 1.223707e+00 5.511970e-01 1.333262e+00 1.139960e-01
<VARIANCE> 25
 4.056552e+01 2.476810e+01 2.467616e+01 3.390316e+01 2.659871e+01 2.553112e+01 3.132731e+01 2.391198e+01 2.159937e+01 2.130310e+01 2.086519e+01 2.092578e+01 4.200930e+00 2.203713e+00 4.385402e+00 2.940503e+00 3.833537e+00 3.932456e+00 3.297215e+00 3.117628e+00 2.923062e+00 2.828936e+00 3.987680e+00 2.862729e+00 4.211836e-03
<GCONST> 9.384213e+01
<MIXTURE> 88 1.256585e-02
<MEAN> 25
 -3.758553e+00 -5.413530e-01 -2.115887e+00 5.285314e+00 5.325031e+00 3.735453e+00 4.812429e+00 3.755197e+00 3.840192e+00 2.097554e+00 2.591345e+00 2.714934e+00 -4.900436e-02 1.377359e-01 2.339837e-01 3.583667e-01 3.256737e-01 1.404230e-01 -3.400834e-02 -2.309928e-01 -3.389547e-01 -2.041282e-01 -8.791117e-02 -2.191814e-02 -4.549140e-03
<VARIANCE> 25
 1.124267e+01 1.033001e+01 1.703794e+01 1.495091e+01 2.226407e+01 1.981196e+01 1.786059e+01 1.865769e+01 1.717760e+01 1.779334e+01 2.028015e+01 1.383140e+01 1.315080e+00 1.568106e+00 1.952121e+00 2.161471e+00 2.436565e+00 2.483118e+00 2.480941e+00 2.441445e+00 2.270652e+00 2.547319e+00 2.087701e+00 1.923325e+00 1.409833e-03
<GCONST> 8.184478e+01
<MIXTURE> 89 9.333527e-03
<MEAN> 25
 6.086576e+00 -6.838461e+00 -3.547921e+00 -3.158029e+00 -1.623481e+00 -5.591714e+00 -6.113079e+00 4.090796e+00 3.468297e+00 -2.810889e+00 -6.037561e+00 -3.293216e+00 -5.693492e-01 1.564934e-01 1.989929e+00 9.014304e-01 -1.868042e+00 -1.646522e+00 8.844481e-01 1.263128e+00 -7.881650e-01 -1.317156e+00 4.050503e-01 1.535764e+00 -4.898489e-03
<VARIANCE> 25
 8.999733e+00 2.667978e+01 3.115523e+01 3.026196e+01 3.616162e+01 4.161887e+01 5.963830e+01 4.217878e+01 3.908601e+01 4.238117e+01 3.579063e+01 3.238135e+01 3.564816e-01 8.407111e-01 1.471223e+00 1.315943e+00 1.917532e+00 2.129455e+00 2.574786e+00 2.041500e+00 2.247331e+00 2.125127e+00 2.329036e+00 1.469983e+00 3.663554e-04
<GCONST> 8.529579e+01
<MIXTURE> 90 7.114505e-03
<MEAN> 25
 2.448931e+00 -9.724256e+00 -4.754098e+00 -3.977692e+00 -3.384527e+00 -1.813736e+00 3.365853e+00 1.180899e+00 -7.532510e+00 -1.021703e+01 -3.430146e+00 -7.395465e-01 -1.636047e-01 9.090088e-01 1.168795e+00 -8.539003e-01 -1.612884e+00 -2.118528e-01 6.448036e-01 -2.099737e-01 -1.688533e-01 7.370642e-01 1.830132e-01 -5.500541e-01 -1.114922e-02
<VARIANCE> 25
 8.495954e+00 1.777994e+01 1.982114e+01 2.802479e+01 3.684241e+01 3.217474e+01 3.852395e+01 3.640670e+01 3.521498e+01 2.769105e+01 2.700464e+01 2.613741e+01 2.237929e-01 6.127772e-01 7.867299e-01 1.042908e+00 1.470403e+00 1.591650e+00 1.780420e+00 1.654532e+00 1.810413e+00 1.678512e+00 1.495426e+00 1.308652e+00 2.149795e-04
<GCONST> 7.813417e+01
<MIXTURE> 91 7.852945e-03
<MEAN> 25
 6.383798e+00 -7.512900e+00 -8.497277e+00 -5.126925e+00 3.885366e+00 -4.458322e-02 -2.329995e+00 5.902982e-01 8.380842e-01 -2.705409e+00 -4.703371e+00 -5.062866e+00 2.619515e-01 1.002647e+00 1.524155e-01 4.588329e-01 -3.504318e-02 -5.546474e-01 -4.051030e-01 -1.476493e-01 -7.172152e-02 4.331099e-01 -1.133196e-01 2.029622e-01 -3.539250e-02
<VARIANCE> 25
 9.910859e+00 2.307463e+01 1.987534e+01 4.002022e+01 3.499911e+01 5.480838e+01 5.398897e+01 3.969490e+01 5.099607e+01 6.548335e+01 4.087640e+01 4.147442e+01 4.568545e-01 8.899513e-01 1.228750e+00 1.370715e+00 2.209421e+00 2.327712e+00 2.345728e+00 2.430137e+00 2.299581e+00 2.210200e+00 1.973822e+00 1.786371e+00 5.859002e-04
<GCONST> 8.727960e+01
<MIXTURE> 92 7.852945e-03
<MEAN> 25
 6.383798e+00 -7.512900e+00 -8.497277e+00 -5.126925e+00 3.885366e+00 -4.458322e-02 -2.329995e+00 5.902982e-01 8.380842e-01 -2.705409e+00 -4.703371e+00 -5.062866e+00 2.619515e-01 1.002647e+00 1.524155e-01 4.588329e-01 -3.504318e-02 -5.546474e-01 -4.051030e-01 -1.476493e-01 -7.172152e-02 4.331099e-01 -1.133196e-01 2.029622e-01 -3.539250e-02
<VARIANCE> 25
 9.910859e+00 2.307463e+01 1.987534e+01 4.002022e+01 3.499911e+01 5.480838e+01 5.398897e+01 3.969490e+01 5.099607e+01 6.548335e+01 4.087640e+01 4.147442e+01 4.568545e-01 8.899513e-01 1.228750e+00 1.370715e+00 2.209421e+00 2.327712e+00 2.345728e+00 2.430137e+00 2.299581e+00 2.210200e+00 1.973822e+00 1.786371e+00 5.859002e-04
<GCONST> 8.727960e+01
<MIXTURE> 93 6.122769e-03
<MEAN> 25
 -6.712503e+00 -8.945283e-01 -2.431855e+00 5.758228e+00 5.909070e+00 3.904751e+00 6.116330e+00 3.680979e+00 4.183845e+00 2.482677e+00 1.792812e+00 3.686867e+00 -5.957064e-02 -1.575610e-01 -2.679356e-01 -3.319661e-01 -3.318330e-01 -2.696353e-01 -2.275731e-01 -1.678611e-01 -1.661734e-01 -1.381827e-01 -1.055942e-01 -2.982142e-02 -2.845511e-05
<VARIANCE> 25
 9.961015e+00 6.296173e+00 8.150787e+00 1.135271e+01 1.138327e+01 1.580919e+01 1.510090e+01 1.668951e+01 1.493527e+01 1.448677e+01 1.663006e+01 1.331912e+01 8.206082e-02 1.529353e-01 2.736512e-01 3.763906e-01 4.918134e-01 6.568056e-01 7.769250e-01 8.827353e-01 9.057289e-01 8.809665e-01 8.851496e-01 9.108334e-01 1.046558e-06
<GCONST> 5.374338e+01
<MIXTURE> 94 6.122769e-03
<MEAN> 25
 -6.712503e+00 -8.945283e-01 -2.431855e+00 5.758228e+00 5.909070e+00 3.904751e+00 6.116330e+00 3.680979e+00 4.183845e+00 2.482677e+00 1.792812e+00 3.686867e+00 -5.957064e-02 -1.575610e-01 -2.679356e-01 -3.319661e-01 -3.318330e-01 -2.696353e-01 -2.275731e-01 -1.678611e-01 -1.661734e-01 -1.381827e-01 -1.055942e-01 -2.982142e-02 -2.845511e-05
<VARIANCE> 25
 9.961015e+00 6.296173e+00 8.150787e+00 1.135271e+01 1.138327e+01 1.580919e+01 1.510090e+01 1.668951e+01 1.493527e+01 1.448677e+01 1.663006e+01 1.331912e+01 8.206082e-02 1.529353e-01 2.736512e-01 3.763906e-01 4.918134e-01 6.568056e-01 7.769250e-01 8.827353e-01 9.057289e-01 8.809665e-01 8.851496e-01 9.108334e-01 1.046558e-06
<GCONST> 5.374338e+01
<MIXTURE> 95 5.258835e-03
<MEAN> 25
 -4.948340e+00 -3.070313e-01 -2.402237e+00 4.822509e+00 4.811401e+00 2.787428e+00 3.963342e+00 2.448679e+00 2.729867e+00 8.567405e-01 1.161389e+00 2.702238e+00 1.478949e-01 1.949330e-01 7.242966e-02 -7.143991e-02 -3.202763e-01 -7.165509e-01 -1.085348e+00 -1.201494e+00 -1.253597e+00 -9.733305e-01 -5.854281e-01 -3.011962e-01 -1.160917e-04
<VARIANCE> 25
 1.459493e+01 7.383706e+00 1.221404e+01 1.155171e+01 1.503414e+01 1.644856e+01 1.642990e+01 1.990832e+01 1.562891e+01 1.387592e+01 1.791449e+01 1.309670e+01 1.933973e-01 3.043570e-01 4.272482e-01 5.904415e-01 7.485064e-01 8.468570e-01 8.495826e-01 9.466172e-01 9.517815e-01 9.925945e-01 1.097550e+00 1.031736e+00 4.724178e-05
<GCONST> 6.293798e+01
<MIXTURE> 96 7.034694e-03
<MEAN> 25
 -4.937625e+00 -2.898725e-01 -2.333168e+00 5.132159e+00 3.991902e+00 1.867138e+00 3.567047e+00 1.891736e+00 2.512322e+00 9.750078e-01 1.139066e+00 2.827476e+00 -2.773082e-02 9.475336e-02 2.182889e-01 3.962366e-01 5.267777e-01 4.699681e-01 2.306119e-01 -1.031307e-01 -4.805062e-01 -6.740600e-01 -6.239768e-01 -3.867817e-01 3.543110e-05
<VARIANCE> 25
 1.179636e+01 1.063074e+01 1.291860e+01 1.399924e+01 1.533715e+01 1.939566e+01 1.775965e+01 1.921595e+01 1.775381e+01 1.628171e+01 1.931721e+01 1.420440e+01 1.178576e-01 2.158184e-01 3.150201e-01 3.925871e-01 4.904443e-01 6.923087e-01 8.595703e-01 9.978315e-01 9.505014e-01 8.762860e-01 8.855013e-01 9.395483e-01 1.107719e-06
<GCONST> 5.770996e+01
<MIXTURE> 97 7.034694e-03
<MEAN> 25
 -4.937625e+00 -2.898725e-01 -2.333168e+00 5.132159e+00 3.991902e+00 1.867138e+00 3.567047e+00 1.891736e+00 2.512322e+00 9.750078e-01 1.139066e+00 2.827476e+00 -2.773082e-02 9.475336e-02 2.182889e-01 3.962366e-01 5.267777e-01 4.699681e-01 2.306119e-01 -1.031307e-01 -4.805062e-01 -6.740600e-01 -6.239768e-01 -3.867817e-01 3.543110e-05
<VARIANCE> 25
 1.179636e+01 1.063074e+01 1.291860e+01 1.399924e+01 1.533715e+01 1.939566e+01 1.775965e+01 1.921595e+01 1.775381e+01 1.628171e+01 1.931721e+01 1.420440e+01 1.178576e-01 2.158184e-01 3.150201e-01 3.925871e-01 4.904443e-01 6.923087e-01 8.595703e-01 9.978315e-01 9.505014e-01 8.762860e-01 8.855013e-01 9.395483e-01 1.107719e-06
<GCONST> 5.770996e+01
<MIXTURE> 98 9.917808e-03
<MEAN> 25
 -1.423555e+00 1.621566e+00 -3.500962e-01 4.686519e+00 3.235576e+00 1.917304e+00 3.197167e+00 1.681466e+00 1.464193e+00 8.698754e-01 5.391187e-01 9.131811e-01 -1.851556e+00 -1.296239e+00 -9.497916e-01 7.589259e-02 7.267769e-01 9.188188e-01 1.226665e+00 1.430452e+00 1.670915e+00 1.034340e+00 1.176361e+00 9.748071e-01 -3.311768e-02
<VARIANCE> 25
 1.384157e+01 2.299561e+01 2.955188e+01 3.017857e+01 4.241334e+01 3.971346e+01 2.999530e+01 2.733438e+01 2.576872e+01 2.772573e+01 2.505554e+01 2.215228e+01 1.277924e+00 1.817749e+00 2.217173e+00 2.316530e+00 2.770913e+00 2.807395e+00 2.653122e+00 2.585534e+00 2.534968e+00 2.882315e+00 2.745532e+00 1.992461e+00 2.278138e-03
<GCONST> 8.959205e+01
<MIXTURE> 99 6.696178e-03
<MEAN> 25
 -6.008585e+00 9.124220e+00 6.523143e+00 3.783764e+00 3.876713e-01 -5.866150e+00 -1.046040e+00 -4.497087e+00 -3.804124e+00 -3.643035e+00 -1.354041e+00 2.722813e-01 7.948829e-01 -8.389038e-01 2.238328e-01 -2.125151e-01 -1.225893e+00 -4.809076e-01 -2.966299e-01 -3.581130e-01 -7.508317e-02 -1.584201e-01 1.164302e-01 1.563518e-01 9.848679e-03
<VARIANCE> 25
 3.427651e+01 2.758675e+01 4.272199e+01 2.885180e+01 3.542479e+01 3.470978e+01 2.728868e+01 2.789838e+01 2.444101e+01 2.463816e+01 1.872743e+01 2.566602e+01 2.490442e+00 1.865964e+00 1.352198e+00 1.770195e+00 2.500759e+00 1.916485e+00 1.465087e+00 1.595929e+00 1.404095e+00 1.485119e+00 1.270612e+00 1.192725e+00 1.404215e-03
<GCONST> 8.564867e+01
<MIXTURE> 100 4.498084e-03
<MEAN> 25
 -1.545707e+00 5.881377e+00 1.013334e+01 -7.418797e+00 -1.059278e+01 -4.748389e+00 -4.775800e+00 -9.867117e+00 -4.778942e+00 -5.592393e-01 -2.358112e+00 -2.262677e+00 2.969984e+00 -1.173560e+00 1.351642e+00 -1.845155e+00 -3.495301e+00 -7.257262e-01 -8.995945e-01 -7.450409e-01 -1.520177e+00 1.756093e-01 -1.397911e+00 -3.154495e-01 1.185239e-03
<VARIANCE> 25
 1.301386e+01 2.165463e+01 2.104062e+01 2.464990e+01 2.211891e+01 2.316497e+01 2.731381e+01 2.013412e+01 2.559332e+01 2.177695e+01 2.207445e+01 2.177441e+01 1.686414e+00 3.732811e+00 2.717128e+00 5.156953e+00 3.916149e+00 4.227999e+00 4.839233e+00 4.086031e+00 3.904011e+00 3.921944e+00 4.299196e+00 2.995590e+00 1.563309e-03
<GCONST> 9.198068e+01
<MIXTURE> 101 6.007792e-03
<MEAN> 25
 8.143966e+00 -3.635243e+00 -6.957783e+00 -7.884498e+00 1.320250e+00 -2.356771e-01 -1.043126e+01 -2.200529e+00 2.345957e+00 2.231956e+00 -2.056191e+00 -5.234088e+00 6.599885e-01 6.772136e-01 -1.445220e+00 -1.789041e+00 1.005935e+00 2.401044e+00 1.671554e-01 -1.451541e+00 -9.244937e-01 8.269120e-01 1.446146e+00 -3.042497e-01 -3.518338e-03
<VARIANCE> 25
 9.276521e+00 1.495185e+01 3.145959e+01 4.556555e+01 3.461450e+01 3.885837e+01 3.298617e+01 3.510044e+01 4.021691e+01 4.085017e+01 4.663765e+01 2.161402e+01 3.068627e-01 6.139150e-01 1.111907e+00 1.606930e+00 1.521448e+00 2.055300e+00 1.978350e+00 1.851572e+00 2.416221e+00 2.330197e+00 1.628918e+00 1.813827e+00 3.584900e-04
<GCONST> 8.295298e+01
<MIXTURE> 102 6.007792e-03
<MEAN> 25
 8.143966e+00 -3.635243e+00 -6.957783e+00 -7.884498e+00 1.320250e+00 -2.356771e-01 -1.043126e+01 -2.200529e+00 2.345957e+00 2.231956e+00 -2.056191e+00 -5.234088e+00 6.599885e-01 6.772136e-01 -1.445220e+00 -1.789041e+00 1.005935e+00 2.401044e+00 1.671554e-01 -1.451541e+00 -9.244937e-01 8.269120e-01 1.446146e+00 -3.042497e-01 -3.518338e-03
<VARIANCE> 25
 9.276521e+00 1.495185e+01 3.145959e+01 4.556555e+01 3.461450e+01 3.885837e+01 3.298617e+01 3.510044e+01 4.021691e+01 4.085017e+01 4.663765e+01 2.161402e+01 3.068627e-01 6.139150e-01 1.111907e+00 1.606930e+00 1.521448e+00 2.055300e+00 1.978350e+00 1.851572e+00 2.416221e+00 2.330197e+00 1.628918e+00 1.813827e+00 3.584900e-04
<GCONST> 8.295298e+01
<MIXTURE> 103 5.694618e-03
<MEAN> 25
 3.369554e+00 -9.476893e+00 -6.120783e+00 -3.084041e+00 -1.341887e+00 -1.970026e+00 2.431585e+00 2.510417e+00 -4.605618e+00 -9.253483e+00 -5.064766e+00 3.581184e-01 -1.569628e-01 -1.487201e+00 -9.798349e-01 3.748323e-01 1.215111e+00 1.019833e+00 1.572869e-01 -2.694011e-01 -7.822555e-01 -9.431204e-01 -3.492256e-02 1.198733e-01 2.688699e-02
<VARIANCE> 25
 1.034460e+01 2.032053e+01 2.302567e+01 3.167011e+01 4.809586e+01 3.498834e+01 4.640289e+01 3.670558e+01 4.212994e+01 2.930312e+01 3.003432e+01 2.639903e+01 6.451653e-01 1.252032e+00 1.536709e+00 1.940031e+00 2.924267e+00 2.408408e+00 2.889350e+00 2.577345e+00 2.561189e+00 2.530140e+00 2.099077e+00 2.014976e+00 8.089751e-04
<GCONST> 8.757942e+01
<MIXTURE> 104 5.694618e-03
<MEAN> 25
 3.369554e+00 -9.476893e+00 -6.120783e+00 -3.084041e+00 -1.341887e+00 -1.970026e+00 2.431585e+00 2.510417e+00 -4.605618e+00 -9.253483e+00 -5.064766e+00 3.581184e-01 -1.569628e-01 -1.487201e+00 -9.798349e-01 3.748323e-01 1.215111e+00 1.019833e+00 1.572869e-01 -2.694011e-01 -7.822555e-01 -9.431204e-01 -3.492256e-02 1.198733e-01 2.688699e-02
<VARIANCE> 25
 1.034460e+01 2.032053e+01 2.302567e+01 3.167011e+01 4.809586e+01 3.498834e+01 4.640289e+01 3.670558e+01 4.212994e+01 2.930312e+01 3.003432e+01 2.639903e+01 6.451653e-01 1.252032e+00 1.536709e+00 1.940031e+00 2.924267e+00 2.408408e+00 2.889350e+00 2.577345e+00 2.561189e+00 2.530140e+00 2.099077e+00 2.014976e+00 8.089751e-04
<GCONST> 8.757942e+01
<MIXTURE> 105 4.710235e-03
<MEAN> 25
 2.433914e+00 -1.949766e+00 9.039020e+00 -2.423997e+00 -1.166424e+01 -4.799767e+00 -3.880808e+00 -1.035882e+00 -3.637515e+00 -3.161871e+00 1.000109e+00 -1.408496e+00 -3.277247e-03 4.284701e-02 5.106647e-02 -3.198676e-02 3.527145e-02 8.177033e-02 -4.616138e-02 5.935147e-02 -8.024106e-02 2.928875e-02 -1.551678e-02 -2.153593e-03 -2.153499e-03
<VARIANCE> 25
 1.428711e+01 2.854518e+01 3.823726e+01 4.264495e+01 3.521666e+01 5.007644e+01 3.894832e+01 4.136683e+01 3.746842e+01 4.083742e+01 4.225592e+01 2.930076e+01 8.366867e-02 1.755754e-01 3.372090e-01 2.869757e-01 3.703982e-01 4.554191e-01 4.518503e-01 4.927155e-01 5.398868e-01 4.342805e-01 4.509400e-01 4.677258e-01 8.799239e-05
<GCONST> 6.648579e+01
<MIXTURE> 106 4.710235e-03
<MEAN> 25
 2.433914e+00 -1.949766e+00 9.039020e+00 -2.423997e+00 -1.166424e+01 -4.799767e+00 -3.880808e+00 -1.035882e+00 -3.637515e+00 -3.161871e+00 1.000109e+00 -1.408496e+00 -3.277247e-03 4.284701e-02 5.106647e-02 -3.198676e-02 3.527145e-02 8.177033e-02 -4.616138e-02 5.935147e-02 -8.024106e-02 2.928875e-02 -1.551678e-02 -2.153593e-03 -2.153499e-03
<VARIANCE> 25
 1.428711e+01 2.854518e+01 3.823726e+01 4.264495e+01 3.521666e+01 5.007644e+01 3.894832e+01 4.136683e+01 3.746842e+01 4.083742e+01 4.225592e+01 2.930076e+01 8.366867e-02 1.755754e-01 3.372090e-01 2.869757e-01 3.703982e-01 4.554191e-01 4.518503e-01 4.927155e-01 5.398868e-01 4.342805e-01 4.509400e-01 4.677258e-01 8.799239e-05
<GCONST> 6.648579e+01
<MIXTURE> 107 5.452374e-03
<MEAN> 25
 8.542610e+00 -2.322618e+00 -7.983077e+00 -9.564243e+00 1.931127e+00 3.017043e+00 -8.597198e+00 -4.818626e+00 -9.096811e-01 3.517453e+00 1.159487e+00 -5.032367e+00 -5.570060e-01 -7.531042e-01 8.446661e-01 1.803755e+00 2.047692e-01 -1.976987e+00 -9.777275e-01 7.895399e-01 1.654559e+00 5.713293e-02 -1.583589e+00 -7.893285e-01 -2.907319e-03
<VARIANCE> 25
 9.063444e+00 2.009921e+01 2.723462e+01 4.270090e+01 3.428317e+01 3.728069e+01 4.941647e+01 3.631695e+01 4.392929e+01 4.029599e+01 5.142377e+01 2.932173e+01 4.176685e-01 1.006180e+00 1.510244e+00 2.367540e+00 2.268239e+00 2.733312e+00 2.570823e+00 2.522233e+00 2.513262e+00 3.042330e+00 1.989325e+00 2.157737e+00 7.023155e-04
<GCONST> 8.798457e+01
<MIXTURE> 108 5.452374e-03
<MEAN> 25
 8.542610e+00 -2.322618e+00 -7.983077e+00 -9.564243e+00 1.931127e+00 3.017043e+00 -8.597198e+00 -4.818626e+00 -9.096811e-01 3.517453e+00 1.159487e+00 -5.032367e+00 -5.570060e-01 -7.531042e-01 8.446661e-01 1.803755e+00 2.047692e-01 -1.976987e+00 -9.777275e-01 7.895399e-01 1.654559e+00 5.713293e-02 -1.583589e+00 -7.893285e-01 -2.907319e-03
<VARIANCE> 25
 9.063444e+00 2.009921e+01 2.723462e+01 4.270090e+01 3.428317e+01 3.728069e+01 4.941647e+01 3.631695e+01 4.392929e+01 4.029599e+01 5.142377e+01 2.932173e+01 4.176685e-01 1.006180e+00 1.510244e+00 2.367540e+00 2.268239e+00 2.733312e+00 2.570823e+00 2.522233e+00 2.513262e+00 3.042330e+00 1.989325e+00 2.157737e+00 7.023155e-04
<GCONST> 8.798457e+01
<MIXTURE> 109 6.661064e-03
<MEAN> 25
 4.077464e+00 -1.050298e+01 -8.293106e+00 -1.340371e+00 2.759409e+00 -2.542276e-02 -5.488666e-02 1.478804e+00 -2.525345e+00 -8.347030e+00 -5.370799e+00 6.655917e-02 -3.390872e-02 -1.343239e-01 -3.390549e-02 2.523727e-01 2.003749e-01 1.206472e-01 -1.262504e-01 -1.097758e-01 -4.406301e-02 -1.296732e-01 2.188681e-01 1.609502e-02 -3.534975e-03
<VARIANCE> 25
 9.088099e+00 1.873158e+01 2.009546e+01 3.137067e+01 4.095406e+01 3.675825e+01 4.652556e+01 3.444013e+01 4.636575e+01 3.531897e+01 2.953449e+01 2.808989e+01 1.926163e-01 4.228624e-01 5.374929e-01 6.354342e-01 1.231906e+00 9.912254e-01 1.255086e+00 1.098912e+00 1.117643e+00 9.508616e-01 8.758819e-01 8.875534e-01 1.815872e-04
<GCONST> 7.448294e+01
<MIXTURE> 110 6.661064e-03
<MEAN> 25
 4.077464e+00 -1.050298e+01 -8.293106e+00 -1.340371e+00 2.759409e+00 -2.542276e-02 -5.488666e-02 1.478804e+00 -2.525345e+00 -8.347030e+00 -5.370799e+00 6.655917e-02 -3.390872e-02 -1.343239e-01 -3.390549e-02 2.523727e-01 2.003749e-01 1.206472e-01 -1.262504e-01 -1.097758e-01 -4.406301e-02 -1.296732e-01 2.188681e-01 1.609502e-02 -3.534975e-03
<VARIANCE> 25
 9.088099e+00 1.873158e+01 2.009546e+01 3.137067e+01 4.095406e+01 3.675825e+01 4.652556e+01 3.444013e+01 4.636575e+01 3.531897e+01 2.953449e+01 2.808989e+01 1.926163e-01 4.228624e-01 5.374929e-01 6.354342e-01 1.231906e+00 9.912254e-01 1.255086e+00 1.098912e+00 1.117643e+00 9.508616e-01 8.758819e-01 8.875534e-01 1.815872e-04
<GCONST> 7.448294e+01
<MIXTURE> 111 4.337247e-03
<MEAN> 25
 -4.426333e+00 -8.688571e-01 -1.749642e+00 1.703542e+00 1.023830e+00 9.741407e-01 3.308553e-01 2.401231e-01 1.350576e-01 -5.467952e-01 -6.172646e-01 1.973614e+00 -2.022133e-02 -3.184818e-02 -7.789461e-02 -7.897601e-02 -3.941855e-02 1.010959e-02 -4.629389e-03 -5.958060e-02 -1.396425e-01 -1.984364e-01 -1.922932e-01 -1.066815e-01 -2.304013e-04
<VARIANCE> 25
 7.248384e+00 5.130022e+00 1.025562e+01 9.375796e+00 1.348458e+01 2.368837e+01 1.461038e+01 1.326317e+01 1.182085e+01 1.186598e+01 1.356504e+01 1.151561e+01 7.888222e-02 1.627455e-01 2.798920e-01 4.230884e-01 5.679426e-01 7.044625e-01 8.026962e-01 8.529419e-01 8.869445e-01 8.534461e-01 8.584685e-01 8.422955e-01 2.227269e-05
<GCONST> 5.605815e+01
<MIXTURE> 112 4.337247e-03
<MEAN> 25
 -4.426333e+00 -8.688571e-01 -1.749642e+00 1.703542e+00 1.023830e+00 9.741407e-01 3.308553e-01 2.401231e-01 1.350576e-01 -5.467952e-01 -6.172646e-01 1.973614e+00 -2.022133e-02 -3.184818e-02 -7.789461e-02 -7.897601e-02 -3.941855e-02 1.010959e-02 -4.629389e-03 -5.958060e-02 -1.396425e-01 -1.984364e-01 -1.922932e-01 -1.066815e-01 -2.304013e-04
<VARIANCE> 25
 7.248384e+00 5.130022e+00 1.025562e+01 9.375796e+00 1.348458e+01 2.368837e+01 1.461038e+01 1.326317e+01 1.182085e+01 1.186598e+01 1.356504e+01 1.151561e+01 7.888222e-02 1.627455e-01 2.798920e-01 4.230884e-01 5.679426e-01 7.044625e-01 8.026962e-01 8.529419e-01 8.869445e-01 8.534461e-01 8.584685e-01 8.422955e-01 2.227269e-05
<GCONST> 5.605815e+01
<MIXTURE> 113 5.938666e-03
<MEAN> 25
 9.867066e+00 1.521206e+00 -8.818918e+00 -1.716750e+01 -8.650101e-01 5.917962e+00 -5.134608e+00 -1.866381e+00 -5.371947e+00 -4.569753e-01 5.915204e-01 -3.935381e-01 3.814220e-02 2.456590e-02 -4.241041e-02 -1.070702e-01 5.998243e-02 1.782391e-01 1.551338e-01 1.086239e-02 -1.367927e-01 3.887608e-02 2.130461e-01 3.908623e-02 -1.376894e-03
<VARIANCE> 25
 9.593181e+00 1.647932e+01 2.827422e+01 3.242440e+01 4.983416e+01 3.280841e+01 3.820244e+01 3.927559e+01 3.651254e+01 4.368882e+01 3.522181e+01 2.720220e+01 1.306293e-01 3.269263e-01 3.165066e-01 6.182124e-01 6.216268e-01 6.617445e-01 8.963376e-01 8.052725e-01 1.001458e+00 9.688572e-01 6.954473e-01 6.865268e-01 1.238858e-04
<GCONST> 7.101886e+01
<MIXTURE> 114 5.938666e-03
<MEAN> 25
 9.867066e+00 1.521206e+00 -8.818918e+00 -1.716750e+01 -8.650101e-01 5.917962e+00 -5.134608e+00 -1.866381e+00 -5.371947e+00 -4.569753e-01 5.915204e-01 -3.935381e-01 3.814220e-02 2.456590e-02 -4.241041e-02 -1.070702e-01 5.998243e-02 1.782391e-01 1.551338e-01 1.086239e-02 -1.367927e-01 3.887608e-02 2.130461e-01 3.908623e-02 -1.376894e-03
<VARIANCE> 25
 9.593181e+00 1.647932e+01 2.827422e+01 3.242440e+01 4.983416e+01 3.280841e+01 3.820244e+01 3.927559e+01 3.651254e+01 4.368882e+01 3.522181e+01 2.720220e+01 1.306293e-01 3.269263e-01 3.165066e-01 6.182124e-01 6.216268e-01 6.617445e-01 8.963376e-01 8.052725e-01 1.001458e+00 9.688572e-01 6.954473e-01 6.865268e-01 1.238858e-04
<GCONST> 7.101886e+01
<MIXTURE> 115 2.935202e-03
<MEAN> 25
 -4.003709e+00 -7.280726e-01 -3.119914e+00 3.650165e+00 2.444721e+00 -4.085667e-01 2.244778e+00 4.428295e-01 1.411088e+00 -3.254857e-02 3.783695e-02 2.692442e+00 3.159138e-02 -7.180119e-02 -2.305039e-01 -4.378558e-01 -6.315265e-01 -6.679677e-01 -5.937778e-01 -5.083108e-01 -4.850210e-01 -4.548122e-01 -3.414792e-01 -1.624425e-01 -7.827030e-06
<VARIANCE> 25
 9.376975e+00 9.963545e+00 1.349417e+01 1.266261e+01 1.363451e+01 1.755540e+01 1.702826e+01 2.092536e+01 1.797778e+01 1.723889e+01 1.911277e+01 1.461018e+01 2.028345e-01 3.444220e-01 4.876047e-01 5.599841e-01 6.318679e-01 7.998686e-01 1.003787e+00 1.129804e+00 1.072204e+00 9.947163e-01 1.028726e+00 1.065391e+00 1.019157e-06
<GCONST> 6.019085e+01
<MIXTURE> 116 2.935202e-03
<MEAN> 25
 -4.003709e+00 -7.280726e-01 -3.119914e+00 3.650165e+00 2.444721e+00 -4.085667e-01 2.244778e+00 4.428295e-01 1.411088e+00 -3.254857e-02 3.783695e-02 2.692442e+00 3.159138e-02 -7.180119e-02 -2.305039e-01 -4.378558e-01 -6.315265e-01 -6.679677e-01 -5.937778e-01 -5.083108e-01 -4.850210e-01 -4.548122e-01 -3.414792e-01 -1.624425e-01 -7.827030e-06
<VARIANCE> 25
 9.376975e+00 9.963545e+00 1.349417e+01 1.266261e+01 1.363451e+01 1.755540e+01 1.702826e+01 2.092536e+01 1.797778e+01 1.723889e+01 1.911277e+01 1.461018e+01 2.028345e-01 3.444220e-01 4.876047e-01 5.599841e-01 6.318679e-01 7.998686e-01 1.003787e+00 1.129804e+00 1.072204e+00 9.947163e-01 1.028726e+00 1.065391e+00 1.019157e-06
<GCONST> 6.019085e+01
<MIXTURE> 117 6.506003e-03
<MEAN> 25
 -4.622918e+00 1.129167e+00 1.035892e+00 9.736504e+00 6.258684e+00 6.245177e+00 6.461028e+00 5.058221e+00 6.394995e+00 4.917672e+00 6.346814e+00 2.707339e+00 -7.442641e-02 -2.346076e-01 -3.606237e-01 -4.196317e-01 -3.668192e-01 -2.989767e-01 -2.893953e-01 -3.286198e-01 -3.914483e-01 -3.656556e-01 -2.636993e-01 -1.150014e-01 -1.412957e-05
<VARIANCE> 25
 7.309970e+00 8.767460e+00 9.886271e+00 1.441210e+01 1.557550e+01 1.534379e+01 1.767199e+01 1.797405e+01 1.638696e+01 1.636109e+01 1.681644e+01 1.470833e+01 2.160286e-01 3.069068e-01 4.276105e-01 6.152595e-01 8.510962e-01 1.057965e+00 1.175213e+00 1.231561e+00 1.220603e+00 1.197398e+00 1.164096e+00 1.111525e+00 1.011922e-06
<GCONST> 6.045548e+01
<MIXTURE> 118 6.506003e-03
<MEAN> 25
 -4.622918e+00 1.129167e+00 1.035892e+00 9.736504e+00 6.258684e+00 6.245177e+00 6.461028e+00 5.058221e+00 6.394995e+00 4.917672e+00 6.346814e+00 2.707339e+00 -7.442641e-02 -2.346076e-01 -3.606237e-01 -4.196317e-01 -3.668192e-01 -2.989767e-01 -2.893953e-01 -3.286198e-01 -3.914483e-01 -3.656556e-01 -2.636993e-01 -1.150014e-01 -1.412957e-05
<VARIANCE> 25
 7.309970e+00 8.767460e+00 9.886271e+00 1.441210e+01 1.557550e+01 1.534379e+01 1.767199e+01 1.797405e+01 1.638696e+01 1.636109e+01 1.681644e+01 1.470833e+01 2.160286e-01 3.069068e-01 4.276105e-01 6.152595e-01 8.510962e-01 1.057965e+00 1.175213e+00 1.231561e+00 1.220603e+00 1.197398e+00 1.164096e+00 1.111525e+00 1.011922e-06
<GCONST> 6.045548e+01
<MIXTURE> 119 4.297961e-03
<MEAN> 25
 -4.974301e+00 -7.632924e+00 2.229329e+00 2.016566e+00 2.240801e+00 2.083294e-01 5.274898e+00 5.940586e+00 1.167783e+00 9.680680e-01 6.613112e+00 1.570477e+00 -4.997342e-02 -7.937414e-02 3.738175e-02 -5.717851e-02 -1.261242e-01 -1.799847e-01 -6.940757e-02 -1.415992e-02 -9.178253e-02 -1.121425e-01 -5.493793e-02 -5.795821e-02 1.110580e-03
<VARIANCE> 25
 8.507840e+00 9.825360e+00 1.658565e+01 2.017905e+01 2.286828e+01 2.320354e+01 2.499282e+01 2.648381e+01 2.504481e+01 2.806893e+01 2.040193e+01 2.040698e+01 1.603968e-01 2.824759e-01 4.596976e-01 6.327230e-01 8.033234e-01 1.003689e+00 1.100581e+00 1.277891e+00 1.285702e+00 1.245706e+00 1.192415e+00 1.112539e+00 2.315970e-04
<GCONST> 6.972176e+01
<MIXTURE> 120 4.297961e-03
<MEAN> 25
 -4.974301e+00 -7.632924e+00 2.229329e+00 2.016566e+00 2.240801e+00 2.083294e-01 5.274898e+00 5.940586e+00 1.167783e+00 9.680680e-01 6.613112e+00 1.570477e+00 -4.997342e-02 -7.937414e-02 3.738175e-02 -5.717851e-02 -1.261242e-01 -1.799847e-01 -6.940757e-02 -1.415992e-02 -9.178253e-02 -1.121425e-01 -5.493793e-02 -5.795821e-02 1.110580e-03
<VARIANCE> 25
 8.507840e+00 9.825360e+00 1.658565e+01 2.017905e+01 2.286828e+01 2.320354e+01 2.499282e+01 2.648381e+01 2.504481e+01 2.806893e+01 2.040193e+01 2.040698e+01 1.603968e-01 2.824759e-01 4.596976e-01 6.327230e-01 8.033234e-01 1.003689e+00 1.100581e+00 1.277891e+00 1.285702e+00 1.245706e+00 1.192415e+00 1.112539e+00 2.315970e-04
<GCONST> 6.972176e+01
<MIXTURE> 121 4.567511e-03
<MEAN> 25
 2.391583e-01 -2.737917e+00 5.261418e+00 -1.220633e+01 -1.268505e+01 -1.711536e+00 9.196756e-01 -5.029212e+00 -4.165959e+00 -3.164277e-01 -5.321399e+00 -4.344322e+00 3.531117e-02 1.371820e-01 -4.981537e-02 9.420650e-02 1.976452e-01 1.073310e-01 -1.159257e-01 -2.004917e-01 -3.050369e-01 -2.213106e-01 -1.794750e-01 -2.049993e-02 -7.482469e-03
<VARIANCE> 25
 7.262537e+00 1.530578e+01 1.679116e+01 2.558859e+01 2.296514e+01 2.757755e+01 2.803077e+01 2.380663e+01 3.381022e+01 2.763733e+01 1.907799e+01 1.987147e+01 1.598531e-01 6.037972e-01 5.962203e-01 6.658154e-01 7.586250e-01 1.149296e+00 1.079701e+00 1.106683e+00 1.178370e+00 1.140787e+00 9.637720e-01 8.332442e-01 2.049237e-04
<GCONST> 7.081557e+01
<MIXTURE> 122 4.567511e-03
<MEAN> 25
 2.391583e-01 -2.737917e+00 5.261418e+00 -1.220633e+01 -1.268505e+01 -1.711536e+00 9.196756e-01 -5.029212e+00 -4.165959e+00 -3.164277e-01 -5.321399e+00 -4.344322e+00 3.531117e-02 1.371820e-01 -4.981537e-02 9.420650e-02 1.976452e-01 1.073310e-01 -1.159257e-01 -2.004917e-01 -3.050369e-01 -2.213106e-01 -1.794750e-01 -2.049993e-02 -7.482469e-03
<VARIANCE> 25
 7.262537e+00 1.530578e+01 1.679116e+01 2.558859e+01 2.296514e+01 2.757755e+01 2.803077e+01 2.380663e+01 3.381022e+01 2.763733e+01 1.907799e+01 1.987147e+01 1.598531e-01 6.037972e-01 5.962203e-01 6.658154e-01 7.586250e-01 1.149296e+00 1.079701e+00 1.106683e+00 1.178370e+00 1.140787e+00 9.637720e-01 8.332442e-01 2.049237e-04
<GCONST> 7.081557e+01
<MIXTURE> 123 4.393044e-03
<MEAN> 25
 -3.666163e+00 1.068564e+00 -5.855037e-01 5.959004e+00 5.844779e+00 3.699799e+00 3.511770e+00 1.165350e+00 4.109371e-01 -9.770464e-01 -4.748678e-01 7.488518e-01 -5.420672e-01 -8.079113e-01 -8.073511e-01 -6.755826e-01 -1.633772e-01 1.057454e-02 4.938702e-01 7.188068e-01 6.937396e-01 8.217208e-01 6.114714e-01 4.421022e-01 -3.777486e-03
<VARIANCE> 25
 1.193376e+01 9.339604e+00 1.752908e+01 1.578687e+01 2.205402e+01 2.479577e+01 2.012748e+01 2.085514e+01 1.836036e+01 1.797784e+01 2.220375e+01 1.780658e+01 3.949333e-01 3.561762e-01 4.917704e-01 6.881185e-01 9.715022e-01 1.076714e+00 1.263730e+00 1.142727e+00 1.120163e+00 1.095235e+00 1.175413e+00 1.139583e+00 9.476909e-05
<GCONST> 6.900684e+01
<MIXTURE> 124 4.069876e-03
<MEAN> 25
 -5.021017e+00 -3.257029e-01 -3.644625e+00 4.718858e+00 5.472124e+00 3.248876e+00 5.130069e+00 3.693247e+00 3.771210e+00 1.270096e+00 8.778617e-01 2.978817e+00 -1.798399e-01 -2.896518e-01 -3.636449e-01 -2.373021e-01 9.862290e-02 5.315304e-01 7.743937e-01 7.587352e-01 5.859149e-01 3.201018e-01 4.926459e-02 -3.276522e-02 -3.103825e-05
<VARIANCE> 25
 1.810201e+01 8.822042e+00 1.147973e+01 1.143883e+01 1.219574e+01 1.747832e+01 1.420339e+01 1.980971e+01 1.580462e+01 1.412380e+01 1.698128e+01 1.200969e+01 9.393463e-02 1.621863e-01 2.842692e-01 3.805579e-01 5.957370e-01 6.901304e-01 7.051325e-01 7.836115e-01 8.112749e-01 8.739363e-01 8.898667e-01 8.485392e-01 2.087530e-05
<GCONST> 5.833357e+01
<MIXTURE> 125 4.069876e-03
<MEAN> 25
 -5.021017e+00 -3.257029e-01 -3.644625e+00 4.718858e+00 5.472124e+00 3.248876e+00 5.130069e+00 3.693247e+00 3.771210e+00 1.270096e+00 8.778617e-01 2.978817e+00 -1.798399e-01 -2.896518e-01 -3.636449e-01 -2.373021e-01 9.862290e-02 5.315304e-01 7.743937e-01 7.587352e-01 5.859149e-01 3.201018e-01 4.926459e-02 -3.276522e-02 -3.103825e-05
<VARIANCE> 25
 1.810201e+01 8.822042e+00 1.147973e+01 1.143883e+01 1.219574e+01 1.747832e+01 1.420339e+01 1.980971e+01 1.580462e+01 1.412380e+01 1.698128e+01 1.200969e+01 9.393463e-02 1.621863e-01 2.842692e-01 3.805579e-01 5.957370e-01 6.901304e-01 7.051325e-01 7.836115e-01 8.112749e-01 8.739363e-01 8.898667e-01 8.485392e-01 2.087530e-05
<GCONST> 5.833357e+01
<MIXTURE> 126 2.402244e-03
<MEAN> 25
 -3.722152e+00 -6.833112e+00 -5.319746e+00 2.316531e+00 4.326226e+00 -3.156060e+00 1.137059e-01 3.632096e+00 3.407993e+00 -2.637230e+00 -1.380824e+00 3.061619e+00 -3.070316e-03 -1.069217e-02 -3.185707e-02 -1.575693e-01 -3.168395e-01 -3.889521e-01 -2.883517e-01 -1.678196e-01 -1.096565e-01 -1.168613e-01 -8.754729e-02 -1.913383e-02 -1.524579e-03
<VARIANCE> 25
 7.674468e+00 1.330860e+01 1.378020e+01 1.496681e+01 2.456184e+01 2.396320e+01 2.262225e+01 2.852689e+01 3.122526e+01 2.618173e+01 2.170405e+01 1.894603e+01 1.689722e-01 3.511178e-01 4.804583e-01 5.614595e-01 7.468896e-01 9.868323e-01 1.147272e+00 1.263964e+00 1.320021e+00 1.300265e+00 1.214024e+00 1.148985e+00 2.093623e-04
<GCONST> 6.980844e+01
<MIXTURE> 127 2.402244e-03
<MEAN> 25
 -3.722152e+00 -6.833112e+00 -5.319746e+00 2.316531e+00 4.326226e+00 -3.156060e+00 1.137059e-01 3.632096e+00 3.407993e+00 -2.637230e+00 -1.380824e+00 3.061619e+00 -3.070316e-03 -1.069217e-02 -3.185707e-02 -1.575693e-01 -3.168395e-01 -3.889521e-01 -2.883517e-01 -1.678196e-01 -1.096565e-01 -1.168613e-01 -8.754729e-02 -1.913383e-02 -1.524579e-03
<VARIANCE> 25
 7.674468e+00 1.330860e+01 1.378020e+01 1.496681e+01 2.456184e+01 2.396320e+01 2.262225e+01 2.852689e+01 3.122526e+01 2.618173e+01 2.170405e+01 1.894603e+01 1.689722e-01 3.511178e-01 4.804583e-01 5.614595e-01 7.468896e-01 9.868323e-01 1.147272e+00 1.263964e+00 1.320021e+00 1.300265e+00 1.214024e+00 1.148985e+00 2.093623e-04
<GCONST> 6.980844e+01
<MIXTURE> 128 3.790457e-03
<MEAN> 25
 -3.917893e+00 1.823212e+00 -3.899767e-01 6.566604e+00 3.444502e+00 1.691883e+00 3.622868e+00 2.365017e+00 3.895838e+00 3.589897e+00 3.631958e+00 3.456806e+00 -4.626759e-01 -1.857956e-01 9.033929e-02 6.884653e-01 1.228207e+00 1.169201e+00 7.315159e-01 1.667060e-01 -3.982690e-01 -7.583688e-01 -6.883149e-01 -3.417684e-01 1.214402e-05
<VARIANCE> 25
 9.933927e+00 1.390860e+01 1.463503e+01 1.875561e+01 2.049887e+01 2.147386e+01 2.365963e+01 2.397046e+01 2.580538e+01 2.356629e+01 2.663385e+01 1.782118e+01 1.012852e+00 1.117155e+00 1.328442e+00 1.505588e+00 1.598392e+00 1.846468e+00 2.190769e+00 2.297992e+00 2.139778e+00 1.832192e+00 1.699746e+00 1.785592e+00 1.050274e-06
<GCONST> 7.371637e+01
<TRANSP> 3
 0.000000e+00 1.000000e+00 0.000000e+00
 0.000000e+00 9.999990e-01 9.999998e-07
 0.000000e+00 0.000000e+00 0.000000e+00
<ENDHMM>
