~o
<STREAMINFO> 1 25
<VECSIZE> 25<NULLD><MFCC_E_D_N><DIAGC>
~h "jmodel"
<BEGINHMM>
<NUMSTATES> 3
<STATE> 2
<NUMMIXES> 128
<MIXTURE> 1 5.748963e-03
<MEAN> 25
 -2.575819e+00 3.180013e+00 2.311060e+00 8.743664e+00 4.365603e+00 3.442967e+00 4.058769e+00 3.927994e+00 5.822857e+00 5.246393e+00 5.873227e+00 3.075148e+00 -2.001509e+00 -1.634173e+00 -8.605165e-01 1.073112e+00 1.554584e+00 2.224905e+00 2.152325e+00 2.084428e+00 1.688273e+00 1.267289e+00 1.566109e+00 6.122299e-01 -4.670055e-02
<VARIANCE> 25
 1.006621e+01 1.174261e+01 1.491518e+01 1.870353e+01 2.315362e+01 2.212894e+01 2.186846e+01 2.195032e+01 2.098085e+01 2.249977e+01 2.095113e+01 1.705770e+01 1.790127e+00 2.108505e+00 3.028593e+00 3.206813e+00 3.749480e+00 3.372709e+00 3.313779e+00 3.374772e+00 3.526083e+00 3.719781e+00 3.506775e+00 2.827880e+00 3.132882e-03
<GCONST> 8.845486e+01
<MIXTURE> 2 4.549242e-03
<MEAN> 25
 -4.873380e+00 1.312854e+00 9.945890e-01 9.897922e+00 6.690332e+00 7.422163e+00 7.845135e+00 6.957581e+00 8.372456e+00 6.370228e+00 7.619267e+00 3.073637e+00 -6.207466e-02 4.156623e-02 1.422647e-01 2.261265e-01 2.655807e-01 2.814433e-01 2.954852e-01 3.197529e-01 3.495618e-01 3.086601e-01 1.972518e-01 8.030766e-02 9.558295e-07
<VARIANCE> 25
 6.961327e+00 8.900891e+00 1.064721e+01 1.591186e+01 1.723660e+01 1.557375e+01 1.690125e+01 1.847787e+01 1.658150e+01 1.739564e+01 1.816114e+01 1.433683e+01 1.252470e-01 2.265411e-01 3.364882e-01 4.671073e-01 6.492765e-01 8.146075e-01 9.296877e-01 1.002940e+00 1.051326e+00 1.077683e+00 1.075201e+00 1.014074e+00 9.998868e-07
<GCONST> 5.804514e+01
<MIXTURE> 3 4.549242e-03
<MEAN> 25
 -4.873380e+00 1.312854e+00 9.945890e-01 9.897922e+00 6.690332e+00 7.422163e+00 7.845135e+00 6.957581e+00 8.372456e+00 6.370228e+00 7.619267e+00 3.073637e+00 -6.207466e-02 4.156623e-02 1.422647e-01 2.261265e-01 2.655807e-01 2.814433e-01 2.954852e-01 3.197529e-01 3.495618e-01 3.086601e-01 1.972518e-01 8.030766e-02 9.558295e-07
<VARIANCE> 25
 6.961327e+00 8.900891e+00 1.064721e+01 1.591186e+01 1.723660e+01 1.557375e+01 1.690125e+01 1.847787e+01 1.658150e+01 1.739564e+01 1.816114e+01 1.433683e+01 1.252470e-01 2.265411e-01 3.364882e-01 4.671073e-01 6.492765e-01 8.146075e-01 9.296877e-01 1.002940e+00 1.051326e+00 1.077683e+00 1.075201e+00 1.014074e+00 9.998868e-07
<GCONST> 5.804514e+01
<MIXTURE> 4 1.671429e-02
<MEAN> 25
 3.158059e+00 2.096863e+00 -3.639093e+00 5.129570e-01 3.568694e+00 1.647123e-01 -7.037324e-03 -5.095564e-01 1.283162e+00 1.255550e+00 -1.708383e+00 1.388837e-01 -2.680545e+00 1.222732e+00 1.635232e+00 3.015630e+00 8.084701e-01 4.201308e-01 1.669887e+00 1.045671e+00 1.033819e+00 3.241090e-01 1.148328e+00 6.835087e-01 -1.020072e-01
<VARIANCE> 25
 2.050928e+01 3.076138e+01 2.726407e+01 3.929097e+01 4.850240e+01 6.472190e+01 6.123707e+01 5.284396e+01 5.292268e+01 5.777934e+01 4.877234e+01 3.382735e+01 2.307779e+00 4.664257e+00 3.762530e+00 4.720692e+00 4.789809e+00 5.873035e+00 5.883524e+00 5.159374e+00 5.579553e+00 6.195539e+00 5.788428e+00 4.777601e+00 5.699200e-03
<GCONST> 1.046367e+02
<MIXTURE> 5 3.206198e-03
<MEAN> 25
 -3.416275e+00 2.181388e+00 6.106514e-01 9.428210e+00 6.695850e+00 6.314725e+00 7.111847e+00 4.723158e+00 5.495766e+00 3.846588e+00 4.656599e+00 2.606234e+00 -3.245991e-01 7.527333e-01 1.224685e+00 1.032530e+00 3.075818e-01 -1.003609e-01 -8.408365e-02 3.335973e-02 4.579519e-01 6.834514e-01 4.036902e-01 8.820571e-02 -2.788028e-05
<VARIANCE> 25
 1.025093e+01 1.393993e+01 2.348181e+01 2.561543e+01 2.022242e+01 1.942952e+01 2.011026e+01 2.035511e+01 2.141647e+01 2.128828e+01 2.410859e+01 1.635685e+01 1.209804e+00 1.244162e+00 1.357030e+00 1.673185e+00 2.284402e+00 2.376061e+00 2.301559e+00 2.275476e+00 2.315069e+00 2.238051e+00 2.085280e+00 1.873916e+00 1.000505e-06
<GCONST> 7.516539e+01
<MIXTURE> 6 5.475854e-03
<MEAN> 25
 9.668890e+00 -4.694411e-01 -6.684456e+00 -1.105006e+01 -2.112454e+00 6.721157e+00 -5.904620e+00 -5.304738e+00 -3.678432e+00 1.859563e+00 4.624665e+00 -1.242389e+00 4.762514e-01 8.925860e-01 -3.422621e-01 -1.462436e+00 -6.355755e-01 1.313310e+00 1.538492e+00 2.441405e-01 -1.213551e+00 -1.212489e+00 3.263481e-01 1.220850e+00 -8.088517e-03
<VARIANCE> 25
 9.099814e+00 1.749749e+01 2.381789e+01 3.891607e+01 3.655988e+01 3.050449e+01 4.385483e+01 3.787537e+01 4.060258e+01 3.940861e+01 4.199502e+01 2.833335e+01 3.257121e-01 8.577884e-01 9.541973e-01 1.981307e+00 1.607836e+00 2.006999e+00 1.926203e+00 2.043727e+00 2.395393e+00 1.958163e+00 2.250536e+00 1.443044e+00 5.901530e-04
<GCONST> 8.393243e+01
<MIXTURE> 7 5.475854e-03
<MEAN> 25
 9.668890e+00 -4.694411e-01 -6.684456e+00 -1.105006e+01 -2.112454e+00 6.721157e+00 -5.904620e+00 -5.304738e+00 -3.678432e+00 1.859563e+00 4.624665e+00 -1.242389e+00 4.762514e-01 8.925860e-01 -3.422621e-01 -1.462436e+00 -6.355755e-01 1.313310e+00 1.538492e+00 2.441405e-01 -1.213551e+00 -1.212489e+00 3.263481e-01 1.220850e+00 -8.088517e-03
<VARIANCE> 25
 9.099814e+00 1.749749e+01 2.381789e+01 3.891607e+01 3.655988e+01 3.050449e+01 4.385483e+01 3.787537e+01 4.060258e+01 3.940861e+01 4.199502e+01 2.833335e+01 3.257121e-01 8.577884e-01 9.541973e-01 1.981307e+00 1.607836e+00 2.006999e+00 1.926203e+00 2.043727e+00 2.395393e+00 1.958163e+00 2.250536e+00 1.443044e+00 5.901530e-04
<GCONST> 8.393243e+01
<MIXTURE> 8 1.165917e-02
<MEAN> 25
 -4.543367e+00 1.404278e+00 1.297814e+00 9.462537e+00 6.464440e+00 6.151987e+00 6.373908e+00 5.561188e+00 6.540695e+00 5.553867e+00 6.407542e+00 3.057487e+00 -6.246793e-01 -1.457950e+00 -1.063089e+00 -1.708149e+00 -3.030464e-01 -9.292777e-01 -1.405323e-01 -1.713296e-01 -2.920883e-01 -1.559807e-01 -1.772124e-01 7.032248e-02 9.682744e-02
<VARIANCE> 25
 9.890947e+00 9.544763e+00 1.119288e+01 1.571567e+01 1.636631e+01 1.541513e+01 1.776165e+01 1.729187e+01 1.678911e+01 1.691042e+01 1.889139e+01 1.372279e+01 2.658625e+00 2.740752e+00 3.767909e+00 3.639349e+00 3.463703e+00 3.202321e+00 3.051255e+00 3.327497e+00 2.809602e+00 2.567847e+00 2.381300e+00 1.836309e+00 6.547431e-03
<GCONST> 8.587994e+01
<MIXTURE> 9 1.199672e-02
<MEAN> 25
 8.703357e+00 2.815692e+00 -5.589576e+00 -1.136388e+01 -1.534918e+00 4.735913e+00 -3.820502e+00 -2.599658e+00 -5.807370e+00 -1.516229e+00 1.754100e+00 1.647252e+00 1.523919e+00 -1.171707e-01 -5.572693e-01 -2.879181e+00 -1.441147e+00 9.590917e-01 -1.188257e+00 -4.150848e-01 -8.492733e-01 -3.628647e-01 5.340456e-01 2.020265e-01 7.467852e-02
<VARIANCE> 25
 1.139274e+01 1.985461e+01 2.915505e+01 4.895630e+01 4.219868e+01 2.668631e+01 4.417150e+01 4.242925e+01 3.771678e+01 3.518917e+01 3.577228e+01 3.249297e+01 1.882115e+00 2.089869e+00 3.769735e+00 4.275719e+00 4.235724e+00 3.381437e+00 3.731342e+00 5.086624e+00 5.906754e+00 3.506385e+00 3.278755e+00 3.049889e+00 1.840744e-03
<GCONST> 9.623373e+01
<MIXTURE> 10 6.596976e-03
<MEAN> 25
 8.189368e-01 7.624742e+00 5.363946e+00 7.136775e+00 1.574567e+00 -2.104362e+00 -5.255719e-01 -1.693219e+00 8.690249e-01 8.535770e-01 8.367841e-01 6.588154e-01 -1.923564e+00 -6.699197e-01 -4.578326e-01 3.029474e+00 2.459474e+00 2.701690e+00 2.376251e+00 2.276139e+00 1.862507e+00 1.544420e+00 2.330246e+00 5.232717e-01 -1.380735e-01
<VARIANCE> 25
 1.951309e+01 2.070733e+01 2.235042e+01 2.910475e+01 3.834666e+01 3.494989e+01 3.512082e+01 3.381988e+01 2.758349e+01 2.902753e+01 2.691950e+01 2.497393e+01 2.232189e+00 3.427161e+00 5.526625e+00 5.161987e+00 5.551428e+00 4.507579e+00 4.695068e+00 4.837106e+00 4.381708e+00 5.013252e+00 4.453194e+00 3.187863e+00 2.695189e-03
<GCONST> 9.745730e+01
<MIXTURE> 11 1.633820e-02
<MEAN> 25
 7.385540e+00 4.236658e+00 3.374906e+00 5.108989e+00 -2.974235e+00 -1.755088e+00 -2.021579e+00 -5.972981e+00 -3.144976e+00 -1.848048e-01 -2.591058e+00 -2.016241e+00 -1.925874e-01 5.968630e-01 1.715041e-01 2.796387e-01 5.935020e-01 -6.972820e-02 1.535095e-01 -2.100241e-01 -1.477907e-01 -1.166534e-01 -9.027860e-02 9.733504e-02 -1.904905e-02
<VARIANCE> 25
 1.211352e+01 2.257015e+01 1.912644e+01 3.010837e+01 3.709473e+01 3.728063e+01 4.630065e+01 4.340734e+01 4.180346e+01 3.443481e+01 3.257408e+01 2.758172e+01 9.726593e-01 1.294799e+00 1.587379e+00 2.077469e+00 2.034809e+00 2.034125e+00 2.142494e+00 2.650562e+00 2.066888e+00 1.906801e+00 1.802397e+00 1.526009e+00 9.780725e-04
<GCONST> 8.685861e+01
<MIXTURE> 12 5.904134e-03
<MEAN> 25
 1.076081e+01 3.735616e+00 -4.501544e+00 -1.599399e+01 -8.687907e+00 8.638667e+00 -9.109009e-01 -1.926457e+00 -1.730646e+00 -4.880763e+00 1.777528e+00 7.239618e-01 6.730491e-02 2.935747e-01 8.030794e-02 -3.667950e-01 -3.101803e-01 3.020618e-02 3.052261e-01 4.469287e-01 1.427506e-01 -3.831625e-01 -3.859216e-01 5.169375e-02 -6.337499e-03
<VARIANCE> 25
 8.896088e+00 2.104465e+01 2.333238e+01 3.501194e+01 4.207790e+01 3.094059e+01 4.194692e+01 4.894761e+01 4.407503e+01 3.739452e+01 3.799758e+01 2.895329e+01 2.467872e-01 6.879060e-01 6.857424e-01 1.171245e+00 1.185565e+00 1.054584e+00 1.170354e+00 1.385485e+00 1.242016e+00 1.223596e+00 1.220621e+00 9.632831e-01 5.792019e-04
<GCONST> 7.893491e+01
<MIXTURE> 13 5.904134e-03
<MEAN> 25
 1.076081e+01 3.735616e+00 -4.501544e+00 -1.599399e+01 -8.687907e+00 8.638667e+00 -9.109009e-01 -1.926457e+00 -1.730646e+00 -4.880763e+00 1.777528e+00 7.239618e-01 6.730491e-02 2.935747e-01 8.030794e-02 -3.667950e-01 -3.101803e-01 3.020618e-02 3.052261e-01 4.469287e-01 1.427506e-01 -3.831625e-01 -3.859216e-01 5.169375e-02 -6.337499e-03
<VARIANCE> 25
 8.896088e+00 2.104465e+01 2.333238e+01 3.501194e+01 4.207790e+01 3.094059e+01 4.194692e+01 4.894761e+01 4.407503e+01 3.739452e+01 3.799758e+01 2.895329e+01 2.467872e-01 6.879060e-01 6.857424e-01 1.171245e+00 1.185565e+00 1.054584e+00 1.170354e+00 1.385485e+00 1.242016e+00 1.223596e+00 1.220621e+00 9.632831e-01 5.792019e-04
<GCONST> 7.893491e+01
<MIXTURE> 14 6.488954e-03
<MEAN> 25
 -4.294824e+00 -3.706907e-01 -2.901349e-01 8.891262e+00 7.476927e+00 7.345320e+00 7.823422e+00 7.297668e+00 7.225368e+00 5.200258e+00 6.835125e+00 4.072019e+00 -2.736528e-01 1.897415e-01 3.688333e-01 3.104185e-01 2.571335e-03 6.117423e-02 1.031694e-01 1.811116e-01 2.962342e-01 5.384843e-01 5.072562e-01 7.464956e-02 -9.136839e-03
<VARIANCE> 25
 9.332186e+00 1.381047e+01 1.863917e+01 1.781671e+01 2.103388e+01 1.968986e+01 2.142170e+01 2.067537e+01 2.010740e+01 2.389766e+01 2.145853e+01 1.606363e+01 9.575770e-01 1.638324e+00 1.773499e+00 1.927006e+00 2.241925e+00 2.247727e+00 2.257152e+00 2.239414e+00 2.276327e+00 2.494639e+00 2.192343e+00 1.803648e+00 1.033124e-03
<GCONST> 8.190152e+01
<MIXTURE> 15 2.475190e-03
<MEAN> 25
 -5.398240e+00 -6.233580e-01 -1.915982e-01 7.365226e+00 5.702962e+00 5.674946e+00 6.054436e+00 4.953459e+00 5.182404e+00 4.144321e+00 5.451902e+00 2.521497e+00 -1.211315e-01 -2.997903e-02 7.893434e-02 2.411168e-01 4.874616e-01 7.867326e-01 1.065714e+00 1.175446e+00 1.060492e+00 7.524174e-01 4.211438e-01 1.538286e-01 -1.273168e-05
<VARIANCE> 25
 7.043232e+00 5.643643e+00 9.010029e+00 1.277264e+01 1.404835e+01 1.431873e+01 1.484738e+01 1.493817e+01 1.412705e+01 1.412727e+01 1.541768e+01 1.252330e+01 1.243075e-01 2.057923e-01 3.214841e-01 5.017869e-01 6.968855e-01 7.925506e-01 7.666993e-01 7.955471e-01 9.066775e-01 1.020451e+00 1.068907e+00 1.036939e+00 2.896731e-05
<GCONST> 5.863784e+01
<MIXTURE> 16 2.475190e-03
<MEAN> 25
 -5.398240e+00 -6.233580e-01 -1.915982e-01 7.365226e+00 5.702962e+00 5.674946e+00 6.054436e+00 4.953459e+00 5.182404e+00 4.144321e+00 5.451902e+00 2.521497e+00 -1.211315e-01 -2.997903e-02 7.893434e-02 2.411168e-01 4.874616e-01 7.867326e-01 1.065714e+00 1.175446e+00 1.060492e+00 7.524174e-01 4.211438e-01 1.538286e-01 -1.273168e-05
<VARIANCE> 25
 7.043232e+00 5.643643e+00 9.010029e+00 1.277264e+01 1.404835e+01 1.431873e+01 1.484738e+01 1.493817e+01 1.412705e+01 1.412727e+01 1.541768e+01 1.252330e+01 1.243075e-01 2.057923e-01 3.214841e-01 5.017869e-01 6.968855e-01 7.925506e-01 7.666993e-01 7.955471e-01 9.066775e-01 1.020451e+00 1.068907e+00 1.036939e+00 2.896731e-05
<GCONST> 5.863784e+01
<MIXTURE> 17 9.518312e-03
<MEAN> 25
 3.677974e+00 -7.582259e-01 6.262108e+00 2.341953e+00 -5.897839e+00 -6.314055e+00 -3.120346e+00 -1.489351e-01 -2.570140e+00 -3.209476e+00 1.005911e-01 -3.532289e-03 -7.591131e-01 -1.222493e+00 1.268558e+00 -2.127177e+00 -2.319259e+00 -1.704762e-01 1.449089e-01 7.307152e-01 -2.744275e-01 -1.749909e-01 1.015737e+00 3.902125e-01 8.242735e-02
<VARIANCE> 25
 1.651319e+01 3.114976e+01 3.063073e+01 3.923367e+01 4.457626e+01 4.829546e+01 4.156032e+01 3.352544e+01 3.556722e+01 2.676086e+01 2.784550e+01 2.749960e+01 1.871719e+00 2.651936e+00 4.070542e+00 3.068246e+00 4.138921e+00 5.443019e+00 4.988872e+00 4.676022e+00 4.040634e+00 3.983824e+00 3.028997e+00 2.710541e+00 2.090218e-03
<GCONST> 9.679961e+01
<MIXTURE> 18 1.221018e-02
<MEAN> 25
 3.901170e+00 4.497170e+00 6.728715e+00 4.630426e+00 -4.757288e+00 -8.438844e+00 -1.761394e+00 -1.160949e+00 -3.441767e+00 -2.414565e+00 -8.911006e-01 4.474443e-01 -7.665763e-01 2.138226e+00 -2.239049e-01 2.043375e+00 3.100037e+00 1.442932e+00 7.923036e-01 -2.279114e-01 6.828500e-01 5.313973e-01 -2.985656e-01 -4.487145e-02 -1.227828e-01
<VARIANCE> 25
 1.585406e+01 2.539995e+01 3.281136e+01 2.600182e+01 4.016325e+01 3.624060e+01 3.779392e+01 3.460431e+01 3.871535e+01 3.382748e+01 3.190095e+01 3.127435e+01 2.505387e+00 2.985017e+00 4.654465e+00 3.974058e+00 4.065799e+00 4.682166e+00 4.671236e+00 4.404564e+00 4.552580e+00 4.221328e+00 4.472651e+00 3.573497e+00 4.055765e-03
<GCONST> 9.835609e+01
<MIXTURE> 19 9.912824e-03
<MEAN> 25
 -1.001033e+01 1.780616e+00 4.046827e-01 9.600710e-01 3.849774e+00 1.654846e+00 3.152600e+00 1.037879e+00 2.006407e+00 9.453136e-01 1.402562e+00 2.166313e+00 2.084977e+00 1.673899e+00 2.116415e+00 7.154346e-01 -1.085908e+00 -1.018428e+00 -1.018218e+00 -1.388474e+00 -1.481986e+00 -1.113719e+00 -8.312765e-01 -7.485403e-01 1.207480e-03
<VARIANCE> 25
 5.396653e+01 2.932823e+01 4.707163e+01 5.197639e+01 3.297201e+01 3.180189e+01 3.207260e+01 2.892470e+01 2.843251e+01 2.757126e+01 3.171491e+01 2.129957e+01 2.321359e+00 2.359230e+00 2.258461e+00 2.342647e+00 2.795222e+00 2.231916e+00 2.389935e+00 2.332989e+00 2.132458e+00 1.992387e+00 2.185693e+00 1.882067e+00 2.384552e-03
<GCONST> 9.182178e+01
<MIXTURE> 20 6.308331e-03
<MEAN> 25
 -1.418108e+01 7.415875e+00 8.451430e-01 6.150712e+00 4.843832e+00 1.636478e+00 5.207025e+00 8.528049e-01 9.206969e-01 7.973686e-01 2.569003e+00 -3.014427e-01 -3.285711e+00 -8.665141e-01 -1.564924e+00 3.322970e-01 1.540892e+00 2.062990e+00 1.978858e+00 2.055931e+00 2.144120e+00 2.039645e+00 1.684613e+00 9.453601e-01 4.732273e-02
<VARIANCE> 25
 1.966214e+01 2.345241e+01 3.095474e+01 3.718219e+01 3.084457e+01 2.788736e+01 2.995448e+01 3.147510e+01 2.797427e+01 2.821934e+01 2.515704e+01 2.091954e+01 2.092182e+00 2.182606e+00 1.910014e+00 2.541373e+00 2.702574e+00 2.312806e+00 2.310604e+00 2.320003e+00 2.236538e+00 2.653760e+00 2.241137e+00 1.865368e+00 1.886189e-03
<GCONST> 8.922049e+01
<MIXTURE> 21 7.928653e-03
<MEAN> 25
 4.001083e+00 -4.548602e+00 5.707176e+00 -1.599892e+00 -1.053099e+01 -8.653784e+00 -2.631540e+00 4.101237e+00 -2.096149e+00 -3.348454e+00 2.657092e-01 3.443130e-01 -7.241167e-01 1.334773e+00 2.582923e+00 -4.287597e-02 -1.549304e+00 3.403344e-01 6.038136e-01 -1.490686e+00 -1.949622e+00 3.091969e-01 1.330560e+00 2.413998e-01 -1.266640e-02
<VARIANCE> 25
 8.851618e+00 1.867201e+01 3.024004e+01 2.870342e+01 2.884117e+01 3.390161e+01 4.273557e+01 4.004956e+01 4.277628e+01 3.203529e+01 3.370537e+01 2.309961e+01 3.778025e-01 9.518988e-01 1.850870e+00 1.283548e+00 2.200340e+00 2.178172e+00 3.656418e+00 2.495298e+00 2.161035e+00 2.583236e+00 2.008298e+00 2.275924e+00 4.284502e-04
<GCONST> 8.513600e+01
<MIXTURE> 22 8.827789e-03
<MEAN> 25
 -1.792078e+01 7.154629e+00 -4.131104e+00 7.391976e+00 4.602519e+00 2.760975e+00 8.399371e+00 1.748386e+00 5.378911e+00 3.300608e+00 5.716584e+00 1.185361e+00 -3.095821e-01 -2.076198e-01 -1.254779e-01 -1.492845e-01 -7.291698e-03 1.370227e-01 1.808120e-01 1.779668e-01 2.485355e-01 2.072827e-01 1.726682e-01 1.924924e-01 8.858131e-03
<VARIANCE> 25
 8.116970e+00 1.682525e+01 1.738405e+01 2.517713e+01 2.289561e+01 2.083626e+01 1.943515e+01 1.871120e+01 1.814286e+01 2.086953e+01 1.924187e+01 1.378780e+01 1.090719e+00 1.357374e+00 1.364113e+00 1.571985e+00 1.408950e+00 1.526977e+00 1.508976e+00 1.532774e+00 1.614269e+00 1.544716e+00 1.357391e+00 1.168015e+00 1.745515e-03
<GCONST> 7.831029e+01
<MIXTURE> 23 6.455497e-03
<MEAN> 25
 7.805381e+00 2.468253e+00 2.975145e+00 2.494040e+00 -4.737136e+00 -3.117940e+00 -4.168242e+00 -6.396560e+00 -3.354356e+00 -1.047736e+00 -4.103859e+00 -2.134671e+00 3.098428e-02 1.735153e-01 1.021580e-02 4.966067e-02 7.721433e-03 4.061179e-02 3.924199e-03 -5.200300e-02 3.490836e-03 4.369128e-02 6.522271e-04 3.770086e-02 -4.398519e-03
<VARIANCE> 25
 1.125433e+01 2.183686e+01 2.437019e+01 4.033366e+01 3.827399e+01 5.293602e+01 5.857569e+01 5.466077e+01 4.778882e+01 4.624841e+01 4.771283e+01 3.966828e+01 1.189904e-01 2.926103e-01 3.790124e-01 4.922610e-01 5.992688e-01 7.108263e-01 7.863399e-01 8.735923e-01 8.931177e-01 8.773037e-01 8.126330e-01 7.718271e-01 8.918931e-05
<GCONST> 7.297313e+01
<MIXTURE> 24 6.455497e-03
<MEAN> 25
 7.805381e+00 2.468253e+00 2.975145e+00 2.494040e+00 -4.737136e+00 -3.117940e+00 -4.168242e+00 -6.396560e+00 -3.354356e+00 -1.047736e+00 -4.103859e+00 -2.134671e+00 3.098428e-02 1.735153e-01 1.021580e-02 4.966067e-02 7.721433e-03 4.061179e-02 3.924199e-03 -5.200300e-02 3.490836e-03 4.369128e-02 6.522271e-04 3.770086e-02 -4.398519e-03
<VARIANCE> 25
 1.125433e+01 2.183686e+01 2.437019e+01 4.033366e+01 3.827399e+01 5.293602e+01 5.857569e+01 5.466077e+01 4.778882e+01 4.624841e+01 4.771283e+01 3.966828e+01 1.189904e-01 2.926103e-01 3.790124e-01 4.922610e-01 5.992688e-01 7.108263e-01 7.863399e-01 8.735923e-01 8.931177e-01 8.773037e-01 8.126330e-01 7.718271e-01 8.918931e-05
<GCONST> 7.297313e+01
<MIXTURE> 25 1.118642e-02
<MEAN> 25
 3.080996e-01 3.406898e+00 1.679108e+01 -1.045934e+00 -1.135001e+01 -1.829239e+00 -5.006716e+00 -2.916770e+00 -6.980001e+00 -5.439612e+00 4.130144e+00 -1.668069e+00 -1.283326e-01 4.457525e-01 1.598315e-01 1.534439e-01 2.198941e-01 1.009280e-01 1.999444e-01 -1.622795e-01 -2.450945e-01 8.279230e-02 -7.458960e-02 -1.135992e-01 -1.330853e-02
<VARIANCE> 25
 8.841796e+00 2.325033e+01 2.074453e+01 2.856820e+01 3.154869e+01 4.185921e+01 2.727379e+01 3.002672e+01 2.859579e+01 3.645415e+01 2.101529e+01 2.757656e+01 6.023778e-01 1.448600e+00 1.419036e+00 1.377361e+00 2.267131e+00 2.045681e+00 1.750840e+00 1.633780e+00 1.534765e+00 1.656129e+00 1.343829e+00 1.300924e+00 1.307936e-03
<GCONST> 8.283395e+01
<MIXTURE> 26 7.727677e-03
<MEAN> 25
 1.910509e+00 -6.041728e+00 -9.246643e+00 -1.783732e+00 6.233435e+00 5.260162e+00 3.366343e+00 -8.404154e-01 1.934834e+00 -1.143458e-01 -2.815674e+00 -1.089628e+00 -6.671020e-01 7.497222e-01 2.464245e-01 7.960552e-01 1.536792e-01 2.214025e-01 5.275228e-01 5.210114e-01 3.893342e-01 -1.023036e-01 3.793095e-01 1.608321e-01 -5.590391e-02
<VARIANCE> 25
 2.223483e+01 2.958795e+01 2.643080e+01 5.701028e+01 4.525836e+01 3.586948e+01 4.182446e+01 3.880031e+01 3.642362e+01 4.937410e+01 4.069115e+01 4.120558e+01 1.495327e+00 1.788002e+00 1.871352e+00 1.716249e+00 2.169466e+00 2.050532e+00 2.553221e+00 2.582491e+00 2.195586e+00 2.130687e+00 2.034796e+00 2.805152e+00 2.905756e-03
<GCONST> 9.242975e+01
<MIXTURE> 27 7.727677e-03
<MEAN> 25
 1.910509e+00 -6.041728e+00 -9.246643e+00 -1.783732e+00 6.233435e+00 5.260162e+00 3.366343e+00 -8.404154e-01 1.934834e+00 -1.143458e-01 -2.815674e+00 -1.089628e+00 -6.671020e-01 7.497222e-01 2.464245e-01 7.960552e-01 1.536792e-01 2.214025e-01 5.275228e-01 5.210114e-01 3.893342e-01 -1.023036e-01 3.793095e-01 1.608321e-01 -5.590391e-02
<VARIANCE> 25
 2.223483e+01 2.958795e+01 2.643080e+01 5.701028e+01 4.525836e+01 3.586948e+01 4.182446e+01 3.880031e+01 3.642362e+01 4.937410e+01 4.069115e+01 4.120558e+01 1.495327e+00 1.788002e+00 1.871352e+00 1.716249e+00 2.169466e+00 2.050532e+00 2.553221e+00 2.582491e+00 2.195586e+00 2.130687e+00 2.034796e+00 2.805152e+00 2.905756e-03
<GCONST> 9.242975e+01
<MIXTURE> 28 5.036674e-03
<MEAN> 25
 -5.189510e+00 1.124848e-01 -1.530801e+00 6.507648e+00 5.096755e+00 3.449822e+00 5.368648e+00 3.130277e+00 3.874700e+00 2.244733e+00 2.289114e+00 2.981918e+00 -1.137531e-01 2.247472e-01 5.097206e-01 7.876754e-01 8.276886e-01 6.887946e-01 4.942846e-01 4.010240e-01 4.357902e-01 4.676972e-01 3.717929e-01 2.137469e-01 -1.223898e-05
<VARIANCE> 25
 1.114907e+01 8.372987e+00 1.200908e+01 1.442137e+01 1.430684e+01 1.722787e+01 1.732398e+01 1.846676e+01 1.726238e+01 1.636266e+01 2.171443e+01 1.551496e+01 2.484859e-01 3.265258e-01 4.163463e-01 4.426191e-01 5.937276e-01 8.134866e-01 1.043574e+00 1.099314e+00 1.059662e+00 1.017745e+00 9.874918e-01 1.066660e+00 9.867081e-07
<GCONST> 5.988157e+01
<MIXTURE> 29 5.036674e-03
<MEAN> 25
 -5.189510e+00 1.124848e-01 -1.530801e+00 6.507648e+00 5.096755e+00 3.449822e+00 5.368648e+00 3.130277e+00 3.874700e+00 2.244733e+00 2.289114e+00 2.981918e+00 -1.137531e-01 2.247472e-01 5.097206e-01 7.876754e-01 8.276886e-01 6.887946e-01 4.942846e-01 4.010240e-01 4.357902e-01 4.676972e-01 3.717929e-01 2.137469e-01 -1.223898e-05
<VARIANCE> 25
 1.114907e+01 8.372987e+00 1.200908e+01 1.442137e+01 1.430684e+01 1.722787e+01 1.732398e+01 1.846676e+01 1.726238e+01 1.636266e+01 2.171443e+01 1.551496e+01 2.484859e-01 3.265258e-01 4.163463e-01 4.426191e-01 5.937276e-01 8.134866e-01 1.043574e+00 1.099314e+00 1.059662e+00 1.017745e+00 9.874918e-01 1.066660e+00 9.867081e-07
<GCONST> 5.988157e+01
<MIXTURE> 30 8.917812e-03
<MEAN> 25
 -4.355519e+00 -5.126845e-02 6.582813e-01 8.986538e+00 7.595137e+00 7.301243e+00 7.545745e+00 6.658304e+00 6.512642e+00 4.766215e+00 6.632957e+00 3.347299e+00 -2.507209e-02 2.765722e-02 6.978334e-02 7.988950e-02 7.137647e-02 6.066808e-02 2.470045e-02 -1.194139e-02 5.290795e-02 5.997232e-02 8.476181e-02 3.349953e-02 -7.635148e-05
<VARIANCE> 25
 7.120727e+00 9.928218e+00 1.010566e+01 1.362089e+01 1.580609e+01 1.678754e+01 1.886720e+01 1.857114e+01 1.643367e+01 1.806629e+01 2.368338e+01 1.456403e+01 9.688025e-02 1.986929e-01 3.327034e-01 4.692390e-01 6.143653e-01 7.406441e-01 7.694463e-01 7.899880e-01 8.995048e-01 9.113010e-01 9.118105e-01 8.350177e-01 5.585102e-05
<GCONST> 6.074989e+01
<MIXTURE> 31 4.136493e-03
<MEAN> 25
 -3.017961e+00 -5.102366e+00 4.755868e-02 4.697503e+00 3.418405e+00 1.589496e+00 5.156077e+00 6.334979e+00 2.628950e+00 1.060145e+00 5.907196e+00 2.798530e+00 2.865123e-01 5.032603e-01 -2.274756e-01 3.034067e-01 1.253268e-01 3.907721e-01 1.620881e-01 3.869377e-02 3.785666e-01 2.767209e-01 9.497880e-02 1.305978e-01 -1.876336e-02
<VARIANCE> 25
 7.526168e+00 1.763656e+01 1.638695e+01 1.710742e+01 2.423838e+01 2.213903e+01 2.250236e+01 2.472059e+01 2.394957e+01 2.630827e+01 2.257102e+01 1.866410e+01 2.150293e-01 4.902315e-01 5.871603e-01 7.634676e-01 9.558526e-01 1.050759e+00 1.208300e+00 1.400514e+00 1.260617e+00 1.339405e+00 1.203049e+00 1.101305e+00 2.575546e-04
<GCONST> 7.158606e+01
<MIXTURE> 32 4.136493e-03
<MEAN> 25
 -3.017961e+00 -5.102366e+00 4.755868e-02 4.697503e+00 3.418405e+00 1.589496e+00 5.156077e+00 6.334979e+00 2.628950e+00 1.060145e+00 5.907196e+00 2.798530e+00 2.865123e-01 5.032603e-01 -2.274756e-01 3.034067e-01 1.253268e-01 3.907721e-01 1.620881e-01 3.869377e-02 3.785666e-01 2.767209e-01 9.497880e-02 1.305978e-01 -1.876336e-02
<VARIANCE> 25
 7.526168e+00 1.763656e+01 1.638695e+01 1.710742e+01 2.423838e+01 2.213903e+01 2.250236e+01 2.472059e+01 2.394957e+01 2.630827e+01 2.257102e+01 1.866410e+01 2.150293e-01 4.902315e-01 5.871603e-01 7.634676e-01 9.558526e-01 1.050759e+00 1.208300e+00 1.400514e+00 1.260617e+00 1.339405e+00 1.203049e+00 1.101305e+00 2.575546e-04
<GCONST> 7.158606e+01
<MIXTURE> 33 1.508826e-02
<MEAN> 25
 5.963002e+00 -4.388163e+00 -1.853724e+00 -2.234961e+00 -1.978508e+00 -5.804177e+00 -7.185503e+00 1.222757e+00 1.958418e+00 1.676460e-01 -3.427900e+00 -2.615563e+00 7.458351e-01 -1.297479e+00 -2.545786e+00 -1.899184e+00 1.368143e+00 1.689013e+00 -7.728212e-01 3.992216e-01 7.689246e-01 7.753600e-01 -2.593215e-01 -1.075588e+00 4.554463e-02
<VARIANCE> 25
 1.265087e+01 2.124270e+01 3.048249e+01 3.630451e+01 3.733244e+01 4.523109e+01 3.739214e+01 4.219230e+01 3.931685e+01 4.316962e+01 4.160384e+01 2.637168e+01 1.141921e+00 1.777723e+00 2.609442e+00 1.961212e+00 3.812847e+00 3.967870e+00 3.838420e+00 5.230009e+00 3.793652e+00 4.171398e+00 3.055733e+00 2.770749e+00 1.688879e-03
<GCONST> 9.435324e+01
<MIXTURE> 34 1.588179e-02
<MEAN> 25
 8.828710e+00 -2.993866e-02 9.475295e-02 1.065800e+00 -2.902389e+00 -1.443209e+00 -6.124793e+00 -4.700644e+00 -1.767590e+00 2.230437e-01 -2.695720e+00 -3.600268e+00 -2.963476e-02 1.340166e+00 1.440910e+00 2.388548e+00 -6.026548e-02 -1.479682e-01 8.206554e-01 -1.605764e+00 -8.607494e-01 2.429524e-01 -5.555686e-01 1.967393e-01 -6.267455e-02
<VARIANCE> 25
 8.236641e+00 3.120190e+01 2.913646e+01 5.109172e+01 4.211945e+01 4.926696e+01 5.489669e+01 5.596043e+01 5.223904e+01 4.314054e+01 4.825905e+01 3.220127e+01 1.259277e+00 1.968210e+00 4.292199e+00 4.016121e+00 5.592115e+00 5.760792e+00 5.501647e+00 6.166953e+00 5.247654e+00 4.933968e+00 4.960394e+00 4.012929e+00 1.149929e-03
<GCONST> 9.976672e+01
<MIXTURE> 35 1.467755e-02
<MEAN> 25
 -2.101943e+00 -5.175183e+00 -9.548930e+00 1.413725e-02 9.134819e+00 4.520346e-01 1.196457e+00 2.461248e+00 1.713452e+00 4.373800e+00 1.742470e-01 1.785741e+00 6.115822e-01 -1.146661e+00 -1.461173e+00 -1.435977e+00 4.399831e-01 -6.750356e-01 -7.359470e-01 -1.890821e-01 -2.136839e-01 2.583016e-01 -6.128273e-01 -4.051290e-01 1.080000e-01
<VARIANCE> 25
 1.917489e+01 2.820412e+01 4.549564e+01 6.119719e+01 4.633199e+01 5.779507e+01 5.149516e+01 4.229610e+01 4.981053e+01 3.773782e+01 3.583738e+01 2.968590e+01 3.378035e+00 3.474770e+00 6.570700e+00 5.358727e+00 4.997026e+00 5.667408e+00 4.817537e+00 4.589849e+00 4.993172e+00 4.504630e+00 3.913797e+00 3.816904e+00 5.168200e-03
<GCONST> 1.032749e+02
<MIXTURE> 36 1.093293e-02
<MEAN> 25
 4.805774e+00 -3.517016e+00 7.235237e+00 2.598369e+00 -9.999143e+00 -9.186798e+00 -6.232578e+00 2.981140e+00 -2.129200e+00 -4.384382e+00 2.800849e+00 -4.585735e-01 3.804536e-01 1.574598e-01 -9.842456e-01 2.412536e-02 9.381648e-01 8.164248e-02 -4.821789e-01 -1.132226e-02 4.457064e-01 5.252711e-01 -3.897937e-01 -2.589411e-01 -1.685331e-02
<VARIANCE> 25
 1.007063e+01 1.746988e+01 2.291428e+01 2.699116e+01 3.140409e+01 3.410296e+01 4.500390e+01 3.343687e+01 3.997498e+01 3.187679e+01 2.748219e+01 2.722911e+01 4.519453e-01 7.728522e-01 1.591535e+00 1.196838e+00 1.663764e+00 1.702919e+00 2.133225e+00 1.751659e+00 1.992909e+00 1.703311e+00 1.365455e+00 1.566973e+00 7.909221e-04
<GCONST> 8.239760e+01
<MIXTURE> 37 1.246826e-02
<MEAN> 25
 4.955109e-01 7.492024e+00 1.142239e+01 -5.297012e+00 -7.940332e+00 -8.124382e-01 -5.057703e+00 -8.233851e+00 -3.644783e+00 -9.981658e-01 -3.524218e+00 -1.161190e+00 1.213318e-01 6.786523e-01 -1.291437e+00 3.588404e+00 1.906004e+00 -3.967419e-01 1.213677e+00 4.732576e-01 6.107253e-01 -2.602604e-01 4.718701e-01 -1.128449e-01 -9.499354e-02
<VARIANCE> 25
 1.527491e+01 2.652923e+01 3.734690e+01 5.011734e+01 3.257954e+01 3.169384e+01 4.208859e+01 3.362304e+01 3.698381e+01 3.457071e+01 3.655991e+01 2.983501e+01 2.898289e+00 3.277494e+00 2.962252e+00 3.919409e+00 4.542676e+00 3.789331e+00 4.311104e+00 3.663771e+00 3.429060e+00 3.558049e+00 3.783283e+00 2.690635e+00 3.749545e-03
<GCONST> 9.737316e+01
<MIXTURE> 38 1.154525e-02
<MEAN> 25
 -4.696566e+00 8.907824e+00 4.461953e+00 3.037748e+00 9.948571e-01 -5.146140e+00 -8.213732e-01 -2.714350e+00 -3.040230e+00 -3.235584e+00 -1.254166e+00 -3.172525e-01 -4.474493e+00 1.256400e+00 -3.304741e-01 1.371695e+00 2.534849e+00 1.373487e+00 1.966256e+00 9.374669e-01 7.088151e-01 5.614702e-01 9.955139e-01 3.383159e-01 4.955941e-02
<VARIANCE> 25
 3.208636e+01 2.893041e+01 3.833480e+01 3.306244e+01 4.802437e+01 3.458802e+01 3.663291e+01 4.032344e+01 3.501777e+01 3.219691e+01 2.510929e+01 2.925879e+01 2.334316e+00 3.824480e+00 3.806897e+00 5.199301e+00 4.133616e+00 4.885692e+00 4.839984e+00 4.503199e+00 4.478673e+00 4.948039e+00 4.250206e+00 3.162553e+00 2.015443e-03
<GCONST> 9.901664e+01
<MIXTURE> 39 9.501865e-03
<MEAN> 25
 1.340028e+00 2.588289e+00 1.019140e+01 -9.219655e+00 -1.127727e+01 -9.801136e-01 -2.967241e+00 -6.579878e+00 -4.525091e+00 8.766566e-01 -3.668993e+00 -2.289898e+00 -7.309182e-01 1.520991e+00 1.625740e+00 -1.386770e+00 7.742382e-02 1.221561e+00 -1.193390e+00 -1.250728e+00 4.294164e-01 4.431390e-01 -5.022991e-01 1.215291e-01 1.279943e-03
<VARIANCE> 25
 8.902837e+00 3.021906e+01 3.193099e+01 3.818777e+01 3.726661e+01 4.267470e+01 4.436662e+01 3.342254e+01 3.938760e+01 3.320339e+01 3.625277e+01 2.941747e+01 6.941139e-01 1.547611e+00 1.509607e+00 2.928611e+00 2.415235e+00 2.819715e+00 3.082357e+00 2.746895e+00 2.433144e+00 2.619551e+00 2.125208e+00 2.068814e+00 1.185310e-03
<GCONST> 8.967735e+01
<MIXTURE> 40 1.030800e-02
<MEAN> 25
 -7.403996e+00 2.059028e+00 -5.193043e-01 7.453511e+00 3.109022e+00 4.461681e+00 5.353699e+00 3.872535e+00 4.200814e+00 3.429304e+00 4.694392e+00 1.228594e+00 -1.166176e-01 -2.244444e-01 1.104644e-01 -1.131721e-01 -1.122554e-01 -8.415751e-02 1.758485e-01 1.114833e-01 5.869821e-02 6.268119e-02 1.171203e-01 2.886707e-05 5.601258e-03
<VARIANCE> 25
 4.418086e+01 1.704690e+01 2.603238e+01 2.416278e+01 2.315660e+01 1.929473e+01 1.772271e+01 1.620763e+01 1.517527e+01 1.693688e+01 1.903685e+01 1.372001e+01 6.740435e-01 6.913977e-01 1.018171e+00 9.990087e-01 1.155058e+00 1.093093e+00 1.374912e+00 1.319466e+00 1.134891e+00 1.110616e+00 1.163461e+00 9.254895e-01 8.153841e-04
<GCONST> 7.516802e+01
<MIXTURE> 41 6.713375e-03
<MEAN> 25
 1.302945e+00 1.772884e+00 1.044328e+01 -6.952705e+00 -1.045409e+01 -3.853116e+00 -2.496198e+00 -5.030123e+00 -4.626934e+00 2.646343e+00 -1.736647e+00 -9.503121e-01 8.276033e-02 -7.620621e-01 1.689346e+00 -3.556955e+00 -2.455151e+00 -1.150604e-01 -5.120889e-01 -3.598557e-01 -8.281420e-01 1.084015e+00 -1.044361e+00 8.358121e-02 8.632530e-02
<VARIANCE> 25
 1.168405e+01 2.961831e+01 3.289653e+01 3.994815e+01 3.872831e+01 4.008244e+01 3.705443e+01 2.987334e+01 3.329636e+01 2.877680e+01 3.181302e+01 2.712530e+01 3.182387e+00 3.309186e+00 3.836028e+00 3.788749e+00 4.904678e+00 5.867342e+00 4.711591e+00 4.547591e+00 3.983775e+00 4.211280e+00 3.822555e+00 3.228609e+00 2.922813e-03
<GCONST> 9.790950e+01
<MIXTURE> 42 1.106211e-02
<MEAN> 25
 -2.783135e+00 4.179459e+00 5.062590e+00 2.392204e+00 -1.516200e-01 -5.763511e+00 -8.836678e-01 -1.741599e+00 -1.474015e+00 -1.736511e+00 -1.930231e+00 1.721762e+00 4.152217e+00 -6.371335e-01 1.702226e+00 2.121015e-01 -3.123069e+00 -1.385286e+00 -2.237679e+00 -8.011413e-01 -9.400575e-01 -6.177254e-01 3.965861e-01 -1.170671e+00 1.454753e-02
<VARIANCE> 25
 4.144415e+01 2.109934e+01 4.457333e+01 2.648527e+01 3.822854e+01 3.988623e+01 3.496178e+01 2.577244e+01 2.671071e+01 2.795444e+01 1.987357e+01 1.878542e+01 3.291533e+00 5.368024e+00 5.985688e+00 4.417863e+00 4.571025e+00 6.106283e+00 4.672470e+00 4.892590e+00 4.828965e+00 4.596019e+00 4.092197e+00 3.327585e+00 4.354582e-03
<GCONST> 9.934544e+01
<MIXTURE> 43 7.108249e-03
<MEAN> 25
 3.159862e+00 -6.282754e+00 -2.249170e+00 -5.171716e+00 -7.371946e+00 -3.379335e+00 4.127881e+00 1.302919e+00 -5.044238e+00 -7.069419e+00 -4.317462e+00 -1.245617e+00 2.382058e-01 2.160545e+00 1.907403e+00 -1.311358e-01 -1.423354e+00 -7.938088e-01 -9.675052e-01 -7.749577e-01 8.210463e-01 1.459531e+00 3.420034e-01 2.124093e-02 -4.508995e-02
<VARIANCE> 25
 9.582567e+00 1.981293e+01 2.726245e+01 3.524071e+01 3.845194e+01 3.665598e+01 3.321983e+01 3.969415e+01 3.961308e+01 3.872893e+01 2.648881e+01 2.945792e+01 6.912991e-01 1.251339e+00 1.575932e+00 2.485159e+00 2.383945e+00 2.377011e+00 2.652992e+00 3.023651e+00 2.598474e+00 2.588095e+00 2.325898e+00 1.920558e+00 9.409499e-04
<GCONST> 8.796262e+01
<MIXTURE> 44 7.328289e-03
<MEAN> 25
 -1.443570e+01 1.767823e+00 3.046318e+00 -3.223849e+00 3.281895e+00 1.886902e+00 -3.884522e-01 1.599136e+00 6.763481e-01 -1.550669e+00 2.719418e+00 2.482298e+00 -2.030503e-01 -9.287003e-02 3.984944e-01 1.784078e-01 -3.373568e-01 3.260997e-01 5.648643e-01 2.362259e-01 4.410531e-01 5.822440e-02 1.404967e-01 2.875692e-01 5.271272e-03
<VARIANCE> 25
 4.314006e+01 2.359655e+01 2.908528e+01 2.575980e+01 2.555390e+01 2.423185e+01 2.318534e+01 3.149978e+01 2.679182e+01 2.546782e+01 2.886250e+01 1.921255e+01 1.146692e+00 1.524401e+00 1.544014e+00 1.302951e+00 2.422858e+00 1.648193e+00 1.489205e+00 1.456294e+00 1.506828e+00 1.290530e+00 1.279017e+00 1.189418e+00 1.312294e-03
<GCONST> 8.322200e+01
<MIXTURE> 45 1.364932e-02
<MEAN> 25
 -1.153975e+01 3.135009e+00 -5.176860e-01 2.304893e+00 4.983928e+00 -3.598913e-01 3.461563e+00 2.018079e+00 2.252321e+00 1.343493e+00 2.969507e+00 2.913918e+00 -3.063715e+00 5.983825e-01 -4.163697e-01 -5.093927e-01 4.327964e-01 -4.914429e-02 2.173029e-01 1.518800e-02 -4.615074e-01 -4.257227e-01 3.218916e-01 2.089144e-01 1.138664e-01
<VARIANCE> 25
 3.546313e+01 2.861393e+01 2.850210e+01 3.108894e+01 3.018257e+01 2.499020e+01 3.338089e+01 2.494783e+01 2.923313e+01 2.482635e+01 2.488816e+01 1.372456e+01 2.169557e+00 2.658552e+00 2.568053e+00 2.314091e+00 2.340571e+00 2.469975e+00 2.260651e+00 2.003053e+00 2.587810e+00 2.405388e+00 1.688141e+00 1.441546e+00 3.543004e-03
<GCONST> 8.930193e+01
<MIXTURE> 46 9.336259e-03
<MEAN> 25
 -9.436893e+00 2.287560e+00 1.187164e+00 7.523032e+00 5.913263e+00 3.331207e+00 7.040551e+00 4.467976e+00 5.692106e+00 4.670572e+00 5.032652e+00 2.911816e+00 1.059057e+00 -2.359752e-01 3.900727e-02 1.001725e+00 6.052260e-01 9.408095e-01 3.871154e-01 6.767978e-01 4.720533e-01 5.054372e-01 6.400558e-01 5.236056e-01 -1.054766e-01
<VARIANCE> 25
 3.431259e+01 4.379849e+01 3.843554e+01 5.029170e+01 5.083737e+01 4.069725e+01 3.714359e+01 3.542822e+01 3.310363e+01 3.095989e+01 2.818996e+01 2.021780e+01 3.900835e+00 4.135070e+00 3.873403e+00 4.128092e+00 4.162838e+00 3.688413e+00 3.370754e+00 3.110470e+00 2.980011e+00 2.858088e+00 2.302828e+00 1.781695e+00 7.942169e-03
<GCONST> 9.827598e+01
<MIXTURE> 47 7.116147e-03
<MEAN> 25
 7.263690e+00 -7.843811e+00 -7.581776e+00 -6.807753e+00 1.145218e+00 1.254465e+00 -3.022949e+00 7.227205e-01 2.138101e+00 8.647099e-01 -3.878081e+00 -6.324407e+00 -2.037220e-01 -1.239666e+00 -5.602105e-01 -5.535303e-01 6.318893e-01 9.459766e-01 8.367763e-01 1.814707e-01 5.348980e-02 -8.583217e-01 -4.653051e-01 -3.992255e-01 3.094230e-02
<VARIANCE> 25
 9.980230e+00 2.243817e+01 1.937327e+01 3.215770e+01 3.528590e+01 5.073959e+01 4.609787e+01 4.012496e+01 4.822334e+01 4.851274e+01 4.651275e+01 3.350698e+01 4.981308e-01 7.585509e-01 1.230218e+00 1.852214e+00 1.928204e+00 2.280286e+00 2.267023e+00 2.501863e+00 2.257701e+00 2.112010e+00 2.155120e+00 1.919261e+00 5.980157e-04
<GCONST> 8.654157e+01
<MIXTURE> 48 7.116147e-03
<MEAN> 25
 7.263690e+00 -7.843811e+00 -7.581776e+00 -6.807753e+00 1.145218e+00 1.254465e+00 -3.022949e+00 7.227205e-01 2.138101e+00 8.647099e-01 -3.878081e+00 -6.324407e+00 -2.037220e-01 -1.239666e+00 -5.602105e-01 -5.535303e-01 6.318893e-01 9.459766e-01 8.367763e-01 1.814707e-01 5.348980e-02 -8.583217e-01 -4.653051e-01 -3.992255e-01 3.094230e-02
<VARIANCE> 25
 9.980230e+00 2.243817e+01 1.937327e+01 3.215770e+01 3.528590e+01 5.073959e+01 4.609787e+01 4.012496e+01 4.822334e+01 4.851274e+01 4.651275e+01 3.350698e+01 4.981308e-01 7.585509e-01 1.230218e+00 1.852214e+00 1.928204e+00 2.280286e+00 2.267023e+00 2.501863e+00 2.257701e+00 2.112010e+00 2.155120e+00 1.919261e+00 5.980157e-04
<GCONST> 8.654157e+01
<MIXTURE> 49 5.548473e-03
<MEAN> 25
 -4.588868e+00 5.474073e-01 3.539396e-01 8.452853e+00 5.756158e+00 4.923296e+00 6.019945e+00 4.335021e+00 5.055033e+00 3.253612e+00 3.944100e+00 2.650210e+00 3.462752e-01 5.988720e-01 7.465163e-01 3.782655e-01 -2.227057e-01 -7.276038e-01 -1.116148e+00 -1.168302e+00 -8.308932e-01 -6.218233e-01 -5.106360e-01 -2.431254e-01 -1.585003e-04
<VARIANCE> 25
 1.041796e+01 9.263137e+00 1.343863e+01 1.534251e+01 1.541006e+01 1.888773e+01 1.743894e+01 1.848837e+01 1.654316e+01 1.820961e+01 2.604258e+01 1.360652e+01 2.604035e-01 2.579823e-01 3.607839e-01 5.688819e-01 7.934854e-01 9.842697e-01 9.894668e-01 9.743919e-01 1.141334e+00 1.177210e+00 1.156038e+00 1.156012e+00 1.403413e-05
<GCONST> 6.371649e+01
<MIXTURE> 50 6.234641e-03
<MEAN> 25
 -4.139884e+00 3.964764e-01 -1.446834e+00 5.970754e+00 3.867853e+00 2.013228e+00 3.548449e+00 1.829637e+00 2.962115e+00 1.097734e+00 1.656238e+00 2.485897e+00 3.288928e-02 1.637164e-01 1.219797e-01 -1.012893e-01 -4.561410e-01 -6.163494e-01 -4.973897e-01 -4.899251e-02 4.200684e-01 7.531253e-01 7.046167e-01 4.562447e-01 1.675247e-06
<VARIANCE> 25
 1.146013e+01 1.092816e+01 1.329167e+01 1.460563e+01 1.466935e+01 1.831344e+01 1.760415e+01 1.863153e+01 1.924918e+01 1.709907e+01 2.241438e+01 1.470193e+01 1.387667e-01 2.207882e-01 3.544808e-01 5.224065e-01 6.007641e-01 6.966032e-01 1.011792e+00 1.163872e+00 1.003856e+00 8.557003e-01 8.754954e-01 1.059062e+00 1.192454e-06
<GCONST> 5.927964e+01
<MIXTURE> 51 6.234641e-03
<MEAN> 25
 -4.139884e+00 3.964764e-01 -1.446834e+00 5.970754e+00 3.867853e+00 2.013228e+00 3.548449e+00 1.829637e+00 2.962115e+00 1.097734e+00 1.656238e+00 2.485897e+00 3.288928e-02 1.637164e-01 1.219797e-01 -1.012893e-01 -4.561410e-01 -6.163494e-01 -4.973897e-01 -4.899251e-02 4.200684e-01 7.531253e-01 7.046167e-01 4.562447e-01 1.675247e-06
<VARIANCE> 25
 1.146013e+01 1.092816e+01 1.329167e+01 1.460563e+01 1.466935e+01 1.831344e+01 1.760415e+01 1.863153e+01 1.924918e+01 1.709907e+01 2.241438e+01 1.470193e+01 1.387667e-01 2.207882e-01 3.544808e-01 5.224065e-01 6.007641e-01 6.966032e-01 1.011792e+00 1.163872e+00 1.003856e+00 8.557003e-01 8.754954e-01 1.059062e+00 1.192454e-06
<GCONST> 5.927964e+01
<MIXTURE> 52 6.367945e-03
<MEAN> 25
 9.975683e+00 1.806179e+00 -6.077239e+00 -1.443933e+01 -4.103917e+00 8.369199e+00 -3.333648e+00 -3.223896e+00 -4.635642e+00 -2.082929e+00 3.500967e+00 1.099028e+00 -3.850335e-01 -4.533701e-01 -3.352877e-02 1.142693e+00 1.257834e+00 -4.040368e-01 -5.703760e-01 -6.469312e-01 1.198540e-01 1.245092e+00 3.349903e-01 -6.414014e-01 -1.488598e-02
<VARIANCE> 25
 9.321348e+00 2.070405e+01 2.440384e+01 3.751165e+01 4.381332e+01 2.979038e+01 5.105558e+01 4.712085e+01 4.216875e+01 4.415654e+01 3.885162e+01 3.109003e+01 4.325438e-01 1.427250e+00 1.273953e+00 2.641906e+00 2.345662e+00 2.208627e+00 2.887816e+00 2.670002e+00 2.991160e+00 2.550109e+00 2.467920e+00 2.395320e+00 1.505294e-03
<GCONST> 8.934353e+01
<MIXTURE> 53 6.367945e-03
<MEAN> 25
 9.975683e+00 1.806179e+00 -6.077239e+00 -1.443933e+01 -4.103917e+00 8.369199e+00 -3.333648e+00 -3.223896e+00 -4.635642e+00 -2.082929e+00 3.500967e+00 1.099028e+00 -3.850335e-01 -4.533701e-01 -3.352877e-02 1.142693e+00 1.257834e+00 -4.040368e-01 -5.703760e-01 -6.469312e-01 1.198540e-01 1.245092e+00 3.349903e-01 -6.414014e-01 -1.488598e-02
<VARIANCE> 25
 9.321348e+00 2.070405e+01 2.440384e+01 3.751165e+01 4.381332e+01 2.979038e+01 5.105558e+01 4.712085e+01 4.216875e+01 4.415654e+01 3.885162e+01 3.109003e+01 4.325438e-01 1.427250e+00 1.273953e+00 2.641906e+00 2.345662e+00 2.208627e+00 2.887816e+00 2.670002e+00 2.991160e+00 2.550109e+00 2.467920e+00 2.395320e+00 1.505294e-03
<GCONST> 8.934353e+01
<MIXTURE> 54 7.368620e-03
<MEAN> 25
 -3.526519e+00 1.593930e-01 -6.210433e-01 7.945740e+00 6.334570e+00 4.490926e+00 4.623707e+00 4.627096e+00 4.093600e+00 3.485198e+00 4.263100e+00 2.252660e+00 -1.101838e-03 2.347752e-02 2.188609e-02 6.109735e-02 6.559624e-02 5.591695e-02 4.395966e-02 5.324388e-02 1.879232e-02 2.460785e-02 2.080014e-02 7.371501e-03 -3.980766e-05
<VARIANCE> 25
 9.217073e+00 1.041853e+01 9.177279e+00 1.791808e+01 1.357194e+01 1.384531e+01 1.183661e+01 1.100135e+01 1.118579e+01 1.352401e+01 1.858470e+01 1.250402e+01 4.367692e-02 8.598589e-02 1.580753e-01 2.325072e-01 3.237944e-01 3.984332e-01 4.791348e-01 5.349550e-01 5.435546e-01 5.240364e-01 5.024538e-01 5.271888e-01 1.034032e-06
<GCONST> 4.752323e+01
<MIXTURE> 55 7.368620e-03
<MEAN> 25
 -3.526519e+00 1.593930e-01 -6.210433e-01 7.945740e+00 6.334570e+00 4.490926e+00 4.623707e+00 4.627096e+00 4.093600e+00 3.485198e+00 4.263100e+00 2.252660e+00 -1.101838e-03 2.347752e-02 2.188609e-02 6.109735e-02 6.559624e-02 5.591695e-02 4.395966e-02 5.324388e-02 1.879232e-02 2.460785e-02 2.080014e-02 7.371501e-03 -3.980766e-05
<VARIANCE> 25
 9.217073e+00 1.041853e+01 9.177279e+00 1.791808e+01 1.357194e+01 1.384531e+01 1.183661e+01 1.100135e+01 1.118579e+01 1.352401e+01 1.858470e+01 1.250402e+01 4.367692e-02 8.598589e-02 1.580753e-01 2.325072e-01 3.237944e-01 3.984332e-01 4.791348e-01 5.349550e-01 5.435546e-01 5.240364e-01 5.024538e-01 5.271888e-01 1.034032e-06
<GCONST> 4.752323e+01
<MIXTURE> 56 6.132464e-03
<MEAN> 25
 7.481896e+00 -6.903172e+00 -8.994549e+00 -8.765342e+00 3.823969e+00 3.952114e+00 -2.322426e+00 -1.564770e+00 1.673607e+00 8.873284e-01 -2.550370e+00 -6.933302e+00 -2.300992e-02 4.080096e-02 -6.604903e-02 -1.223386e-02 2.916651e-01 6.581774e-02 1.398893e-01 -1.393779e-01 -5.086483e-03 -4.361985e-02 -1.191890e-01 3.567319e-02 -7.938336e-03
<VARIANCE> 25
 9.300520e+00 2.401009e+01 2.030475e+01 4.065109e+01 3.275012e+01 4.952869e+01 6.070687e+01 3.592823e+01 4.075735e+01 3.810646e+01 3.920670e+01 3.215692e+01 2.058943e-01 4.714712e-01 4.524212e-01 8.103730e-01 8.483273e-01 1.121147e+00 9.107628e-01 8.866171e-01 9.458984e-01 8.988140e-01 1.083949e+00 7.845613e-01 2.555080e-04
<GCONST> 7.544166e+01
<MIXTURE> 57 6.132464e-03
<MEAN> 25
 7.481896e+00 -6.903172e+00 -8.994549e+00 -8.765342e+00 3.823969e+00 3.952114e+00 -2.322426e+00 -1.564770e+00 1.673607e+00 8.873284e-01 -2.550370e+00 -6.933302e+00 -2.300992e-02 4.080096e-02 -6.604903e-02 -1.223386e-02 2.916651e-01 6.581774e-02 1.398893e-01 -1.393779e-01 -5.086483e-03 -4.361985e-02 -1.191890e-01 3.567319e-02 -7.938336e-03
<VARIANCE> 25
 9.300520e+00 2.401009e+01 2.030475e+01 4.065109e+01 3.275012e+01 4.952869e+01 6.070687e+01 3.592823e+01 4.075735e+01 3.810646e+01 3.920670e+01 3.215692e+01 2.058943e-01 4.714712e-01 4.524212e-01 8.103730e-01 8.483273e-01 1.121147e+00 9.107628e-01 8.866171e-01 9.458984e-01 8.988140e-01 1.083949e+00 7.845613e-01 2.555080e-04
<GCONST> 7.544166e+01
<MIXTURE> 58 6.172147e-03
<MEAN> 25
 2.576928e+00 -3.085763e+00 7.337396e+00 -5.261717e+00 -1.340713e+01 -5.584767e+00 1.662270e+00 8.363343e-01 -2.390965e+00 1.843723e+00 5.216316e-01 -8.290022e-01 -2.972609e-02 -1.374215e-01 -6.906878e-02 -1.606914e-01 -1.839759e-02 2.311016e-01 3.734159e-01 2.221253e-01 2.037238e-02 1.753624e-02 -7.571111e-02 -1.414802e-01 -2.966524e-03
<VARIANCE> 25
 7.370472e+00 1.515332e+01 2.038151e+01 2.718009e+01 2.403905e+01 4.639331e+01 3.265549e+01 3.458818e+01 3.219038e+01 3.132450e+01 2.281846e+01 2.021642e+01 3.092951e-01 8.040594e-01 7.509494e-01 1.016870e+00 8.861299e-01 1.209127e+00 1.163934e+00 1.294687e+00 1.079937e+00 1.061913e+00 9.097778e-01 8.739086e-01 7.250544e-04
<GCONST> 7.557246e+01
<MIXTURE> 59 6.172147e-03
<MEAN> 25
 2.576928e+00 -3.085763e+00 7.337396e+00 -5.261717e+00 -1.340713e+01 -5.584767e+00 1.662270e+00 8.363343e-01 -2.390965e+00 1.843723e+00 5.216316e-01 -8.290022e-01 -2.972609e-02 -1.374215e-01 -6.906878e-02 -1.606914e-01 -1.839759e-02 2.311016e-01 3.734159e-01 2.221253e-01 2.037238e-02 1.753624e-02 -7.571111e-02 -1.414802e-01 -2.966524e-03
<VARIANCE> 25
 7.370472e+00 1.515332e+01 2.038151e+01 2.718009e+01 2.403905e+01 4.639331e+01 3.265549e+01 3.458818e+01 3.219038e+01 3.132450e+01 2.281846e+01 2.021642e+01 3.092951e-01 8.040594e-01 7.509494e-01 1.016870e+00 8.861299e-01 1.209127e+00 1.163934e+00 1.294687e+00 1.079937e+00 1.061913e+00 9.097778e-01 8.739086e-01 7.250544e-04
<GCONST> 7.557246e+01
<MIXTURE> 60 4.479129e-03
<MEAN> 25
 -2.708560e+00 5.049804e-01 -9.361100e-01 3.535005e+00 1.926058e+00 1.507649e+00 1.940622e+00 1.217532e+00 2.157042e+00 7.039980e-01 1.343453e+00 9.717103e-01 -1.136338e-02 9.866417e-02 1.270988e-01 1.790414e-01 2.791047e-02 5.775187e-02 1.208261e-01 4.203580e-01 5.476301e-01 5.656841e-01 5.851252e-01 4.464464e-01 -6.074217e-04
<VARIANCE> 25
 7.479707e+00 5.353174e+00 8.280122e+00 9.299190e+00 1.157873e+01 1.379130e+01 1.267087e+01 1.047604e+01 1.123317e+01 1.231355e+01 1.590503e+01 1.543375e+01 1.066331e-01 1.654899e-01 2.675758e-01 3.722823e-01 6.136627e-01 6.554759e-01 8.949101e-01 9.640437e-01 9.316955e-01 7.468964e-01 7.791247e-01 1.029927e+00 3.171773e-05
<GCONST> 5.603163e+01
<MIXTURE> 61 4.479129e-03
<MEAN> 25
 -2.708560e+00 5.049804e-01 -9.361100e-01 3.535005e+00 1.926058e+00 1.507649e+00 1.940622e+00 1.217532e+00 2.157042e+00 7.039980e-01 1.343453e+00 9.717103e-01 -1.136338e-02 9.866417e-02 1.270988e-01 1.790414e-01 2.791047e-02 5.775187e-02 1.208261e-01 4.203580e-01 5.476301e-01 5.656841e-01 5.851252e-01 4.464464e-01 -6.074217e-04
<VARIANCE> 25
 7.479707e+00 5.353174e+00 8.280122e+00 9.299190e+00 1.157873e+01 1.379130e+01 1.267087e+01 1.047604e+01 1.123317e+01 1.231355e+01 1.590503e+01 1.543375e+01 1.066331e-01 1.654899e-01 2.675758e-01 3.722823e-01 6.136627e-01 6.554759e-01 8.949101e-01 9.640437e-01 9.316955e-01 7.468964e-01 7.791247e-01 1.029927e+00 3.171773e-05
<GCONST> 5.603163e+01
<MIXTURE> 62 3.278034e-03
<MEAN> 25
 -5.083200e+00 1.247634e+00 1.029103e+00 8.812922e+00 6.119685e+00 5.041146e+00 5.496238e+00 4.036354e+00 4.985034e+00 3.915265e+00 4.959656e+00 2.955332e+00 -1.002342e+00 -1.165583e+00 -9.521686e-01 -2.764665e-01 4.253991e-01 1.003838e+00 1.383264e+00 1.552573e+00 1.475459e+00 1.242192e+00 1.069820e+00 7.258736e-01 -1.271453e-03
<VARIANCE> 25
 9.904303e+00 9.976645e+00 1.310572e+01 1.673560e+01 1.748697e+01 1.757007e+01 1.968360e+01 1.909313e+01 1.883548e+01 1.870822e+01 2.156976e+01 1.479111e+01 4.018851e-01 4.323749e-01 5.542591e-01 7.783939e-01 1.037317e+00 1.191992e+00 1.252158e+00 1.277636e+00 1.335868e+00 1.363297e+00 1.403703e+00 1.369609e+00 1.633432e-05
<GCONST> 6.753983e+01
<MIXTURE> 63 4.351215e-03
<MEAN> 25
 -2.289267e+00 -2.284417e-01 -2.925329e+00 2.708879e+00 2.422451e+00 -3.272429e-01 2.813200e+00 1.231190e+00 1.731375e+00 -1.018664e+00 -1.407337e+00 1.036321e+00 -1.192834e-01 2.622496e-01 4.082763e-01 5.122571e-01 3.333624e-01 1.470848e-01 4.777969e-01 1.667256e-01 3.508382e-01 3.302676e-01 2.850764e-02 1.125444e-01 -2.446331e-03
<VARIANCE> 25
 8.029930e+00 1.193073e+01 1.394736e+01 1.289986e+01 1.257592e+01 1.565471e+01 1.613485e+01 1.659656e+01 1.809726e+01 1.578835e+01 1.378949e+01 1.384321e+01 2.939690e-01 4.019662e-01 5.783474e-01 6.761597e-01 7.742359e-01 9.362522e-01 1.767478e+00 1.275169e+00 1.204578e+00 1.206271e+00 1.379062e+00 1.282674e+00 2.812865e-04
<GCONST> 6.766537e+01
<MIXTURE> 64 4.351215e-03
<MEAN> 25
 -2.289267e+00 -2.284417e-01 -2.925329e+00 2.708879e+00 2.422451e+00 -3.272429e-01 2.813200e+00 1.231190e+00 1.731375e+00 -1.018664e+00 -1.407337e+00 1.036321e+00 -1.192834e-01 2.622496e-01 4.082763e-01 5.122571e-01 3.333624e-01 1.470848e-01 4.777969e-01 1.667256e-01 3.508382e-01 3.302676e-01 2.850764e-02 1.125444e-01 -2.446331e-03
<VARIANCE> 25
 8.029930e+00 1.193073e+01 1.394736e+01 1.289986e+01 1.257592e+01 1.565471e+01 1.613485e+01 1.659656e+01 1.809726e+01 1.578835e+01 1.378949e+01 1.384321e+01 2.939690e-01 4.019662e-01 5.783474e-01 6.761597e-01 7.742359e-01 9.362522e-01 1.767478e+00 1.275169e+00 1.204578e+00 1.206271e+00 1.379062e+00 1.282674e+00 2.812865e-04
<GCONST> 6.766537e+01
<MIXTURE> 65 1.721197e-02
<MEAN> 25
 7.857041e+00 2.025220e+00 1.901550e+00 5.502130e-01 -5.222017e+00 -4.197940e+00 -5.757370e+00 -6.650686e+00 -3.716953e+00 -2.185505e+00 -5.516040e+00 -1.751001e+00 1.718205e-01 1.057903e-01 2.104106e-02 1.363750e-01 -1.738456e-01 2.412508e-01 -1.122432e-01 -1.734387e-01 2.074079e-01 8.221736e-03 -4.275487e-02 -1.515818e-01 -5.141970e-03
<VARIANCE> 25
 1.078389e+01 1.930677e+01 2.545266e+01 3.669248e+01 3.859676e+01 5.780655e+01 5.785640e+01 5.860592e+01 5.503185e+01 5.850159e+01 5.524084e+01 5.110036e+01 5.596290e-01 9.584346e-01 1.589991e+00 1.786872e+00 1.985196e+00 2.209391e+00 2.323384e+00 2.941818e+00 2.462251e+00 2.445004e+00 2.372541e+00 2.113155e+00 4.276123e-04
<GCONST> 8.945808e+01
<MIXTURE> 66 1.191532e-02
<MEAN> 25
 6.511579e+00 -4.233515e+00 -5.476907e+00 -5.211219e+00 1.372375e+00 -4.693662e+00 -6.929038e+00 7.915913e-01 6.241427e-01 -1.533370e+00 -6.254262e+00 -2.951641e+00 -8.291635e-02 1.600297e+00 2.111150e+00 2.268336e+00 -1.255234e+00 -1.200411e+00 1.786094e-01 -4.977899e-01 -2.405570e-02 -2.217871e-01 -2.215993e-01 8.841332e-01 -6.405651e-02
<VARIANCE> 25
 9.004519e+00 2.195125e+01 2.608344e+01 3.439978e+01 3.707638e+01 5.390279e+01 5.391569e+01 4.607276e+01 5.175637e+01 6.786169e+01 3.568611e+01 4.059219e+01 1.244880e+00 2.443216e+00 2.530954e+00 2.391889e+00 4.061981e+00 4.161343e+00 4.491850e+00 4.644567e+00 4.326482e+00 4.746194e+00 3.726837e+00 3.811514e+00 1.406802e-03
<GCONST> 9.678074e+01
<MIXTURE> 67 1.559142e-02
<MEAN> 25
 8.270791e+00 1.608526e+00 -4.987213e+00 -8.956187e+00 7.882093e-01 3.918019e+00 -4.861465e+00 -2.853447e+00 -3.731219e+00 8.275302e-01 7.044347e-01 -9.941857e-01 -1.169217e+00 1.730061e+00 9.184248e-01 3.264291e+00 1.009692e+00 -4.270790e-01 1.612961e+00 1.626823e-01 6.565969e-01 2.608886e-01 -5.097432e-01 7.966455e-02 -1.274098e-01
<VARIANCE> 25
 1.158187e+01 3.569110e+01 2.875416e+01 5.048654e+01 4.072852e+01 4.780496e+01 6.429433e+01 4.461269e+01 5.480802e+01 4.845495e+01 5.212537e+01 4.388225e+01 1.827958e+00 2.910036e+00 2.801963e+00 4.058997e+00 4.298819e+00 3.773844e+00 4.356092e+00 4.204649e+00 5.440030e+00 3.965299e+00 4.422395e+00 4.230567e+00 2.592752e-03
<GCONST> 1.002491e+02
<MIXTURE> 68 1.485092e-02
<MEAN> 25
 -1.906527e+00 -2.367697e+00 -3.698962e+00 8.512726e-01 4.874386e+00 -5.245175e-01 1.342917e+00 1.475136e+00 2.293675e+00 1.278708e+00 9.609023e-01 1.758520e+00 2.770982e+00 5.904626e-01 -7.048307e-02 -2.645423e+00 -2.192502e+00 -1.354928e+00 -2.256706e+00 -1.767001e+00 -1.881072e+00 -1.359292e+00 -1.812370e+00 -6.687423e-01 9.829826e-02
<VARIANCE> 25
 2.460735e+01 2.922127e+01 5.513651e+01 4.946040e+01 4.415657e+01 5.084247e+01 4.694604e+01 4.077862e+01 3.825600e+01 4.122643e+01 3.651310e+01 2.445135e+01 1.717591e+00 3.521806e+00 5.499670e+00 5.470107e+00 4.771318e+00 5.651609e+00 5.365661e+00 4.535516e+00 5.210349e+00 4.966674e+00 4.869074e+00 4.603661e+00 5.915490e-03
<GCONST> 1.027906e+02
<MIXTURE> 69 1.204884e-02
<MEAN> 25
 4.451544e+00 -4.101007e+00 -3.455316e+00 -3.726955e+00 -3.580880e+00 -7.629667e+00 -1.627514e+00 1.922661e+00 -1.322618e-01 -4.412349e+00 -4.901922e+00 8.565942e-01 1.680288e+00 -2.200292e+00 -1.479691e+00 -2.293876e+00 -4.957878e-01 -6.062118e-02 -5.805735e-01 3.745279e-01 -7.188222e-01 -1.075027e+00 -2.011057e+00 -1.258752e-01 6.971688e-02
<VARIANCE> 25
 1.041036e+01 1.970521e+01 2.409808e+01 2.313088e+01 3.873065e+01 3.424254e+01 4.488947e+01 2.935978e+01 4.004055e+01 3.439688e+01 3.197983e+01 2.221671e+01 3.186554e+00 2.702012e+00 3.487306e+00 3.310300e+00 5.187780e+00 5.980095e+00 6.571033e+00 5.750747e+00 5.625042e+00 6.352097e+00 4.106180e+00 3.440067e+00 2.558890e-03
<GCONST> 9.768330e+01
<MIXTURE> 70 1.329190e-02
<MEAN> 25
 7.329371e+00 -3.399064e+00 -4.577717e+00 -4.083085e+00 -1.005951e+00 -7.318766e-01 -7.632795e+00 -3.860106e+00 -7.653640e-01 3.965845e+00 7.591037e-02 -4.037004e+00 1.764939e+00 -1.349594e+00 -1.020991e+00 -2.296342e+00 -1.222123e+00 1.860593e+00 -1.120814e+00 -4.521775e-01 -3.673756e-01 4.225388e-01 4.041858e-01 -1.182814e+00 7.123746e-02
<VARIANCE> 25
 8.601752e+00 2.540666e+01 2.482586e+01 3.823365e+01 3.241298e+01 3.935714e+01 4.008788e+01 3.437006e+01 4.537952e+01 4.010039e+01 3.601495e+01 2.672710e+01 2.993015e+00 2.836727e+00 4.403051e+00 4.216270e+00 4.497632e+00 6.855782e+00 5.554108e+00 6.313555e+00 6.350112e+00 4.839086e+00 5.037539e+00 4.077317e+00 2.562669e-03
<GCONST> 9.947197e+01
<MIXTURE> 71 1.406903e-02
<MEAN> 25
 6.352426e+00 5.184771e+00 4.236732e+00 3.097195e+00 -3.420597e+00 -3.419855e+00 -3.411434e+00 -6.596772e+00 -4.615375e+00 -2.455544e+00 -5.157292e+00 -3.180075e+00 -1.581858e+00 -7.044969e-01 -2.319213e-01 -1.757259e+00 1.126101e+00 -1.661214e-01 5.818844e-02 1.528401e+00 3.031374e-01 -1.782399e-01 6.958240e-01 1.877934e-01 4.105879e-02
<VARIANCE> 25
 1.888585e+01 2.550605e+01 2.398251e+01 4.463396e+01 4.055959e+01 4.025788e+01 4.224985e+01 4.144273e+01 3.903180e+01 4.406907e+01 3.690412e+01 3.459159e+01 1.744214e+00 3.019965e+00 5.299507e+00 4.896335e+00 4.670677e+00 4.733332e+00 4.845378e+00 5.351559e+00 4.272637e+00 4.061856e+00 3.606274e+00 3.273632e+00 1.411810e-03
<GCONST> 9.859669e+01
<MIXTURE> 72 8.134747e-03
<MEAN> 25
 3.595935e+00 -3.578128e+00 5.746978e+00 -2.209741e+00 -1.016579e+01 -1.010496e+01 -2.841600e+00 1.814684e+00 -4.906222e+00 -1.968715e+00 -1.639073e+00 1.266571e-01 9.003212e-01 -7.794567e-01 -2.605969e+00 4.409908e-01 2.183618e+00 -4.909503e-01 -1.305075e+00 1.331392e+00 1.800839e+00 -6.058428e-01 -1.171407e+00 5.162814e-01 -5.780540e-03
<VARIANCE> 25
 1.064858e+01 1.845192e+01 3.201075e+01 3.695520e+01 3.112967e+01 3.461334e+01 4.064921e+01 3.410697e+01 4.102172e+01 3.953574e+01 3.724001e+01 3.014090e+01 4.204163e-01 9.630545e-01 1.909788e+00 1.384512e+00 2.081614e+00 2.587898e+00 2.872317e+00 3.096242e+00 2.445550e+00 2.777293e+00 2.093688e+00 2.180345e+00 5.091414e-04
<GCONST> 8.672363e+01
<MIXTURE> 73 1.213625e-02
<MEAN> 25
 -5.587265e+00 -8.052835e-01 -1.253513e+00 4.819841e+00 4.151650e+00 2.282197e+00 5.400134e+00 3.412178e+00 4.379161e+00 3.374701e+00 4.281319e+00 2.991920e+00 7.790411e-01 -1.020237e+00 -9.343752e-01 -2.625959e+00 -1.237740e+00 -1.732181e+00 -9.060442e-01 -5.050805e-01 -9.429169e-01 -7.040949e-01 -1.083326e+00 -2.567448e-01 1.537365e-01
<VARIANCE> 25
 1.287460e+01 1.325553e+01 1.527913e+01 2.311080e+01 2.358070e+01 2.475505e+01 2.120283e+01 1.990116e+01 1.768685e+01 1.905099e+01 2.261453e+01 1.553959e+01 4.152362e+00 3.080046e+00 5.897737e+00 4.668914e+00 6.115655e+00 4.541102e+00 4.258713e+00 4.217272e+00 3.914824e+00 4.219792e+00 3.522652e+00 2.702681e+00 4.350357e-03
<GCONST> 9.274648e+01
<MIXTURE> 74 1.756491e-02
<MEAN> 25
 3.984677e+00 -2.976990e+00 6.761009e+00 -1.445720e+00 -9.802381e+00 -1.006964e+01 -2.784896e+00 1.248167e+00 -5.821539e+00 -1.983215e+00 -1.359455e-03 -1.455313e+00 1.363033e-01 2.050707e+00 -5.051389e-01 1.624200e+00 1.277839e+00 8.929727e-02 2.902924e-01 -1.010230e+00 7.922717e-01 4.236407e-01 -5.836486e-01 -2.483498e-01 -8.456708e-02
<VARIANCE> 25
 9.239514e+00 2.396086e+01 4.189444e+01 2.838704e+01 3.197305e+01 5.466664e+01 3.894724e+01 3.755916e+01 4.971820e+01 3.459560e+01 4.430312e+01 3.123742e+01 1.779402e+00 1.660800e+00 3.402853e+00 1.949225e+00 3.441057e+00 3.248807e+00 4.368584e+00 3.609664e+00 3.926087e+00 3.343386e+00 3.288158e+00 2.925399e+00 1.412893e-03
<GCONST> 9.428899e+01
<MIXTURE> 75 9.711651e-03
<MEAN> 25
 1.856938e+00 -3.186949e+00 1.214144e+01 6.512321e-01 -1.261443e+01 -8.554421e+00 -5.320975e+00 -5.418802e-01 -6.162931e+00 -4.637494e+00 4.183064e+00 -1.039157e-02 2.118407e+00 -1.993954e+00 5.663638e-01 -2.745942e-01 -2.359029e+00 -1.120534e+00 -1.337178e+00 1.171214e+00 -7.762523e-01 -1.174528e-01 1.127812e+00 -1.212392e+00 3.906272e-02
<VARIANCE> 25
 1.234943e+01 2.810925e+01 3.012332e+01 2.559204e+01 2.355732e+01 2.818218e+01 2.638120e+01 2.867644e+01 3.702168e+01 2.503017e+01 1.949677e+01 1.907477e+01 2.477890e+00 2.029898e+00 4.102095e+00 1.959702e+00 3.771642e+00 4.787395e+00 3.627465e+00 2.998752e+00 4.394424e+00 2.814654e+00 2.559453e+00 3.046548e+00 1.580140e-03
<GCONST> 9.141992e+01
<MIXTURE> 76 1.052359e-02
<MEAN> 25
 -4.969527e+00 -6.488687e-01 -2.170835e+00 3.772054e+00 3.207350e+00 1.277811e+00 3.692263e+00 1.891542e+00 2.039941e+00 -2.042820e-02 1.095695e+00 1.917039e+00 -1.148459e-01 -5.929667e-01 -2.362630e-01 -8.388132e-01 -6.179749e-01 -7.553866e-01 -6.172354e-01 -2.118634e-01 -3.007230e-01 -3.503545e-01 -2.177300e-01 -2.341338e-01 1.959346e-02
<VARIANCE> 25
 3.384074e+01 2.313746e+01 2.426383e+01 2.244541e+01 2.592163e+01 2.482270e+01 2.397169e+01 2.283768e+01 2.098372e+01 2.081615e+01 2.267433e+01 1.600274e+01 9.502499e-01 1.048271e+00 1.242022e+00 1.383177e+00 1.608220e+00 1.420931e+00 1.739406e+00 1.899188e+00 1.650798e+00 1.421323e+00 1.402809e+00 1.213615e+00 1.341908e-03
<GCONST> 8.098561e+01
<MIXTURE> 77 1.244626e-02
<MEAN> 25
 -4.685871e-01 8.537658e+00 1.236656e+01 -1.151757e+01 -6.950968e+00 9.538012e-01 -9.201327e+00 -7.197702e+00 -3.324690e+00 -2.260646e-01 -4.646861e+00 -1.469609e+00 7.179148e-02 1.352509e-01 7.633409e-02 2.539344e-01 -2.196196e-02 7.403010e-02 -8.005692e-02 -5.989723e-02 8.527771e-02 -3.600499e-02 2.445298e-02 1.128985e-01 -1.001524e-02
<VARIANCE> 25
 1.038138e+01 2.018369e+01 2.827013e+01 4.238730e+01 3.326491e+01 3.349673e+01 3.712285e+01 3.170049e+01 3.527716e+01 3.314285e+01 3.725418e+01 3.469816e+01 3.021861e-01 7.790371e-01 6.407368e-01 1.082020e+00 1.227715e+00 9.793176e-01 1.259256e+00 1.073010e+00 1.038873e+00 1.075083e+00 9.632972e-01 9.206966e-01 5.375204e-04
<GCONST> 7.783000e+01
<MIXTURE> 78 9.702551e-03
<MEAN> 25
 -1.126172e+01 9.717604e-01 -1.637070e+00 2.047794e+00 4.205027e+00 -2.073302e+00 3.689158e+00 2.466634e+00 2.602551e+00 6.954491e-01 -4.401655e-01 2.922155e+00 2.326723e+00 -2.261135e-01 1.586224e-01 6.029713e-01 -1.886007e-02 3.287121e-02 -2.754372e-01 -4.614244e-02 2.278706e-01 1.190414e-01 -3.579855e-01 -4.687637e-01 -6.201369e-02
<VARIANCE> 25
 4.293895e+01 3.245656e+01 3.172753e+01 3.278182e+01 3.963055e+01 3.684056e+01 3.508784e+01 3.272149e+01 2.734793e+01 2.712453e+01 2.724150e+01 2.018038e+01 4.919052e+00 2.567059e+00 2.811231e+00 3.004508e+00 2.859575e+00 3.410775e+00 3.267909e+00 2.832232e+00 2.336180e+00 2.323310e+00 2.216181e+00 2.220208e+00 4.606013e-03
<GCONST> 9.446122e+01
<MIXTURE> 79 1.156824e-02
<MEAN> 25
 2.412156e+00 1.515384e+00 9.185699e+00 -6.578647e+00 -1.206394e+01 -1.852781e+00 -1.934690e+00 -6.428010e+00 -6.586285e+00 3.041077e-01 -3.463326e+00 -3.299050e+00 1.216010e+00 -5.115165e-01 -1.429839e+00 2.347038e+00 3.796396e-01 -1.473162e+00 5.452621e-01 8.920913e-01 -4.267363e-01 -5.321667e-01 3.539356e-01 2.658905e-01 -3.670434e-02
<VARIANCE> 25
 1.417497e+01 2.476208e+01 3.838890e+01 4.956043e+01 3.341311e+01 4.410350e+01 4.274340e+01 3.693220e+01 3.928611e+01 3.964016e+01 4.441443e+01 3.056460e+01 9.503735e-01 2.278169e+00 1.892429e+00 2.092071e+00 2.460636e+00 2.806406e+00 3.206146e+00 3.514756e+00 2.519588e+00 2.741760e+00 2.306928e+00 2.055970e+00 1.246731e-03
<GCONST> 9.188757e+01
<MIXTURE> 80 7.550998e-03
<MEAN> 25
 -1.459987e+01 3.959224e+00 7.568876e-01 2.808648e+00 2.410676e+00 1.419862e+00 6.323679e+00 2.462087e+00 2.675971e+00 2.280040e+00 4.863677e+00 1.266780e+00 4.273618e+00 -4.313383e-02 1.653332e+00 -1.121460e+00 -2.908445e+00 -2.781037e+00 -2.312260e+00 -2.008467e+00 -1.968868e+00 -1.665725e+00 -1.646780e+00 -6.089596e-01 -4.335918e-02
<VARIANCE> 25
 2.076601e+01 1.973438e+01 3.463350e+01 3.472746e+01 3.007197e+01 2.895637e+01 2.867465e+01 2.845158e+01 2.672465e+01 2.945834e+01 2.681377e+01 1.867338e+01 2.359984e+00 2.728287e+00 2.675915e+00 4.102580e+00 3.401046e+00 2.688883e+00 3.018924e+00 3.192261e+00 2.743582e+00 2.717146e+00 2.757961e+00 2.142051e+00 1.581841e-03
<GCONST> 9.148615e+01
<MIXTURE> 81 8.025434e-03
<MEAN> 25
 -1.117006e+00 4.062631e+00 1.017212e+01 -1.479783e+01 -9.072989e+00 -1.420963e+00 -6.766165e+00 -8.423549e+00 -4.146897e+00 -4.137524e-01 -7.572920e+00 -2.242572e+00 1.333845e-01 -5.874140e-01 -2.505503e-03 -5.559241e-01 -4.641613e-01 3.345975e-01 3.198637e-01 1.363228e-01 -1.394961e-01 1.069723e-01 -4.691939e-01 -1.259590e-01 1.148919e-02
<VARIANCE> 25
 1.015419e+01 3.282960e+01 2.652014e+01 2.932399e+01 3.376745e+01 3.050639e+01 4.542178e+01 2.825136e+01 3.800615e+01 3.190467e+01 2.529834e+01 3.106501e+01 7.723856e-01 2.276223e+00 1.545256e+00 2.871754e+00 2.661911e+00 2.125525e+00 3.282760e+00 2.287134e+00 2.355960e+00 2.539165e+00 2.297589e+00 2.078906e+00 1.184666e-03
<GCONST> 8.869194e+01
<MIXTURE> 82 8.213053e-03
<MEAN> 25
 -9.397289e+00 -3.706567e+00 1.667572e+00 -2.921213e+00 2.529024e+00 2.157248e-01 1.508381e+00 8.848697e-01 3.102097e+00 1.449609e+00 1.979490e+00 2.950252e+00 -1.353618e+00 -1.758191e-01 2.175115e-01 -2.465994e+00 -8.782993e-01 -1.172152e+00 -1.111623e+00 -8.627360e-01 -4.786976e-01 -5.132833e-01 -2.710741e-01 6.746041e-03 1.721951e-01
<VARIANCE> 25
 1.999071e+01 2.284085e+01 3.047013e+01 2.913463e+01 3.297750e+01 3.128253e+01 3.140376e+01 3.073292e+01 3.044928e+01 2.341533e+01 2.919232e+01 1.654026e+01 4.239745e+00 2.936625e+00 3.133976e+00 3.316353e+00 3.687649e+00 3.160323e+00 2.785394e+00 2.739853e+00 2.979995e+00 2.817312e+00 2.255173e+00 1.804567e+00 3.468354e-03
<GCONST> 9.263779e+01
<MIXTURE> 83 1.167529e-02
<MEAN> 25
 -2.001517e+01 5.496014e+00 -1.775668e+00 -4.162341e-01 7.819084e+00 -1.225288e+00 5.415964e+00 3.013948e+00 1.162699e+00 2.153651e+00 7.548547e-01 2.890590e+00 -3.011846e-02 -4.492633e-01 1.062961e-02 -3.686214e-01 -5.010630e-01 -1.179044e-01 -1.301113e-01 -9.611002e-02 -3.602005e-02 -4.183415e-02 -2.613177e-02 -2.720492e-02 4.501568e-03
<VARIANCE> 25
 8.917537e+00 1.639143e+01 2.842121e+01 2.242848e+01 2.122472e+01 2.398757e+01 2.237427e+01 2.357120e+01 2.054378e+01 2.240796e+01 2.332113e+01 1.445422e+01 1.059974e+00 9.366727e-01 1.245749e+00 1.064139e+00 1.360148e+00 1.298989e+00 1.285206e+00 1.384146e+00 1.351530e+00 1.306586e+00 1.222736e+00 1.078989e+00 8.904602e-04
<GCONST> 7.708404e+01
<MIXTURE> 84 1.066614e-02
<MEAN> 25
 1.173895e+00 9.000978e+00 7.215349e+00 7.964827e+00 2.809328e+00 -9.053156e-01 -1.532951e+00 -4.481706e+00 -4.109656e+00 -2.908241e+00 -2.406252e+00 -1.584111e+00 -1.784974e+00 -1.178140e+00 -1.200302e+00 1.294580e+00 2.247252e+00 1.490801e+00 1.458123e+00 1.288776e+00 1.170922e+00 4.047680e-01 4.131700e-01 4.231148e-01 -7.167196e-02
<VARIANCE> 25
 2.342215e+01 1.832070e+01 2.177798e+01 2.421529e+01 2.928383e+01 2.826884e+01 2.788771e+01 2.647556e+01 2.524214e+01 2.518262e+01 2.353742e+01 2.456123e+01 2.098227e+00 2.550060e+00 3.846734e+00 3.307085e+00 3.277010e+00 3.416127e+00 3.296834e+00 3.397684e+00 3.476379e+00 3.242275e+00 3.582012e+00 2.797671e+00 3.527152e-03
<GCONST> 9.254587e+01
<MIXTURE> 85 7.591393e-03
<MEAN> 25
 -3.281214e+00 7.724602e+00 5.797811e+00 1.201648e+00 -3.516547e+00 -5.230190e+00 -2.930593e+00 -6.020152e+00 -3.502839e+00 -3.262014e+00 -4.186711e-01 -1.728412e+00 3.940971e+00 2.427186e-01 1.791579e+00 -2.044354e+00 -3.442693e+00 -2.609594e+00 -2.866448e+00 -2.303840e+00 -2.258372e+00 -1.225310e+00 -2.275866e+00 -6.514629e-01 1.042579e-02
<VARIANCE> 25
 4.328184e+01 2.435254e+01 3.605412e+01 3.779959e+01 3.935393e+01 4.123259e+01 3.189270e+01 2.804478e+01 2.633817e+01 2.591564e+01 2.595083e+01 2.164125e+01 2.654391e+00 4.578718e+00 4.051689e+00 5.196511e+00 4.372104e+00 3.854810e+00 3.797552e+00 3.987363e+00 3.788370e+00 4.031266e+00 3.905257e+00 3.511276e+00 5.409044e-03
<GCONST> 9.838073e+01
<MIXTURE> 86 1.273941e-02
<MEAN> 25
 -3.977393e+00 -2.288814e-01 -7.543439e-01 5.589366e+00 4.340209e+00 3.958952e+00 5.330161e+00 4.380669e+00 4.565756e+00 3.014336e+00 4.365073e+00 2.420333e+00 -2.717376e-02 -5.987610e-02 -1.655057e-02 -1.112105e-01 -2.623026e-01 -1.533345e-01 -2.054733e-01 -3.216247e-01 -3.022883e-01 -3.462629e-01 -1.380803e-01 -2.620593e-01 4.121611e-04
<VARIANCE> 25
 8.677498e+00 6.445471e+00 8.437444e+00 1.117003e+01 1.336432e+01 1.318045e+01 1.320270e+01 1.142724e+01 1.143003e+01 1.285493e+01 1.513764e+01 1.223627e+01 1.108783e-01 2.129133e-01 3.098362e-01 4.838496e-01 7.426522e-01 6.572784e-01 7.559531e-01 7.125996e-01 7.624843e-01 7.865796e-01 1.098528e+00 8.477975e-01 6.840292e-05
<GCONST> 5.776409e+01
<MIXTURE> 87 1.100681e-02
<MEAN> 25
 -3.257406e+00 4.475311e+00 3.489337e+00 6.985429e+00 5.513435e+00 8.149518e-01 1.592992e+00 -9.401797e-01 -5.650391e-01 -8.400785e-01 -7.173800e-01 4.985972e-02 -2.124468e+00 -2.771916e+00 -2.093971e+00 -2.209411e+00 -3.680821e-02 -1.703876e-01 6.041069e-01 1.287957e+00 1.380392e+00 1.030493e+00 9.439961e-01 9.964802e-01 1.041008e-01
<VARIANCE> 25
 3.780157e+01 2.979126e+01 2.784683e+01 3.348182e+01 2.860004e+01 3.246376e+01 2.821664e+01 2.699386e+01 2.573330e+01 2.466420e+01 2.502308e+01 2.289943e+01 3.899787e+00 2.699665e+00 3.978411e+00 3.642085e+00 4.768290e+00 4.358511e+00 4.126926e+00 3.888172e+00 3.535942e+00 3.364512e+00 3.342987e+00 2.713615e+00 4.921034e-03
<GCONST> 9.628856e+01
<MIXTURE> 88 1.256585e-02
<MEAN> 25
 -2.230455e+00 -2.975622e-02 -6.993103e-01 4.187434e+00 2.754163e+00 2.286210e+00 4.186203e+00 2.588170e+00 2.802541e+00 1.154847e+00 2.217267e+00 1.249503e+00 1.191007e-01 9.860973e-02 2.853702e-01 4.154744e-01 2.128986e-01 1.385593e-01 1.199240e-01 1.029039e-02 -8.312730e-02 -2.019720e-01 -1.688200e-01 -3.692986e-02 -7.035972e-03
<VARIANCE> 25
 8.608151e+00 8.573879e+00 1.216305e+01 1.339194e+01 1.422932e+01 1.535117e+01 1.677662e+01 1.285708e+01 1.149597e+01 1.221151e+01 1.728302e+01 1.184203e+01 1.046731e+00 1.282197e+00 1.768753e+00 1.580504e+00 1.949055e+00 1.648218e+00 2.383277e+00 2.277135e+00 1.996557e+00 1.729495e+00 1.984636e+00 1.493994e+00 1.602604e-03
<GCONST> 7.643824e+01
<MIXTURE> 89 9.333527e-03
<MEAN> 25
 5.949832e+00 -6.608930e+00 -3.577461e+00 -3.273062e+00 -1.557710e+00 -5.257204e+00 -5.957849e+00 3.868889e+00 3.378962e+00 -2.545651e+00 -5.761970e+00 -3.127449e+00 -5.803997e-01 1.440419e-01 1.964231e+00 9.031806e-01 -1.818306e+00 -1.631497e+00 9.129039e-01 1.237865e+00 -7.402095e-01 -1.270866e+00 4.303415e-01 1.514459e+00 -5.279652e-03
<VARIANCE> 25
 9.100855e+00 2.777135e+01 3.007095e+01 2.980019e+01 3.492614e+01 4.321201e+01 5.855075e+01 4.265761e+01 3.877999e+01 4.287780e+01 3.672799e+01 3.202119e+01 3.577568e-01 8.297988e-01 1.441317e+00 1.296558e+00 1.940035e+00 2.138990e+00 2.556032e+00 2.012627e+00 2.254986e+00 2.109478e+00 2.286511e+00 1.473372e+00 3.652306e-04
<GCONST> 8.523692e+01
<MIXTURE> 90 7.114505e-03
<MEAN> 25
 2.447809e+00 -9.655949e+00 -4.749041e+00 -3.982123e+00 -3.354961e+00 -1.776163e+00 3.317238e+00 1.131687e+00 -7.487927e+00 -1.009676e+01 -3.384352e+00 -7.299008e-01 -1.680031e-01 9.039219e-01 1.165640e+00 -8.470848e-01 -1.609145e+00 -2.102663e-01 6.530961e-01 -2.041127e-01 -1.646548e-01 7.241958e-01 1.896126e-01 -5.434619e-01 -1.112038e-02
<VARIANCE> 25
 8.413725e+00 1.823191e+01 1.963849e+01 2.809970e+01 3.655031e+01 3.200648e+01 3.850977e+01 3.650154e+01 3.513357e+01 2.907624e+01 2.700562e+01 2.588879e+01 2.321476e-01 6.096610e-01 7.836411e-01 1.040995e+00 1.460553e+00 1.589195e+00 1.798209e+00 1.646998e+00 1.802827e+00 1.678341e+00 1.503663e+00 1.312006e+00 2.157453e-04
<GCONST> 7.819917e+01
<MIXTURE> 91 7.852945e-03
<MEAN> 25
 5.639911e+00 -7.118588e+00 -7.744006e+00 -6.439301e+00 3.043800e+00 1.694130e+00 -2.487325e+00 -2.063984e-01 -4.554428e-01 -3.297307e-01 -5.182080e+00 -4.218050e+00 1.002283e-01 1.111839e+00 1.836580e-01 4.464789e-01 1.805966e-01 -5.523842e-01 -2.092887e-01 4.871787e-02 6.161693e-02 2.522281e-01 -1.571041e-01 5.107915e-01 -3.809372e-02
<VARIANCE> 25
 9.608496e+00 2.371308e+01 1.736219e+01 3.654692e+01 2.801023e+01 4.968192e+01 4.468139e+01 3.290440e+01 4.516704e+01 6.504773e+01 2.998083e+01 3.664583e+01 4.532241e-01 9.572436e-01 9.451959e-01 1.218342e+00 1.903090e+00 2.097932e+00 2.042300e+00 1.901576e+00 2.010911e+00 1.805775e+00 2.267188e+00 1.883050e+00 4.948535e-04
<GCONST> 8.452424e+01
<MIXTURE> 92 7.852945e-03
<MEAN> 25
 5.639911e+00 -7.118588e+00 -7.744006e+00 -6.439301e+00 3.043800e+00 1.694130e+00 -2.487325e+00 -2.063984e-01 -4.554428e-01 -3.297307e-01 -5.182080e+00 -4.218050e+00 1.002283e-01 1.111839e+00 1.836580e-01 4.464789e-01 1.805966e-01 -5.523842e-01 -2.092887e-01 4.871787e-02 6.161693e-02 2.522281e-01 -1.571041e-01 5.107915e-01 -3.809372e-02
<VARIANCE> 25
 9.608496e+00 2.371308e+01 1.736219e+01 3.654692e+01 2.801023e+01 4.968192e+01 4.468139e+01 3.290440e+01 4.516704e+01 6.504773e+01 2.998083e+01 3.664583e+01 4.532241e-01 9.572436e-01 9.451959e-01 1.218342e+00 1.903090e+00 2.097932e+00 2.042300e+00 1.901576e+00 2.010911e+00 1.805775e+00 2.267188e+00 1.883050e+00 4.948535e-04
<GCONST> 8.452424e+01
<MIXTURE> 93 6.122769e-03
<MEAN> 25
 -6.777296e+00 -9.362328e-01 -2.378328e+00 5.793435e+00 5.875243e+00 3.893589e+00 6.114579e+00 3.618575e+00 4.106205e+00 2.478658e+00 1.799721e+00 3.686954e+00 -6.221134e-02 -1.546430e-01 -2.548528e-01 -3.288097e-01 -3.327462e-01 -2.823887e-01 -2.212212e-01 -1.689812e-01 -1.659160e-01 -1.479558e-01 -1.044593e-01 -3.601126e-02 -1.127551e-05
<VARIANCE> 25
 9.322505e+00 6.065898e+00 8.195645e+00 1.132033e+01 1.155154e+01 1.599375e+01 1.518585e+01 1.634132e+01 1.468718e+01 1.456404e+01 1.673587e+01 1.343251e+01 8.298214e-02 1.524225e-01 2.642135e-01 3.794769e-01 4.964642e-01 6.425218e-01 8.009260e-01 8.912168e-01 9.115437e-01 8.755784e-01 8.864974e-01 9.162465e-01 1.009645e-06
<GCONST> 5.363681e+01
<MIXTURE> 94 6.122769e-03
<MEAN> 25
 -6.777296e+00 -9.362328e-01 -2.378328e+00 5.793435e+00 5.875243e+00 3.893589e+00 6.114579e+00 3.618575e+00 4.106205e+00 2.478658e+00 1.799721e+00 3.686954e+00 -6.221134e-02 -1.546430e-01 -2.548528e-01 -3.288097e-01 -3.327462e-01 -2.823887e-01 -2.212212e-01 -1.689812e-01 -1.659160e-01 -1.479558e-01 -1.044593e-01 -3.601126e-02 -1.127551e-05
<VARIANCE> 25
 9.322505e+00 6.065898e+00 8.195645e+00 1.132033e+01 1.155154e+01 1.599375e+01 1.518585e+01 1.634132e+01 1.468718e+01 1.456404e+01 1.673587e+01 1.343251e+01 8.298214e-02 1.524225e-01 2.642135e-01 3.794769e-01 4.964642e-01 6.425218e-01 8.009260e-01 8.912168e-01 9.115437e-01 8.755784e-01 8.864974e-01 9.162465e-01 1.009645e-06
<GCONST> 5.363681e+01
<MIXTURE> 95 5.258835e-03
<MEAN> 25
 -4.214406e+00 3.810557e-01 -1.303761e+00 4.311129e+00 3.193995e+00 1.604219e+00 4.356001e+00 1.481062e+00 2.272787e+00 5.324104e-01 2.241478e-01 1.540965e+00 1.519484e-01 1.226686e-01 1.932213e-01 3.852500e-02 -2.418757e-01 -5.825717e-01 -1.026709e+00 -1.276079e+00 -1.006688e+00 -9.437518e-01 -6.031488e-01 -4.530883e-01 -2.104825e-03
<VARIANCE> 25
 1.192089e+01 6.941433e+00 1.133050e+01 1.155798e+01 1.295285e+01 1.535174e+01 1.605610e+01 1.525116e+01 1.234776e+01 1.373710e+01 1.681103e+01 1.250091e+01 1.935809e-01 2.175865e-01 4.701726e-01 6.468461e-01 6.541080e-01 8.488880e-01 9.241908e-01 8.251318e-01 9.986531e-01 9.975750e-01 9.976948e-01 1.218483e+00 6.297087e-05
<GCONST> 6.181412e+01
<MIXTURE> 96 7.034694e-03
<MEAN> 25
 -4.635887e+00 -1.365671e-01 -1.957994e+00 5.150635e+00 3.708400e+00 1.680039e+00 3.490930e+00 2.110034e+00 2.663131e+00 8.429651e-01 7.993033e-01 2.428510e+00 -2.516718e-02 7.975105e-02 1.761823e-01 4.104142e-01 5.528205e-01 5.060534e-01 2.011637e-01 -5.663861e-02 -4.540583e-01 -6.031886e-01 -5.215505e-01 -2.886498e-01 -7.431688e-05
<VARIANCE> 25
 1.178678e+01 9.865347e+00 1.270039e+01 1.319546e+01 1.383637e+01 1.833882e+01 1.683448e+01 1.865902e+01 1.751248e+01 1.529329e+01 1.931088e+01 1.499637e+01 1.253247e-01 2.042355e-01 3.276812e-01 3.823954e-01 4.665300e-01 6.159403e-01 9.190159e-01 9.830188e-01 9.222870e-01 8.503618e-01 8.744908e-01 9.613226e-01 1.040313e-06
<GCONST> 5.708582e+01
<MIXTURE> 97 7.034694e-03
<MEAN> 25
 -4.635887e+00 -1.365671e-01 -1.957994e+00 5.150635e+00 3.708400e+00 1.680039e+00 3.490930e+00 2.110034e+00 2.663131e+00 8.429651e-01 7.993033e-01 2.428510e+00 -2.516718e-02 7.975105e-02 1.761823e-01 4.104142e-01 5.528205e-01 5.060534e-01 2.011637e-01 -5.663861e-02 -4.540583e-01 -6.031886e-01 -5.215505e-01 -2.886498e-01 -7.431688e-05
<VARIANCE> 25
 1.178678e+01 9.865347e+00 1.270039e+01 1.319546e+01 1.383637e+01 1.833882e+01 1.683448e+01 1.865902e+01 1.751248e+01 1.529329e+01 1.931088e+01 1.499637e+01 1.253247e-01 2.042355e-01 3.276812e-01 3.823954e-01 4.665300e-01 6.159403e-01 9.190159e-01 9.830188e-01 9.222870e-01 8.503618e-01 8.744908e-01 9.613226e-01 1.040313e-06
<GCONST> 5.708582e+01
<MIXTURE> 98 9.917808e-03
<MEAN> 25
 -1.159950e+00 1.098326e+00 -2.418878e-01 3.872771e+00 3.300833e+00 2.589702e+00 2.819291e+00 1.330718e+00 1.735660e+00 1.093495e+00 8.758342e-01 9.661505e-01 -1.732867e+00 -1.385926e+00 -7.490427e-01 2.570031e-01 5.713289e-01 5.408164e-01 1.325902e+00 1.412142e+00 1.585209e+00 1.022876e+00 1.268058e+00 8.990866e-01 -3.090066e-02
<VARIANCE> 25
 1.360604e+01 1.902917e+01 2.858748e+01 3.408017e+01 3.907243e+01 3.377452e+01 3.052821e+01 2.734686e+01 2.529796e+01 2.719671e+01 2.439816e+01 2.137510e+01 1.317528e+00 1.499588e+00 2.648082e+00 2.276806e+00 2.643228e+00 3.234145e+00 2.653455e+00 2.530104e+00 2.477019e+00 2.817144e+00 2.524144e+00 2.057735e+00 2.437847e-03
<GCONST> 8.918911e+01
<MIXTURE> 99 6.696178e-03
<MEAN> 25
 -6.688265e+00 9.271829e+00 6.448100e+00 2.993009e+00 9.617383e-01 -4.565415e+00 -1.910969e+00 -4.091923e+00 -3.291844e+00 -3.962373e+00 -9.166059e-01 1.079548e+00 5.564948e-01 -7.634718e-01 4.412165e-01 -3.733030e-01 -1.250972e+00 -5.699754e-01 -3.676644e-01 -2.552624e-01 -8.517235e-02 -1.245521e-02 1.799672e-01 1.502060e-01 1.171887e-02
<VARIANCE> 25
 3.733203e+01 2.634305e+01 4.351407e+01 3.082125e+01 3.330508e+01 3.573146e+01 2.595238e+01 2.683693e+01 2.622586e+01 2.599390e+01 2.646476e+01 3.277639e+01 2.224369e+00 1.810168e+00 1.584146e+00 1.654421e+00 3.194706e+00 2.111607e+00 1.563998e+00 1.527025e+00 1.434945e+00 1.576081e+00 1.306052e+00 1.207586e+00 1.479346e-03
<GCONST> 8.684864e+01
<MIXTURE> 100 4.498084e-03
<MEAN> 25
 -1.638706e+00 6.238070e+00 1.028162e+01 -7.398097e+00 -1.081498e+01 -5.135072e+00 -4.966349e+00 -9.947035e+00 -4.744720e+00 -8.927283e-01 -2.661479e+00 -2.649258e+00 2.934127e+00 -1.293368e+00 1.320728e+00 -2.165591e+00 -3.431033e+00 -8.243377e-01 -1.222811e+00 -7.979844e-01 -1.497933e+00 3.508341e-01 -1.634174e+00 -3.260626e-01 2.894018e-03
<VARIANCE> 25
 1.363201e+01 2.189868e+01 2.222841e+01 2.653839e+01 2.288042e+01 2.380764e+01 2.886266e+01 2.152354e+01 2.725979e+01 2.254546e+01 2.265590e+01 2.144097e+01 1.804749e+00 4.013295e+00 2.930744e+00 4.279922e+00 4.152996e+00 4.640377e+00 3.974765e+00 4.339045e+00 4.171012e+00 3.856688e+00 3.912090e+00 3.339259e+00 1.729071e-03
<GCONST> 9.266747e+01
<MIXTURE> 101 6.007792e-03
<MEAN> 25
 8.094897e+00 -3.489146e+00 -6.312630e+00 -6.867782e+00 8.467517e-01 -1.257637e+00 -1.058777e+01 -2.059031e+00 1.621540e+00 2.714732e+00 -2.387642e+00 -5.142377e+00 6.734339e-01 6.510245e-01 -1.456677e+00 -1.610532e+00 1.032341e+00 2.318335e+00 1.970318e-01 -1.460346e+00 -1.064694e+00 1.036531e+00 1.373280e+00 -4.152006e-01 -4.806932e-03
<VARIANCE> 25
 9.277400e+00 1.672151e+01 2.983759e+01 4.278817e+01 3.622046e+01 3.581600e+01 3.704068e+01 3.622157e+01 3.786760e+01 4.398306e+01 5.177235e+01 2.422990e+01 2.938579e-01 6.695024e-01 1.172885e+00 1.551515e+00 1.687529e+00 2.096915e+00 2.086064e+00 1.992942e+00 2.349418e+00 2.216515e+00 1.785921e+00 1.935873e+00 3.455206e-04
<GCONST> 8.364683e+01
<MIXTURE> 102 6.007792e-03
<MEAN> 25
 8.094897e+00 -3.489146e+00 -6.312630e+00 -6.867782e+00 8.467517e-01 -1.257637e+00 -1.058777e+01 -2.059031e+00 1.621540e+00 2.714732e+00 -2.387642e+00 -5.142377e+00 6.734339e-01 6.510245e-01 -1.456677e+00 -1.610532e+00 1.032341e+00 2.318335e+00 1.970318e-01 -1.460346e+00 -1.064694e+00 1.036531e+00 1.373280e+00 -4.152006e-01 -4.806932e-03
<VARIANCE> 25
 9.277400e+00 1.672151e+01 2.983759e+01 4.278817e+01 3.622046e+01 3.581600e+01 3.704068e+01 3.622157e+01 3.786760e+01 4.398306e+01 5.177235e+01 2.422990e+01 2.938579e-01 6.695024e-01 1.172885e+00 1.551515e+00 1.687529e+00 2.096915e+00 2.086064e+00 1.992942e+00 2.349418e+00 2.216515e+00 1.785921e+00 1.935873e+00 3.455206e-04
<GCONST> 8.364683e+01
<MIXTURE> 103 5.694618e-03
<MEAN> 25
 3.369006e+00 -9.472181e+00 -6.133617e+00 -3.098768e+00 -1.328443e+00 -1.964319e+00 2.418173e+00 2.504360e+00 -4.608371e+00 -9.230292e+00 -5.056349e+00 3.654716e-01 -1.577546e-01 -1.486887e+00 -9.777582e-01 3.744388e-01 1.210435e+00 1.021249e+00 1.610897e-01 -2.709055e-01 -7.844282e-01 -9.437014e-01 -3.458068e-02 1.197083e-01 2.696357e-02
<VARIANCE> 25
 1.033753e+01 2.034046e+01 2.287185e+01 3.171549e+01 4.795621e+01 3.495848e+01 4.663105e+01 3.668165e+01 4.204769e+01 2.966334e+01 3.002835e+01 2.637978e+01 6.431472e-01 1.251950e+00 1.539233e+00 1.938156e+00 2.927433e+00 2.411250e+00 2.889114e+00 2.581457e+00 2.569041e+00 2.523397e+00 2.100821e+00 2.014977e+00 8.123494e-04
<GCONST> 8.759090e+01
<MIXTURE> 104 5.694618e-03
<MEAN> 25
 3.369006e+00 -9.472181e+00 -6.133617e+00 -3.098768e+00 -1.328443e+00 -1.964319e+00 2.418173e+00 2.504360e+00 -4.608371e+00 -9.230292e+00 -5.056349e+00 3.654716e-01 -1.577546e-01 -1.486887e+00 -9.777582e-01 3.744388e-01 1.210435e+00 1.021249e+00 1.610897e-01 -2.709055e-01 -7.844282e-01 -9.437014e-01 -3.458068e-02 1.197083e-01 2.696357e-02
<VARIANCE> 25
 1.033753e+01 2.034046e+01 2.287185e+01 3.171549e+01 4.795621e+01 3.495848e+01 4.663105e+01 3.668165e+01 4.204769e+01 2.966334e+01 3.002835e+01 2.637978e+01 6.431472e-01 1.251950e+00 1.539233e+00 1.938156e+00 2.927433e+00 2.411250e+00 2.889114e+00 2.581457e+00 2.569041e+00 2.523397e+00 2.100821e+00 2.014977e+00 8.123494e-04
<GCONST> 8.759090e+01
<MIXTURE> 105 4.710235e-03
<MEAN> 25
 2.219785e+00 -1.481365e+00 9.205025e+00 -2.664036e+00 -1.154896e+01 -5.009015e+00 -4.160166e+00 -7.676792e-01 -3.795556e+00 -3.198408e+00 1.509315e+00 -1.159204e+00 8.112280e-03 2.937120e-02 4.731445e-02 -4.582250e-02 5.593378e-03 4.397300e-02 -1.419261e-02 4.808068e-02 -3.830589e-02 2.730499e-02 2.841579e-02 -2.838228e-02 -2.240102e-03
<VARIANCE> 25
 1.329019e+01 2.854654e+01 4.112621e+01 4.494093e+01 3.835572e+01 5.350157e+01 4.105399e+01 4.321853e+01 3.972863e+01 4.186442e+01 4.178127e+01 3.064332e+01 8.403327e-02 1.861120e-01 3.420413e-01 2.910595e-01 3.724866e-01 4.319421e-01 4.727091e-01 4.917363e-01 4.926134e-01 4.407081e-01 4.202024e-01 3.973545e-01 8.977475e-05
<GCONST> 6.669996e+01
<MIXTURE> 106 4.710235e-03
<MEAN> 25
 2.219785e+00 -1.481365e+00 9.205025e+00 -2.664036e+00 -1.154896e+01 -5.009015e+00 -4.160166e+00 -7.676792e-01 -3.795556e+00 -3.198408e+00 1.509315e+00 -1.159204e+00 8.112280e-03 2.937120e-02 4.731445e-02 -4.582250e-02 5.593378e-03 4.397300e-02 -1.419261e-02 4.808068e-02 -3.830589e-02 2.730499e-02 2.841579e-02 -2.838228e-02 -2.240102e-03
<VARIANCE> 25
 1.329019e+01 2.854654e+01 4.112621e+01 4.494093e+01 3.835572e+01 5.350157e+01 4.105399e+01 4.321853e+01 3.972863e+01 4.186442e+01 4.178127e+01 3.064332e+01 8.403327e-02 1.861120e-01 3.420413e-01 2.910595e-01 3.724866e-01 4.319421e-01 4.727091e-01 4.917363e-01 4.926134e-01 4.407081e-01 4.202024e-01 3.973545e-01 8.977475e-05
<GCONST> 6.669996e+01
<MIXTURE> 107 5.452374e-03
<MEAN> 25
 8.410655e+00 -2.364509e+00 -7.818123e+00 -9.563269e+00 1.956981e+00 3.004178e+00 -8.582417e+00 -4.508050e+00 -9.225596e-01 3.490013e+00 5.807784e-01 -4.587844e+00 -5.986263e-01 -7.635947e-01 8.280968e-01 1.712615e+00 2.071833e-01 -1.990739e+00 -8.506829e-01 7.975678e-01 1.779015e+00 3.777082e-02 -1.590819e+00 -7.743582e-01 -3.267790e-03
<VARIANCE> 25
 9.974511e+00 2.014823e+01 2.827502e+01 4.152312e+01 3.436514e+01 3.720572e+01 4.954355e+01 3.495020e+01 4.460160e+01 4.051794e+01 5.175978e+01 3.424464e+01 3.546080e-01 9.411734e-01 1.412702e+00 2.414634e+00 2.242644e+00 2.791348e+00 2.712135e+00 2.499768e+00 2.212131e+00 2.910267e+00 1.967639e+00 2.357205e+00 7.330208e-04
<GCONST> 8.796420e+01
<MIXTURE> 108 5.452374e-03
<MEAN> 25
 8.410655e+00 -2.364509e+00 -7.818123e+00 -9.563269e+00 1.956981e+00 3.004178e+00 -8.582417e+00 -4.508050e+00 -9.225596e-01 3.490013e+00 5.807784e-01 -4.587844e+00 -5.986263e-01 -7.635947e-01 8.280968e-01 1.712615e+00 2.071833e-01 -1.990739e+00 -8.506829e-01 7.975678e-01 1.779015e+00 3.777082e-02 -1.590819e+00 -7.743582e-01 -3.267790e-03
<VARIANCE> 25
 9.974511e+00 2.014823e+01 2.827502e+01 4.152312e+01 3.436514e+01 3.720572e+01 4.954355e+01 3.495020e+01 4.460160e+01 4.051794e+01 5.175978e+01 3.424464e+01 3.546080e-01 9.411734e-01 1.412702e+00 2.414634e+00 2.242644e+00 2.791348e+00 2.712135e+00 2.499768e+00 2.212131e+00 2.910267e+00 1.967639e+00 2.357205e+00 7.330208e-04
<GCONST> 8.796420e+01
<MIXTURE> 109 6.661064e-03
<MEAN> 25
 4.067214e+00 -1.048463e+01 -8.259779e+00 -1.374620e+00 2.746719e+00 -3.412717e-02 -8.797634e-02 1.439685e+00 -2.557424e+00 -8.295908e+00 -5.380530e+00 8.059119e-02 -3.457693e-02 -1.348477e-01 -2.999731e-02 2.492143e-01 1.951386e-01 1.101945e-01 -1.234515e-01 -1.074337e-01 -3.160671e-02 -1.319320e-01 2.170831e-01 1.387119e-02 -3.656385e-03
<VARIANCE> 25
 9.055634e+00 1.872358e+01 2.018165e+01 3.144184e+01 4.054980e+01 3.656858e+01 4.645300e+01 3.419687e+01 4.580594e+01 3.610639e+01 2.944647e+01 2.815956e+01 1.937613e-01 4.254120e-01 5.374491e-01 6.334406e-01 1.229391e+00 1.006506e+00 1.258072e+00 1.089593e+00 1.130900e+00 9.484846e-01 8.783363e-01 8.925067e-01 1.846478e-04
<GCONST> 7.452134e+01
<MIXTURE> 110 6.661064e-03
<MEAN> 25
 4.067214e+00 -1.048463e+01 -8.259779e+00 -1.374620e+00 2.746719e+00 -3.412717e-02 -8.797634e-02 1.439685e+00 -2.557424e+00 -8.295908e+00 -5.380530e+00 8.059119e-02 -3.457693e-02 -1.348477e-01 -2.999731e-02 2.492143e-01 1.951386e-01 1.101945e-01 -1.234515e-01 -1.074337e-01 -3.160671e-02 -1.319320e-01 2.170831e-01 1.387119e-02 -3.656385e-03
<VARIANCE> 25
 9.055634e+00 1.872358e+01 2.018165e+01 3.144184e+01 4.054980e+01 3.656858e+01 4.645300e+01 3.419687e+01 4.580594e+01 3.610639e+01 2.944647e+01 2.815956e+01 1.937613e-01 4.254120e-01 5.374491e-01 6.334406e-01 1.229391e+00 1.006506e+00 1.258072e+00 1.089593e+00 1.130900e+00 9.484846e-01 8.783363e-01 8.925067e-01 1.846478e-04
<GCONST> 7.452134e+01
<MIXTURE> 111 4.337247e-03
<MEAN> 25
 -2.868088e+00 2.415457e-01 -9.995219e-01 1.932031e+00 1.082414e+00 4.355004e-01 3.295867e-01 2.871681e-01 4.133744e-01 -8.818919e-01 -8.423819e-01 7.217997e-01 -2.514344e-02 1.612526e-02 -9.363494e-02 -1.301899e-01 -7.089882e-03 1.187913e-01 1.235339e-01 -1.401326e-01 -4.099412e-01 -3.606949e-01 -1.508878e-01 -1.350218e-01 -8.769456e-04
<VARIANCE> 25
 8.481345e+00 5.483690e+00 8.003866e+00 8.372046e+00 1.062260e+01 1.634152e+01 1.202269e+01 1.315964e+01 9.521229e+00 1.104826e+01 1.054918e+01 1.185042e+01 9.753343e-02 1.555472e-01 2.791824e-01 3.908011e-01 5.919245e-01 6.276729e-01 8.347973e-01 9.184626e-01 8.929661e-01 9.469894e-01 7.638975e-01 8.805591e-01 3.336129e-05
<GCONST> 5.516441e+01
<MIXTURE> 112 4.337247e-03
<MEAN> 25
 -2.868088e+00 2.415457e-01 -9.995219e-01 1.932031e+00 1.082414e+00 4.355004e-01 3.295867e-01 2.871681e-01 4.133744e-01 -8.818919e-01 -8.423819e-01 7.217997e-01 -2.514344e-02 1.612526e-02 -9.363494e-02 -1.301899e-01 -7.089882e-03 1.187913e-01 1.235339e-01 -1.401326e-01 -4.099412e-01 -3.606949e-01 -1.508878e-01 -1.350218e-01 -8.769456e-04
<VARIANCE> 25
 8.481345e+00 5.483690e+00 8.003866e+00 8.372046e+00 1.062260e+01 1.634152e+01 1.202269e+01 1.315964e+01 9.521229e+00 1.104826e+01 1.054918e+01 1.185042e+01 9.753343e-02 1.555472e-01 2.791824e-01 3.908011e-01 5.919245e-01 6.276729e-01 8.347973e-01 9.184626e-01 8.929661e-01 9.469894e-01 7.638975e-01 8.805591e-01 3.336129e-05
<GCONST> 5.516441e+01
<MIXTURE> 113 5.938666e-03
<MEAN> 25
 9.977542e+00 1.754353e+00 -8.780602e+00 -1.704741e+01 -1.033927e+00 5.659309e+00 -5.281958e+00 -1.466570e+00 -5.695907e+00 -4.933439e-01 2.990381e-01 -1.963631e-01 4.769892e-03 1.375015e-02 -5.940518e-02 -1.132729e-01 1.042725e-01 1.505363e-01 5.929793e-02 3.596456e-02 -5.665727e-02 -5.114365e-02 1.795987e-01 3.503161e-02 -1.415826e-03
<VARIANCE> 25
 8.874621e+00 1.639252e+01 2.967577e+01 3.419587e+01 5.273132e+01 3.386188e+01 3.971271e+01 3.913913e+01 3.737313e+01 4.640263e+01 3.630174e+01 2.844850e+01 1.217958e-01 3.206466e-01 3.161807e-01 6.315006e-01 6.128212e-01 6.540115e-01 7.765158e-01 8.451421e-01 9.599774e-01 9.053068e-01 7.244858e-01 7.143716e-01 1.249461e-04
<GCONST> 7.110793e+01
<MIXTURE> 114 5.938666e-03
<MEAN> 25
 9.977542e+00 1.754353e+00 -8.780602e+00 -1.704741e+01 -1.033927e+00 5.659309e+00 -5.281958e+00 -1.466570e+00 -5.695907e+00 -4.933439e-01 2.990381e-01 -1.963631e-01 4.769892e-03 1.375015e-02 -5.940518e-02 -1.132729e-01 1.042725e-01 1.505363e-01 5.929793e-02 3.596456e-02 -5.665727e-02 -5.114365e-02 1.795987e-01 3.503161e-02 -1.415826e-03
<VARIANCE> 25
 8.874621e+00 1.639252e+01 2.967577e+01 3.419587e+01 5.273132e+01 3.386188e+01 3.971271e+01 3.913913e+01 3.737313e+01 4.640263e+01 3.630174e+01 2.844850e+01 1.217958e-01 3.206466e-01 3.161807e-01 6.315006e-01 6.128212e-01 6.540115e-01 7.765158e-01 8.451421e-01 9.599774e-01 9.053068e-01 7.244858e-01 7.143716e-01 1.249461e-04
<GCONST> 7.110793e+01
<MIXTURE> 115 2.935202e-03
<MEAN> 25
 -3.789036e+00 -3.331360e-01 -2.571187e+00 3.462975e+00 2.212393e+00 -4.952988e-01 2.173933e+00 5.382062e-01 1.551244e+00 -1.319919e-01 2.754825e-02 2.299240e+00 -2.345214e-02 -1.100124e-01 -2.262729e-01 -4.427104e-01 -6.163095e-01 -6.553764e-01 -6.240550e-01 -6.041801e-01 -5.136433e-01 -3.851764e-01 -3.244133e-01 -1.546848e-01 -2.629609e-05
<VARIANCE> 25
 8.962355e+00 1.018465e+01 1.408886e+01 1.194476e+01 1.235227e+01 1.600787e+01 1.615145e+01 1.942745e+01 1.659397e+01 1.716097e+01 1.730127e+01 1.422163e+01 2.205696e-01 3.601936e-01 4.720249e-01 5.264403e-01 5.863140e-01 7.500203e-01 9.413734e-01 1.230111e+00 1.019783e+00 1.050216e+00 9.374413e-01 9.636713e-01 1.128882e-06
<GCONST> 5.945219e+01
<MIXTURE> 116 2.935202e-03
<MEAN> 25
 -3.789036e+00 -3.331360e-01 -2.571187e+00 3.462975e+00 2.212393e+00 -4.952988e-01 2.173933e+00 5.382062e-01 1.551244e+00 -1.319919e-01 2.754825e-02 2.299240e+00 -2.345214e-02 -1.100124e-01 -2.262729e-01 -4.427104e-01 -6.163095e-01 -6.553764e-01 -6.240550e-01 -6.041801e-01 -5.136433e-01 -3.851764e-01 -3.244133e-01 -1.546848e-01 -2.629609e-05
<VARIANCE> 25
 8.962355e+00 1.018465e+01 1.408886e+01 1.194476e+01 1.235227e+01 1.600787e+01 1.615145e+01 1.942745e+01 1.659397e+01 1.716097e+01 1.730127e+01 1.422163e+01 2.205696e-01 3.601936e-01 4.720249e-01 5.264403e-01 5.863140e-01 7.500203e-01 9.413734e-01 1.230111e+00 1.019783e+00 1.050216e+00 9.374413e-01 9.636713e-01 1.128882e-06
<GCONST> 5.945219e+01
<MIXTURE> 117 6.506003e-03
<MEAN> 25
 -4.639498e+00 1.120075e+00 1.054703e+00 9.752253e+00 6.254028e+00 6.249014e+00 6.459800e+00 5.044463e+00 6.382540e+00 4.921218e+00 6.357688e+00 2.706564e+00 -7.506376e-02 -2.339950e-01 -3.578787e-01 -4.192664e-01 -3.670906e-01 -3.023798e-01 -2.876476e-01 -3.311411e-01 -3.916686e-01 -3.688056e-01 -2.629771e-01 -1.156916e-01 -9.835605e-06
<VARIANCE> 25
 7.199345e+00 8.748059e+00 9.798046e+00 1.432845e+01 1.562874e+01 1.537851e+01 1.771907e+01 1.794163e+01 1.639558e+01 1.640703e+01 1.679532e+01 1.475164e+01 2.165668e-01 3.072262e-01 4.262613e-01 6.169379e-01 8.533403e-01 1.055282e+00 1.178738e+00 1.234136e+00 1.223066e+00 1.194151e+00 1.165960e+00 1.112938e+00 1.001723e-06
<GCONST> 6.043507e+01
<MIXTURE> 118 6.506003e-03
<MEAN> 25
 -4.639498e+00 1.120075e+00 1.054703e+00 9.752253e+00 6.254028e+00 6.249014e+00 6.459800e+00 5.044463e+00 6.382540e+00 4.921218e+00 6.357688e+00 2.706564e+00 -7.506376e-02 -2.339950e-01 -3.578787e-01 -4.192664e-01 -3.670906e-01 -3.023798e-01 -2.876476e-01 -3.311411e-01 -3.916686e-01 -3.688056e-01 -2.629771e-01 -1.156916e-01 -9.835605e-06
<VARIANCE> 25
 7.199345e+00 8.748059e+00 9.798046e+00 1.432845e+01 1.562874e+01 1.537851e+01 1.771907e+01 1.794163e+01 1.639558e+01 1.640703e+01 1.679532e+01 1.475164e+01 2.165668e-01 3.072262e-01 4.262613e-01 6.169379e-01 8.533403e-01 1.055282e+00 1.178738e+00 1.234136e+00 1.223066e+00 1.194151e+00 1.165960e+00 1.112938e+00 1.001723e-06
<GCONST> 6.043507e+01
<MIXTURE> 119 4.297961e-03
<MEAN> 25
 -4.944670e+00 -7.556849e+00 2.163602e+00 2.037524e+00 2.008833e+00 1.853501e-01 5.272251e+00 5.994197e+00 1.203224e+00 9.903550e-01 6.360566e+00 1.515153e+00 -2.519482e-02 -7.184467e-02 3.820554e-02 -7.774734e-02 -1.486350e-01 -1.756391e-01 -7.769443e-02 -2.780960e-02 -9.852617e-02 -1.652023e-01 -8.240018e-02 -6.723881e-02 9.125843e-04
<VARIANCE> 25
 8.337292e+00 1.000012e+01 1.623359e+01 1.953072e+01 2.364951e+01 2.240242e+01 2.417566e+01 2.588723e+01 2.417706e+01 2.713972e+01 2.137783e+01 1.981057e+01 1.750617e-01 2.747361e-01 4.558291e-01 6.321793e-01 7.940497e-01 9.719865e-01 1.082791e+00 1.243833e+00 1.246491e+00 1.297593e+00 1.195338e+00 1.078474e+00 2.295527e-04
<GCONST> 6.949129e+01
<MIXTURE> 120 4.297961e-03
<MEAN> 25
 -4.944670e+00 -7.556849e+00 2.163602e+00 2.037524e+00 2.008833e+00 1.853501e-01 5.272251e+00 5.994197e+00 1.203224e+00 9.903550e-01 6.360566e+00 1.515153e+00 -2.519482e-02 -7.184467e-02 3.820554e-02 -7.774734e-02 -1.486350e-01 -1.756391e-01 -7.769443e-02 -2.780960e-02 -9.852617e-02 -1.652023e-01 -8.240018e-02 -6.723881e-02 9.125843e-04
<VARIANCE> 25
 8.337292e+00 1.000012e+01 1.623359e+01 1.953072e+01 2.364951e+01 2.240242e+01 2.417566e+01 2.588723e+01 2.417706e+01 2.713972e+01 2.137783e+01 1.981057e+01 1.750617e-01 2.747361e-01 4.558291e-01 6.321793e-01 7.940497e-01 9.719865e-01 1.082791e+00 1.243833e+00 1.246491e+00 1.297593e+00 1.195338e+00 1.078474e+00 2.295527e-04
<GCONST> 6.949129e+01
<MIXTURE> 121 4.567511e-03
<MEAN> 25
 2.078331e-01 -2.521729e+00 5.150094e+00 -1.289580e+01 -1.263775e+01 -1.663556e+00 9.975680e-01 -5.105692e+00 -4.196149e+00 -4.893284e-01 -5.507277e+00 -4.309204e+00 2.428802e-02 1.321557e-01 -4.123363e-02 7.989662e-02 1.583107e-01 7.807542e-02 -7.967501e-02 -1.830307e-01 -2.677827e-01 -2.574793e-01 -1.144302e-01 7.600117e-04 -7.445501e-03
<VARIANCE> 25
 7.731926e+00 1.560954e+01 1.728012e+01 2.043157e+01 2.451460e+01 2.923585e+01 2.952802e+01 2.456888e+01 3.528160e+01 2.834868e+01 1.973660e+01 2.120168e+01 1.552372e-01 6.433905e-01 6.227846e-01 7.047352e-01 7.702895e-01 1.149838e+00 1.119659e+00 1.120676e+00 1.218442e+00 1.192212e+00 9.410027e-01 8.720776e-01 2.109766e-04
<GCONST> 7.140302e+01
<MIXTURE> 122 4.567511e-03
<MEAN> 25
 2.078331e-01 -2.521729e+00 5.150094e+00 -1.289580e+01 -1.263775e+01 -1.663556e+00 9.975680e-01 -5.105692e+00 -4.196149e+00 -4.893284e-01 -5.507277e+00 -4.309204e+00 2.428802e-02 1.321557e-01 -4.123363e-02 7.989662e-02 1.583107e-01 7.807542e-02 -7.967501e-02 -1.830307e-01 -2.677827e-01 -2.574793e-01 -1.144302e-01 7.600117e-04 -7.445501e-03
<VARIANCE> 25
 7.731926e+00 1.560954e+01 1.728012e+01 2.043157e+01 2.451460e+01 2.923585e+01 2.952802e+01 2.456888e+01 3.528160e+01 2.834868e+01 1.973660e+01 2.120168e+01 1.552372e-01 6.433905e-01 6.227846e-01 7.047352e-01 7.702895e-01 1.149838e+00 1.119659e+00 1.120676e+00 1.218442e+00 1.192212e+00 9.410027e-01 8.720776e-01 2.109766e-04
<GCONST> 7.140302e+01
<MIXTURE> 123 4.393044e-03
<MEAN> 25
 -2.985845e+00 1.772142e+00 5.619066e-01 5.707491e+00 4.210206e+00 2.450097e+00 2.244045e+00 -2.907665e-01 8.174306e-01 -9.440957e-01 -3.648514e-01 8.495055e-01 -3.626844e-01 -6.665573e-01 -6.485795e-01 -5.361407e-01 -3.206479e-01 4.604606e-02 2.695552e-01 6.198184e-01 4.810121e-01 6.144276e-01 6.948607e-01 3.919127e-01 -2.546716e-03
<VARIANCE> 25
 9.576671e+00 8.284335e+00 1.242978e+01 1.386496e+01 1.810633e+01 2.098295e+01 2.093532e+01 2.217263e+01 1.603335e+01 1.546605e+01 1.749996e+01 1.780743e+01 3.414416e-01 3.626665e-01 4.928775e-01 5.695095e-01 8.992736e-01 9.276632e-01 1.226411e+00 1.199788e+00 1.118093e+00 1.164001e+00 1.411733e+00 9.868324e-01 1.125638e-04
<GCONST> 6.715421e+01
<MIXTURE> 124 4.069876e-03
<MEAN> 25
 -6.263540e+00 -1.024549e+00 -2.788700e+00 5.050539e+00 4.894774e+00 3.286282e+00 5.285942e+00 2.591848e+00 3.162995e+00 1.151579e+00 1.035532e+00 3.003047e+00 -2.048830e-01 -3.179381e-01 -3.617884e-01 -2.067100e-01 1.267157e-01 5.108225e-01 8.037289e-01 8.509098e-01 6.026133e-01 2.957191e-01 9.179840e-02 -1.455283e-02 -8.226103e-05
<VARIANCE> 25
 1.232455e+01 7.414323e+00 1.107439e+01 1.206976e+01 1.196729e+01 1.939775e+01 1.540517e+01 1.646079e+01 1.494389e+01 1.592069e+01 1.902186e+01 1.432694e+01 1.045979e-01 1.653283e-01 2.677419e-01 4.084524e-01 6.108060e-01 7.288942e-01 7.312182e-01 7.970448e-01 9.378594e-01 1.003577e+00 1.020245e+00 1.006757e+00 1.895765e-05
<GCONST> 5.889318e+01
<MIXTURE> 125 4.069876e-03
<MEAN> 25
 -6.263540e+00 -1.024549e+00 -2.788700e+00 5.050539e+00 4.894774e+00 3.286282e+00 5.285942e+00 2.591848e+00 3.162995e+00 1.151579e+00 1.035532e+00 3.003047e+00 -2.048830e-01 -3.179381e-01 -3.617884e-01 -2.067100e-01 1.267157e-01 5.108225e-01 8.037289e-01 8.509098e-01 6.026133e-01 2.957191e-01 9.179840e-02 -1.455283e-02 -8.226103e-05
<VARIANCE> 25
 1.232455e+01 7.414323e+00 1.107439e+01 1.206976e+01 1.196729e+01 1.939775e+01 1.540517e+01 1.646079e+01 1.494389e+01 1.592069e+01 1.902186e+01 1.432694e+01 1.045979e-01 1.653283e-01 2.677419e-01 4.084524e-01 6.108060e-01 7.288942e-01 7.312182e-01 7.970448e-01 9.378594e-01 1.003577e+00 1.020245e+00 1.006757e+00 1.895765e-05
<GCONST> 5.889318e+01
<MIXTURE> 126 2.402244e-03
<MEAN> 25
 -3.633747e+00 -6.618326e+00 -5.113498e+00 2.336854e+00 4.078931e+00 -3.135247e+00 1.575672e-01 3.534981e+00 3.263403e+00 -2.695921e+00 -1.419923e+00 2.895423e+00 5.338783e-04 1.835579e-04 -4.020646e-02 -1.604771e-01 -3.208023e-01 -4.064529e-01 -2.788082e-01 -1.566783e-01 -1.070027e-01 -1.345396e-01 -1.103487e-01 -2.815888e-02 -2.218797e-03
<VARIANCE> 25
 7.826764e+00 1.465498e+01 1.396013e+01 1.460905e+01 2.467983e+01 2.288974e+01 2.216134e+01 2.774873e+01 3.012432e+01 2.538282e+01 2.107432e+01 1.900261e+01 1.742425e-01 3.454624e-01 4.712484e-01 5.664645e-01 7.561352e-01 9.720671e-01 1.107189e+00 1.238797e+00 1.305340e+00 1.305112e+00 1.223606e+00 1.130479e+00 2.198774e-04
<GCONST> 6.970932e+01
<MIXTURE> 127 2.402244e-03
<MEAN> 25
 -3.633747e+00 -6.618326e+00 -5.113498e+00 2.336854e+00 4.078931e+00 -3.135247e+00 1.575672e-01 3.534981e+00 3.263403e+00 -2.695921e+00 -1.419923e+00 2.895423e+00 5.338783e-04 1.835579e-04 -4.020646e-02 -1.604771e-01 -3.208023e-01 -4.064529e-01 -2.788082e-01 -1.566783e-01 -1.070027e-01 -1.345396e-01 -1.103487e-01 -2.815888e-02 -2.218797e-03
<VARIANCE> 25
 7.826764e+00 1.465498e+01 1.396013e+01 1.460905e+01 2.467983e+01 2.288974e+01 2.216134e+01 2.774873e+01 3.012432e+01 2.538282e+01 2.107432e+01 1.900261e+01 1.742425e-01 3.454624e-01 4.712484e-01 5.664645e-01 7.561352e-01 9.720671e-01 1.107189e+00 1.238797e+00 1.305340e+00 1.305112e+00 1.223606e+00 1.130479e+00 2.198774e-04
<GCONST> 6.970932e+01
<MIXTURE> 128 3.790457e-03
<MEAN> 25
 -3.926478e+00 1.545687e+00 -3.359703e-01 6.572763e+00 3.617671e+00 1.855292e+00 3.576005e+00 2.375693e+00 3.966068e+00 3.694175e+00 3.759757e+00 3.518902e+00 -3.954454e-01 -1.969088e-01 9.781815e-02 7.263968e-01 1.183849e+00 1.134075e+00 7.162380e-01 1.319592e-01 -4.390035e-01 -7.866989e-01 -7.007630e-01 -3.927469e-01 -3.740495e-05
<VARIANCE> 25
 1.021478e+01 1.168794e+01 1.497575e+01 1.929174e+01 2.001697e+01 2.116162e+01 2.427551e+01 2.464672e+01 2.638213e+01 2.386129e+01 2.683093e+01 1.820184e+01 8.913736e-01 1.144705e+00 1.364225e+00 1.500614e+00 1.578907e+00 1.861636e+00 2.248287e+00 2.323882e+00 2.144723e+00 1.856350e+00 1.743119e+00 1.747558e+00 1.000833e-06
<GCONST> 7.362339e+01
<TRANSP> 3
 0.000000e+00 1.000000e+00 0.000000e+00
 0.000000e+00 9.999990e-01 9.999998e-07
 0.000000e+00 0.000000e+00 0.000000e+00
<ENDHMM>
