~o
<STREAMINFO> 1 25
<VECSIZE> 25<NULLD><MFCC_E_D_N><DIAGC>
~h "jmodel"
<BEGINHMM>
<NUMSTATES> 3
<STATE> 2
<NUMMIXES> 128
<MIXTURE> 1 5.748963e-03
<MEAN> 25
 -2.654348e+00 3.107008e+00 2.236565e+00 8.565182e+00 4.258815e+00 3.275715e+00 4.067961e+00 3.919038e+00 5.781096e+00 5.049795e+00 5.747854e+00 3.227016e+00 -2.016433e+00 -1.540937e+00 -8.595698e-01 1.058521e+00 1.536269e+00 2.234110e+00 2.142619e+00 2.020243e+00 1.670661e+00 1.242699e+00 1.607019e+00 6.031474e-01 -4.650491e-02
<VARIANCE> 25
 1.035194e+01 1.159000e+01 1.497759e+01 1.924319e+01 2.290883e+01 2.247093e+01 2.184761e+01 2.205816e+01 2.096933e+01 2.355977e+01 2.129383e+01 1.768118e+01 1.814856e+00 2.316306e+00 2.975897e+00 3.139750e+00 3.648196e+00 3.312673e+00 3.265946e+00 3.405513e+00 3.464529e+00 3.668175e+00 3.647464e+00 2.835640e+00 3.093015e-03
<GCONST> 8.862455e+01
<MIXTURE> 2 4.549242e-03
<MEAN> 25
 -4.867458e+00 1.315011e+00 9.847828e-01 9.893599e+00 6.689163e+00 7.413728e+00 7.846229e+00 6.953619e+00 8.374333e+00 6.363901e+00 7.606431e+00 3.074008e+00 -6.199474e-02 4.151246e-02 1.424340e-01 2.265210e-01 2.646116e-01 2.788824e-01 2.949082e-01 3.189642e-01 3.497205e-01 3.084148e-01 1.962213e-01 7.934605e-02 2.632547e-06
<VARIANCE> 25
 6.974035e+00 8.900643e+00 1.068096e+01 1.590566e+01 1.721512e+01 1.560020e+01 1.687417e+01 1.846206e+01 1.657136e+01 1.740103e+01 1.825617e+01 1.432894e+01 1.251909e-01 2.263582e-01 3.363839e-01 4.674673e-01 6.485469e-01 8.214099e-01 9.291587e-01 1.002103e+00 1.050305e+00 1.077627e+00 1.074915e+00 1.012794e+00 1.008987e-06
<GCONST> 5.806355e+01
<MIXTURE> 3 4.549242e-03
<MEAN> 25
 -4.867458e+00 1.315011e+00 9.847828e-01 9.893599e+00 6.689163e+00 7.413728e+00 7.846229e+00 6.953619e+00 8.374333e+00 6.363901e+00 7.606431e+00 3.074008e+00 -6.199474e-02 4.151246e-02 1.424340e-01 2.265210e-01 2.646116e-01 2.788824e-01 2.949082e-01 3.189642e-01 3.497205e-01 3.084148e-01 1.962213e-01 7.934605e-02 2.632547e-06
<VARIANCE> 25
 6.974035e+00 8.900643e+00 1.068096e+01 1.590566e+01 1.721512e+01 1.560020e+01 1.687417e+01 1.846206e+01 1.657136e+01 1.740103e+01 1.825617e+01 1.432894e+01 1.251909e-01 2.263582e-01 3.363839e-01 4.674673e-01 6.485469e-01 8.214099e-01 9.291587e-01 1.002103e+00 1.050305e+00 1.077627e+00 1.074915e+00 1.012794e+00 1.008987e-06
<GCONST> 5.806355e+01
<MIXTURE> 4 1.671429e-02
<MEAN> 25
 2.629463e+00 1.544708e+00 -4.244216e+00 -3.705505e-01 3.650250e+00 -2.245628e-01 1.274018e-01 1.600639e+00 2.905833e+00 1.558738e+00 -3.156956e+00 1.501103e+00 -2.308275e+00 1.549475e+00 1.236429e+00 2.518350e+00 5.592361e-01 3.880963e-01 1.843908e+00 1.370871e+00 1.212451e+00 -4.908030e-02 2.027476e+00 4.218467e-01 -9.059275e-02
<VARIANCE> 25
 1.561493e+01 2.005464e+01 2.127983e+01 2.995070e+01 3.185090e+01 4.362756e+01 4.474614e+01 4.546104e+01 4.371214e+01 4.836390e+01 4.852485e+01 3.522454e+01 2.368021e+00 3.297289e+00 2.593446e+00 4.134336e+00 3.753570e+00 4.754351e+00 5.889061e+00 3.695002e+00 4.371712e+00 4.263548e+00 6.928543e+00 3.769421e+00 4.285825e-03
<GCONST> 9.923042e+01
<MIXTURE> 5 3.206198e-03
<MEAN> 25
 -3.413363e+00 2.187214e+00 5.940006e-01 9.403275e+00 6.686751e+00 6.306482e+00 7.115727e+00 4.729599e+00 5.504714e+00 3.836225e+00 4.625197e+00 2.602757e+00 -3.233266e-01 7.515653e-01 1.222687e+00 1.030222e+00 3.060353e-01 -1.023300e-01 -8.521361e-02 3.413105e-02 4.585738e-01 6.786819e-01 4.042302e-01 9.074551e-02 -2.900508e-05
<VARIANCE> 25
 1.034967e+01 1.390455e+01 2.351939e+01 2.572587e+01 2.018706e+01 1.939417e+01 2.004748e+01 2.033597e+01 2.138412e+01 2.125486e+01 2.433815e+01 1.631523e+01 1.206080e+00 1.240809e+00 1.354653e+00 1.670324e+00 2.278790e+00 2.372769e+00 2.295161e+00 2.268257e+00 2.309502e+00 2.240783e+00 2.088474e+00 1.875939e+00 1.007190e-06
<GCONST> 7.516358e+01
<MIXTURE> 6 5.475854e-03
<MEAN> 25
 8.721007e+00 -8.200694e-01 -6.301231e+00 -1.136338e+01 -1.791931e+00 6.861855e+00 -6.438252e+00 -6.056448e+00 -4.256796e+00 1.595258e+00 5.137733e+00 -1.262106e+00 3.681982e-01 1.030798e+00 -4.839806e-01 -1.561520e+00 -5.004165e-01 1.387499e+00 1.317753e+00 2.756013e-01 -1.229384e+00 -1.250149e+00 4.083852e-01 1.215128e+00 -7.335109e-03
<VARIANCE> 25
 1.177340e+01 1.550100e+01 2.088745e+01 3.573548e+01 3.162462e+01 2.636201e+01 3.975789e+01 3.541954e+01 3.691395e+01 3.556870e+01 3.688554e+01 2.544401e+01 3.448779e-01 9.533688e-01 9.599052e-01 1.818415e+00 1.546501e+00 1.949154e+00 1.830776e+00 1.865858e+00 2.076240e+00 1.964734e+00 2.069070e+00 1.249269e+00 5.131233e-04
<GCONST> 8.232639e+01
<MIXTURE> 7 5.475854e-03
<MEAN> 25
 8.721007e+00 -8.200694e-01 -6.301231e+00 -1.136338e+01 -1.791931e+00 6.861855e+00 -6.438252e+00 -6.056448e+00 -4.256796e+00 1.595258e+00 5.137733e+00 -1.262106e+00 3.681982e-01 1.030798e+00 -4.839806e-01 -1.561520e+00 -5.004165e-01 1.387499e+00 1.317753e+00 2.756013e-01 -1.229384e+00 -1.250149e+00 4.083852e-01 1.215128e+00 -7.335109e-03
<VARIANCE> 25
 1.177340e+01 1.550100e+01 2.088745e+01 3.573548e+01 3.162462e+01 2.636201e+01 3.975789e+01 3.541954e+01 3.691395e+01 3.556870e+01 3.688554e+01 2.544401e+01 3.448779e-01 9.533688e-01 9.599052e-01 1.818415e+00 1.546501e+00 1.949154e+00 1.830776e+00 1.865858e+00 2.076240e+00 1.964734e+00 2.069070e+00 1.249269e+00 5.131233e-04
<GCONST> 8.232639e+01
<MIXTURE> 8 1.165917e-02
<MEAN> 25
 -4.653226e+00 1.382636e+00 1.207269e+00 9.390955e+00 6.458185e+00 6.160825e+00 6.467108e+00 5.558512e+00 6.480069e+00 5.372443e+00 6.284487e+00 3.091825e+00 -6.558709e-01 -1.431153e+00 -9.974197e-01 -1.694115e+00 -2.432822e-01 -9.304157e-01 -2.204917e-01 -3.299840e-01 -2.493875e-01 -1.542735e-01 -2.129056e-01 9.041157e-02 9.743349e-02
<VARIANCE> 25
 9.979915e+00 9.949779e+00 1.144673e+01 1.603114e+01 1.626170e+01 1.577146e+01 1.793901e+01 1.737569e+01 1.730906e+01 1.811899e+01 2.020516e+01 1.367922e+01 2.733032e+00 2.737682e+00 3.873792e+00 3.637826e+00 3.374807e+00 3.307329e+00 3.208783e+00 3.043101e+00 2.815455e+00 2.588881e+00 2.403810e+00 1.916751e+00 6.455893e-03
<GCONST> 8.623701e+01
<MIXTURE> 9 1.199672e-02
<MEAN> 25
 8.250590e+00 3.409605e+00 -6.411743e+00 -9.851151e+00 -1.811155e+00 4.335910e+00 -1.897683e+00 -2.335651e+00 -4.954959e+00 -1.145905e+00 5.210882e-01 1.153986e+00 1.247034e+00 -5.939544e-01 -5.270873e-01 -2.831175e+00 -1.324714e+00 9.958410e-01 -1.272342e+00 -4.082564e-01 -4.803399e-01 -8.670860e-02 3.340288e-01 -9.044097e-02 8.164484e-02
<VARIANCE> 25
 1.319550e+01 1.974679e+01 2.840596e+01 4.869313e+01 4.075748e+01 2.792618e+01 3.837298e+01 4.270047e+01 3.507136e+01 3.444555e+01 2.918788e+01 2.672714e+01 1.919701e+00 2.808902e+00 3.923451e+00 4.177732e+00 4.600502e+00 3.445253e+00 3.764916e+00 5.067269e+00 4.445017e+00 4.101758e+00 3.538013e+00 2.461764e+00 2.244820e-03
<GCONST> 9.609882e+01
<MIXTURE> 10 6.596976e-03
<MEAN> 25
 6.980405e-01 7.357936e+00 5.300754e+00 6.961356e+00 1.419091e+00 -2.115633e+00 -3.372449e-01 -1.568942e+00 7.986540e-01 6.384134e-01 7.734639e-01 7.897475e-01 -1.864647e+00 -5.553359e-01 -5.512590e-01 2.904878e+00 2.416421e+00 2.710993e+00 2.351401e+00 2.197249e+00 1.837629e+00 1.481275e+00 2.273905e+00 6.250843e-01 -1.359611e-01
<VARIANCE> 25
 1.898390e+01 2.109845e+01 2.167395e+01 2.843058e+01 3.708738e+01 3.412557e+01 3.439314e+01 3.262270e+01 2.703810e+01 2.899176e+01 2.593898e+01 2.464147e+01 2.229954e+00 3.505295e+00 5.451397e+00 5.262889e+00 5.343465e+00 4.310254e+00 4.514863e+00 4.751915e+00 4.221551e+00 4.893295e+00 4.340841e+00 3.282059e+00 2.674639e-03
<GCONST> 9.703018e+01
<MIXTURE> 11 1.633820e-02
<MEAN> 25
 7.028885e+00 2.654981e+00 1.926001e+00 3.336797e+00 -3.725158e+00 -2.788395e+00 -3.376841e+00 -5.702352e+00 -2.833810e+00 -1.157087e-01 -8.481630e-01 -2.597385e+00 -3.530330e-01 3.412426e-01 9.418534e-02 4.414107e-01 5.628442e-01 -1.219031e-01 4.886329e-01 -3.203446e-02 3.882885e-02 -1.099585e-01 -4.820913e-01 5.948392e-01 -1.256741e-02
<VARIANCE> 25
 9.896668e+00 1.986305e+01 1.655551e+01 2.595745e+01 2.579468e+01 2.899238e+01 3.995257e+01 3.033503e+01 2.923908e+01 2.593800e+01 2.606672e+01 2.260808e+01 9.177338e-01 1.191478e+00 1.965505e+00 1.916208e+00 1.751301e+00 1.649432e+00 1.756503e+00 2.050640e+00 1.986410e+00 1.622903e+00 1.766020e+00 1.826078e+00 9.522545e-04
<GCONST> 8.316100e+01
<MIXTURE> 12 5.904134e-03
<MEAN> 25
 1.052268e+01 3.646209e+00 -4.541487e+00 -1.601624e+01 -8.441613e+00 8.645864e+00 -1.124326e+00 -2.085943e+00 -1.968888e+00 -4.882067e+00 2.029084e+00 7.676502e-01 5.082379e-02 3.275295e-01 6.768310e-02 -3.965351e-01 -2.975663e-01 2.563365e-02 2.854467e-01 4.521770e-01 1.351454e-01 -4.234118e-01 -3.759562e-01 6.644585e-02 -6.433948e-03
<VARIANCE> 25
 1.024561e+01 2.066326e+01 2.264389e+01 3.433754e+01 4.248737e+01 3.010777e+01 4.206214e+01 4.813633e+01 4.443396e+01 3.631738e+01 3.861272e+01 2.814634e+01 2.527864e-01 7.146493e-01 6.733544e-01 1.173568e+00 1.157540e+00 1.024915e+00 1.145504e+00 1.350579e+00 1.202087e+00 1.269835e+00 1.187697e+00 9.329102e-01 5.608543e-04
<GCONST> 7.880287e+01
<MIXTURE> 13 5.904134e-03
<MEAN> 25
 1.052268e+01 3.646209e+00 -4.541487e+00 -1.601624e+01 -8.441613e+00 8.645864e+00 -1.124326e+00 -2.085943e+00 -1.968888e+00 -4.882067e+00 2.029084e+00 7.676502e-01 5.082379e-02 3.275295e-01 6.768310e-02 -3.965351e-01 -2.975663e-01 2.563365e-02 2.854467e-01 4.521770e-01 1.351454e-01 -4.234118e-01 -3.759562e-01 6.644585e-02 -6.433948e-03
<VARIANCE> 25
 1.024561e+01 2.066326e+01 2.264389e+01 3.433754e+01 4.248737e+01 3.010777e+01 4.206214e+01 4.813633e+01 4.443396e+01 3.631738e+01 3.861272e+01 2.814634e+01 2.527864e-01 7.146493e-01 6.733544e-01 1.173568e+00 1.157540e+00 1.024915e+00 1.145504e+00 1.350579e+00 1.202087e+00 1.269835e+00 1.187697e+00 9.329102e-01 5.608543e-04
<GCONST> 7.880287e+01
<MIXTURE> 14 6.488954e-03
<MEAN> 25
 -3.905934e+00 -1.754546e-02 -7.949198e-01 8.356390e+00 7.201685e+00 6.780065e+00 7.854540e+00 7.282013e+00 7.272390e+00 4.610637e+00 6.053503e+00 4.107991e+00 -2.837329e-01 1.554325e-01 3.227353e-01 3.679260e-01 1.331727e-01 5.098354e-02 1.346405e-01 1.567769e-01 3.374662e-01 4.699810e-01 5.271160e-01 9.688089e-02 -7.162760e-03
<VARIANCE> 25
 9.655596e+00 1.348608e+01 1.826934e+01 1.733982e+01 1.926704e+01 1.947570e+01 1.936888e+01 1.886686e+01 1.867032e+01 2.387646e+01 2.231073e+01 1.457160e+01 8.724445e-01 1.489091e+00 1.582948e+00 1.894872e+00 2.074721e+00 2.050239e+00 2.271756e+00 2.009779e+00 2.110925e+00 2.309149e+00 2.121624e+00 1.844190e+00 9.573885e-04
<GCONST> 8.061037e+01
<MIXTURE> 15 2.475190e-03
<MEAN> 25
 -4.640725e+00 -2.808357e-01 -6.757872e-01 7.280622e+00 5.697730e+00 5.353830e+00 6.182254e+00 4.798151e+00 5.384611e+00 3.870147e+00 4.680886e+00 2.683744e+00 -1.001606e-01 -5.278541e-02 4.794732e-02 2.810442e-01 5.699537e-01 7.868031e-01 1.102553e+00 1.217850e+00 1.058866e+00 6.770550e-01 3.640991e-01 1.260478e-01 1.558657e-03
<VARIANCE> 25
 8.723944e+00 5.987184e+00 9.368659e+00 1.153507e+01 1.252655e+01 1.429683e+01 1.350955e+01 1.391030e+01 1.290593e+01 1.371574e+01 1.627185e+01 1.133114e+01 1.196212e-01 1.936683e-01 3.023332e-01 4.685415e-01 6.743270e-01 9.016951e-01 8.210832e-01 7.957029e-01 8.987346e-01 1.071640e+00 1.107196e+00 1.051123e+00 4.036163e-05
<GCONST> 5.875642e+01
<MIXTURE> 16 2.475190e-03
<MEAN> 25
 -4.640725e+00 -2.808357e-01 -6.757872e-01 7.280622e+00 5.697730e+00 5.353830e+00 6.182254e+00 4.798151e+00 5.384611e+00 3.870147e+00 4.680886e+00 2.683744e+00 -1.001606e-01 -5.278541e-02 4.794732e-02 2.810442e-01 5.699537e-01 7.868031e-01 1.102553e+00 1.217850e+00 1.058866e+00 6.770550e-01 3.640991e-01 1.260478e-01 1.558657e-03
<VARIANCE> 25
 8.723944e+00 5.987184e+00 9.368659e+00 1.153507e+01 1.252655e+01 1.429683e+01 1.350955e+01 1.391030e+01 1.290593e+01 1.371574e+01 1.627185e+01 1.133114e+01 1.196212e-01 1.936683e-01 3.023332e-01 4.685415e-01 6.743270e-01 9.016951e-01 8.210832e-01 7.957029e-01 8.987346e-01 1.071640e+00 1.107196e+00 1.051123e+00 4.036163e-05
<GCONST> 5.875642e+01
<MIXTURE> 17 9.518312e-03
<MEAN> 25
 2.962939e+00 -7.939252e-01 5.651751e+00 3.710386e-01 -4.681231e+00 -5.701288e+00 -3.937437e+00 -7.798426e-01 -3.139250e+00 -2.955989e+00 4.233442e-01 -1.380822e+00 -9.236592e-01 -1.190167e+00 2.319060e+00 -1.989601e+00 -1.992668e+00 -1.430412e-01 -4.087096e-01 5.468010e-01 -7.549295e-01 -5.940793e-01 8.606222e-01 6.350422e-02 7.570664e-02
<VARIANCE> 25
 1.740453e+01 2.700158e+01 2.952650e+01 3.012064e+01 3.325567e+01 3.221004e+01 3.136887e+01 1.893504e+01 2.300393e+01 1.922891e+01 1.820425e+01 2.817117e+01 1.382092e+00 1.729694e+00 3.897431e+00 2.703573e+00 3.961294e+00 4.763973e+00 3.721232e+00 3.001872e+00 2.868911e+00 2.911126e+00 2.060119e+00 2.688491e+00 1.606383e-03
<GCONST> 9.056326e+01
<MIXTURE> 18 1.221018e-02
<MEAN> 25
 2.816028e+00 3.540282e+00 6.270561e+00 3.803821e+00 -4.690544e+00 -7.518701e+00 -3.925120e-01 -9.087099e-01 -3.307554e+00 -1.551904e+00 -3.138360e-01 1.619495e-01 -8.022449e-01 1.898389e+00 -8.109204e-01 1.962623e+00 2.733036e+00 1.578416e+00 8.291322e-01 -2.276065e-01 1.004902e+00 9.922840e-02 -1.338153e-01 9.211817e-01 -1.074227e-01
<VARIANCE> 25
 1.430046e+01 2.027274e+01 2.675228e+01 2.080109e+01 3.023064e+01 3.118428e+01 3.153636e+01 2.555204e+01 2.971446e+01 3.718596e+01 2.481408e+01 2.875169e+01 2.019368e+00 2.149044e+00 4.365360e+00 3.373656e+00 3.240927e+00 3.493904e+00 4.382367e+00 3.295132e+00 3.596497e+00 4.169024e+00 3.210465e+00 4.517063e+00 3.257000e-03
<GCONST> 9.396579e+01
<MIXTURE> 19 9.912824e-03
<MEAN> 25
 -1.012264e+01 2.084456e+00 8.669651e-01 1.603687e-01 3.743799e+00 2.337352e+00 4.083251e+00 1.425836e+00 2.748082e+00 6.132979e-01 8.481513e-01 1.962762e+00 1.748315e+00 1.213948e+00 2.129147e+00 3.629509e-01 -1.196707e+00 -1.504246e+00 -1.198044e+00 -1.443444e+00 -1.554136e+00 -1.234785e+00 -6.072692e-01 -9.110711e-01 7.639650e-03
<VARIANCE> 25
 4.876594e+01 2.419499e+01 4.228301e+01 4.386216e+01 2.501184e+01 2.743299e+01 3.073302e+01 2.835520e+01 2.304737e+01 2.485632e+01 2.595054e+01 1.924087e+01 2.697869e+00 2.088037e+00 1.998100e+00 2.086737e+00 2.212766e+00 2.519309e+00 2.237725e+00 2.347447e+00 1.643465e+00 2.016596e+00 1.862609e+00 1.424593e+00 2.009600e-03
<GCONST> 8.890845e+01
<MIXTURE> 20 6.308331e-03
<MEAN> 25
 -1.409291e+01 7.353323e+00 9.641749e-01 5.818660e+00 4.679423e+00 1.528678e+00 5.172100e+00 7.160556e-01 8.883486e-01 6.766923e-01 2.606858e+00 -1.928400e-01 -3.308722e+00 -8.051977e-01 -1.584759e+00 4.120483e-01 1.564677e+00 2.015227e+00 1.931372e+00 1.962631e+00 2.121839e+00 1.930021e+00 1.636243e+00 9.438241e-01 4.536345e-02
<VARIANCE> 25
 1.960845e+01 2.301499e+01 3.058623e+01 3.811213e+01 3.032511e+01 2.699173e+01 2.895151e+01 3.259179e+01 2.771142e+01 2.786115e+01 2.439655e+01 2.081720e+01 2.035352e+00 2.188529e+00 1.910338e+00 2.677840e+00 2.615363e+00 2.280252e+00 2.276019e+00 2.415254e+00 2.168211e+00 2.870220e+00 2.364307e+00 1.850171e+00 1.894105e-03
<GCONST> 8.920776e+01
<MIXTURE> 21 7.928653e-03
<MEAN> 25
 3.066265e+00 -4.944998e+00 6.367480e+00 -1.964602e+00 -9.389933e+00 -8.042608e+00 -3.000581e+00 2.610465e+00 -3.116787e+00 -3.502614e+00 5.065234e-01 1.504990e-01 -6.454231e-01 1.085100e+00 2.259815e+00 -2.678139e-01 -1.505468e+00 2.846664e-01 1.077227e+00 -1.320035e+00 -2.053937e+00 5.756978e-01 1.205931e+00 -1.288389e-01 -8.526237e-03
<VARIANCE> 25
 8.726351e+00 1.477753e+01 2.398353e+01 2.226226e+01 2.590615e+01 2.626755e+01 3.367640e+01 3.520919e+01 3.540439e+01 2.388060e+01 2.625067e+01 1.842783e+01 5.791534e-01 9.081690e-01 1.689835e+00 1.416340e+00 1.721465e+00 2.088778e+00 3.367059e+00 1.958024e+00 1.822909e+00 2.672925e+00 1.580354e+00 2.706433e+00 4.797271e-04
<GCONST> 8.239954e+01
<MIXTURE> 22 8.827789e-03
<MEAN> 25
 -1.782082e+01 7.074803e+00 -3.917994e+00 7.056632e+00 4.536192e+00 2.825343e+00 8.331341e+00 1.684891e+00 5.364002e+00 3.190243e+00 5.518985e+00 1.211750e+00 -3.249253e-01 -2.016007e-01 -1.087114e-01 -1.631318e-01 -3.983001e-03 1.618957e-01 1.954023e-01 1.794339e-01 2.332021e-01 2.055880e-01 1.513345e-01 1.839618e-01 9.262485e-03
<VARIANCE> 25
 8.403727e+00 1.655811e+01 1.833661e+01 2.763575e+01 2.254582e+01 2.062986e+01 1.909125e+01 1.856683e+01 1.785949e+01 2.107392e+01 1.993047e+01 1.341457e+01 1.079284e+00 1.321478e+00 1.349681e+00 1.537769e+00 1.392274e+00 1.518558e+00 1.499636e+00 1.572390e+00 1.595608e+00 1.585446e+00 1.385369e+00 1.155073e+00 1.703432e-03
<GCONST> 7.835747e+01
<MIXTURE> 23 6.455497e-03
<MEAN> 25
 7.154663e+00 1.950541e+00 1.794390e+00 1.846933e+00 -4.708705e+00 -2.441978e+00 -4.538155e+00 -6.336742e+00 -3.218356e+00 -5.223030e-01 -2.731230e+00 -2.616025e+00 2.674065e-02 2.060731e-01 3.198353e-02 9.319413e-02 9.592243e-02 5.409715e-02 1.012788e-01 1.426023e-02 5.147326e-02 7.690201e-02 1.015640e-02 9.397588e-02 -4.735377e-03
<VARIANCE> 25
 1.141553e+01 2.043459e+01 2.394270e+01 3.612207e+01 3.076887e+01 4.495485e+01 5.892555e+01 4.276397e+01 4.082617e+01 3.868077e+01 4.450073e+01 3.512986e+01 1.387756e-01 2.861609e-01 4.644391e-01 5.078533e-01 6.190880e-01 7.340783e-01 7.645050e-01 7.805990e-01 8.010521e-01 7.806879e-01 8.019794e-01 8.443192e-01 9.852067e-05
<GCONST> 7.188503e+01
<MIXTURE> 24 6.455497e-03
<MEAN> 25
 7.154663e+00 1.950541e+00 1.794390e+00 1.846933e+00 -4.708705e+00 -2.441978e+00 -4.538155e+00 -6.336742e+00 -3.218356e+00 -5.223030e-01 -2.731230e+00 -2.616025e+00 2.674065e-02 2.060731e-01 3.198353e-02 9.319413e-02 9.592243e-02 5.409715e-02 1.012788e-01 1.426023e-02 5.147326e-02 7.690201e-02 1.015640e-02 9.397588e-02 -4.735377e-03
<VARIANCE> 25
 1.141553e+01 2.043459e+01 2.394270e+01 3.612207e+01 3.076887e+01 4.495485e+01 5.892555e+01 4.276397e+01 4.082617e+01 3.868077e+01 4.450073e+01 3.512986e+01 1.387756e-01 2.861609e-01 4.644391e-01 5.078533e-01 6.190880e-01 7.340783e-01 7.645050e-01 7.805990e-01 8.010521e-01 7.806879e-01 8.019794e-01 8.443192e-01 9.852067e-05
<GCONST> 7.188503e+01
<MIXTURE> 25 1.118642e-02
<MEAN> 25
 1.791943e-03 2.409795e-01 1.651458e+01 -5.699250e+00 -1.258485e+01 -2.744159e+00 -4.929619e+00 -1.745040e+00 -8.620211e+00 -5.386647e+00 4.485143e+00 -4.746765e+00 8.444735e-02 3.452207e-01 -3.350714e-02 -4.804462e-03 -6.305223e-02 -3.973399e-02 1.756680e-01 -1.994740e-02 -1.365860e-01 2.787613e-01 1.182075e-01 1.348610e-01 -1.460004e-02
<VARIANCE> 25
 5.780715e+00 1.840886e+01 1.519048e+01 3.336368e+01 2.623112e+01 2.596533e+01 1.427930e+01 2.275354e+01 1.880142e+01 3.025795e+01 1.426773e+01 2.647875e+01 4.497879e-01 1.740052e+00 1.632335e+00 1.650467e+00 1.919673e+00 1.700523e+00 1.118892e+00 1.328376e+00 1.211400e+00 1.802384e+00 1.040094e+00 1.800137e+00 1.958146e-03
<GCONST> 7.892539e+01
<MIXTURE> 26 7.727677e-03
<MEAN> 25
 2.318750e+00 -4.365325e+00 -9.650992e+00 -1.783723e+00 7.139833e+00 4.992768e+00 2.423293e+00 6.645845e-01 3.597491e+00 1.722422e+00 -4.555776e+00 -7.747521e-01 -4.406154e-01 8.715969e-01 2.311810e-01 9.262818e-01 2.333626e-01 2.040157e-01 8.230466e-01 4.274051e-01 5.123739e-01 -2.884375e-01 5.128869e-01 1.517491e-01 -5.976660e-02
<VARIANCE> 25
 1.605315e+01 2.914956e+01 1.950495e+01 4.635881e+01 2.860203e+01 3.160591e+01 4.101837e+01 3.644469e+01 3.594170e+01 4.975065e+01 3.364972e+01 3.705576e+01 1.314462e+00 1.635851e+00 1.472392e+00 1.835595e+00 1.879580e+00 2.242397e+00 2.629927e+00 2.318920e+00 2.393849e+00 2.172261e+00 2.149919e+00 2.397690e+00 2.674269e-03
<GCONST> 9.000738e+01
<MIXTURE> 27 7.727677e-03
<MEAN> 25
 2.318750e+00 -4.365325e+00 -9.650992e+00 -1.783723e+00 7.139833e+00 4.992768e+00 2.423293e+00 6.645845e-01 3.597491e+00 1.722422e+00 -4.555776e+00 -7.747521e-01 -4.406154e-01 8.715969e-01 2.311810e-01 9.262818e-01 2.333626e-01 2.040157e-01 8.230466e-01 4.274051e-01 5.123739e-01 -2.884375e-01 5.128869e-01 1.517491e-01 -5.976660e-02
<VARIANCE> 25
 1.605315e+01 2.914956e+01 1.950495e+01 4.635881e+01 2.860203e+01 3.160591e+01 4.101837e+01 3.644469e+01 3.594170e+01 4.975065e+01 3.364972e+01 3.705576e+01 1.314462e+00 1.635851e+00 1.472392e+00 1.835595e+00 1.879580e+00 2.242397e+00 2.629927e+00 2.318920e+00 2.393849e+00 2.172261e+00 2.149919e+00 2.397690e+00 2.674269e-03
<GCONST> 9.000738e+01
<MIXTURE> 28 5.036674e-03
<MEAN> 25
 -5.074906e+00 7.925175e-02 -1.781829e+00 6.599018e+00 5.173651e+00 3.255811e+00 5.485913e+00 3.211284e+00 4.171574e+00 2.134621e+00 2.232787e+00 3.055196e+00 -1.068798e-01 2.442838e-01 5.193125e-01 7.469640e-01 7.846847e-01 6.800791e-01 5.308487e-01 4.095517e-01 4.475135e-01 5.135557e-01 4.034059e-01 1.592840e-01 -1.900980e-05
<VARIANCE> 25
 1.152503e+01 8.890439e+00 1.184827e+01 1.430819e+01 1.386203e+01 1.799334e+01 1.704444e+01 1.829285e+01 1.830094e+01 1.654937e+01 2.150060e+01 1.429947e+01 2.412605e-01 3.302488e-01 3.901164e-01 4.593444e-01 6.062717e-01 8.379812e-01 1.028790e+00 1.098467e+00 1.055305e+00 1.112326e+00 1.036809e+00 1.093928e+00 1.109567e-06
<GCONST> 6.018327e+01
<MIXTURE> 29 5.036674e-03
<MEAN> 25
 -5.074906e+00 7.925175e-02 -1.781829e+00 6.599018e+00 5.173651e+00 3.255811e+00 5.485913e+00 3.211284e+00 4.171574e+00 2.134621e+00 2.232787e+00 3.055196e+00 -1.068798e-01 2.442838e-01 5.193125e-01 7.469640e-01 7.846847e-01 6.800791e-01 5.308487e-01 4.095517e-01 4.475135e-01 5.135557e-01 4.034059e-01 1.592840e-01 -1.900980e-05
<VARIANCE> 25
 1.152503e+01 8.890439e+00 1.184827e+01 1.430819e+01 1.386203e+01 1.799334e+01 1.704444e+01 1.829285e+01 1.830094e+01 1.654937e+01 2.150060e+01 1.429947e+01 2.412605e-01 3.302488e-01 3.901164e-01 4.593444e-01 6.062717e-01 8.379812e-01 1.028790e+00 1.098467e+00 1.055305e+00 1.112326e+00 1.036809e+00 1.093928e+00 1.109567e-06
<GCONST> 6.018327e+01
<MIXTURE> 30 8.917812e-03
<MEAN> 25
 -3.096291e+00 6.411720e-01 -3.534044e-01 8.562078e+00 7.063543e+00 5.966899e+00 7.638098e+00 6.769614e+00 6.824830e+00 3.431883e+00 3.921464e+00 3.147958e+00 -7.800626e-03 -1.898154e-02 6.939109e-02 1.456425e-01 1.346315e-01 8.513489e-02 -3.449862e-02 8.941657e-03 1.025489e-01 1.097839e-01 -1.562026e-02 -5.210059e-02 -1.624122e-05
<VARIANCE> 25
 6.471169e+00 1.086947e+01 9.818258e+00 1.000870e+01 1.245522e+01 1.676778e+01 1.520691e+01 1.763468e+01 1.589246e+01 1.672849e+01 2.769676e+01 1.249759e+01 1.114568e-01 1.957710e-01 2.791832e-01 4.633438e-01 6.648802e-01 7.761931e-01 8.394485e-01 8.911469e-01 8.049434e-01 9.930034e-01 8.531573e-01 8.447049e-01 6.049320e-05
<GCONST> 6.006454e+01
<MIXTURE> 31 4.136493e-03
<MEAN> 25
 -2.907602e+00 -4.333939e+00 -2.010365e-01 5.216835e+00 3.500162e+00 1.467163e+00 5.560718e+00 5.894591e+00 3.283706e+00 5.967395e-01 5.230452e+00 3.370730e+00 2.398694e-01 6.029501e-01 -2.791825e-01 1.449468e-01 7.897648e-02 4.891038e-01 2.513913e-01 1.192968e-02 3.338761e-01 2.631692e-01 8.130511e-02 7.082299e-02 -1.891777e-02
<VARIANCE> 25
 6.187407e+00 1.792999e+01 1.496613e+01 1.512527e+01 2.136020e+01 1.903990e+01 1.966349e+01 2.246523e+01 2.293052e+01 2.503106e+01 2.022523e+01 1.606724e+01 1.666036e-01 5.552198e-01 5.937055e-01 7.671562e-01 1.036697e+00 9.750869e-01 1.097513e+00 1.343717e+00 1.388044e+00 1.168761e+00 1.160961e+00 1.033460e+00 2.657098e-04
<GCONST> 6.997839e+01
<MIXTURE> 32 4.136493e-03
<MEAN> 25
 -2.907602e+00 -4.333939e+00 -2.010365e-01 5.216835e+00 3.500162e+00 1.467163e+00 5.560718e+00 5.894591e+00 3.283706e+00 5.967395e-01 5.230452e+00 3.370730e+00 2.398694e-01 6.029501e-01 -2.791825e-01 1.449468e-01 7.897648e-02 4.891038e-01 2.513913e-01 1.192968e-02 3.338761e-01 2.631692e-01 8.130511e-02 7.082299e-02 -1.891777e-02
<VARIANCE> 25
 6.187407e+00 1.792999e+01 1.496613e+01 1.512527e+01 2.136020e+01 1.903990e+01 1.966349e+01 2.246523e+01 2.293052e+01 2.503106e+01 2.022523e+01 1.606724e+01 1.666036e-01 5.552198e-01 5.937055e-01 7.671562e-01 1.036697e+00 9.750869e-01 1.097513e+00 1.343717e+00 1.388044e+00 1.168761e+00 1.160961e+00 1.033460e+00 2.657098e-04
<GCONST> 6.997839e+01
<MIXTURE> 33 1.508826e-02
<MEAN> 25
 5.387419e+00 -5.729146e+00 -1.750770e+00 -3.162050e+00 -1.874927e+00 -3.655870e+00 -8.594474e+00 3.647911e-01 1.888585e+00 -4.821502e-01 -3.588431e+00 -2.130611e+00 5.147379e-01 -9.423497e-01 -2.417840e+00 -1.931003e+00 1.623955e+00 1.914931e+00 -8.895278e-01 1.471743e-01 6.961453e-01 8.226060e-01 -4.396896e-01 -1.276160e+00 3.604395e-02
<VARIANCE> 25
 8.233510e+00 1.954381e+01 2.496377e+01 2.677641e+01 2.848001e+01 3.897671e+01 3.315066e+01 3.619451e+01 3.263076e+01 4.359065e+01 3.033918e+01 2.515352e+01 9.478411e-01 1.886809e+00 1.921504e+00 1.588669e+00 3.768501e+00 3.047735e+00 3.283765e+00 4.548350e+00 2.944136e+00 3.436015e+00 3.001303e+00 2.067502e+00 1.626715e-03
<GCONST> 9.009288e+01
<MIXTURE> 34 1.588179e-02
<MEAN> 25
 8.369637e+00 -2.524515e-01 -3.608891e-02 9.762593e-01 -3.240363e+00 -1.964368e+00 -5.930668e+00 -4.593201e+00 -2.455264e+00 3.929724e-01 -1.895238e+00 -3.801066e+00 1.857143e-01 1.301045e+00 8.431464e-01 2.294015e+00 -5.785381e-02 -2.907158e-01 1.043546e+00 -1.451593e+00 -5.011718e-01 2.778840e-01 -5.263893e-01 1.637006e-01 -5.977909e-02
<VARIANCE> 25
 8.009997e+00 2.645303e+01 2.469889e+01 4.177592e+01 3.519157e+01 4.332847e+01 4.733398e+01 4.596960e+01 4.687431e+01 3.685980e+01 4.499000e+01 2.788855e+01 1.264780e+00 1.618325e+00 5.220657e+00 3.626800e+00 4.971878e+00 5.284168e+00 4.782499e+00 5.405455e+00 5.583754e+00 4.672029e+00 4.279387e+00 3.676419e+00 1.081446e-03
<GCONST> 9.721207e+01
<MIXTURE> 35 1.467755e-02
<MEAN> 25
 -1.710415e+00 -4.846494e+00 -9.509229e+00 -5.210961e-01 8.864403e+00 1.010912e+00 8.392686e-01 2.068986e+00 1.283112e+00 4.375462e+00 -1.531582e-01 1.966589e+00 4.668308e-01 -1.242648e+00 -1.206198e+00 -1.371814e+00 4.042662e-01 -6.492691e-01 -8.980438e-01 -7.398474e-02 -1.142625e-01 3.263075e-01 -6.787930e-01 -4.797363e-01 1.078830e-01
<VARIANCE> 25
 1.965862e+01 2.891358e+01 4.089215e+01 6.488187e+01 4.362682e+01 5.722083e+01 5.168615e+01 4.148840e+01 4.802400e+01 3.603360e+01 3.424380e+01 2.864879e+01 3.297714e+00 3.500156e+00 6.763366e+00 5.453937e+00 4.862752e+00 5.499022e+00 5.038826e+00 4.523844e+00 4.688049e+00 4.674108e+00 4.022142e+00 3.535918e+00 4.927333e-03
<GCONST> 1.029067e+02
<MIXTURE> 36 1.093293e-02
<MEAN> 25
 3.622005e+00 -5.322964e+00 6.931125e+00 1.240258e+00 -9.127229e+00 -9.553008e+00 -7.306955e+00 1.973423e+00 -2.714299e+00 -3.831258e+00 2.563264e+00 -1.994631e+00 5.709963e-01 1.374742e-01 -1.255195e+00 4.911171e-02 9.660189e-01 5.926938e-01 -5.920934e-01 -2.022246e-01 6.581641e-01 6.928335e-01 -5.414722e-01 -2.780295e-01 -1.691026e-02
<VARIANCE> 25
 7.554177e+00 1.373570e+01 1.461488e+01 1.778366e+01 2.019452e+01 1.972898e+01 3.013476e+01 2.111715e+01 2.383398e+01 2.427437e+01 1.573009e+01 1.641354e+01 4.790501e-01 7.351571e-01 1.456817e+00 8.104075e-01 1.441098e+00 1.645396e+00 1.961028e+00 1.316780e+00 1.417526e+00 1.772961e+00 9.431831e-01 1.392379e+00 1.077479e-03
<GCONST> 7.580225e+01
<MIXTURE> 37 1.246826e-02
<MEAN> 25
 3.555585e-01 6.140379e+00 1.206561e+01 -6.698714e+00 -8.395175e+00 -1.328919e+00 -4.030810e+00 -6.139132e+00 -4.463839e+00 -3.363764e-01 -1.973797e+00 -2.232172e+00 -1.548678e-01 7.712925e-01 -1.797981e+00 3.539725e+00 2.003793e+00 -1.165483e-01 1.398575e+00 7.891481e-02 1.042523e+00 -2.779196e-01 5.004508e-02 3.114398e-01 -8.463564e-02
<VARIANCE> 25
 1.384338e+01 2.234944e+01 2.546483e+01 4.261039e+01 2.816073e+01 2.617149e+01 3.731238e+01 3.398252e+01 3.177118e+01 2.735022e+01 3.048151e+01 2.338851e+01 3.022197e+00 2.346004e+00 2.635688e+00 3.051725e+00 3.223764e+00 3.031311e+00 3.194467e+00 3.224080e+00 2.767110e+00 3.093070e+00 2.990900e+00 2.650054e+00 3.559562e-03
<GCONST> 9.298952e+01
<MIXTURE> 38 1.154525e-02
<MEAN> 25
 -5.221210e+00 8.539709e+00 4.626588e+00 2.572819e+00 8.531390e-01 -4.813442e+00 -2.183158e-01 -2.736044e+00 -2.626284e+00 -3.267122e+00 -9.198121e-01 -2.057419e-01 -4.404116e+00 1.158922e+00 -6.109201e-01 1.617433e+00 2.474284e+00 1.344918e+00 1.908067e+00 8.153794e-01 9.041637e-01 3.468975e-01 9.047835e-01 5.762680e-01 3.930141e-02
<VARIANCE> 25
 3.270243e+01 2.743383e+01 3.456531e+01 3.234826e+01 4.337658e+01 3.273684e+01 3.303985e+01 3.868869e+01 3.081479e+01 2.849319e+01 2.317753e+01 2.690723e+01 2.133769e+00 3.412159e+00 4.033053e+00 4.917315e+00 3.723111e+00 4.477602e+00 4.310538e+00 4.079508e+00 3.962295e+00 4.613463e+00 4.044882e+00 3.343533e+00 2.212365e-03
<GCONST> 9.744028e+01
<MIXTURE> 39 9.501865e-03
<MEAN> 25
 1.193310e+00 9.937919e-01 1.078255e+01 -8.946053e+00 -1.070195e+01 -4.404064e-01 -3.438122e+00 -6.079771e+00 -5.934079e+00 1.072215e+00 -2.253824e+00 -2.219671e+00 -7.693330e-01 1.299584e+00 1.599383e+00 -1.703020e+00 -7.408260e-02 1.430723e+00 -9.442677e-01 -1.036938e+00 7.763084e-02 6.054108e-01 -3.118593e-01 7.367354e-02 3.055403e-03
<VARIANCE> 25
 8.227349e+00 3.095554e+01 2.667093e+01 3.169020e+01 3.522872e+01 3.911948e+01 3.518182e+01 2.745229e+01 3.620596e+01 2.912987e+01 3.308231e+01 2.426559e+01 6.495988e-01 1.409092e+00 1.673040e+00 2.752152e+00 2.138372e+00 2.788694e+00 2.841628e+00 2.242029e+00 2.413168e+00 2.648691e+00 1.796265e+00 1.705900e+00 1.081665e-03
<GCONST> 8.719855e+01
<MIXTURE> 40 1.030800e-02
<MEAN> 25
 -6.161479e+00 2.665429e+00 -2.001203e+00 6.795828e+00 4.008802e+00 4.451118e+00 5.600691e+00 3.821626e+00 4.963934e+00 2.301685e+00 3.184192e+00 2.071701e+00 -1.541547e-01 -1.794251e-01 -3.936813e-02 -2.048650e-01 2.972612e-02 -7.669891e-03 1.886204e-02 -4.961529e-02 3.227536e-02 -2.906856e-02 1.612252e-01 9.165494e-02 4.731951e-03
<VARIANCE> 25
 3.789618e+01 1.452861e+01 2.189267e+01 2.018037e+01 1.900767e+01 1.483170e+01 1.427837e+01 1.483517e+01 1.585406e+01 1.746975e+01 1.642887e+01 1.043462e+01 5.699996e-01 6.885957e-01 7.096653e-01 1.126967e+00 1.035262e+00 1.023156e+00 1.535881e+00 1.101059e+00 1.342274e+00 1.217793e+00 1.140059e+00 1.042477e+00 6.744631e-04
<GCONST> 7.290096e+01
<MIXTURE> 41 6.713375e-03
<MEAN> 25
 1.108514e+00 5.032600e-01 1.212856e+01 -8.314700e+00 -8.836283e+00 -9.117709e-01 -3.474358e+00 -3.896398e+00 -6.739216e+00 2.873528e+00 9.888226e-01 -2.362502e+00 -3.013482e-01 -1.039434e+00 2.783140e+00 -3.358709e+00 -2.423014e+00 2.869345e-01 -7.908257e-01 -1.429351e-01 -1.489548e+00 7.484960e-01 -6.176789e-02 -4.824351e-01 8.574253e-02
<VARIANCE> 25
 8.569930e+00 2.437173e+01 2.667449e+01 3.161690e+01 2.785807e+01 4.080343e+01 2.324585e+01 2.107942e+01 2.969080e+01 2.929883e+01 2.577974e+01 2.168093e+01 2.516292e+00 2.196907e+00 3.657846e+00 3.253296e+00 3.315851e+00 4.758608e+00 3.554651e+00 2.858643e+00 2.975672e+00 2.943522e+00 3.271315e+00 2.342720e+00 2.453648e-03
<GCONST> 9.181077e+01
<MIXTURE> 42 1.106211e-02
<MEAN> 25
 -3.073081e+00 3.109493e+00 4.508746e+00 2.578591e+00 -7.051654e-01 -6.261275e+00 -4.805608e-01 -2.708892e+00 -1.255253e+00 -2.957407e+00 -1.712893e+00 1.453898e+00 3.490433e+00 -8.925089e-01 1.987362e+00 -4.015421e-01 -3.062743e+00 -1.848560e+00 -2.810063e+00 -8.852671e-01 -1.265879e+00 -2.625963e-01 4.980858e-01 -1.473962e+00 4.005329e-02
<VARIANCE> 25
 2.828445e+01 1.846490e+01 3.313671e+01 2.254824e+01 2.850490e+01 3.154649e+01 2.757957e+01 2.283929e+01 1.888377e+01 2.630504e+01 1.469097e+01 1.664082e+01 3.351899e+00 3.553182e+00 4.495382e+00 3.767164e+00 3.412432e+00 4.647389e+00 4.301544e+00 3.980149e+00 3.867649e+00 3.413250e+00 2.960853e+00 2.865318e+00 4.102230e-03
<GCONST> 9.390868e+01
<MIXTURE> 43 7.108249e-03
<MEAN> 25
 3.164452e+00 -6.252425e+00 -2.210881e+00 -5.133813e+00 -7.346353e+00 -3.410902e+00 4.021646e+00 1.219739e+00 -5.052331e+00 -6.942580e+00 -4.285396e+00 -1.274345e+00 2.434620e-01 2.150406e+00 1.894216e+00 -1.273354e-01 -1.427771e+00 -7.816977e-01 -9.145772e-01 -7.716297e-01 8.107897e-01 1.478187e+00 3.342442e-01 4.341734e-03 -4.531815e-02
<VARIANCE> 25
 9.487391e+00 1.962857e+01 2.747245e+01 3.490528e+01 3.813422e+01 3.626114e+01 3.407477e+01 3.974367e+01 3.924650e+01 3.960202e+01 2.668006e+01 2.921867e+01 6.899012e-01 1.249539e+00 1.581514e+00 2.471890e+00 2.383312e+00 2.399908e+00 2.811116e+00 2.989579e+00 2.678032e+00 2.584616e+00 2.339067e+00 1.923618e+00 9.444421e-04
<GCONST> 8.805130e+01
<MIXTURE> 44 7.328289e-03
<MEAN> 25
 -1.412569e+01 2.523549e+00 3.767022e+00 -2.998906e+00 2.575569e+00 1.928454e+00 1.332127e+00 1.089929e+00 1.757145e+00 -1.216691e+00 1.207121e+00 2.089550e+00 -3.360854e-01 -2.287438e-02 2.136840e-01 1.050071e-01 -1.408970e-01 4.546172e-01 5.956356e-01 1.559609e-01 2.748400e-01 -5.539431e-02 -2.189920e-01 -9.584774e-02 8.852796e-03
<VARIANCE> 25
 4.115602e+01 2.212247e+01 2.876619e+01 2.783198e+01 2.136831e+01 2.269123e+01 2.367587e+01 2.912745e+01 2.490745e+01 2.053687e+01 2.117231e+01 1.601529e+01 1.166495e+00 1.126017e+00 1.214185e+00 1.509114e+00 1.843264e+00 1.542805e+00 1.366131e+00 1.688356e+00 1.372320e+00 1.536912e+00 1.316144e+00 1.271518e+00 1.021563e-03
<GCONST> 8.136388e+01
<MIXTURE> 45 1.364932e-02
<MEAN> 25
 -1.087364e+01 2.631459e+00 -1.140988e+00 3.094772e+00 4.740956e+00 9.503214e-01 4.525101e+00 3.440117e+00 3.468169e+00 1.630748e+00 2.652991e+00 3.019784e+00 -2.884012e+00 3.738525e-01 -2.773106e-01 -5.013009e-01 1.970077e-01 3.641219e-01 4.032255e-01 -5.635795e-02 -1.713711e-01 -4.443323e-02 3.758160e-01 1.436569e-01 9.929013e-02
<VARIANCE> 25
 3.023235e+01 2.346252e+01 2.451805e+01 2.834462e+01 2.429838e+01 2.480698e+01 2.699429e+01 2.345264e+01 2.163866e+01 2.015693e+01 2.093552e+01 1.444359e+01 1.859995e+00 2.742579e+00 2.100822e+00 2.171573e+00 1.909842e+00 2.297498e+00 2.251702e+00 2.232477e+00 1.840401e+00 2.172594e+00 2.379439e+00 1.764530e+00 3.619666e-03
<GCONST> 8.713713e+01
<MIXTURE> 46 9.336259e-03
<MEAN> 25
 -9.345319e+00 2.298609e+00 1.160710e+00 7.451237e+00 5.821895e+00 3.245557e+00 6.975218e+00 4.425644e+00 5.665209e+00 4.624530e+00 4.984924e+00 3.013475e+00 1.007034e+00 -2.217096e-01 2.379016e-02 1.000132e+00 6.040007e-01 9.573733e-01 4.079997e-01 6.671415e-01 4.778470e-01 4.862242e-01 6.426083e-01 5.276252e-01 -1.043012e-01
<VARIANCE> 25
 3.460797e+01 4.296548e+01 3.818690e+01 4.980434e+01 5.053184e+01 4.055181e+01 3.711498e+01 3.527365e+01 3.299339e+01 3.116595e+01 2.800832e+01 2.067956e+01 3.996984e+00 4.084146e+00 3.850740e+00 4.090753e+00 4.123053e+00 3.719515e+00 3.363148e+00 3.086966e+00 2.948013e+00 2.873634e+00 2.336308e+00 1.788653e+00 7.910229e-03
<GCONST> 9.824867e+01
<MIXTURE> 47 7.116147e-03
<MEAN> 25
 6.181989e+00 -7.100712e+00 -7.312696e+00 -6.761966e+00 5.521877e-01 2.610407e+00 -4.412828e+00 -2.313311e-01 8.063527e-01 2.772678e+00 -3.317152e+00 -6.180221e+00 -1.463513e-01 -1.114361e+00 -7.334633e-01 -7.439036e-01 5.776830e-01 9.098234e-01 8.951511e-01 3.838447e-01 6.370717e-04 -2.242484e-01 -8.356847e-01 -2.360975e-01 3.036605e-02
<VARIANCE> 25
 1.125047e+01 1.702267e+01 1.647251e+01 2.763419e+01 2.943810e+01 4.726213e+01 4.415591e+01 3.766584e+01 4.448205e+01 5.540689e+01 4.129513e+01 2.692117e+01 4.600607e-01 6.766793e-01 1.034901e+00 1.602021e+00 1.645655e+00 1.902207e+00 1.887374e+00 1.944422e+00 1.910232e+00 2.744385e+00 1.983932e+00 1.701914e+00 4.784287e-04
<GCONST> 8.380909e+01
<MIXTURE> 48 7.116147e-03
<MEAN> 25
 6.181989e+00 -7.100712e+00 -7.312696e+00 -6.761966e+00 5.521877e-01 2.610407e+00 -4.412828e+00 -2.313311e-01 8.063527e-01 2.772678e+00 -3.317152e+00 -6.180221e+00 -1.463513e-01 -1.114361e+00 -7.334633e-01 -7.439036e-01 5.776830e-01 9.098234e-01 8.951511e-01 3.838447e-01 6.370717e-04 -2.242484e-01 -8.356847e-01 -2.360975e-01 3.036605e-02
<VARIANCE> 25
 1.125047e+01 1.702267e+01 1.647251e+01 2.763419e+01 2.943810e+01 4.726213e+01 4.415591e+01 3.766584e+01 4.448205e+01 5.540689e+01 4.129513e+01 2.692117e+01 4.600607e-01 6.766793e-01 1.034901e+00 1.602021e+00 1.645655e+00 1.902207e+00 1.887374e+00 1.944422e+00 1.910232e+00 2.744385e+00 1.983932e+00 1.701914e+00 4.784287e-04
<GCONST> 8.380909e+01
<MIXTURE> 49 5.548473e-03
<MEAN> 25
 -3.789410e+00 1.264840e+00 -6.959037e-01 7.897653e+00 5.905189e+00 4.379398e+00 6.450006e+00 4.462260e+00 5.474940e+00 2.676304e+00 3.351593e+00 2.840248e+00 3.242440e-01 5.422291e-01 7.073184e-01 3.535168e-01 -2.637402e-01 -6.169635e-01 -8.817539e-01 -1.014565e+00 -8.600783e-01 -7.512627e-01 -6.319643e-01 -3.690940e-01 -2.947950e-04
<VARIANCE> 25
 1.071821e+01 9.810910e+00 1.250811e+01 1.562210e+01 1.245761e+01 1.743529e+01 1.543180e+01 1.440181e+01 1.676616e+01 1.563982e+01 2.119841e+01 1.286702e+01 2.243047e-01 2.243422e-01 4.364706e-01 5.528783e-01 7.721671e-01 1.094417e+00 8.448465e-01 9.219320e-01 9.372534e-01 1.177118e+00 1.237110e+00 1.047298e+00 1.601772e-05
<GCONST> 6.232604e+01
<MIXTURE> 50 6.234641e-03
<MEAN> 25
 -3.258812e+00 1.304047e+00 -2.257573e+00 5.698354e+00 4.129969e+00 2.207998e+00 4.683381e+00 2.117743e+00 2.910850e+00 3.055061e-01 6.941046e-01 2.434199e+00 7.621922e-02 2.066464e-01 1.091733e-01 -1.915774e-01 -4.934965e-01 -6.126467e-01 -5.028273e-01 -8.020560e-02 4.812283e-01 7.634627e-01 7.338685e-01 4.354231e-01 2.571796e-06
<VARIANCE> 25
 1.110822e+01 1.262565e+01 1.246319e+01 1.314083e+01 1.289635e+01 1.595621e+01 1.757520e+01 2.074238e+01 1.943506e+01 1.710469e+01 2.245360e+01 1.288147e+01 1.173787e-01 2.323959e-01 3.142077e-01 5.462979e-01 5.771284e-01 8.044906e-01 1.015483e+00 1.151488e+00 1.020904e+00 9.013243e-01 9.334943e-01 1.031027e+00 1.657540e-06
<GCONST> 5.928158e+01
<MIXTURE> 51 6.234641e-03
<MEAN> 25
 -3.258812e+00 1.304047e+00 -2.257573e+00 5.698354e+00 4.129969e+00 2.207998e+00 4.683381e+00 2.117743e+00 2.910850e+00 3.055061e-01 6.941046e-01 2.434199e+00 7.621922e-02 2.066464e-01 1.091733e-01 -1.915774e-01 -4.934965e-01 -6.126467e-01 -5.028273e-01 -8.020560e-02 4.812283e-01 7.634627e-01 7.338685e-01 4.354231e-01 2.571796e-06
<VARIANCE> 25
 1.110822e+01 1.262565e+01 1.246319e+01 1.314083e+01 1.289635e+01 1.595621e+01 1.757520e+01 2.074238e+01 1.943506e+01 1.710469e+01 2.245360e+01 1.288147e+01 1.173787e-01 2.323959e-01 3.142077e-01 5.462979e-01 5.771284e-01 8.044906e-01 1.015483e+00 1.151488e+00 1.020904e+00 9.013243e-01 9.334943e-01 1.031027e+00 1.657540e-06
<GCONST> 5.928158e+01
<MIXTURE> 52 6.367945e-03
<MEAN> 25
 9.251338e+00 1.939847e+00 -5.987930e+00 -1.458891e+01 -3.477320e+00 8.418297e+00 -3.604168e+00 -3.917580e+00 -4.825533e+00 -2.012630e+00 3.904239e+00 6.536056e-01 -3.527049e-01 -4.591117e-01 -4.853927e-03 1.120992e+00 1.327514e+00 -5.163159e-01 -6.353037e-01 -6.703647e-01 1.335623e-01 1.368855e+00 2.552393e-01 -5.863479e-01 -1.488038e-02
<VARIANCE> 25
 1.359301e+01 1.890280e+01 2.298942e+01 3.652560e+01 4.487607e+01 2.770061e+01 4.683507e+01 4.925534e+01 3.981481e+01 4.200218e+01 3.864075e+01 2.693643e+01 4.217085e-01 1.364234e+00 1.224116e+00 2.521653e+00 2.161323e+00 2.024664e+00 2.749647e+00 2.673113e+00 2.804672e+00 2.588047e+00 2.421720e+00 2.064264e+00 1.580566e-03
<GCONST> 8.865421e+01
<MIXTURE> 53 6.367945e-03
<MEAN> 25
 9.251338e+00 1.939847e+00 -5.987930e+00 -1.458891e+01 -3.477320e+00 8.418297e+00 -3.604168e+00 -3.917580e+00 -4.825533e+00 -2.012630e+00 3.904239e+00 6.536056e-01 -3.527049e-01 -4.591117e-01 -4.853927e-03 1.120992e+00 1.327514e+00 -5.163159e-01 -6.353037e-01 -6.703647e-01 1.335623e-01 1.368855e+00 2.552393e-01 -5.863479e-01 -1.488038e-02
<VARIANCE> 25
 1.359301e+01 1.890280e+01 2.298942e+01 3.652560e+01 4.487607e+01 2.770061e+01 4.683507e+01 4.925534e+01 3.981481e+01 4.200218e+01 3.864075e+01 2.693643e+01 4.217085e-01 1.364234e+00 1.224116e+00 2.521653e+00 2.161323e+00 2.024664e+00 2.749647e+00 2.673113e+00 2.804672e+00 2.588047e+00 2.421720e+00 2.064264e+00 1.580566e-03
<GCONST> 8.865421e+01
<MIXTURE> 54 7.368620e-03
<MEAN> 25
 -3.024213e+00 3.408267e-01 -1.117592e+00 7.819774e+00 6.197169e+00 3.939714e+00 5.162127e+00 4.787646e+00 4.233058e+00 2.882741e+00 3.363340e+00 2.250915e+00 1.134521e-03 2.295617e-02 1.606471e-02 2.368600e-03 1.052387e-02 4.799681e-02 6.072872e-02 7.220800e-02 -3.315882e-02 4.661918e-02 3.092583e-02 2.610830e-02 4.394545e-05
<VARIANCE> 25
 8.562888e+00 1.129918e+01 8.740635e+00 1.616672e+01 1.281710e+01 1.362533e+01 1.142619e+01 1.066377e+01 1.053723e+01 1.378306e+01 1.937811e+01 1.122308e+01 4.946142e-02 8.315612e-02 1.472229e-01 2.263387e-01 3.071921e-01 4.674089e-01 4.393338e-01 4.955789e-01 5.141247e-01 4.826026e-01 5.165377e-01 5.215068e-01 1.337157e-06
<GCONST> 4.720503e+01
<MIXTURE> 55 7.368620e-03
<MEAN> 25
 -3.024213e+00 3.408267e-01 -1.117592e+00 7.819774e+00 6.197169e+00 3.939714e+00 5.162127e+00 4.787646e+00 4.233058e+00 2.882741e+00 3.363340e+00 2.250915e+00 1.134521e-03 2.295617e-02 1.606471e-02 2.368600e-03 1.052387e-02 4.799681e-02 6.072872e-02 7.220800e-02 -3.315882e-02 4.661918e-02 3.092583e-02 2.610830e-02 4.394545e-05
<VARIANCE> 25
 8.562888e+00 1.129918e+01 8.740635e+00 1.616672e+01 1.281710e+01 1.362533e+01 1.142619e+01 1.066377e+01 1.053723e+01 1.378306e+01 1.937811e+01 1.122308e+01 4.946142e-02 8.315612e-02 1.472229e-01 2.263387e-01 3.071921e-01 4.674089e-01 4.393338e-01 4.955789e-01 5.141247e-01 4.826026e-01 5.165377e-01 5.215068e-01 1.337157e-06
<GCONST> 4.720503e+01
<MIXTURE> 56 6.132464e-03
<MEAN> 25
 5.548016e+00 -5.800556e+00 -8.108940e+00 -8.785269e+00 2.294028e+00 5.152043e+00 -5.952234e+00 -2.951174e+00 -4.224616e-01 3.201285e+00 -1.553652e+00 -5.426761e+00 6.457637e-03 6.604739e-02 1.217664e-02 1.026070e-01 3.120339e-01 -1.887764e-01 1.392221e-01 5.709917e-02 7.217713e-02 5.422272e-02 -3.148071e-01 5.715397e-02 -8.589186e-03
<VARIANCE> 25
 9.698171e+00 1.803639e+01 1.441631e+01 3.126958e+01 2.363255e+01 3.748904e+01 5.325859e+01 2.885204e+01 2.924769e+01 5.243907e+01 4.534222e+01 2.037827e+01 2.518889e-01 4.227373e-01 4.192110e-01 7.173486e-01 7.754201e-01 1.011521e+00 8.068033e-01 6.682518e-01 6.677125e-01 7.695439e-01 9.384765e-01 7.142403e-01 2.203125e-04
<GCONST> 7.172208e+01
<MIXTURE> 57 6.132464e-03
<MEAN> 25
 5.548016e+00 -5.800556e+00 -8.108940e+00 -8.785269e+00 2.294028e+00 5.152043e+00 -5.952234e+00 -2.951174e+00 -4.224616e-01 3.201285e+00 -1.553652e+00 -5.426761e+00 6.457637e-03 6.604739e-02 1.217664e-02 1.026070e-01 3.120339e-01 -1.887764e-01 1.392221e-01 5.709917e-02 7.217713e-02 5.422272e-02 -3.148071e-01 5.715397e-02 -8.589186e-03
<VARIANCE> 25
 9.698171e+00 1.803639e+01 1.441631e+01 3.126958e+01 2.363255e+01 3.748904e+01 5.325859e+01 2.885204e+01 2.924769e+01 5.243907e+01 4.534222e+01 2.037827e+01 2.518889e-01 4.227373e-01 4.192110e-01 7.173486e-01 7.754201e-01 1.011521e+00 8.068033e-01 6.682518e-01 6.677125e-01 7.695439e-01 9.384765e-01 7.142403e-01 2.203125e-04
<GCONST> 7.172208e+01
<MIXTURE> 58 6.172147e-03
<MEAN> 25
 2.155343e+00 -3.594499e+00 7.965585e+00 -4.673001e+00 -1.199209e+01 -6.055228e+00 3.635025e-01 7.356685e-01 -4.000930e+00 1.665573e+00 1.001288e+00 -9.506927e-01 -5.463206e-03 -6.439421e-02 -8.708030e-02 -7.006983e-02 -9.077205e-03 2.512410e-01 3.267133e-01 1.022066e-01 -3.605144e-02 -1.041426e-01 -4.804915e-02 -8.433461e-03 -5.868453e-04
<VARIANCE> 25
 5.733726e+00 1.474930e+01 1.909121e+01 2.976923e+01 2.370639e+01 3.984018e+01 3.186580e+01 2.809877e+01 3.144014e+01 2.559412e+01 1.820653e+01 2.005660e+01 3.362782e-01 7.794292e-01 7.991002e-01 9.971843e-01 7.918916e-01 1.247558e+00 1.250997e+00 1.097834e+00 9.770181e-01 9.553633e-01 8.356761e-01 8.697720e-01 1.088717e-03
<GCONST> 7.449419e+01
<MIXTURE> 59 6.172147e-03
<MEAN> 25
 2.155343e+00 -3.594499e+00 7.965585e+00 -4.673001e+00 -1.199209e+01 -6.055228e+00 3.635025e-01 7.356685e-01 -4.000930e+00 1.665573e+00 1.001288e+00 -9.506927e-01 -5.463206e-03 -6.439421e-02 -8.708030e-02 -7.006983e-02 -9.077205e-03 2.512410e-01 3.267133e-01 1.022066e-01 -3.605144e-02 -1.041426e-01 -4.804915e-02 -8.433461e-03 -5.868453e-04
<VARIANCE> 25
 5.733726e+00 1.474930e+01 1.909121e+01 2.976923e+01 2.370639e+01 3.984018e+01 3.186580e+01 2.809877e+01 3.144014e+01 2.559412e+01 1.820653e+01 2.005660e+01 3.362782e-01 7.794292e-01 7.991002e-01 9.971843e-01 7.918916e-01 1.247558e+00 1.250997e+00 1.097834e+00 9.770181e-01 9.553633e-01 8.356761e-01 8.697720e-01 1.088717e-03
<GCONST> 7.449419e+01
<MIXTURE> 60 4.479129e-03
<MEAN> 25
 -2.653245e+00 5.756567e-01 -2.101092e+00 4.469293e+00 2.208449e+00 1.266289e+00 2.749943e+00 1.915818e+00 3.017297e+00 8.265386e-01 8.395686e-01 1.907137e+00 -2.758324e-02 1.330285e-02 1.108497e-01 9.644147e-02 7.342667e-02 2.926485e-02 1.555960e-01 2.387017e-01 5.090098e-01 6.196507e-01 4.967426e-01 2.858644e-01 2.810355e-04
<VARIANCE> 25
 6.434718e+00 7.778844e+00 1.000815e+01 9.401834e+00 1.228969e+01 1.371127e+01 1.322394e+01 1.088153e+01 1.092557e+01 1.127000e+01 1.402186e+01 9.508586e+00 7.133517e-02 1.780402e-01 2.379830e-01 3.835175e-01 6.056032e-01 8.111473e-01 9.580799e-01 8.782423e-01 8.367078e-01 9.029675e-01 9.481110e-01 8.578851e-01 3.314941e-05
<GCONST> 5.576156e+01
<MIXTURE> 61 4.479129e-03
<MEAN> 25
 -2.653245e+00 5.756567e-01 -2.101092e+00 4.469293e+00 2.208449e+00 1.266289e+00 2.749943e+00 1.915818e+00 3.017297e+00 8.265386e-01 8.395686e-01 1.907137e+00 -2.758324e-02 1.330285e-02 1.108497e-01 9.644147e-02 7.342667e-02 2.926485e-02 1.555960e-01 2.387017e-01 5.090098e-01 6.196507e-01 4.967426e-01 2.858644e-01 2.810355e-04
<VARIANCE> 25
 6.434718e+00 7.778844e+00 1.000815e+01 9.401834e+00 1.228969e+01 1.371127e+01 1.322394e+01 1.088153e+01 1.092557e+01 1.127000e+01 1.402186e+01 9.508586e+00 7.133517e-02 1.780402e-01 2.379830e-01 3.835175e-01 6.056032e-01 8.111473e-01 9.580799e-01 8.782423e-01 8.367078e-01 9.029675e-01 9.481110e-01 8.578851e-01 3.314941e-05
<GCONST> 5.576156e+01
<MIXTURE> 62 3.278034e-03
<MEAN> 25
 -5.033982e+00 1.280640e+00 1.001750e+00 8.796008e+00 6.095668e+00 5.001192e+00 5.485488e+00 3.980273e+00 4.960817e+00 3.869929e+00 4.939741e+00 2.955329e+00 -9.945469e-01 -1.158745e+00 -9.453642e-01 -2.710779e-01 4.314399e-01 9.985107e-01 1.376390e+00 1.546772e+00 1.469236e+00 1.236754e+00 1.061669e+00 7.245049e-01 -1.259850e-03
<VARIANCE> 25
 1.001124e+01 1.002663e+01 1.316468e+01 1.660746e+01 1.747312e+01 1.759158e+01 1.955906e+01 1.929797e+01 1.894046e+01 1.872732e+01 2.147368e+01 1.468850e+01 4.030605e-01 4.320462e-01 5.552230e-01 7.790648e-01 1.041111e+00 1.202288e+00 1.256318e+00 1.272204e+00 1.329523e+00 1.355689e+00 1.392022e+00 1.361227e+00 1.675112e-05
<GCONST> 6.756870e+01
<MIXTURE> 63 4.351215e-03
<MEAN> 25
 -1.467241e+00 1.646738e+00 -4.334735e+00 3.943600e+00 3.867286e+00 7.663018e-01 4.468656e+00 2.168779e+00 3.493612e+00 -1.276456e+00 -1.711670e+00 1.974662e+00 -6.763232e-02 2.293988e-01 2.680546e-01 5.213501e-01 4.635777e-01 3.583627e-01 4.821252e-01 1.422842e-01 1.004111e-01 5.946765e-02 1.780926e-01 1.654620e-01 -3.091037e-03
<VARIANCE> 25
 5.461946e+00 1.085063e+01 9.982845e+00 1.295780e+01 1.216039e+01 1.396127e+01 1.682885e+01 1.528258e+01 1.882608e+01 1.671447e+01 1.335314e+01 1.223270e+01 1.659891e-01 3.966323e-01 5.191416e-01 6.441624e-01 9.338652e-01 9.188366e-01 1.290713e+00 1.102987e+00 1.132015e+00 1.237644e+00 1.308389e+00 1.075595e+00 1.954474e-04
<GCONST> 6.494604e+01
<MIXTURE> 64 4.351215e-03
<MEAN> 25
 -1.467241e+00 1.646738e+00 -4.334735e+00 3.943600e+00 3.867286e+00 7.663018e-01 4.468656e+00 2.168779e+00 3.493612e+00 -1.276456e+00 -1.711670e+00 1.974662e+00 -6.763232e-02 2.293988e-01 2.680546e-01 5.213501e-01 4.635777e-01 3.583627e-01 4.821252e-01 1.422842e-01 1.004111e-01 5.946765e-02 1.780926e-01 1.654620e-01 -3.091037e-03
<VARIANCE> 25
 5.461946e+00 1.085063e+01 9.982845e+00 1.295780e+01 1.216039e+01 1.396127e+01 1.682885e+01 1.528258e+01 1.882608e+01 1.671447e+01 1.335314e+01 1.223270e+01 1.659891e-01 3.966323e-01 5.191416e-01 6.441624e-01 9.338652e-01 9.188366e-01 1.290713e+00 1.102987e+00 1.132015e+00 1.237644e+00 1.308389e+00 1.075595e+00 1.954474e-04
<GCONST> 6.494604e+01
<MIXTURE> 65 1.721197e-02
<MEAN> 25
 7.362673e+00 9.010293e-01 7.997122e-01 5.141137e-01 -5.001273e+00 -3.622063e+00 -6.489271e+00 -6.569589e+00 -3.564371e+00 -1.100717e+00 -2.563007e+00 -3.101337e+00 1.782312e-01 1.192849e-01 8.663986e-02 2.787690e-01 -1.735983e-01 1.353784e-01 2.766286e-01 -1.008605e-01 2.219365e-01 1.004825e-01 -3.743443e-01 7.466732e-02 -5.897401e-03
<VARIANCE> 25
 8.895486e+00 1.570551e+01 1.986104e+01 2.911020e+01 2.838522e+01 4.259843e+01 4.701445e+01 3.947111e+01 4.067187e+01 4.321262e+01 4.911386e+01 4.018981e+01 6.522890e-01 9.212123e-01 1.615927e+00 1.496700e+00 1.980862e+00 1.704036e+00 1.982606e+00 2.229054e+00 1.957503e+00 2.025160e+00 2.114984e+00 2.199539e+00 3.986088e-04
<GCONST> 8.509290e+01
<MIXTURE> 66 1.191532e-02
<MEAN> 25
 5.536221e+00 -4.342207e+00 -5.421886e+00 -4.452604e+00 1.692249e+00 -3.584658e+00 -6.875504e+00 7.727985e-01 -2.067424e-01 4.390655e-01 -6.574435e+00 -1.800671e+00 -7.052152e-02 1.605991e+00 1.577008e+00 2.252017e+00 -1.081529e+00 -1.402886e+00 7.783225e-01 -7.175478e-02 3.779152e-01 -4.555232e-01 -1.872902e-01 7.545853e-01 -7.013331e-02
<VARIANCE> 25
 8.140038e+00 1.944246e+01 1.902789e+01 2.644882e+01 2.945793e+01 4.440559e+01 4.042694e+01 3.623120e+01 4.325498e+01 5.709245e+01 4.042538e+01 3.802674e+01 1.003285e+00 1.847283e+00 2.231226e+00 1.967146e+00 3.437670e+00 3.884686e+00 4.509014e+00 4.149013e+00 3.916224e+00 4.056042e+00 3.402539e+00 2.531506e+00 1.253185e-03
<GCONST> 9.270109e+01
<MIXTURE> 67 1.559142e-02
<MEAN> 25
 6.486034e+00 1.754178e+00 -5.796844e+00 -9.338804e+00 1.568751e+00 2.963165e+00 -4.798150e+00 -3.511213e+00 -2.979618e+00 2.532644e+00 8.144287e-01 -1.409959e+00 -6.904181e-01 1.555198e+00 6.788188e-01 2.921258e+00 5.221743e-01 -7.683970e-01 1.926982e+00 1.063322e+00 7.034175e-01 7.737486e-02 -3.355535e-01 6.839116e-01 -1.243697e-01
<VARIANCE> 25
 1.408040e+01 2.832861e+01 2.672439e+01 4.505777e+01 3.560315e+01 3.645977e+01 5.312162e+01 4.728477e+01 5.005706e+01 4.449477e+01 4.423731e+01 3.521880e+01 1.593415e+00 2.470103e+00 2.283870e+00 3.066612e+00 4.074485e+00 3.173801e+00 3.595902e+00 4.573514e+00 3.917685e+00 3.677104e+00 3.845116e+00 2.717660e+00 2.052169e-03
<GCONST> 9.658788e+01
<MIXTURE> 68 1.485092e-02
<MEAN> 25
 -2.288167e+00 -1.960147e+00 -3.762378e+00 1.728019e+00 4.761894e+00 -1.070608e+00 1.973682e+00 1.521737e+00 2.147570e+00 7.296100e-01 3.279565e-01 2.150747e+00 2.599530e+00 2.169497e-01 2.559469e-01 -2.489502e+00 -2.464446e+00 -1.739575e+00 -2.525211e+00 -1.726408e+00 -1.558104e+00 -1.207781e+00 -1.592508e+00 -1.006623e+00 1.024883e-01
<VARIANCE> 25
 2.632874e+01 3.058636e+01 5.255963e+01 4.776983e+01 4.171192e+01 4.889356e+01 4.030104e+01 3.910383e+01 3.549725e+01 4.239979e+01 3.467609e+01 2.865090e+01 1.837006e+00 3.908143e+00 5.830326e+00 5.159348e+00 4.128830e+00 5.273418e+00 5.801476e+00 4.776168e+00 4.424703e+00 4.907005e+00 5.030202e+00 3.195916e+00 5.448807e-03
<GCONST> 1.020877e+02
<MIXTURE> 69 1.204884e-02
<MEAN> 25
 3.935083e+00 -4.735938e+00 -3.206976e+00 -3.136564e+00 -2.445750e+00 -7.009328e+00 -2.776497e+00 2.029045e+00 4.006520e-01 -3.617757e+00 -6.335054e+00 2.227581e+00 1.381823e+00 -2.424498e+00 -1.089467e+00 -2.163463e+00 -1.688720e-01 -4.000054e-02 -1.231033e+00 5.787458e-01 -5.057966e-01 -8.329254e-01 -2.367109e+00 6.422072e-03 7.339686e-02
<VARIANCE> 25
 8.584014e+00 2.192207e+01 2.342406e+01 2.098001e+01 3.610329e+01 3.051164e+01 4.598833e+01 2.705181e+01 3.202696e+01 3.299352e+01 3.729959e+01 2.173226e+01 3.046821e+00 2.455704e+00 2.618335e+00 3.076942e+00 4.513603e+00 3.877665e+00 6.550420e+00 5.130284e+00 4.925814e+00 5.385268e+00 4.144716e+00 2.795480e+00 2.268303e-03
<GCONST> 9.528824e+01
<MIXTURE> 70 1.329190e-02
<MEAN> 25
 6.643315e+00 -2.514434e+00 -3.675745e+00 -3.551160e+00 -9.702565e-01 -1.597054e-01 -8.303541e+00 -4.856782e+00 3.879892e-01 2.472276e+00 4.875624e-01 -4.346107e+00 1.513098e+00 -1.255624e+00 -7.270378e-01 -2.186454e+00 -1.403710e+00 1.283675e+00 -1.576104e+00 -2.272672e-01 1.063362e-01 3.746423e-01 6.038846e-01 -1.365631e+00 7.126474e-02
<VARIANCE> 25
 9.311382e+00 1.823748e+01 2.557854e+01 3.986580e+01 2.741046e+01 3.761883e+01 4.271975e+01 3.431835e+01 3.899167e+01 2.774706e+01 3.557968e+01 2.441900e+01 3.165324e+00 2.706130e+00 4.123849e+00 4.034063e+00 4.602003e+00 5.151033e+00 6.012337e+00 5.816508e+00 4.868853e+00 4.998404e+00 4.973057e+00 3.436014e+00 2.770187e-03
<GCONST> 9.781231e+01
<MIXTURE> 71 1.406903e-02
<MEAN> 25
 5.774231e+00 3.816675e+00 3.327598e+00 2.097898e+00 -2.747883e+00 -3.299054e+00 -2.984782e+00 -5.463739e+00 -4.017604e+00 -1.223035e+00 -3.269282e+00 -2.070215e+00 -1.614275e+00 -8.883051e-01 5.124189e-01 -1.856475e+00 1.027190e+00 1.046791e-02 -5.098268e-01 1.508466e+00 2.251751e-01 -7.681546e-01 5.439475e-01 5.423822e-01 3.813430e-02
<VARIANCE> 25
 1.774780e+01 2.111243e+01 2.232279e+01 3.346956e+01 2.998689e+01 2.940344e+01 3.786350e+01 2.940881e+01 2.944891e+01 3.203675e+01 3.109380e+01 2.877881e+01 1.185092e+00 2.432305e+00 4.668698e+00 3.649458e+00 3.475553e+00 3.425136e+00 3.861988e+00 3.641248e+00 3.490063e+00 3.998081e+00 3.070243e+00 3.170266e+00 1.206591e-03
<GCONST> 9.313852e+01
<MIXTURE> 72 8.134747e-03
<MEAN> 25
 2.735345e+00 -4.797061e+00 7.023631e+00 -1.821387e+00 -1.148333e+01 -9.662021e+00 -3.799430e+00 6.146550e-01 -4.895213e+00 -3.519047e+00 1.319986e+00 -6.845975e-01 9.009584e-01 -7.887918e-01 -2.932215e+00 6.618698e-01 2.344502e+00 -2.008432e-01 -1.316068e+00 8.594716e-01 1.858349e+00 -8.492481e-02 -1.145253e+00 5.765740e-01 -7.470663e-03
<VARIANCE> 25
 1.033679e+01 1.687113e+01 3.093249e+01 2.700392e+01 2.822724e+01 2.320899e+01 3.321865e+01 2.594059e+01 3.154996e+01 3.372294e+01 4.061556e+01 2.340631e+01 3.974128e-01 8.673117e-01 1.719525e+00 1.404011e+00 2.219049e+00 2.787901e+00 2.337960e+00 2.715301e+00 1.803887e+00 3.189092e+00 1.693887e+00 1.901258e+00 5.253370e-04
<GCONST> 8.376123e+01
<MIXTURE> 73 1.213625e-02
<MEAN> 25
 -5.139132e+00 -6.633413e-01 -1.438044e+00 4.461489e+00 4.147553e+00 1.125318e+00 4.941777e+00 3.395284e+00 4.083192e+00 2.589093e+00 3.523440e+00 3.594883e+00 6.358989e-01 -1.253663e+00 -2.176429e-01 -2.275563e+00 -1.451378e+00 -2.082894e+00 -1.728119e+00 -6.457630e-01 -9.549991e-01 -4.486229e-01 -9.383414e-01 -2.009722e-01 1.356947e-01
<VARIANCE> 25
 1.262611e+01 1.324557e+01 1.341640e+01 1.930703e+01 1.804112e+01 2.406529e+01 1.678437e+01 2.072228e+01 1.473931e+01 1.637839e+01 2.051202e+01 1.602135e+01 3.405743e+00 2.426718e+00 5.573306e+00 3.754341e+00 4.793397e+00 3.780516e+00 4.661033e+00 3.626692e+00 2.830480e+00 3.328789e+00 4.376074e+00 2.652610e+00 3.789600e-03
<GCONST> 8.982662e+01
<MIXTURE> 74 1.756491e-02
<MEAN> 25
 3.438745e+00 -1.978965e+00 5.700840e+00 -1.954999e+00 -7.594002e+00 -7.603231e+00 -1.182128e+00 -1.664576e-01 -6.054549e+00 3.130354e-01 -2.004243e-01 -1.759169e+00 4.723932e-01 1.995697e+00 -9.978236e-01 1.449235e+00 1.053503e+00 5.375709e-01 1.034845e+00 -8.315595e-01 6.694998e-01 7.519209e-01 -4.533758e-01 1.255691e-01 -8.415593e-02
<VARIANCE> 25
 8.880344e+00 1.586362e+01 3.096285e+01 2.615927e+01 2.073632e+01 2.899079e+01 3.782812e+01 2.759113e+01 4.158720e+01 3.739626e+01 2.664775e+01 3.181828e+01 1.361430e+00 1.180133e+00 2.884212e+00 1.663981e+00 1.916702e+00 2.364274e+00 3.221972e+00 2.733971e+00 3.418863e+00 3.906854e+00 2.005852e+00 2.856745e+00 1.178737e-03
<GCONST> 8.835724e+01
<MIXTURE> 75 9.711651e-03
<MEAN> 25
 6.234019e-01 -3.199394e+00 1.153451e+01 -1.300948e+00 -1.092319e+01 -8.023247e+00 -5.185500e+00 -6.272874e-01 -5.572833e+00 -3.894234e+00 3.018781e+00 -2.162003e+00 1.566894e+00 -1.954259e+00 1.005432e+00 -5.312601e-01 -2.322766e+00 -9.073754e-01 -1.681612e+00 8.484970e-01 -9.712214e-01 -9.920639e-04 1.082353e+00 -1.208360e+00 5.652163e-02
<VARIANCE> 25
 8.501416e+00 1.373622e+01 2.296524e+01 2.290188e+01 1.870546e+01 2.139033e+01 1.769528e+01 1.571752e+01 2.105593e+01 1.938261e+01 1.110763e+01 2.421566e+01 1.766673e+00 1.209877e+00 3.022875e+00 1.968909e+00 3.189666e+00 2.700557e+00 2.753584e+00 3.379826e+00 3.392378e+00 2.568708e+00 1.769961e+00 2.458437e+00 1.111278e-03
<GCONST> 8.395901e+01
<MIXTURE> 76 1.052359e-02
<MEAN> 25
 -4.196505e+00 1.302468e+00 -2.773290e+00 4.295486e+00 4.028122e+00 1.856892e+00 4.890471e+00 2.147198e+00 2.680496e+00 -1.480136e+00 -1.376951e-01 2.594285e+00 -3.045439e-01 -6.100199e-01 1.644743e-01 -6.260924e-01 -6.385717e-01 -1.057430e+00 -6.935539e-01 -5.401963e-01 -4.780477e-01 -5.461425e-01 -1.566162e-01 4.007662e-02 2.439021e-02
<VARIANCE> 25
 2.999260e+01 1.993809e+01 1.728067e+01 1.921477e+01 1.507831e+01 2.189487e+01 1.769195e+01 2.136948e+01 2.177101e+01 1.818225e+01 1.663381e+01 1.235528e+01 1.017207e+00 9.957616e-01 1.179850e+00 1.177042e+00 1.060579e+00 2.031870e+00 1.742078e+00 1.223886e+00 1.420181e+00 1.586244e+00 1.294263e+00 1.302663e+00 1.246480e-03
<GCONST> 7.770007e+01
<MIXTURE> 77 1.244626e-02
<MEAN> 25
 -3.183021e-01 7.747320e+00 1.261127e+01 -1.181519e+01 -7.119673e+00 1.008803e+00 -8.974971e+00 -6.713557e+00 -4.081880e+00 -1.525560e-01 -3.877200e+00 -1.833147e+00 9.453488e-02 1.500306e-01 1.045415e-01 2.136034e-01 -5.664348e-02 9.614217e-02 -2.986667e-02 -5.014197e-02 7.400505e-02 -3.761924e-02 4.806384e-02 1.505546e-01 -1.023615e-02
<VARIANCE> 25
 9.951536e+00 2.529373e+01 3.006765e+01 3.955691e+01 3.201332e+01 3.235918e+01 3.544780e+01 3.416864e+01 3.811273e+01 3.524464e+01 4.071157e+01 3.375528e+01 3.015759e-01 7.366174e-01 6.524920e-01 1.061295e+00 1.225868e+00 9.708216e-01 1.167612e+00 1.026274e+00 1.001053e+00 1.057129e+00 9.146023e-01 9.416170e-01 5.480988e-04
<GCONST> 7.790852e+01
<MIXTURE> 78 9.702551e-03
<MEAN> 25
 -1.069026e+01 1.125699e+00 -1.848820e+00 2.144689e+00 4.344886e+00 -2.062260e+00 3.698426e+00 2.575465e+00 2.733543e+00 4.704299e-01 -4.113045e-01 3.134098e+00 2.185769e+00 -2.121259e-01 1.254179e-01 5.508250e-01 -5.286099e-02 8.196754e-02 -1.570562e-01 -8.518547e-02 2.838502e-01 3.047754e-02 -5.139774e-01 -5.135888e-01 -5.832253e-02
<VARIANCE> 25
 4.492676e+01 2.993475e+01 3.218082e+01 3.106679e+01 3.663162e+01 3.410643e+01 3.394678e+01 3.099002e+01 2.640626e+01 2.671397e+01 2.586475e+01 2.052031e+01 4.934276e+00 2.372869e+00 2.825824e+00 2.900198e+00 2.735289e+00 3.701174e+00 3.311097e+00 2.689395e+00 2.294595e+00 2.261110e+00 2.414376e+00 2.126987e+00 4.493926e-03
<GCONST> 9.392333e+01
<MIXTURE> 79 1.156824e-02
<MEAN> 25
 2.818676e+00 -3.319878e-01 1.040164e+01 -7.671813e+00 -1.068196e+01 -3.139796e-01 -3.020846e+00 -4.482716e+00 -9.182137e+00 8.228072e-01 1.470458e+00 -4.432881e+00 1.245605e+00 3.334135e-01 -2.224353e+00 2.425410e+00 7.447712e-01 -1.492128e+00 6.316448e-01 6.766744e-01 8.151609e-01 -7.096868e-01 -1.267029e-01 3.277595e-01 -4.415690e-02
<VARIANCE> 25
 1.231572e+01 1.695769e+01 3.441969e+01 3.803209e+01 2.257163e+01 4.146836e+01 2.378407e+01 2.299841e+01 3.038517e+01 3.085562e+01 3.395789e+01 2.206730e+01 6.265785e-01 1.657921e+00 1.882360e+00 1.886575e+00 1.421509e+00 2.284536e+00 1.819297e+00 2.283196e+00 2.733421e+00 2.523294e+00 1.821141e+00 1.554783e+00 9.686794e-04
<GCONST> 8.501377e+01
<MIXTURE> 80 7.550998e-03
<MEAN> 25
 -1.452975e+01 3.745257e+00 1.514660e+00 2.240944e+00 2.257227e+00 1.693296e+00 6.062481e+00 1.432212e+00 2.894965e+00 1.871659e+00 3.803613e+00 1.289590e+00 4.043951e+00 -1.802045e-01 1.728138e+00 -8.977103e-01 -2.869998e+00 -2.898381e+00 -2.242797e+00 -1.875258e+00 -1.963365e+00 -1.523862e+00 -1.354414e+00 -6.565602e-01 -3.330034e-02
<VARIANCE> 25
 1.831199e+01 1.810177e+01 3.193425e+01 3.270744e+01 2.547082e+01 2.522780e+01 2.553838e+01 3.172369e+01 2.243332e+01 3.049455e+01 2.807048e+01 1.697679e+01 2.240888e+00 2.340710e+00 2.277250e+00 3.677671e+00 3.055030e+00 2.400031e+00 2.762883e+00 3.112595e+00 2.415409e+00 2.447695e+00 2.687906e+00 1.771534e+00 1.737624e-03
<GCONST> 8.946812e+01
<MIXTURE> 81 8.025434e-03
<MEAN> 25
 -1.133487e+00 3.561407e+00 1.096828e+01 -1.462551e+01 -8.889777e+00 -1.229661e+00 -6.443054e+00 -7.844373e+00 -4.755194e+00 -1.327491e-01 -6.680521e+00 -2.331768e+00 1.139686e-02 -3.799440e-01 -1.075085e-01 -5.582619e-01 -4.209146e-01 2.548611e-01 5.129671e-01 8.060765e-02 -1.141122e-01 1.369612e-01 -4.550905e-01 -9.993277e-02 1.638425e-02
<VARIANCE> 25
 9.045826e+00 3.167177e+01 2.923194e+01 2.688792e+01 3.050453e+01 2.757285e+01 4.049011e+01 2.737839e+01 3.652716e+01 3.037628e+01 2.729488e+01 2.845329e+01 9.161084e-01 2.337140e+00 1.640225e+00 2.599151e+00 2.411857e+00 2.092201e+00 3.426481e+00 2.060431e+00 2.224178e+00 2.513643e+00 2.056720e+00 1.913267e+00 1.594271e-03
<GCONST> 8.811789e+01
<MIXTURE> 82 8.213053e-03
<MEAN> 25
 -8.972319e+00 -3.456506e+00 1.361690e+00 -2.745182e+00 2.538783e+00 2.891333e-01 2.140515e+00 -2.752312e-01 2.705190e+00 5.108957e-01 2.100742e+00 4.200790e+00 -1.083172e+00 -6.707528e-01 7.693871e-01 -2.460181e+00 -1.488861e+00 -1.590412e+00 -1.480810e+00 -7.891433e-01 -4.354967e-01 -2.127414e-01 -1.251252e-01 -9.072734e-02 1.676060e-01
<VARIANCE> 25
 1.762090e+01 2.106506e+01 2.687541e+01 2.644201e+01 2.853818e+01 2.676649e+01 2.849399e+01 3.490942e+01 2.490673e+01 2.886425e+01 2.789377e+01 2.094236e+01 3.240305e+00 3.360292e+00 3.395333e+00 2.829105e+00 3.458359e+00 3.007885e+00 3.076271e+00 2.469892e+00 2.291183e+00 2.307148e+00 2.184352e+00 1.649482e+00 3.122470e-03
<GCONST> 9.111627e+01
<MIXTURE> 83 1.167529e-02
<MEAN> 25
 -1.914478e+01 5.448381e+00 -1.166188e-01 -1.460519e+00 6.225305e+00 3.458298e-01 5.602049e+00 1.469842e+00 1.390867e+00 1.944206e+00 6.809347e-01 2.599018e+00 -1.033593e-01 -4.019119e-01 1.618379e-01 -3.833784e-01 -2.774902e-01 -5.900871e-02 -1.778783e-01 -2.060239e-01 -7.832424e-02 1.720017e-01 -3.494507e-02 -1.531602e-01 7.467207e-03
<VARIANCE> 25
 9.070901e+00 1.190858e+01 2.644843e+01 1.831632e+01 2.115610e+01 2.357934e+01 1.651210e+01 2.489442e+01 1.742434e+01 2.112915e+01 1.922894e+01 1.105846e+01 8.271201e-01 6.965085e-01 1.062165e+00 8.822777e-01 1.165910e+00 1.162940e+00 1.168475e+00 1.397034e+00 1.227781e+00 1.471029e+00 1.219241e+00 8.836379e-01 6.848032e-04
<GCONST> 7.386880e+01
<MIXTURE> 84 1.066614e-02
<MEAN> 25
 7.973025e-01 8.278591e+00 6.729420e+00 6.778952e+00 2.162537e+00 -1.024473e+00 -8.166705e-01 -3.237188e+00 -3.776705e+00 -3.085825e+00 -1.977343e+00 -1.212281e+00 -1.515017e+00 -7.459353e-01 -1.551397e+00 1.398957e+00 2.218721e+00 1.506372e+00 1.465214e+00 1.201579e+00 1.350037e+00 1.574384e-01 3.989737e-01 7.556892e-01 -7.053054e-02
<VARIANCE> 25
 2.003733e+01 1.784542e+01 1.909198e+01 2.428996e+01 2.501519e+01 2.542961e+01 2.451263e+01 2.716615e+01 2.614926e+01 2.162395e+01 2.043486e+01 2.608656e+01 2.107557e+00 2.649220e+00 3.696732e+00 3.124358e+00 2.788808e+00 3.014279e+00 2.890805e+00 2.945912e+00 3.083095e+00 2.999671e+00 2.933722e+00 2.888400e+00 2.940965e-03
<GCONST> 9.050824e+01
<MIXTURE> 85 7.591393e-03
<MEAN> 25
 -3.637843e+00 6.973664e+00 6.025618e+00 6.516231e-01 -3.370204e+00 -5.422317e+00 -2.344002e+00 -5.938371e+00 -3.137656e+00 -3.620076e+00 -6.155728e-01 -1.704273e+00 3.689973e+00 -6.968556e-02 1.941130e+00 -1.867774e+00 -3.412763e+00 -2.630577e+00 -2.856090e+00 -2.037863e+00 -2.399957e+00 -1.116074e+00 -1.783088e+00 -8.902906e-01 1.971403e-02
<VARIANCE> 25
 3.821637e+01 2.449000e+01 3.177967e+01 3.718293e+01 3.568817e+01 3.669375e+01 2.886013e+01 2.458948e+01 2.437556e+01 2.435684e+01 2.227761e+01 1.975643e+01 2.774793e+00 4.169909e+00 3.561232e+00 4.618868e+00 3.854411e+00 3.485878e+00 3.622780e+00 3.812618e+00 3.449630e+00 3.770777e+00 4.224071e+00 3.396819e+00 4.944191e-03
<GCONST> 9.647065e+01
<MIXTURE> 86 1.273941e-02
<MEAN> 25
 -2.516603e+00 1.366040e-01 -1.807701e+00 6.688048e+00 4.680593e+00 2.249540e+00 5.777136e+00 4.491389e+00 6.089284e+00 2.462363e+00 2.130790e+00 2.795530e+00 -5.024187e-02 -4.656426e-02 3.715051e-02 2.534894e-02 -9.041777e-02 -1.701211e-01 -3.664766e-01 -4.343590e-01 -3.797346e-01 -2.942197e-01 -1.829908e-01 -2.165481e-01 -1.690135e-03
<VARIANCE> 25
 4.909744e+00 8.193442e+00 8.551908e+00 9.278189e+00 1.017027e+01 1.169631e+01 1.080204e+01 1.038104e+01 1.246922e+01 1.251984e+01 1.249850e+01 1.211670e+01 8.031833e-02 2.316126e-01 2.959575e-01 4.484235e-01 6.548311e-01 8.584121e-01 7.316998e-01 6.876903e-01 9.113445e-01 9.700087e-01 8.503950e-01 7.744748e-01 7.016210e-05
<GCONST> 5.621206e+01
<MIXTURE> 87 1.100681e-02
<MEAN> 25
 -2.751242e+00 4.389170e+00 2.832247e+00 6.787142e+00 5.211976e+00 8.286340e-01 1.841694e+00 -8.346388e-01 -2.973295e-01 -1.054015e+00 -1.019544e+00 1.341137e-01 -2.034718e+00 -2.703780e+00 -1.814531e+00 -2.082256e+00 -6.809169e-02 -2.927189e-01 3.128995e-01 1.053469e+00 1.266357e+00 8.837082e-01 8.198310e-01 1.060521e+00 1.013605e-01
<VARIANCE> 25
 3.663645e+01 2.682400e+01 2.821011e+01 3.053419e+01 2.705647e+01 3.032372e+01 2.683171e+01 2.549828e+01 2.389505e+01 2.299244e+01 2.429445e+01 2.152320e+01 3.667653e+00 2.494675e+00 4.028952e+00 3.432566e+00 4.358086e+00 4.121341e+00 4.666885e+00 4.089151e+00 3.403005e+00 3.280167e+00 3.309807e+00 2.708720e+00 4.493964e-03
<GCONST> 9.528051e+01
<MIXTURE> 88 1.256585e-02
<MEAN> 25
 -3.095468e+00 8.437535e-01 -2.167537e+00 5.084064e+00 4.003345e+00 2.048967e+00 4.722024e+00 3.206625e+00 3.820846e+00 8.520077e-01 1.658024e+00 2.755449e+00 -2.130318e-01 1.364572e-01 -4.923832e-02 3.852453e-01 3.554675e-01 3.234032e-01 1.689343e-01 -1.999071e-01 -9.755306e-02 -3.722940e-01 -1.661587e-02 -2.198895e-01 -4.726614e-03
<VARIANCE> 25
 9.354764e+00 8.809880e+00 1.118526e+01 1.153405e+01 1.291567e+01 1.352749e+01 1.731245e+01 1.692101e+01 1.509484e+01 1.428754e+01 1.533882e+01 1.171019e+01 1.320593e+00 1.062960e+00 1.613191e+00 1.732692e+00 1.634033e+00 2.149961e+00 2.232270e+00 1.707894e+00 2.022332e+00 1.664324e+00 2.468521e+00 1.753365e+00 1.434351e-03
<GCONST> 7.671992e+01
<MIXTURE> 89 9.333527e-03
<MEAN> 25
 5.818167e+00 -6.208832e+00 -2.845960e+00 -2.749632e+00 -1.266797e+00 -4.942940e+00 -6.478345e+00 3.092370e+00 2.911275e+00 -2.282892e+00 -5.543740e+00 -2.891399e+00 -5.588406e-01 -6.875639e-02 1.946295e+00 7.453452e-01 -1.760984e+00 -1.616279e+00 8.387475e-01 1.222503e+00 -7.374875e-01 -1.342878e+00 1.646939e-01 1.495064e+00 4.634361e-04
<VARIANCE> 25
 8.110633e+00 2.575854e+01 3.042362e+01 2.587679e+01 3.189321e+01 3.817096e+01 5.810737e+01 4.111877e+01 3.513005e+01 3.665807e+01 3.139682e+01 2.818203e+01 3.347708e-01 1.005212e+00 1.308993e+00 1.288725e+00 1.713558e+00 1.847538e+00 2.161230e+00 1.872290e+00 1.995006e+00 1.821986e+00 2.544243e+00 1.340688e+00 5.248125e-04
<GCONST> 8.373593e+01
<MIXTURE> 90 7.114505e-03
<MEAN> 25
 2.372272e+00 -9.593791e+00 -4.472645e+00 -3.931624e+00 -3.413460e+00 -1.895604e+00 3.149507e+00 1.128837e+00 -7.431170e+00 -1.004762e+01 -3.281470e+00 -6.845317e-01 -1.511488e-01 8.833132e-01 1.169963e+00 -8.228605e-01 -1.617532e+00 -2.232084e-01 7.039081e-01 -2.301762e-01 -2.151311e-01 7.377716e-01 2.101948e-01 -5.937313e-01 -1.085356e-02
<VARIANCE> 25
 8.463276e+00 1.791091e+01 2.221057e+01 2.734454e+01 3.595915e+01 3.157108e+01 3.927211e+01 3.555737e+01 3.463535e+01 2.791946e+01 2.705118e+01 2.558540e+01 2.253541e-01 6.208997e-01 7.656243e-01 1.052914e+00 1.431408e+00 1.560053e+00 1.853787e+00 1.625453e+00 1.856666e+00 1.669788e+00 1.485199e+00 1.355275e+00 2.145848e-04
<GCONST> 7.817583e+01
<MIXTURE> 91 7.852945e-03
<MEAN> 25
 5.195968e+00 -6.622156e+00 -8.032260e+00 -5.700308e+00 3.794234e+00 1.355631e+00 -3.650671e+00 -2.046053e-01 5.154316e-01 -6.312994e-02 -4.979363e+00 -3.917825e+00 2.276039e-01 9.770619e-01 1.521236e-01 5.425557e-01 6.003397e-02 -6.886184e-01 6.987215e-02 8.419979e-02 6.488285e-02 3.693050e-01 -1.944527e-01 2.410642e-01 -3.937941e-02
<VARIANCE> 25
 9.770957e+00 2.208916e+01 1.651848e+01 3.278986e+01 2.700137e+01 4.386553e+01 5.172337e+01 3.543984e+01 4.342599e+01 6.189744e+01 3.952274e+01 3.290663e+01 3.804527e-01 8.304371e-01 1.172865e+00 1.399917e+00 2.251086e+00 2.346671e+00 2.202910e+00 1.933522e+00 1.957584e+00 2.084395e+00 1.762496e+00 1.614693e+00 5.454606e-04
<GCONST> 8.466925e+01
<MIXTURE> 92 7.852945e-03
<MEAN> 25
 5.195968e+00 -6.622156e+00 -8.032260e+00 -5.700308e+00 3.794234e+00 1.355631e+00 -3.650671e+00 -2.046053e-01 5.154316e-01 -6.312994e-02 -4.979363e+00 -3.917825e+00 2.276039e-01 9.770619e-01 1.521236e-01 5.425557e-01 6.003397e-02 -6.886184e-01 6.987215e-02 8.419979e-02 6.488285e-02 3.693050e-01 -1.944527e-01 2.410642e-01 -3.937941e-02
<VARIANCE> 25
 9.770957e+00 2.208916e+01 1.651848e+01 3.278986e+01 2.700137e+01 4.386553e+01 5.172337e+01 3.543984e+01 4.342599e+01 6.189744e+01 3.952274e+01 3.290663e+01 3.804527e-01 8.304371e-01 1.172865e+00 1.399917e+00 2.251086e+00 2.346671e+00 2.202910e+00 1.933522e+00 1.957584e+00 2.084395e+00 1.762496e+00 1.614693e+00 5.454606e-04
<GCONST> 8.466925e+01
<MIXTURE> 93 6.122769e-03
<MEAN> 25
 -6.195977e+00 -7.532626e-01 -2.519538e+00 6.036359e+00 5.910131e+00 3.531243e+00 6.232004e+00 3.777259e+00 4.256195e+00 2.033330e+00 1.341537e+00 3.501241e+00 -5.699911e-02 -1.699430e-01 -2.649728e-01 -3.367950e-01 -3.353511e-01 -2.829552e-01 -2.067993e-01 -1.843871e-01 -1.644315e-01 -1.623397e-01 -9.187036e-02 -5.021068e-02 -1.317564e-04
<VARIANCE> 25
 1.096942e+01 6.272552e+00 7.663634e+00 1.118681e+01 1.124665e+01 1.582631e+01 1.413619e+01 1.575550e+01 1.402586e+01 1.599130e+01 1.740657e+01 1.384300e+01 8.006980e-02 1.491936e-01 2.589211e-01 3.780724e-01 4.749853e-01 6.491379e-01 7.801345e-01 8.516777e-01 8.554906e-01 8.594769e-01 8.659050e-01 9.211946e-01 1.422651e-06
<GCONST> 5.378142e+01
<MIXTURE> 94 6.122769e-03
<MEAN> 25
 -6.195977e+00 -7.532626e-01 -2.519538e+00 6.036359e+00 5.910131e+00 3.531243e+00 6.232004e+00 3.777259e+00 4.256195e+00 2.033330e+00 1.341537e+00 3.501241e+00 -5.699911e-02 -1.699430e-01 -2.649728e-01 -3.367950e-01 -3.353511e-01 -2.829552e-01 -2.067993e-01 -1.843871e-01 -1.644315e-01 -1.623397e-01 -9.187036e-02 -5.021068e-02 -1.317564e-04
<VARIANCE> 25
 1.096942e+01 6.272552e+00 7.663634e+00 1.118681e+01 1.124665e+01 1.582631e+01 1.413619e+01 1.575550e+01 1.402586e+01 1.599130e+01 1.740657e+01 1.384300e+01 8.006980e-02 1.491936e-01 2.589211e-01 3.780724e-01 4.749853e-01 6.491379e-01 7.801345e-01 8.516777e-01 8.554906e-01 8.594769e-01 8.659050e-01 9.211946e-01 1.422651e-06
<GCONST> 5.378142e+01
<MIXTURE> 95 5.258835e-03
<MEAN> 25
 -2.624295e+00 1.589574e+00 -3.280237e+00 4.912234e+00 4.523117e+00 2.404364e+00 5.089190e+00 2.337283e+00 3.662130e+00 -3.062244e-01 -7.153061e-01 1.900242e+00 4.713110e-02 9.536043e-02 8.663258e-02 1.090023e-02 -3.142140e-01 -7.081783e-01 -1.039099e+00 -1.115742e+00 -1.073109e+00 -8.686047e-01 -5.488060e-01 -3.067106e-01 -2.740133e-03
<VARIANCE> 25
 7.715180e+00 8.426576e+00 7.591487e+00 1.011071e+01 9.202902e+00 1.119698e+01 1.373150e+01 1.128411e+01 1.181544e+01 1.123996e+01 1.308006e+01 1.064127e+01 1.488471e-01 2.516707e-01 4.561894e-01 4.659763e-01 7.292493e-01 9.091576e-01 8.071406e-01 8.736499e-01 8.557016e-01 8.991482e-01 1.089715e+00 1.169924e+00 6.131250e-05
<GCONST> 5.865303e+01
<MIXTURE> 96 7.034694e-03
<MEAN> 25
 -3.431094e+00 1.193520e+00 -3.025605e+00 5.173778e+00 3.984151e+00 1.208766e+00 4.632990e+00 2.085581e+00 2.924570e+00 2.387724e-01 -3.115140e-01 2.031904e+00 -4.438435e-02 8.812375e-02 2.622009e-01 3.864524e-01 4.298745e-01 5.057349e-01 1.915955e-01 -1.545481e-01 -5.446687e-01 -6.917691e-01 -5.828354e-01 -3.785214e-01 -1.320660e-04
<VARIANCE> 25
 1.277992e+01 1.157021e+01 1.018147e+01 1.162136e+01 1.112630e+01 1.571067e+01 1.560346e+01 1.604054e+01 1.670042e+01 1.482603e+01 1.704730e+01 1.223468e+01 1.063071e-01 1.891332e-01 3.088151e-01 3.328044e-01 5.394819e-01 6.772798e-01 9.822163e-01 9.190656e-01 9.307774e-01 7.852661e-01 8.370135e-01 8.126535e-01 2.009667e-06
<GCONST> 5.614753e+01
<MIXTURE> 97 7.034694e-03
<MEAN> 25
 -3.431094e+00 1.193520e+00 -3.025605e+00 5.173778e+00 3.984151e+00 1.208766e+00 4.632990e+00 2.085581e+00 2.924570e+00 2.387724e-01 -3.115140e-01 2.031904e+00 -4.438435e-02 8.812375e-02 2.622009e-01 3.864524e-01 4.298745e-01 5.057349e-01 1.915955e-01 -1.545481e-01 -5.446687e-01 -6.917691e-01 -5.828354e-01 -3.785214e-01 -1.320660e-04
<VARIANCE> 25
 1.277992e+01 1.157021e+01 1.018147e+01 1.162136e+01 1.112630e+01 1.571067e+01 1.560346e+01 1.604054e+01 1.670042e+01 1.482603e+01 1.704730e+01 1.223468e+01 1.063071e-01 1.891332e-01 3.088151e-01 3.328044e-01 5.394819e-01 6.772798e-01 9.822163e-01 9.190656e-01 9.307774e-01 7.852661e-01 8.370135e-01 8.126535e-01 2.009667e-06
<GCONST> 5.614753e+01
<MIXTURE> 98 9.917808e-03
<MEAN> 25
 -1.379715e+00 1.471184e+00 -5.833963e-02 3.793277e+00 2.605246e+00 1.405942e+00 3.055453e+00 1.393197e+00 1.478733e+00 5.482407e-01 8.681778e-02 2.081075e+00 -1.575939e+00 -1.016455e+00 -1.042940e+00 3.616466e-01 8.182073e-01 1.189941e+00 1.266727e+00 1.202101e+00 1.509023e+00 7.316279e-01 1.133043e+00 1.071989e+00 -3.447712e-02
<VARIANCE> 25
 1.361605e+01 1.621896e+01 2.664528e+01 2.697676e+01 3.441098e+01 3.406191e+01 2.647702e+01 2.328286e+01 2.430006e+01 2.993830e+01 2.298262e+01 2.623260e+01 1.374952e+00 1.854765e+00 2.347561e+00 2.145121e+00 2.322910e+00 3.130470e+00 2.536835e+00 2.230880e+00 2.390635e+00 3.032844e+00 2.413666e+00 2.025583e+00 2.477763e-03
<GCONST> 8.824159e+01
<MIXTURE> 99 6.696178e-03
<MEAN> 25
 -5.359247e+00 8.827378e+00 5.749108e+00 3.305131e+00 1.099078e+00 -4.757452e+00 -1.197936e+00 -4.055798e+00 -3.312962e+00 -3.898777e+00 -1.386980e+00 6.159486e-01 3.071251e-01 -7.569025e-01 3.692188e-01 -4.804918e-01 -1.003857e+00 -4.548706e-01 -3.716253e-01 -3.226891e-01 -1.815364e-01 -9.965093e-02 1.736803e-01 1.114123e-01 1.617670e-02
<VARIANCE> 25
 3.518531e+01 2.839768e+01 4.498336e+01 3.195389e+01 3.080640e+01 3.363712e+01 2.530019e+01 2.755664e+01 2.396200e+01 2.427579e+01 1.806964e+01 2.574372e+01 2.255322e+00 1.724271e+00 1.452134e+00 1.775326e+00 2.560940e+00 1.895213e+00 1.637205e+00 1.448778e+00 1.564279e+00 1.566507e+00 1.230362e+00 1.418891e+00 1.501500e-03
<GCONST> 8.582392e+01
<MIXTURE> 100 4.498084e-03
<MEAN> 25
 -1.764596e+00 5.986871e+00 1.028362e+01 -7.306018e+00 -1.029030e+01 -5.142365e+00 -4.464794e+00 -9.487942e+00 -4.952538e+00 -1.068506e+00 -2.282335e+00 -2.894252e+00 2.878516e+00 -1.375205e+00 1.419459e+00 -2.089911e+00 -3.423912e+00 -9.413672e-01 -1.339425e+00 -6.764321e-01 -1.697684e+00 2.289718e-01 -1.459026e+00 -4.794950e-01 8.317337e-03
<VARIANCE> 25
 1.356937e+01 2.155839e+01 2.104692e+01 2.680689e+01 2.391261e+01 2.264132e+01 2.833948e+01 2.170924e+01 2.675683e+01 2.142871e+01 2.327641e+01 2.081065e+01 1.797348e+00 3.693448e+00 2.762409e+00 4.045360e+00 3.812004e+00 4.464899e+00 3.841982e+00 4.128189e+00 4.190033e+00 3.839857e+00 3.922364e+00 3.386351e+00 1.850866e-03
<GCONST> 9.218877e+01
<MIXTURE> 101 6.007792e-03
<MEAN> 25
 6.091953e+00 -4.510995e+00 -4.418164e+00 -6.284516e+00 4.178344e-02 -2.105954e-01 -1.142557e+01 -3.976192e+00 2.142952e-01 1.955292e+00 -2.540263e-01 -4.898130e+00 4.523683e-01 8.247222e-01 -1.873445e+00 -1.744897e+00 1.355885e+00 2.701316e+00 -3.259065e-02 -1.505227e+00 -1.126215e+00 1.018943e+00 1.187078e+00 -3.799162e-01 -4.863659e-03
<VARIANCE> 25
 1.028961e+01 1.290967e+01 2.537755e+01 2.997861e+01 2.566854e+01 2.957515e+01 2.497004e+01 3.006817e+01 2.772691e+01 3.959877e+01 3.844751e+01 1.574572e+01 3.097892e-01 6.578297e-01 1.193655e+00 1.207362e+00 1.513180e+00 1.886205e+00 1.531995e+00 1.596494e+00 1.797975e+00 1.663692e+00 1.660262e+00 1.592918e+00 3.534659e-04
<GCONST> 7.896925e+01
<MIXTURE> 102 6.007792e-03
<MEAN> 25
 6.091953e+00 -4.510995e+00 -4.418164e+00 -6.284516e+00 4.178344e-02 -2.105954e-01 -1.142557e+01 -3.976192e+00 2.142952e-01 1.955292e+00 -2.540263e-01 -4.898130e+00 4.523683e-01 8.247222e-01 -1.873445e+00 -1.744897e+00 1.355885e+00 2.701316e+00 -3.259065e-02 -1.505227e+00 -1.126215e+00 1.018943e+00 1.187078e+00 -3.799162e-01 -4.863659e-03
<VARIANCE> 25
 1.028961e+01 1.290967e+01 2.537755e+01 2.997861e+01 2.566854e+01 2.957515e+01 2.497004e+01 3.006817e+01 2.772691e+01 3.959877e+01 3.844751e+01 1.574572e+01 3.097892e-01 6.578297e-01 1.193655e+00 1.207362e+00 1.513180e+00 1.886205e+00 1.531995e+00 1.596494e+00 1.797975e+00 1.663692e+00 1.660262e+00 1.592918e+00 3.534659e-04
<GCONST> 7.896925e+01
<MIXTURE> 103 5.694618e-03
<MEAN> 25
 3.387332e+00 -9.385309e+00 -5.774366e+00 -3.076145e+00 -1.319317e+00 -2.050518e+00 2.037235e+00 2.418371e+00 -4.560580e+00 -9.146933e+00 -4.963236e+00 5.583222e-01 -1.744858e-01 -1.500634e+00 -9.776448e-01 3.151381e-01 1.213905e+00 1.012845e+00 7.292050e-02 -2.405636e-01 -7.360403e-01 -9.518575e-01 -1.794289e-02 8.193201e-02 2.783236e-02
<VARIANCE> 25
 1.003530e+01 2.012037e+01 2.534071e+01 3.067588e+01 4.628884e+01 3.432256e+01 4.861047e+01 3.582302e+01 4.104902e+01 2.898101e+01 2.955846e+01 2.653848e+01 6.350412e-01 1.234197e+00 1.509294e+00 1.974070e+00 2.851994e+00 2.332921e+00 3.055173e+00 2.510691e+00 2.548233e+00 2.513475e+00 2.104378e+00 2.003162e+00 8.076751e-04
<GCONST> 8.744525e+01
<MIXTURE> 104 5.694618e-03
<MEAN> 25
 3.387332e+00 -9.385309e+00 -5.774366e+00 -3.076145e+00 -1.319317e+00 -2.050518e+00 2.037235e+00 2.418371e+00 -4.560580e+00 -9.146933e+00 -4.963236e+00 5.583222e-01 -1.744858e-01 -1.500634e+00 -9.776448e-01 3.151381e-01 1.213905e+00 1.012845e+00 7.292050e-02 -2.405636e-01 -7.360403e-01 -9.518575e-01 -1.794289e-02 8.193201e-02 2.783236e-02
<VARIANCE> 25
 1.003530e+01 2.012037e+01 2.534071e+01 3.067588e+01 4.628884e+01 3.432256e+01 4.861047e+01 3.582302e+01 4.104902e+01 2.898101e+01 2.955846e+01 2.653848e+01 6.350412e-01 1.234197e+00 1.509294e+00 1.974070e+00 2.851994e+00 2.332921e+00 3.055173e+00 2.510691e+00 2.548233e+00 2.513475e+00 2.104378e+00 2.003162e+00 8.076751e-04
<GCONST> 8.744525e+01
<MIXTURE> 105 4.710235e-03
<MEAN> 25
 2.023987e+00 -1.976511e+00 1.012223e+01 -5.137661e+00 -1.113072e+01 -2.839997e+00 -4.550446e+00 -1.447311e+00 -5.959696e+00 -1.148691e+00 2.635970e+00 -1.921712e+00 2.798824e-02 7.183067e-02 2.178391e-02 -5.848611e-02 -4.450271e-02 -6.076165e-02 5.553873e-02 7.747918e-02 -4.227845e-02 -7.289511e-02 3.620073e-02 1.387528e-02 -2.739870e-03
<VARIANCE> 25
 1.044118e+01 2.456926e+01 4.395142e+01 5.643196e+01 3.141238e+01 5.869777e+01 3.376132e+01 3.720554e+01 4.974205e+01 4.334742e+01 3.771840e+01 2.629600e+01 9.057437e-02 1.550120e-01 3.032512e-01 2.736777e-01 3.627449e-01 4.205700e-01 4.322174e-01 4.704965e-01 4.446843e-01 4.868338e-01 3.987506e-01 3.504646e-01 1.000707e-04
<GCONST> 6.560575e+01
<MIXTURE> 106 4.710235e-03
<MEAN> 25
 2.023987e+00 -1.976511e+00 1.012223e+01 -5.137661e+00 -1.113072e+01 -2.839997e+00 -4.550446e+00 -1.447311e+00 -5.959696e+00 -1.148691e+00 2.635970e+00 -1.921712e+00 2.798824e-02 7.183067e-02 2.178391e-02 -5.848611e-02 -4.450271e-02 -6.076165e-02 5.553873e-02 7.747918e-02 -4.227845e-02 -7.289511e-02 3.620073e-02 1.387528e-02 -2.739870e-03
<VARIANCE> 25
 1.044118e+01 2.456926e+01 4.395142e+01 5.643196e+01 3.141238e+01 5.869777e+01 3.376132e+01 3.720554e+01 4.974205e+01 4.334742e+01 3.771840e+01 2.629600e+01 9.057437e-02 1.550120e-01 3.032512e-01 2.736777e-01 3.627449e-01 4.205700e-01 4.322174e-01 4.704965e-01 4.446843e-01 4.868338e-01 3.987506e-01 3.504646e-01 1.000707e-04
<GCONST> 6.560575e+01
<MIXTURE> 107 5.452374e-03
<MEAN> 25
 7.692021e+00 -2.804380e+00 -7.309029e+00 -9.240952e+00 1.999910e+00 3.275239e+00 -9.049021e+00 -4.711525e+00 -1.341129e+00 3.445264e+00 7.220138e-01 -4.332203e+00 -5.374891e-01 -6.632693e-01 7.955093e-01 1.711568e+00 2.419813e-01 -1.913866e+00 -7.531401e-01 9.221823e-01 1.608950e+00 9.888779e-02 -1.633167e+00 -6.185445e-01 -2.411684e-03
<VARIANCE> 25
 1.126302e+01 1.871824e+01 2.534607e+01 3.700699e+01 3.114398e+01 3.350428e+01 4.544249e+01 3.286252e+01 3.793719e+01 3.904371e+01 4.949265e+01 2.853836e+01 3.819964e-01 9.598662e-01 1.256080e+00 2.179255e+00 1.982690e+00 2.524344e+00 2.257578e+00 2.304216e+00 2.186051e+00 2.774408e+00 1.723189e+00 2.130919e+00 8.678412e-04
<GCONST> 8.627135e+01
<MIXTURE> 108 5.452374e-03
<MEAN> 25
 7.692021e+00 -2.804380e+00 -7.309029e+00 -9.240952e+00 1.999910e+00 3.275239e+00 -9.049021e+00 -4.711525e+00 -1.341129e+00 3.445264e+00 7.220138e-01 -4.332203e+00 -5.374891e-01 -6.632693e-01 7.955093e-01 1.711568e+00 2.419813e-01 -1.913866e+00 -7.531401e-01 9.221823e-01 1.608950e+00 9.888779e-02 -1.633167e+00 -6.185445e-01 -2.411684e-03
<VARIANCE> 25
 1.126302e+01 1.871824e+01 2.534607e+01 3.700699e+01 3.114398e+01 3.350428e+01 4.544249e+01 3.286252e+01 3.793719e+01 3.904371e+01 4.949265e+01 2.853836e+01 3.819964e-01 9.598662e-01 1.256080e+00 2.179255e+00 1.982690e+00 2.524344e+00 2.257578e+00 2.304216e+00 2.186051e+00 2.774408e+00 1.723189e+00 2.130919e+00 8.678412e-04
<GCONST> 8.627135e+01
<MIXTURE> 109 6.661064e-03
<MEAN> 25
 3.908528e+00 -1.038285e+01 -8.079363e+00 -1.444070e+00 2.863655e+00 -1.647692e-01 -5.885633e-01 1.372959e+00 -2.499207e+00 -7.809072e+00 -5.659617e+00 4.457273e-01 6.327759e-04 -1.066927e-01 -2.784326e-02 2.375123e-01 1.533575e-01 1.521587e-01 -4.230521e-02 -8.695348e-02 -5.891126e-02 -1.208152e-01 2.017447e-01 9.445674e-02 -3.766423e-03
<VARIANCE> 25
 9.212059e+00 1.863218e+01 1.995302e+01 3.037486e+01 3.917982e+01 3.588334e+01 4.975815e+01 3.339866e+01 4.395295e+01 3.916750e+01 3.321077e+01 3.108539e+01 2.130781e-01 4.180245e-01 5.184451e-01 6.119531e-01 1.217870e+00 1.005600e+00 1.355864e+00 1.050848e+00 1.078412e+00 9.131970e-01 8.450866e-01 9.969034e-01 1.753606e-04
<GCONST> 7.470902e+01
<MIXTURE> 110 6.661064e-03
<MEAN> 25
 3.908528e+00 -1.038285e+01 -8.079363e+00 -1.444070e+00 2.863655e+00 -1.647692e-01 -5.885633e-01 1.372959e+00 -2.499207e+00 -7.809072e+00 -5.659617e+00 4.457273e-01 6.327759e-04 -1.066927e-01 -2.784326e-02 2.375123e-01 1.533575e-01 1.521587e-01 -4.230521e-02 -8.695348e-02 -5.891126e-02 -1.208152e-01 2.017447e-01 9.445674e-02 -3.766423e-03
<VARIANCE> 25
 9.212059e+00 1.863218e+01 1.995302e+01 3.037486e+01 3.917982e+01 3.588334e+01 4.975815e+01 3.339866e+01 4.395295e+01 3.916750e+01 3.321077e+01 3.108539e+01 2.130781e-01 4.180245e-01 5.184451e-01 6.119531e-01 1.217870e+00 1.005600e+00 1.355864e+00 1.050848e+00 1.078412e+00 9.131970e-01 8.450866e-01 9.969034e-01 1.753606e-04
<GCONST> 7.470902e+01
<MIXTURE> 111 4.337247e-03
<MEAN> 25
 -2.910435e+00 7.472615e-01 -2.534048e+00 2.685488e+00 1.689320e+00 4.532079e-01 1.603138e+00 5.574653e-01 8.917097e-01 -1.082295e+00 -9.822801e-01 2.124540e+00 -2.296825e-02 -7.042037e-02 -4.704909e-02 -2.861538e-02 5.495037e-05 -2.021558e-02 8.792076e-03 -1.138794e-01 -1.827907e-01 -2.638692e-01 -2.864113e-01 -1.611381e-01 -8.318881e-04
<VARIANCE> 25
 7.377594e+00 8.102707e+00 9.105569e+00 8.992012e+00 1.193772e+01 1.719565e+01 1.271479e+01 1.262407e+01 1.029316e+01 1.162309e+01 1.257426e+01 9.715948e+00 7.145240e-02 1.680477e-01 2.242133e-01 3.632106e-01 5.752247e-01 7.129154e-01 8.160300e-01 7.568502e-01 9.648197e-01 8.675863e-01 8.823990e-01 8.002740e-01 3.019585e-05
<GCONST> 5.519841e+01
<MIXTURE> 112 4.337247e-03
<MEAN> 25
 -2.910435e+00 7.472615e-01 -2.534048e+00 2.685488e+00 1.689320e+00 4.532079e-01 1.603138e+00 5.574653e-01 8.917097e-01 -1.082295e+00 -9.822801e-01 2.124540e+00 -2.296825e-02 -7.042037e-02 -4.704909e-02 -2.861538e-02 5.495037e-05 -2.021558e-02 8.792076e-03 -1.138794e-01 -1.827907e-01 -2.638692e-01 -2.864113e-01 -1.611381e-01 -8.318881e-04
<VARIANCE> 25
 7.377594e+00 8.102707e+00 9.105569e+00 8.992012e+00 1.193772e+01 1.719565e+01 1.271479e+01 1.262407e+01 1.029316e+01 1.162309e+01 1.257426e+01 9.715948e+00 7.145240e-02 1.680477e-01 2.242133e-01 3.632106e-01 5.752247e-01 7.129154e-01 8.160300e-01 7.568502e-01 9.648197e-01 8.675863e-01 8.823990e-01 8.002740e-01 3.019585e-05
<GCONST> 5.519841e+01
<MIXTURE> 113 5.938666e-03
<MEAN> 25
 8.558096e+00 1.362594e+00 -8.297697e+00 -1.649791e+01 -7.138910e-01 6.005542e+00 -6.333151e+00 -2.650759e+00 -5.919312e+00 -1.017846e+00 1.707660e+00 -2.009202e-01 -5.356336e-02 9.856887e-02 -3.715508e-02 -1.671152e-01 1.634212e-01 2.980822e-02 -1.835052e-02 -6.682441e-02 -3.517306e-02 4.259496e-02 1.714142e-01 2.864385e-02 -2.619055e-03
<VARIANCE> 25
 1.410409e+01 1.506661e+01 2.554683e+01 3.464125e+01 4.338153e+01 2.875490e+01 3.779220e+01 3.720159e+01 3.172454e+01 4.319792e+01 3.801838e+01 2.448283e+01 1.323439e-01 3.416300e-01 3.135168e-01 5.710642e-01 6.469216e-01 6.322561e-01 6.821399e-01 8.476760e-01 8.180103e-01 8.604752e-01 6.597387e-01 6.489599e-01 1.170596e-04
<GCONST> 7.001707e+01
<MIXTURE> 114 5.938666e-03
<MEAN> 25
 8.558096e+00 1.362594e+00 -8.297697e+00 -1.649791e+01 -7.138910e-01 6.005542e+00 -6.333151e+00 -2.650759e+00 -5.919312e+00 -1.017846e+00 1.707660e+00 -2.009202e-01 -5.356336e-02 9.856887e-02 -3.715508e-02 -1.671152e-01 1.634212e-01 2.980822e-02 -1.835052e-02 -6.682441e-02 -3.517306e-02 4.259496e-02 1.714142e-01 2.864385e-02 -2.619055e-03
<VARIANCE> 25
 1.410409e+01 1.506661e+01 2.554683e+01 3.464125e+01 4.338153e+01 2.875490e+01 3.779220e+01 3.720159e+01 3.172454e+01 4.319792e+01 3.801838e+01 2.448283e+01 1.323439e-01 3.416300e-01 3.135168e-01 5.710642e-01 6.469216e-01 6.322561e-01 6.821399e-01 8.476760e-01 8.180103e-01 8.604752e-01 6.597387e-01 6.489599e-01 1.170596e-04
<GCONST> 7.001707e+01
<MIXTURE> 115 2.935202e-03
<MEAN> 25
 -3.507383e+00 -1.460597e-01 -3.108498e+00 3.990033e+00 2.703113e+00 -3.656485e-01 2.709355e+00 5.861416e-01 1.613493e+00 -3.097522e-01 -4.921932e-01 2.386127e+00 3.953790e-02 -7.817298e-02 -1.710646e-01 -4.160641e-01 -6.081750e-01 -6.110151e-01 -6.013382e-01 -5.260871e-01 -5.065513e-01 -4.346835e-01 -3.538499e-01 -1.973278e-01 -3.810443e-05
<VARIANCE> 25
 9.514690e+00 1.216442e+01 1.220766e+01 1.196981e+01 1.257877e+01 1.605662e+01 1.685532e+01 1.982244e+01 1.729058e+01 1.661131e+01 1.917476e+01 1.406082e+01 1.853922e-01 3.280105e-01 4.705557e-01 5.308190e-01 6.272776e-01 8.155673e-01 9.498670e-01 1.157910e+00 1.073336e+00 1.031079e+00 9.662804e-01 1.071999e+00 1.349127e-06
<GCONST> 5.991791e+01
<MIXTURE> 116 2.935202e-03
<MEAN> 25
 -3.507383e+00 -1.460597e-01 -3.108498e+00 3.990033e+00 2.703113e+00 -3.656485e-01 2.709355e+00 5.861416e-01 1.613493e+00 -3.097522e-01 -4.921932e-01 2.386127e+00 3.953790e-02 -7.817298e-02 -1.710646e-01 -4.160641e-01 -6.081750e-01 -6.110151e-01 -6.013382e-01 -5.260871e-01 -5.065513e-01 -4.346835e-01 -3.538499e-01 -1.973278e-01 -3.810443e-05
<VARIANCE> 25
 9.514690e+00 1.216442e+01 1.220766e+01 1.196981e+01 1.257877e+01 1.605662e+01 1.685532e+01 1.982244e+01 1.729058e+01 1.661131e+01 1.917476e+01 1.406082e+01 1.853922e-01 3.280105e-01 4.705557e-01 5.308190e-01 6.272776e-01 8.155673e-01 9.498670e-01 1.157910e+00 1.073336e+00 1.031079e+00 9.662804e-01 1.071999e+00 1.349127e-06
<GCONST> 5.991791e+01
<MIXTURE> 117 6.506003e-03
<MEAN> 25
 -4.580105e+00 1.131537e+00 9.796584e-01 9.726964e+00 6.264969e+00 6.163743e+00 6.450768e+00 5.046103e+00 6.402178e+00 4.884236e+00 6.244401e+00 2.691152e+00 -7.278081e-02 -2.365400e-01 -3.557948e-01 -4.106362e-01 -3.628533e-01 -3.090439e-01 -2.904446e-01 -3.265080e-01 -3.910441e-01 -3.724443e-01 -2.739864e-01 -1.275723e-01 -1.771351e-05
<VARIANCE> 25
 7.323115e+00 8.698640e+00 1.000418e+01 1.420052e+01 1.541801e+01 1.568561e+01 1.760849e+01 1.770217e+01 1.624167e+01 1.632814e+01 1.749214e+01 1.473113e+01 2.169171e-01 3.072601e-01 4.237648e-01 6.177779e-01 8.458594e-01 1.057833e+00 1.169506e+00 1.226690e+00 1.218268e+00 1.199731e+00 1.164296e+00 1.131932e+00 1.086798e-06
<GCONST> 6.054446e+01
<MIXTURE> 118 6.506003e-03
<MEAN> 25
 -4.580105e+00 1.131537e+00 9.796584e-01 9.726964e+00 6.264969e+00 6.163743e+00 6.450768e+00 5.046103e+00 6.402178e+00 4.884236e+00 6.244401e+00 2.691152e+00 -7.278081e-02 -2.365400e-01 -3.557948e-01 -4.106362e-01 -3.628533e-01 -3.090439e-01 -2.904446e-01 -3.265080e-01 -3.910441e-01 -3.724443e-01 -2.739864e-01 -1.275723e-01 -1.771351e-05
<VARIANCE> 25
 7.323115e+00 8.698640e+00 1.000418e+01 1.420052e+01 1.541801e+01 1.568561e+01 1.760849e+01 1.770217e+01 1.624167e+01 1.632814e+01 1.749214e+01 1.473113e+01 2.169171e-01 3.072601e-01 4.237648e-01 6.177779e-01 8.458594e-01 1.057833e+00 1.169506e+00 1.226690e+00 1.218268e+00 1.199731e+00 1.164296e+00 1.131932e+00 1.086798e-06
<GCONST> 6.054446e+01
<MIXTURE> 119 4.297961e-03
<MEAN> 25
 -4.811747e+00 -7.282906e+00 2.064407e+00 2.424308e+00 2.176296e+00 1.630571e-01 5.398493e+00 5.860291e+00 1.430620e+00 7.969899e-01 6.255220e+00 1.911980e+00 -5.492510e-02 -1.227856e-01 1.878618e-02 -2.136598e-02 -8.105987e-02 -2.271466e-01 -5.989579e-02 1.775364e-02 -5.754459e-03 -1.239462e-01 -5.784430e-02 -3.669078e-02 2.242871e-03
<VARIANCE> 25
 8.509814e+00 1.045750e+01 1.586515e+01 2.087144e+01 2.126757e+01 2.227284e+01 2.419681e+01 2.601251e+01 2.528828e+01 2.734698e+01 2.039644e+01 2.066836e+01 1.541190e-01 2.953465e-01 4.573135e-01 6.148601e-01 7.973161e-01 1.008330e+00 1.067619e+00 1.299571e+00 1.343077e+00 1.198793e+00 1.135177e+00 1.083840e+00 2.374263e-04
<GCONST> 6.951501e+01
<MIXTURE> 120 4.297961e-03
<MEAN> 25
 -4.811747e+00 -7.282906e+00 2.064407e+00 2.424308e+00 2.176296e+00 1.630571e-01 5.398493e+00 5.860291e+00 1.430620e+00 7.969899e-01 6.255220e+00 1.911980e+00 -5.492510e-02 -1.227856e-01 1.878618e-02 -2.136598e-02 -8.105987e-02 -2.271466e-01 -5.989579e-02 1.775364e-02 -5.754459e-03 -1.239462e-01 -5.784430e-02 -3.669078e-02 2.242871e-03
<VARIANCE> 25
 8.509814e+00 1.045750e+01 1.586515e+01 2.087144e+01 2.126757e+01 2.227284e+01 2.419681e+01 2.601251e+01 2.528828e+01 2.734698e+01 2.039644e+01 2.066836e+01 1.541190e-01 2.953465e-01 4.573135e-01 6.148601e-01 7.973161e-01 1.008330e+00 1.067619e+00 1.299571e+00 1.343077e+00 1.198793e+00 1.135177e+00 1.083840e+00 2.374263e-04
<GCONST> 6.951501e+01
<MIXTURE> 121 4.567511e-03
<MEAN> 25
 2.315322e-01 -2.526597e+00 5.308551e+00 -1.289535e+01 -1.260677e+01 -1.560312e+00 8.674931e-01 -5.104432e+00 -4.365257e+00 -3.974725e-01 -5.327750e+00 -4.314833e+00 2.557631e-02 1.384973e-01 -3.553550e-02 6.516544e-02 1.550657e-01 8.219585e-02 -7.810953e-02 -1.785478e-01 -2.683680e-01 -2.558952e-01 -1.096166e-01 -4.060246e-03 -7.482642e-03
<VARIANCE> 25
 7.659405e+00 1.536952e+01 1.862510e+01 2.031429e+01 2.428255e+01 2.954847e+01 3.004038e+01 2.427748e+01 3.635646e+01 2.845675e+01 2.123009e+01 2.089792e+01 1.549309e-01 6.373477e-01 6.187584e-01 7.221047e-01 7.683166e-01 1.151703e+00 1.107203e+00 1.107906e+00 1.204166e+00 1.203527e+00 9.293202e-01 8.633561e-01 2.120682e-04
<GCONST> 7.150916e+01
<MIXTURE> 122 4.567511e-03
<MEAN> 25
 2.315322e-01 -2.526597e+00 5.308551e+00 -1.289535e+01 -1.260677e+01 -1.560312e+00 8.674931e-01 -5.104432e+00 -4.365257e+00 -3.974725e-01 -5.327750e+00 -4.314833e+00 2.557631e-02 1.384973e-01 -3.553550e-02 6.516544e-02 1.550657e-01 8.219585e-02 -7.810953e-02 -1.785478e-01 -2.683680e-01 -2.558952e-01 -1.096166e-01 -4.060246e-03 -7.482642e-03
<VARIANCE> 25
 7.659405e+00 1.536952e+01 1.862510e+01 2.031429e+01 2.428255e+01 2.954847e+01 3.004038e+01 2.427748e+01 3.635646e+01 2.845675e+01 2.123009e+01 2.089792e+01 1.549309e-01 6.373477e-01 6.187584e-01 7.221047e-01 7.683166e-01 1.151703e+00 1.107203e+00 1.107906e+00 1.204166e+00 1.203527e+00 9.293202e-01 8.633561e-01 2.120682e-04
<GCONST> 7.150916e+01
<MIXTURE> 123 4.393044e-03
<MEAN> 25
 -2.569070e+00 2.590220e+00 -1.581030e+00 5.920628e+00 4.264408e+00 2.571403e+00 4.458115e+00 7.760260e-01 1.824170e+00 -1.044313e+00 -8.005383e-01 1.428940e+00 -2.575967e-01 -5.998142e-01 -6.496778e-01 -4.167932e-01 -1.087882e-01 6.545415e-02 2.637667e-01 5.137508e-01 5.784997e-01 6.719438e-01 8.350214e-01 7.326218e-01 -1.116313e-03
<VARIANCE> 25
 1.060237e+01 1.084043e+01 1.056480e+01 1.110347e+01 1.599870e+01 1.721028e+01 1.597585e+01 1.349232e+01 1.514683e+01 1.227161e+01 1.757174e+01 1.710217e+01 2.315665e-01 3.131421e-01 4.916022e-01 8.068023e-01 1.049101e+00 1.051644e+00 1.088454e+00 1.022412e+00 9.858547e-01 9.748995e-01 1.022683e+00 1.260278e+00 1.471971e-04
<GCONST> 6.542467e+01
<MIXTURE> 124 4.069876e-03
<MEAN> 25
 -3.757227e+00 7.313405e-01 -3.450716e+00 5.569863e+00 5.271418e+00 2.790822e+00 5.651924e+00 2.340576e+00 3.540748e+00 4.329810e-01 -4.770737e-01 2.126290e+00 -1.613464e-01 -2.533754e-01 -3.000196e-01 -1.337096e-01 1.296201e-01 5.112589e-01 8.498128e-01 8.278445e-01 6.083325e-01 2.970533e-01 -1.489800e-03 -5.346666e-02 5.322492e-04
<VARIANCE> 25
 1.151214e+01 8.467535e+00 8.272690e+00 8.268517e+00 1.133079e+01 1.481646e+01 1.258884e+01 1.347227e+01 1.254695e+01 1.241251e+01 1.694995e+01 1.252811e+01 8.898310e-02 1.409487e-01 2.269284e-01 3.804816e-01 5.540950e-01 7.153338e-01 7.819051e-01 7.321941e-01 8.206151e-01 9.961709e-01 9.394163e-01 9.061569e-01 2.961130e-05
<GCONST> 5.631393e+01
<MIXTURE> 125 4.069876e-03
<MEAN> 25
 -3.757227e+00 7.313405e-01 -3.450716e+00 5.569863e+00 5.271418e+00 2.790822e+00 5.651924e+00 2.340576e+00 3.540748e+00 4.329810e-01 -4.770737e-01 2.126290e+00 -1.613464e-01 -2.533754e-01 -3.000196e-01 -1.337096e-01 1.296201e-01 5.112589e-01 8.498128e-01 8.278445e-01 6.083325e-01 2.970533e-01 -1.489800e-03 -5.346666e-02 5.322492e-04
<VARIANCE> 25
 1.151214e+01 8.467535e+00 8.272690e+00 8.268517e+00 1.133079e+01 1.481646e+01 1.258884e+01 1.347227e+01 1.254695e+01 1.241251e+01 1.694995e+01 1.252811e+01 8.898310e-02 1.409487e-01 2.269284e-01 3.804816e-01 5.540950e-01 7.153338e-01 7.819051e-01 7.321941e-01 8.206151e-01 9.961709e-01 9.394163e-01 9.061569e-01 2.961130e-05
<GCONST> 5.631393e+01
<MIXTURE> 126 2.402244e-03
<MEAN> 25
 -3.400747e+00 -6.189780e+00 -5.128683e+00 2.958338e+00 4.234937e+00 -3.037474e+00 5.359361e-01 3.487471e+00 3.873342e+00 -2.376717e+00 -1.639992e+00 2.884785e+00 1.366769e-02 -3.552965e-02 -4.614610e-02 -1.340113e-01 -2.940684e-01 -3.916858e-01 -2.464817e-01 -1.715402e-01 -1.057295e-01 -1.814580e-01 -6.811573e-02 -7.261056e-02 -1.905035e-03
<VARIANCE> 25
 7.181137e+00 1.531068e+01 1.263047e+01 1.617736e+01 2.171783e+01 2.118968e+01 2.140297e+01 2.605080e+01 2.952549e+01 2.459423e+01 2.020809e+01 1.797722e+01 1.728145e-01 3.829572e-01 4.370350e-01 5.265281e-01 6.866901e-01 9.309632e-01 1.053412e+00 1.169413e+00 1.204217e+00 1.281026e+00 1.161938e+00 1.170402e+00 2.146813e-04
<GCONST> 6.877598e+01
<MIXTURE> 127 2.402244e-03
<MEAN> 25
 -3.400747e+00 -6.189780e+00 -5.128683e+00 2.958338e+00 4.234937e+00 -3.037474e+00 5.359361e-01 3.487471e+00 3.873342e+00 -2.376717e+00 -1.639992e+00 2.884785e+00 1.366769e-02 -3.552965e-02 -4.614610e-02 -1.340113e-01 -2.940684e-01 -3.916858e-01 -2.464817e-01 -1.715402e-01 -1.057295e-01 -1.814580e-01 -6.811573e-02 -7.261056e-02 -1.905035e-03
<VARIANCE> 25
 7.181137e+00 1.531068e+01 1.263047e+01 1.617736e+01 2.171783e+01 2.118968e+01 2.140297e+01 2.605080e+01 2.952549e+01 2.459423e+01 2.020809e+01 1.797722e+01 1.728145e-01 3.829572e-01 4.370350e-01 5.265281e-01 6.866901e-01 9.309632e-01 1.053412e+00 1.169413e+00 1.204217e+00 1.281026e+00 1.161938e+00 1.170402e+00 2.146813e-04
<GCONST> 6.877598e+01
<MIXTURE> 128 3.790457e-03
<MEAN> 25
 -4.026320e+00 1.588271e+00 -3.793776e-01 6.436587e+00 3.684678e+00 1.829816e+00 3.617243e+00 2.319827e+00 4.009653e+00 3.664556e+00 3.679718e+00 3.452625e+00 -3.908505e-01 -2.008700e-01 1.162766e-01 7.154805e-01 1.142833e+00 1.122945e+00 7.151127e-01 1.397543e-01 -4.357024e-01 -8.117561e-01 -7.159841e-01 -4.008578e-01 -2.672601e-05
<VARIANCE> 25
 1.118521e+01 1.166060e+01 1.475218e+01 2.024864e+01 1.986413e+01 2.080336e+01 2.392468e+01 2.447615e+01 2.600404e+01 2.350081e+01 2.670824e+01 1.807345e+01 8.767703e-01 1.126118e+00 1.356808e+00 1.478330e+00 1.631052e+00 1.844633e+00 2.227381e+00 2.294738e+00 2.115376e+00 1.853839e+00 1.723786e+00 1.736451e+00 1.014188e-06
<GCONST> 7.358627e+01
<TRANSP> 3
 0.000000e+00 1.000000e+00 0.000000e+00
 0.000000e+00 9.999990e-01 9.999998e-07
 0.000000e+00 0.000000e+00 0.000000e+00
<ENDHMM>
