~o
<STREAMINFO> 1 25
<VECSIZE> 25<NULLD><MFCC_E_D_N><DIAGC>
~h "jmodel"
<BEGINHMM>
<NUMSTATES> 3
<STATE> 2
<NUMMIXES> 128
<MIXTURE> 1 5.748963e-03
<MEAN> 25
 -2.399962e+00 3.157474e+00 2.171329e+00 8.440208e+00 4.207085e+00 2.966233e+00 3.918643e+00 3.954649e+00 5.944680e+00 4.487923e+00 5.395435e+00 3.293107e+00 -2.047070e+00 -1.568178e+00 -7.929954e-01 1.179546e+00 1.369914e+00 2.294927e+00 2.186760e+00 1.892137e+00 1.584747e+00 1.032180e+00 1.584343e+00 4.708489e-01 -4.336382e-02
<VARIANCE> 25
 1.075703e+01 1.116364e+01 1.397223e+01 1.782423e+01 2.134114e+01 2.337712e+01 2.122240e+01 2.108283e+01 1.946000e+01 2.543304e+01 2.357364e+01 1.699634e+01 1.659001e+00 1.954298e+00 3.142315e+00 3.069342e+00 4.096534e+00 3.075733e+00 3.369112e+00 3.353459e+00 3.325717e+00 4.038040e+00 3.230817e+00 2.798967e+00 2.954924e-03
<GCONST> 8.814237e+01
<MIXTURE> 2 4.549242e-03
<MEAN> 25
 -4.875411e+00 1.311737e+00 9.942084e-01 9.899797e+00 6.692334e+00 7.424395e+00 7.846810e+00 6.958043e+00 8.373033e+00 6.372668e+00 7.623995e+00 3.074537e+00 -6.200244e-02 4.163151e-02 1.425335e-01 2.258273e-01 2.652733e-01 2.813224e-01 2.954859e-01 3.195583e-01 3.497500e-01 3.089479e-01 1.970788e-01 7.997530e-02 1.189907e-06
<VARIANCE> 25
 6.953738e+00 8.901539e+00 1.065152e+01 1.591033e+01 1.723519e+01 1.556406e+01 1.690026e+01 1.848495e+01 1.658737e+01 1.738855e+01 1.811364e+01 1.434007e+01 1.252460e-01 2.266223e-01 3.364584e-01 4.671347e-01 6.492593e-01 8.148996e-01 9.299245e-01 1.003136e+00 1.051622e+00 1.077756e+00 1.075850e+00 1.014114e+00 1.000053e-06
<GCONST> 5.804386e+01
<MIXTURE> 3 4.549242e-03
<MEAN> 25
 -4.875411e+00 1.311737e+00 9.942084e-01 9.899797e+00 6.692334e+00 7.424395e+00 7.846810e+00 6.958043e+00 8.373033e+00 6.372668e+00 7.623995e+00 3.074537e+00 -6.200244e-02 4.163151e-02 1.425335e-01 2.258273e-01 2.652733e-01 2.813224e-01 2.954859e-01 3.195583e-01 3.497500e-01 3.089479e-01 1.970788e-01 7.997530e-02 1.189907e-06
<VARIANCE> 25
 6.953738e+00 8.901539e+00 1.065152e+01 1.591033e+01 1.723519e+01 1.556406e+01 1.690026e+01 1.848495e+01 1.658737e+01 1.738855e+01 1.811364e+01 1.434007e+01 1.252460e-01 2.266223e-01 3.364584e-01 4.671347e-01 6.492593e-01 8.148996e-01 9.299245e-01 1.003136e+00 1.051622e+00 1.077756e+00 1.075850e+00 1.014114e+00 1.000053e-06
<GCONST> 5.804386e+01
<MIXTURE> 4 1.671429e-02
<MEAN> 25
 3.754014e+00 2.634535e+00 -3.740288e+00 7.589092e-01 4.374766e+00 -2.258660e-01 -1.560413e-01 6.640312e-01 1.931042e+00 1.329986e+00 -2.323327e+00 9.570506e-01 -2.706012e+00 1.015661e+00 1.827901e+00 2.932926e+00 6.259810e-01 5.504692e-01 1.639093e+00 1.066422e+00 1.151177e+00 1.706539e-01 1.082848e+00 7.948680e-01 -9.486983e-02
<VARIANCE> 25
 1.946329e+01 2.637156e+01 2.669699e+01 3.628672e+01 4.135346e+01 6.121214e+01 5.998967e+01 4.929331e+01 5.001474e+01 5.437912e+01 4.499892e+01 3.906352e+01 2.087632e+00 4.685478e+00 3.365566e+00 4.575655e+00 5.317277e+00 5.452384e+00 5.665070e+00 4.934553e+00 5.380408e+00 6.381857e+00 5.623329e+00 4.075131e+00 5.936136e-03
<GCONST> 1.035261e+02
<MIXTURE> 5 3.206198e-03
<MEAN> 25
 -3.415357e+00 2.181454e+00 6.087182e-01 9.428180e+00 6.697136e+00 6.314204e+00 7.109801e+00 4.723089e+00 5.494866e+00 3.846161e+00 4.656436e+00 2.605512e+00 -3.244899e-01 7.527961e-01 1.224449e+00 1.032222e+00 3.075402e-01 -1.002492e-01 -8.340307e-02 3.349869e-02 4.577058e-01 6.837910e-01 4.033093e-01 8.758015e-02 -2.798003e-05
<VARIANCE> 25
 1.025633e+01 1.393908e+01 2.348907e+01 2.561123e+01 2.021498e+01 1.942742e+01 2.012483e+01 2.035546e+01 2.141421e+01 2.128711e+01 2.410223e+01 1.635841e+01 1.209773e+00 1.243939e+00 1.357018e+00 1.673515e+00 2.283993e+00 2.375762e+00 2.301511e+00 2.274649e+00 2.315097e+00 2.237441e+00 2.087268e+00 1.875099e+00 1.000263e-06
<GCONST> 7.516633e+01
<MIXTURE> 6 5.475854e-03
<MEAN> 25
 9.870366e+00 -6.780491e-01 -6.654292e+00 -9.783776e+00 -2.009525e+00 6.304146e+00 -5.408263e+00 -5.108333e+00 -3.887623e+00 1.517011e+00 4.074479e+00 -1.423495e+00 4.535642e-01 1.007518e+00 -4.329221e-01 -1.366126e+00 -5.905605e-01 1.078665e+00 1.480813e+00 4.271734e-01 -9.920502e-01 -1.049052e+00 3.183596e-01 1.070366e+00 -8.672729e-03
<VARIANCE> 25
 7.769248e+00 1.638363e+01 2.093860e+01 4.190037e+01 3.125503e+01 2.758600e+01 3.885366e+01 3.426248e+01 3.512093e+01 3.537457e+01 3.814301e+01 2.432465e+01 2.815045e-01 8.248224e-01 8.980842e-01 1.814355e+00 1.431749e+00 2.214382e+00 1.784754e+00 2.217149e+00 2.327166e+00 2.224396e+00 2.185939e+00 1.357962e+00 5.167055e-04
<GCONST> 8.220278e+01
<MIXTURE> 7 5.475854e-03
<MEAN> 25
 9.870366e+00 -6.780491e-01 -6.654292e+00 -9.783776e+00 -2.009525e+00 6.304146e+00 -5.408263e+00 -5.108333e+00 -3.887623e+00 1.517011e+00 4.074479e+00 -1.423495e+00 4.535642e-01 1.007518e+00 -4.329221e-01 -1.366126e+00 -5.905605e-01 1.078665e+00 1.480813e+00 4.271734e-01 -9.920502e-01 -1.049052e+00 3.183596e-01 1.070366e+00 -8.672729e-03
<VARIANCE> 25
 7.769248e+00 1.638363e+01 2.093860e+01 4.190037e+01 3.125503e+01 2.758600e+01 3.885366e+01 3.426248e+01 3.512093e+01 3.537457e+01 3.814301e+01 2.432465e+01 2.815045e-01 8.248224e-01 8.980842e-01 1.814355e+00 1.431749e+00 2.214382e+00 1.784754e+00 2.217149e+00 2.327166e+00 2.224396e+00 2.185939e+00 1.357962e+00 5.167055e-04
<GCONST> 8.220278e+01
<MIXTURE> 8 1.165917e-02
<MEAN> 25
 -4.574613e+00 1.385431e+00 1.096608e+00 9.484170e+00 6.660769e+00 6.167725e+00 6.395674e+00 5.559373e+00 6.505933e+00 5.475103e+00 6.390872e+00 3.083598e+00 -6.747195e-01 -1.406243e+00 -9.754463e-01 -1.760223e+00 -2.429446e-01 -8.862050e-01 -2.309052e-01 -2.526428e-01 -2.137773e-01 -1.712071e-01 -2.093527e-01 7.530056e-02 9.725215e-02
<VARIANCE> 25
 9.984707e+00 9.960804e+00 1.249574e+01 1.589325e+01 1.651188e+01 1.556205e+01 1.781605e+01 1.740382e+01 1.746741e+01 1.760056e+01 1.924569e+01 1.390614e+01 2.719914e+00 2.733816e+00 4.096997e+00 3.743128e+00 3.366642e+00 3.336228e+00 3.144499e+00 3.029325e+00 2.850835e+00 2.621083e+00 2.397113e+00 1.851863e+00 6.512994e-03
<GCONST> 8.631844e+01
<MIXTURE> 9 1.199672e-02
<MEAN> 25
 9.299897e+00 3.354704e+00 -6.258003e+00 -1.058437e+01 -2.130697e+00 4.923011e+00 -2.203368e+00 -2.269314e+00 -5.318995e+00 -1.244063e+00 5.209353e-01 3.447758e-03 1.440122e+00 -1.252715e-01 -5.139024e-01 -2.686068e+00 -1.608607e+00 8.433884e-01 -9.645196e-01 -2.280159e-01 -1.877119e-01 -5.368151e-01 6.186115e-01 -1.622043e-01 7.258622e-02
<VARIANCE> 25
 1.213162e+01 2.141257e+01 3.348047e+01 5.344625e+01 5.030151e+01 3.206369e+01 4.272659e+01 5.191685e+01 4.201507e+01 4.114951e+01 3.633117e+01 2.668963e+01 2.095377e+00 2.447534e+00 4.570610e+00 4.839018e+00 5.050342e+00 4.064229e+00 4.244269e+00 6.085565e+00 4.997288e+00 4.169534e+00 3.985819e+00 2.789744e+00 2.230179e-03
<GCONST> 9.876283e+01
<MIXTURE> 10 6.596976e-03
<MEAN> 25
 7.931091e-01 7.598111e+00 5.354170e+00 7.107287e+00 1.558753e+00 -2.143556e+00 -4.870484e-01 -1.663755e+00 9.293090e-01 8.316258e-01 8.671340e-01 7.247344e-01 -1.931384e+00 -6.612828e-01 -4.573514e-01 3.026330e+00 2.437754e+00 2.704117e+00 2.374559e+00 2.261570e+00 1.856752e+00 1.510624e+00 2.330917e+00 5.119864e-01 -1.367159e-01
<VARIANCE> 25
 1.965681e+01 2.056483e+01 2.212399e+01 2.891156e+01 3.816793e+01 3.460095e+01 3.496289e+01 3.380753e+01 2.768316e+01 2.879976e+01 2.702034e+01 2.516474e+01 2.214374e+00 3.412525e+00 5.523723e+00 5.104546e+00 5.642932e+00 4.439846e+00 4.688636e+00 4.806112e+00 4.338048e+00 5.072503e+00 4.408000e+00 3.176951e+00 2.825287e-03
<GCONST> 9.743302e+01
<MIXTURE> 11 1.633820e-02
<MEAN> 25
 7.909189e+00 3.965674e+00 2.093159e+00 4.689447e+00 -3.137353e+00 -2.350039e+00 -2.104344e+00 -5.682153e+00 -3.390943e+00 1.268389e+00 -1.885528e+00 -2.278494e+00 -4.913074e-01 5.233291e-01 2.694636e-01 1.574083e-01 7.264972e-01 -3.457503e-02 1.580771e-01 6.147421e-02 9.413367e-02 -3.302420e-02 -3.341688e-01 1.274887e-01 -1.800304e-02
<VARIANCE> 25
 1.032170e+01 2.036731e+01 2.614232e+01 2.631599e+01 3.803255e+01 3.560509e+01 4.044493e+01 4.169964e+01 3.707958e+01 3.291770e+01 2.944974e+01 2.446133e+01 9.335601e-01 1.399495e+00 1.647392e+00 2.469460e+00 1.823211e+00 2.051452e+00 1.861369e+00 2.669853e+00 2.324465e+00 1.657282e+00 1.985407e+00 1.644612e+00 1.074354e-03
<GCONST> 8.644607e+01
<MIXTURE> 12 5.904134e-03
<MEAN> 25
 1.076503e+01 3.749738e+00 -5.084103e+00 -1.505982e+01 -8.169369e+00 7.896743e+00 -7.302718e-01 -1.407748e+00 -1.846024e+00 -4.494804e+00 1.709707e+00 4.817486e-01 4.177597e-02 4.036175e-01 5.199723e-02 -3.924908e-01 -3.125874e-01 1.159831e-02 3.459084e-01 5.030174e-01 1.787445e-01 -3.343103e-01 -4.218047e-01 6.670360e-02 -7.798574e-03
<VARIANCE> 25
 7.955779e+00 2.016585e+01 2.374837e+01 3.790219e+01 4.066152e+01 3.208912e+01 3.808710e+01 4.702869e+01 3.950966e+01 3.479068e+01 3.438329e+01 2.617395e+01 2.303544e-01 7.136967e-01 7.367750e-01 1.101322e+00 1.083159e+00 9.688789e-01 1.096167e+00 1.485944e+00 1.128825e+00 1.260922e+00 1.247092e+00 8.589762e-01 5.467967e-04
<GCONST> 7.795212e+01
<MIXTURE> 13 5.904134e-03
<MEAN> 25
 1.076503e+01 3.749738e+00 -5.084103e+00 -1.505982e+01 -8.169369e+00 7.896743e+00 -7.302718e-01 -1.407748e+00 -1.846024e+00 -4.494804e+00 1.709707e+00 4.817486e-01 4.177597e-02 4.036175e-01 5.199723e-02 -3.924908e-01 -3.125874e-01 1.159831e-02 3.459084e-01 5.030174e-01 1.787445e-01 -3.343103e-01 -4.218047e-01 6.670360e-02 -7.798574e-03
<VARIANCE> 25
 7.955779e+00 2.016585e+01 2.374837e+01 3.790219e+01 4.066152e+01 3.208912e+01 3.808710e+01 4.702869e+01 3.950966e+01 3.479068e+01 3.438329e+01 2.617395e+01 2.303544e-01 7.136967e-01 7.367750e-01 1.101322e+00 1.083159e+00 9.688789e-01 1.096167e+00 1.485944e+00 1.128825e+00 1.260922e+00 1.247092e+00 8.589762e-01 5.467967e-04
<GCONST> 7.795212e+01
<MIXTURE> 14 6.488954e-03
<MEAN> 25
 -4.279253e+00 -6.660010e-01 -3.674600e-01 8.827025e+00 7.454052e+00 7.161810e+00 7.403262e+00 7.058375e+00 7.277030e+00 5.386676e+00 6.149033e+00 3.936489e+00 -3.048245e-01 1.057144e-01 3.226207e-01 2.980336e-01 6.247115e-02 8.080086e-02 -4.449881e-03 2.605478e-01 3.902954e-01 6.193346e-01 5.500609e-01 1.056555e-01 -6.159208e-03
<VARIANCE> 25
 9.048079e+00 1.363542e+01 1.810786e+01 1.649656e+01 1.902588e+01 1.855884e+01 2.147412e+01 1.960092e+01 1.856287e+01 2.474802e+01 2.551214e+01 1.587763e+01 9.404355e-01 1.612847e+00 1.693934e+00 1.811946e+00 2.075635e+00 2.200305e+00 2.156209e+00 2.180393e+00 2.273718e+00 2.595909e+00 2.062648e+00 1.669171e+00 1.061451e-03
<GCONST> 8.127311e+01
<MIXTURE> 15 2.475190e-03
<MEAN> 25
 -5.421272e+00 -6.463031e-01 -2.023614e-01 7.369065e+00 5.721025e+00 5.701349e+00 6.057075e+00 4.978062e+00 5.165174e+00 4.157420e+00 5.497960e+00 2.537863e+00 -1.209367e-01 -2.934084e-02 7.454748e-02 2.431386e-01 4.886851e-01 7.856283e-01 1.071496e+00 1.182223e+00 1.059610e+00 7.549539e-01 4.195586e-01 1.531047e-01 -7.994157e-05
<VARIANCE> 25
 6.992876e+00 5.613428e+00 9.030977e+00 1.280727e+01 1.407206e+01 1.429183e+01 1.493165e+01 1.489414e+01 1.409358e+01 1.420438e+01 1.512376e+01 1.250802e+01 1.248667e-01 2.061645e-01 3.200068e-01 5.032839e-01 7.000543e-01 7.944322e-01 7.650604e-01 7.912553e-01 9.088968e-01 1.026179e+00 1.071485e+00 1.041014e+00 2.795373e-05
<GCONST> 5.859825e+01
<MIXTURE> 16 2.475190e-03
<MEAN> 25
 -5.421272e+00 -6.463031e-01 -2.023614e-01 7.369065e+00 5.721025e+00 5.701349e+00 6.057075e+00 4.978062e+00 5.165174e+00 4.157420e+00 5.497960e+00 2.537863e+00 -1.209367e-01 -2.934084e-02 7.454748e-02 2.431386e-01 4.886851e-01 7.856283e-01 1.071496e+00 1.182223e+00 1.059610e+00 7.549539e-01 4.195586e-01 1.531047e-01 -7.994157e-05
<VARIANCE> 25
 6.992876e+00 5.613428e+00 9.030977e+00 1.280727e+01 1.407206e+01 1.429183e+01 1.493165e+01 1.489414e+01 1.409358e+01 1.420438e+01 1.512376e+01 1.250802e+01 1.248667e-01 2.061645e-01 3.200068e-01 5.032839e-01 7.000543e-01 7.944322e-01 7.650604e-01 7.912553e-01 9.088968e-01 1.026179e+00 1.071485e+00 1.041014e+00 2.795373e-05
<GCONST> 5.859825e+01
<MIXTURE> 17 9.518312e-03
<MEAN> 25
 2.992947e+00 -1.171822e+00 6.219516e+00 2.225447e+00 -5.674352e+00 -5.968177e+00 -3.832712e+00 -1.622036e-01 -2.344512e+00 -2.526052e+00 -1.083585e+00 -3.507618e-01 -8.020366e-01 -1.326053e+00 1.660450e+00 -1.946610e+00 -2.164765e+00 -1.359116e-01 -1.815735e-01 5.000110e-01 -4.572291e-01 -1.541046e-01 7.332210e-01 2.542308e-01 8.411331e-02
<VARIANCE> 25
 1.512869e+01 3.007940e+01 2.647529e+01 3.705811e+01 3.524227e+01 4.419612e+01 3.665710e+01 2.706836e+01 2.817815e+01 2.533873e+01 3.222046e+01 2.739396e+01 2.238205e+00 2.478397e+00 3.461728e+00 2.912623e+00 3.541806e+00 4.638027e+00 4.060878e+00 4.364789e+00 3.983808e+00 4.140830e+00 2.822779e+00 2.135188e+00 1.853168e-03
<GCONST> 9.456727e+01
<MIXTURE> 18 1.221018e-02
<MEAN> 25
 4.052022e+00 4.251132e+00 6.344165e+00 4.230587e+00 -5.093165e+00 -7.769613e+00 -1.600946e+00 -1.325476e+00 -3.055288e+00 -1.893337e+00 -5.096535e-01 5.355014e-01 -6.975384e-01 2.187476e+00 -4.539116e-01 2.032533e+00 2.987439e+00 1.181656e+00 8.132787e-01 -8.731534e-02 8.089448e-01 6.564598e-01 -2.809651e-01 -2.161591e-02 -1.213714e-01
<VARIANCE> 25
 1.509300e+01 2.358924e+01 3.060313e+01 2.556259e+01 3.650978e+01 3.341982e+01 3.469750e+01 3.191271e+01 3.853941e+01 3.354411e+01 2.944783e+01 2.830464e+01 2.344607e+00 2.678381e+00 4.610735e+00 3.631637e+00 3.705048e+00 4.994338e+00 4.123390e+00 4.231964e+00 4.172078e+00 3.928927e+00 4.271503e+00 3.335173e+00 3.704071e-03
<GCONST> 9.677847e+01
<MIXTURE> 19 9.912824e-03
<MEAN> 25
 -1.034434e+01 1.730082e+00 3.800798e-01 8.608192e-01 4.038060e+00 1.870566e+00 2.729656e+00 6.901408e-01 2.784678e+00 2.991943e-01 1.411257e+00 2.447439e+00 2.122674e+00 1.387443e+00 2.018150e+00 4.490378e-01 -1.111659e+00 -1.018804e+00 -1.213899e+00 -1.331417e+00 -1.416077e+00 -1.148528e+00 -1.133567e+00 -8.290583e-01 4.514126e-03
<VARIANCE> 25
 4.577848e+01 2.694888e+01 4.326336e+01 4.749022e+01 2.860943e+01 3.448490e+01 2.658709e+01 2.819655e+01 2.574306e+01 2.908556e+01 3.001777e+01 1.965082e+01 2.159238e+00 2.123358e+00 2.042173e+00 2.171571e+00 2.855599e+00 2.063978e+00 2.197694e+00 1.994197e+00 1.872205e+00 1.943219e+00 2.767945e+00 1.628486e+00 2.168948e-03
<GCONST> 9.013217e+01
<MIXTURE> 20 6.308331e-03
<MEAN> 25
 -1.369720e+01 7.333801e+00 1.098401e+00 5.714594e+00 4.202687e+00 1.123055e+00 5.236305e+00 -2.409081e-02 1.089280e+00 4.912783e-01 3.194302e+00 -1.040971e-01 -3.107164e+00 -7.605756e-01 -1.685935e+00 5.175329e-01 1.778341e+00 2.090545e+00 1.856644e+00 2.020518e+00 1.994411e+00 1.811745e+00 1.618484e+00 8.773959e-01 4.212254e-02
<VARIANCE> 25
 1.961409e+01 2.130865e+01 2.857867e+01 3.458621e+01 3.095324e+01 2.797900e+01 2.720066e+01 3.436952e+01 2.567251e+01 2.709984e+01 2.893504e+01 2.063548e+01 2.169098e+00 2.074310e+00 1.902102e+00 2.827745e+00 2.888896e+00 2.351648e+00 2.454328e+00 2.253971e+00 2.194272e+00 2.773505e+00 2.306746e+00 1.762262e+00 1.870141e-03
<GCONST> 8.915934e+01
<MIXTURE> 21 7.928653e-03
<MEAN> 25
 3.917471e+00 -4.698302e+00 5.671232e+00 -1.552780e+00 -1.047592e+01 -8.963475e+00 -2.961504e+00 4.050839e+00 -2.219218e+00 -3.314633e+00 -3.733730e-02 3.779094e-01 -6.556860e-01 1.263739e+00 2.560006e+00 -3.105278e-02 -1.599313e+00 3.095987e-01 6.079291e-01 -1.368804e+00 -2.018037e+00 3.693557e-01 1.324298e+00 1.989348e-01 -1.144640e-02
<VARIANCE> 25
 8.716449e+00 1.867148e+01 2.869270e+01 2.725648e+01 2.765185e+01 3.312172e+01 4.396380e+01 3.810089e+01 4.171230e+01 3.061140e+01 3.422641e+01 2.235244e+01 4.568690e-01 1.051911e+00 1.802451e+00 1.248912e+00 2.179489e+00 2.123621e+00 3.507215e+00 2.778803e+00 2.165773e+00 2.563268e+00 1.939446e+00 2.243726e+00 4.559590e-04
<GCONST> 8.511586e+01
<MIXTURE> 22 8.827789e-03
<MEAN> 25
 -1.767663e+01 7.054375e+00 -3.573831e+00 6.740314e+00 5.002145e+00 2.985160e+00 8.617219e+00 1.555024e+00 5.626504e+00 2.519203e+00 5.307668e+00 1.054879e+00 -3.442232e-01 -1.806281e-01 -8.600005e-02 -2.164890e-01 3.685342e-02 1.256704e-01 1.493336e-01 2.533472e-01 1.980162e-01 3.282506e-01 2.410361e-01 2.042257e-01 1.008494e-02
<VARIANCE> 25
 8.239898e+00 1.567730e+01 1.973276e+01 2.800374e+01 2.438759e+01 2.043068e+01 1.933850e+01 1.817580e+01 1.857940e+01 2.721569e+01 2.054323e+01 1.342311e+01 1.043015e+00 1.275817e+00 1.333400e+00 1.555355e+00 1.456837e+00 1.494270e+00 1.478093e+00 1.639203e+00 1.541599e+00 1.792355e+00 1.372308e+00 1.137955e+00 1.649278e-03
<GCONST> 7.877406e+01
<MIXTURE> 23 6.455497e-03
<MEAN> 25
 8.174979e+00 2.378150e+00 2.335856e+00 2.524731e+00 -4.475552e+00 -2.974622e+00 -4.266346e+00 -6.505478e+00 -3.302079e+00 -6.267797e-01 -3.882196e+00 -2.005267e+00 1.728275e-02 2.097384e-01 8.293261e-02 4.148746e-02 9.475246e-03 3.539954e-02 -2.251488e-03 -4.794412e-02 2.422169e-02 3.754766e-02 1.326558e-03 2.923744e-02 -4.774076e-03
<VARIANCE> 25
 1.080122e+01 2.143977e+01 3.143928e+01 3.920438e+01 3.884568e+01 5.196624e+01 5.626836e+01 5.290803e+01 4.614478e+01 4.786085e+01 4.680196e+01 3.843334e+01 1.204409e-01 3.016769e-01 4.925893e-01 5.012059e-01 5.919223e-01 6.897967e-01 7.459076e-01 8.427176e-01 8.412625e-01 8.947769e-01 7.825879e-01 7.311233e-01 8.648706e-05
<GCONST> 7.304080e+01
<MIXTURE> 24 6.455497e-03
<MEAN> 25
 8.174979e+00 2.378150e+00 2.335856e+00 2.524731e+00 -4.475552e+00 -2.974622e+00 -4.266346e+00 -6.505478e+00 -3.302079e+00 -6.267797e-01 -3.882196e+00 -2.005267e+00 1.728275e-02 2.097384e-01 8.293261e-02 4.148746e-02 9.475246e-03 3.539954e-02 -2.251488e-03 -4.794412e-02 2.422169e-02 3.754766e-02 1.326558e-03 2.923744e-02 -4.774076e-03
<VARIANCE> 25
 1.080122e+01 2.143977e+01 3.143928e+01 3.920438e+01 3.884568e+01 5.196624e+01 5.626836e+01 5.290803e+01 4.614478e+01 4.786085e+01 4.680196e+01 3.843334e+01 1.204409e-01 3.016769e-01 4.925893e-01 5.012059e-01 5.919223e-01 6.897967e-01 7.459076e-01 8.427176e-01 8.412625e-01 8.947769e-01 7.825879e-01 7.311233e-01 8.648706e-05
<GCONST> 7.304080e+01
<MIXTURE> 25 1.118642e-02
<MEAN> 25
 4.667097e-01 2.961145e+00 1.649734e+01 -1.439373e+00 -1.159824e+01 -1.659438e+00 -4.916364e+00 -2.797813e+00 -7.036821e+00 -5.222626e+00 3.858398e+00 -1.892556e+00 -1.183159e-01 4.593279e-01 9.294377e-02 1.492172e-01 2.877847e-01 1.118595e-01 2.072603e-01 -1.889253e-01 -1.681464e-01 7.034729e-02 -3.551286e-02 5.031515e-02 -1.470385e-02
<VARIANCE> 25
 9.085920e+00 2.444017e+01 2.090654e+01 2.923235e+01 3.100001e+01 3.930455e+01 2.567677e+01 2.852075e+01 2.683496e+01 3.511475e+01 2.057200e+01 2.668964e+01 5.875590e-01 1.445629e+00 1.431047e+00 1.340672e+00 2.284980e+00 1.916139e+00 1.649311e+00 1.550144e+00 1.546147e+00 1.591199e+00 1.301265e+00 1.555878e+00 1.322479e-03
<GCONST> 8.250440e+01
<MIXTURE> 26 7.727677e-03
<MEAN> 25
 2.663946e+00 -5.590801e+00 -1.028092e+01 -5.923076e-01 7.690996e+00 5.110875e+00 3.728368e+00 -9.748487e-02 2.213308e+00 -7.260033e-01 -2.787287e+00 -8.461003e-01 -6.609193e-01 5.792817e-01 3.894673e-01 7.598101e-01 1.628305e-01 1.667084e-01 3.033723e-01 3.140404e-01 3.192554e-01 1.095294e-01 3.598171e-01 4.202835e-01 -5.130725e-02
<VARIANCE> 25
 2.600617e+01 3.793515e+01 2.495453e+01 5.752658e+01 3.744934e+01 4.049582e+01 4.486413e+01 4.244688e+01 3.714034e+01 5.073179e+01 3.699645e+01 4.291635e+01 1.639106e+00 1.954934e+00 1.873690e+00 1.970809e+00 2.204769e+00 2.312887e+00 2.311470e+00 2.625937e+00 2.338480e+00 2.324088e+00 2.147761e+00 1.958982e+00 3.130628e-03
<GCONST> 9.316432e+01
<MIXTURE> 27 7.727677e-03
<MEAN> 25
 2.663946e+00 -5.590801e+00 -1.028092e+01 -5.923076e-01 7.690996e+00 5.110875e+00 3.728368e+00 -9.748487e-02 2.213308e+00 -7.260033e-01 -2.787287e+00 -8.461003e-01 -6.609193e-01 5.792817e-01 3.894673e-01 7.598101e-01 1.628305e-01 1.667084e-01 3.033723e-01 3.140404e-01 3.192554e-01 1.095294e-01 3.598171e-01 4.202835e-01 -5.130725e-02
<VARIANCE> 25
 2.600617e+01 3.793515e+01 2.495453e+01 5.752658e+01 3.744934e+01 4.049582e+01 4.486413e+01 4.244688e+01 3.714034e+01 5.073179e+01 3.699645e+01 4.291635e+01 1.639106e+00 1.954934e+00 1.873690e+00 1.970809e+00 2.204769e+00 2.312887e+00 2.311470e+00 2.625937e+00 2.338480e+00 2.324088e+00 2.147761e+00 1.958982e+00 3.130628e-03
<GCONST> 9.316432e+01
<MIXTURE> 28 5.036674e-03
<MEAN> 25
 -5.400231e+00 4.938584e-02 -1.614278e+00 6.602778e+00 5.225714e+00 3.510387e+00 5.370472e+00 3.107033e+00 3.911635e+00 2.386256e+00 2.622014e+00 3.194442e+00 -1.141650e-01 2.272392e-01 5.249417e-01 7.829078e-01 8.155741e-01 7.037240e-01 5.200615e-01 3.825986e-01 4.325371e-01 4.813998e-01 3.791428e-01 1.970424e-01 -1.044715e-05
<VARIANCE> 25
 1.067699e+01 8.475899e+00 1.234372e+01 1.477951e+01 1.462096e+01 1.760139e+01 1.816397e+01 1.897363e+01 1.706325e+01 1.662492e+01 2.049321e+01 1.496790e+01 2.546780e-01 3.361007e-01 4.054335e-01 4.631143e-01 6.220601e-01 8.441645e-01 1.053792e+00 1.148858e+00 1.115100e+00 1.022558e+00 1.056253e+00 1.080167e+00 9.959109e-07
<GCONST> 6.028524e+01
<MIXTURE> 29 5.036674e-03
<MEAN> 25
 -5.400231e+00 4.938584e-02 -1.614278e+00 6.602778e+00 5.225714e+00 3.510387e+00 5.370472e+00 3.107033e+00 3.911635e+00 2.386256e+00 2.622014e+00 3.194442e+00 -1.141650e-01 2.272392e-01 5.249417e-01 7.829078e-01 8.155741e-01 7.037240e-01 5.200615e-01 3.825986e-01 4.325371e-01 4.813998e-01 3.791428e-01 1.970424e-01 -1.044715e-05
<VARIANCE> 25
 1.067699e+01 8.475899e+00 1.234372e+01 1.477951e+01 1.462096e+01 1.760139e+01 1.816397e+01 1.897363e+01 1.706325e+01 1.662492e+01 2.049321e+01 1.496790e+01 2.546780e-01 3.361007e-01 4.054335e-01 4.631143e-01 6.220601e-01 8.441645e-01 1.053792e+00 1.148858e+00 1.115100e+00 1.022558e+00 1.056253e+00 1.080167e+00 9.959109e-07
<GCONST> 6.028524e+01
<MIXTURE> 30 8.917812e-03
<MEAN> 25
 -4.380997e+00 -1.849112e-01 5.554403e-01 9.025118e+00 7.718884e+00 7.388811e+00 7.457240e+00 6.770001e+00 6.456914e+00 4.942037e+00 6.757430e+00 3.421827e+00 -1.200379e-02 1.900417e-02 4.042463e-02 9.499145e-02 8.000608e-02 2.783170e-02 -5.370494e-03 3.153457e-03 2.816777e-02 2.798656e-02 8.192755e-02 3.146143e-02 -3.441026e-04
<VARIANCE> 25
 7.262604e+00 1.057993e+01 1.039892e+01 1.351623e+01 1.543806e+01 1.664258e+01 1.936771e+01 1.809162e+01 1.618237e+01 1.954377e+01 2.243440e+01 1.425638e+01 9.869428e-02 1.979475e-01 3.285924e-01 4.985462e-01 6.320888e-01 7.101806e-01 7.825928e-01 8.420159e-01 9.298469e-01 9.521399e-01 9.085697e-01 8.403987e-01 5.334045e-05
<GCONST> 6.097355e+01
<MIXTURE> 31 4.136493e-03
<MEAN> 25
 -3.284276e+00 -5.539602e+00 -1.429980e-02 4.892509e+00 3.867548e+00 1.605464e+00 5.218868e+00 6.623518e+00 2.834897e+00 1.468290e+00 6.157640e+00 3.110811e+00 2.571442e-01 4.835433e-01 -2.185211e-01 2.986757e-01 9.356797e-02 4.088914e-01 1.621496e-01 3.217604e-02 3.806768e-01 3.257650e-01 1.338717e-01 1.021135e-01 -1.866203e-02
<VARIANCE> 25
 7.417759e+00 1.552818e+01 1.709002e+01 1.731779e+01 2.500465e+01 2.340529e+01 2.312715e+01 2.513220e+01 2.582784e+01 2.984671e+01 2.308340e+01 1.876028e+01 1.909276e-01 5.052202e-01 5.917580e-01 7.771146e-01 9.718645e-01 1.068679e+00 1.245497e+00 1.462019e+00 1.304874e+00 1.382291e+00 1.233266e+00 1.112444e+00 2.543321e-04
<GCONST> 7.199024e+01
<MIXTURE> 32 4.136493e-03
<MEAN> 25
 -3.284276e+00 -5.539602e+00 -1.429980e-02 4.892509e+00 3.867548e+00 1.605464e+00 5.218868e+00 6.623518e+00 2.834897e+00 1.468290e+00 6.157640e+00 3.110811e+00 2.571442e-01 4.835433e-01 -2.185211e-01 2.986757e-01 9.356797e-02 4.088914e-01 1.621496e-01 3.217604e-02 3.806768e-01 3.257650e-01 1.338717e-01 1.021135e-01 -1.866203e-02
<VARIANCE> 25
 7.417759e+00 1.552818e+01 1.709002e+01 1.731779e+01 2.500465e+01 2.340529e+01 2.312715e+01 2.513220e+01 2.582784e+01 2.984671e+01 2.308340e+01 1.876028e+01 1.909276e-01 5.052202e-01 5.917580e-01 7.771146e-01 9.718645e-01 1.068679e+00 1.245497e+00 1.462019e+00 1.304874e+00 1.382291e+00 1.233266e+00 1.112444e+00 2.543321e-04
<GCONST> 7.199024e+01
<MIXTURE> 33 1.508826e-02
<MEAN> 25
 6.689790e+00 -3.829618e+00 -3.328866e+00 -2.668050e+00 -8.115658e-01 -4.621035e+00 -6.878660e+00 1.283705e+00 2.322899e+00 -5.175970e-01 -5.143914e+00 -2.274375e+00 8.970756e-01 -1.169134e+00 -2.520335e+00 -1.812666e+00 1.498494e+00 1.365034e+00 -9.347017e-01 2.284720e-01 6.754259e-01 9.167961e-01 -1.745685e-01 -1.386295e+00 3.780330e-02
<VARIANCE> 25
 8.927840e+00 1.963501e+01 3.577291e+01 3.208685e+01 4.504404e+01 4.545535e+01 3.908208e+01 4.404914e+01 3.609954e+01 3.913535e+01 3.286216e+01 2.884448e+01 1.510289e+00 1.775871e+00 2.044384e+00 2.057460e+00 3.740080e+00 3.062042e+00 4.129660e+00 6.229663e+00 4.164675e+00 4.784033e+00 3.344833e+00 2.335054e+00 1.338039e-03
<GCONST> 9.388162e+01
<MIXTURE> 34 1.588179e-02
<MEAN> 25
 8.944866e+00 -1.184349e+00 -5.187831e-01 5.632294e-01 -2.221792e+00 -8.888767e-01 -6.294613e+00 -4.513954e+00 -1.863769e+00 7.512245e-01 -1.737932e+00 -3.549424e+00 1.783853e-01 1.544504e+00 8.667828e-01 2.343094e+00 1.182089e-01 3.271597e-02 9.877833e-01 -1.785090e+00 -8.729430e-01 3.116387e-01 -3.850532e-01 3.024217e-02 -6.339155e-02
<VARIANCE> 25
 6.597716e+00 3.583650e+01 2.827003e+01 4.476525e+01 3.952921e+01 4.409463e+01 4.993358e+01 4.802375e+01 4.553739e+01 3.771568e+01 4.360570e+01 2.743670e+01 1.345051e+00 1.863882e+00 5.436654e+00 3.472171e+00 4.926434e+00 5.015261e+00 4.915739e+00 5.439208e+00 4.645844e+00 4.170161e+00 4.394903e+00 3.431687e+00 1.013730e-03
<GCONST> 9.747081e+01
<MIXTURE> 35 1.467755e-02
<MEAN> 25
 -2.021315e+00 -5.103189e+00 -9.898355e+00 2.880915e-01 9.637329e+00 8.028457e-01 1.535692e+00 2.442859e+00 1.493538e+00 4.423586e+00 -4.362581e-02 1.891676e+00 5.584544e-01 -1.120032e+00 -1.377565e+00 -1.392099e+00 4.029541e-01 -7.670811e-01 -7.069347e-01 -1.492369e-01 -1.727340e-01 2.001293e-01 -6.507214e-01 -4.842638e-01 1.057460e-01
<VARIANCE> 25
 2.031806e+01 2.961346e+01 4.273499e+01 6.124223e+01 4.142945e+01 5.603396e+01 5.014901e+01 4.287944e+01 4.910355e+01 3.883173e+01 3.665484e+01 3.022379e+01 3.517887e+00 3.508848e+00 6.812555e+00 5.443388e+00 5.104592e+00 5.498628e+00 4.848801e+00 4.739295e+00 4.997968e+00 4.565845e+00 4.046759e+00 3.774486e+00 5.318772e-03
<GCONST> 1.034161e+02
<MIXTURE> 36 1.093293e-02
<MEAN> 25
 4.917723e+00 -3.336389e+00 6.979270e+00 2.419718e+00 -1.020077e+01 -8.614791e+00 -6.047653e+00 3.043346e+00 -1.941956e+00 -4.314934e+00 2.704769e+00 -2.162303e-01 3.377477e-01 2.065099e-01 -9.461907e-01 8.143535e-02 9.108622e-01 -3.412446e-04 -4.132455e-01 3.616718e-02 4.116543e-01 5.561480e-01 -4.199341e-01 -2.520191e-01 -1.825823e-02
<VARIANCE> 25
 9.467042e+00 1.820045e+01 2.261659e+01 2.858732e+01 3.083439e+01 3.245396e+01 4.447187e+01 3.330966e+01 3.881541e+01 3.233574e+01 2.639348e+01 2.601983e+01 4.666829e-01 7.515423e-01 1.461118e+00 1.239398e+00 1.583368e+00 1.626860e+00 2.091491e+00 1.680630e+00 1.958379e+00 1.604555e+00 1.354017e+00 1.547673e+00 7.700967e-04
<GCONST> 8.190910e+01
<MIXTURE> 37 1.246826e-02
<MEAN> 25
 5.555067e-01 6.591882e+00 1.137823e+01 -5.634612e+00 -8.323632e+00 -1.598387e+00 -3.868445e+00 -8.149704e+00 -3.809986e+00 -9.277546e-01 -2.840747e+00 -1.186661e+00 -1.016149e-01 1.049615e+00 -1.568232e+00 3.423389e+00 2.018338e+00 -2.686748e-01 1.105583e+00 3.494808e-01 8.633379e-01 -2.897470e-01 7.827241e-01 1.853424e-01 -9.163871e-02
<VARIANCE> 25
 1.508272e+01 2.865820e+01 2.821223e+01 4.447474e+01 2.954127e+01 3.457256e+01 4.458582e+01 3.042920e+01 3.295538e+01 3.025129e+01 3.524720e+01 2.590610e+01 2.982596e+00 3.615108e+00 2.764921e+00 3.602568e+00 4.036519e+00 3.401233e+00 3.553440e+00 3.281277e+00 3.377705e+00 3.327988e+00 3.970542e+00 2.760223e+00 3.625792e-03
<GCONST> 9.596017e+01
<MIXTURE> 38 1.154525e-02
<MEAN> 25
 -4.948951e+00 8.456466e+00 5.284785e+00 2.248852e+00 -3.308863e-01 -4.056378e+00 -5.640863e-02 -3.211588e+00 -2.133620e+00 -3.175591e+00 -3.100010e-01 -1.675844e-01 -4.120297e+00 1.336868e+00 -5.564091e-01 1.540036e+00 2.719656e+00 1.352552e+00 1.807819e+00 7.011995e-01 1.071577e+00 5.235594e-01 1.198190e+00 4.693338e-01 3.979851e-02
<VARIANCE> 25
 2.712744e+01 2.481095e+01 3.327842e+01 3.044915e+01 4.584415e+01 3.978083e+01 3.390252e+01 3.492785e+01 2.971234e+01 2.689931e+01 2.619207e+01 2.426903e+01 2.376510e+00 3.338286e+00 3.471512e+00 4.362263e+00 3.558113e+00 4.133162e+00 4.108289e+00 4.571630e+00 3.894281e+00 4.001845e+00 4.320183e+00 2.822285e+00 1.925131e-03
<GCONST> 9.650763e+01
<MIXTURE> 39 9.501865e-03
<MEAN> 25
 9.302909e-01 2.489740e+00 9.973012e+00 -7.603664e+00 -1.099456e+01 -1.035229e+00 -2.805815e+00 -5.771308e+00 -3.784632e+00 6.579802e-01 -3.191915e+00 -2.860676e+00 -9.753035e-01 1.563243e+00 1.571346e+00 -1.666517e+00 1.096844e-01 1.389251e+00 -9.640752e-01 -1.153129e+00 3.395582e-01 3.953309e-01 -2.240813e-01 1.486208e-01 8.376673e-03
<VARIANCE> 25
 1.054369e+01 2.432679e+01 2.765446e+01 4.047134e+01 3.101245e+01 3.797585e+01 3.636688e+01 3.167698e+01 3.381925e+01 3.796127e+01 3.071432e+01 2.486774e+01 7.986678e-01 1.357613e+00 1.711868e+00 2.615707e+00 2.067641e+00 2.453703e+00 2.813842e+00 2.482625e+00 1.992197e+00 2.268478e+00 2.335971e+00 2.334579e+00 1.238470e-03
<GCONST> 8.808952e+01
<MIXTURE> 40 1.030800e-02
<MEAN> 25
 -7.871187e+00 2.167411e+00 -1.710014e+00 7.799699e+00 4.178035e+00 5.152242e+00 5.355548e+00 4.256759e+00 4.499587e+00 3.875360e+00 4.925255e+00 1.884612e+00 -1.792861e-01 -2.772911e-01 -1.925683e-02 -1.327653e-01 7.476617e-02 -2.027936e-01 4.658335e-02 6.773175e-02 -4.298761e-02 4.524299e-02 9.383567e-02 6.054414e-02 5.343383e-03
<VARIANCE> 25
 4.762074e+01 2.013083e+01 2.724675e+01 2.457200e+01 2.285295e+01 1.791674e+01 1.770133e+01 1.740466e+01 1.645459e+01 1.897655e+01 2.046383e+01 1.421217e+01 8.097700e-01 6.671957e-01 9.753451e-01 1.176444e+00 1.248522e+00 1.294659e+00 1.242897e+00 1.194401e+00 1.197795e+00 1.261022e+00 1.123480e+00 1.010101e+00 8.084974e-04
<GCONST> 7.629647e+01
<MIXTURE> 41 6.713375e-03
<MEAN> 25
 1.213344e+00 3.074320e-01 1.062197e+01 -6.997789e+00 -1.009810e+01 -3.578134e+00 -2.912544e+00 -3.860604e+00 -5.093033e+00 2.770903e+00 -1.494476e+00 -1.431882e+00 2.111157e-01 -1.149113e+00 1.884141e+00 -3.259776e+00 -2.379896e+00 4.899150e-02 -7.627475e-01 2.680109e-02 -1.201041e+00 6.040372e-01 -9.192761e-01 -6.963400e-02 8.729532e-02
<VARIANCE> 25
 9.604836e+00 3.535869e+01 2.662130e+01 3.372689e+01 3.039831e+01 3.637053e+01 3.058976e+01 3.376217e+01 2.735271e+01 2.332198e+01 2.727636e+01 3.009254e+01 2.673179e+00 3.109073e+00 3.239020e+00 3.192759e+00 3.871268e+00 5.031672e+00 3.723779e+00 4.436793e+00 3.504593e+00 4.481586e+00 3.522622e+00 2.497230e+00 2.371522e-03
<GCONST> 9.480338e+01
<MIXTURE> 42 1.106211e-02
<MEAN> 25
 -2.266706e+00 4.339297e+00 4.197480e+00 2.493519e+00 2.303890e-01 -5.701399e+00 -1.181910e+00 -1.791664e+00 -1.253359e+00 -1.778320e+00 -2.263546e+00 1.116799e+00 4.081321e+00 -4.239669e-01 1.514791e+00 8.931431e-02 -2.870980e+00 -1.190452e+00 -2.230931e+00 -8.127072e-01 -9.084003e-01 -7.073418e-01 4.071166e-01 -9.799876e-01 1.224800e-02
<VARIANCE> 25
 3.582710e+01 2.070526e+01 4.834958e+01 2.688186e+01 3.678337e+01 4.163018e+01 3.488133e+01 2.636884e+01 2.673277e+01 2.933535e+01 1.971863e+01 1.700697e+01 3.348307e+00 4.587959e+00 6.145322e+00 4.604267e+00 4.662011e+00 5.936533e+00 4.672279e+00 5.012060e+00 4.746189e+00 5.047470e+00 4.269926e+00 3.452816e+00 4.475831e-03
<GCONST> 9.937040e+01
<MIXTURE> 43 7.108249e-03
<MEAN> 25
 3.172616e+00 -6.302015e+00 -2.251400e+00 -5.177074e+00 -7.398242e+00 -3.409787e+00 4.133043e+00 1.299890e+00 -5.067385e+00 -7.078141e+00 -4.322021e+00 -1.250526e+00 2.369958e-01 2.165197e+00 1.911880e+00 -1.342448e-01 -1.427795e+00 -7.921250e-01 -9.668459e-01 -7.771367e-01 8.225183e-01 1.467755e+00 3.430120e-01 1.853684e-02 -4.512705e-02
<VARIANCE> 25
 9.619969e+00 1.970505e+01 2.733325e+01 3.526494e+01 3.837374e+01 3.665140e+01 3.332385e+01 3.984882e+01 3.961090e+01 3.881565e+01 2.650651e+01 2.951186e+01 6.912482e-01 1.247761e+00 1.572597e+00 2.489214e+00 2.378387e+00 2.386592e+00 2.657199e+00 3.027024e+00 2.608071e+00 2.574911e+00 2.329900e+00 1.921146e+00 9.434454e-04
<GCONST> 8.797807e+01
<MIXTURE> 44 7.328289e-03
<MEAN> 25
 -1.487514e+01 2.898073e+00 3.863142e+00 -2.735014e+00 3.399427e+00 2.830261e+00 8.279851e-01 -5.578027e-01 2.593520e+00 -1.742776e+00 2.118616e+00 1.594561e+00 -3.550987e-01 -1.069727e-01 -7.142697e-02 2.339456e-01 2.601624e-01 -1.548665e-03 6.920034e-01 9.634372e-02 4.146982e-01 -1.222256e-01 -8.299708e-02 -3.808079e-02 6.772962e-03
<VARIANCE> 25
 3.060766e+01 2.374743e+01 2.896261e+01 2.773551e+01 2.283639e+01 2.662988e+01 2.438380e+01 4.496535e+01 2.693501e+01 2.331140e+01 2.261149e+01 1.736489e+01 1.325611e+00 1.285357e+00 1.466920e+00 1.281439e+00 2.356112e+00 1.482832e+00 1.850263e+00 2.439797e+00 1.607981e+00 1.495122e+00 1.306087e+00 1.410142e+00 1.035827e-03
<GCONST> 8.358746e+01
<MIXTURE> 45 1.364932e-02
<MEAN> 25
 -1.119378e+01 3.600468e+00 -5.014944e-01 1.469426e+00 5.351129e+00 1.492012e+00 3.966221e+00 3.035404e+00 3.408814e+00 1.756470e+00 1.953676e+00 2.197637e+00 -2.923824e+00 4.751217e-01 -3.443154e-02 -6.348605e-01 1.221692e-01 4.287429e-01 4.510597e-01 2.089878e-02 9.794283e-02 -6.216443e-02 2.554075e-01 1.903406e-01 1.065706e-01
<VARIANCE> 25
 3.398277e+01 2.389974e+01 2.630388e+01 3.165120e+01 2.622705e+01 2.761565e+01 3.086331e+01 2.168741e+01 1.911580e+01 1.912794e+01 2.289202e+01 1.244769e+01 1.984458e+00 2.369706e+00 2.740245e+00 3.248729e+00 2.112229e+00 2.536445e+00 1.859318e+00 2.015847e+00 1.764887e+00 1.837830e+00 1.521339e+00 1.294236e+00 3.355387e-03
<GCONST> 8.690778e+01
<MIXTURE> 46 9.336259e-03
<MEAN> 25
 -9.441387e+00 2.394722e+00 1.121557e+00 7.391599e+00 5.820556e+00 3.188770e+00 6.968848e+00 4.279444e+00 5.615550e+00 4.519433e+00 5.187377e+00 2.836499e+00 1.007303e+00 -2.617138e-01 -3.615092e-02 1.010642e+00 6.574827e-01 9.827227e-01 3.524925e-01 6.735572e-01 4.559154e-01 5.059909e-01 6.205131e-01 5.335543e-01 -1.019888e-01
<VARIANCE> 25
 3.367672e+01 4.293364e+01 3.785160e+01 4.930294e+01 4.994875e+01 4.053683e+01 3.624217e+01 3.581568e+01 3.246468e+01 3.106098e+01 2.903000e+01 2.004025e+01 3.910244e+00 4.031785e+00 3.994261e+00 4.054383e+00 4.280595e+00 3.722971e+00 3.346212e+00 3.079426e+00 2.946634e+00 2.819355e+00 2.294782e+00 1.745401e+00 8.057885e-03
<GCONST> 9.814639e+01
<MIXTURE> 47 7.116147e-03
<MEAN> 25
 7.343946e+00 -7.342795e+00 -7.767696e+00 -6.426503e+00 1.537178e+00 8.264668e-01 -2.399376e+00 1.209634e+00 2.999180e+00 1.688004e-01 -4.246504e+00 -6.682693e+00 -1.877245e-01 -1.254090e+00 -6.860954e-01 -4.238171e-01 6.255583e-01 8.126364e-01 8.724853e-01 3.072753e-01 1.191628e-01 -8.858725e-01 -4.721144e-01 -4.469814e-01 2.999790e-02
<VARIANCE> 25
 1.068104e+01 2.131908e+01 2.045908e+01 3.328532e+01 3.635177e+01 5.265032e+01 4.515729e+01 4.071600e+01 4.333281e+01 4.698323e+01 4.852705e+01 3.374600e+01 5.225274e-01 7.725900e-01 1.132752e+00 1.668891e+00 1.975525e+00 2.201447e+00 2.316699e+00 2.490971e+00 2.189222e+00 2.141725e+00 2.192168e+00 2.040442e+00 5.518283e-04
<GCONST> 8.648534e+01
<MIXTURE> 48 7.116147e-03
<MEAN> 25
 7.343946e+00 -7.342795e+00 -7.767696e+00 -6.426503e+00 1.537178e+00 8.264668e-01 -2.399376e+00 1.209634e+00 2.999180e+00 1.688004e-01 -4.246504e+00 -6.682693e+00 -1.877245e-01 -1.254090e+00 -6.860954e-01 -4.238171e-01 6.255583e-01 8.126364e-01 8.724853e-01 3.072753e-01 1.191628e-01 -8.858725e-01 -4.721144e-01 -4.469814e-01 2.999790e-02
<VARIANCE> 25
 1.068104e+01 2.131908e+01 2.045908e+01 3.328532e+01 3.635177e+01 5.265032e+01 4.515729e+01 4.071600e+01 4.333281e+01 4.698323e+01 4.852705e+01 3.374600e+01 5.225274e-01 7.725900e-01 1.132752e+00 1.668891e+00 1.975525e+00 2.201447e+00 2.316699e+00 2.490971e+00 2.189222e+00 2.141725e+00 2.192168e+00 2.040442e+00 5.518283e-04
<GCONST> 8.648534e+01
<MIXTURE> 49 5.548473e-03
<MEAN> 25
 -5.077552e+00 3.554738e-01 1.599054e-01 8.449561e+00 6.146423e+00 5.609390e+00 6.061484e+00 4.486040e+00 5.024505e+00 3.706893e+00 4.922137e+00 2.858149e+00 3.661095e-01 6.543620e-01 7.020271e-01 3.531016e-01 -1.951264e-01 -6.700935e-01 -1.006199e+00 -1.121216e+00 -9.570763e-01 -6.791427e-01 -4.948751e-01 -2.720382e-01 -9.977652e-06
<VARIANCE> 25
 9.645481e+00 1.006728e+01 1.427086e+01 1.585898e+01 1.586821e+01 1.716150e+01 1.943919e+01 1.939216e+01 1.820485e+01 1.802524e+01 2.066289e+01 1.431932e+01 2.816797e-01 2.639860e-01 3.591409e-01 6.115370e-01 8.689546e-01 9.730616e-01 9.983788e-01 1.051566e+00 1.134656e+00 1.219985e+00 1.286848e+00 1.208870e+00 1.442712e-05
<GCONST> 6.435409e+01
<MIXTURE> 50 6.234641e-03
<MEAN> 25
 -4.490579e+00 2.431688e-01 -1.643534e+00 6.160685e+00 4.233361e+00 2.285129e+00 3.579207e+00 1.926209e+00 2.765639e+00 1.401190e+00 2.102110e+00 2.748647e+00 5.448343e-02 1.923924e-01 9.314279e-02 -1.564306e-01 -4.948707e-01 -5.707514e-01 -4.069661e-01 -7.363323e-02 3.915684e-01 7.587031e-01 7.554096e-01 4.668241e-01 -3.571510e-07
<VARIANCE> 25
 1.115856e+01 1.150409e+01 1.500536e+01 1.507484e+01 1.494603e+01 1.798370e+01 1.845382e+01 1.912905e+01 1.799505e+01 1.698512e+01 2.109914e+01 1.496901e+01 1.403621e-01 2.426041e-01 3.670124e-01 5.259517e-01 5.870903e-01 7.857141e-01 9.626966e-01 1.107788e+00 1.107071e+00 8.897831e-01 9.881541e-01 1.025531e+00 9.848167e-07
<GCONST> 5.959458e+01
<MIXTURE> 51 6.234641e-03
<MEAN> 25
 -4.490579e+00 2.431688e-01 -1.643534e+00 6.160685e+00 4.233361e+00 2.285129e+00 3.579207e+00 1.926209e+00 2.765639e+00 1.401190e+00 2.102110e+00 2.748647e+00 5.448343e-02 1.923924e-01 9.314279e-02 -1.564306e-01 -4.948707e-01 -5.707514e-01 -4.069661e-01 -7.363323e-02 3.915684e-01 7.587031e-01 7.554096e-01 4.668241e-01 -3.571510e-07
<VARIANCE> 25
 1.115856e+01 1.150409e+01 1.500536e+01 1.507484e+01 1.494603e+01 1.798370e+01 1.845382e+01 1.912905e+01 1.799505e+01 1.698512e+01 2.109914e+01 1.496901e+01 1.403621e-01 2.426041e-01 3.670124e-01 5.259517e-01 5.870903e-01 7.857141e-01 9.626966e-01 1.107788e+00 1.107071e+00 8.897831e-01 9.881541e-01 1.025531e+00 9.848167e-07
<GCONST> 5.959458e+01
<MIXTURE> 52 6.367945e-03
<MEAN> 25
 1.016291e+01 2.237755e+00 -6.330009e+00 -1.405624e+01 -4.119653e+00 8.189600e+00 -2.553238e+00 -2.784829e+00 -4.458358e+00 -1.995036e+00 3.302229e+00 7.203906e-01 -4.053137e-01 -4.331596e-01 -2.358243e-02 1.153835e+00 1.328427e+00 -4.306909e-01 -5.466700e-01 -6.035010e-01 1.068463e-01 1.214643e+00 3.145573e-01 -5.083407e-01 -1.549253e-02
<VARIANCE> 25
 9.014671e+00 2.059587e+01 2.486415e+01 3.849072e+01 4.415792e+01 3.228977e+01 4.558554e+01 4.890300e+01 4.217438e+01 4.463004e+01 3.867410e+01 2.894423e+01 4.546914e-01 1.484764e+00 1.376209e+00 2.725008e+00 2.246881e+00 2.184996e+00 2.947848e+00 2.813224e+00 3.000130e+00 2.589702e+00 2.618847e+00 2.215847e+00 1.574314e-03
<GCONST> 8.955755e+01
<MIXTURE> 53 6.367945e-03
<MEAN> 25
 1.016291e+01 2.237755e+00 -6.330009e+00 -1.405624e+01 -4.119653e+00 8.189600e+00 -2.553238e+00 -2.784829e+00 -4.458358e+00 -1.995036e+00 3.302229e+00 7.203906e-01 -4.053137e-01 -4.331596e-01 -2.358243e-02 1.153835e+00 1.328427e+00 -4.306909e-01 -5.466700e-01 -6.035010e-01 1.068463e-01 1.214643e+00 3.145573e-01 -5.083407e-01 -1.549253e-02
<VARIANCE> 25
 9.014671e+00 2.059587e+01 2.486415e+01 3.849072e+01 4.415792e+01 3.228977e+01 4.558554e+01 4.890300e+01 4.217438e+01 4.463004e+01 3.867410e+01 2.894423e+01 4.546914e-01 1.484764e+00 1.376209e+00 2.725008e+00 2.246881e+00 2.184996e+00 2.947848e+00 2.813224e+00 3.000130e+00 2.589702e+00 2.618847e+00 2.215847e+00 1.574314e-03
<GCONST> 8.955755e+01
<MIXTURE> 54 7.368620e-03
<MEAN> 25
 -3.619252e+00 5.371090e-02 -6.881467e-01 8.040620e+00 6.487861e+00 4.616068e+00 4.664886e+00 4.603611e+00 4.049555e+00 3.577618e+00 4.439067e+00 2.317078e+00 -2.248568e-03 2.738390e-02 3.477971e-02 4.611759e-02 5.089785e-02 4.493975e-02 4.298967e-02 2.952304e-02 3.074992e-02 2.786824e-02 8.830568e-03 -3.829110e-03 -1.474043e-05
<VARIANCE> 25
 9.191753e+00 1.034694e+01 9.293185e+00 1.814450e+01 1.329214e+01 1.352805e+01 1.198341e+01 1.125982e+01 1.131899e+01 1.360991e+01 1.787742e+01 1.253188e+01 4.080995e-02 8.743554e-02 1.538691e-01 2.269212e-01 3.072055e-01 3.978280e-01 4.663064e-01 5.209385e-01 5.412860e-01 5.228310e-01 5.264322e-01 5.292873e-01 1.004053e-06
<GCONST> 4.731626e+01
<MIXTURE> 55 7.368620e-03
<MEAN> 25
 -3.619252e+00 5.371090e-02 -6.881467e-01 8.040620e+00 6.487861e+00 4.616068e+00 4.664886e+00 4.603611e+00 4.049555e+00 3.577618e+00 4.439067e+00 2.317078e+00 -2.248568e-03 2.738390e-02 3.477971e-02 4.611759e-02 5.089785e-02 4.493975e-02 4.298967e-02 2.952304e-02 3.074992e-02 2.786824e-02 8.830568e-03 -3.829110e-03 -1.474043e-05
<VARIANCE> 25
 9.191753e+00 1.034694e+01 9.293185e+00 1.814450e+01 1.329214e+01 1.352805e+01 1.198341e+01 1.125982e+01 1.131899e+01 1.360991e+01 1.787742e+01 1.253188e+01 4.080995e-02 8.743554e-02 1.538691e-01 2.269212e-01 3.072055e-01 3.978280e-01 4.663064e-01 5.209385e-01 5.412860e-01 5.228310e-01 5.264322e-01 5.292873e-01 1.004053e-06
<GCONST> 4.731626e+01
<MIXTURE> 56 6.132464e-03
<MEAN> 25
 7.691688e+00 -6.208811e+00 -9.091229e+00 -7.995449e+00 3.748042e+00 3.787157e+00 -2.166990e+00 -1.572634e+00 1.763846e+00 8.404421e-01 -2.358939e+00 -6.717922e+00 -2.822392e-02 7.196764e-02 -5.542580e-02 9.455689e-03 2.429183e-01 3.475053e-02 1.016710e-01 -1.133340e-01 -4.629434e-02 -6.062978e-02 -7.781859e-02 1.307362e-02 -7.471657e-03
<VARIANCE> 25
 9.803477e+00 2.621218e+01 1.910642e+01 4.464619e+01 3.177465e+01 4.839999e+01 5.894634e+01 3.574023e+01 3.773698e+01 3.688268e+01 3.782273e+01 3.130843e+01 2.030796e-01 4.395793e-01 5.067425e-01 8.408217e-01 7.987937e-01 1.100641e+00 8.567610e-01 8.764608e-01 8.670407e-01 9.896302e-01 9.973109e-01 7.492339e-01 2.264296e-04
<GCONST> 7.502893e+01
<MIXTURE> 57 6.132464e-03
<MEAN> 25
 7.691688e+00 -6.208811e+00 -9.091229e+00 -7.995449e+00 3.748042e+00 3.787157e+00 -2.166990e+00 -1.572634e+00 1.763846e+00 8.404421e-01 -2.358939e+00 -6.717922e+00 -2.822392e-02 7.196764e-02 -5.542580e-02 9.455689e-03 2.429183e-01 3.475053e-02 1.016710e-01 -1.133340e-01 -4.629434e-02 -6.062978e-02 -7.781859e-02 1.307362e-02 -7.471657e-03
<VARIANCE> 25
 9.803477e+00 2.621218e+01 1.910642e+01 4.464619e+01 3.177465e+01 4.839999e+01 5.894634e+01 3.574023e+01 3.773698e+01 3.688268e+01 3.782273e+01 3.130843e+01 2.030796e-01 4.395793e-01 5.067425e-01 8.408217e-01 7.987937e-01 1.100641e+00 8.567610e-01 8.764608e-01 8.670407e-01 9.896302e-01 9.973109e-01 7.492339e-01 2.264296e-04
<GCONST> 7.502893e+01
<MIXTURE> 58 6.172147e-03
<MEAN> 25
 2.522007e+00 -3.298315e+00 8.073670e+00 -5.553320e+00 -1.344370e+01 -5.404013e+00 1.163200e+00 5.759327e-01 -3.095798e+00 1.787815e+00 4.222840e-01 -1.123960e+00 1.939510e-02 -1.741168e-01 -9.661799e-02 -1.331387e-01 -2.002712e-02 1.451824e-01 3.509075e-01 2.280401e-01 4.794848e-02 -2.677819e-02 -3.921577e-02 5.928618e-03 -4.056354e-03
<VARIANCE> 25
 7.148247e+00 1.511210e+01 2.501415e+01 2.730589e+01 2.317088e+01 4.419254e+01 3.199289e+01 3.238930e+01 3.417651e+01 2.921909e+01 2.147059e+01 2.010501e+01 3.110782e-01 8.065944e-01 7.611355e-01 9.697633e-01 8.709851e-01 1.169476e+00 1.078892e+00 1.215527e+00 1.021223e+00 1.094930e+00 9.067019e-01 1.026605e+00 7.265538e-04
<GCONST> 7.542071e+01
<MIXTURE> 59 6.172147e-03
<MEAN> 25
 2.522007e+00 -3.298315e+00 8.073670e+00 -5.553320e+00 -1.344370e+01 -5.404013e+00 1.163200e+00 5.759327e-01 -3.095798e+00 1.787815e+00 4.222840e-01 -1.123960e+00 1.939510e-02 -1.741168e-01 -9.661799e-02 -1.331387e-01 -2.002712e-02 1.451824e-01 3.509075e-01 2.280401e-01 4.794848e-02 -2.677819e-02 -3.921577e-02 5.928618e-03 -4.056354e-03
<VARIANCE> 25
 7.148247e+00 1.511210e+01 2.501415e+01 2.730589e+01 2.317088e+01 4.419254e+01 3.199289e+01 3.238930e+01 3.417651e+01 2.921909e+01 2.147059e+01 2.010501e+01 3.110782e-01 8.065944e-01 7.611355e-01 9.697633e-01 8.709851e-01 1.169476e+00 1.078892e+00 1.215527e+00 1.021223e+00 1.094930e+00 9.067019e-01 1.026605e+00 7.265538e-04
<GCONST> 7.542071e+01
<MIXTURE> 60 4.479129e-03
<MEAN> 25
 -4.243857e+00 -6.539450e-01 -1.101129e+00 3.708953e+00 1.749979e+00 2.119831e+00 1.637726e+00 1.531219e+00 2.160705e+00 1.266216e+00 2.373403e+00 1.908993e+00 -2.876806e-02 5.759852e-02 1.012487e-01 1.296529e-01 1.295987e-01 1.289241e-01 1.795333e-01 3.207080e-01 5.399415e-01 6.635892e-01 5.556090e-01 3.047391e-01 -3.726289e-04
<VARIANCE> 25
 7.006053e+00 4.605146e+00 1.032702e+01 1.131314e+01 1.362167e+01 1.694625e+01 1.396869e+01 1.184530e+01 1.268617e+01 1.321188e+01 1.592586e+01 1.226372e+01 8.720449e-02 1.686581e-01 2.791186e-01 4.336846e-01 5.855931e-01 7.275928e-01 8.294802e-01 8.997717e-01 9.112707e-01 8.356098e-01 8.470567e-01 8.715770e-01 2.305380e-05
<GCONST> 5.639799e+01
<MIXTURE> 61 4.479129e-03
<MEAN> 25
 -4.243857e+00 -6.539450e-01 -1.101129e+00 3.708953e+00 1.749979e+00 2.119831e+00 1.637726e+00 1.531219e+00 2.160705e+00 1.266216e+00 2.373403e+00 1.908993e+00 -2.876806e-02 5.759852e-02 1.012487e-01 1.296529e-01 1.295987e-01 1.289241e-01 1.795333e-01 3.207080e-01 5.399415e-01 6.635892e-01 5.556090e-01 3.047391e-01 -3.726289e-04
<VARIANCE> 25
 7.006053e+00 4.605146e+00 1.032702e+01 1.131314e+01 1.362167e+01 1.694625e+01 1.396869e+01 1.184530e+01 1.268617e+01 1.321188e+01 1.592586e+01 1.226372e+01 8.720449e-02 1.686581e-01 2.791186e-01 4.336846e-01 5.855931e-01 7.275928e-01 8.294802e-01 8.997717e-01 9.112707e-01 8.356098e-01 8.470567e-01 8.715770e-01 2.305380e-05
<GCONST> 5.639799e+01
<MIXTURE> 62 3.278034e-03
<MEAN> 25
 -5.089910e+00 1.241213e+00 1.025973e+00 8.816510e+00 6.129602e+00 5.048518e+00 5.499715e+00 4.033459e+00 4.986606e+00 3.914034e+00 4.962791e+00 2.950492e+00 -1.003725e+00 -1.166562e+00 -9.532223e-01 -2.760708e-01 4.276550e-01 1.005584e+00 1.384838e+00 1.551783e+00 1.478103e+00 1.242091e+00 1.067400e+00 7.250937e-01 -1.265431e-03
<VARIANCE> 25
 9.885385e+00 9.959413e+00 1.310927e+01 1.673577e+01 1.740945e+01 1.752789e+01 1.969583e+01 1.913011e+01 1.884996e+01 1.877134e+01 2.157728e+01 1.479643e+01 4.029124e-01 4.319061e-01 5.539835e-01 7.807286e-01 1.035220e+00 1.193636e+00 1.253079e+00 1.280014e+00 1.330139e+00 1.366512e+00 1.400651e+00 1.372585e+00 1.632447e-05
<GCONST> 6.754041e+01
<MIXTURE> 63 4.351215e-03
<MEAN> 25
 -3.457630e+00 -1.901009e+00 -4.770145e+00 3.034911e+00 3.588889e+00 -2.668358e-01 3.075904e+00 1.456291e+00 2.027904e+00 -2.100473e-01 -1.230534e+00 2.185116e+00 -1.281569e-01 3.394162e-01 3.895802e-01 5.323868e-01 4.787688e-01 3.109550e-01 3.775607e-01 2.156602e-01 -1.431532e-02 2.893105e-01 2.691864e-01 2.375460e-01 -4.475615e-03
<VARIANCE> 25
 1.188490e+01 1.883540e+01 1.580830e+01 1.472678e+01 1.766459e+01 2.345258e+01 2.014772e+01 2.331406e+01 2.396571e+01 2.453572e+01 1.758041e+01 1.593684e+01 2.488525e-01 4.222575e-01 5.691186e-01 8.276792e-01 8.645942e-01 1.068725e+00 1.091114e+00 1.306035e+00 1.347775e+00 1.321173e+00 1.198973e+00 1.327162e+00 1.885155e-04
<GCONST> 7.073347e+01
<MIXTURE> 64 4.351215e-03
<MEAN> 25
 -3.457630e+00 -1.901009e+00 -4.770145e+00 3.034911e+00 3.588889e+00 -2.668358e-01 3.075904e+00 1.456291e+00 2.027904e+00 -2.100473e-01 -1.230534e+00 2.185116e+00 -1.281569e-01 3.394162e-01 3.895802e-01 5.323868e-01 4.787688e-01 3.109550e-01 3.775607e-01 2.156602e-01 -1.431532e-02 2.893105e-01 2.691864e-01 2.375460e-01 -4.475615e-03
<VARIANCE> 25
 1.188490e+01 1.883540e+01 1.580830e+01 1.472678e+01 1.766459e+01 2.345258e+01 2.014772e+01 2.331406e+01 2.396571e+01 2.453572e+01 1.758041e+01 1.593684e+01 2.488525e-01 4.222575e-01 5.691186e-01 8.276792e-01 8.645942e-01 1.068725e+00 1.091114e+00 1.306035e+00 1.347775e+00 1.321173e+00 1.198973e+00 1.327162e+00 1.885155e-04
<GCONST> 7.073347e+01
<MIXTURE> 65 1.721197e-02
<MEAN> 25
 8.140682e+00 2.036751e+00 1.588148e+00 6.670947e-01 -5.149797e+00 -4.130538e+00 -5.783865e+00 -6.679280e+00 -3.789544e+00 -2.112340e+00 -5.299876e+00 -1.885295e+00 1.495858e-01 1.500355e-01 3.455338e-02 9.872602e-02 -1.393345e-01 2.246052e-01 -9.785748e-02 -1.162705e-01 1.946798e-01 1.251268e-02 -4.095365e-02 -1.357997e-01 -4.569945e-03
<VARIANCE> 25
 1.006639e+01 1.906590e+01 2.846109e+01 3.557565e+01 3.913537e+01 5.796160e+01 5.648606e+01 5.802629e+01 5.384008e+01 5.839088e+01 5.554784e+01 4.949997e+01 5.834219e-01 9.854589e-01 1.645831e+00 1.849731e+00 2.009862e+00 2.195840e+00 2.276226e+00 3.006336e+00 2.401823e+00 2.442037e+00 2.423144e+00 2.090934e+00 4.123766e-04
<GCONST> 8.948415e+01
<MIXTURE> 66 1.191532e-02
<MEAN> 25
 6.760611e+00 -3.827788e+00 -5.714372e+00 -4.631308e+00 1.593471e+00 -4.938652e+00 -6.845066e+00 1.230421e+00 7.361645e-01 -1.745406e+00 -6.028769e+00 -2.994447e+00 -1.138261e-01 1.620049e+00 2.233163e+00 2.278126e+00 -1.275824e+00 -1.173406e+00 1.491652e-01 -4.553790e-01 -3.920641e-02 -2.475215e-01 -1.848633e-01 1.028060e+00 -6.256131e-02
<VARIANCE> 25
 8.885994e+00 2.266565e+01 2.704347e+01 3.235560e+01 3.899490e+01 5.132588e+01 5.350737e+01 4.406615e+01 5.199892e+01 6.495702e+01 3.610136e+01 3.994947e+01 1.368864e+00 2.393198e+00 2.287728e+00 2.413677e+00 4.054174e+00 4.229692e+00 4.389272e+00 4.848876e+00 4.272603e+00 4.910359e+00 3.755786e+00 3.164861e+00 1.430627e-03
<GCONST> 9.655696e+01
<MIXTURE> 67 1.559142e-02
<MEAN> 25
 9.101433e+00 2.517472e+00 -6.199876e+00 -8.110885e+00 6.745619e-01 3.019644e+00 -2.746245e+00 -1.572228e+00 -3.452368e+00 9.549227e-01 -2.604973e-01 -1.641783e+00 -1.083798e+00 1.631279e+00 1.071381e+00 2.967039e+00 1.420752e+00 -3.365940e-01 1.257150e+00 1.471916e-01 4.010169e-01 2.458187e-01 -3.908568e-01 5.819550e-01 -1.233111e-01
<VARIANCE> 25
 1.045511e+01 3.848265e+01 2.846515e+01 5.067831e+01 4.464045e+01 4.864001e+01 5.873245e+01 5.037371e+01 6.089662e+01 5.073072e+01 5.131316e+01 4.251220e+01 2.019216e+00 3.438272e+00 3.083476e+00 4.088497e+00 4.100898e+00 4.244896e+00 4.199833e+00 4.636779e+00 5.360139e+00 4.240331e+00 4.715240e+00 3.358184e+00 2.999800e-03
<GCONST> 1.009919e+02
<MIXTURE> 68 1.485092e-02
<MEAN> 25
 -2.364243e+00 -2.134685e+00 -4.325059e+00 1.536783e+00 4.643818e+00 -1.013818e+00 1.581463e+00 1.853194e+00 1.747065e+00 -8.351290e-02 -2.169206e-01 1.686203e+00 2.784347e+00 3.732684e-01 1.038065e-01 -2.340678e+00 -2.081983e+00 -1.673602e+00 -2.445285e+00 -1.805835e+00 -1.618973e+00 -1.237122e+00 -2.052153e+00 -7.490882e-01 9.671060e-02
<VARIANCE> 25
 2.575661e+01 2.857379e+01 5.169741e+01 4.623602e+01 4.436467e+01 4.907774e+01 4.170845e+01 3.755627e+01 3.640976e+01 5.657589e+01 3.607750e+01 2.423233e+01 1.716357e+00 3.520204e+00 5.414308e+00 5.453906e+00 4.738552e+00 5.315917e+00 5.107592e+00 4.368939e+00 4.374113e+00 5.439075e+00 4.527786e+00 3.753658e+00 5.806170e-03
<GCONST> 1.021427e+02
<MIXTURE> 69 1.204884e-02
<MEAN> 25
 4.300696e+00 -3.854811e+00 -3.573578e+00 -2.742988e+00 -2.869684e+00 -7.482331e+00 -1.734367e+00 2.255373e+00 1.221013e-01 -5.288135e+00 -6.218743e+00 1.572717e+00 1.999402e+00 -1.962510e+00 -1.064619e+00 -2.172303e+00 -4.868703e-01 -4.482087e-01 -8.467307e-01 2.934587e-01 -6.633682e-01 -7.704840e-01 -2.133717e+00 -1.400676e-01 6.267641e-02
<VARIANCE> 25
 8.690568e+00 2.008872e+01 2.405861e+01 2.570032e+01 3.877797e+01 3.431253e+01 4.772047e+01 3.450168e+01 3.488103e+01 3.723596e+01 2.752938e+01 2.309482e+01 3.721794e+00 3.126856e+00 4.118340e+00 3.146342e+00 5.165958e+00 4.872567e+00 6.526947e+00 5.796024e+00 5.055217e+00 6.982340e+00 3.832428e+00 3.396526e+00 2.529452e-03
<GCONST> 9.778517e+01
<MIXTURE> 70 1.329190e-02
<MEAN> 25
 7.497267e+00 -2.050392e+00 -4.244576e+00 -3.539395e+00 -2.252321e-02 -5.438555e-01 -7.519567e+00 -3.964450e+00 6.508581e-01 2.710185e+00 -5.185984e-01 -4.530787e+00 1.960241e+00 -1.139088e+00 -9.022510e-01 -2.159782e+00 -1.370444e+00 1.151205e+00 -1.373200e+00 -2.105070e-01 2.316303e-01 1.441490e-01 6.870944e-01 -1.455043e+00 5.783334e-02
<VARIANCE> 25
 9.627566e+00 2.164644e+01 3.028496e+01 4.485383e+01 3.682036e+01 4.321257e+01 4.806908e+01 4.249356e+01 4.495704e+01 3.206004e+01 4.585813e+01 2.869093e+01 3.410778e+00 3.087612e+00 4.804242e+00 4.785174e+00 5.394722e+00 6.193390e+00 6.529664e+00 7.541181e+00 6.085358e+00 5.713460e+00 5.701185e+00 4.140399e+00 2.465354e-03
<GCONST> 1.015499e+02
<MIXTURE> 71 1.406903e-02
<MEAN> 25
 6.183513e+00 4.786373e+00 3.848558e+00 3.142670e+00 -3.332632e+00 -3.320903e+00 -3.317891e+00 -5.566892e+00 -4.177592e+00 -1.938902e+00 -4.448097e+00 -2.946784e+00 -1.674096e+00 -7.282110e-01 2.617852e-02 -1.589485e+00 1.047753e+00 -9.839515e-02 -6.684499e-02 1.230702e+00 4.205925e-01 -3.346315e-01 4.934450e-01 2.551565e-01 4.191689e-02
<VARIANCE> 25
 1.814429e+01 2.337089e+01 2.431462e+01 3.940630e+01 3.838898e+01 3.602195e+01 3.738823e+01 4.154725e+01 3.458942e+01 4.145527e+01 3.563369e+01 3.108372e+01 1.642237e+00 2.768640e+00 5.143531e+00 4.662893e+00 4.282389e+00 4.273629e+00 4.264704e+00 5.631617e+00 3.916886e+00 3.664167e+00 3.710790e+00 2.984128e+00 1.345144e-03
<GCONST> 9.695473e+01
<MIXTURE> 72 8.134747e-03
<MEAN> 25
 3.633290e+00 -5.336487e+00 5.971235e+00 -3.638752e+00 -9.924235e+00 -8.724526e+00 -3.125149e+00 2.659295e+00 -5.146852e+00 -1.527997e+00 -1.798261e+00 8.000006e-01 9.866130e-01 -7.665247e-01 -2.598643e+00 5.722262e-01 2.188573e+00 -2.709728e-01 -1.331087e+00 1.162970e+00 1.858453e+00 -5.919371e-01 -1.195944e+00 2.123230e-01 -8.030985e-03
<VARIANCE> 25
 9.303324e+00 2.992336e+01 2.965703e+01 3.937021e+01 2.862683e+01 3.233942e+01 3.783474e+01 3.347159e+01 3.736644e+01 3.789281e+01 3.343668e+01 2.464422e+01 4.199429e-01 9.506343e-01 1.768592e+00 1.331042e+00 1.973503e+00 2.757896e+00 2.610791e+00 3.098217e+00 2.260018e+00 2.518157e+00 1.874717e+00 1.988564e+00 5.529099e-04
<GCONST> 8.586003e+01
<MIXTURE> 73 1.213625e-02
<MEAN> 25
 -5.288656e+00 -9.924837e-01 -1.448281e+00 4.695641e+00 4.114751e+00 2.141051e+00 5.268250e+00 2.983889e+00 4.361715e+00 3.441732e+00 4.492665e+00 3.123208e+00 6.592206e-01 -1.198310e+00 -6.584536e-01 -2.707749e+00 -1.244428e+00 -1.566509e+00 -9.878812e-01 -4.091829e-01 -8.960819e-01 -6.922011e-01 -9.411482e-01 -2.095666e-01 1.511833e-01
<VARIANCE> 25
 1.358680e+01 1.461978e+01 1.488486e+01 2.249872e+01 2.351021e+01 2.326126e+01 1.948678e+01 2.097242e+01 1.706953e+01 1.834543e+01 2.261656e+01 1.511094e+01 3.969435e+00 3.284099e+00 6.257373e+00 4.366096e+00 5.641482e+00 4.518502e+00 4.035807e+00 4.039880e+00 3.730232e+00 3.906856e+00 3.678511e+00 2.547115e+00 4.212586e-03
<GCONST> 9.230223e+01
<MIXTURE> 74 1.756491e-02
<MEAN> 25
 4.758255e+00 -3.429230e+00 5.655162e+00 -1.632079e+00 -9.181836e+00 -6.801121e+00 -2.959307e+00 6.658100e-01 -5.417315e+00 -1.556795e+00 -6.755028e-01 -6.400762e-01 5.958790e-01 2.130397e+00 -1.261856e+00 1.724595e+00 1.222122e+00 5.893744e-01 8.075219e-01 -1.338336e+00 6.229619e-01 6.642993e-01 2.389945e-01 -2.895776e-01 -8.685836e-02
<VARIANCE> 25
 8.814036e+00 2.663188e+01 3.030723e+01 2.898430e+01 2.592693e+01 3.569698e+01 4.056183e+01 4.149868e+01 3.361133e+01 3.428753e+01 3.232598e+01 2.125088e+01 1.768373e+00 1.485843e+00 4.063381e+00 1.601874e+00 3.040396e+00 2.892745e+00 3.963997e+00 2.919311e+00 3.263496e+00 3.104661e+00 2.716151e+00 2.486766e+00 1.229220e-03
<GCONST> 9.101081e+01
<MIXTURE> 75 9.711651e-03
<MEAN> 25
 2.305806e+00 -1.992394e+00 1.179301e+01 -4.375875e-01 -1.225957e+01 -6.034344e+00 -4.678453e+00 4.118541e-02 -5.204225e+00 -4.351521e+00 2.553646e+00 -8.211586e-01 2.005645e+00 -2.036194e+00 4.015545e-01 -2.574745e-01 -2.411137e+00 -7.976782e-01 -1.164398e+00 1.196730e+00 -8.034391e-01 -4.380673e-01 1.044678e+00 -6.630845e-01 3.837788e-02
<VARIANCE> 25
 9.833623e+00 1.901471e+01 2.949768e+01 3.385229e+01 2.264631e+01 3.702919e+01 2.609022e+01 2.690650e+01 2.663628e+01 2.769031e+01 1.832924e+01 2.291992e+01 2.931224e+00 1.839144e+00 3.809092e+00 2.243563e+00 3.294042e+00 4.396494e+00 3.510080e+00 3.033668e+00 4.428061e+00 3.041378e+00 2.735686e+00 2.181168e+00 1.457175e-03
<GCONST> 9.073752e+01
<MIXTURE> 76 1.052359e-02
<MEAN> 25
 -6.239024e+00 -6.808450e-01 -2.923547e+00 3.948904e+00 4.866457e+00 1.784306e+00 4.063306e+00 1.972321e+00 2.534468e+00 6.179245e-01 1.252908e+00 2.114882e+00 -2.634670e-01 -6.397067e-01 -9.315059e-02 -8.220274e-01 -4.830960e-01 -8.360276e-01 -7.867921e-01 -2.839048e-01 -2.715132e-01 -3.886299e-01 -2.110467e-01 -9.734716e-02 2.070668e-02
<VARIANCE> 25
 3.808660e+01 2.242132e+01 2.795039e+01 2.273075e+01 2.285782e+01 2.938047e+01 2.435791e+01 2.572979e+01 2.236756e+01 2.577106e+01 2.658800e+01 1.721867e+01 1.226292e+00 1.103802e+00 1.620693e+00 1.126261e+00 1.528732e+00 1.648818e+00 1.612380e+00 1.738341e+00 1.537268e+00 1.823043e+00 1.565545e+00 1.302152e+00 1.084228e-03
<GCONST> 8.235994e+01
<MIXTURE> 77 1.244626e-02
<MEAN> 25
 -4.653770e-01 8.526795e+00 1.248732e+01 -1.162255e+01 -7.021300e+00 9.278272e-01 -9.249527e+00 -7.223557e+00 -3.409187e+00 -1.818892e-01 -4.650231e+00 -1.487926e+00 7.084794e-02 1.333244e-01 7.459470e-02 2.493158e-01 -2.126503e-02 7.522767e-02 -6.352441e-02 -6.177876e-02 8.175225e-02 -4.280803e-02 2.444462e-02 1.228020e-01 -9.929159e-03
<VARIANCE> 25
 1.040665e+01 2.090550e+01 2.755079e+01 4.142903e+01 3.311538e+01 3.390729e+01 3.681349e+01 3.170896e+01 3.535401e+01 3.316025e+01 3.743760e+01 3.481789e+01 2.997201e-01 7.812203e-01 6.465418e-01 1.084061e+00 1.233977e+00 9.838407e-01 1.219743e+00 1.070615e+00 1.042061e+00 1.065316e+00 9.685249e-01 9.250864e-01 5.393582e-04
<GCONST> 7.781817e+01
<MIXTURE> 78 9.702551e-03
<MEAN> 25
 -1.012633e+01 1.196210e-02 -2.336349e+00 2.970225e+00 4.868370e+00 -1.682932e+00 3.492189e+00 2.773768e+00 3.009006e+00 -9.377062e-01 -8.265644e-01 3.336111e+00 2.617592e+00 -1.995210e-01 8.165129e-02 3.499711e-01 -1.032516e-01 1.080574e-01 -3.322415e-01 5.035625e-02 2.897550e-01 1.891432e-02 -9.735111e-01 -3.953201e-01 -4.752880e-02
<VARIANCE> 25
 4.122924e+01 2.983362e+01 2.729796e+01 2.719263e+01 3.075548e+01 2.909988e+01 2.961592e+01 2.758201e+01 2.407437e+01 2.988780e+01 2.599835e+01 1.778061e+01 4.264736e+00 2.103070e+00 2.266587e+00 2.545647e+00 2.490488e+00 2.855331e+00 2.969139e+00 3.575053e+00 2.356136e+00 2.427081e+00 2.931819e+00 1.842283e+00 3.905795e-03
<GCONST> 9.204388e+01
<MIXTURE> 79 1.156824e-02
<MEAN> 25
 2.219194e+00 3.422441e-01 1.045219e+01 -7.275077e+00 -1.196544e+01 -2.502127e+00 -1.826189e+00 -5.917686e+00 -6.890447e+00 3.775195e-01 -3.316993e+00 -3.184082e+00 1.181389e+00 -3.785990e-01 -1.544422e+00 2.227690e+00 2.784120e-01 -1.385668e+00 6.547049e-01 6.849133e-01 -2.877254e-01 -5.897517e-01 3.969561e-01 2.150937e-01 -3.847219e-02
<VARIANCE> 25
 1.263182e+01 2.951122e+01 4.227283e+01 4.622388e+01 2.940913e+01 4.318647e+01 3.769979e+01 3.573782e+01 3.481014e+01 3.585638e+01 3.968494e+01 2.722877e+01 1.218096e+00 2.574679e+00 1.836198e+00 1.905636e+00 2.270414e+00 2.635862e+00 2.878830e+00 3.530073e+00 2.616158e+00 2.446553e+00 2.069195e+00 1.901859e+00 1.146642e-03
<GCONST> 9.087179e+01
<MIXTURE> 80 7.550998e-03
<MEAN> 25
 -1.456963e+01 4.009718e+00 1.160326e+00 2.241312e+00 2.273013e+00 1.929234e+00 5.810600e+00 1.997654e+00 3.187527e+00 2.012014e+00 4.955098e+00 1.361678e+00 4.120571e+00 -5.406227e-02 1.713188e+00 -1.194035e+00 -2.985663e+00 -2.644386e+00 -2.256064e+00 -1.856192e+00 -2.019528e+00 -1.664875e+00 -1.522793e+00 -6.262265e-01 -3.654484e-02
<VARIANCE> 25
 1.904767e+01 1.829315e+01 3.332933e+01 3.513004e+01 2.770639e+01 2.931047e+01 2.863905e+01 2.912976e+01 2.618347e+01 2.933485e+01 2.472933e+01 1.712475e+01 2.405370e+00 2.433420e+00 2.535850e+00 3.814018e+00 3.249886e+00 2.590506e+00 2.833769e+00 3.134108e+00 2.516957e+00 2.619934e+00 2.903896e+00 2.074859e+00 1.917986e-03
<GCONST> 9.076076e+01
<MIXTURE> 81 8.025434e-03
<MEAN> 25
 -1.219896e+00 3.061918e+00 1.083628e+01 -1.451628e+01 -9.292171e+00 -1.990772e+00 -6.282372e+00 -8.131680e+00 -4.688135e+00 -2.876751e-01 -7.010893e+00 -2.513220e+00 2.123872e-01 -7.298732e-01 1.223871e-01 -6.071591e-01 -3.945357e-01 2.972295e-01 2.328478e-01 1.457475e-01 -2.351280e-01 2.545329e-01 -4.257173e-01 -3.136478e-02 1.339761e-02
<VARIANCE> 25
 9.282303e+00 3.758208e+01 2.721564e+01 2.724781e+01 3.051906e+01 3.047747e+01 4.255636e+01 2.642463e+01 3.647165e+01 2.896157e+01 2.509361e+01 2.870791e+01 7.808194e-01 2.373456e+00 1.587762e+00 2.650392e+00 2.459871e+00 1.932065e+00 3.033261e+00 2.079810e+00 2.218935e+00 2.523261e+00 2.119991e+00 1.955580e+00 1.139472e-03
<GCONST> 8.763515e+01
<MIXTURE> 82 8.213053e-03
<MEAN> 25
 -9.764543e+00 -3.410380e+00 1.726413e+00 -2.886153e+00 2.814607e+00 7.601274e-01 1.928917e+00 4.915636e-01 3.169790e+00 1.911057e+00 2.190777e+00 2.812902e+00 -1.245657e+00 -3.344887e-01 4.136233e-01 -2.642019e+00 -1.209394e+00 -1.146406e+00 -1.123986e+00 -7.929535e-01 -4.590327e-01 -3.524379e-01 -1.079564e-01 6.053602e-02 1.681927e-01
<VARIANCE> 25
 2.138606e+01 2.652622e+01 3.038782e+01 2.822551e+01 3.022060e+01 2.999164e+01 2.933361e+01 3.155927e+01 2.790381e+01 2.419875e+01 3.032245e+01 1.775276e+01 3.558523e+00 3.367271e+00 3.313000e+00 2.993426e+00 3.334809e+00 3.162703e+00 2.807018e+00 2.957592e+00 2.795145e+00 2.598175e+00 2.582214e+00 1.894075e+00 3.985546e-03
<GCONST> 9.278066e+01
<MIXTURE> 83 1.167529e-02
<MEAN> 25
 -1.938459e+01 5.433588e+00 -8.554641e-01 -7.840624e-01 7.558077e+00 -9.600878e-01 5.565980e+00 1.955231e+00 1.755205e+00 1.300967e+00 1.179741e+00 2.544055e+00 -9.133710e-03 -3.766168e-01 1.527534e-04 -4.725851e-01 -6.034257e-01 -1.978406e-01 -3.025285e-01 -2.003756e-01 -1.997104e-01 2.817925e-01 1.911313e-01 2.082632e-01 7.102503e-03
<VARIANCE> 25
 9.393766e+00 1.396927e+01 2.824228e+01 2.171492e+01 2.206552e+01 2.229916e+01 2.123917e+01 2.584114e+01 2.078538e+01 2.522244e+01 2.252871e+01 1.600443e+01 9.846255e-01 8.357850e-01 1.124225e+00 1.017268e+00 1.387923e+00 1.274469e+00 1.282753e+00 1.406985e+00 1.363464e+00 1.904140e+00 1.407902e+00 1.320478e+00 8.008018e-04
<GCONST> 7.744305e+01
<MIXTURE> 84 1.066614e-02
<MEAN> 25
 8.885372e-01 8.907608e+00 7.156629e+00 7.746662e+00 2.684777e+00 -8.681892e-01 -1.413127e+00 -4.521921e+00 -3.896904e+00 -2.903475e+00 -2.245795e+00 -1.557279e+00 -1.782251e+00 -1.144114e+00 -1.213295e+00 1.269352e+00 2.266509e+00 1.477789e+00 1.461302e+00 1.259193e+00 1.173288e+00 3.796299e-01 4.133101e-01 4.216945e-01 -6.893943e-02
<VARIANCE> 25
 2.634360e+01 1.808954e+01 2.152158e+01 2.521441e+01 2.916656e+01 2.847062e+01 2.773464e+01 2.655837e+01 2.600398e+01 2.507067e+01 2.439733e+01 2.422343e+01 2.059312e+00 2.560539e+00 3.748922e+00 3.268949e+00 3.213167e+00 3.339443e+00 3.250775e+00 3.477341e+00 3.394120e+00 3.175375e+00 3.551566e+00 2.767407e+00 3.628257e-03
<GCONST> 9.260613e+01
<MIXTURE> 85 7.591393e-03
<MEAN> 25
 -4.008854e+00 7.590426e+00 5.884300e+00 4.109357e-01 -3.334894e+00 -4.379746e+00 -2.632312e+00 -5.929196e+00 -3.103853e+00 -3.366533e+00 -3.585318e-01 -1.535524e+00 3.928105e+00 2.699094e-02 1.996710e+00 -1.988529e+00 -3.488978e+00 -2.594872e+00 -2.653180e+00 -1.931094e+00 -2.375604e+00 -1.152443e+00 -2.186605e+00 -7.605232e-01 1.286715e-02
<VARIANCE> 25
 4.175416e+01 2.177669e+01 3.500630e+01 3.886852e+01 3.518229e+01 4.614124e+01 2.939815e+01 2.736676e+01 2.499759e+01 2.582364e+01 2.347876e+01 1.899144e+01 2.395272e+00 4.248252e+00 3.960640e+00 4.837261e+00 4.168295e+00 3.378423e+00 3.749583e+00 4.523254e+00 3.477135e+00 3.644157e+00 3.968827e+00 3.465284e+00 4.900292e-03
<GCONST> 9.721863e+01
<MIXTURE> 86 1.273941e-02
<MEAN> 25
 -4.675426e+00 -1.220602e+00 -9.304910e-01 6.411428e+00 5.199449e+00 4.441483e+00 5.153031e+00 4.546161e+00 4.771294e+00 4.291041e+00 4.676091e+00 2.459344e+00 2.193007e-02 -4.000929e-02 -7.769021e-02 -5.350457e-02 -1.243525e-01 -2.177737e-01 -2.938085e-01 -2.950859e-01 -2.711195e-01 -3.674480e-01 -1.589884e-01 -1.287454e-01 -4.682251e-04
<VARIANCE> 25
 8.939499e+00 6.933427e+00 9.641415e+00 1.167601e+01 1.477171e+01 1.502102e+01 1.366392e+01 1.278864e+01 1.341254e+01 1.822255e+01 1.710405e+01 1.259527e+01 1.008654e-01 1.883094e-01 3.238708e-01 5.081007e-01 6.668603e-01 7.022038e-01 8.088571e-01 8.520887e-01 9.664737e-01 9.201732e-01 9.474111e-01 8.426833e-01 6.392267e-05
<GCONST> 5.933497e+01
<MIXTURE> 87 1.100681e-02
<MEAN> 25
 -3.241522e+00 4.559638e+00 3.049443e+00 6.733648e+00 5.501164e+00 9.803842e-01 1.849937e+00 -7.945210e-01 -2.541479e-01 -9.555842e-01 -8.170854e-01 -6.815668e-02 -2.143969e+00 -2.672151e+00 -1.824013e+00 -2.156525e+00 1.740005e-02 -1.643622e-01 5.960564e-01 1.266775e+00 1.382665e+00 1.018817e+00 8.253453e-01 9.500971e-01 1.002885e-01
<VARIANCE> 25
 3.921476e+01 2.760134e+01 2.974920e+01 3.265321e+01 2.798407e+01 3.044230e+01 2.752808e+01 2.905349e+01 2.619235e+01 2.408699e+01 2.360618e+01 2.187789e+01 3.698395e+00 2.715296e+00 4.627009e+00 3.597619e+00 4.614066e+00 4.055160e+00 4.104842e+00 3.802292e+00 3.342233e+00 3.455631e+00 3.372493e+00 2.598631e+00 4.819666e-03
<GCONST> 9.601662e+01
<MIXTURE> 88 1.256585e-02
<MEAN> 25
 -3.150535e+00 -3.488080e-01 -3.101977e+00 5.730683e+00 5.700573e+00 3.225924e+00 3.808810e+00 3.240152e+00 4.012316e+00 1.425822e+00 2.195526e+00 2.081427e+00 1.282846e-01 1.324774e-01 -1.599788e-01 3.743002e-01 2.433640e-01 2.955275e-01 -2.529210e-01 -2.183323e-01 -2.817461e-01 -5.175239e-01 -4.491117e-02 -2.747299e-03 -8.842976e-03
<VARIANCE> 25
 1.475221e+01 9.441155e+00 1.164748e+01 1.067246e+01 1.385440e+01 1.468160e+01 1.586045e+01 1.438254e+01 1.384727e+01 1.605563e+01 1.916359e+01 1.432368e+01 1.714980e+00 1.813722e+00 1.966548e+00 1.636058e+00 1.954150e+00 2.716821e+00 1.753755e+00 2.829787e+00 2.551555e+00 3.625924e+00 2.455988e+00 1.693059e+00 1.361219e-03
<GCONST> 8.009550e+01
<MIXTURE> 89 9.333527e-03
<MEAN> 25
 6.143729e+00 -6.268454e+00 -3.799451e+00 -3.125990e+00 -7.525074e-01 -5.576845e+00 -6.268554e+00 4.089201e+00 3.249164e+00 -2.355793e+00 -5.988885e+00 -2.688384e+00 -6.410276e-01 1.611981e-01 1.989463e+00 8.730856e-01 -1.836614e+00 -1.511063e+00 9.064545e-01 1.339445e+00 -5.918663e-01 -1.301732e+00 3.170102e-01 1.567810e+00 -5.967855e-03
<VARIANCE> 25
 8.575380e+00 2.933777e+01 3.025083e+01 2.810735e+01 4.474186e+01 3.927526e+01 5.587323e+01 3.934688e+01 3.726896e+01 4.206358e+01 3.334517e+01 3.464634e+01 4.252215e-01 7.917753e-01 1.374471e+00 1.264331e+00 1.833284e+00 2.214488e+00 2.421058e+00 1.971953e+00 2.761647e+00 2.032870e+00 2.310116e+00 1.448304e+00 3.683159e-04
<GCONST> 8.525144e+01
<MIXTURE> 90 7.114505e-03
<MEAN> 25
 2.451936e+00 -9.720620e+00 -4.752259e+00 -3.977327e+00 -3.384700e+00 -1.814110e+00 3.356861e+00 1.178513e+00 -7.531440e+00 -1.021177e+01 -3.430557e+00 -7.387602e-01 -1.629748e-01 9.090248e-01 1.167926e+00 -8.538321e-01 -1.612709e+00 -2.125326e-01 6.453197e-01 -2.084332e-01 -1.696647e-01 7.371354e-01 1.839459e-01 -5.501422e-01 -1.113383e-02
<VARIANCE> 25
 8.512296e+00 1.778805e+01 1.981762e+01 2.799911e+01 3.681627e+01 3.223693e+01 3.860143e+01 3.639061e+01 3.518699e+01 2.770974e+01 2.698469e+01 2.611665e+01 2.241608e-01 6.137089e-01 7.889490e-01 1.042710e+00 1.470473e+00 1.591338e+00 1.779561e+00 1.656461e+00 1.813099e+00 1.678279e+00 1.495740e+00 1.307583e+00 2.152255e-04
<GCONST> 7.814481e+01
<MIXTURE> 91 7.852945e-03
<MEAN> 25
 7.051997e+00 -6.953666e+00 -9.297075e+00 -4.316825e+00 4.027125e+00 1.676088e-02 -2.416716e+00 8.161823e-02 3.211583e-01 -2.047534e+00 -4.214782e+00 -4.605536e+00 3.110357e-01 1.104167e+00 2.450507e-01 5.719945e-01 -1.885774e-01 -6.031482e-01 -2.691677e-01 -1.590286e-01 -8.437508e-02 5.244426e-01 5.421122e-02 1.400458e-01 -3.584554e-02
<VARIANCE> 25
 1.182807e+01 2.391500e+01 2.319573e+01 4.028613e+01 3.168335e+01 4.902842e+01 4.808580e+01 3.757279e+01 4.731213e+01 6.183000e+01 3.683226e+01 3.847825e+01 4.384738e-01 8.805350e-01 1.199175e+00 1.401405e+00 2.021824e+00 2.168479e+00 2.216375e+00 2.209942e+00 2.064005e+00 2.041054e+00 2.121142e+00 1.651456e+00 5.568202e-04
<GCONST> 8.634972e+01
<MIXTURE> 92 7.852945e-03
<MEAN> 25
 7.051997e+00 -6.953666e+00 -9.297075e+00 -4.316825e+00 4.027125e+00 1.676088e-02 -2.416716e+00 8.161823e-02 3.211583e-01 -2.047534e+00 -4.214782e+00 -4.605536e+00 3.110357e-01 1.104167e+00 2.450507e-01 5.719945e-01 -1.885774e-01 -6.031482e-01 -2.691677e-01 -1.590286e-01 -8.437508e-02 5.244426e-01 5.421122e-02 1.400458e-01 -3.584554e-02
<VARIANCE> 25
 1.182807e+01 2.391500e+01 2.319573e+01 4.028613e+01 3.168335e+01 4.902842e+01 4.808580e+01 3.757279e+01 4.731213e+01 6.183000e+01 3.683226e+01 3.847825e+01 4.384738e-01 8.805350e-01 1.199175e+00 1.401405e+00 2.021824e+00 2.168479e+00 2.216375e+00 2.209942e+00 2.064005e+00 2.041054e+00 2.121142e+00 1.651456e+00 5.568202e-04
<GCONST> 8.634972e+01
<MIXTURE> 93 6.122769e-03
<MEAN> 25
 -6.792394e+00 -8.701749e-01 -2.452700e+00 5.818695e+00 5.955158e+00 3.901126e+00 6.048995e+00 3.508429e+00 3.992772e+00 2.402030e+00 1.772311e+00 3.577247e+00 -6.404303e-02 -1.615658e-01 -2.603408e-01 -3.468433e-01 -3.268305e-01 -3.068421e-01 -2.153190e-01 -1.581055e-01 -1.657524e-01 -1.569634e-01 -1.479128e-01 -4.006426e-02 2.791322e-05
<VARIANCE> 25
 9.481264e+00 6.287450e+00 8.121498e+00 1.119321e+01 1.140737e+01 1.569635e+01 1.507349e+01 1.686417e+01 1.568308e+01 1.455972e+01 1.663826e+01 1.368605e+01 8.116849e-02 1.595144e-01 2.641822e-01 3.852682e-01 4.894983e-01 6.459371e-01 8.523786e-01 8.823547e-01 9.140354e-01 8.849463e-01 9.379942e-01 9.135113e-01 1.024363e-06
<GCONST> 5.390323e+01
<MIXTURE> 94 6.122769e-03
<MEAN> 25
 -6.792394e+00 -8.701749e-01 -2.452700e+00 5.818695e+00 5.955158e+00 3.901126e+00 6.048995e+00 3.508429e+00 3.992772e+00 2.402030e+00 1.772311e+00 3.577247e+00 -6.404303e-02 -1.615658e-01 -2.603408e-01 -3.468433e-01 -3.268305e-01 -3.068421e-01 -2.153190e-01 -1.581055e-01 -1.657524e-01 -1.569634e-01 -1.479128e-01 -4.006426e-02 2.791322e-05
<VARIANCE> 25
 9.481264e+00 6.287450e+00 8.121498e+00 1.119321e+01 1.140737e+01 1.569635e+01 1.507349e+01 1.686417e+01 1.568308e+01 1.455972e+01 1.663826e+01 1.368605e+01 8.116849e-02 1.595144e-01 2.641822e-01 3.852682e-01 4.894983e-01 6.459371e-01 8.523786e-01 8.823547e-01 9.140354e-01 8.849463e-01 9.379942e-01 9.135113e-01 1.024363e-06
<GCONST> 5.390323e+01
<MIXTURE> 95 5.258835e-03
<MEAN> 25
 -6.042735e+00 -3.954335e-01 -2.530286e+00 5.033759e+00 3.686010e+00 2.683417e+00 3.678407e+00 1.598101e+00 2.960310e+00 1.086323e-01 1.470113e+00 1.864014e+00 1.103388e-01 1.935260e-03 2.489305e-02 -8.588897e-03 -2.259340e-01 -8.312879e-01 -1.143810e+00 -1.154562e+00 -1.520678e+00 -1.309837e+00 -9.069393e-01 -2.147763e-01 1.254767e-04
<VARIANCE> 25
 9.570254e+00 6.606921e+00 1.037214e+01 1.113465e+01 1.272661e+01 1.547098e+01 1.510236e+01 1.864835e+01 1.667679e+01 1.510647e+01 1.870725e+01 1.826822e+01 2.200575e-01 3.057126e-01 4.071382e-01 5.258104e-01 8.210053e-01 1.015765e+00 9.345629e-01 8.095587e-01 1.048193e+00 1.439982e+00 1.234959e+00 9.247167e-01 4.884168e-05
<GCONST> 6.304597e+01
<MIXTURE> 96 7.034694e-03
<MEAN> 25
 -4.709962e+00 -3.545844e-01 -2.328283e+00 5.378525e+00 4.053370e+00 1.767102e+00 3.397606e+00 1.945467e+00 2.519262e+00 7.849777e-01 9.618230e-01 2.580515e+00 -3.076868e-02 9.912273e-02 2.195770e-01 3.645344e-01 5.003194e-01 4.369755e-01 3.055564e-01 -1.328821e-01 -4.649678e-01 -5.676163e-01 -6.550365e-01 -4.194022e-01 -2.906996e-05
<VARIANCE> 25
 1.262394e+01 9.786401e+00 1.266035e+01 1.435641e+01 1.480369e+01 1.837748e+01 1.747421e+01 1.885614e+01 1.725736e+01 1.617545e+01 1.920162e+01 1.472154e+01 1.139422e-01 2.147367e-01 3.026170e-01 4.125756e-01 4.869621e-01 7.076417e-01 8.989785e-01 9.823620e-01 9.468551e-01 9.361654e-01 1.005109e+00 1.080774e+00 1.108011e-06
<GCONST> 5.791432e+01
<MIXTURE> 97 7.034694e-03
<MEAN> 25
 -4.709962e+00 -3.545844e-01 -2.328283e+00 5.378525e+00 4.053370e+00 1.767102e+00 3.397606e+00 1.945467e+00 2.519262e+00 7.849777e-01 9.618230e-01 2.580515e+00 -3.076868e-02 9.912273e-02 2.195770e-01 3.645344e-01 5.003194e-01 4.369755e-01 3.055564e-01 -1.328821e-01 -4.649678e-01 -5.676163e-01 -6.550365e-01 -4.194022e-01 -2.906996e-05
<VARIANCE> 25
 1.262394e+01 9.786401e+00 1.266035e+01 1.435641e+01 1.480369e+01 1.837748e+01 1.747421e+01 1.885614e+01 1.725736e+01 1.617545e+01 1.920162e+01 1.472154e+01 1.139422e-01 2.147367e-01 3.026170e-01 4.125756e-01 4.869621e-01 7.076417e-01 8.989785e-01 9.823620e-01 9.468551e-01 9.361654e-01 1.005109e+00 1.080774e+00 1.108011e-06
<GCONST> 5.791432e+01
<MIXTURE> 98 9.917808e-03
<MEAN> 25
 -8.416719e-01 1.487838e+00 -1.142167e+00 4.704711e+00 3.825121e+00 2.726523e+00 3.569692e+00 2.297910e+00 2.391080e+00 2.165245e-01 1.274434e-01 9.684507e-01 -1.849915e+00 -1.512843e+00 -6.282550e-01 4.191264e-01 7.091967e-01 9.489974e-01 1.179298e+00 1.046264e+00 1.437364e+00 1.134451e+00 1.057103e+00 7.417211e-01 -1.995878e-02
<VARIANCE> 25
 1.590893e+01 1.748076e+01 2.771345e+01 2.593895e+01 3.366068e+01 2.996621e+01 2.542887e+01 2.747656e+01 2.336560e+01 2.643566e+01 2.277808e+01 1.904924e+01 1.260346e+00 1.197398e+00 2.828550e+00 2.172129e+00 2.291034e+00 2.775134e+00 2.336869e+00 2.408077e+00 2.343112e+00 3.172010e+00 2.805128e+00 1.871651e+00 2.533966e-03
<GCONST> 8.760751e+01
<MIXTURE> 99 6.696178e-03
<MEAN> 25
 -6.563313e+00 9.639670e+00 6.380526e+00 3.458381e+00 1.071801e+00 -5.145290e+00 -1.640764e+00 -4.178360e+00 -3.431902e+00 -3.788676e+00 -1.414554e+00 3.774705e-01 4.842721e-01 -8.012992e-01 2.599165e-01 -4.231345e-01 -1.057389e+00 -5.152345e-01 -3.052046e-01 -2.013142e-01 -8.554650e-02 -6.086403e-02 2.371122e-01 2.058173e-01 1.186259e-02
<VARIANCE> 25
 3.743583e+01 2.604788e+01 4.835024e+01 3.032590e+01 3.630429e+01 3.440899e+01 2.670143e+01 2.863539e+01 2.688219e+01 2.819585e+01 2.062062e+01 2.782594e+01 2.192252e+00 1.893276e+00 1.460319e+00 1.679553e+00 2.717447e+00 2.068367e+00 1.600940e+00 1.849989e+00 1.541570e+00 1.614661e+00 1.367421e+00 1.253397e+00 1.533489e-03
<GCONST> 8.697561e+01
<MIXTURE> 100 4.498084e-03
<MEAN> 25
 -1.958544e+00 5.637332e+00 1.072109e+01 -7.543729e+00 -1.064987e+01 -5.186965e+00 -4.103333e+00 -9.286109e+00 -4.960662e+00 -9.586347e-01 -2.633247e+00 -2.782268e+00 2.915710e+00 -1.567937e+00 1.577003e+00 -2.103290e+00 -3.399385e+00 -9.555888e-01 -1.217032e+00 -5.495540e-01 -1.753819e+00 2.552918e-01 -1.692801e+00 -5.546062e-01 7.577116e-03
<VARIANCE> 25
 1.299410e+01 2.237771e+01 2.093033e+01 2.307058e+01 2.111434e+01 2.101176e+01 2.944459e+01 2.155262e+01 2.422108e+01 2.003466e+01 1.938041e+01 1.890646e+01 1.618056e+00 3.897634e+00 2.940674e+00 3.758112e+00 3.707941e+00 4.179381e+00 3.451615e+00 4.100778e+00 4.064866e+00 3.484381e+00 3.524240e+00 3.274464e+00 1.612316e-03
<GCONST> 9.073696e+01
<MIXTURE> 101 6.007792e-03
<MEAN> 25
 8.168406e+00 -3.638512e+00 -6.711941e+00 -6.632510e+00 1.198463e+00 -1.085751e+00 -1.040555e+01 -2.096309e+00 1.384260e+00 2.684797e+00 -2.436892e+00 -4.944677e+00 7.035594e-01 6.178229e-01 -1.463748e+00 -1.492806e+00 9.708092e-01 2.200817e+00 1.913377e-01 -1.431930e+00 -1.093427e+00 1.071800e+00 1.448909e+00 -4.401283e-01 -4.558238e-03
<VARIANCE> 25
 8.988503e+00 1.656417e+01 3.219631e+01 4.213916e+01 3.758004e+01 3.492237e+01 3.617649e+01 3.472705e+01 3.744828e+01 4.223313e+01 4.964297e+01 2.402518e+01 3.024376e-01 6.772181e-01 1.124745e+00 1.794417e+00 1.697008e+00 2.303786e+00 2.006286e+00 1.946319e+00 2.278101e+00 2.154890e+00 1.840026e+00 1.866028e+00 3.333107e-04
<GCONST> 8.358907e+01
<MIXTURE> 102 6.007792e-03
<MEAN> 25
 8.168406e+00 -3.638512e+00 -6.711941e+00 -6.632510e+00 1.198463e+00 -1.085751e+00 -1.040555e+01 -2.096309e+00 1.384260e+00 2.684797e+00 -2.436892e+00 -4.944677e+00 7.035594e-01 6.178229e-01 -1.463748e+00 -1.492806e+00 9.708092e-01 2.200817e+00 1.913377e-01 -1.431930e+00 -1.093427e+00 1.071800e+00 1.448909e+00 -4.401283e-01 -4.558238e-03
<VARIANCE> 25
 8.988503e+00 1.656417e+01 3.219631e+01 4.213916e+01 3.758004e+01 3.492237e+01 3.617649e+01 3.472705e+01 3.744828e+01 4.223313e+01 4.964297e+01 2.402518e+01 3.024376e-01 6.772181e-01 1.124745e+00 1.794417e+00 1.697008e+00 2.303786e+00 2.006286e+00 1.946319e+00 2.278101e+00 2.154890e+00 1.840026e+00 1.866028e+00 3.333107e-04
<GCONST> 8.358907e+01
<MIXTURE> 103 5.694618e-03
<MEAN> 25
 3.365682e+00 -9.466096e+00 -6.133836e+00 -3.077281e+00 -1.324086e+00 -1.964196e+00 2.437127e+00 2.508484e+00 -4.608833e+00 -9.250585e+00 -5.060203e+00 3.610184e-01 -1.583229e-01 -1.488864e+00 -9.770727e-01 3.775832e-01 1.213236e+00 1.020098e+00 1.597876e-01 -2.666413e-01 -7.785072e-01 -9.398149e-01 -3.570401e-02 1.217656e-01 2.694705e-02
<VARIANCE> 25
 1.032633e+01 2.042897e+01 2.288092e+01 3.174455e+01 4.803241e+01 3.500354e+01 4.634776e+01 3.667532e+01 4.206828e+01 2.931633e+01 3.001967e+01 2.636575e+01 6.434026e-01 1.250076e+00 1.545121e+00 1.940254e+00 2.923162e+00 2.407085e+00 2.886931e+00 2.573751e+00 2.564846e+00 2.548773e+00 2.095058e+00 2.015275e+00 8.062328e-04
<GCONST> 8.757505e+01
<MIXTURE> 104 5.694618e-03
<MEAN> 25
 3.365682e+00 -9.466096e+00 -6.133836e+00 -3.077281e+00 -1.324086e+00 -1.964196e+00 2.437127e+00 2.508484e+00 -4.608833e+00 -9.250585e+00 -5.060203e+00 3.610184e-01 -1.583229e-01 -1.488864e+00 -9.770727e-01 3.775832e-01 1.213236e+00 1.020098e+00 1.597876e-01 -2.666413e-01 -7.785072e-01 -9.398149e-01 -3.570401e-02 1.217656e-01 2.694705e-02
<VARIANCE> 25
 1.032633e+01 2.042897e+01 2.288092e+01 3.174455e+01 4.803241e+01 3.500354e+01 4.634776e+01 3.667532e+01 4.206828e+01 2.931633e+01 3.001967e+01 2.636575e+01 6.434026e-01 1.250076e+00 1.545121e+00 1.940254e+00 2.923162e+00 2.407085e+00 2.886931e+00 2.573751e+00 2.564846e+00 2.548773e+00 2.095058e+00 2.015275e+00 8.062328e-04
<GCONST> 8.757505e+01
<MIXTURE> 105 4.710235e-03
<MEAN> 25
 2.194122e+00 -1.628749e+00 9.456669e+00 -2.882803e+00 -1.157391e+01 -5.056897e+00 -4.130481e+00 -8.456491e-01 -3.961790e+00 -3.029111e+00 1.431240e+00 -1.153315e+00 2.492995e-02 1.723947e-02 5.569595e-02 -4.424294e-02 8.575071e-03 3.225194e-02 -1.585654e-03 5.533757e-02 -2.655682e-02 3.011679e-02 2.288213e-02 -8.410326e-03 -2.631068e-03
<VARIANCE> 25
 1.311112e+01 2.878376e+01 4.195594e+01 4.548960e+01 3.705063e+01 5.264828e+01 4.041018e+01 4.269567e+01 3.976355e+01 4.247580e+01 4.139105e+01 3.014796e+01 9.303840e-02 1.902624e-01 3.377755e-01 2.853045e-01 3.667639e-01 4.305259e-01 4.660514e-01 4.821167e-01 4.888783e-01 4.349631e-01 4.158037e-01 4.086027e-01 9.704659e-05
<GCONST> 6.675098e+01
<MIXTURE> 106 4.710235e-03
<MEAN> 25
 2.194122e+00 -1.628749e+00 9.456669e+00 -2.882803e+00 -1.157391e+01 -5.056897e+00 -4.130481e+00 -8.456491e-01 -3.961790e+00 -3.029111e+00 1.431240e+00 -1.153315e+00 2.492995e-02 1.723947e-02 5.569595e-02 -4.424294e-02 8.575071e-03 3.225194e-02 -1.585654e-03 5.533757e-02 -2.655682e-02 3.011679e-02 2.288213e-02 -8.410326e-03 -2.631068e-03
<VARIANCE> 25
 1.311112e+01 2.878376e+01 4.195594e+01 4.548960e+01 3.705063e+01 5.264828e+01 4.041018e+01 4.269567e+01 3.976355e+01 4.247580e+01 4.139105e+01 3.014796e+01 9.303840e-02 1.902624e-01 3.377755e-01 2.853045e-01 3.667639e-01 4.305259e-01 4.660514e-01 4.821167e-01 4.888783e-01 4.349631e-01 4.158037e-01 4.086027e-01 9.704659e-05
<GCONST> 6.675098e+01
<MIXTURE> 107 5.452374e-03
<MEAN> 25
 8.712543e+00 -1.962783e+00 -7.969009e+00 -8.888412e+00 2.220153e+00 2.637732e+00 -8.323406e+00 -4.376431e+00 -9.954972e-01 3.502217e+00 7.992944e-01 -4.749574e+00 -6.664625e-01 -7.337312e-01 8.590266e-01 1.601334e+00 3.017297e-01 -1.899636e+00 -8.958661e-01 9.099233e-01 1.712889e+00 -1.496681e-02 -1.687509e+00 -6.308875e-01 -2.029280e-03
<VARIANCE> 25
 8.912715e+00 2.074661e+01 2.777826e+01 4.612556e+01 3.785833e+01 3.794735e+01 4.930510e+01 3.506459e+01 4.313732e+01 3.959578e+01 4.859031e+01 3.147008e+01 3.843364e-01 9.276009e-01 1.373469e+00 2.840326e+00 2.248789e+00 2.805162e+00 2.465554e+00 2.566487e+00 2.278610e+00 2.891256e+00 1.902332e+00 2.650156e+00 6.626808e-04
<GCONST> 8.802367e+01
<MIXTURE> 108 5.452374e-03
<MEAN> 25
 8.712543e+00 -1.962783e+00 -7.969009e+00 -8.888412e+00 2.220153e+00 2.637732e+00 -8.323406e+00 -4.376431e+00 -9.954972e-01 3.502217e+00 7.992944e-01 -4.749574e+00 -6.664625e-01 -7.337312e-01 8.590266e-01 1.601334e+00 3.017297e-01 -1.899636e+00 -8.958661e-01 9.099233e-01 1.712889e+00 -1.496681e-02 -1.687509e+00 -6.308875e-01 -2.029280e-03
<VARIANCE> 25
 8.912715e+00 2.074661e+01 2.777826e+01 4.612556e+01 3.785833e+01 3.794735e+01 4.930510e+01 3.506459e+01 4.313732e+01 3.959578e+01 4.859031e+01 3.147008e+01 3.843364e-01 9.276009e-01 1.373469e+00 2.840326e+00 2.248789e+00 2.805162e+00 2.465554e+00 2.566487e+00 2.278610e+00 2.891256e+00 1.902332e+00 2.650156e+00 6.626808e-04
<GCONST> 8.802367e+01
<MIXTURE> 109 6.661064e-03
<MEAN> 25
 4.087445e+00 -1.052272e+01 -8.302594e+00 -1.355084e+00 2.747057e+00 -3.797812e-02 -7.007296e-02 1.453530e+00 -2.567209e+00 -8.354766e+00 -5.376514e+00 5.918726e-02 -3.352167e-02 -1.304311e-01 -3.335879e-02 2.502398e-01 1.969719e-01 1.172623e-01 -1.242836e-01 -1.044178e-01 -4.111704e-02 -1.323694e-01 2.188213e-01 1.158759e-02 -3.535023e-03
<VARIANCE> 25
 9.111273e+00 1.853248e+01 1.995779e+01 3.138566e+01 4.074917e+01 3.673066e+01 4.657978e+01 3.434909e+01 4.603613e+01 3.534480e+01 2.953403e+01 2.811531e+01 1.926970e-01 4.234974e-01 5.382410e-01 6.400906e-01 1.230159e+00 9.941756e-01 1.255686e+00 1.091469e+00 1.115550e+00 9.548517e-01 8.769774e-01 8.836258e-01 1.817750e-04
<GCONST> 7.446165e+01
<MIXTURE> 110 6.661064e-03
<MEAN> 25
 4.087445e+00 -1.052272e+01 -8.302594e+00 -1.355084e+00 2.747057e+00 -3.797812e-02 -7.007296e-02 1.453530e+00 -2.567209e+00 -8.354766e+00 -5.376514e+00 5.918726e-02 -3.352167e-02 -1.304311e-01 -3.335879e-02 2.502398e-01 1.969719e-01 1.172623e-01 -1.242836e-01 -1.044178e-01 -4.111704e-02 -1.323694e-01 2.188213e-01 1.158759e-02 -3.535023e-03
<VARIANCE> 25
 9.111273e+00 1.853248e+01 1.995779e+01 3.138566e+01 4.074917e+01 3.673066e+01 4.657978e+01 3.434909e+01 4.603613e+01 3.534480e+01 2.953403e+01 2.811531e+01 1.926970e-01 4.234974e-01 5.382410e-01 6.400906e-01 1.230159e+00 9.941756e-01 1.255686e+00 1.091469e+00 1.115550e+00 9.548517e-01 8.769774e-01 8.836258e-01 1.817750e-04
<GCONST> 7.446165e+01
<MIXTURE> 111 4.337247e-03
<MEAN> 25
 -4.465165e+00 -9.024324e-01 -1.727581e+00 1.702735e+00 9.779800e-01 9.661869e-01 3.202002e-01 2.165326e-01 9.634947e-02 -5.437984e-01 -6.321250e-01 1.956776e+00 -2.128399e-02 -3.245500e-02 -7.165153e-02 -7.422716e-02 -3.723616e-02 4.778116e-03 9.961687e-04 -5.994329e-02 -1.417818e-01 -2.019028e-01 -1.925849e-01 -1.073299e-01 -2.105460e-04
<VARIANCE> 25
 7.047559e+00 5.003230e+00 1.021797e+01 9.486529e+00 1.316291e+01 2.379464e+01 1.465740e+01 1.317438e+01 1.163497e+01 1.189486e+01 1.361285e+01 1.159847e+01 7.907765e-02 1.637627e-01 2.754363e-01 4.209217e-01 5.685174e-01 7.057312e-01 8.043411e-01 8.589654e-01 8.941284e-01 8.560433e-01 8.662274e-01 8.501686e-01 2.229782e-05
<GCONST> 5.601715e+01
<MIXTURE> 112 4.337247e-03
<MEAN> 25
 -4.465165e+00 -9.024324e-01 -1.727581e+00 1.702735e+00 9.779800e-01 9.661869e-01 3.202002e-01 2.165326e-01 9.634947e-02 -5.437984e-01 -6.321250e-01 1.956776e+00 -2.128399e-02 -3.245500e-02 -7.165153e-02 -7.422716e-02 -3.723616e-02 4.778116e-03 9.961687e-04 -5.994329e-02 -1.417818e-01 -2.019028e-01 -1.925849e-01 -1.073299e-01 -2.105460e-04
<VARIANCE> 25
 7.047559e+00 5.003230e+00 1.021797e+01 9.486529e+00 1.316291e+01 2.379464e+01 1.465740e+01 1.317438e+01 1.163497e+01 1.189486e+01 1.361285e+01 1.159847e+01 7.907765e-02 1.637627e-01 2.754363e-01 4.209217e-01 5.685174e-01 7.057312e-01 8.043411e-01 8.589654e-01 8.941284e-01 8.560433e-01 8.662274e-01 8.501686e-01 2.229782e-05
<GCONST> 5.601715e+01
<MIXTURE> 113 5.938666e-03
<MEAN> 25
 1.000927e+01 1.701392e+00 -8.886814e+00 -1.626939e+01 -1.044131e+00 5.480425e+00 -4.839021e+00 -1.068966e+00 -5.579819e+00 -4.947501e-01 4.548786e-01 -3.616678e-01 -7.972665e-03 8.183784e-02 -9.105262e-02 -1.852471e-01 2.415908e-02 1.239732e-01 6.401365e-02 2.266316e-02 -1.021887e-01 -1.066482e-01 1.277039e-01 4.417811e-02 -2.077203e-03
<VARIANCE> 25
 8.169932e+00 1.574711e+01 2.807090e+01 3.829450e+01 4.838738e+01 3.162820e+01 3.935817e+01 4.014773e+01 3.446382e+01 4.300925e+01 3.401372e+01 2.639236e+01 1.170568e-01 3.411465e-01 3.150964e-01 6.475507e-01 6.292129e-01 6.199418e-01 7.194269e-01 8.611919e-01 9.416305e-01 8.960589e-01 7.250963e-01 6.675770e-01 1.215706e-04
<GCONST> 7.044322e+01
<MIXTURE> 114 5.938666e-03
<MEAN> 25
 1.000927e+01 1.701392e+00 -8.886814e+00 -1.626939e+01 -1.044131e+00 5.480425e+00 -4.839021e+00 -1.068966e+00 -5.579819e+00 -4.947501e-01 4.548786e-01 -3.616678e-01 -7.972665e-03 8.183784e-02 -9.105262e-02 -1.852471e-01 2.415908e-02 1.239732e-01 6.401365e-02 2.266316e-02 -1.021887e-01 -1.066482e-01 1.277039e-01 4.417811e-02 -2.077203e-03
<VARIANCE> 25
 8.169932e+00 1.574711e+01 2.807090e+01 3.829450e+01 4.838738e+01 3.162820e+01 3.935817e+01 4.014773e+01 3.446382e+01 4.300925e+01 3.401372e+01 2.639236e+01 1.170568e-01 3.411465e-01 3.150964e-01 6.475507e-01 6.292129e-01 6.199418e-01 7.194269e-01 8.611919e-01 9.416305e-01 8.960589e-01 7.250963e-01 6.675770e-01 1.215706e-04
<GCONST> 7.044322e+01
<MIXTURE> 115 2.935202e-03
<MEAN> 25
 -4.165352e+00 -6.202160e-01 -3.179042e+00 3.744121e+00 2.589416e+00 -2.074378e-01 2.304574e+00 3.864478e-01 1.403037e+00 -9.831301e-02 7.787148e-02 2.450180e+00 2.057471e-02 -1.017093e-01 -2.357781e-01 -4.405001e-01 -6.097495e-01 -7.046704e-01 -6.057294e-01 -4.787747e-01 -5.123634e-01 -4.951670e-01 -3.976977e-01 -1.607589e-01 6.206200e-05
<VARIANCE> 25
 9.981653e+00 1.006839e+01 1.299362e+01 1.248668e+01 1.397696e+01 1.754148e+01 1.627393e+01 2.054130e+01 1.939051e+01 1.639880e+01 1.845794e+01 1.483460e+01 1.957710e-01 3.504391e-01 4.763064e-01 5.633991e-01 6.210648e-01 7.860414e-01 1.052570e+00 1.118495e+00 1.108920e+00 1.044253e+00 1.042809e+00 1.040815e+00 1.050779e-06
<GCONST> 6.024856e+01
<MIXTURE> 116 2.935202e-03
<MEAN> 25
 -4.165352e+00 -6.202160e-01 -3.179042e+00 3.744121e+00 2.589416e+00 -2.074378e-01 2.304574e+00 3.864478e-01 1.403037e+00 -9.831301e-02 7.787148e-02 2.450180e+00 2.057471e-02 -1.017093e-01 -2.357781e-01 -4.405001e-01 -6.097495e-01 -7.046704e-01 -6.057294e-01 -4.787747e-01 -5.123634e-01 -4.951670e-01 -3.976977e-01 -1.607589e-01 6.206200e-05
<VARIANCE> 25
 9.981653e+00 1.006839e+01 1.299362e+01 1.248668e+01 1.397696e+01 1.754148e+01 1.627393e+01 2.054130e+01 1.939051e+01 1.639880e+01 1.845794e+01 1.483460e+01 1.957710e-01 3.504391e-01 4.763064e-01 5.633991e-01 6.210648e-01 7.860414e-01 1.052570e+00 1.118495e+00 1.108920e+00 1.044253e+00 1.042809e+00 1.040815e+00 1.050779e-06
<GCONST> 6.024856e+01
<MIXTURE> 117 6.506003e-03
<MEAN> 25
 -4.643759e+00 1.119495e+00 1.048045e+00 9.754114e+00 6.261331e+00 6.251601e+00 6.456991e+00 5.039275e+00 6.377106e+00 4.918999e+00 6.357625e+00 2.704085e+00 -7.506951e-02 -2.342369e-01 -3.581538e-01 -4.202312e-01 -3.671428e-01 -3.039852e-01 -2.870689e-01 -3.304125e-01 -3.916645e-01 -3.688462e-01 -2.653923e-01 -1.171344e-01 -8.633215e-06
<VARIANCE> 25
 7.220793e+00 8.746592e+00 9.827192e+00 1.431117e+01 1.560820e+01 1.534703e+01 1.772820e+01 1.798532e+01 1.646861e+01 1.641687e+01 1.678474e+01 1.475409e+01 2.163172e-01 3.075599e-01 4.259126e-01 6.167970e-01 8.526967e-01 1.055024e+00 1.179831e+00 1.232049e+00 1.223631e+00 1.196064e+00 1.169318e+00 1.115487e+00 1.001716e-06
<GCONST> 6.044814e+01
<MIXTURE> 118 6.506003e-03
<MEAN> 25
 -4.643759e+00 1.119495e+00 1.048045e+00 9.754114e+00 6.261331e+00 6.251601e+00 6.456991e+00 5.039275e+00 6.377106e+00 4.918999e+00 6.357625e+00 2.704085e+00 -7.506951e-02 -2.342369e-01 -3.581538e-01 -4.202312e-01 -3.671428e-01 -3.039852e-01 -2.870689e-01 -3.304125e-01 -3.916645e-01 -3.688462e-01 -2.653923e-01 -1.171344e-01 -8.633215e-06
<VARIANCE> 25
 7.220793e+00 8.746592e+00 9.827192e+00 1.431117e+01 1.560820e+01 1.534703e+01 1.772820e+01 1.798532e+01 1.646861e+01 1.641687e+01 1.678474e+01 1.475409e+01 2.163172e-01 3.075599e-01 4.259126e-01 6.167970e-01 8.526967e-01 1.055024e+00 1.179831e+00 1.232049e+00 1.223631e+00 1.196064e+00 1.169318e+00 1.115487e+00 1.001716e-06
<GCONST> 6.044814e+01
<MIXTURE> 119 4.297961e-03
<MEAN> 25
 -5.023943e+00 -7.550601e+00 2.198783e+00 2.056304e+00 2.356526e+00 1.370127e-01 5.287238e+00 5.951408e+00 1.269594e+00 1.241858e+00 6.392648e+00 1.554083e+00 -4.514364e-02 -8.203290e-02 2.924703e-02 -5.391301e-02 -1.285580e-01 -1.719069e-01 -1.007570e-01 -2.837072e-02 -8.325043e-02 -1.192423e-01 -2.508247e-02 -6.800154e-02 8.128073e-04
<VARIANCE> 25
 8.553290e+00 1.002066e+01 1.631052e+01 1.988782e+01 2.303637e+01 2.313787e+01 2.461469e+01 2.646490e+01 2.537008e+01 3.125600e+01 2.230184e+01 2.005618e+01 1.590395e-01 2.825873e-01 4.567794e-01 6.228809e-01 7.929027e-01 9.931452e-01 1.147434e+00 1.296288e+00 1.270447e+00 1.230516e+00 1.223228e+00 1.108527e+00 2.326906e-04
<GCONST> 6.990082e+01
<MIXTURE> 120 4.297961e-03
<MEAN> 25
 -5.023943e+00 -7.550601e+00 2.198783e+00 2.056304e+00 2.356526e+00 1.370127e-01 5.287238e+00 5.951408e+00 1.269594e+00 1.241858e+00 6.392648e+00 1.554083e+00 -4.514364e-02 -8.203290e-02 2.924703e-02 -5.391301e-02 -1.285580e-01 -1.719069e-01 -1.007570e-01 -2.837072e-02 -8.325043e-02 -1.192423e-01 -2.508247e-02 -6.800154e-02 8.128073e-04
<VARIANCE> 25
 8.553290e+00 1.002066e+01 1.631052e+01 1.988782e+01 2.303637e+01 2.313787e+01 2.461469e+01 2.646490e+01 2.537008e+01 3.125600e+01 2.230184e+01 2.005618e+01 1.590395e-01 2.825873e-01 4.567794e-01 6.228809e-01 7.929027e-01 9.931452e-01 1.147434e+00 1.296288e+00 1.270447e+00 1.230516e+00 1.223228e+00 1.108527e+00 2.326906e-04
<GCONST> 6.990082e+01
<MIXTURE> 121 4.567511e-03
<MEAN> 25
 1.958837e-01 -2.637870e+00 5.548359e+00 -1.286668e+01 -1.258258e+01 -1.793617e+00 9.229656e-01 -5.051994e+00 -4.417381e+00 -3.665996e-01 -5.419919e+00 -4.246770e+00 4.715218e-02 9.663199e-02 -2.502319e-02 6.948315e-02 1.591301e-01 5.536884e-02 -7.310475e-02 -1.757850e-01 -2.682943e-01 -2.347864e-01 -1.189950e-01 4.314036e-02 -7.459634e-03
<VARIANCE> 25
 7.567636e+00 1.556652e+01 2.162549e+01 1.991558e+01 2.398658e+01 2.905016e+01 2.888177e+01 2.395524e+01 3.567220e+01 2.803587e+01 1.946225e+01 2.076771e+01 1.672514e-01 6.697406e-01 6.267726e-01 6.934737e-01 7.519061e-01 1.131154e+00 1.089515e+00 1.092912e+00 1.193847e+00 1.193567e+00 9.211083e-01 9.058613e-01 2.101127e-04
<GCONST> 7.147250e+01
<MIXTURE> 122 4.567511e-03
<MEAN> 25
 1.958837e-01 -2.637870e+00 5.548359e+00 -1.286668e+01 -1.258258e+01 -1.793617e+00 9.229656e-01 -5.051994e+00 -4.417381e+00 -3.665996e-01 -5.419919e+00 -4.246770e+00 4.715218e-02 9.663199e-02 -2.502319e-02 6.948315e-02 1.591301e-01 5.536884e-02 -7.310475e-02 -1.757850e-01 -2.682943e-01 -2.347864e-01 -1.189950e-01 4.314036e-02 -7.459634e-03
<VARIANCE> 25
 7.567636e+00 1.556652e+01 2.162549e+01 1.991558e+01 2.398658e+01 2.905016e+01 2.888177e+01 2.395524e+01 3.567220e+01 2.803587e+01 1.946225e+01 2.076771e+01 1.672514e-01 6.697406e-01 6.267726e-01 6.934737e-01 7.519061e-01 1.131154e+00 1.089515e+00 1.092912e+00 1.193847e+00 1.193567e+00 9.211083e-01 9.058613e-01 2.101127e-04
<GCONST> 7.147250e+01
<MIXTURE> 123 4.393044e-03
<MEAN> 25
 -4.198088e+00 8.746938e-01 1.034319e-02 6.090944e+00 5.448890e+00 3.372981e+00 3.398805e+00 6.363891e-01 4.269421e-01 -2.753181e-01 -1.446687e-01 6.783648e-01 -4.688350e-01 -7.418833e-01 -8.672787e-01 -6.596431e-01 -2.828050e-01 1.496678e-02 3.878914e-01 6.396249e-01 7.834073e-01 7.274853e-01 6.634631e-01 5.088285e-01 -3.047745e-03
<VARIANCE> 25
 1.132837e+01 1.003668e+01 1.504848e+01 1.651855e+01 2.116304e+01 2.651334e+01 2.164787e+01 2.099541e+01 1.964019e+01 1.980599e+01 2.233817e+01 1.929336e+01 3.682649e-01 4.069215e-01 4.978531e-01 7.095208e-01 1.018850e+00 1.129441e+00 1.219551e+00 1.189304e+00 1.137289e+00 1.179590e+00 1.235134e+00 1.183576e+00 1.081044e-04
<GCONST> 6.978967e+01
<MIXTURE> 124 4.069876e-03
<MEAN> 25
 -6.379246e+00 -1.166718e+00 -2.984787e+00 5.217170e+00 5.072671e+00 3.340402e+00 5.302601e+00 2.607897e+00 3.200990e+00 1.291283e+00 1.000691e+00 2.933760e+00 -2.020757e-01 -3.081836e-01 -3.555702e-01 -2.376295e-01 1.103194e-01 4.826964e-01 8.345296e-01 8.593007e-01 6.575590e-01 3.258504e-01 2.560495e-02 -4.908413e-02 9.582473e-05
<VARIANCE> 25
 1.173529e+01 7.063255e+00 1.104848e+01 1.241448e+01 1.202690e+01 1.947355e+01 1.533058e+01 1.666086e+01 1.505982e+01 1.636518e+01 1.911387e+01 1.434823e+01 1.049221e-01 1.728709e-01 2.676684e-01 4.187864e-01 5.854999e-01 7.247716e-01 8.059679e-01 7.939462e-01 8.916738e-01 9.823672e-01 1.078774e+00 9.888903e-01 1.760939e-05
<GCONST> 5.888929e+01
<MIXTURE> 125 4.069876e-03
<MEAN> 25
 -6.379246e+00 -1.166718e+00 -2.984787e+00 5.217170e+00 5.072671e+00 3.340402e+00 5.302601e+00 2.607897e+00 3.200990e+00 1.291283e+00 1.000691e+00 2.933760e+00 -2.020757e-01 -3.081836e-01 -3.555702e-01 -2.376295e-01 1.103194e-01 4.826964e-01 8.345296e-01 8.593007e-01 6.575590e-01 3.258504e-01 2.560495e-02 -4.908413e-02 9.582473e-05
<VARIANCE> 25
 1.173529e+01 7.063255e+00 1.104848e+01 1.241448e+01 1.202690e+01 1.947355e+01 1.533058e+01 1.666086e+01 1.505982e+01 1.636518e+01 1.911387e+01 1.434823e+01 1.049221e-01 1.728709e-01 2.676684e-01 4.187864e-01 5.854999e-01 7.247716e-01 8.059679e-01 7.939462e-01 8.916738e-01 9.823672e-01 1.078774e+00 9.888903e-01 1.760939e-05
<GCONST> 5.888929e+01
<MIXTURE> 126 2.402244e-03
<MEAN> 25
 -3.625293e+00 -6.737532e+00 -5.221172e+00 2.548347e+00 4.375081e+00 -3.051866e+00 1.248100e-01 3.657678e+00 3.746072e+00 -2.436180e+00 -1.387752e+00 2.827214e+00 3.765010e-03 -6.585711e-03 -4.763488e-02 -1.522806e-01 -3.337852e-01 -4.181331e-01 -2.299723e-01 -1.698055e-01 -1.067396e-01 -2.045532e-01 -1.088656e-01 -4.030875e-02 -2.247661e-03
<VARIANCE> 25
 7.892847e+00 1.279857e+01 1.341974e+01 1.537328e+01 2.363493e+01 2.325236e+01 2.203029e+01 2.774428e+01 3.390516e+01 2.734770e+01 2.096979e+01 1.928511e+01 1.647272e-01 3.393807e-01 4.747004e-01 5.469080e-01 7.344305e-01 9.740345e-01 1.133258e+00 1.234037e+00 1.297055e+00 1.462856e+00 1.183978e+00 1.110322e+00 2.150993e-04
<GCONST> 6.968814e+01
<MIXTURE> 127 2.402244e-03
<MEAN> 25
 -3.625293e+00 -6.737532e+00 -5.221172e+00 2.548347e+00 4.375081e+00 -3.051866e+00 1.248100e-01 3.657678e+00 3.746072e+00 -2.436180e+00 -1.387752e+00 2.827214e+00 3.765010e-03 -6.585711e-03 -4.763488e-02 -1.522806e-01 -3.337852e-01 -4.181331e-01 -2.299723e-01 -1.698055e-01 -1.067396e-01 -2.045532e-01 -1.088656e-01 -4.030875e-02 -2.247661e-03
<VARIANCE> 25
 7.892847e+00 1.279857e+01 1.341974e+01 1.537328e+01 2.363493e+01 2.325236e+01 2.203029e+01 2.774428e+01 3.390516e+01 2.734770e+01 2.096979e+01 1.928511e+01 1.647272e-01 3.393807e-01 4.747004e-01 5.469080e-01 7.344305e-01 9.740345e-01 1.133258e+00 1.234037e+00 1.297055e+00 1.462856e+00 1.183978e+00 1.110322e+00 2.150993e-04
<GCONST> 6.968814e+01
<MIXTURE> 128 3.790457e-03
<MEAN> 25
 -3.998621e+00 1.615044e+00 -3.458104e-01 6.515633e+00 3.574100e+00 1.768301e+00 3.569547e+00 2.296269e+00 3.942962e+00 3.633535e+00 3.910911e+00 3.459107e+00 -4.024648e-01 -2.055569e-01 4.754401e-02 7.431867e-01 1.219232e+00 1.163063e+00 6.900911e-01 1.366842e-01 -4.366820e-01 -7.608344e-01 -6.919144e-01 -3.766617e-01 -7.872698e-05
<VARIANCE> 25
 1.044368e+01 1.187694e+01 1.476931e+01 1.924197e+01 1.994142e+01 2.131943e+01 2.392320e+01 2.467888e+01 2.598961e+01 2.373542e+01 2.786561e+01 1.819393e+01 8.874923e-01 1.134117e+00 1.516926e+00 1.503176e+00 1.646030e+00 1.911728e+00 2.265287e+00 2.289534e+00 2.112272e+00 1.869823e+00 1.741219e+00 1.750336e+00 1.095237e-06
<GCONST> 7.389018e+01
<TRANSP> 3
 0.000000e+00 1.000000e+00 0.000000e+00
 0.000000e+00 9.999990e-01 9.999998e-07
 0.000000e+00 0.000000e+00 0.000000e+00
<ENDHMM>
