~o
<STREAMINFO> 1 25
<VECSIZE> 25<NULLD><MFCC_E_D_N><DIAGC>
~h "jmodel"
<BEGINHMM>
<NUMSTATES> 3
<STATE> 2
<NUMMIXES> 128
<MIXTURE> 1 5.748963e-03
<MEAN> 25
 -2.584056e+00 3.181385e+00 2.312246e+00 8.755017e+00 4.371945e+00 3.449213e+00 4.062478e+00 3.935633e+00 5.831941e+00 5.253347e+00 5.885036e+00 3.080270e+00 -2.004678e+00 -1.634826e+00 -8.641856e-01 1.076225e+00 1.560873e+00 2.232594e+00 2.154635e+00 2.085062e+00 1.693545e+00 1.269676e+00 1.567481e+00 6.133394e-01 -4.692495e-02
<VARIANCE> 25
 1.006322e+01 1.176046e+01 1.494466e+01 1.868317e+01 2.319138e+01 2.215132e+01 2.189621e+01 2.197563e+01 2.099956e+01 2.253586e+01 2.094497e+01 1.708215e+01 1.788924e+00 2.111726e+00 3.026350e+00 3.209783e+00 3.739418e+00 3.356587e+00 3.318678e+00 3.380245e+00 3.521580e+00 3.726996e+00 3.513753e+00 2.834196e+00 3.121705e-03
<GCONST> 8.846364e+01
<MIXTURE> 2 4.549242e-03
<MEAN> 25
 -4.875557e+00 1.311688e+00 9.943279e-01 9.899381e+00 6.692151e+00 7.424429e+00 7.846884e+00 6.957975e+00 8.373154e+00 6.372733e+00 7.624125e+00 3.074520e+00 -6.200975e-02 4.160362e-02 1.425151e-01 2.258407e-01 2.653517e-01 2.814512e-01 2.954276e-01 3.195145e-01 3.497519e-01 3.089374e-01 1.972129e-01 8.008333e-02 1.225446e-06
<VARIANCE> 25
 6.952497e+00 8.901652e+00 1.065086e+01 1.591483e+01 1.723549e+01 1.556375e+01 1.689940e+01 1.848521e+01 1.658640e+01 1.738751e+01 1.811144e+01 1.434026e+01 1.252490e-01 2.266255e-01 3.364646e-01 4.671158e-01 6.493480e-01 8.150832e-01 9.298410e-01 1.003178e+00 1.051623e+00 1.077747e+00 1.075695e+00 1.013925e+00 9.999879e-07
<GCONST> 5.804359e+01
<MIXTURE> 3 4.549242e-03
<MEAN> 25
 -4.875557e+00 1.311688e+00 9.943279e-01 9.899381e+00 6.692151e+00 7.424429e+00 7.846884e+00 6.957975e+00 8.373154e+00 6.372733e+00 7.624125e+00 3.074520e+00 -6.200975e-02 4.160362e-02 1.425151e-01 2.258407e-01 2.653517e-01 2.814512e-01 2.954276e-01 3.195145e-01 3.497519e-01 3.089374e-01 1.972129e-01 8.008333e-02 1.225446e-06
<VARIANCE> 25
 6.952497e+00 8.901652e+00 1.065086e+01 1.591483e+01 1.723549e+01 1.556375e+01 1.689940e+01 1.848521e+01 1.658640e+01 1.738751e+01 1.811144e+01 1.434026e+01 1.252490e-01 2.266255e-01 3.364646e-01 4.671158e-01 6.493480e-01 8.150832e-01 9.298410e-01 1.003178e+00 1.051623e+00 1.077747e+00 1.075695e+00 1.013925e+00 9.999879e-07
<GCONST> 5.804359e+01
<MIXTURE> 4 1.671429e-02
<MEAN> 25
 3.441462e+00 2.551228e+00 -3.801020e+00 9.388312e-01 4.324465e+00 -2.122598e-01 7.343432e-02 9.842895e-03 1.506810e+00 1.302276e+00 -1.888518e+00 1.041229e-01 -2.772122e+00 1.218126e+00 1.778208e+00 3.092453e+00 9.219241e-01 5.017418e-01 1.518294e+00 1.044331e+00 9.764913e-01 4.319400e-01 1.241589e+00 8.999601e-01 -1.041116e-01
<VARIANCE> 25
 2.117774e+01 2.952828e+01 2.922161e+01 3.982738e+01 4.574633e+01 6.881457e+01 6.535324e+01 5.379423e+01 5.544885e+01 6.222299e+01 4.980569e+01 3.594482e+01 2.348963e+00 5.057578e+00 3.736472e+00 4.945384e+00 5.022231e+00 6.164868e+00 6.105505e+00 5.577056e+00 5.970156e+00 6.436912e+00 6.122203e+00 4.466326e+00 6.090406e-03
<GCONST> 1.055088e+02
<MIXTURE> 5 3.206198e-03
<MEAN> 25
 -3.416319e+00 2.180503e+00 6.103025e-01 9.425879e+00 6.696257e+00 6.314536e+00 7.111461e+00 4.723294e+00 5.496192e+00 3.846669e+00 4.657603e+00 2.605728e+00 -3.246821e-01 7.526218e-01 1.224461e+00 1.032299e+00 3.081223e-01 -9.928291e-02 -8.371135e-02 3.329184e-02 4.578967e-01 6.838586e-01 4.042849e-01 8.831330e-02 -2.754699e-05
<VARIANCE> 25
 1.024982e+01 1.394102e+01 2.347987e+01 2.563911e+01 2.021780e+01 1.942803e+01 2.011196e+01 2.035410e+01 2.141360e+01 2.128465e+01 2.409453e+01 1.635824e+01 1.209743e+00 1.244290e+00 1.357237e+00 1.673499e+00 2.284917e+00 2.378606e+00 2.300906e+00 2.274939e+00 2.314988e+00 2.237600e+00 2.085570e+00 1.873673e+00 9.998234e-07
<GCONST> 7.516538e+01
<MIXTURE> 6 5.475854e-03
<MEAN> 25
 9.701778e+00 -4.177085e-01 -6.690946e+00 -1.104487e+01 -2.117090e+00 6.734576e+00 -5.899387e+00 -5.296890e+00 -3.656581e+00 1.829728e+00 4.644124e+00 -1.251801e+00 4.850843e-01 8.962054e-01 -3.511313e-01 -1.468857e+00 -6.384058e-01 1.314649e+00 1.536661e+00 2.476123e-01 -1.218736e+00 -1.218332e+00 3.229564e-01 1.228662e+00 -8.165079e-03
<VARIANCE> 25
 8.968266e+00 1.707795e+01 2.396307e+01 3.912569e+01 3.677951e+01 3.064922e+01 4.407551e+01 3.806942e+01 4.075911e+01 3.947335e+01 4.210265e+01 2.841748e+01 3.115723e-01 8.572537e-01 9.454893e-01 1.977774e+00 1.605667e+00 2.016830e+00 1.919223e+00 2.051634e+00 2.398672e+00 1.963900e+00 2.246084e+00 1.438116e+00 5.859467e-04
<GCONST> 8.387647e+01
<MIXTURE> 7 5.475854e-03
<MEAN> 25
 9.701778e+00 -4.177085e-01 -6.690946e+00 -1.104487e+01 -2.117090e+00 6.734576e+00 -5.899387e+00 -5.296890e+00 -3.656581e+00 1.829728e+00 4.644124e+00 -1.251801e+00 4.850843e-01 8.962054e-01 -3.511313e-01 -1.468857e+00 -6.384058e-01 1.314649e+00 1.536661e+00 2.476123e-01 -1.218736e+00 -1.218332e+00 3.229564e-01 1.228662e+00 -8.165079e-03
<VARIANCE> 25
 8.968266e+00 1.707795e+01 2.396307e+01 3.912569e+01 3.677951e+01 3.064922e+01 4.407551e+01 3.806942e+01 4.075911e+01 3.947335e+01 4.210265e+01 2.841748e+01 3.115723e-01 8.572537e-01 9.454893e-01 1.977774e+00 1.605667e+00 2.016830e+00 1.919223e+00 2.051634e+00 2.398672e+00 1.963900e+00 2.246084e+00 1.438116e+00 5.859467e-04
<GCONST> 8.387647e+01
<MIXTURE> 8 1.165917e-02
<MEAN> 25
 -4.729265e+00 1.362528e+00 1.292255e+00 9.557686e+00 6.575269e+00 6.254439e+00 6.479232e+00 5.688893e+00 6.659304e+00 5.631535e+00 6.572450e+00 3.151959e+00 -6.295997e-01 -1.425688e+00 -1.071218e+00 -1.730962e+00 -2.313784e-01 -9.458096e-01 -1.780023e-01 -2.898175e-01 -2.529441e-01 -1.736860e-01 -2.134632e-01 8.118957e-02 9.886268e-02
<VARIANCE> 25
 9.341996e+00 9.845160e+00 1.160959e+01 1.606820e+01 1.663157e+01 1.570448e+01 1.812698e+01 1.750911e+01 1.703957e+01 1.737507e+01 1.887627e+01 1.399934e+01 2.756809e+00 2.814759e+00 3.906152e+00 3.761300e+00 3.455320e+00 3.315420e+00 3.128458e+00 3.080171e+00 2.871358e+00 2.655778e+00 2.434277e+00 1.901600e+00 6.684655e-03
<GCONST> 8.628619e+01
<MIXTURE> 9 1.199672e-02
<MEAN> 25
 9.301928e+00 3.394496e+00 -6.209795e+00 -1.067622e+01 -2.213503e+00 4.969009e+00 -2.208682e+00 -2.304519e+00 -5.395248e+00 -1.256767e+00 5.693719e-01 -1.025407e-02 1.441234e+00 -1.286732e-01 -4.914026e-01 -2.704854e+00 -1.646782e+00 8.552822e-01 -9.725487e-01 -2.307263e-01 -1.804332e-01 -5.770665e-01 6.150048e-01 -1.526550e-01 7.334772e-02
<VARIANCE> 25
 1.221811e+01 2.140633e+01 3.355615e+01 5.350311e+01 5.017745e+01 3.229078e+01 4.320259e+01 5.216835e+01 4.207872e+01 4.159647e+01 3.612034e+01 2.692376e+01 2.088165e+00 2.451011e+00 4.573510e+00 4.876303e+00 5.010316e+00 4.096260e+00 4.237757e+00 6.042547e+00 5.039411e+00 4.079888e+00 4.016114e+00 2.804702e+00 2.212837e-03
<GCONST> 9.879799e+01
<MIXTURE> 10 6.596976e-03
<MEAN> 25
 8.210059e-01 7.634367e+00 5.375957e+00 7.148989e+00 1.587359e+00 -2.115164e+00 -5.181956e-01 -1.685375e+00 8.743564e-01 8.599326e-01 8.390179e-01 6.573990e-01 -1.924940e+00 -6.733400e-01 -4.585977e-01 3.028214e+00 2.463276e+00 2.710474e+00 2.373911e+00 2.277892e+00 1.861639e+00 1.545136e+00 2.335875e+00 5.248725e-01 -1.381432e-01
<VARIANCE> 25
 1.954187e+01 2.068566e+01 2.230444e+01 2.906123e+01 3.831321e+01 3.494081e+01 3.514595e+01 3.384125e+01 2.761283e+01 2.904954e+01 2.695905e+01 2.501452e+01 2.234845e+00 3.426175e+00 5.535602e+00 5.169560e+00 5.552354e+00 4.469520e+00 4.699816e+00 4.843578e+00 4.388601e+00 5.021101e+00 4.442219e+00 3.191094e+00 2.696751e-03
<GCONST> 9.745956e+01
<MIXTURE> 11 1.633820e-02
<MEAN> 25
 7.649735e+00 4.284020e+00 3.563633e+00 5.115033e+00 -3.211898e+00 -1.990148e+00 -2.224380e+00 -6.355643e+00 -3.545309e+00 1.293117e-01 -2.560289e+00 -2.218474e+00 -2.355495e-01 5.309669e-01 1.904109e-01 2.968130e-01 5.107830e-01 -9.029996e-02 2.908778e-01 -1.186030e-01 -1.855456e-01 -6.884386e-02 -1.897766e-01 1.464353e-01 -1.584913e-02
<VARIANCE> 25
 1.193856e+01 2.367693e+01 1.958546e+01 3.113338e+01 3.843228e+01 3.847884e+01 4.871122e+01 4.399390e+01 4.273827e+01 3.471220e+01 3.437513e+01 2.873606e+01 9.474987e-01 1.219746e+00 1.677338e+00 2.190027e+00 2.049303e+00 2.143825e+00 2.102674e+00 2.737009e+00 2.108031e+00 1.981511e+00 1.892964e+00 1.561859e+00 9.906009e-04
<GCONST> 8.744336e+01
<MIXTURE> 12 5.904134e-03
<MEAN> 25
 1.076512e+01 3.743598e+00 -4.502399e+00 -1.599341e+01 -8.696119e+00 8.642585e+00 -8.969820e-01 -1.922220e+00 -1.722887e+00 -4.886389e+00 1.774623e+00 7.165712e-01 6.775074e-02 2.937757e-01 7.962615e-02 -3.682508e-01 -3.103031e-01 2.951879e-02 3.055033e-01 4.478185e-01 1.411064e-01 -3.846538e-01 -3.855363e-01 5.392307e-02 -6.302739e-03
<VARIANCE> 25
 8.887464e+00 2.100159e+01 2.335670e+01 3.503406e+01 4.206010e+01 3.095879e+01 4.179622e+01 4.898088e+01 4.406258e+01 3.738920e+01 3.799683e+01 2.892676e+01 2.467975e-01 6.883134e-01 6.860275e-01 1.169936e+00 1.186426e+00 1.053885e+00 1.171035e+00 1.386156e+00 1.240648e+00 1.222393e+00 1.221541e+00 9.564274e-01 5.786237e-04
<GCONST> 7.892107e+01
<MIXTURE> 13 5.904134e-03
<MEAN> 25
 1.076512e+01 3.743598e+00 -4.502399e+00 -1.599341e+01 -8.696119e+00 8.642585e+00 -8.969820e-01 -1.922220e+00 -1.722887e+00 -4.886389e+00 1.774623e+00 7.165712e-01 6.775074e-02 2.937757e-01 7.962615e-02 -3.682508e-01 -3.103031e-01 2.951879e-02 3.055033e-01 4.478185e-01 1.411064e-01 -3.846538e-01 -3.855363e-01 5.392307e-02 -6.302739e-03
<VARIANCE> 25
 8.887464e+00 2.100159e+01 2.335670e+01 3.503406e+01 4.206010e+01 3.095879e+01 4.179622e+01 4.898088e+01 4.406258e+01 3.738920e+01 3.799683e+01 2.892676e+01 2.467975e-01 6.883134e-01 6.860275e-01 1.169936e+00 1.186426e+00 1.053885e+00 1.171035e+00 1.386156e+00 1.240648e+00 1.222393e+00 1.221541e+00 9.564274e-01 5.786237e-04
<GCONST> 7.892107e+01
<MIXTURE> 14 6.488954e-03
<MEAN> 25
 -4.310638e+00 -3.784586e-01 -3.120252e-01 8.894589e+00 7.509341e+00 7.370681e+00 7.819611e+00 7.325980e+00 7.250705e+00 5.219866e+00 6.858159e+00 4.093914e+00 -2.733755e-01 1.920136e-01 3.643470e-01 3.094631e-01 5.535692e-03 5.738165e-02 9.530026e-02 1.757825e-01 2.960664e-01 5.412856e-01 5.047548e-01 7.514167e-02 -9.356629e-03
<VARIANCE> 25
 9.302137e+00 1.383227e+01 1.859368e+01 1.794142e+01 2.089517e+01 1.959446e+01 2.153352e+01 2.059407e+01 2.005685e+01 2.389072e+01 2.138123e+01 1.599459e+01 9.607628e-01 1.639098e+00 1.771519e+00 1.933072e+00 2.243289e+00 2.260618e+00 2.254930e+00 2.239257e+00 2.281404e+00 2.504375e+00 2.193724e+00 1.810016e+00 1.029238e-03
<GCONST> 8.190105e+01
<MIXTURE> 15 2.475190e-03
<MEAN> 25
 -5.412785e+00 -6.440685e-01 -1.987645e-01 7.351355e+00 5.708524e+00 5.690625e+00 6.052131e+00 4.975707e+00 5.159548e+00 4.151608e+00 5.497499e+00 2.541989e+00 -1.209795e-01 -2.907460e-02 7.453792e-02 2.428475e-01 4.874150e-01 7.865616e-01 1.071226e+00 1.182838e+00 1.059860e+00 7.553567e-01 4.192660e-01 1.535233e-01 -6.990724e-05
<VARIANCE> 25
 7.026218e+00 5.595380e+00 9.017002e+00 1.291915e+01 1.411635e+01 1.433080e+01 1.492839e+01 1.488044e+01 1.409091e+01 1.417329e+01 1.509647e+01 1.251223e+01 1.246951e-01 2.058836e-01 3.192348e-01 5.026705e-01 7.062696e-01 7.956983e-01 7.627127e-01 7.985790e-01 9.111317e-01 1.023134e+00 1.070887e+00 1.039795e+00 2.802572e-05
<GCONST> 5.861831e+01
<MIXTURE> 16 2.475190e-03
<MEAN> 25
 -5.412785e+00 -6.440685e-01 -1.987645e-01 7.351355e+00 5.708524e+00 5.690625e+00 6.052131e+00 4.975707e+00 5.159548e+00 4.151608e+00 5.497499e+00 2.541989e+00 -1.209795e-01 -2.907460e-02 7.453792e-02 2.428475e-01 4.874150e-01 7.865616e-01 1.071226e+00 1.182838e+00 1.059860e+00 7.553567e-01 4.192660e-01 1.535233e-01 -6.990724e-05
<VARIANCE> 25
 7.026218e+00 5.595380e+00 9.017002e+00 1.291915e+01 1.411635e+01 1.433080e+01 1.492839e+01 1.488044e+01 1.409091e+01 1.417329e+01 1.509647e+01 1.251223e+01 1.246951e-01 2.058836e-01 3.192348e-01 5.026705e-01 7.062696e-01 7.956983e-01 7.627127e-01 7.985790e-01 9.111317e-01 1.023134e+00 1.070887e+00 1.039795e+00 2.802572e-05
<GCONST> 5.861831e+01
<MIXTURE> 17 9.518312e-03
<MEAN> 25
 3.769745e+00 -7.756996e-01 6.426566e+00 2.402657e+00 -6.004472e+00 -6.397028e+00 -3.138955e+00 -1.419057e-01 -2.674707e+00 -3.277062e+00 6.724814e-02 -1.542152e-02 -7.665571e-01 -1.221245e+00 1.310696e+00 -2.136092e+00 -2.367845e+00 -1.562614e-01 1.856546e-01 7.667413e-01 -2.806039e-01 -1.803620e-01 1.035939e+00 4.023823e-01 8.247829e-02
<VARIANCE> 25
 1.654698e+01 3.166843e+01 3.006052e+01 3.971595e+01 4.500723e+01 4.894561e+01 4.236707e+01 3.430838e+01 3.557570e+01 2.702207e+01 2.812700e+01 2.807063e+01 1.834327e+00 2.707260e+00 4.017171e+00 3.086168e+00 4.104029e+00 5.487372e+00 5.000048e+00 4.725240e+00 4.079525e+00 4.039951e+00 3.066365e+00 2.736486e+00 2.126245e-03
<GCONST> 9.698537e+01
<MIXTURE> 18 1.221018e-02
<MEAN> 25
 3.953856e+00 4.622093e+00 6.746937e+00 4.742147e+00 -4.614664e+00 -8.359362e+00 -1.742949e+00 -1.171446e+00 -3.371350e+00 -2.455194e+00 -8.811286e-01 5.774706e-01 -7.618232e-01 2.161437e+00 -1.998113e-01 2.032687e+00 3.117646e+00 1.484785e+00 8.039764e-01 -2.110030e-01 6.188031e-01 5.192723e-01 -2.901847e-01 -6.150157e-02 -1.239062e-01
<VARIANCE> 25
 1.609134e+01 2.532996e+01 3.288617e+01 2.616897e+01 4.004997e+01 3.366697e+01 3.867981e+01 3.512690e+01 3.920410e+01 3.453607e+01 3.253883e+01 3.097538e+01 2.563357e+00 3.033588e+00 4.736505e+00 4.049597e+00 4.091697e+00 4.672005e+00 4.657472e+00 4.455135e+00 4.489264e+00 4.314495e+00 4.570901e+00 3.627922e+00 4.106767e-03
<GCONST> 9.852715e+01
<MIXTURE> 19 9.912824e-03
<MEAN> 25
 -1.012423e+01 1.824620e+00 3.141148e-01 1.079380e+00 3.974749e+00 1.581369e+00 3.408134e+00 1.136438e+00 2.064788e+00 1.177560e+00 1.108458e+00 2.013758e+00 2.087764e+00 1.748379e+00 2.158532e+00 7.506042e-01 -1.054107e+00 -1.027504e+00 -1.042874e+00 -1.414499e+00 -1.493852e+00 -1.142337e+00 -8.390999e-01 -8.040091e-01 1.388998e-03
<VARIANCE> 25
 5.366385e+01 3.011400e+01 4.813500e+01 5.345592e+01 3.385598e+01 3.273532e+01 3.114521e+01 2.967674e+01 2.860946e+01 2.701413e+01 3.021009e+01 1.979511e+01 2.402403e+00 2.205594e+00 2.193704e+00 2.337254e+00 2.569274e+00 2.239780e+00 2.457618e+00 2.397724e+00 2.101307e+00 2.043781e+00 2.241370e+00 1.770743e+00 2.399305e-03
<GCONST> 9.169986e+01
<MIXTURE> 20 6.308331e-03
<MEAN> 25
 -1.418145e+01 7.416194e+00 8.452314e-01 6.152289e+00 4.843555e+00 1.637090e+00 5.209284e+00 8.536933e-01 9.223132e-01 7.987435e-01 2.568580e+00 -3.024292e-01 -3.285946e+00 -8.668866e-01 -1.565170e+00 3.325815e-01 1.541046e+00 2.063141e+00 1.979244e+00 2.056207e+00 2.144594e+00 2.040245e+00 1.684746e+00 9.453121e-01 4.732136e-02
<VARIANCE> 25
 1.966348e+01 2.345561e+01 3.096064e+01 3.717621e+01 3.084978e+01 2.789033e+01 2.993287e+01 3.147528e+01 2.796411e+01 2.821392e+01 2.515978e+01 2.091775e+01 2.092036e+00 2.182255e+00 1.909938e+00 2.541362e+00 2.702739e+00 2.313095e+00 2.310106e+00 2.320019e+00 2.235433e+00 2.652243e+00 2.241424e+00 1.865659e+00 1.886420e-03
<GCONST> 8.921882e+01
<MIXTURE> 21 7.928653e-03
<MEAN> 25
 4.004851e+00 -4.529686e+00 5.773405e+00 -1.546910e+00 -1.058150e+01 -8.726057e+00 -2.614976e+00 4.175375e+00 -2.070821e+00 -3.408719e+00 2.446794e-01 3.414910e-01 -7.192326e-01 1.341431e+00 2.589064e+00 -4.482008e-02 -1.551967e+00 3.353761e-01 5.886679e-01 -1.498124e+00 -1.957899e+00 3.136487e-01 1.325979e+00 2.462539e-01 -1.278254e-02
<VARIANCE> 25
 8.902475e+00 1.873251e+01 2.966443e+01 2.840195e+01 2.856970e+01 3.320521e+01 4.294047e+01 3.936235e+01 4.293275e+01 3.160041e+01 3.382593e+01 2.323585e+01 3.763922e-01 9.498062e-01 1.855337e+00 1.290453e+00 2.211962e+00 2.188364e+00 3.641480e+00 2.500620e+00 2.161934e+00 2.595114e+00 2.018755e+00 2.285108e+00 4.285681e-04
<GCONST> 8.509620e+01
<MIXTURE> 22 8.827789e-03
<MEAN> 25
 -1.792091e+01 7.154785e+00 -4.131347e+00 7.392482e+00 4.602546e+00 2.761039e+00 8.399819e+00 1.748462e+00 5.379299e+00 3.301012e+00 5.716434e+00 1.185148e+00 -3.095726e-01 -2.075880e-01 -1.255633e-01 -1.492641e-01 -7.208806e-03 1.369678e-01 1.807591e-01 1.779423e-01 2.484757e-01 2.073076e-01 1.726615e-01 1.924446e-01 8.857626e-03
<VARIANCE> 25
 8.116920e+00 1.682541e+01 1.738343e+01 2.517213e+01 2.289636e+01 2.083704e+01 1.943101e+01 1.871084e+01 1.813996e+01 2.086667e+01 1.924184e+01 1.378720e+01 1.090756e+00 1.357369e+00 1.363971e+00 1.572030e+00 1.408815e+00 1.526971e+00 1.508942e+00 1.532825e+00 1.614233e+00 1.544764e+00 1.357418e+00 1.168007e+00 1.745583e-03
<GCONST> 7.830949e+01
<MIXTURE> 23 6.455497e-03
<MEAN> 25
 7.578054e+00 2.373269e+00 2.934008e+00 2.265447e+00 -4.698719e+00 -3.051228e+00 -4.135900e+00 -6.271265e+00 -3.379715e+00 -1.011655e+00 -3.987743e+00 -2.115661e+00 3.236906e-02 1.649284e-01 5.826485e-03 5.198453e-02 5.470410e-03 4.535878e-02 5.210498e-03 -5.701254e-02 4.133544e-03 5.545854e-02 1.505662e-02 3.903749e-02 -4.296476e-03
<VARIANCE> 25
 1.236233e+01 2.129587e+01 2.362962e+01 3.946548e+01 3.696410e+01 5.182596e+01 5.652723e+01 5.359212e+01 4.623618e+01 4.485958e+01 4.672926e+01 3.843656e+01 1.161554e-01 2.902119e-01 3.743509e-01 4.891491e-01 5.971001e-01 7.130972e-01 7.701435e-01 8.580615e-01 8.823306e-01 9.009128e-01 8.204533e-01 7.471974e-01 9.169514e-05
<GCONST> 7.269108e+01
<MIXTURE> 24 6.455497e-03
<MEAN> 25
 7.578054e+00 2.373269e+00 2.934008e+00 2.265447e+00 -4.698719e+00 -3.051228e+00 -4.135900e+00 -6.271265e+00 -3.379715e+00 -1.011655e+00 -3.987743e+00 -2.115661e+00 3.236906e-02 1.649284e-01 5.826485e-03 5.198453e-02 5.470410e-03 4.535878e-02 5.210498e-03 -5.701254e-02 4.133544e-03 5.545854e-02 1.505662e-02 3.903749e-02 -4.296476e-03
<VARIANCE> 25
 1.236233e+01 2.129587e+01 2.362962e+01 3.946548e+01 3.696410e+01 5.182596e+01 5.652723e+01 5.359212e+01 4.623618e+01 4.485958e+01 4.672926e+01 3.843656e+01 1.161554e-01 2.902119e-01 3.743509e-01 4.891491e-01 5.971001e-01 7.130972e-01 7.701435e-01 8.580615e-01 8.823306e-01 9.009128e-01 8.204533e-01 7.471974e-01 9.169514e-05
<GCONST> 7.269108e+01
<MIXTURE> 25 1.118642e-02
<MEAN> 25
 2.957001e-01 3.479760e+00 1.676798e+01 -1.034679e+00 -1.131946e+01 -1.755199e+00 -4.982883e+00 -2.945337e+00 -6.935635e+00 -5.440850e+00 4.100022e+00 -1.643911e+00 -1.344872e-01 4.389707e-01 1.675697e-01 1.511624e-01 2.158799e-01 1.090696e-01 1.921420e-01 -1.692741e-01 -2.500792e-01 7.517251e-02 -7.297479e-02 -1.070301e-01 -1.293166e-02
<VARIANCE> 25
 8.835677e+00 2.219694e+01 2.111933e+01 2.863688e+01 3.168975e+01 4.104973e+01 2.739427e+01 2.995044e+01 2.834812e+01 3.659988e+01 2.093273e+01 2.756823e+01 5.954760e-01 1.445268e+00 1.406610e+00 1.381701e+00 2.274977e+00 2.035753e+00 1.748093e+00 1.628595e+00 1.535274e+00 1.649446e+00 1.349532e+00 1.296353e+00 1.281053e-03
<GCONST> 8.273567e+01
<MIXTURE> 26 7.727677e-03
<MEAN> 25
 2.178498e+00 -6.452875e+00 -1.040121e+01 -7.017986e-01 8.012197e+00 5.494134e+00 4.065393e+00 -2.772981e-01 2.277248e+00 -9.608077e-01 -2.899086e+00 -9.912167e-01 -6.544728e-01 6.287355e-01 3.662777e-01 6.970569e-01 1.748549e-01 2.414632e-01 2.885194e-01 3.356436e-01 2.889811e-01 8.434732e-02 3.870951e-01 4.284361e-01 -5.281134e-02
<VARIANCE> 25
 2.512277e+01 3.403266e+01 2.564526e+01 6.241607e+01 3.895964e+01 4.245342e+01 4.614461e+01 4.403045e+01 3.934893e+01 5.445195e+01 4.011104e+01 4.676683e+01 1.651597e+00 1.958917e+00 1.929740e+00 2.003226e+00 2.320595e+00 2.368552e+00 2.521169e+00 2.738379e+00 2.335107e+00 2.338092e+00 2.163990e+00 2.001588e+00 3.322516e-03
<GCONST> 9.392915e+01
<MIXTURE> 27 7.727677e-03
<MEAN> 25
 2.178498e+00 -6.452875e+00 -1.040121e+01 -7.017986e-01 8.012197e+00 5.494134e+00 4.065393e+00 -2.772981e-01 2.277248e+00 -9.608077e-01 -2.899086e+00 -9.912167e-01 -6.544728e-01 6.287355e-01 3.662777e-01 6.970569e-01 1.748549e-01 2.414632e-01 2.885194e-01 3.356436e-01 2.889811e-01 8.434732e-02 3.870951e-01 4.284361e-01 -5.281134e-02
<VARIANCE> 25
 2.512277e+01 3.403266e+01 2.564526e+01 6.241607e+01 3.895964e+01 4.245342e+01 4.614461e+01 4.403045e+01 3.934893e+01 5.445195e+01 4.011104e+01 4.676683e+01 1.651597e+00 1.958917e+00 1.929740e+00 2.003226e+00 2.320595e+00 2.368552e+00 2.521169e+00 2.738379e+00 2.335107e+00 2.338092e+00 2.163990e+00 2.001588e+00 3.322516e-03
<GCONST> 9.392915e+01
<MIXTURE> 28 5.036674e-03
<MEAN> 25
 -5.280518e+00 -4.262717e-03 -1.507314e+00 6.362975e+00 5.173809e+00 3.424330e+00 5.345479e+00 3.168112e+00 3.990391e+00 2.274877e+00 2.578290e+00 3.090688e+00 -1.249028e-01 2.066132e-01 5.065272e-01 7.517791e-01 8.574749e-01 7.782938e-01 5.165495e-01 3.536444e-01 4.303452e-01 5.015727e-01 4.145683e-01 2.149071e-01 5.050371e-06
<VARIANCE> 25
 1.083537e+01 8.068600e+00 1.183790e+01 1.601408e+01 1.431335e+01 1.735705e+01 1.761494e+01 1.843222e+01 1.680459e+01 1.652713e+01 1.997694e+01 1.493141e+01 2.504990e-01 3.319322e-01 4.054492e-01 4.793514e-01 6.388091e-01 9.995969e-01 1.026963e+00 1.155436e+00 1.071579e+00 1.007499e+00 1.071722e+00 1.053694e+00 9.790211e-07
<GCONST> 6.024401e+01
<MIXTURE> 29 5.036674e-03
<MEAN> 25
 -5.280518e+00 -4.262717e-03 -1.507314e+00 6.362975e+00 5.173809e+00 3.424330e+00 5.345479e+00 3.168112e+00 3.990391e+00 2.274877e+00 2.578290e+00 3.090688e+00 -1.249028e-01 2.066132e-01 5.065272e-01 7.517791e-01 8.574749e-01 7.782938e-01 5.165495e-01 3.536444e-01 4.303452e-01 5.015727e-01 4.145683e-01 2.149071e-01 5.050371e-06
<VARIANCE> 25
 1.083537e+01 8.068600e+00 1.183790e+01 1.601408e+01 1.431335e+01 1.735705e+01 1.761494e+01 1.843222e+01 1.680459e+01 1.652713e+01 1.997694e+01 1.493141e+01 2.504990e-01 3.319322e-01 4.054492e-01 4.793514e-01 6.388091e-01 9.995969e-01 1.026963e+00 1.155436e+00 1.071579e+00 1.007499e+00 1.071722e+00 1.053694e+00 9.790211e-07
<GCONST> 6.024401e+01
<MIXTURE> 30 8.917812e-03
<MEAN> 25
 -4.471218e+00 -2.000845e-01 6.608947e-01 9.069927e+00 7.756535e+00 7.500468e+00 7.542513e+00 6.839641e+00 6.503377e+00 4.891932e+00 6.980928e+00 3.498500e+00 -2.142375e-02 3.071088e-02 5.662335e-02 8.760651e-02 8.005366e-02 5.030756e-02 1.658190e-02 -8.298554e-03 1.672682e-02 5.333374e-02 6.099894e-02 3.824394e-02 -4.894671e-04
<VARIANCE> 25
 7.003894e+00 9.824407e+00 1.035346e+01 1.378477e+01 1.576396e+01 1.637465e+01 1.936546e+01 1.842991e+01 1.638910e+01 1.830184e+01 2.131890e+01 1.431503e+01 9.833534e-02 1.986987e-01 3.238298e-01 4.799036e-01 6.175388e-01 7.304815e-01 7.709903e-01 8.159192e-01 8.728605e-01 9.356152e-01 9.161829e-01 8.629689e-01 5.178854e-05
<GCONST> 6.063219e+01
<MIXTURE> 31 4.136493e-03
<MEAN> 25
 -3.122561e+00 -5.345443e+00 6.974958e-02 4.602797e+00 3.451403e+00 1.646193e+00 5.064435e+00 6.499485e+00 2.710237e+00 1.242910e+00 6.300576e+00 3.095190e+00 2.452375e-01 4.386948e-01 -1.979360e-01 2.787306e-01 1.213576e-01 4.118735e-01 1.810731e-01 -1.690887e-05 3.426614e-01 3.697237e-01 8.859657e-02 9.618110e-02 -1.755302e-02
<VARIANCE> 25
 7.248156e+00 1.616460e+01 1.653946e+01 1.824788e+01 2.530381e+01 2.274912e+01 2.331863e+01 2.480825e+01 2.501070e+01 2.667222e+01 2.009754e+01 1.808858e+01 1.864601e-01 5.044501e-01 5.872949e-01 7.835849e-01 9.897549e-01 1.140623e+00 1.191909e+00 1.436106e+00 1.413337e+00 1.284032e+00 1.195594e+00 1.122735e+00 2.825315e-04
<GCONST> 7.177251e+01
<MIXTURE> 32 4.136493e-03
<MEAN> 25
 -3.122561e+00 -5.345443e+00 6.974958e-02 4.602797e+00 3.451403e+00 1.646193e+00 5.064435e+00 6.499485e+00 2.710237e+00 1.242910e+00 6.300576e+00 3.095190e+00 2.452375e-01 4.386948e-01 -1.979360e-01 2.787306e-01 1.213576e-01 4.118735e-01 1.810731e-01 -1.690887e-05 3.426614e-01 3.697237e-01 8.859657e-02 9.618110e-02 -1.755302e-02
<VARIANCE> 25
 7.248156e+00 1.616460e+01 1.653946e+01 1.824788e+01 2.530381e+01 2.274912e+01 2.331863e+01 2.480825e+01 2.501070e+01 2.667222e+01 2.009754e+01 1.808858e+01 1.864601e-01 5.044501e-01 5.872949e-01 7.835849e-01 9.897549e-01 1.140623e+00 1.191909e+00 1.436106e+00 1.413337e+00 1.284032e+00 1.195594e+00 1.122735e+00 2.825315e-04
<GCONST> 7.177251e+01
<MIXTURE> 33 1.508826e-02
<MEAN> 25
 6.594860e+00 -4.019602e+00 -2.219459e+00 -2.635819e+00 -1.963259e+00 -5.625680e+00 -7.278129e+00 1.741476e+00 2.317611e+00 -4.614210e-01 -4.713647e+00 -3.007233e+00 6.537107e-01 -1.173227e+00 -2.443199e+00 -1.869821e+00 1.462123e+00 1.420141e+00 -7.543032e-01 6.578231e-01 1.024127e+00 5.597912e-01 -3.067577e-01 -1.334669e+00 3.769876e-02
<VARIANCE> 25
 9.898274e+00 2.115173e+01 2.903683e+01 3.615559e+01 4.066232e+01 4.408138e+01 4.312410e+01 4.672650e+01 4.054185e+01 4.387623e+01 3.495734e+01 2.841988e+01 1.161152e+00 1.944039e+00 2.200804e+00 2.193457e+00 4.214434e+00 3.439352e+00 4.323346e+00 5.627404e+00 3.783633e+00 4.406996e+00 3.382583e+00 2.606102e+00 1.476295e-03
<GCONST> 9.445818e+01
<MIXTURE> 34 1.588179e-02
<MEAN> 25
 8.926667e+00 4.701571e-02 1.345249e-01 1.214993e+00 -2.945204e+00 -1.522916e+00 -6.153851e+00 -4.691746e+00 -1.806938e+00 1.536570e-01 -2.653008e+00 -3.699126e+00 -1.728301e-02 1.346797e+00 1.474817e+00 2.397371e+00 -4.148789e-02 -1.530355e-01 7.907820e-01 -1.642218e+00 -9.015052e-01 2.590604e-01 -5.560296e-01 2.447437e-01 -6.237892e-02
<VARIANCE> 25
 7.674869e+00 3.104943e+01 2.944860e+01 4.993614e+01 4.238573e+01 4.946717e+01 5.501189e+01 5.671809e+01 5.267871e+01 4.326979e+01 4.834945e+01 3.153783e+01 1.263946e+00 1.984008e+00 4.268185e+00 4.051122e+00 5.634738e+00 5.835591e+00 5.513019e+00 6.165990e+00 5.201864e+00 4.982285e+00 5.025626e+00 3.879954e+00 1.153835e-03
<GCONST> 9.971816e+01
<MIXTURE> 35 1.467755e-02
<MEAN> 25
 -2.156159e+00 -5.253054e+00 -9.991628e+00 2.184078e-01 9.715314e+00 7.987449e-01 1.607447e+00 2.539891e+00 1.472179e+00 4.583186e+00 4.654697e-02 1.883731e+00 5.479731e-01 -1.117760e+00 -1.429142e+00 -1.387541e+00 4.083103e-01 -7.987100e-01 -6.815883e-01 -1.319473e-01 -1.597689e-01 1.643270e-01 -6.521069e-01 -4.974567e-01 1.077588e-01
<VARIANCE> 25
 1.959336e+01 2.945922e+01 4.335400e+01 6.241903e+01 4.209283e+01 5.750367e+01 5.103877e+01 4.363778e+01 5.043121e+01 3.853415e+01 3.660152e+01 3.096983e+01 3.466261e+00 3.575523e+00 6.785396e+00 5.560358e+00 5.223741e+00 5.584288e+00 4.926639e+00 4.748735e+00 5.056442e+00 4.519808e+00 4.080108e+00 3.798811e+00 5.300882e-03
<GCONST> 1.036173e+02
<MIXTURE> 36 1.093293e-02
<MEAN> 25
 4.976851e+00 -3.493161e+00 6.994953e+00 2.662249e+00 -1.007909e+01 -8.869407e+00 -6.208272e+00 3.047961e+00 -1.896151e+00 -4.559687e+00 2.803126e+00 -1.553691e-01 3.608498e-01 1.533738e-01 -9.064678e-01 1.870425e-02 8.650087e-01 3.100408e-02 -4.736864e-01 2.351278e-02 4.132219e-01 5.506189e-01 -4.388996e-01 -3.294665e-01 -1.589359e-02
<VARIANCE> 25
 1.000087e+01 1.681524e+01 2.236275e+01 2.786308e+01 3.182971e+01 3.229511e+01 4.618896e+01 3.521605e+01 3.908346e+01 3.255686e+01 2.753549e+01 2.651134e+01 4.621093e-01 7.372901e-01 1.515579e+00 1.236857e+00 1.636317e+00 1.633957e+00 2.138022e+00 1.737707e+00 2.011245e+00 1.743889e+00 1.422487e+00 1.440197e+00 7.226301e-04
<GCONST> 8.216485e+01
<MIXTURE> 37 1.246826e-02
<MEAN> 25
 5.455074e-01 7.774255e+00 1.205812e+01 -5.554977e+00 -8.031187e+00 -1.052824e+00 -5.080517e+00 -8.324183e+00 -3.710777e+00 -9.074484e-01 -3.669934e+00 -1.292379e+00 1.826290e-01 6.471764e-01 -1.353974e+00 3.583875e+00 1.988031e+00 -3.008200e-01 1.091387e+00 4.360922e-01 5.280539e-01 -3.232807e-01 5.375095e-01 -9.748798e-02 -9.494410e-02
<VARIANCE> 25
 1.593171e+01 2.598319e+01 3.083423e+01 5.101391e+01 3.393723e+01 3.201482e+01 4.398222e+01 3.505463e+01 3.861330e+01 3.596910e+01 3.775244e+01 3.089054e+01 2.956452e+00 3.416023e+00 3.018456e+00 4.092016e+00 4.617886e+00 3.752983e+00 4.208281e+00 3.810869e+00 3.449708e+00 3.621737e+00 3.870134e+00 2.792060e+00 3.928035e-03
<GCONST> 9.778192e+01
<MIXTURE> 38 1.154525e-02
<MEAN> 25
 -4.476870e+00 8.975868e+00 4.601822e+00 3.232401e+00 8.470969e-01 -5.220679e+00 -6.072961e-01 -2.745100e+00 -2.856246e+00 -3.103385e+00 -1.492039e+00 -5.423204e-01 -4.518957e+00 1.251998e+00 -3.116066e-01 1.455039e+00 2.563391e+00 1.392636e+00 2.051596e+00 9.537150e-01 7.858377e-01 6.377701e-01 1.004837e+00 3.258502e-01 4.857270e-02
<VARIANCE> 25
 3.140174e+01 2.956025e+01 3.901659e+01 3.301369e+01 4.886586e+01 3.559192e+01 3.636593e+01 4.165446e+01 3.488053e+01 3.250516e+01 2.429114e+01 2.873177e+01 2.351861e+00 3.941669e+00 3.909808e+00 5.163544e+00 4.248076e+00 5.021233e+00 4.782363e+00 4.644275e+00 4.446939e+00 4.938978e+00 4.390494e+00 3.264240e+00 2.049478e-03
<GCONST> 9.926112e+01
<MIXTURE> 39 9.501865e-03
<MEAN> 25
 1.339189e+00 2.603859e+00 1.021009e+01 -9.216438e+00 -1.128846e+01 -9.896647e-01 -2.964778e+00 -6.572911e+00 -4.522852e+00 8.708462e-01 -3.679089e+00 -2.295087e+00 -7.281541e-01 1.522334e+00 1.625661e+00 -1.390148e+00 7.775243e-02 1.220814e+00 -1.200696e+00 -1.253112e+00 4.296947e-01 4.460797e-01 -5.065100e-01 1.224433e-01 1.323088e-03
<VARIANCE> 25
 8.902796e+00 3.007875e+01 3.168599e+01 3.825515e+01 3.720167e+01 4.268433e+01 4.441138e+01 3.347542e+01 3.942683e+01 3.319826e+01 3.620159e+01 2.943187e+01 6.918699e-01 1.546745e+00 1.512062e+00 2.924289e+00 2.418341e+00 2.828709e+00 3.051012e+00 2.747754e+00 2.434516e+00 2.617376e+00 2.121241e+00 2.070188e+00 1.183879e-03
<GCONST> 8.965595e+01
<MIXTURE> 40 1.030800e-02
<MEAN> 25
 -8.358253e+00 1.938490e+00 -9.754986e-01 7.413345e+00 3.527284e+00 5.142204e+00 4.886699e+00 4.159809e+00 4.484564e+00 3.958181e+00 5.372705e+00 1.649710e+00 -6.626538e-02 -2.153034e-01 -1.891811e-02 -1.973077e-01 -1.098703e-01 -1.405760e-01 5.603459e-02 5.511130e-02 9.560763e-03 2.781421e-02 3.399393e-02 2.507874e-03 3.308177e-03
<VARIANCE> 25
 4.522404e+01 1.891660e+01 2.674240e+01 2.931623e+01 2.516918e+01 1.841955e+01 1.964992e+01 1.826360e+01 1.649245e+01 1.738854e+01 1.809115e+01 1.396812e+01 6.874619e-01 7.018765e-01 8.413627e-01 1.097825e+00 1.112134e+00 1.315915e+00 1.294849e+00 1.246733e+00 1.193996e+00 1.201918e+00 1.090738e+00 1.042090e+00 8.327816e-04
<GCONST> 7.602608e+01
<MIXTURE> 41 6.713375e-03
<MEAN> 25
 1.308479e+00 1.785421e+00 1.047824e+01 -6.963366e+00 -1.047350e+01 -3.857675e+00 -2.486130e+00 -5.044028e+00 -4.655636e+00 2.662979e+00 -1.745105e+00 -9.517561e-01 7.796936e-02 -7.606993e-01 1.697145e+00 -3.559472e+00 -2.461353e+00 -1.132418e-01 -5.065312e-01 -3.570970e-01 -8.270476e-01 1.086995e+00 -1.046014e+00 8.305594e-02 8.629818e-02
<VARIANCE> 25
 1.169590e+01 2.965622e+01 3.259501e+01 4.003569e+01 3.868277e+01 4.016122e+01 3.714127e+01 2.987100e+01 3.309329e+01 2.877496e+01 3.185977e+01 2.719214e+01 3.178192e+00 3.311681e+00 3.824782e+00 3.795468e+00 4.904080e+00 5.875369e+00 4.715709e+00 4.558379e+00 3.976160e+00 4.220316e+00 3.833111e+00 3.223531e+00 2.930286e-03
<GCONST> 9.791228e+01
<MIXTURE> 42 1.106211e-02
<MEAN> 25
 -1.926979e+00 4.569795e+00 4.670186e+00 2.880688e+00 1.966799e-01 -6.300528e+00 -9.973906e-01 -1.871742e+00 -1.513417e+00 -1.232530e+00 -2.288392e+00 1.267512e+00 4.184725e+00 -3.489835e-01 1.528065e+00 1.977402e-01 -2.963353e+00 -1.153606e+00 -2.258197e+00 -8.183559e-01 -7.871048e-01 -7.355180e-01 5.317336e-01 -1.058520e+00 9.599151e-03
<VARIANCE> 25
 3.628526e+01 2.117040e+01 4.670713e+01 2.621452e+01 3.928952e+01 3.906791e+01 3.725195e+01 2.727864e+01 2.864564e+01 2.757398e+01 2.009797e+01 1.791598e+01 3.558414e+00 4.892944e+00 6.150636e+00 4.788949e+00 4.649037e+00 6.017856e+00 5.085362e+00 5.295276e+00 4.978455e+00 4.858646e+00 4.236560e+00 3.414098e+00 4.469435e-03
<GCONST> 9.983101e+01
<MIXTURE> 43 7.108249e-03
<MEAN> 25
 3.141604e+00 -6.258149e+00 -2.231614e+00 -5.149807e+00 -7.365836e+00 -3.377584e+00 4.114975e+00 1.285894e+00 -5.066609e+00 -7.046548e+00 -4.262432e+00 -1.219741e+00 2.382216e-01 2.152121e+00 1.901914e+00 -1.375106e-01 -1.435299e+00 -8.073620e-01 -9.745682e-01 -7.856567e-01 8.215662e-01 1.466863e+00 3.301488e-01 1.144363e-02 -4.481465e-02
<VARIANCE> 25
 9.594240e+00 1.983322e+01 2.716503e+01 3.510876e+01 3.826700e+01 3.645148e+01 3.309856e+01 3.955657e+01 3.945071e+01 3.862228e+01 2.684137e+01 2.942952e+01 6.849696e-01 1.259307e+00 1.575093e+00 2.472837e+00 2.360660e+00 2.382275e+00 2.634750e+00 3.007437e+00 2.585467e+00 2.557487e+00 2.332544e+00 1.914458e+00 9.457325e-04
<GCONST> 8.790495e+01
<MIXTURE> 44 7.328289e-03
<MEAN> 25
 -1.467535e+01 1.504496e+00 3.475240e+00 -3.128379e+00 3.202673e+00 1.951578e+00 -5.583506e-02 2.377729e+00 1.476682e+00 -6.858056e-01 1.760304e+00 1.864478e+00 -1.443475e-01 1.415649e-02 1.818720e-01 3.473670e-01 -9.158088e-02 1.818964e-01 4.917800e-01 1.410303e-01 2.558234e-01 1.400522e-01 3.127523e-02 9.970708e-02 5.264390e-03
<VARIANCE> 25
 4.930111e+01 2.670682e+01 3.350015e+01 2.944501e+01 2.885538e+01 2.929592e+01 2.416131e+01 3.073663e+01 2.696681e+01 2.637335e+01 2.635359e+01 1.907366e+01 1.183486e+00 1.486471e+00 1.362242e+00 1.369686e+00 2.105436e+00 1.665955e+00 1.486684e+00 1.629690e+00 1.544863e+00 1.472660e+00 1.340782e+00 1.194248e+00 1.253736e-03
<GCONST> 8.410029e+01
<MIXTURE> 45 1.364932e-02
<MEAN> 25
 -1.244736e+01 3.421206e+00 -1.252344e+00 2.845871e+00 5.734645e+00 1.086442e-01 4.762454e+00 2.862588e+00 3.300521e+00 2.190870e+00 2.367139e+00 2.590123e+00 -2.940050e+00 5.944078e-01 -4.858691e-01 -5.334134e-01 1.941799e-01 -1.661449e-02 4.604099e-01 6.731337e-02 -6.874830e-02 -6.740645e-02 2.503844e-01 9.416448e-02 1.190974e-01
<VARIANCE> 25
 3.355012e+01 3.029577e+01 3.081590e+01 3.501330e+01 3.140661e+01 2.911916e+01 2.967966e+01 2.654802e+01 2.480190e+01 2.335686e+01 2.803617e+01 1.560248e+01 2.427106e+00 3.064764e+00 2.852164e+00 2.682855e+00 2.500727e+00 2.632954e+00 2.312720e+00 2.268004e+00 2.143067e+00 2.117992e+00 1.973375e+00 1.641589e+00 4.084870e-03
<GCONST> 9.055662e+01
<MIXTURE> 46 9.336259e-03
<MEAN> 25
 -9.464761e+00 2.309553e+00 1.199523e+00 7.570220e+00 5.943438e+00 3.337596e+00 7.068993e+00 4.496944e+00 5.708880e+00 4.694089e+00 5.041121e+00 2.926783e+00 1.061047e+00 -2.405686e-01 4.073707e-02 1.002047e+00 6.038432e-01 9.429707e-01 3.871713e-01 6.747723e-01 4.731199e-01 5.080946e-01 6.407027e-01 5.241284e-01 -1.057010e-01
<VARIANCE> 25
 3.423042e+01 4.384357e+01 3.853593e+01 4.994585e+01 5.083927e+01 4.080599e+01 3.707266e+01 3.537234e+01 3.316201e+01 3.095262e+01 2.823802e+01 2.022988e+01 3.911933e+00 4.144115e+00 3.882887e+00 4.139729e+00 4.176127e+00 3.698222e+00 3.381849e+00 3.115672e+00 2.982478e+00 2.866164e+00 2.309341e+00 1.783878e+00 7.952755e-03
<GCONST> 9.830348e+01
<MIXTURE> 47 7.116147e-03
<MEAN> 25
 7.334684e+00 -7.380702e+00 -7.761983e+00 -6.455513e+00 1.507336e+00 8.398544e-01 -2.389692e+00 1.226957e+00 3.019572e+00 1.484300e-01 -4.259779e+00 -6.715048e+00 -1.839127e-01 -1.257569e+00 -6.927010e-01 -4.196949e-01 6.232256e-01 8.175457e-01 8.772904e-01 3.000089e-01 1.178971e-01 -8.865799e-01 -4.678609e-01 -4.576134e-01 3.012726e-02
<VARIANCE> 25
 1.068519e+01 2.103172e+01 2.051369e+01 3.318180e+01 3.621816e+01 5.278962e+01 4.530486e+01 4.078765e+01 4.341257e+01 4.703241e+01 4.864601e+01 3.355608e+01 5.194880e-01 7.718422e-01 1.124431e+00 1.668117e+00 1.978912e+00 2.203583e+00 2.320218e+00 2.481359e+00 2.193772e+00 2.144074e+00 2.186764e+00 2.011670e+00 5.498026e-04
<GCONST> 8.644392e+01
<MIXTURE> 48 7.116147e-03
<MEAN> 25
 7.334684e+00 -7.380702e+00 -7.761983e+00 -6.455513e+00 1.507336e+00 8.398544e-01 -2.389692e+00 1.226957e+00 3.019572e+00 1.484300e-01 -4.259779e+00 -6.715048e+00 -1.839127e-01 -1.257569e+00 -6.927010e-01 -4.196949e-01 6.232256e-01 8.175457e-01 8.772904e-01 3.000089e-01 1.178971e-01 -8.865799e-01 -4.678609e-01 -4.576134e-01 3.012726e-02
<VARIANCE> 25
 1.068519e+01 2.103172e+01 2.051369e+01 3.318180e+01 3.621816e+01 5.278962e+01 4.530486e+01 4.078765e+01 4.341257e+01 4.703241e+01 4.864601e+01 3.355608e+01 5.194880e-01 7.718422e-01 1.124431e+00 1.668117e+00 1.978912e+00 2.203583e+00 2.320218e+00 2.481359e+00 2.193772e+00 2.144074e+00 2.186764e+00 2.011670e+00 5.498026e-04
<GCONST> 8.644392e+01
<MIXTURE> 49 5.548473e-03
<MEAN> 25
 -5.069702e+00 3.565397e-01 1.695386e-01 8.427403e+00 6.130602e+00 5.608336e+00 6.056133e+00 4.485698e+00 5.019184e+00 3.717449e+00 4.927140e+00 2.862828e+00 3.641747e-01 6.557114e-01 7.032726e-01 3.519381e-01 -1.974845e-01 -6.691238e-01 -1.006710e+00 -1.120116e+00 -9.546667e-01 -6.790738e-01 -4.920585e-01 -2.735146e-01 -2.954930e-05
<VARIANCE> 25
 9.677971e+00 1.000937e+01 1.421873e+01 1.607462e+01 1.596809e+01 1.715131e+01 1.944978e+01 1.942776e+01 1.822896e+01 1.792994e+01 2.062825e+01 1.430113e+01 2.810436e-01 2.628244e-01 3.594186e-01 6.112698e-01 8.684999e-01 9.730808e-01 9.932756e-01 1.051336e+00 1.135273e+00 1.218570e+00 1.279675e+00 1.209262e+00 1.451771e-05
<GCONST> 6.435085e+01
<MIXTURE> 50 6.234641e-03
<MEAN> 25
 -4.384636e+00 8.049938e-02 -1.325107e+00 5.877540e+00 4.090031e+00 2.371442e+00 3.408074e+00 1.865919e+00 2.555856e+00 1.185793e+00 2.048081e+00 2.757752e+00 1.659803e-02 1.747954e-01 7.621858e-02 -1.742841e-01 -5.082439e-01 -6.178189e-01 -4.302932e-01 -7.687616e-02 4.480379e-01 7.861598e-01 7.404499e-01 4.513402e-01 4.924725e-06
<VARIANCE> 25
 1.087823e+01 1.040831e+01 1.360443e+01 1.590352e+01 1.511532e+01 1.849786e+01 1.884992e+01 1.867730e+01 1.814721e+01 1.766844e+01 2.099377e+01 1.463251e+01 1.632970e-01 2.347123e-01 3.616700e-01 4.907800e-01 5.694052e-01 7.089771e-01 9.220575e-01 1.152089e+00 1.128847e+00 8.928849e-01 8.786301e-01 9.672655e-01 1.058674e-06
<GCONST> 5.929788e+01
<MIXTURE> 51 6.234641e-03
<MEAN> 25
 -4.384636e+00 8.049938e-02 -1.325107e+00 5.877540e+00 4.090031e+00 2.371442e+00 3.408074e+00 1.865919e+00 2.555856e+00 1.185793e+00 2.048081e+00 2.757752e+00 1.659803e-02 1.747954e-01 7.621858e-02 -1.742841e-01 -5.082439e-01 -6.178189e-01 -4.302932e-01 -7.687616e-02 4.480379e-01 7.861598e-01 7.404499e-01 4.513402e-01 4.924725e-06
<VARIANCE> 25
 1.087823e+01 1.040831e+01 1.360443e+01 1.590352e+01 1.511532e+01 1.849786e+01 1.884992e+01 1.867730e+01 1.814721e+01 1.766844e+01 2.099377e+01 1.463251e+01 1.632970e-01 2.347123e-01 3.616700e-01 4.907800e-01 5.694052e-01 7.089771e-01 9.220575e-01 1.152089e+00 1.128847e+00 8.928849e-01 8.786301e-01 9.672655e-01 1.058674e-06
<GCONST> 5.929788e+01
<MIXTURE> 52 6.367945e-03
<MEAN> 25
 1.012370e+01 2.049332e+00 -6.198374e+00 -1.428636e+01 -4.222306e+00 8.537541e+00 -2.752697e+00 -3.061127e+00 -4.408346e+00 -2.132992e+00 3.354578e+00 7.465148e-01 -3.855749e-01 -4.802686e-01 -6.963068e-02 1.140538e+00 1.339701e+00 -4.734958e-01 -6.029710e-01 -6.590675e-01 4.296813e-02 1.246426e+00 3.875206e-01 -5.457603e-01 -1.381914e-02
<VARIANCE> 25
 9.291009e+00 2.048886e+01 2.533474e+01 3.858516e+01 4.573070e+01 3.071552e+01 4.654684e+01 4.894340e+01 4.306359e+01 4.603935e+01 3.995027e+01 3.000843e+01 4.496069e-01 1.480721e+00 1.310575e+00 2.758000e+00 2.328850e+00 2.199779e+00 2.985892e+00 2.799603e+00 3.006313e+00 2.666938e+00 2.520439e+00 2.277529e+00 1.546068e-03
<GCONST> 8.973322e+01
<MIXTURE> 53 6.367945e-03
<MEAN> 25
 1.012370e+01 2.049332e+00 -6.198374e+00 -1.428636e+01 -4.222306e+00 8.537541e+00 -2.752697e+00 -3.061127e+00 -4.408346e+00 -2.132992e+00 3.354578e+00 7.465148e-01 -3.855749e-01 -4.802686e-01 -6.963068e-02 1.140538e+00 1.339701e+00 -4.734958e-01 -6.029710e-01 -6.590675e-01 4.296813e-02 1.246426e+00 3.875206e-01 -5.457603e-01 -1.381914e-02
<VARIANCE> 25
 9.291009e+00 2.048886e+01 2.533474e+01 3.858516e+01 4.573070e+01 3.071552e+01 4.654684e+01 4.894340e+01 4.306359e+01 4.603935e+01 3.995027e+01 3.000843e+01 4.496069e-01 1.480721e+00 1.310575e+00 2.758000e+00 2.328850e+00 2.199779e+00 2.985892e+00 2.799603e+00 3.006313e+00 2.666938e+00 2.520439e+00 2.277529e+00 1.546068e-03
<GCONST> 8.973322e+01
<MIXTURE> 54 7.368620e-03
<MEAN> 25
 -3.615277e+00 6.202393e-02 -6.697206e-01 7.937580e+00 6.408306e+00 4.591612e+00 4.619851e+00 4.579110e+00 4.039021e+00 3.575454e+00 4.420645e+00 2.294693e+00 -2.523543e-03 2.503024e-02 3.210120e-02 5.056348e-02 6.151094e-02 4.421550e-02 3.817027e-02 2.983695e-02 3.888668e-02 1.710887e-02 1.063503e-02 -2.406522e-04 -3.255804e-05
<VARIANCE> 25
 9.115844e+00 1.026624e+01 9.194324e+00 1.865925e+01 1.360578e+01 1.347861e+01 1.203667e+01 1.116521e+01 1.121569e+01 1.345795e+01 1.769046e+01 1.252684e+01 4.054750e-02 8.884155e-02 1.539221e-01 2.263651e-01 3.152471e-01 4.035830e-01 4.564904e-01 5.172160e-01 5.401742e-01 5.287169e-01 5.100540e-01 5.121055e-01 1.022031e-06
<GCONST> 4.728318e+01
<MIXTURE> 55 7.368620e-03
<MEAN> 25
 -3.615277e+00 6.202393e-02 -6.697206e-01 7.937580e+00 6.408306e+00 4.591612e+00 4.619851e+00 4.579110e+00 4.039021e+00 3.575454e+00 4.420645e+00 2.294693e+00 -2.523543e-03 2.503024e-02 3.210120e-02 5.056348e-02 6.151094e-02 4.421550e-02 3.817027e-02 2.983695e-02 3.888668e-02 1.710887e-02 1.063503e-02 -2.406522e-04 -3.255804e-05
<VARIANCE> 25
 9.115844e+00 1.026624e+01 9.194324e+00 1.865925e+01 1.360578e+01 1.347861e+01 1.203667e+01 1.116521e+01 1.121569e+01 1.345795e+01 1.769046e+01 1.252684e+01 4.054750e-02 8.884155e-02 1.539221e-01 2.263651e-01 3.152471e-01 4.035830e-01 4.564904e-01 5.172160e-01 5.401742e-01 5.287169e-01 5.100540e-01 5.121055e-01 1.022031e-06
<GCONST> 4.728318e+01
<MIXTURE> 56 6.132464e-03
<MEAN> 25
 7.544547e+00 -6.763840e+00 -9.141376e+00 -8.651018e+00 3.952401e+00 3.925551e+00 -2.175918e+00 -1.479804e+00 1.951229e+00 6.543101e-01 -2.481286e+00 -7.135816e+00 -1.068154e-02 2.565759e-02 -8.554820e-02 2.190064e-02 2.580941e-01 6.577018e-02 1.140628e-01 -1.371868e-01 -4.620275e-02 -3.656910e-02 -8.223866e-02 1.850334e-02 -7.057169e-03
<VARIANCE> 25
 9.422232e+00 2.331720e+01 2.010622e+01 4.125553e+01 3.315009e+01 5.094905e+01 6.184255e+01 3.677051e+01 3.891222e+01 3.762995e+01 4.020650e+01 3.115342e+01 2.059230e-01 4.317787e-01 4.528883e-01 7.721956e-01 7.964814e-01 1.113629e+00 9.094905e-01 9.066628e-01 9.096204e-01 9.270258e-01 1.034542e+00 7.844963e-01 2.391784e-04
<GCONST> 7.514217e+01
<MIXTURE> 57 6.132464e-03
<MEAN> 25
 7.544547e+00 -6.763840e+00 -9.141376e+00 -8.651018e+00 3.952401e+00 3.925551e+00 -2.175918e+00 -1.479804e+00 1.951229e+00 6.543101e-01 -2.481286e+00 -7.135816e+00 -1.068154e-02 2.565759e-02 -8.554820e-02 2.190064e-02 2.580941e-01 6.577018e-02 1.140628e-01 -1.371868e-01 -4.620275e-02 -3.656910e-02 -8.223866e-02 1.850334e-02 -7.057169e-03
<VARIANCE> 25
 9.422232e+00 2.331720e+01 2.010622e+01 4.125553e+01 3.315009e+01 5.094905e+01 6.184255e+01 3.677051e+01 3.891222e+01 3.762995e+01 4.020650e+01 3.115342e+01 2.059230e-01 4.317787e-01 4.528883e-01 7.721956e-01 7.964814e-01 1.113629e+00 9.094905e-01 9.066628e-01 9.096204e-01 9.270258e-01 1.034542e+00 7.844963e-01 2.391784e-04
<GCONST> 7.514217e+01
<MIXTURE> 58 6.172147e-03
<MEAN> 25
 2.481938e+00 -2.904013e+00 7.087196e+00 -5.110048e+00 -1.299086e+01 -5.354592e+00 1.606971e+00 7.418799e-01 -2.356835e+00 1.769770e+00 5.281186e-01 -8.445125e-01 -2.245707e-02 -1.398776e-01 -8.897007e-02 -1.624964e-01 -2.986384e-02 2.133078e-01 3.572056e-01 2.120369e-01 -2.623510e-03 1.455759e-02 -7.849938e-02 -1.335160e-01 -3.048864e-03
<VARIANCE> 25
 7.281206e+00 1.531148e+01 2.103404e+01 2.657183e+01 2.688827e+01 4.586673e+01 3.153363e+01 3.383314e+01 3.142922e+01 3.023480e+01 2.205781e+01 1.960164e+01 3.015693e-01 7.860437e-01 7.571751e-01 1.009374e+00 8.792567e-01 1.217322e+00 1.157006e+00 1.279092e+00 1.082959e+00 1.086895e+00 9.341900e-01 8.678679e-01 7.062880e-04
<GCONST> 7.545214e+01
<MIXTURE> 59 6.172147e-03
<MEAN> 25
 2.481938e+00 -2.904013e+00 7.087196e+00 -5.110048e+00 -1.299086e+01 -5.354592e+00 1.606971e+00 7.418799e-01 -2.356835e+00 1.769770e+00 5.281186e-01 -8.445125e-01 -2.245707e-02 -1.398776e-01 -8.897007e-02 -1.624964e-01 -2.986384e-02 2.133078e-01 3.572056e-01 2.120369e-01 -2.623510e-03 1.455759e-02 -7.849938e-02 -1.335160e-01 -3.048864e-03
<VARIANCE> 25
 7.281206e+00 1.531148e+01 2.103404e+01 2.657183e+01 2.688827e+01 4.586673e+01 3.153363e+01 3.383314e+01 3.142922e+01 3.023480e+01 2.205781e+01 1.960164e+01 3.015693e-01 7.860437e-01 7.571751e-01 1.009374e+00 8.792567e-01 1.217322e+00 1.157006e+00 1.279092e+00 1.082959e+00 1.086895e+00 9.341900e-01 8.678679e-01 7.062880e-04
<GCONST> 7.545214e+01
<MIXTURE> 60 4.479129e-03
<MEAN> 25
 -1.917439e+00 -3.182811e-01 -6.269162e-01 1.715125e+00 8.893698e-01 1.480357e+00 8.852895e-01 9.812890e-01 1.268566e+00 1.120349e+00 1.605333e+00 1.110837e+00 -2.612124e-02 2.211150e-02 1.301789e-02 3.355784e-02 1.415606e-01 1.633456e-01 1.064557e-01 3.070251e-01 5.178691e-01 5.809104e-01 5.379973e-01 2.963369e-01 1.240958e-03
<VARIANCE> 25
 5.858516e+00 3.048810e+00 6.261628e+00 1.016050e+01 9.635847e+00 1.240748e+01 1.146980e+01 9.466935e+00 1.025708e+01 1.108800e+01 1.122597e+01 1.000956e+01 8.530619e-02 1.569155e-01 2.451203e-01 3.942069e-01 7.708985e-01 8.944041e-01 9.251025e-01 9.776930e-01 1.177333e+00 8.838461e-01 7.938942e-01 8.725897e-01 3.903992e-05
<GCONST> 5.430854e+01
<MIXTURE> 61 4.479129e-03
<MEAN> 25
 -1.917439e+00 -3.182811e-01 -6.269162e-01 1.715125e+00 8.893698e-01 1.480357e+00 8.852895e-01 9.812890e-01 1.268566e+00 1.120349e+00 1.605333e+00 1.110837e+00 -2.612124e-02 2.211150e-02 1.301789e-02 3.355784e-02 1.415606e-01 1.633456e-01 1.064557e-01 3.070251e-01 5.178691e-01 5.809104e-01 5.379973e-01 2.963369e-01 1.240958e-03
<VARIANCE> 25
 5.858516e+00 3.048810e+00 6.261628e+00 1.016050e+01 9.635847e+00 1.240748e+01 1.146980e+01 9.466935e+00 1.025708e+01 1.108800e+01 1.122597e+01 1.000956e+01 8.530619e-02 1.569155e-01 2.451203e-01 3.942069e-01 7.708985e-01 8.944041e-01 9.251025e-01 9.776930e-01 1.177333e+00 8.838461e-01 7.938942e-01 8.725897e-01 3.903992e-05
<GCONST> 5.430854e+01
<MIXTURE> 62 3.278034e-03
<MEAN> 25
 -5.090125e+00 1.240823e+00 1.026042e+00 8.816920e+00 6.130132e+00 5.049890e+00 5.499058e+00 4.033813e+00 4.985855e+00 3.917363e+00 4.966026e+00 2.950802e+00 -1.003187e+00 -1.166532e+00 -9.531091e-01 -2.767333e-01 4.276730e-01 1.005324e+00 1.384472e+00 1.552048e+00 1.478633e+00 1.243416e+00 1.067136e+00 7.261152e-01 -1.264443e-03
<VARIANCE> 25
 9.875440e+00 9.957932e+00 1.311399e+01 1.674738e+01 1.741521e+01 1.752540e+01 1.969936e+01 1.910979e+01 1.886082e+01 1.872648e+01 2.155960e+01 1.479569e+01 4.017565e-01 4.321366e-01 5.541582e-01 7.792585e-01 1.035393e+00 1.192668e+00 1.252363e+00 1.279644e+00 1.329724e+00 1.363657e+00 1.399967e+00 1.371112e+00 1.632274e-05
<GCONST> 6.752746e+01
<MIXTURE> 63 4.351215e-03
<MEAN> 25
 -2.257733e+00 -1.184807e+00 -2.564522e+00 1.403869e+00 2.019727e+00 -2.407957e-01 1.507470e+00 1.053479e+00 1.643433e+00 -3.122192e-01 -6.699002e-01 1.271470e+00 -1.331881e-02 3.180334e-01 4.470038e-01 6.156644e-01 3.955301e-01 3.983141e-01 4.783475e-01 2.226286e-01 4.464327e-02 9.585838e-02 4.335711e-02 5.840703e-02 3.181097e-03
<VARIANCE> 25
 7.737837e+00 9.517378e+00 1.271874e+01 1.219973e+01 1.342475e+01 1.755827e+01 1.650004e+01 1.728877e+01 1.741774e+01 1.490222e+01 1.429634e+01 1.273322e+01 2.244951e-01 3.508302e-01 4.791461e-01 6.642591e-01 7.189529e-01 1.092308e+00 1.026015e+00 1.207434e+00 1.310328e+00 1.172584e+00 1.047217e+00 1.082190e+00 2.375479e-04
<GCONST> 6.566573e+01
<MIXTURE> 64 4.351215e-03
<MEAN> 25
 -2.257733e+00 -1.184807e+00 -2.564522e+00 1.403869e+00 2.019727e+00 -2.407957e-01 1.507470e+00 1.053479e+00 1.643433e+00 -3.122192e-01 -6.699002e-01 1.271470e+00 -1.331881e-02 3.180334e-01 4.470038e-01 6.156644e-01 3.955301e-01 3.983141e-01 4.783475e-01 2.226286e-01 4.464327e-02 9.585838e-02 4.335711e-02 5.840703e-02 3.181097e-03
<VARIANCE> 25
 7.737837e+00 9.517378e+00 1.271874e+01 1.219973e+01 1.342475e+01 1.755827e+01 1.650004e+01 1.728877e+01 1.741774e+01 1.490222e+01 1.429634e+01 1.273322e+01 2.244951e-01 3.508302e-01 4.791461e-01 6.642591e-01 7.189529e-01 1.092308e+00 1.026015e+00 1.207434e+00 1.310328e+00 1.172584e+00 1.047217e+00 1.082190e+00 2.375479e-04
<GCONST> 6.566573e+01
<MIXTURE> 65 1.721197e-02
<MEAN> 25
 7.899855e+00 2.080128e+00 1.957457e+00 6.319848e-01 -5.349926e+00 -4.286660e+00 -5.766414e+00 -6.726132e+00 -3.793943e+00 -2.285166e+00 -5.444381e+00 -1.867757e+00 1.806359e-01 1.208781e-01 1.180749e-02 1.347821e-01 -1.800890e-01 2.413910e-01 -1.101103e-01 -1.700024e-01 1.802433e-01 5.456702e-03 -5.760888e-02 -1.566526e-01 -4.519779e-03
<VARIANCE> 25
 1.081707e+01 1.896215e+01 2.540769e+01 3.584541e+01 3.799070e+01 5.786009e+01 5.835709e+01 5.880980e+01 5.535204e+01 5.770584e+01 5.624630e+01 5.079375e+01 5.496923e-01 9.440642e-01 1.602432e+00 1.812174e+00 2.003957e+00 2.226457e+00 2.293800e+00 2.959166e+00 2.436639e+00 2.515471e+00 2.411006e+00 2.113409e+00 4.225227e-04
<GCONST> 8.944050e+01
<MIXTURE> 66 1.191532e-02
<MEAN> 25
 6.681715e+00 -4.094236e+00 -5.623636e+00 -4.831050e+00 1.277483e+00 -5.092873e+00 -6.924410e+00 1.193165e+00 6.846674e-01 -2.051253e+00 -6.140930e+00 -3.475501e+00 -4.559973e-02 1.667449e+00 2.240418e+00 2.318003e+00 -1.251129e+00 -1.253533e+00 5.544955e-02 -5.469808e-01 -1.447285e-01 -1.944658e-01 -2.016972e-01 1.044896e+00 -6.380331e-02
<VARIANCE> 25
 8.928756e+00 2.234645e+01 2.706040e+01 3.306528e+01 3.851830e+01 5.342490e+01 5.600275e+01 4.541509e+01 5.411071e+01 6.678437e+01 3.698452e+01 3.644562e+01 1.283686e+00 2.445650e+00 2.352337e+00 2.470313e+00 4.197509e+00 4.308676e+00 4.369162e+00 4.845649e+00 4.249564e+00 4.994494e+00 3.900310e+00 3.262221e+00 1.469042e-03
<GCONST> 9.683594e+01
<MIXTURE> 67 1.559142e-02
<MEAN> 25
 8.985456e+00 2.035448e+00 -5.978737e+00 -8.274504e+00 9.031860e-01 3.083229e+00 -3.325229e+00 -2.242070e+00 -3.773560e+00 7.784979e-01 -5.461008e-02 -1.732939e+00 -1.074132e+00 1.831960e+00 1.062773e+00 3.073161e+00 1.392620e+00 -5.098513e-01 1.302791e+00 1.202588e-01 1.569752e-01 2.512395e-01 -2.766193e-01 6.252995e-01 -1.299931e-01
<VARIANCE> 25
 1.146567e+01 3.885957e+01 3.078913e+01 5.585363e+01 4.915367e+01 5.406945e+01 6.210220e+01 5.280804e+01 6.478790e+01 5.711977e+01 5.578411e+01 4.738020e+01 2.179849e+00 3.465775e+00 3.290490e+00 4.517694e+00 4.523180e+00 4.553678e+00 4.706660e+00 5.071122e+00 5.476764e+00 4.779429e+00 5.135092e+00 3.746339e+00 3.042452e-03
<GCONST> 1.029183e+02
<MIXTURE> 68 1.485092e-02
<MEAN> 25
 -2.018360e+00 -2.311273e+00 -4.105051e+00 1.255075e+00 5.262627e+00 -6.685858e-01 2.130790e+00 1.825572e+00 2.006170e+00 1.690599e+00 4.858672e-01 1.877413e+00 2.768571e+00 5.489920e-01 1.387392e-02 -2.585482e+00 -2.417579e+00 -1.591637e+00 -2.354074e+00 -1.792111e+00 -1.651213e+00 -1.481174e+00 -1.985787e+00 -1.059307e+00 1.032935e-01
<VARIANCE> 25
 2.600341e+01 3.204293e+01 5.876963e+01 5.261566e+01 4.670168e+01 5.511858e+01 4.528204e+01 4.228084e+01 4.044610e+01 4.351618e+01 3.739671e+01 2.576120e+01 1.863879e+00 3.745457e+00 5.939301e+00 5.868417e+00 4.698813e+00 5.611471e+00 5.773316e+00 4.975151e+00 4.979754e+00 5.262906e+00 5.044170e+00 3.421853e+00 6.139238e-03
<GCONST> 1.036085e+02
<MIXTURE> 69 1.204884e-02
<MEAN> 25
 4.673970e+00 -4.232349e+00 -3.568807e+00 -3.631088e+00 -3.506952e+00 -7.881624e+00 -1.110349e+00 2.213851e+00 -3.479202e-01 -4.740280e+00 -5.688555e+00 9.578056e-01 1.678489e+00 -2.236101e+00 -1.338605e+00 -2.244780e+00 -5.300442e-01 -3.493046e-01 -4.729158e-01 6.160201e-01 -6.424053e-01 -1.460829e+00 -2.205060e+00 -1.727699e-01 6.255328e-02
<VARIANCE> 25
 8.860807e+00 2.179588e+01 2.675431e+01 2.593513e+01 4.271060e+01 3.562798e+01 4.896606e+01 3.159963e+01 3.977694e+01 3.791780e+01 3.108766e+01 2.461496e+01 3.548390e+00 2.922341e+00 3.335893e+00 3.701100e+00 5.768857e+00 5.011822e+00 7.118866e+00 6.080425e+00 5.914073e+00 5.868013e+00 4.351711e+00 3.705550e+00 2.446838e-03
<GCONST> 9.868196e+01
<MIXTURE> 70 1.329190e-02
<MEAN> 25
 7.524548e+00 -2.036026e+00 -3.890131e+00 -3.609563e+00 -4.099059e-01 -6.676697e-01 -7.691686e+00 -4.028384e+00 5.708303e-01 2.893903e+00 -1.315122e-01 -4.912213e+00 1.936180e+00 -1.138633e+00 -8.204890e-01 -2.206589e+00 -1.519511e+00 1.178202e+00 -1.337914e+00 -8.799398e-02 3.376068e-01 -2.775611e-02 6.879281e-01 -1.455051e+00 5.869483e-02
<VARIANCE> 25
 9.916889e+00 2.257709e+01 2.833874e+01 4.699010e+01 3.550854e+01 4.451563e+01 4.988311e+01 4.410413e+01 4.709267e+01 3.279340e+01 4.500068e+01 2.729040e+01 3.501910e+00 3.212396e+00 4.743564e+00 4.958490e+00 5.217438e+00 6.448612e+00 6.795578e+00 7.556754e+00 6.176090e+00 5.389207e+00 5.868631e+00 4.306643e+00 2.537485e-03
<GCONST> 1.018608e+02
<MIXTURE> 71 1.406903e-02
<MEAN> 25
 6.401509e+00 5.195402e+00 4.272141e+00 3.117885e+00 -3.469037e+00 -3.428254e+00 -3.430764e+00 -6.654912e+00 -4.676757e+00 -2.513392e+00 -5.244111e+00 -3.245454e+00 -1.576423e+00 -6.984180e-01 -2.525860e-01 -1.779587e+00 1.130315e+00 -1.478926e-01 5.193875e-02 1.539061e+00 3.088686e-01 -1.798023e-01 6.867414e-01 1.838023e-01 4.096777e-02
<VARIANCE> 25
 1.884912e+01 2.571093e+01 2.408988e+01 4.503220e+01 4.075345e+01 4.064958e+01 4.264967e+01 4.155164e+01 3.906169e+01 4.415667e+01 3.654253e+01 3.455527e+01 1.755422e+00 3.047658e+00 5.305231e+00 4.891167e+00 4.710566e+00 4.743343e+00 4.880170e+00 5.394061e+00 4.310176e+00 4.100436e+00 3.634496e+00 3.301709e+00 1.421966e-03
<GCONST> 9.871738e+01
<MIXTURE> 72 8.134747e-03
<MEAN> 25
 3.790742e+00 -3.682806e+00 5.455514e+00 -2.466567e+00 -1.040185e+01 -9.623114e+00 -2.450163e+00 1.922499e+00 -4.942065e+00 -2.200305e+00 -1.885930e+00 6.177042e-01 9.323621e-01 -7.858630e-01 -2.576504e+00 4.633313e-01 2.136944e+00 -6.551100e-01 -1.316829e+00 1.525368e+00 1.814144e+00 -5.970908e-01 -1.289766e+00 4.023823e-01 -6.129739e-03
<VARIANCE> 25
 1.078908e+01 1.948341e+01 3.286871e+01 3.842222e+01 3.234226e+01 3.339384e+01 4.106372e+01 3.621065e+01 4.369902e+01 4.135958e+01 3.879349e+01 2.851130e+01 4.323791e-01 1.026227e+00 2.023150e+00 1.469498e+00 2.183958e+00 2.355188e+00 3.061940e+00 2.731927e+00 2.604992e+00 2.962217e+00 2.023951e+00 2.129014e+00 5.409435e-04
<GCONST> 8.725430e+01
<MIXTURE> 73 1.213625e-02
<MEAN> 25
 -5.640103e+00 -7.917709e-01 -1.304180e+00 4.916603e+00 4.240174e+00 2.343045e+00 5.518625e+00 3.454803e+00 4.368880e+00 3.435353e+00 4.270291e+00 3.028635e+00 8.031377e-01 -1.030898e+00 -9.459742e-01 -2.648947e+00 -1.261630e+00 -1.752319e+00 -9.019396e-01 -5.084288e-01 -9.205832e-01 -7.017080e-01 -1.105183e+00 -2.827167e-01 1.549105e-01
<VARIANCE> 25
 1.284330e+01 1.339960e+01 1.520293e+01 2.263512e+01 2.333794e+01 2.477422e+01 2.038841e+01 2.000646e+01 1.777332e+01 1.906212e+01 2.279568e+01 1.557977e+01 4.047148e+00 3.091248e+00 5.966456e+00 4.675809e+00 6.153445e+00 4.561367e+00 4.304005e+00 4.250762e+00 3.898976e+00 4.232318e+00 3.541923e+00 2.674164e+00 4.298562e-03
<GCONST> 9.270354e+01
<MIXTURE> 74 1.756491e-02
<MEAN> 25
 4.520352e+00 -1.595852e+00 5.274245e+00 -1.154293e+00 -8.772811e+00 -8.326966e+00 -2.706599e+00 7.599168e-01 -4.122992e+00 -2.842380e+00 -1.705135e+00 2.616853e-01 3.113637e-01 2.025142e+00 4.403155e-02 1.720485e+00 1.235507e+00 3.574895e-01 -3.375581e-03 -1.334436e+00 1.743564e-01 1.782916e-01 -2.392525e-01 -1.064169e-01 -7.876005e-02
<VARIANCE> 25
 1.170609e+01 2.202579e+01 3.767468e+01 3.872693e+01 3.719390e+01 3.973115e+01 5.169163e+01 4.672599e+01 4.815081e+01 4.480285e+01 4.121733e+01 3.447519e+01 2.103381e+00 2.053239e+00 3.930499e+00 2.596047e+00 3.933317e+00 3.920622e+00 5.069895e+00 4.288691e+00 4.176332e+00 4.046460e+00 3.658995e+00 3.205331e+00 1.754945e-03
<GCONST> 9.735307e+01
<MIXTURE> 75 9.711651e-03
<MEAN> 25
 2.665108e+00 -1.246776e+00 1.104045e+01 1.730376e+00 -1.184523e+01 -7.674918e+00 -4.581176e+00 -4.824672e-01 -4.512591e+00 -4.625842e+00 3.268904e+00 1.546353e-01 1.753995e+00 -1.768503e+00 2.011571e-01 -2.582142e-01 -2.404221e+00 -5.195774e-01 -1.468307e+00 9.665616e-01 -1.532051e-01 -3.531311e-01 1.083214e+00 -6.310267e-01 3.865565e-02
<VARIANCE> 25
 1.114174e+01 1.783540e+01 3.037270e+01 2.782717e+01 2.689265e+01 3.277031e+01 3.148532e+01 3.115419e+01 3.372792e+01 3.163556e+01 2.045111e+01 2.172566e+01 2.381795e+00 1.902024e+00 4.294600e+00 2.491941e+00 3.879760e+00 4.348656e+00 4.161566e+00 3.520831e+00 3.951858e+00 3.383409e+00 3.107407e+00 2.513219e+00 1.544225e-03
<GCONST> 9.228396e+01
<MIXTURE> 76 1.052359e-02
<MEAN> 25
 -5.124339e+00 -1.159616e+00 -1.949724e+00 2.866449e+00 3.263600e+00 1.668580e+00 3.266208e+00 1.303591e+00 2.219570e+00 8.213031e-01 1.734077e+00 1.973704e+00 -1.005244e-02 -4.774082e-01 -3.162703e-01 -7.484236e-01 -7.292262e-01 -1.016618e+00 -5.636644e-01 -4.102789e-01 -4.281728e-01 -4.223656e-01 -3.645397e-01 -1.570241e-01 1.084124e-02
<VARIANCE> 25
 3.367426e+01 2.151493e+01 2.462458e+01 2.364569e+01 2.785439e+01 2.482431e+01 2.310217e+01 2.587981e+01 2.201790e+01 2.018986e+01 2.152192e+01 1.671774e+01 8.855869e-01 9.386447e-01 1.148827e+00 1.073069e+00 1.288445e+00 1.484103e+00 1.404010e+00 1.501109e+00 1.420138e+00 1.646674e+00 1.331030e+00 1.106773e+00 1.201313e-03
<GCONST> 7.974490e+01
<MIXTURE> 77 1.244626e-02
<MEAN> 25
 -4.609807e-01 8.519964e+00 1.235559e+01 -1.154142e+01 -6.963428e+00 9.633027e-01 -9.208269e+00 -7.204813e+00 -3.373284e+00 -2.056095e-01 -4.613067e+00 -1.488278e+00 6.789256e-02 1.337247e-01 7.008602e-02 2.502111e-01 -2.426840e-02 7.446575e-02 -6.823613e-02 -5.965829e-02 8.324896e-02 -3.975298e-02 3.041185e-02 1.199047e-01 -9.872247e-03
<VARIANCE> 25
 1.035412e+01 2.037674e+01 2.851612e+01 4.195217e+01 3.312042e+01 3.356143e+01 3.697611e+01 3.166228e+01 3.497808e+01 3.297416e+01 3.746997e+01 3.467404e+01 2.968689e-01 7.753713e-01 6.489260e-01 1.083061e+00 1.230782e+00 9.814812e-01 1.218690e+00 1.070546e+00 1.049920e+00 1.070161e+00 9.748310e-01 9.168866e-01 5.376811e-04
<GCONST> 7.779401e+01
<MIXTURE> 78 9.702551e-03
<MEAN> 25
 -1.162621e+01 1.104337e+00 -1.638166e+00 2.257687e+00 4.437912e+00 -2.270267e+00 3.791595e+00 2.661033e+00 2.616757e+00 7.546493e-01 -4.780437e-01 3.051922e+00 2.406306e+00 -2.735574e-01 1.858135e-01 5.875291e-01 -3.207035e-02 1.735275e-02 -3.047271e-01 -8.862123e-02 2.189699e-01 1.443978e-01 -3.786662e-01 -4.612291e-01 -6.200996e-02
<VARIANCE> 25
 4.096404e+01 3.285514e+01 3.279774e+01 3.261209e+01 3.985747e+01 3.729611e+01 3.582471e+01 3.293962e+01 2.826517e+01 2.772073e+01 2.719923e+01 2.023107e+01 4.934143e+00 2.588820e+00 2.862997e+00 3.078277e+00 2.862993e+00 3.523959e+00 3.275800e+00 2.841056e+00 2.355859e+00 2.373904e+00 2.252297e+00 2.131467e+00 4.720719e-03
<GCONST> 9.467871e+01
<MIXTURE> 79 1.156824e-02
<MEAN> 25
 2.419059e+00 1.579485e+00 9.188567e+00 -6.604663e+00 -1.206841e+01 -1.816205e+00 -1.910376e+00 -6.471623e+00 -6.575429e+00 3.241127e-01 -3.515383e+00 -3.296393e+00 1.221244e+00 -5.254247e-01 -1.432039e+00 2.352966e+00 3.798026e-01 -1.473224e+00 5.350652e-01 8.875515e-01 -4.361240e-01 -5.422843e-01 3.575386e-01 2.799620e-01 -3.628068e-02
<VARIANCE> 25
 1.422944e+01 2.412254e+01 3.790506e+01 4.977473e+01 3.346790e+01 4.350149e+01 4.286079e+01 3.679272e+01 3.896013e+01 3.978511e+01 4.390853e+01 3.066784e+01 9.432859e-01 2.261603e+00 1.896178e+00 2.089381e+00 2.472820e+00 2.814394e+00 3.197448e+00 3.532886e+00 2.515967e+00 2.736203e+00 2.318354e+00 2.029697e+00 1.234282e-03
<GCONST> 9.180565e+01
<MIXTURE> 80 7.550998e-03
<MEAN> 25
 -1.460866e+01 3.982978e+00 6.888527e-01 2.865978e+00 2.449390e+00 1.410288e+00 6.397008e+00 2.496773e+00 2.719634e+00 2.373497e+00 4.852879e+00 1.186962e+00 4.286331e+00 -1.602020e-02 1.637934e+00 -1.135554e+00 -2.889475e+00 -2.777582e+00 -2.323244e+00 -2.021465e+00 -1.975032e+00 -1.685194e+00 -1.650844e+00 -6.027454e-01 -4.423228e-02
<VARIANCE> 25
 2.094969e+01 1.984664e+01 3.444448e+01 3.470766e+01 3.018093e+01 2.920889e+01 2.828683e+01 2.855507e+01 2.674643e+01 2.881129e+01 2.685423e+01 1.810697e+01 2.357266e+00 2.666195e+00 2.673126e+00 4.119907e+00 3.394136e+00 2.705081e+00 3.025253e+00 3.204086e+00 2.749122e+00 2.701698e+00 2.782157e+00 2.145745e+00 1.512166e-03
<GCONST> 9.139670e+01
<MIXTURE> 81 8.025434e-03
<MEAN> 25
 -1.118161e+00 4.066051e+00 1.017655e+01 -1.480060e+01 -9.078392e+00 -1.421759e+00 -6.765444e+00 -8.424500e+00 -4.150487e+00 -4.163372e-01 -7.572849e+00 -2.246633e+00 1.340087e-01 -5.870743e-01 -2.708998e-03 -5.560691e-01 -4.640175e-01 3.349602e-01 3.198259e-01 1.371279e-01 -1.402057e-01 1.067373e-01 -4.693379e-01 -1.252269e-01 1.150863e-02
<VARIANCE> 25
 1.014911e+01 3.279962e+01 2.647740e+01 2.930231e+01 3.370951e+01 3.051811e+01 4.544613e+01 2.825714e+01 3.798671e+01 3.188009e+01 2.530548e+01 3.104276e+01 7.720231e-01 2.276785e+00 1.545672e+00 2.872598e+00 2.662508e+00 2.125897e+00 3.280123e+00 2.287539e+00 2.355439e+00 2.539018e+00 2.298568e+00 2.078024e+00 1.183134e-03
<GCONST> 8.868439e+01
<MIXTURE> 82 8.213053e-03
<MEAN> 25
 -9.966270e+00 -3.903473e+00 1.640102e+00 -2.971876e+00 3.113833e+00 6.711991e-01 1.994745e+00 9.378460e-01 2.976421e+00 1.729321e+00 1.742751e+00 3.085362e+00 -1.314336e+00 -1.249191e-01 2.896840e-01 -2.604469e+00 -1.105539e+00 -1.265405e+00 -1.013555e+00 -8.702855e-01 -3.166782e-01 -4.782961e-01 -3.166651e-01 -9.515849e-02 1.784501e-01
<VARIANCE> 25
 1.801052e+01 2.493746e+01 3.237104e+01 3.088886e+01 3.302585e+01 3.229260e+01 3.178302e+01 3.298331e+01 3.085983e+01 2.512638e+01 3.079053e+01 1.750380e+01 3.754998e+00 3.049268e+00 3.316931e+00 3.268510e+00 3.562314e+00 3.286661e+00 2.943631e+00 3.016165e+00 2.795074e+00 2.490984e+00 2.449395e+00 1.865945e+00 3.429721e-03
<GCONST> 9.308212e+01
<MIXTURE> 83 1.167529e-02
<MEAN> 25
 -2.004081e+01 5.504238e+00 -1.789702e+00 -4.051103e-01 7.829639e+00 -1.234488e+00 5.460100e+00 3.044532e+00 1.192393e+00 2.190908e+00 7.244872e-01 2.881716e+00 -2.631321e-02 -4.501706e-01 4.872012e-03 -3.655977e-01 -4.974648e-01 -1.258521e-01 -1.343577e-01 -9.942717e-02 -4.144356e-02 -3.920248e-02 -3.058213e-02 -3.465528e-02 4.403248e-03
<VARIANCE> 25
 8.819281e+00 1.645402e+01 2.851271e+01 2.248555e+01 2.127508e+01 2.407955e+01 2.202746e+01 2.336420e+01 2.042958e+01 2.221887e+01 2.319599e+01 1.448780e+01 1.060910e+00 9.362046e-01 1.240790e+00 1.065688e+00 1.359398e+00 1.291389e+00 1.283447e+00 1.388157e+00 1.349015e+00 1.310737e+00 1.220778e+00 1.071650e+00 8.923843e-04
<GCONST> 7.703519e+01
<MIXTURE> 84 1.066614e-02
<MEAN> 25
 1.178536e+00 9.024996e+00 7.246716e+00 7.989397e+00 2.833493e+00 -9.178181e-01 -1.526156e+00 -4.481332e+00 -4.120768e+00 -2.911194e+00 -2.414091e+00 -1.596873e+00 -1.787709e+00 -1.185595e+00 -1.206304e+00 1.289468e+00 2.254417e+00 1.504153e+00 1.453586e+00 1.290299e+00 1.169081e+00 4.028479e-01 4.165959e-01 4.255105e-01 -7.172585e-02
<VARIANCE> 25
 2.350197e+01 1.824018e+01 2.160446e+01 2.412654e+01 2.918423e+01 2.831162e+01 2.795872e+01 2.655276e+01 2.529405e+01 2.525174e+01 2.360187e+01 2.461257e+01 2.103036e+00 2.541827e+00 3.850343e+00 3.301793e+00 3.275779e+00 3.378430e+00 3.291120e+00 3.407677e+00 3.484220e+00 3.251481e+00 3.589357e+00 2.806135e+00 3.527429e-03
<GCONST> 9.254472e+01
<MIXTURE> 85 7.591393e-03
<MEAN> 25
 -3.110685e+00 7.892299e+00 5.725062e+00 1.286111e+00 -3.493870e+00 -5.325530e+00 -2.980297e+00 -6.121585e+00 -3.542553e+00 -3.184656e+00 -4.793051e-01 -1.899470e+00 3.943504e+00 3.248012e-01 1.756026e+00 -2.091547e+00 -3.414673e+00 -2.583325e+00 -2.886114e+00 -2.341573e+00 -2.249148e+00 -1.264135e+00 -2.302928e+00 -6.158360e-01 9.208566e-03
<VARIANCE> 25
 4.247440e+01 2.343133e+01 3.647594e+01 3.822303e+01 3.974818e+01 4.119092e+01 3.216676e+01 2.789572e+01 2.664448e+01 2.611891e+01 2.622755e+01 2.056927e+01 2.704214e+00 4.326285e+00 4.058771e+00 5.182769e+00 4.408346e+00 3.880857e+00 3.853520e+00 3.987212e+00 3.849619e+00 4.040583e+00 3.941524e+00 3.485166e+00 5.446235e-03
<GCONST> 9.835502e+01
<MIXTURE> 86 1.273941e-02
<MEAN> 25
 -3.689341e+00 -9.470949e-01 -6.818899e-01 5.047170e+00 3.922053e+00 4.190241e+00 4.572898e+00 4.188684e+00 4.564176e+00 3.626613e+00 4.392836e+00 2.560418e+00 3.000126e-02 1.821159e-02 -3.404048e-02 -3.028969e-02 -1.232349e-01 -1.422252e-01 -1.400159e-01 -3.890141e-01 -3.480349e-01 -3.453782e-01 -2.095180e-01 -1.149500e-01 -2.417426e-04
<VARIANCE> 25
 1.018543e+01 5.065181e+00 8.296512e+00 1.516430e+01 1.673581e+01 1.262661e+01 1.272469e+01 1.279921e+01 1.260894e+01 1.244766e+01 1.401008e+01 1.213034e+01 1.242849e-01 1.895958e-01 3.502132e-01 4.337558e-01 5.714359e-01 8.141376e-01 7.466461e-01 7.169377e-01 7.327491e-01 8.292511e-01 7.920151e-01 9.908471e-01 7.415414e-05
<GCONST> 5.809016e+01
<MIXTURE> 87 1.100681e-02
<MEAN> 25
 -3.302759e+00 4.543597e+00 3.506123e+00 7.024388e+00 5.570996e+00 8.927876e-01 1.643639e+00 -9.466202e-01 -5.881671e-01 -8.884204e-01 -7.869803e-01 3.000961e-02 -2.152136e+00 -2.787280e+00 -2.103008e+00 -2.225991e+00 -3.763966e-02 -1.827479e-01 6.134069e-01 1.299795e+00 1.404006e+00 1.031035e+00 9.450331e-01 1.004008e+00 1.047166e-01
<VARIANCE> 25
 3.812146e+01 2.954867e+01 2.806216e+01 3.372141e+01 2.872394e+01 3.191935e+01 2.814964e+01 2.731148e+01 2.594489e+01 2.470155e+01 2.482148e+01 2.316336e+01 3.861361e+00 2.714985e+00 3.917717e+00 3.654418e+00 4.794703e+00 4.312051e+00 4.156444e+00 3.898692e+00 3.535674e+00 3.386740e+00 3.383892e+00 2.732975e+00 4.956689e-03
<GCONST> 9.633485e+01
<MIXTURE> 88 1.256585e-02
<MEAN> 25
 -3.201075e+00 -6.821652e-01 -7.648177e-01 4.167430e+00 3.512748e+00 2.693764e+00 3.704374e+00 3.010387e+00 2.878167e+00 2.174356e+00 2.791683e+00 2.129745e+00 8.106576e-02 1.723351e-01 2.821394e-01 4.935818e-01 3.292555e-01 1.808941e-01 1.329808e-01 -1.267380e-01 -2.318728e-01 -1.575397e-01 -1.873674e-01 -8.644293e-03 -1.990920e-03
<VARIANCE> 25
 9.189881e+00 7.897862e+00 1.257830e+01 1.482641e+01 1.890923e+01 1.718155e+01 1.793344e+01 1.598650e+01 1.547463e+01 1.403140e+01 1.670949e+01 1.284549e+01 1.021460e+00 1.337275e+00 1.691103e+00 2.046907e+00 2.287632e+00 2.532356e+00 2.265838e+00 2.258169e+00 2.101813e+00 2.055155e+00 1.756195e+00 1.586015e+00 1.309416e-03
<GCONST> 7.844348e+01
<MIXTURE> 89 9.333527e-03
<MEAN> 25
 6.077168e+00 -6.830894e+00 -3.558702e+00 -3.168036e+00 -1.611158e+00 -5.590980e+00 -6.118257e+00 4.100513e+00 3.474497e+00 -2.804376e+00 -6.030452e+00 -3.286722e+00 -5.709866e-01 1.566620e-01 1.990104e+00 9.019248e-01 -1.869103e+00 -1.649085e+00 8.837935e-01 1.264440e+00 -7.887704e-01 -1.316231e+00 4.039588e-01 1.536375e+00 -4.876922e-03
<VARIANCE> 25
 9.000345e+00 2.672152e+01 3.107052e+01 3.019968e+01 3.609644e+01 4.165399e+01 5.965627e+01 4.211826e+01 3.908442e+01 4.242122e+01 3.582084e+01 3.239089e+01 3.539035e-01 8.414769e-01 1.473234e+00 1.317286e+00 1.917969e+00 2.125875e+00 2.576849e+00 2.041993e+00 2.249978e+00 2.128930e+00 2.330842e+00 1.470523e+00 3.668462e-04
<GCONST> 8.529366e+01
<MIXTURE> 90 7.114505e-03
<MEAN> 25
 2.314314e+00 -9.236894e+00 -4.550157e+00 -3.821080e+00 -3.324654e+00 -1.685679e+00 3.223012e+00 1.014077e+00 -7.432832e+00 -9.832804e+00 -3.176731e+00 -5.440273e-01 -1.436655e-01 8.821600e-01 1.128204e+00 -8.739122e-01 -1.630847e+00 -2.522545e-01 5.514068e-01 -2.558760e-01 -1.418246e-01 7.053974e-01 1.185594e-01 -5.706099e-01 -1.121872e-02
<VARIANCE> 25
 8.356572e+00 2.086628e+01 1.954274e+01 2.704477e+01 3.498693e+01 3.078880e+01 3.686894e+01 3.497841e+01 3.391353e+01 2.884630e+01 2.765587e+01 2.542323e+01 2.195535e-01 5.941653e-01 7.735933e-01 1.032770e+00 1.409508e+00 1.690949e+00 1.860987e+00 1.615446e+00 1.743774e+00 1.696700e+00 1.490803e+00 1.247467e+00 2.039690e-04
<GCONST> 7.787939e+01
<MIXTURE> 91 7.852945e-03
<MEAN> 25
 6.389404e+00 -7.645442e+00 -8.579038e+00 -5.165141e+00 3.968328e+00 -1.195612e-01 -2.191493e+00 7.287678e-01 7.826645e-01 -2.943558e+00 -4.933276e+00 -5.180865e+00 2.594414e-01 1.003181e+00 1.918301e-01 4.491291e-01 -7.078540e-02 -5.603587e-01 -3.894325e-01 -1.014997e-01 -1.028468e-01 4.570386e-01 -1.180909e-01 2.108025e-01 -3.499414e-02
<VARIANCE> 25
 1.012979e+01 2.266294e+01 1.993526e+01 4.058152e+01 3.519438e+01 5.548055e+01 5.442908e+01 3.966235e+01 5.194530e+01 6.424600e+01 3.828969e+01 4.150767e+01 4.457171e-01 8.870832e-01 1.127362e+00 1.386688e+00 2.196088e+00 2.379150e+00 2.371393e+00 2.389999e+00 2.246014e+00 2.217809e+00 2.013488e+00 1.821019e+00 5.858919e-04
<GCONST> 8.718679e+01
<MIXTURE> 92 7.852945e-03
<MEAN> 25
 6.389404e+00 -7.645442e+00 -8.579038e+00 -5.165141e+00 3.968328e+00 -1.195612e-01 -2.191493e+00 7.287678e-01 7.826645e-01 -2.943558e+00 -4.933276e+00 -5.180865e+00 2.594414e-01 1.003181e+00 1.918301e-01 4.491291e-01 -7.078540e-02 -5.603587e-01 -3.894325e-01 -1.014997e-01 -1.028468e-01 4.570386e-01 -1.180909e-01 2.108025e-01 -3.499414e-02
<VARIANCE> 25
 1.012979e+01 2.266294e+01 1.993526e+01 4.058152e+01 3.519438e+01 5.548055e+01 5.442908e+01 3.966235e+01 5.194530e+01 6.424600e+01 3.828969e+01 4.150767e+01 4.457171e-01 8.870832e-01 1.127362e+00 1.386688e+00 2.196088e+00 2.379150e+00 2.371393e+00 2.389999e+00 2.246014e+00 2.217809e+00 2.013488e+00 1.821019e+00 5.858919e-04
<GCONST> 8.718679e+01
<MIXTURE> 93 6.122769e-03
<MEAN> 25
 -6.811996e+00 -9.576833e-01 -2.393083e+00 5.783574e+00 5.902400e+00 3.928301e+00 6.105973e+00 3.599110e+00 4.106699e+00 2.497529e+00 1.820494e+00 3.701590e+00 -6.287679e-02 -1.536007e-01 -2.574215e-01 -3.309981e-01 -3.326702e-01 -2.837513e-01 -2.189609e-01 -1.775007e-01 -1.677430e-01 -1.489419e-01 -1.027667e-01 -3.331908e-02 -4.050478e-06
<VARIANCE> 25
 9.136855e+00 6.018759e+00 8.189073e+00 1.140844e+01 1.147764e+01 1.596273e+01 1.533275e+01 1.644023e+01 1.478290e+01 1.455725e+01 1.675446e+01 1.344273e+01 8.343981e-02 1.535575e-01 2.630389e-01 3.798196e-01 4.982982e-01 6.415932e-01 7.787321e-01 8.903818e-01 9.163691e-01 8.753754e-01 8.917456e-01 9.193709e-01 9.999773e-07
<GCONST> 5.361833e+01
<MIXTURE> 94 6.122769e-03
<MEAN> 25
 -6.811996e+00 -9.576833e-01 -2.393083e+00 5.783574e+00 5.902400e+00 3.928301e+00 6.105973e+00 3.599110e+00 4.106699e+00 2.497529e+00 1.820494e+00 3.701590e+00 -6.287679e-02 -1.536007e-01 -2.574215e-01 -3.309981e-01 -3.326702e-01 -2.837513e-01 -2.189609e-01 -1.775007e-01 -1.677430e-01 -1.489419e-01 -1.027667e-01 -3.331908e-02 -4.050478e-06
<VARIANCE> 25
 9.136855e+00 6.018759e+00 8.189073e+00 1.140844e+01 1.147764e+01 1.596273e+01 1.533275e+01 1.644023e+01 1.478290e+01 1.455725e+01 1.675446e+01 1.344273e+01 8.343981e-02 1.535575e-01 2.630389e-01 3.798196e-01 4.982982e-01 6.415932e-01 7.787321e-01 8.903818e-01 9.163691e-01 8.753754e-01 8.917456e-01 9.193709e-01 9.999773e-07
<GCONST> 5.361833e+01
<MIXTURE> 95 5.258835e-03
<MEAN> 25
 -3.801626e+00 -5.157977e-01 -1.547962e+00 3.656240e+00 2.998226e+00 2.195327e+00 3.690949e+00 1.281367e+00 1.489970e+00 8.254067e-01 6.616441e-01 1.717579e+00 1.033328e-01 1.361921e-01 9.998609e-02 -1.480062e-01 -4.706821e-01 -8.203507e-01 -1.075700e+00 -1.225563e+00 -1.243533e+00 -9.248101e-01 -5.037143e-01 -2.648543e-01 -2.946371e-03
<VARIANCE> 25
 1.279634e+01 4.797874e+00 9.291778e+00 1.268593e+01 1.473532e+01 1.542918e+01 1.909900e+01 1.544030e+01 1.528860e+01 1.302925e+01 1.774277e+01 1.311160e+01 1.690467e-01 2.342251e-01 3.804280e-01 5.446118e-01 7.441853e-01 8.907771e-01 7.698576e-01 7.867990e-01 9.089318e-01 9.502187e-01 1.092607e+00 9.293354e-01 6.669929e-05
<GCONST> 6.122855e+01
<MIXTURE> 96 7.034694e-03
<MEAN> 25
 -4.608115e+00 -3.753309e-01 -1.881166e+00 4.587799e+00 3.429102e+00 1.454468e+00 3.050219e+00 1.614509e+00 2.275282e+00 9.762855e-01 9.809279e-01 2.408249e+00 -2.717343e-02 5.060352e-02 2.191572e-01 4.314012e-01 5.397345e-01 5.577624e-01 3.046236e-01 -1.369895e-01 -4.873618e-01 -6.031220e-01 -6.300072e-01 -3.748628e-01 -6.467317e-05
<VARIANCE> 25
 1.182884e+01 8.875884e+00 1.290401e+01 1.623262e+01 1.526327e+01 1.903766e+01 1.811502e+01 1.824850e+01 1.664902e+01 1.551061e+01 1.844467e+01 1.499273e+01 1.429799e-01 2.150153e-01 2.987353e-01 3.830282e-01 4.644088e-01 7.810566e-01 8.514330e-01 1.075955e+00 9.376764e-01 8.640836e-01 8.708822e-01 8.595045e-01 1.165154e-06
<GCONST> 5.767984e+01
<MIXTURE> 97 7.034694e-03
<MEAN> 25
 -4.608115e+00 -3.753309e-01 -1.881166e+00 4.587799e+00 3.429102e+00 1.454468e+00 3.050219e+00 1.614509e+00 2.275282e+00 9.762855e-01 9.809279e-01 2.408249e+00 -2.717343e-02 5.060352e-02 2.191572e-01 4.314012e-01 5.397345e-01 5.577624e-01 3.046236e-01 -1.369895e-01 -4.873618e-01 -6.031220e-01 -6.300072e-01 -3.748628e-01 -6.467317e-05
<VARIANCE> 25
 1.182884e+01 8.875884e+00 1.290401e+01 1.623262e+01 1.526327e+01 1.903766e+01 1.811502e+01 1.824850e+01 1.664902e+01 1.551061e+01 1.844467e+01 1.499273e+01 1.429799e-01 2.150153e-01 2.987353e-01 3.830282e-01 4.644088e-01 7.810566e-01 8.514330e-01 1.075955e+00 9.376764e-01 8.640836e-01 8.708822e-01 8.595045e-01 1.165154e-06
<GCONST> 5.767984e+01
<MIXTURE> 98 9.917808e-03
<MEAN> 25
 -1.467944e+00 9.476676e-01 -1.660484e-01 4.566335e+00 3.666130e+00 2.620555e+00 3.133115e+00 1.690161e+00 1.610755e+00 9.235488e-01 7.388552e-01 1.009062e+00 -1.796587e+00 -1.483571e+00 -1.019076e+00 1.582343e-01 6.279249e-01 8.015032e-01 1.259539e+00 1.446548e+00 1.693131e+00 1.146564e+00 1.318030e+00 9.696994e-01 -3.466144e-02
<VARIANCE> 25
 1.423687e+01 1.987074e+01 3.151188e+01 3.263235e+01 4.266636e+01 3.653358e+01 3.241547e+01 2.890493e+01 2.740940e+01 3.002203e+01 2.653850e+01 2.358062e+01 1.379622e+00 1.513237e+00 2.348305e+00 2.447740e+00 2.861372e+00 2.923985e+00 2.862763e+00 2.765507e+00 2.599924e+00 2.992180e+00 2.757068e+00 2.124495e+00 2.390176e-03
<GCONST> 9.033478e+01
<MIXTURE> 99 6.696178e-03
<MEAN> 25
 -6.364775e+00 9.903815e+00 6.761113e+00 3.441668e+00 9.158494e-01 -5.237638e+00 -1.679148e+00 -4.134918e+00 -3.499496e+00 -3.713676e+00 -1.584888e+00 3.625698e-01 5.636028e-01 -7.224857e-01 3.089445e-01 -3.807267e-01 -1.141007e+00 -5.199298e-01 -3.322248e-01 -2.521109e-01 -1.090443e-01 -5.061332e-02 2.334660e-01 1.671789e-01 1.028273e-02
<VARIANCE> 25
 3.607960e+01 2.594609e+01 4.670544e+01 3.155535e+01 3.637309e+01 3.534179e+01 2.758965e+01 2.929997e+01 2.662295e+01 2.781670e+01 2.062671e+01 2.888628e+01 2.173820e+00 1.874175e+00 1.445498e+00 1.745301e+00 2.651949e+00 2.094880e+00 1.599355e+00 1.648249e+00 1.556136e+00 1.581711e+00 1.315953e+00 1.264694e+00 1.558825e-03
<GCONST> 8.689599e+01
<MIXTURE> 100 4.498084e-03
<MEAN> 25
 -1.598878e+00 6.344827e+00 1.027700e+01 -7.462759e+00 -1.078206e+01 -5.075294e+00 -4.941668e+00 -9.968847e+00 -4.718240e+00 -8.551691e-01 -2.733300e+00 -2.708267e+00 2.917895e+00 -1.260455e+00 1.299659e+00 -2.185945e+00 -3.419489e+00 -7.841161e-01 -1.218778e+00 -8.197802e-01 -1.475479e+00 3.466953e-01 -1.655620e+00 -2.862392e-01 2.015521e-03
<VARIANCE> 25
 1.362666e+01 2.105913e+01 2.246177e+01 2.642710e+01 2.301848e+01 2.372172e+01 2.911146e+01 2.170685e+01 2.748231e+01 2.265230e+01 2.241141e+01 2.134114e+01 1.799129e+00 3.953767e+00 2.919965e+00 4.286306e+00 4.184435e+00 4.537227e+00 4.015484e+00 4.340374e+00 4.167888e+00 3.896067e+00 3.910382e+00 3.225015e+00 1.674840e-03
<GCONST> 9.256865e+01
<MIXTURE> 101 6.007792e-03
<MEAN> 25
 8.096003e+00 -3.488270e+00 -6.312581e+00 -6.867228e+00 8.470113e-01 -1.258898e+00 -1.058911e+01 -2.059139e+00 1.622458e+00 2.714305e+00 -2.387535e+00 -5.142946e+00 6.735079e-01 6.510634e-01 -1.457071e+00 -1.610713e+00 1.032395e+00 2.318711e+00 1.970087e-01 -1.460588e+00 -1.064588e+00 1.036852e+00 1.373430e+00 -4.156200e-01 -4.808921e-03
<VARIANCE> 25
 9.271800e+00 1.671486e+01 2.984283e+01 4.279330e+01 3.622889e+01 3.581785e+01 3.703080e+01 3.622829e+01 3.786563e+01 4.399006e+01 5.178025e+01 2.422974e+01 2.937047e-01 6.693032e-01 1.172403e+00 1.551497e+00 1.687600e+00 2.096348e+00 2.086343e+00 1.992378e+00 2.349146e+00 2.216562e+00 1.785550e+00 1.935372e+00 3.449565e-04
<GCONST> 8.364280e+01
<MIXTURE> 102 6.007792e-03
<MEAN> 25
 8.096003e+00 -3.488270e+00 -6.312581e+00 -6.867228e+00 8.470113e-01 -1.258898e+00 -1.058911e+01 -2.059139e+00 1.622458e+00 2.714305e+00 -2.387535e+00 -5.142946e+00 6.735079e-01 6.510634e-01 -1.457071e+00 -1.610713e+00 1.032395e+00 2.318711e+00 1.970087e-01 -1.460588e+00 -1.064588e+00 1.036852e+00 1.373430e+00 -4.156200e-01 -4.808921e-03
<VARIANCE> 25
 9.271800e+00 1.671486e+01 2.984283e+01 4.279330e+01 3.622889e+01 3.581785e+01 3.703080e+01 3.622829e+01 3.786563e+01 4.399006e+01 5.178025e+01 2.422974e+01 2.937047e-01 6.693032e-01 1.172403e+00 1.551497e+00 1.687600e+00 2.096348e+00 2.086343e+00 1.992378e+00 2.349146e+00 2.216562e+00 1.785550e+00 1.935372e+00 3.449565e-04
<GCONST> 8.364280e+01
<MIXTURE> 103 5.694618e-03
<MEAN> 25
 3.366052e+00 -9.477300e+00 -6.130831e+00 -3.089607e+00 -1.332731e+00 -1.971062e+00 2.438308e+00 2.514977e+00 -4.612014e+00 -9.256419e+00 -5.061027e+00 3.630491e-01 -1.576491e-01 -1.488231e+00 -9.805546e-01 3.753846e-01 1.213560e+00 1.020005e+00 1.588023e-01 -2.670810e-01 -7.810751e-01 -9.468637e-01 -3.558275e-02 1.199955e-01 2.693077e-02
<VARIANCE> 25
 1.033884e+01 2.034473e+01 2.291064e+01 3.167315e+01 4.803577e+01 3.500090e+01 4.639694e+01 3.668759e+01 4.211221e+01 2.932288e+01 3.006477e+01 2.639923e+01 6.436517e-01 1.252337e+00 1.537581e+00 1.940033e+00 2.926482e+00 2.410453e+00 2.889882e+00 2.576456e+00 2.562592e+00 2.523794e+00 2.097586e+00 2.016506e+00 8.077986e-04
<GCONST> 8.757143e+01
<MIXTURE> 104 5.694618e-03
<MEAN> 25
 3.366052e+00 -9.477300e+00 -6.130831e+00 -3.089607e+00 -1.332731e+00 -1.971062e+00 2.438308e+00 2.514977e+00 -4.612014e+00 -9.256419e+00 -5.061027e+00 3.630491e-01 -1.576491e-01 -1.488231e+00 -9.805546e-01 3.753846e-01 1.213560e+00 1.020005e+00 1.588023e-01 -2.670810e-01 -7.810751e-01 -9.468637e-01 -3.558275e-02 1.199955e-01 2.693077e-02
<VARIANCE> 25
 1.033884e+01 2.034473e+01 2.291064e+01 3.167315e+01 4.803577e+01 3.500090e+01 4.639694e+01 3.668759e+01 4.211221e+01 2.932288e+01 3.006477e+01 2.639923e+01 6.436517e-01 1.252337e+00 1.537581e+00 1.940033e+00 2.926482e+00 2.410453e+00 2.889882e+00 2.576456e+00 2.562592e+00 2.523794e+00 2.097586e+00 2.016506e+00 8.077986e-04
<GCONST> 8.757143e+01
<MIXTURE> 105 4.710235e-03
<MEAN> 25
 1.957237e+00 -1.339897e+00 8.303237e+00 -2.631002e+00 -1.071946e+01 -4.631569e+00 -3.974649e+00 -1.030753e+00 -3.852325e+00 -2.995261e+00 1.324523e+00 -1.252536e+00 -1.147452e-02 9.360719e-03 3.046347e-02 -6.210519e-02 2.679037e-02 5.793623e-02 -4.299887e-02 5.342186e-02 -3.210986e-02 3.725605e-02 2.496044e-02 2.039827e-02 -2.664206e-03
<VARIANCE> 25
 1.257955e+01 2.610190e+01 4.366193e+01 4.066586e+01 4.017368e+01 4.974849e+01 3.744443e+01 4.026385e+01 3.649708e+01 3.860154e+01 3.855558e+01 2.832322e+01 8.491939e-02 1.857188e-01 3.425015e-01 3.060260e-01 3.679968e-01 4.346145e-01 4.760692e-01 4.819039e-01 4.972322e-01 4.431712e-01 4.305243e-01 4.242950e-01 9.532180e-05
<GCONST> 6.620654e+01
<MIXTURE> 106 4.710235e-03
<MEAN> 25
 1.957237e+00 -1.339897e+00 8.303237e+00 -2.631002e+00 -1.071946e+01 -4.631569e+00 -3.974649e+00 -1.030753e+00 -3.852325e+00 -2.995261e+00 1.324523e+00 -1.252536e+00 -1.147452e-02 9.360719e-03 3.046347e-02 -6.210519e-02 2.679037e-02 5.793623e-02 -4.299887e-02 5.342186e-02 -3.210986e-02 3.725605e-02 2.496044e-02 2.039827e-02 -2.664206e-03
<VARIANCE> 25
 1.257955e+01 2.610190e+01 4.366193e+01 4.066586e+01 4.017368e+01 4.974849e+01 3.744443e+01 4.026385e+01 3.649708e+01 3.860154e+01 3.855558e+01 2.832322e+01 8.491939e-02 1.857188e-01 3.425015e-01 3.060260e-01 3.679968e-01 4.346145e-01 4.760692e-01 4.819039e-01 4.972322e-01 4.431712e-01 4.305243e-01 4.242950e-01 9.532180e-05
<GCONST> 6.620654e+01
<MIXTURE> 107 5.452374e-03
<MEAN> 25
 8.641444e+00 -2.310515e+00 -8.040656e+00 -9.561984e+00 1.965665e+00 2.958395e+00 -8.641849e+00 -4.554089e+00 -8.842574e-01 3.388968e+00 8.548208e-01 -5.074637e+00 -6.099533e-01 -7.684502e-01 8.360144e-01 1.773368e+00 2.254574e-01 -2.012919e+00 -9.217648e-01 8.486517e-01 1.767494e+00 4.708491e-02 -1.658118e+00 -8.203321e-01 -1.792713e-03
<VARIANCE> 25
 9.248218e+00 2.047003e+01 2.835412e+01 4.281219e+01 3.577149e+01 3.848050e+01 5.117538e+01 3.627356e+01 4.579860e+01 4.174109e+01 5.137964e+01 3.037072e+01 3.557560e-01 9.686503e-01 1.461969e+00 2.414022e+00 2.286745e+00 2.824248e+00 2.614761e+00 2.542053e+00 2.297720e+00 3.031332e+00 1.945560e+00 2.206964e+00 7.029701e-04
<GCONST> 8.804714e+01
<MIXTURE> 108 5.452374e-03
<MEAN> 25
 8.641444e+00 -2.310515e+00 -8.040656e+00 -9.561984e+00 1.965665e+00 2.958395e+00 -8.641849e+00 -4.554089e+00 -8.842574e-01 3.388968e+00 8.548208e-01 -5.074637e+00 -6.099533e-01 -7.684502e-01 8.360144e-01 1.773368e+00 2.254574e-01 -2.012919e+00 -9.217648e-01 8.486517e-01 1.767494e+00 4.708491e-02 -1.658118e+00 -8.203321e-01 -1.792713e-03
<VARIANCE> 25
 9.248218e+00 2.047003e+01 2.835412e+01 4.281219e+01 3.577149e+01 3.848050e+01 5.117538e+01 3.627356e+01 4.579860e+01 4.174109e+01 5.137964e+01 3.037072e+01 3.557560e-01 9.686503e-01 1.461969e+00 2.414022e+00 2.286745e+00 2.824248e+00 2.614761e+00 2.542053e+00 2.297720e+00 3.031332e+00 1.945560e+00 2.206964e+00 7.029701e-04
<GCONST> 8.804714e+01
<MIXTURE> 109 6.661064e-03
<MEAN> 25
 4.042378e+00 -1.045033e+01 -8.224485e+00 -1.351427e+00 2.732802e+00 -3.521259e-02 -8.718318e-02 1.426223e+00 -2.575739e+00 -8.311468e+00 -5.351712e+00 6.016187e-02 -3.385984e-02 -1.337867e-01 -3.460587e-02 2.494444e-01 1.956584e-01 1.141217e-01 -1.289176e-01 -1.055737e-01 -3.978257e-02 -1.322027e-01 2.186243e-01 1.538143e-02 -3.563962e-03
<VARIANCE> 25
 9.149114e+00 1.903670e+01 2.046276e+01 3.116045e+01 4.051581e+01 3.647361e+01 4.623965e+01 3.419563e+01 4.567686e+01 3.534050e+01 2.946805e+01 2.794798e+01 1.918265e-01 4.216616e-01 5.363853e-01 6.332805e-01 1.224727e+00 9.977562e-01 1.251590e+00 1.088945e+00 1.112957e+00 9.499969e-01 8.741276e-01 8.835505e-01 1.827931e-04
<GCONST> 7.443509e+01
<MIXTURE> 110 6.661064e-03
<MEAN> 25
 4.042378e+00 -1.045033e+01 -8.224485e+00 -1.351427e+00 2.732802e+00 -3.521259e-02 -8.718318e-02 1.426223e+00 -2.575739e+00 -8.311468e+00 -5.351712e+00 6.016187e-02 -3.385984e-02 -1.337867e-01 -3.460587e-02 2.494444e-01 1.956584e-01 1.141217e-01 -1.289176e-01 -1.055737e-01 -3.978257e-02 -1.322027e-01 2.186243e-01 1.538143e-02 -3.563962e-03
<VARIANCE> 25
 9.149114e+00 1.903670e+01 2.046276e+01 3.116045e+01 4.051581e+01 3.647361e+01 4.623965e+01 3.419563e+01 4.567686e+01 3.534050e+01 2.946805e+01 2.794798e+01 1.918265e-01 4.216616e-01 5.363853e-01 6.332805e-01 1.224727e+00 9.977562e-01 1.251590e+00 1.088945e+00 1.112957e+00 9.499969e-01 8.741276e-01 8.835505e-01 1.827931e-04
<GCONST> 7.443509e+01
<MIXTURE> 111 4.337247e-03
<MEAN> 25
 -1.070510e+00 -3.286709e-01 -4.637376e-01 3.034470e-01 -4.342803e-02 -2.935198e-01 -2.305306e-01 -3.591633e-01 -5.003250e-01 -6.777199e-01 -6.897497e-01 3.368844e-01 1.704626e-03 -1.703131e-03 -2.398032e-02 -1.218903e-01 2.421819e-02 5.250905e-02 -5.674221e-02 -6.464250e-02 -9.938625e-02 -1.579301e-01 -9.278984e-02 -1.669425e-01 -5.714653e-04
<VARIANCE> 25
 3.671145e+00 2.758967e+00 5.165805e+00 6.336863e+00 7.811815e+00 1.337092e+01 9.287628e+00 8.712288e+00 8.428409e+00 8.587181e+00 9.073731e+00 7.516495e+00 9.219810e-02 1.497244e-01 2.510405e-01 4.102118e-01 6.374277e-01 9.669116e-01 8.150394e-01 7.626699e-01 8.806504e-01 8.036960e-01 7.643006e-01 7.893776e-01 4.882960e-05
<GCONST> 5.100371e+01
<MIXTURE> 112 4.337247e-03
<MEAN> 25
 -1.070510e+00 -3.286709e-01 -4.637376e-01 3.034470e-01 -4.342803e-02 -2.935198e-01 -2.305306e-01 -3.591633e-01 -5.003250e-01 -6.777199e-01 -6.897497e-01 3.368844e-01 1.704626e-03 -1.703131e-03 -2.398032e-02 -1.218903e-01 2.421819e-02 5.250905e-02 -5.674221e-02 -6.464250e-02 -9.938625e-02 -1.579301e-01 -9.278984e-02 -1.669425e-01 -5.714653e-04
<VARIANCE> 25
 3.671145e+00 2.758967e+00 5.165805e+00 6.336863e+00 7.811815e+00 1.337092e+01 9.287628e+00 8.712288e+00 8.428409e+00 8.587181e+00 9.073731e+00 7.516495e+00 9.219810e-02 1.497244e-01 2.510405e-01 4.102118e-01 6.374277e-01 9.669116e-01 8.150394e-01 7.626699e-01 8.806504e-01 8.036960e-01 7.643006e-01 7.893776e-01 4.882960e-05
<GCONST> 5.100371e+01
<MIXTURE> 113 5.938666e-03
<MEAN> 25
 9.972833e+00 1.754623e+00 -8.777398e+00 -1.704262e+01 -1.035057e+00 5.659042e+00 -5.279816e+00 -1.468220e+00 -5.693549e+00 -4.948083e-01 2.984598e-01 -1.992520e-01 4.824175e-03 1.388534e-02 -5.923567e-02 -1.128584e-01 1.042491e-01 1.503603e-01 5.900103e-02 3.661749e-02 -5.598515e-02 -5.039345e-02 1.803298e-01 3.521833e-02 -1.406553e-03
<VARIANCE> 25
 8.921229e+00 1.638290e+01 2.969002e+01 3.422995e+01 5.271166e+01 3.385054e+01 3.968966e+01 3.913124e+01 3.736614e+01 4.638175e+01 3.627980e+01 2.843211e+01 1.217351e-01 3.204334e-01 3.161727e-01 6.317728e-01 6.125606e-01 6.534436e-01 7.763646e-01 8.453914e-01 9.609687e-01 9.062192e-01 7.248939e-01 7.132045e-01 1.247558e-04
<GCONST> 7.110823e+01
<MIXTURE> 114 5.938666e-03
<MEAN> 25
 9.972833e+00 1.754623e+00 -8.777398e+00 -1.704262e+01 -1.035057e+00 5.659042e+00 -5.279816e+00 -1.468220e+00 -5.693549e+00 -4.948083e-01 2.984598e-01 -1.992520e-01 4.824175e-03 1.388534e-02 -5.923567e-02 -1.128584e-01 1.042491e-01 1.503603e-01 5.900103e-02 3.661749e-02 -5.598515e-02 -5.039345e-02 1.803298e-01 3.521833e-02 -1.406553e-03
<VARIANCE> 25
 8.921229e+00 1.638290e+01 2.969002e+01 3.422995e+01 5.271166e+01 3.385054e+01 3.968966e+01 3.913124e+01 3.736614e+01 4.638175e+01 3.627980e+01 2.843211e+01 1.217351e-01 3.204334e-01 3.161727e-01 6.317728e-01 6.125606e-01 6.534436e-01 7.763646e-01 8.453914e-01 9.609687e-01 9.062192e-01 7.248939e-01 7.132045e-01 1.247558e-04
<GCONST> 7.110823e+01
<MIXTURE> 115 2.935202e-03
<MEAN> 25
 -3.663413e+00 -6.477278e-01 -2.852842e+00 3.277107e+00 2.303740e+00 -3.687816e-01 1.920935e+00 4.034797e-01 1.260742e+00 -2.500768e-01 -3.270100e-02 2.352608e+00 -3.808232e-03 -4.551476e-02 -2.006723e-01 -3.911643e-01 -5.973490e-01 -7.033430e-01 -5.561187e-01 -5.076097e-01 -4.531324e-01 -4.514852e-01 -3.420059e-01 -1.657863e-01 5.432093e-05
<VARIANCE> 25
 9.729381e+00 9.192175e+00 1.308773e+01 1.362675e+01 1.283313e+01 1.687844e+01 1.698481e+01 1.945632e+01 1.693660e+01 1.661429e+01 1.829717e+01 1.491779e+01 2.232833e-01 3.389897e-01 4.630316e-01 5.481746e-01 5.990376e-01 7.823898e-01 9.659193e-01 1.114571e+00 1.220750e+00 9.674976e-01 9.934207e-01 1.014433e+00 1.097860e-06
<GCONST> 5.986748e+01
<MIXTURE> 116 2.935202e-03
<MEAN> 25
 -3.663413e+00 -6.477278e-01 -2.852842e+00 3.277107e+00 2.303740e+00 -3.687816e-01 1.920935e+00 4.034797e-01 1.260742e+00 -2.500768e-01 -3.270100e-02 2.352608e+00 -3.808232e-03 -4.551476e-02 -2.006723e-01 -3.911643e-01 -5.973490e-01 -7.033430e-01 -5.561187e-01 -5.076097e-01 -4.531324e-01 -4.514852e-01 -3.420059e-01 -1.657863e-01 5.432093e-05
<VARIANCE> 25
 9.729381e+00 9.192175e+00 1.308773e+01 1.362675e+01 1.283313e+01 1.687844e+01 1.698481e+01 1.945632e+01 1.693660e+01 1.661429e+01 1.829717e+01 1.491779e+01 2.232833e-01 3.389897e-01 4.630316e-01 5.481746e-01 5.990376e-01 7.823898e-01 9.659193e-01 1.114571e+00 1.220750e+00 9.674976e-01 9.934207e-01 1.014433e+00 1.097860e-06
<GCONST> 5.986748e+01
<MIXTURE> 117 6.506003e-03
<MEAN> 25
 -4.644027e+00 1.117539e+00 1.054409e+00 9.756168e+00 6.259692e+00 6.256547e+00 6.461505e+00 5.043151e+00 6.384003e+00 4.927506e+00 6.366388e+00 2.709961e+00 -7.515924e-02 -2.340339e-01 -3.583308e-01 -4.198886e-01 -3.674125e-01 -3.025875e-01 -2.874482e-01 -3.317671e-01 -3.918631e-01 -3.687374e-01 -2.628797e-01 -1.156927e-01 -9.020283e-06
<VARIANCE> 25
 7.187050e+00 8.751484e+00 9.806952e+00 1.432481e+01 1.561464e+01 1.534617e+01 1.773161e+01 1.796449e+01 1.641070e+01 1.637826e+01 1.673963e+01 1.475167e+01 2.166464e-01 3.074974e-01 4.260291e-01 6.169790e-01 8.536636e-01 1.055296e+00 1.177391e+00 1.233059e+00 1.223803e+00 1.194770e+00 1.167196e+00 1.113861e+00 9.998603e-07
<GCONST> 6.042953e+01
<MIXTURE> 118 6.506003e-03
<MEAN> 25
 -4.644027e+00 1.117539e+00 1.054409e+00 9.756168e+00 6.259692e+00 6.256547e+00 6.461505e+00 5.043151e+00 6.384003e+00 4.927506e+00 6.366388e+00 2.709961e+00 -7.515924e-02 -2.340339e-01 -3.583308e-01 -4.198886e-01 -3.674125e-01 -3.025875e-01 -2.874482e-01 -3.317671e-01 -3.918631e-01 -3.687374e-01 -2.628797e-01 -1.156927e-01 -9.020283e-06
<VARIANCE> 25
 7.187050e+00 8.751484e+00 9.806952e+00 1.432481e+01 1.561464e+01 1.534617e+01 1.773161e+01 1.796449e+01 1.641070e+01 1.637826e+01 1.673963e+01 1.475167e+01 2.166464e-01 3.074974e-01 4.260291e-01 6.169790e-01 8.536636e-01 1.055296e+00 1.177391e+00 1.233059e+00 1.223803e+00 1.194770e+00 1.167196e+00 1.113861e+00 9.998603e-07
<GCONST> 6.042953e+01
<MIXTURE> 119 4.297961e-03
<MEAN> 25
 -4.801097e+00 -7.354910e+00 2.146346e+00 1.932094e+00 2.118170e+00 2.164370e-01 5.105422e+00 5.812664e+00 1.175047e+00 9.571283e-01 6.459652e+00 1.582839e+00 -4.511393e-02 -7.737028e-02 3.697018e-02 -5.489632e-02 -1.297369e-01 -1.830551e-01 -6.515437e-02 -7.788754e-03 -8.973316e-02 -1.125431e-01 -6.453987e-02 -6.381870e-02 9.723055e-04
<VARIANCE> 25
 8.949384e+00 1.137368e+01 1.620478e+01 1.971309e+01 2.257140e+01 2.249690e+01 2.519385e+01 2.645852e+01 2.448460e+01 2.739729e+01 2.039629e+01 1.995073e+01 1.593707e-01 2.808481e-01 4.534054e-01 6.451882e-01 8.286492e-01 1.019143e+00 1.087601e+00 1.307078e+00 1.304963e+00 1.234430e+00 1.171026e+00 1.106054e+00 2.388164e-04
<GCONST> 6.982852e+01
<MIXTURE> 120 4.297961e-03
<MEAN> 25
 -4.801097e+00 -7.354910e+00 2.146346e+00 1.932094e+00 2.118170e+00 2.164370e-01 5.105422e+00 5.812664e+00 1.175047e+00 9.571283e-01 6.459652e+00 1.582839e+00 -4.511393e-02 -7.737028e-02 3.697018e-02 -5.489632e-02 -1.297369e-01 -1.830551e-01 -6.515437e-02 -7.788754e-03 -8.973316e-02 -1.125431e-01 -6.453987e-02 -6.381870e-02 9.723055e-04
<VARIANCE> 25
 8.949384e+00 1.137368e+01 1.620478e+01 1.971309e+01 2.257140e+01 2.249690e+01 2.519385e+01 2.645852e+01 2.448460e+01 2.739729e+01 2.039629e+01 1.995073e+01 1.593707e-01 2.808481e-01 4.534054e-01 6.451882e-01 8.286492e-01 1.019143e+00 1.087601e+00 1.307078e+00 1.304963e+00 1.234430e+00 1.171026e+00 1.106054e+00 2.388164e-04
<GCONST> 6.982852e+01
<MIXTURE> 121 4.567511e-03
<MEAN> 25
 1.861663e-01 -2.437005e+00 4.960202e+00 -1.257093e+01 -1.231378e+01 -1.584095e+00 9.024775e-01 -5.059787e+00 -4.188488e+00 -5.356807e-01 -5.359434e+00 -4.287642e+00 1.742000e-02 1.160436e-01 -5.003680e-02 7.598440e-02 1.526174e-01 8.313417e-02 -8.449224e-02 -1.608829e-01 -2.409491e-01 -2.367302e-01 -9.663314e-02 1.498061e-02 -7.384547e-03
<VARIANCE> 25
 7.483496e+00 1.529147e+01 1.763699e+01 2.257019e+01 2.645868e+01 2.864638e+01 2.880629e+01 2.397519e+01 3.428997e+01 2.746675e+01 1.970563e+01 2.056978e+01 1.530952e-01 6.308451e-01 6.145661e-01 7.009254e-01 7.577710e-01 1.144734e+00 1.088505e+00 1.113924e+00 1.224444e+00 1.192280e+00 9.453927e-01 8.608269e-01 2.083766e-04
<GCONST> 7.126141e+01
<MIXTURE> 122 4.567511e-03
<MEAN> 25
 1.861663e-01 -2.437005e+00 4.960202e+00 -1.257093e+01 -1.231378e+01 -1.584095e+00 9.024775e-01 -5.059787e+00 -4.188488e+00 -5.356807e-01 -5.359434e+00 -4.287642e+00 1.742000e-02 1.160436e-01 -5.003680e-02 7.598440e-02 1.526174e-01 8.313417e-02 -8.449224e-02 -1.608829e-01 -2.409491e-01 -2.367302e-01 -9.663314e-02 1.498061e-02 -7.384547e-03
<VARIANCE> 25
 7.483496e+00 1.529147e+01 1.763699e+01 2.257019e+01 2.645868e+01 2.864638e+01 2.880629e+01 2.397519e+01 3.428997e+01 2.746675e+01 1.970563e+01 2.056978e+01 1.530952e-01 6.308451e-01 6.145661e-01 7.009254e-01 7.577710e-01 1.144734e+00 1.088505e+00 1.113924e+00 1.224444e+00 1.192280e+00 9.453927e-01 8.608269e-01 2.083766e-04
<GCONST> 7.126141e+01
<MIXTURE> 123 4.393044e-03
<MEAN> 25
 -2.326532e+00 6.529121e-01 3.598511e-01 4.110361e+00 3.531912e+00 2.061407e+00 1.757550e+00 -1.559777e-01 -7.857893e-03 -4.900664e-01 -1.727379e-01 2.964031e-01 -4.436199e-01 -7.062638e-01 -8.879088e-01 -6.068091e-01 -4.753457e-01 3.793736e-03 1.833864e-01 3.991213e-01 6.443778e-01 5.931966e-01 6.929117e-01 5.734828e-01 -8.120236e-03
<VARIANCE> 25
 9.053304e+00 6.737389e+00 1.093057e+01 1.514246e+01 1.779157e+01 2.178269e+01 2.004058e+01 1.349507e+01 1.404076e+01 1.373907e+01 1.893451e+01 1.251948e+01 2.684989e-01 2.882477e-01 4.673916e-01 6.461228e-01 8.728462e-01 1.145436e+00 1.008023e+00 9.338685e-01 1.038412e+00 9.931118e-01 7.824524e-01 8.792722e-01 1.118776e-04
<GCONST> 6.419904e+01
<MIXTURE> 124 4.069876e-03
<MEAN> 25
 -6.379482e+00 -1.176110e+00 -2.840900e+00 4.964226e+00 4.866492e+00 3.323912e+00 5.264266e+00 2.522120e+00 3.101847e+00 1.252265e+00 1.110464e+00 2.984073e+00 -2.030469e-01 -3.203250e-01 -3.637999e-01 -2.110280e-01 1.381861e-01 5.229264e-01 8.078969e-01 8.570881e-01 6.470175e-01 3.181329e-01 7.623896e-02 -2.208027e-02 6.228751e-06
<VARIANCE> 25
 1.185144e+01 6.873227e+00 1.111000e+01 1.277200e+01 1.220079e+01 1.952815e+01 1.577951e+01 1.675660e+01 1.555874e+01 1.582515e+01 1.891727e+01 1.434211e+01 1.043869e-01 1.682932e-01 2.678970e-01 4.156835e-01 6.100081e-01 7.127787e-01 7.396191e-01 8.224695e-01 9.178694e-01 9.808017e-01 1.006994e+00 9.848638e-01 1.815167e-05
<GCONST> 5.886574e+01
<MIXTURE> 125 4.069876e-03
<MEAN> 25
 -6.379482e+00 -1.176110e+00 -2.840900e+00 4.964226e+00 4.866492e+00 3.323912e+00 5.264266e+00 2.522120e+00 3.101847e+00 1.252265e+00 1.110464e+00 2.984073e+00 -2.030469e-01 -3.203250e-01 -3.637999e-01 -2.110280e-01 1.381861e-01 5.229264e-01 8.078969e-01 8.570881e-01 6.470175e-01 3.181329e-01 7.623896e-02 -2.208027e-02 6.228751e-06
<VARIANCE> 25
 1.185144e+01 6.873227e+00 1.111000e+01 1.277200e+01 1.220079e+01 1.952815e+01 1.577951e+01 1.675660e+01 1.555874e+01 1.582515e+01 1.891727e+01 1.434211e+01 1.043869e-01 1.682932e-01 2.678970e-01 4.156835e-01 6.100081e-01 7.127787e-01 7.396191e-01 8.224695e-01 9.178694e-01 9.808017e-01 1.006994e+00 9.848638e-01 1.815167e-05
<GCONST> 5.886574e+01
<MIXTURE> 126 2.402244e-03
<MEAN> 25
 -3.372020e+00 -6.174687e+00 -4.815376e+00 1.973536e+00 3.776594e+00 -2.951382e+00 -1.455898e-01 3.103756e+00 3.008545e+00 -2.406927e+00 -1.187772e+00 2.797064e+00 -5.028428e-03 -1.522818e-02 -4.816210e-02 -1.588796e-01 -3.338769e-01 -4.898550e-01 -3.249007e-01 -1.603613e-01 -1.096097e-01 -1.371214e-01 -1.402453e-01 -3.347463e-02 -2.454173e-03
<VARIANCE> 25
 7.876710e+00 1.510082e+01 1.415800e+01 1.477056e+01 2.414351e+01 2.203182e+01 2.121184e+01 2.755458e+01 2.949332e+01 2.484822e+01 2.047700e+01 1.807355e+01 1.623247e-01 3.344735e-01 4.504769e-01 5.542911e-01 7.609489e-01 1.056939e+00 1.082651e+00 1.230563e+00 1.369117e+00 1.362103e+00 1.192521e+00 1.122779e+00 2.286921e-04
<GCONST> 6.952658e+01
<MIXTURE> 127 2.402244e-03
<MEAN> 25
 -3.372020e+00 -6.174687e+00 -4.815376e+00 1.973536e+00 3.776594e+00 -2.951382e+00 -1.455898e-01 3.103756e+00 3.008545e+00 -2.406927e+00 -1.187772e+00 2.797064e+00 -5.028428e-03 -1.522818e-02 -4.816210e-02 -1.588796e-01 -3.338769e-01 -4.898550e-01 -3.249007e-01 -1.603613e-01 -1.096097e-01 -1.371214e-01 -1.402453e-01 -3.347463e-02 -2.454173e-03
<VARIANCE> 25
 7.876710e+00 1.510082e+01 1.415800e+01 1.477056e+01 2.414351e+01 2.203182e+01 2.121184e+01 2.755458e+01 2.949332e+01 2.484822e+01 2.047700e+01 1.807355e+01 1.623247e-01 3.344735e-01 4.504769e-01 5.542911e-01 7.609489e-01 1.056939e+00 1.082651e+00 1.230563e+00 1.369117e+00 1.362103e+00 1.192521e+00 1.122779e+00 2.286921e-04
<GCONST> 6.952658e+01
<MIXTURE> 128 3.790457e-03
<MEAN> 25
 -3.888949e+00 1.521677e+00 -3.195187e-01 6.494658e+00 3.582919e+00 1.820570e+00 3.534293e+00 2.351436e+00 3.947376e+00 3.673056e+00 3.717225e+00 3.467091e+00 -3.909343e-01 -1.985330e-01 1.008922e-01 7.250469e-01 1.182064e+00 1.148303e+00 7.165890e-01 1.224765e-01 -4.429896e-01 -7.755052e-01 -6.982032e-01 -3.902075e-01 -3.708226e-05
<VARIANCE> 25
 1.024635e+01 1.160155e+01 1.487285e+01 1.968737e+01 1.999760e+01 2.109672e+01 2.426031e+01 2.453185e+01 2.619961e+01 2.371914e+01 2.676190e+01 1.831889e+01 8.885737e-01 1.133555e+00 1.351262e+00 1.489038e+00 1.568223e+00 1.863760e+00 2.224979e+00 2.323158e+00 2.130543e+00 1.855592e+00 1.751336e+00 1.735711e+00 1.016969e-06
<GCONST> 7.357428e+01
<TRANSP> 3
 0.000000e+00 1.000000e+00 0.000000e+00
 0.000000e+00 9.999990e-01 9.999998e-07
 0.000000e+00 0.000000e+00 0.000000e+00
<ENDHMM>
