~o
<STREAMINFO> 1 25
<VECSIZE> 25<NULLD><MFCC_E_D_N><DIAGC>
~h "jmodel"
<BEGINHMM>
<NUMSTATES> 3
<STATE> 2
<NUMMIXES> 128
<MIXTURE> 1 5.748963e-03
<MEAN> 25
 -2.583823e+00 3.181290e+00 2.312221e+00 8.754851e+00 4.372066e+00 3.449373e+00 4.062643e+00 3.934799e+00 5.831436e+00 5.252972e+00 5.884547e+00 3.080111e+00 -2.004581e+00 -1.634737e+00 -8.641053e-01 1.076167e+00 1.560960e+00 2.232627e+00 2.154652e+00 2.084944e+00 1.693522e+00 1.269737e+00 1.567631e+00 6.134840e-01 -4.692356e-02
<VARIANCE> 25
 1.006357e+01 1.176008e+01 1.494401e+01 1.868275e+01 2.318924e+01 2.214912e+01 2.189376e+01 2.198226e+01 2.100340e+01 2.253833e+01 2.094785e+01 1.708192e+01 1.789057e+00 2.111813e+00 3.026379e+00 3.209582e+00 3.739141e+00 3.356201e+00 3.318449e+00 3.380352e+00 3.521455e+00 3.727005e+00 3.513492e+00 2.834210e+00 3.121557e-03
<GCONST> 8.846366e+01
<MIXTURE> 2 4.549242e-03
<MEAN> 25
 -4.875455e+00 1.311656e+00 9.943433e-01 9.899396e+00 6.691902e+00 7.424373e+00 7.846812e+00 6.957829e+00 8.373074e+00 6.372870e+00 7.624217e+00 3.074577e+00 -6.201948e-02 4.160707e-02 1.425237e-01 2.258718e-01 2.653146e-01 2.813493e-01 2.954087e-01 3.195217e-01 3.497331e-01 3.088837e-01 1.971997e-01 8.010868e-02 1.277531e-06
<VARIANCE> 25
 6.952896e+00 8.901591e+00 1.065086e+01 1.591359e+01 1.723794e+01 1.556385e+01 1.690060e+01 1.848652e+01 1.658788e+01 1.738577e+01 1.811083e+01 1.434056e+01 1.252514e-01 2.266217e-01 3.364579e-01 4.671178e-01 6.492605e-01 8.149093e-01 9.299319e-01 1.003163e+00 1.051648e+00 1.077751e+00 1.075689e+00 1.013921e+00 1.000045e-06
<GCONST> 5.804360e+01
<MIXTURE> 3 4.549242e-03
<MEAN> 25
 -4.875455e+00 1.311656e+00 9.943433e-01 9.899396e+00 6.691902e+00 7.424373e+00 7.846812e+00 6.957829e+00 8.373074e+00 6.372870e+00 7.624217e+00 3.074577e+00 -6.201948e-02 4.160707e-02 1.425237e-01 2.258718e-01 2.653146e-01 2.813493e-01 2.954087e-01 3.195217e-01 3.497331e-01 3.088837e-01 1.971997e-01 8.010868e-02 1.277531e-06
<VARIANCE> 25
 6.952896e+00 8.901591e+00 1.065086e+01 1.591359e+01 1.723794e+01 1.556385e+01 1.690060e+01 1.848652e+01 1.658788e+01 1.738577e+01 1.811083e+01 1.434056e+01 1.252514e-01 2.266217e-01 3.364579e-01 4.671178e-01 6.492605e-01 8.149093e-01 9.299319e-01 1.003163e+00 1.051648e+00 1.077751e+00 1.075689e+00 1.013921e+00 1.000045e-06
<GCONST> 5.804360e+01
<MIXTURE> 4 1.671429e-02
<MEAN> 25
 3.441202e+00 2.550946e+00 -3.800705e+00 9.390084e-01 4.324163e+00 -2.121728e-01 7.307349e-02 9.434871e-03 1.506607e+00 1.302063e+00 -1.888288e+00 1.041048e-01 -2.771970e+00 1.218084e+00 1.778235e+00 3.092232e+00 9.219869e-01 5.019159e-01 1.518172e+00 1.044167e+00 9.764899e-01 4.320081e-01 1.241650e+00 9.000136e-01 -1.041036e-01
<VARIANCE> 25
 2.117719e+01 2.952724e+01 2.922107e+01 3.982422e+01 4.574453e+01 6.880976e+01 6.535136e+01 5.379245e+01 5.544535e+01 6.221919e+01 4.980295e+01 3.594236e+01 2.349188e+00 5.057241e+00 3.736140e+00 4.945655e+00 5.021847e+00 6.164711e+00 6.105355e+00 5.576884e+00 5.969734e+00 6.436633e+00 6.121817e+00 4.466066e+00 6.090868e-03
<GCONST> 1.055079e+02
<MIXTURE> 5 3.206198e-03
<MEAN> 25
 -3.416791e+00 2.181115e+00 6.105155e-01 9.427877e+00 6.696238e+00 6.315629e+00 7.112330e+00 4.723450e+00 5.495606e+00 3.848067e+00 4.658839e+00 2.606478e+00 -3.246877e-01 7.528154e-01 1.224739e+00 1.032670e+00 3.077560e-01 -1.000928e-01 -8.377258e-02 3.349023e-02 4.578535e-01 6.837239e-01 4.039190e-01 8.808181e-02 -2.745545e-05
<VARIANCE> 25
 1.025079e+01 1.394199e+01 2.348458e+01 2.562442e+01 2.022709e+01 1.942557e+01 2.011195e+01 2.035747e+01 2.141907e+01 2.128154e+01 2.409585e+01 1.635977e+01 1.209992e+00 1.244337e+00 1.357126e+00 1.673379e+00 2.284697e+00 2.376362e+00 2.301500e+00 2.275184e+00 2.315817e+00 2.237998e+00 2.085502e+00 1.873795e+00 1.000647e-06
<GCONST> 7.516675e+01
<MIXTURE> 6 5.475854e-03
<MEAN> 25
 9.702348e+00 -4.177249e-01 -6.691790e+00 -1.104552e+01 -2.117072e+00 6.735029e+00 -5.899872e+00 -5.296699e+00 -3.657200e+00 1.829250e+00 4.644186e+00 -1.252020e+00 4.850894e-01 8.961899e-01 -3.511171e-01 -1.468861e+00 -6.383532e-01 1.314956e+00 1.536742e+00 2.475873e-01 -1.218805e+00 -1.218178e+00 3.230367e-01 1.228668e+00 -8.165003e-03
<VARIANCE> 25
 8.964106e+00 1.707929e+01 2.395573e+01 3.912236e+01 3.678205e+01 3.064832e+01 4.407591e+01 3.807307e+01 4.075621e+01 3.947602e+01 4.210630e+01 2.841935e+01 3.115927e-01 8.574095e-01 9.455480e-01 1.977904e+00 1.605769e+00 2.015869e+00 1.919269e+00 2.051775e+00 2.398784e+00 1.963851e+00 2.246176e+00 1.438422e+00 5.859926e-04
<GCONST> 8.387639e+01
<MIXTURE> 7 5.475854e-03
<MEAN> 25
 9.702348e+00 -4.177249e-01 -6.691790e+00 -1.104552e+01 -2.117072e+00 6.735029e+00 -5.899872e+00 -5.296699e+00 -3.657200e+00 1.829250e+00 4.644186e+00 -1.252020e+00 4.850894e-01 8.961899e-01 -3.511171e-01 -1.468861e+00 -6.383532e-01 1.314956e+00 1.536742e+00 2.475873e-01 -1.218805e+00 -1.218178e+00 3.230367e-01 1.228668e+00 -8.165003e-03
<VARIANCE> 25
 8.964106e+00 1.707929e+01 2.395573e+01 3.912236e+01 3.678205e+01 3.064832e+01 4.407591e+01 3.807307e+01 4.075621e+01 3.947602e+01 4.210630e+01 2.841935e+01 3.115927e-01 8.574095e-01 9.455480e-01 1.977904e+00 1.605769e+00 2.015869e+00 1.919269e+00 2.051775e+00 2.398784e+00 1.963851e+00 2.246176e+00 1.438422e+00 5.859926e-04
<GCONST> 8.387639e+01
<MIXTURE> 8 1.165917e-02
<MEAN> 25
 -4.730235e+00 1.362826e+00 1.292740e+00 9.559735e+00 6.575387e+00 6.255123e+00 6.480023e+00 5.688707e+00 6.659268e+00 5.632536e+00 6.573760e+00 3.153112e+00 -6.298167e-01 -1.425791e+00 -1.071362e+00 -1.731258e+00 -2.311802e-01 -9.455907e-01 -1.777886e-01 -2.896302e-01 -2.530039e-01 -1.740472e-01 -2.133836e-01 8.129645e-02 9.889464e-02
<VARIANCE> 25
 9.340186e+00 9.847066e+00 1.161095e+01 1.605410e+01 1.663501e+01 1.570620e+01 1.812856e+01 1.751122e+01 1.704179e+01 1.737477e+01 1.887377e+01 1.399741e+01 2.757240e+00 2.815414e+00 3.906970e+00 3.761801e+00 3.455957e+00 3.315973e+00 3.129031e+00 3.080720e+00 2.871952e+00 2.655796e+00 2.434829e+00 1.902022e+00 6.681939e-03
<GCONST> 8.628748e+01
<MIXTURE> 9 1.199672e-02
<MEAN> 25
 9.301898e+00 3.394506e+00 -6.209787e+00 -1.067616e+01 -2.213495e+00 4.968989e+00 -2.208721e+00 -2.304502e+00 -5.395152e+00 -1.256785e+00 5.693289e-01 -1.023160e-02 1.441231e+00 -1.286832e-01 -4.914116e-01 -2.704850e+00 -1.646766e+00 8.552936e-01 -9.725277e-01 -2.307196e-01 -1.804470e-01 -5.770800e-01 6.149868e-01 -1.526674e-01 7.334716e-02
<VARIANCE> 25
 1.221820e+01 2.140616e+01 3.355594e+01 5.350350e+01 5.017720e+01 3.229068e+01 4.320235e+01 5.216811e+01 4.207917e+01 4.159629e+01 3.612009e+01 2.692371e+01 2.088156e+00 2.451001e+00 4.573483e+00 4.876276e+00 5.010305e+00 4.096189e+00 4.237761e+00 6.042509e+00 5.039388e+00 4.079854e+00 4.016145e+00 2.804710e+00 2.212885e-03
<GCONST> 9.879798e+01
<MIXTURE> 10 6.596976e-03
<MEAN> 25
 8.209986e-01 7.634291e+00 5.375924e+00 7.148942e+00 1.587355e+00 -2.115133e+00 -5.181955e-01 -1.685394e+00 8.743382e-01 8.599345e-01 8.390025e-01 6.573969e-01 -1.924920e+00 -6.733288e-01 -4.585783e-01 3.028196e+00 2.463265e+00 2.710470e+00 2.373900e+00 2.277870e+00 1.861635e+00 1.545141e+00 2.335874e+00 5.248852e-01 -1.381418e-01
<VARIANCE> 25
 1.954169e+01 2.068609e+01 2.230437e+01 2.906120e+01 3.831289e+01 3.494060e+01 3.514573e+01 3.384101e+01 2.761263e+01 2.904930e+01 2.695883e+01 2.501432e+01 2.234868e+00 3.426157e+00 5.535592e+00 5.169546e+00 5.552316e+00 4.469483e+00 4.699786e+00 4.843588e+00 4.388562e+00 5.021058e+00 4.442178e+00 3.191082e+00 2.696941e-03
<GCONST> 9.745956e+01
<MIXTURE> 11 1.633820e-02
<MEAN> 25
 7.578840e+00 4.195076e+00 3.430316e+00 5.058578e+00 -3.199962e+00 -2.087140e+00 -2.422524e+00 -6.437840e+00 -3.521264e+00 7.735939e-02 -2.477065e+00 -2.120682e+00 -2.987578e-01 5.148458e-01 1.877550e-01 2.484392e-01 5.121909e-01 -8.549070e-02 2.005443e-01 -1.830359e-01 -1.636591e-01 -1.387437e-02 -1.277865e-01 1.531340e-01 -1.624356e-02
<VARIANCE> 25
 1.228419e+01 2.382933e+01 1.997756e+01 3.107120e+01 3.800779e+01 3.799722e+01 4.758751e+01 4.277547e+01 4.220324e+01 3.436913e+01 3.451024e+01 2.865826e+01 9.488842e-01 1.219621e+00 1.657806e+00 2.164977e+00 2.012497e+00 2.140892e+00 2.197204e+00 2.752958e+00 2.108498e+00 1.908863e+00 1.828653e+00 1.565157e+00 9.572575e-04
<GCONST> 8.730428e+01
<MIXTURE> 12 5.904134e-03
<MEAN> 25
 1.076502e+01 3.743663e+00 -4.502462e+00 -1.599280e+01 -8.695920e+00 8.642303e+00 -8.971277e-01 -1.921963e+00 -1.722677e+00 -4.886494e+00 1.774493e+00 7.168882e-01 6.777818e-02 2.937079e-01 7.955520e-02 -3.683452e-01 -3.103075e-01 2.958175e-02 3.055575e-01 4.477556e-01 1.409725e-01 -3.847409e-01 -3.856854e-01 5.380550e-02 -6.304242e-03
<VARIANCE> 25
 8.887484e+00 2.100087e+01 2.335550e+01 3.504583e+01 4.206112e+01 3.096072e+01 4.179598e+01 4.897945e+01 4.406261e+01 3.738728e+01 3.799660e+01 2.892627e+01 2.468060e-01 6.883777e-01 6.860627e-01 1.169886e+00 1.186395e+00 1.053822e+00 1.170998e+00 1.386135e+00 1.240603e+00 1.222200e+00 1.221548e+00 9.566276e-01 5.786257e-04
<GCONST> 7.892131e+01
<MIXTURE> 13 5.904134e-03
<MEAN> 25
 1.076502e+01 3.743663e+00 -4.502462e+00 -1.599280e+01 -8.695920e+00 8.642303e+00 -8.971277e-01 -1.921963e+00 -1.722677e+00 -4.886494e+00 1.774493e+00 7.168882e-01 6.777818e-02 2.937079e-01 7.955520e-02 -3.683452e-01 -3.103075e-01 2.958175e-02 3.055575e-01 4.477556e-01 1.409725e-01 -3.847409e-01 -3.856854e-01 5.380550e-02 -6.304242e-03
<VARIANCE> 25
 8.887484e+00 2.100087e+01 2.335550e+01 3.504583e+01 4.206112e+01 3.096072e+01 4.179598e+01 4.897945e+01 4.406261e+01 3.738728e+01 3.799660e+01 2.892627e+01 2.468060e-01 6.883777e-01 6.860627e-01 1.169886e+00 1.186395e+00 1.053822e+00 1.170998e+00 1.386135e+00 1.240603e+00 1.222200e+00 1.221548e+00 9.566276e-01 5.786257e-04
<GCONST> 7.892131e+01
<MIXTURE> 14 6.488954e-03
<MEAN> 25
 -4.318032e+00 -3.793842e-01 -3.111202e-01 8.909514e+00 7.514124e+00 7.380069e+00 7.830216e+00 7.327193e+00 7.252286e+00 5.226600e+00 6.867987e+00 4.102797e+00 -2.743114e-01 1.936494e-01 3.652718e-01 3.103978e-01 7.050647e-03 6.062398e-02 9.735452e-02 1.769618e-01 2.958486e-01 5.398610e-01 5.067704e-01 7.582835e-02 -9.331718e-03
<VARIANCE> 25
 9.290390e+00 1.385646e+01 1.862623e+01 1.785710e+01 2.090798e+01 1.958323e+01 2.150453e+01 2.062694e+01 2.007842e+01 2.391120e+01 2.137016e+01 1.597415e+01 9.620837e-01 1.640324e+00 1.773855e+00 1.935225e+00 2.245936e+00 2.258704e+00 2.256963e+00 2.240507e+00 2.285022e+00 2.507265e+00 2.196328e+00 1.812644e+00 1.029896e-03
<GCONST> 8.191136e+01
<MIXTURE> 15 2.475190e-03
<MEAN> 25
 -5.408155e+00 -6.423324e-01 -1.993507e-01 7.344606e+00 5.704891e+00 5.692476e+00 6.048909e+00 4.974955e+00 5.160775e+00 4.151462e+00 5.491626e+00 2.538146e+00 -1.210765e-01 -2.840918e-02 7.455452e-02 2.434069e-01 4.888054e-01 7.867430e-01 1.073523e+00 1.179118e+00 1.057195e+00 7.553759e-01 4.205093e-01 1.545324e-01 -5.728230e-05
<VARIANCE> 25
 7.048101e+00 5.595357e+00 9.015513e+00 1.296094e+01 1.411865e+01 1.429471e+01 1.493995e+01 1.488551e+01 1.408213e+01 1.415963e+01 1.511368e+01 1.249824e+01 1.248663e-01 2.061702e-01 3.197577e-01 5.025327e-01 7.002622e-01 7.931092e-01 7.633342e-01 7.933887e-01 9.122696e-01 1.022548e+00 1.069684e+00 1.040921e+00 2.822789e-05
<GCONST> 5.861610e+01
<MIXTURE> 16 2.475190e-03
<MEAN> 25
 -5.408155e+00 -6.423324e-01 -1.993507e-01 7.344606e+00 5.704891e+00 5.692476e+00 6.048909e+00 4.974955e+00 5.160775e+00 4.151462e+00 5.491626e+00 2.538146e+00 -1.210765e-01 -2.840918e-02 7.455452e-02 2.434069e-01 4.888054e-01 7.867430e-01 1.073523e+00 1.179118e+00 1.057195e+00 7.553759e-01 4.205093e-01 1.545324e-01 -5.728230e-05
<VARIANCE> 25
 7.048101e+00 5.595357e+00 9.015513e+00 1.296094e+01 1.411865e+01 1.429471e+01 1.493995e+01 1.488551e+01 1.408213e+01 1.415963e+01 1.511368e+01 1.249824e+01 1.248663e-01 2.061702e-01 3.197577e-01 5.025327e-01 7.002622e-01 7.931092e-01 7.633342e-01 7.933887e-01 9.122696e-01 1.022548e+00 1.069684e+00 1.040921e+00 2.822789e-05
<GCONST> 5.861610e+01
<MIXTURE> 17 9.518312e-03
<MEAN> 25
 3.767782e+00 -7.753675e-01 6.422954e+00 2.402433e+00 -6.000756e+00 -6.395776e+00 -3.141276e+00 -1.451118e-01 -2.673919e+00 -3.276578e+00 6.789634e-02 -1.549044e-02 -7.670171e-01 -1.220362e+00 1.310559e+00 -2.135252e+00 -2.366041e+00 -1.560455e-01 1.848508e-01 7.661320e-01 -2.799517e-01 -1.799508e-01 1.035868e+00 4.025688e-01 8.244289e-02
<VARIANCE> 25
 1.654583e+01 3.165130e+01 3.007010e+01 3.969546e+01 4.501147e+01 4.892290e+01 4.235070e+01 3.430958e+01 3.555545e+01 2.700888e+01 2.811546e+01 2.805616e+01 1.833640e+00 2.707256e+00 4.014900e+00 3.085549e+00 4.107327e+00 5.484732e+00 4.998641e+00 4.724410e+00 4.078032e+00 4.037866e+00 3.064327e+00 2.735054e+00 2.127392e-03
<GCONST> 9.697903e+01
<MIXTURE> 18 1.221018e-02
<MEAN> 25
 3.953675e+00 4.621757e+00 6.746552e+00 4.742087e+00 -4.614528e+00 -8.359052e+00 -1.743417e+00 -1.171877e+00 -3.371126e+00 -2.455063e+00 -8.809454e-01 5.776649e-01 -7.618532e-01 2.161337e+00 -1.997473e-01 2.032578e+00 3.117579e+00 1.484884e+00 8.039108e-01 -2.110606e-01 6.188757e-01 5.194018e-01 -2.899427e-01 -6.132580e-02 -1.239002e-01
<VARIANCE> 25
 1.609130e+01 2.533072e+01 3.288748e+01 2.616759e+01 4.004950e+01 3.366767e+01 3.867731e+01 3.512592e+01 3.920287e+01 3.453534e+01 3.253776e+01 3.097376e+01 2.563221e+00 3.033683e+00 4.736457e+00 4.049633e+00 4.091624e+00 4.671747e+00 4.657443e+00 4.454935e+00 4.489040e+00 4.314247e+00 4.570861e+00 3.627966e+00 4.107313e-03
<GCONST> 9.852682e+01
<MIXTURE> 19 9.912824e-03
<MEAN> 25
 -1.016851e+01 1.829571e+00 3.100241e-01 1.083053e+00 3.998938e+00 1.589721e+00 3.413324e+00 1.140522e+00 2.079024e+00 1.177622e+00 1.109541e+00 2.028312e+00 2.094345e+00 1.754502e+00 2.165655e+00 7.524788e-01 -1.056072e+00 -1.025778e+00 -1.047821e+00 -1.419287e+00 -1.498137e+00 -1.144587e+00 -8.360806e-01 -8.064232e-01 1.391373e-03
<VARIANCE> 25
 5.345238e+01 3.022828e+01 4.832841e+01 5.367834e+01 3.384343e+01 3.283255e+01 3.124283e+01 2.977016e+01 2.858627e+01 2.708585e+01 3.031399e+01 1.978305e+01 2.402813e+00 2.205432e+00 2.190734e+00 2.344386e+00 2.570069e+00 2.245636e+00 2.454435e+00 2.395527e+00 2.102593e+00 2.046637e+00 2.249462e+00 1.775227e+00 2.407656e-03
<GCONST> 9.173548e+01
<MIXTURE> 20 6.308331e-03
<MEAN> 25
 -1.418145e+01 7.416194e+00 8.452314e-01 6.152289e+00 4.843555e+00 1.637090e+00 5.209284e+00 8.536933e-01 9.223132e-01 7.987435e-01 2.568580e+00 -3.024292e-01 -3.285946e+00 -8.668866e-01 -1.565170e+00 3.325815e-01 1.541046e+00 2.063141e+00 1.979244e+00 2.056207e+00 2.144594e+00 2.040245e+00 1.684746e+00 9.453121e-01 4.732136e-02
<VARIANCE> 25
 1.966348e+01 2.345561e+01 3.096064e+01 3.717621e+01 3.084978e+01 2.789033e+01 2.993287e+01 3.147528e+01 2.796411e+01 2.821392e+01 2.515978e+01 2.091775e+01 2.092036e+00 2.182255e+00 1.909938e+00 2.541362e+00 2.702739e+00 2.313095e+00 2.310106e+00 2.320019e+00 2.235433e+00 2.652243e+00 2.241424e+00 1.865659e+00 1.886420e-03
<GCONST> 8.921882e+01
<MIXTURE> 21 7.928653e-03
<MEAN> 25
 4.002129e+00 -4.524713e+00 5.768572e+00 -1.545043e+00 -1.057241e+01 -8.720690e+00 -2.613667e+00 4.167391e+00 -2.073692e+00 -3.407015e+00 2.442365e-01 3.391459e-01 -7.197325e-01 1.340559e+00 2.587389e+00 -4.515885e-02 -1.550088e+00 3.342488e-01 5.860770e-01 -1.498183e+00 -1.955866e+00 3.140706e-01 1.325562e+00 2.463134e-01 -1.277229e-02
<VARIANCE> 25
 8.903305e+00 1.874319e+01 2.966408e+01 2.837944e+01 2.863401e+01 3.320902e+01 4.291364e+01 3.938951e+01 4.289190e+01 3.157258e+01 3.379747e+01 2.321498e+01 3.763109e-01 9.497823e-01 1.856866e+00 1.289377e+00 2.213673e+00 2.188157e+00 3.645365e+00 2.498530e+00 2.164508e+00 2.592878e+00 2.016453e+00 2.283025e+00 4.284203e-04
<GCONST> 8.509350e+01
<MIXTURE> 22 8.827789e-03
<MEAN> 25
 -1.792091e+01 7.154785e+00 -4.131347e+00 7.392482e+00 4.602546e+00 2.761039e+00 8.399819e+00 1.748462e+00 5.379299e+00 3.301012e+00 5.716434e+00 1.185148e+00 -3.095726e-01 -2.075880e-01 -1.255633e-01 -1.492641e-01 -7.208806e-03 1.369678e-01 1.807591e-01 1.779423e-01 2.484757e-01 2.073076e-01 1.726615e-01 1.924446e-01 8.857626e-03
<VARIANCE> 25
 8.116920e+00 1.682541e+01 1.738343e+01 2.517213e+01 2.289636e+01 2.083704e+01 1.943101e+01 1.871084e+01 1.813996e+01 2.086667e+01 1.924184e+01 1.378720e+01 1.090756e+00 1.357369e+00 1.363971e+00 1.572030e+00 1.408815e+00 1.526971e+00 1.508942e+00 1.532825e+00 1.614233e+00 1.544764e+00 1.357418e+00 1.168007e+00 1.745583e-03
<GCONST> 7.830949e+01
<MIXTURE> 23 6.455497e-03
<MEAN> 25
 7.684847e+00 2.374612e+00 2.918777e+00 2.314236e+00 -4.762393e+00 -3.111269e+00 -4.207705e+00 -6.378020e+00 -3.408097e+00 -1.004274e+00 -4.000331e+00 -2.090904e+00 3.435400e-02 1.749124e-01 1.415552e-02 5.684585e-02 4.037966e-03 5.240083e-02 2.471084e-02 -3.980530e-02 1.442269e-02 4.490990e-02 1.172500e-02 4.501964e-02 -4.000639e-03
<VARIANCE> 25
 1.188129e+01 2.167288e+01 2.423091e+01 3.980864e+01 3.724802e+01 5.225086e+01 5.753722e+01 5.368118e+01 4.671880e+01 4.560971e+01 4.741045e+01 3.935427e+01 1.172873e-01 2.902436e-01 3.751567e-01 4.846442e-01 5.910512e-01 7.243387e-01 7.700063e-01 8.889291e-01 8.719887e-01 8.756453e-01 8.160214e-01 7.593015e-01 9.282542e-05
<GCONST> 7.282892e+01
<MIXTURE> 24 6.455497e-03
<MEAN> 25
 7.684847e+00 2.374612e+00 2.918777e+00 2.314236e+00 -4.762393e+00 -3.111269e+00 -4.207705e+00 -6.378020e+00 -3.408097e+00 -1.004274e+00 -4.000331e+00 -2.090904e+00 3.435400e-02 1.749124e-01 1.415552e-02 5.684585e-02 4.037966e-03 5.240083e-02 2.471084e-02 -3.980530e-02 1.442269e-02 4.490990e-02 1.172500e-02 4.501964e-02 -4.000639e-03
<VARIANCE> 25
 1.188129e+01 2.167288e+01 2.423091e+01 3.980864e+01 3.724802e+01 5.225086e+01 5.753722e+01 5.368118e+01 4.671880e+01 4.560971e+01 4.741045e+01 3.935427e+01 1.172873e-01 2.902436e-01 3.751567e-01 4.846442e-01 5.910512e-01 7.243387e-01 7.700063e-01 8.889291e-01 8.719887e-01 8.756453e-01 8.160214e-01 7.593015e-01 9.282542e-05
<GCONST> 7.282892e+01
<MIXTURE> 25 1.118642e-02
<MEAN> 25
 2.947908e-01 3.477574e+00 1.677048e+01 -1.030746e+00 -1.132327e+01 -1.760738e+00 -4.991591e+00 -2.949286e+00 -6.933606e+00 -5.441730e+00 4.102309e+00 -1.637438e+00 -1.348242e-01 4.393252e-01 1.682518e-01 1.518978e-01 2.180907e-01 1.108590e-01 1.938850e-01 -1.683489e-01 -2.489551e-01 7.420107e-02 -7.287888e-02 -1.064260e-01 -1.291616e-02
<VARIANCE> 25
 8.837733e+00 2.221136e+01 2.111829e+01 2.865573e+01 3.166589e+01 4.104736e+01 2.733207e+01 2.995621e+01 2.837300e+01 3.662903e+01 2.092588e+01 2.761839e+01 5.962641e-01 1.445381e+00 1.404969e+00 1.381595e+00 2.274266e+00 2.036016e+00 1.747601e+00 1.629438e+00 1.534338e+00 1.648195e+00 1.347592e+00 1.297956e+00 1.281618e-03
<GCONST> 8.273650e+01
<MIXTURE> 26 7.727677e-03
<MEAN> 25
 2.176607e+00 -6.449793e+00 -1.039730e+01 -7.021767e-01 8.006484e+00 5.489236e+00 4.060551e+00 -2.795347e-01 2.273514e+00 -9.642373e-01 -2.901508e+00 -9.960158e-01 -6.544428e-01 6.283471e-01 3.664781e-01 6.960960e-01 1.751048e-01 2.431448e-01 2.881090e-01 3.338423e-01 2.885948e-01 8.429671e-02 3.873310e-01 4.281779e-01 -5.279067e-02
<VARIANCE> 25
 2.511396e+01 3.402720e+01 2.565781e+01 6.237736e+01 3.898707e+01 4.247256e+01 4.616536e+01 4.401195e+01 3.934144e+01 5.442657e+01 4.009883e+01 4.678739e+01 1.650965e+00 1.958068e+00 1.929111e+00 2.002424e+00 2.319637e+00 2.369992e+00 2.520311e+00 2.738858e+00 2.334969e+00 2.336478e+00 2.163245e+00 2.000807e+00 3.320898e-03
<GCONST> 9.392566e+01
<MIXTURE> 27 7.727677e-03
<MEAN> 25
 2.176607e+00 -6.449793e+00 -1.039730e+01 -7.021767e-01 8.006484e+00 5.489236e+00 4.060551e+00 -2.795347e-01 2.273514e+00 -9.642373e-01 -2.901508e+00 -9.960158e-01 -6.544428e-01 6.283471e-01 3.664781e-01 6.960960e-01 1.751048e-01 2.431448e-01 2.881090e-01 3.338423e-01 2.885948e-01 8.429671e-02 3.873310e-01 4.281779e-01 -5.279067e-02
<VARIANCE> 25
 2.511396e+01 3.402720e+01 2.565781e+01 6.237736e+01 3.898707e+01 4.247256e+01 4.616536e+01 4.401195e+01 3.934144e+01 5.442657e+01 4.009883e+01 4.678739e+01 1.650965e+00 1.958068e+00 1.929111e+00 2.002424e+00 2.319637e+00 2.369992e+00 2.520311e+00 2.738858e+00 2.334969e+00 2.336478e+00 2.163245e+00 2.000807e+00 3.320898e-03
<GCONST> 9.392566e+01
<MIXTURE> 28 5.036674e-03
<MEAN> 25
 -5.371699e+00 7.273133e-03 -1.539583e+00 6.502382e+00 5.149594e+00 3.486609e+00 5.390978e+00 3.129565e+00 3.901860e+00 2.402535e+00 2.646150e+00 3.142955e+00 -1.217088e-01 2.179925e-01 5.251445e-01 7.836691e-01 8.252448e-01 7.107036e-01 5.313398e-01 3.892185e-01 4.179226e-01 4.793240e-01 3.683931e-01 1.972100e-01 1.696725e-05
<VARIANCE> 25
 1.066708e+01 8.233277e+00 1.202811e+01 1.544103e+01 1.496579e+01 1.754084e+01 1.798935e+01 1.879644e+01 1.704837e+01 1.648432e+01 2.047406e+01 1.523602e+01 2.562954e-01 3.347532e-01 4.027748e-01 4.638781e-01 6.168870e-01 8.478910e-01 1.049060e+00 1.137405e+00 1.148795e+00 1.021772e+00 1.025492e+00 1.057563e+00 1.063063e-06
<GCONST> 6.030389e+01
<MIXTURE> 29 5.036674e-03
<MEAN> 25
 -5.371699e+00 7.273133e-03 -1.539583e+00 6.502382e+00 5.149594e+00 3.486609e+00 5.390978e+00 3.129565e+00 3.901860e+00 2.402535e+00 2.646150e+00 3.142955e+00 -1.217088e-01 2.179925e-01 5.251445e-01 7.836691e-01 8.252448e-01 7.107036e-01 5.313398e-01 3.892185e-01 4.179226e-01 4.793240e-01 3.683931e-01 1.972100e-01 1.696725e-05
<VARIANCE> 25
 1.066708e+01 8.233277e+00 1.202811e+01 1.544103e+01 1.496579e+01 1.754084e+01 1.798935e+01 1.879644e+01 1.704837e+01 1.648432e+01 2.047406e+01 1.523602e+01 2.562954e-01 3.347532e-01 4.027748e-01 4.638781e-01 6.168870e-01 8.478910e-01 1.049060e+00 1.137405e+00 1.148795e+00 1.021772e+00 1.025492e+00 1.057563e+00 1.063063e-06
<GCONST> 6.030389e+01
<MIXTURE> 30 8.917812e-03
<MEAN> 25
 -4.486589e+00 -1.943329e-01 6.549975e-01 9.073239e+00 7.764090e+00 7.500815e+00 7.576818e+00 6.872520e+00 6.524507e+00 4.892349e+00 7.006672e+00 3.501677e+00 -2.372076e-02 3.075540e-02 5.593860e-02 8.938532e-02 8.186753e-02 4.373977e-02 1.278575e-02 -4.117755e-03 1.748880e-02 5.064400e-02 6.134602e-02 3.547254e-02 -5.397224e-04
<VARIANCE> 25
 6.959711e+00 9.848340e+00 1.038026e+01 1.385038e+01 1.579932e+01 1.644548e+01 1.913046e+01 1.819618e+01 1.632965e+01 1.834889e+01 2.124594e+01 1.434373e+01 9.735639e-02 1.994263e-01 3.249326e-01 4.811881e-01 6.196397e-01 7.248732e-01 7.774901e-01 8.124567e-01 8.772971e-01 9.363776e-01 9.215884e-01 8.622855e-01 5.114852e-05
<GCONST> 6.061280e+01
<MIXTURE> 31 4.136493e-03
<MEAN> 25
 -3.149424e+00 -5.436201e+00 3.043996e-02 4.627977e+00 3.470460e+00 1.631877e+00 5.038444e+00 6.454125e+00 2.705559e+00 1.206681e+00 6.292904e+00 3.114100e+00 2.447697e-01 4.581988e-01 -2.241361e-01 2.797301e-01 1.067808e-01 4.323534e-01 1.814110e-01 -1.362569e-02 3.547499e-01 3.821083e-01 1.261573e-01 8.405624e-02 -1.786157e-02
<VARIANCE> 25
 7.264523e+00 1.582884e+01 1.672090e+01 1.840247e+01 2.518949e+01 2.324681e+01 2.347959e+01 2.512527e+01 2.506684e+01 2.696529e+01 2.063982e+01 1.807280e+01 1.889326e-01 4.866475e-01 5.849839e-01 7.548863e-01 9.638704e-01 1.065385e+00 1.286029e+00 1.373571e+00 1.313007e+00 1.267570e+00 1.289898e+00 1.130192e+00 2.662882e-04
<GCONST> 7.165823e+01
<MIXTURE> 32 4.136493e-03
<MEAN> 25
 -3.149424e+00 -5.436201e+00 3.043996e-02 4.627977e+00 3.470460e+00 1.631877e+00 5.038444e+00 6.454125e+00 2.705559e+00 1.206681e+00 6.292904e+00 3.114100e+00 2.447697e-01 4.581988e-01 -2.241361e-01 2.797301e-01 1.067808e-01 4.323534e-01 1.814110e-01 -1.362569e-02 3.547499e-01 3.821083e-01 1.261573e-01 8.405624e-02 -1.786157e-02
<VARIANCE> 25
 7.264523e+00 1.582884e+01 1.672090e+01 1.840247e+01 2.518949e+01 2.324681e+01 2.347959e+01 2.512527e+01 2.506684e+01 2.696529e+01 2.063982e+01 1.807280e+01 1.889326e-01 4.866475e-01 5.849839e-01 7.548863e-01 9.638704e-01 1.065385e+00 1.286029e+00 1.373571e+00 1.313007e+00 1.267570e+00 1.289898e+00 1.130192e+00 2.662882e-04
<GCONST> 7.165823e+01
<MIXTURE> 33 1.508826e-02
<MEAN> 25
 6.590507e+00 -4.014946e+00 -2.219154e+00 -2.633934e+00 -1.962921e+00 -5.620940e+00 -7.274602e+00 1.739329e+00 2.316576e+00 -4.636796e-01 -4.711948e+00 -3.004535e+00 6.535292e-01 -1.172904e+00 -2.441899e+00 -1.869259e+00 1.460767e+00 1.419575e+00 -7.530745e-01 6.570975e-01 1.022676e+00 5.588100e-01 -3.073309e-01 -1.334669e+00 3.764941e-02
<VARIANCE> 25
 9.914301e+00 2.116240e+01 2.901512e+01 3.613116e+01 4.062753e+01 4.407684e+01 4.311142e+01 4.669390e+01 4.051414e+01 4.384650e+01 3.493646e+01 2.842727e+01 1.160369e+00 1.942691e+00 2.201250e+00 2.192016e+00 4.213315e+00 3.436983e+00 4.322086e+00 5.623627e+00 3.783711e+00 4.404760e+00 3.381315e+00 2.604119e+00 1.478032e-03
<GCONST> 9.445102e+01
<MIXTURE> 34 1.588179e-02
<MEAN> 25
 8.926666e+00 4.702698e-02 1.345263e-01 1.214994e+00 -2.945200e+00 -1.522914e+00 -6.153833e+00 -4.691740e+00 -1.806961e+00 1.536772e-01 -2.653014e+00 -3.699145e+00 -1.728893e-02 1.346799e+00 1.474823e+00 2.397364e+00 -4.149066e-02 -1.530412e-01 7.907691e-01 -1.642227e+00 -9.014989e-01 2.590783e-01 -5.560150e-01 2.447496e-01 -6.237879e-02
<VARIANCE> 25
 7.674841e+00 3.104941e+01 2.944859e+01 4.993611e+01 4.238572e+01 4.946713e+01 5.501203e+01 5.671807e+01 5.267874e+01 4.326968e+01 4.834936e+01 3.153764e+01 1.263953e+00 1.984002e+00 4.268167e+00 4.051150e+00 5.634731e+00 5.835597e+00 5.513067e+00 6.165969e+00 5.201869e+00 4.982238e+00 5.025616e+00 3.879940e+00 1.153845e-03
<GCONST> 9.971816e+01
<MIXTURE> 35 1.467755e-02
<MEAN> 25
 -2.156305e+00 -5.253148e+00 -9.991983e+00 2.182921e-01 9.715566e+00 7.988176e-01 1.607616e+00 2.539868e+00 1.472126e+00 4.583191e+00 4.651129e-02 1.883731e+00 5.479517e-01 -1.117830e+00 -1.429183e+00 -1.387626e+00 4.083559e-01 -7.986578e-01 -6.816291e-01 -1.320547e-01 -1.599349e-01 1.642012e-01 -6.521689e-01 -4.975687e-01 1.077615e-01
<VARIANCE> 25
 1.959370e+01 2.946038e+01 4.335286e+01 6.242114e+01 4.209319e+01 5.750602e+01 5.104047e+01 4.364034e+01 5.043296e+01 3.853634e+01 3.660294e+01 3.097105e+01 3.466466e+00 3.575573e+00 6.785656e+00 5.560392e+00 5.223922e+00 5.584520e+00 4.926791e+00 4.748755e+00 5.056334e+00 4.519814e+00 4.080246e+00 3.798767e+00 5.300963e-03
<GCONST> 1.036179e+02
<MIXTURE> 36 1.093293e-02
<MEAN> 25
 4.895734e+00 -3.425787e+00 6.892859e+00 2.672452e+00 -9.943483e+00 -8.734669e+00 -6.197247e+00 2.951997e+00 -1.903139e+00 -4.561235e+00 2.787298e+00 -9.777402e-02 3.689977e-01 1.221188e-01 -9.197844e-01 1.436871e-02 8.641871e-01 5.867561e-02 -4.527512e-01 3.740119e-02 3.957672e-01 5.426688e-01 -4.239717e-01 -3.184260e-01 -1.594687e-02
<VARIANCE> 25
 1.023158e+01 1.680514e+01 2.263972e+01 2.737654e+01 3.238956e+01 3.285404e+01 4.531030e+01 3.516301e+01 3.842097e+01 3.209118e+01 2.716446e+01 2.630886e+01 4.646076e-01 7.725931e-01 1.493133e+00 1.216421e+00 1.596112e+00 1.609015e+00 2.131006e+00 1.720537e+00 1.997375e+00 1.679750e+00 1.387181e+00 1.418245e+00 7.127102e-04
<GCONST> 8.201131e+01
<MIXTURE> 37 1.246826e-02
<MEAN> 25
 5.455080e-01 7.774337e+00 1.205832e+01 -5.555024e+00 -8.031377e+00 -1.052848e+00 -5.080736e+00 -8.324421e+00 -3.710806e+00 -9.074513e-01 -3.669885e+00 -1.292219e+00 1.826168e-01 6.471687e-01 -1.354017e+00 3.583910e+00 1.988076e+00 -3.007820e-01 1.091383e+00 4.360764e-01 5.280458e-01 -3.233066e-01 5.375447e-01 -9.748591e-02 -9.494655e-02
<VARIANCE> 25
 1.593201e+01 2.598335e+01 3.083266e+01 5.101484e+01 3.393642e+01 3.201515e+01 4.398087e+01 3.505285e+01 3.861365e+01 3.597002e+01 3.775368e+01 3.089162e+01 2.956500e+00 3.416104e+00 3.018418e+00 4.092014e+00 4.617863e+00 3.753069e+00 4.208327e+00 3.810911e+00 3.449734e+00 3.621744e+00 3.870121e+00 2.792121e+00 3.927793e-03
<GCONST> 9.778194e+01
<MIXTURE> 38 1.154525e-02
<MEAN> 25
 -4.476614e+00 8.975368e+00 4.601518e+00 3.232332e+00 8.470713e-01 -5.220523e+00 -6.075935e-01 -2.745312e+00 -2.856122e+00 -3.103384e+00 -1.491854e+00 -5.423321e-01 -4.518785e+00 1.251951e+00 -3.115523e-01 1.454932e+00 2.563329e+00 1.392564e+00 2.051443e+00 9.536438e-01 7.858333e-01 6.377342e-01 1.004805e+00 3.258859e-01 4.857070e-02
<VARIANCE> 25
 3.140116e+01 2.956318e+01 3.901601e+01 3.301195e+01 4.886328e+01 3.559087e+01 3.636634e+01 4.165259e+01 3.487888e+01 3.250325e+01 2.429058e+01 2.873022e+01 2.352282e+00 3.941490e+00 3.909653e+00 5.163409e+00 4.247940e+00 5.021117e+00 4.782629e+00 4.644177e+00 4.446690e+00 4.938790e+00 4.390306e+00 3.264080e+00 2.049431e-03
<GCONST> 9.926065e+01
<MIXTURE> 39 9.501865e-03
<MEAN> 25
 1.334359e+00 2.592455e+00 1.015431e+01 -9.166212e+00 -1.123122e+01 -1.004344e+00 -2.972299e+00 -6.566509e+00 -4.514203e+00 8.618613e-01 -3.651556e+00 -2.289203e+00 -7.321680e-01 1.516436e+00 1.621627e+00 -1.384677e+00 8.092916e-02 1.211180e+00 -1.203720e+00 -1.252714e+00 4.299034e-01 4.467219e-01 -4.997965e-01 1.249466e-01 1.354256e-03
<VARIANCE> 25
 8.865954e+00 2.995118e+01 3.212347e+01 3.853717e+01 3.762140e+01 4.250518e+01 4.427010e+01 3.331988e+01 3.925373e+01 3.304538e+01 3.618478e+01 2.930553e+01 6.909294e-01 1.545349e+00 1.507362e+00 2.914606e+00 2.406443e+00 2.835100e+00 3.039153e+00 2.733805e+00 2.422425e+00 2.603392e+00 2.115408e+00 2.060232e+00 1.178603e-03
<GCONST> 8.961127e+01
<MIXTURE> 40 1.030800e-02
<MEAN> 25
 -9.006865e+00 2.070411e+00 -1.079144e+00 7.892123e+00 3.677407e+00 5.405806e+00 5.126028e+00 4.182630e+00 4.534097e+00 4.100861e+00 5.582293e+00 1.717150e+00 -8.623291e-02 -2.252948e-01 -4.242073e-02 -2.309347e-01 -9.214581e-02 -8.742796e-02 6.287227e-02 4.770349e-02 -1.025193e-02 1.019410e-02 6.627490e-02 6.573761e-03 3.611138e-03
<VARIANCE> 25
 4.388401e+01 2.008056e+01 2.854550e+01 2.890160e+01 2.572319e+01 1.878939e+01 1.953248e+01 1.811137e+01 1.688558e+01 1.835679e+01 1.888430e+01 1.422888e+01 7.287902e-01 7.207268e-01 8.539864e-01 1.081244e+00 1.135551e+00 1.256433e+00 1.390379e+00 1.273659e+00 1.236407e+00 1.184664e+00 1.169155e+00 1.081771e+00 8.412803e-04
<GCONST> 7.656224e+01
<MIXTURE> 41 6.713375e-03
<MEAN> 25
 1.308517e+00 1.785478e+00 1.047858e+01 -6.963569e+00 -1.047365e+01 -3.857816e+00 -2.486324e+00 -5.044212e+00 -4.655770e+00 2.663045e+00 -1.745197e+00 -9.518642e-01 7.793449e-02 -7.607451e-01 1.697219e+00 -3.559573e+00 -2.461355e+00 -1.131521e-01 -5.065194e-01 -3.570521e-01 -8.270947e-01 1.086990e+00 -1.045980e+00 8.311686e-02 8.630204e-02
<VARIANCE> 25
 1.169630e+01 2.965720e+01 3.259313e+01 4.003611e+01 3.868372e+01 4.016212e+01 3.714246e+01 2.987145e+01 3.309326e+01 2.877576e+01 3.186047e+01 2.719283e+01 3.178347e+00 3.311733e+00 3.824767e+00 3.795340e+00 4.904349e+00 5.875381e+00 4.715877e+00 4.558473e+00 3.976217e+00 4.220406e+00 3.833239e+00 3.223570e+00 2.930006e-03
<GCONST> 9.791261e+01
<MIXTURE> 42 1.106211e-02
<MEAN> 25
 -1.927324e+00 4.570679e+00 4.670808e+00 2.881375e+00 1.973991e-01 -6.301524e+00 -9.981159e-01 -1.871841e+00 -1.512868e+00 -1.233036e+00 -2.289478e+00 1.267600e+00 4.185393e+00 -3.491969e-01 1.528248e+00 1.977620e-01 -2.963553e+00 -1.153303e+00 -2.258442e+00 -8.183313e-01 -7.873747e-01 -7.358005e-01 5.321135e-01 -1.058592e+00 9.601033e-03
<VARIANCE> 25
 3.629140e+01 2.116991e+01 4.671367e+01 2.621675e+01 3.929292e+01 3.906868e+01 3.725746e+01 2.728341e+01 2.864516e+01 2.757751e+01 2.009523e+01 1.791807e+01 3.556723e+00 4.893671e+00 6.151616e+00 4.789675e+00 4.649538e+00 6.018839e+00 5.085683e+00 5.296047e+00 4.978862e+00 4.858738e+00 4.236588e+00 3.414666e+00 4.470189e-03
<GCONST> 9.983279e+01
<MIXTURE> 43 7.108249e-03
<MEAN> 25
 3.161875e+00 -6.298294e+00 -2.248520e+00 -5.181895e+00 -7.389584e+00 -3.401620e+00 4.134018e+00 1.305852e+00 -5.061848e+00 -7.088018e+00 -4.322093e+00 -1.253456e+00 2.365733e-01 2.162224e+00 1.911990e+00 -1.337706e-01 -1.428370e+00 -7.941285e-01 -9.705486e-01 -7.809154e-01 8.207825e-01 1.467723e+00 3.427229e-01 2.065774e-02 -4.504653e-02
<VARIANCE> 25
 9.600390e+00 1.973209e+01 2.731552e+01 3.519106e+01 3.841756e+01 3.659512e+01 3.328127e+01 3.977022e+01 3.959921e+01 3.862184e+01 2.652085e+01 2.954076e+01 6.910017e-01 1.253005e+00 1.571245e+00 2.487411e+00 2.375232e+00 2.383368e+00 2.651014e+00 3.024655e+00 2.604879e+00 2.574317e+00 2.327984e+00 1.917598e+00 9.443031e-04
<GCONST> 8.796048e+01
<MIXTURE> 44 7.328289e-03
<MEAN> 25
 -1.500386e+01 1.513177e+00 3.500992e+00 -3.189430e+00 3.282748e+00 2.017610e+00 -1.186291e-01 2.308519e+00 1.469398e+00 -8.017724e-01 1.784517e+00 1.944228e+00 -1.606992e-01 -5.563148e-03 1.545366e-01 2.843822e-01 -1.033154e-01 1.965297e-01 4.561253e-01 1.085603e-01 2.410217e-01 1.369202e-01 6.120294e-02 1.035164e-01 4.389130e-03
<VARIANCE> 25
 4.610104e+01 2.726755e+01 3.423115e+01 2.986984e+01 2.918511e+01 2.974812e+01 2.479519e+01 3.191256e+01 2.732725e+01 2.681037e+01 2.670421e+01 1.912783e+01 1.221293e+00 1.520682e+00 1.387416e+00 1.322958e+00 2.132808e+00 1.640320e+00 1.518146e+00 1.639223e+00 1.559926e+00 1.473325e+00 1.351367e+00 1.211330e+00 1.265748e-03
<GCONST> 8.432948e+01
<MIXTURE> 45 1.364932e-02
<MEAN> 25
 -1.244917e+01 3.421504e+00 -1.253417e+00 2.846100e+00 5.735476e+00 1.085062e-01 4.762159e+00 2.861249e+00 3.300574e+00 2.190200e+00 2.367455e+00 2.590393e+00 -2.940810e+00 5.944049e-01 -4.861691e-01 -5.340930e-01 1.941201e-01 -1.700985e-02 4.599214e-01 6.696042e-02 -6.884402e-02 -6.740516e-02 2.506745e-01 9.424902e-02 1.191093e-01
<VARIANCE> 25
 3.353486e+01 3.029971e+01 3.081592e+01 3.501798e+01 3.140677e+01 2.912587e+01 2.969853e+01 2.656569e+01 2.480620e+01 2.336290e+01 2.803883e+01 1.560326e+01 2.424805e+00 3.065214e+00 2.851958e+00 2.681456e+00 2.500956e+00 2.632367e+00 2.313571e+00 2.268270e+00 2.143275e+00 2.118102e+00 1.973442e+00 1.641784e+00 4.084680e-03
<GCONST> 9.055771e+01
<MIXTURE> 46 9.336259e-03
<MEAN> 25
 -9.465680e+00 2.309824e+00 1.199546e+00 7.570933e+00 5.944061e+00 3.338109e+00 7.069777e+00 4.496935e+00 5.709284e+00 4.694304e+00 5.041327e+00 2.926937e+00 1.061138e+00 -2.406303e-01 4.071181e-02 1.002012e+00 6.038719e-01 9.431413e-01 3.871255e-01 6.746948e-01 4.731049e-01 5.081581e-01 6.408945e-01 5.241860e-01 -1.057150e-01
<VARIANCE> 25
 3.422577e+01 4.384706e+01 3.853954e+01 4.994591e+01 5.084021e+01 4.080760e+01 3.706989e+01 3.537742e+01 3.316342e+01 3.095555e+01 2.824000e+01 2.023096e+01 3.912243e+00 4.144482e+00 3.883281e+00 4.139961e+00 4.176425e+00 3.698284e+00 3.382084e+00 3.115815e+00 2.982642e+00 2.866438e+00 2.309503e+00 1.784082e+00 7.951668e-03
<GCONST> 9.830463e+01
<MIXTURE> 47 7.116147e-03
<MEAN> 25
 7.326865e+00 -7.372877e+00 -7.756065e+00 -6.449367e+00 1.504784e+00 8.380679e-01 -2.388249e+00 1.224976e+00 3.015623e+00 1.447716e-01 -4.261364e+00 -6.714878e+00 -1.833223e-01 -1.256740e+00 -6.923169e-01 -4.202453e-01 6.225440e-01 8.179195e-01 8.775362e-01 2.990817e-01 1.174758e-01 -8.857499e-01 -4.675166e-01 -4.577604e-01 3.007593e-02
<VARIANCE> 25
 1.073107e+01 2.106720e+01 2.052970e+01 3.318158e+01 3.618436e+01 5.274317e+01 4.527487e+01 4.074735e+01 4.338380e+01 4.699696e+01 4.860010e+01 3.355009e+01 5.193309e-01 7.719756e-01 1.124015e+00 1.666883e+00 1.977344e+00 2.202744e+00 2.318303e+00 2.480005e+00 2.193151e+00 2.142696e+00 2.185339e+00 2.010254e+00 5.517481e-04
<GCONST> 8.644211e+01
<MIXTURE> 48 7.116147e-03
<MEAN> 25
 7.326865e+00 -7.372877e+00 -7.756065e+00 -6.449367e+00 1.504784e+00 8.380679e-01 -2.388249e+00 1.224976e+00 3.015623e+00 1.447716e-01 -4.261364e+00 -6.714878e+00 -1.833223e-01 -1.256740e+00 -6.923169e-01 -4.202453e-01 6.225440e-01 8.179195e-01 8.775362e-01 2.990817e-01 1.174758e-01 -8.857499e-01 -4.675166e-01 -4.577604e-01 3.007593e-02
<VARIANCE> 25
 1.073107e+01 2.106720e+01 2.052970e+01 3.318158e+01 3.618436e+01 5.274317e+01 4.527487e+01 4.074735e+01 4.338380e+01 4.699696e+01 4.860010e+01 3.355009e+01 5.193309e-01 7.719756e-01 1.124015e+00 1.666883e+00 1.977344e+00 2.202744e+00 2.318303e+00 2.480005e+00 2.193151e+00 2.142696e+00 2.185339e+00 2.010254e+00 5.517481e-04
<GCONST> 8.644211e+01
<MIXTURE> 49 5.548473e-03
<MEAN> 25
 -5.037375e+00 3.595060e-01 1.672511e-01 8.385862e+00 6.106259e+00 5.585487e+00 6.048856e+00 4.423323e+00 4.978275e+00 3.711056e+00 4.934314e+00 2.854954e+00 3.616392e-01 6.504070e-01 6.999217e-01 3.586043e-01 -1.884486e-01 -6.685622e-01 -1.008144e+00 -1.123951e+00 -9.589797e-01 -6.881022e-01 -4.984415e-01 -2.759591e-01 -5.096923e-05
<VARIANCE> 25
 9.770068e+00 9.952048e+00 1.413149e+01 1.619037e+01 1.594491e+01 1.711853e+01 1.930329e+01 1.970096e+01 1.839866e+01 1.779300e+01 2.047261e+01 1.416707e+01 2.798171e-01 2.644600e-01 3.580174e-01 6.091546e-01 8.737085e-01 9.718679e-01 9.838771e-01 1.048760e+00 1.126329e+00 1.217263e+00 1.275787e+00 1.203095e+00 1.437859e-05
<GCONST> 6.430371e+01
<MIXTURE> 50 6.234641e-03
<MEAN> 25
 -4.138203e+00 7.561675e-02 -1.313555e+00 5.444973e+00 3.593655e+00 2.127172e+00 3.560919e+00 1.948393e+00 2.651288e+00 1.332941e+00 2.085745e+00 2.571941e+00 3.414446e-02 1.464318e-01 8.693027e-02 -1.788772e-01 -5.474926e-01 -6.403074e-01 -4.204158e-01 -5.399163e-02 5.009745e-01 8.067957e-01 8.250162e-01 4.146580e-01 4.788848e-05
<VARIANCE> 25
 1.167003e+01 1.008374e+01 1.342869e+01 1.899497e+01 1.729880e+01 1.694876e+01 1.828045e+01 1.796160e+01 1.698751e+01 1.605256e+01 2.066600e+01 1.560176e+01 1.436684e-01 2.373448e-01 3.645017e-01 4.830627e-01 6.523737e-01 7.441669e-01 9.174973e-01 1.075720e+00 1.136532e+00 8.925031e-01 9.756632e-01 9.406063e-01 1.065420e-06
<GCONST> 5.944076e+01
<MIXTURE> 51 6.234641e-03
<MEAN> 25
 -4.138203e+00 7.561675e-02 -1.313555e+00 5.444973e+00 3.593655e+00 2.127172e+00 3.560919e+00 1.948393e+00 2.651288e+00 1.332941e+00 2.085745e+00 2.571941e+00 3.414446e-02 1.464318e-01 8.693027e-02 -1.788772e-01 -5.474926e-01 -6.403074e-01 -4.204158e-01 -5.399163e-02 5.009745e-01 8.067957e-01 8.250162e-01 4.146580e-01 4.788848e-05
<VARIANCE> 25
 1.167003e+01 1.008374e+01 1.342869e+01 1.899497e+01 1.729880e+01 1.694876e+01 1.828045e+01 1.796160e+01 1.698751e+01 1.605256e+01 2.066600e+01 1.560176e+01 1.436684e-01 2.373448e-01 3.645017e-01 4.830627e-01 6.523737e-01 7.441669e-01 9.174973e-01 1.075720e+00 1.136532e+00 8.925031e-01 9.756632e-01 9.406063e-01 1.065420e-06
<GCONST> 5.944076e+01
<MIXTURE> 52 6.367945e-03
<MEAN> 25
 1.012402e+01 2.049364e+00 -6.198541e+00 -1.428654e+01 -4.222337e+00 8.537600e+00 -2.752670e+00 -3.061040e+00 -4.408458e+00 -2.132970e+00 3.354706e+00 7.466418e-01 -3.855977e-01 -4.802809e-01 -6.963731e-02 1.140538e+00 1.339751e+00 -4.735090e-01 -6.029828e-01 -6.591368e-01 4.291138e-02 1.246409e+00 3.874827e-01 -5.457809e-01 -1.381976e-02
<VARIANCE> 25
 9.287983e+00 2.048946e+01 2.533460e+01 3.858564e+01 4.573215e+01 3.071688e+01 4.654832e+01 4.894473e+01 4.306464e+01 4.604083e+01 3.995101e+01 3.000887e+01 4.496180e-01 1.480758e+00 1.310597e+00 2.758095e+00 2.328844e+00 2.199855e+00 2.986008e+00 2.799584e+00 3.006271e+00 2.667019e+00 2.520482e+00 2.277587e+00 1.546102e-03
<GCONST> 8.973341e+01
<MIXTURE> 53 6.367945e-03
<MEAN> 25
 1.012402e+01 2.049364e+00 -6.198541e+00 -1.428654e+01 -4.222337e+00 8.537600e+00 -2.752670e+00 -3.061040e+00 -4.408458e+00 -2.132970e+00 3.354706e+00 7.466418e-01 -3.855977e-01 -4.802809e-01 -6.963731e-02 1.140538e+00 1.339751e+00 -4.735090e-01 -6.029828e-01 -6.591368e-01 4.291138e-02 1.246409e+00 3.874827e-01 -5.457809e-01 -1.381976e-02
<VARIANCE> 25
 9.287983e+00 2.048946e+01 2.533460e+01 3.858564e+01 4.573215e+01 3.071688e+01 4.654832e+01 4.894473e+01 4.306464e+01 4.604083e+01 3.995101e+01 3.000887e+01 4.496180e-01 1.480758e+00 1.310597e+00 2.758095e+00 2.328844e+00 2.199855e+00 2.986008e+00 2.799584e+00 3.006271e+00 2.667019e+00 2.520482e+00 2.277587e+00 1.546102e-03
<GCONST> 8.973341e+01
<MIXTURE> 54 7.368620e-03
<MEAN> 25
 -3.531396e+00 7.389011e-02 -6.505764e-01 7.766956e+00 6.355858e+00 4.594171e+00 4.551261e+00 4.449800e+00 4.010984e+00 3.576376e+00 4.432856e+00 2.151279e+00 -3.284622e-03 2.500820e-02 2.947776e-02 4.468714e-02 4.891023e-02 1.797418e-02 4.038559e-02 3.287196e-02 3.428044e-02 2.932614e-02 4.774732e-03 -6.912961e-03 -5.090465e-05
<VARIANCE> 25
 9.172274e+00 1.009470e+01 9.046414e+00 1.996215e+01 1.349083e+01 1.322327e+01 1.212278e+01 1.170749e+01 1.121361e+01 1.331793e+01 1.739752e+01 1.331240e+01 4.063112e-02 8.586869e-02 1.512980e-01 2.239449e-01 3.117796e-01 4.470292e-01 4.502464e-01 5.094039e-01 5.348582e-01 5.123872e-01 5.189772e-01 5.126034e-01 1.032277e-06
<GCONST> 4.737351e+01
<MIXTURE> 55 7.368620e-03
<MEAN> 25
 -3.531396e+00 7.389011e-02 -6.505764e-01 7.766956e+00 6.355858e+00 4.594171e+00 4.551261e+00 4.449800e+00 4.010984e+00 3.576376e+00 4.432856e+00 2.151279e+00 -3.284622e-03 2.500820e-02 2.947776e-02 4.468714e-02 4.891023e-02 1.797418e-02 4.038559e-02 3.287196e-02 3.428044e-02 2.932614e-02 4.774732e-03 -6.912961e-03 -5.090465e-05
<VARIANCE> 25
 9.172274e+00 1.009470e+01 9.046414e+00 1.996215e+01 1.349083e+01 1.322327e+01 1.212278e+01 1.170749e+01 1.121361e+01 1.331793e+01 1.739752e+01 1.331240e+01 4.063112e-02 8.586869e-02 1.512980e-01 2.239449e-01 3.117796e-01 4.470292e-01 4.502464e-01 5.094039e-01 5.348582e-01 5.123872e-01 5.189772e-01 5.126034e-01 1.032277e-06
<GCONST> 4.737351e+01
<MIXTURE> 56 6.132464e-03
<MEAN> 25
 7.497926e+00 -6.733515e+00 -9.112220e+00 -8.609536e+00 3.925212e+00 3.884923e+00 -2.178534e+00 -1.476468e+00 1.929456e+00 6.261404e-01 -2.511711e+00 -7.153433e+00 -8.221397e-03 2.520387e-02 -8.368037e-02 1.988761e-02 2.566278e-01 7.712197e-02 1.190611e-01 -1.425088e-01 -4.190934e-02 -3.363264e-02 -7.961901e-02 1.826832e-02 -7.036239e-03
<VARIANCE> 25
 9.753282e+00 2.334875e+01 2.016748e+01 4.131043e+01 3.308119e+01 5.096554e+01 6.160365e+01 3.657267e+01 3.878123e+01 3.758302e+01 4.010662e+01 3.106533e+01 2.056604e-01 4.312912e-01 4.542043e-01 7.714816e-01 7.921589e-01 1.135703e+00 9.106853e-01 9.107620e-01 9.154124e-01 9.239826e-01 1.031859e+00 7.839803e-01 2.393175e-04
<GCONST> 7.518142e+01
<MIXTURE> 57 6.132464e-03
<MEAN> 25
 7.497926e+00 -6.733515e+00 -9.112220e+00 -8.609536e+00 3.925212e+00 3.884923e+00 -2.178534e+00 -1.476468e+00 1.929456e+00 6.261404e-01 -2.511711e+00 -7.153433e+00 -8.221397e-03 2.520387e-02 -8.368037e-02 1.988761e-02 2.566278e-01 7.712197e-02 1.190611e-01 -1.425088e-01 -4.190934e-02 -3.363264e-02 -7.961901e-02 1.826832e-02 -7.036239e-03
<VARIANCE> 25
 9.753282e+00 2.334875e+01 2.016748e+01 4.131043e+01 3.308119e+01 5.096554e+01 6.160365e+01 3.657267e+01 3.878123e+01 3.758302e+01 4.010662e+01 3.106533e+01 2.056604e-01 4.312912e-01 4.542043e-01 7.714816e-01 7.921589e-01 1.135703e+00 9.106853e-01 9.107620e-01 9.154124e-01 9.239826e-01 1.031859e+00 7.839803e-01 2.393175e-04
<GCONST> 7.518142e+01
<MIXTURE> 58 6.172147e-03
<MEAN> 25
 2.389399e+00 -2.820584e+00 6.822259e+00 -4.851642e+00 -1.267903e+01 -5.335784e+00 1.468125e+00 6.164035e-01 -2.313190e+00 1.781248e+00 5.266954e-01 -6.745918e-01 -2.971824e-02 -1.574399e-01 -1.151232e-01 -1.466061e-01 2.364092e-02 2.367015e-01 4.059244e-01 2.326933e-01 -1.782434e-02 -1.476173e-02 -6.482819e-02 -9.222826e-02 -2.977832e-03
<VARIANCE> 25
 7.146205e+00 1.466261e+01 2.159295e+01 2.702029e+01 2.795325e+01 4.359210e+01 3.114149e+01 3.291736e+01 2.979476e+01 2.922810e+01 2.178966e+01 2.039015e+01 2.974789e-01 7.749690e-01 7.294473e-01 9.873134e-01 8.715013e-01 1.167931e+00 1.136702e+00 1.226074e+00 1.045202e+00 1.004283e+00 8.809572e-01 9.047683e-01 6.955051e-04
<GCONST> 7.497653e+01
<MIXTURE> 59 6.172147e-03
<MEAN> 25
 2.389399e+00 -2.820584e+00 6.822259e+00 -4.851642e+00 -1.267903e+01 -5.335784e+00 1.468125e+00 6.164035e-01 -2.313190e+00 1.781248e+00 5.266954e-01 -6.745918e-01 -2.971824e-02 -1.574399e-01 -1.151232e-01 -1.466061e-01 2.364092e-02 2.367015e-01 4.059244e-01 2.326933e-01 -1.782434e-02 -1.476173e-02 -6.482819e-02 -9.222826e-02 -2.977832e-03
<VARIANCE> 25
 7.146205e+00 1.466261e+01 2.159295e+01 2.702029e+01 2.795325e+01 4.359210e+01 3.114149e+01 3.291736e+01 2.979476e+01 2.922810e+01 2.178966e+01 2.039015e+01 2.974789e-01 7.749690e-01 7.294473e-01 9.873134e-01 8.715013e-01 1.167931e+00 1.136702e+00 1.226074e+00 1.045202e+00 1.004283e+00 8.809572e-01 9.047683e-01 6.955051e-04
<GCONST> 7.497653e+01
<MIXTURE> 60 4.479129e-03
<MEAN> 25
 -1.704567e+00 -2.144289e-01 -1.582197e-01 1.469003e+00 7.259126e-01 1.139980e+00 1.052308e+00 1.449652e+00 1.706430e+00 1.076578e+00 1.413446e+00 1.169880e+00 -1.559936e-02 9.951052e-02 7.768349e-02 3.399759e-02 1.743035e-02 1.118813e-01 1.783977e-01 3.278238e-01 5.837210e-01 6.198788e-01 6.782185e-01 3.577429e-01 1.759945e-03
<VARIANCE> 25
 5.318328e+00 2.739220e+00 6.506652e+00 8.208168e+00 7.935044e+00 1.110705e+01 1.135478e+01 9.561790e+00 9.882117e+00 9.277180e+00 1.243282e+01 1.013869e+01 9.308394e-02 1.441386e-01 2.850653e-01 3.609550e-01 4.963845e-01 8.586885e-01 8.768993e-01 7.572110e-01 8.573220e-01 7.005633e-01 9.206116e-01 8.201210e-01 4.160796e-05
<GCONST> 5.239942e+01
<MIXTURE> 61 4.479129e-03
<MEAN> 25
 -1.704567e+00 -2.144289e-01 -1.582197e-01 1.469003e+00 7.259126e-01 1.139980e+00 1.052308e+00 1.449652e+00 1.706430e+00 1.076578e+00 1.413446e+00 1.169880e+00 -1.559936e-02 9.951052e-02 7.768349e-02 3.399759e-02 1.743035e-02 1.118813e-01 1.783977e-01 3.278238e-01 5.837210e-01 6.198788e-01 6.782185e-01 3.577429e-01 1.759945e-03
<VARIANCE> 25
 5.318328e+00 2.739220e+00 6.506652e+00 8.208168e+00 7.935044e+00 1.110705e+01 1.135478e+01 9.561790e+00 9.882117e+00 9.277180e+00 1.243282e+01 1.013869e+01 9.308394e-02 1.441386e-01 2.850653e-01 3.609550e-01 4.963845e-01 8.586885e-01 8.768993e-01 7.572110e-01 8.573220e-01 7.005633e-01 9.206116e-01 8.201210e-01 4.160796e-05
<GCONST> 5.239942e+01
<MIXTURE> 62 3.278034e-03
<MEAN> 25
 -5.090869e+00 1.241153e+00 1.026242e+00 8.818433e+00 6.130766e+00 5.050584e+00 5.499407e+00 4.033795e+00 4.986042e+00 3.917903e+00 4.966460e+00 2.951025e+00 -1.003302e+00 -1.166674e+00 -9.532235e-01 -2.767703e-01 4.275847e-01 1.005178e+00 1.384689e+00 1.552224e+00 1.478696e+00 1.243466e+00 1.067116e+00 7.260972e-01 -1.264877e-03
<VARIANCE> 25
 9.873413e+00 9.958750e+00 1.311545e+01 1.673535e+01 1.741438e+01 1.752490e+01 1.970198e+01 1.911258e+01 1.885960e+01 1.872645e+01 2.156134e+01 1.479632e+01 4.017304e-01 4.320590e-01 5.541475e-01 7.793573e-01 1.035017e+00 1.192192e+00 1.252319e+00 1.279049e+00 1.329806e+00 1.363837e+00 1.400003e+00 1.371305e+00 1.632323e-05
<GCONST> 6.752597e+01
<MIXTURE> 63 4.351215e-03
<MEAN> 25
 -2.352446e+00 -1.438014e+00 -2.843160e+00 1.816982e+00 2.160821e+00 -2.181173e-03 1.776976e+00 4.596857e-01 1.337530e+00 -5.330179e-01 -9.052887e-01 1.613238e+00 -3.860247e-02 3.145635e-01 3.980636e-01 4.527133e-01 4.579350e-01 5.276476e-01 4.176958e-01 1.100701e-01 1.260945e-01 2.036590e-01 3.156794e-01 2.645109e-01 1.134553e-03
<VARIANCE> 25
 8.324677e+00 1.011946e+01 1.414968e+01 1.205712e+01 1.381883e+01 1.868971e+01 1.881178e+01 2.007570e+01 1.829070e+01 1.597802e+01 1.449590e+01 1.394759e+01 2.543305e-01 3.095342e-01 5.821968e-01 6.573436e-01 9.207927e-01 1.334627e+00 1.279561e+00 1.258262e+00 1.502364e+00 1.341059e+00 1.394206e+00 1.143406e+00 2.001043e-04
<GCONST> 6.782497e+01
<MIXTURE> 64 4.351215e-03
<MEAN> 25
 -2.352446e+00 -1.438014e+00 -2.843160e+00 1.816982e+00 2.160821e+00 -2.181173e-03 1.776976e+00 4.596857e-01 1.337530e+00 -5.330179e-01 -9.052887e-01 1.613238e+00 -3.860247e-02 3.145635e-01 3.980636e-01 4.527133e-01 4.579350e-01 5.276476e-01 4.176958e-01 1.100701e-01 1.260945e-01 2.036590e-01 3.156794e-01 2.645109e-01 1.134553e-03
<VARIANCE> 25
 8.324677e+00 1.011946e+01 1.414968e+01 1.205712e+01 1.381883e+01 1.868971e+01 1.881178e+01 2.007570e+01 1.829070e+01 1.597802e+01 1.449590e+01 1.394759e+01 2.543305e-01 3.095342e-01 5.821968e-01 6.573436e-01 9.207927e-01 1.334627e+00 1.279561e+00 1.258262e+00 1.502364e+00 1.341059e+00 1.394206e+00 1.143406e+00 2.001043e-04
<GCONST> 6.782497e+01
<MIXTURE> 65 1.721197e-02
<MEAN> 25
 7.816698e+00 2.066059e+00 1.877171e+00 6.430543e-01 -5.285225e+00 -4.255839e+00 -5.777915e+00 -6.653615e+00 -3.748482e+00 -2.331064e+00 -5.444410e+00 -1.860278e+00 1.727322e-01 1.095456e-01 1.008407e-02 1.156225e-01 -1.688544e-01 2.689080e-01 -1.121063e-01 -1.865018e-01 1.775675e-01 1.789989e-02 -4.806895e-02 -1.642148e-01 -4.647542e-03
<VARIANCE> 25
 1.125138e+01 1.877994e+01 2.545889e+01 3.539958e+01 3.785498e+01 5.730150e+01 5.747254e+01 5.851926e+01 5.479628e+01 5.691952e+01 5.549859e+01 5.082193e+01 5.576134e-01 9.429028e-01 1.592860e+00 1.797020e+00 1.969664e+00 2.201721e+00 2.289116e+00 2.953930e+00 2.426062e+00 2.451519e+00 2.390041e+00 2.113871e+00 4.196347e-04
<GCONST> 8.931053e+01
<MIXTURE> 66 1.191532e-02
<MEAN> 25
 6.681618e+00 -4.094261e+00 -5.623698e+00 -4.830993e+00 1.277463e+00 -5.092820e+00 -6.924450e+00 1.193064e+00 6.844859e-01 -2.051464e+00 -6.141032e+00 -3.475739e+00 -4.560267e-02 1.667443e+00 2.240435e+00 2.317946e+00 -1.251086e+00 -1.253391e+00 5.543293e-02 -5.470440e-01 -1.446975e-01 -1.944461e-01 -2.016478e-01 1.044888e+00 -6.380289e-02
<VARIANCE> 25
 8.929555e+00 2.234593e+01 2.705986e+01 3.306529e+01 3.851788e+01 5.342464e+01 5.600180e+01 4.541504e+01 5.411057e+01 6.678333e+01 3.698402e+01 3.644690e+01 1.283679e+00 2.445620e+00 2.352238e+00 2.470410e+00 4.197546e+00 4.309196e+00 4.369085e+00 4.845513e+00 4.249508e+00 4.994454e+00 3.900319e+00 3.262203e+00 1.469018e-03
<GCONST> 9.683601e+01
<MIXTURE> 67 1.559142e-02
<MEAN> 25
 8.985456e+00 2.035448e+00 -5.978737e+00 -8.274504e+00 9.031860e-01 3.083229e+00 -3.325229e+00 -2.242070e+00 -3.773560e+00 7.784979e-01 -5.461008e-02 -1.732939e+00 -1.074132e+00 1.831960e+00 1.062773e+00 3.073161e+00 1.392620e+00 -5.098513e-01 1.302791e+00 1.202588e-01 1.569752e-01 2.512395e-01 -2.766193e-01 6.252995e-01 -1.299931e-01
<VARIANCE> 25
 1.146567e+01 3.885957e+01 3.078913e+01 5.585363e+01 4.915367e+01 5.406945e+01 6.210220e+01 5.280804e+01 6.478790e+01 5.711977e+01 5.578411e+01 4.738020e+01 2.179849e+00 3.465775e+00 3.290490e+00 4.517694e+00 4.523180e+00 4.553678e+00 4.706660e+00 5.071122e+00 5.476764e+00 4.779429e+00 5.135092e+00 3.746339e+00 3.042452e-03
<GCONST> 1.029183e+02
<MIXTURE> 68 1.485092e-02
<MEAN> 25
 -2.018475e+00 -2.311335e+00 -4.105323e+00 1.255180e+00 5.263049e+00 -6.685810e-01 2.130795e+00 1.825808e+00 2.006429e+00 1.690548e+00 4.857553e-01 1.877504e+00 2.768701e+00 5.489966e-01 1.385220e-02 -2.585602e+00 -2.417584e+00 -1.591563e+00 -2.354125e+00 -1.792119e+00 -1.651296e+00 -1.481273e+00 -1.985852e+00 -1.059375e+00 1.032997e-01
<VARIANCE> 25
 2.600456e+01 3.204467e+01 5.877129e+01 5.261822e+01 4.670024e+01 5.512106e+01 4.528484e+01 4.228190e+01 4.044573e+01 4.351809e+01 3.739834e+01 2.576222e+01 1.863654e+00 3.745651e+00 5.939613e+00 5.868445e+00 4.699110e+00 5.611812e+00 5.773559e+00 4.975379e+00 4.979804e+00 5.262873e+00 5.044401e+00 3.421980e+00 6.138819e-03
<GCONST> 1.036092e+02
<MIXTURE> 69 1.204884e-02
<MEAN> 25
 4.673533e+00 -4.231050e+00 -3.568670e+00 -3.630275e+00 -3.506444e+00 -7.879842e+00 -1.110993e+00 2.213521e+00 -3.472817e-01 -4.740107e+00 -5.687940e+00 9.582053e-01 1.678293e+00 -2.235928e+00 -1.338606e+00 -2.244653e+00 -5.299754e-01 -3.490921e-01 -4.726481e-01 6.158736e-01 -6.425567e-01 -1.460713e+00 -2.204943e+00 -1.730746e-01 6.253654e-02
<VARIANCE> 25
 8.860129e+00 2.180112e+01 2.674919e+01 2.593394e+01 4.270400e+01 3.563855e+01 4.895967e+01 3.159406e+01 3.977157e+01 3.791039e+01 3.108415e+01 2.461304e+01 3.547976e+00 2.921856e+00 3.335177e+00 3.700296e+00 5.767795e+00 5.010965e+00 7.117936e+00 6.079438e+00 5.913048e+00 5.866835e+00 4.351096e+00 3.705363e+00 2.447899e-03
<GCONST> 9.867969e+01
<MIXTURE> 70 1.329190e-02
<MEAN> 25
 7.524370e+00 -2.035919e+00 -3.890085e+00 -3.609483e+00 -4.099438e-01 -6.676582e-01 -7.691599e+00 -4.028317e+00 5.708323e-01 2.893718e+00 -1.315644e-01 -4.912114e+00 1.936116e+00 -1.138616e+00 -8.204738e-01 -2.206557e+00 -1.519474e+00 1.178193e+00 -1.337874e+00 -8.800195e-02 3.375980e-01 -2.774787e-02 6.878952e-01 -1.455051e+00 5.869273e-02
<VARIANCE> 25
 9.917784e+00 2.257686e+01 2.833793e+01 4.698899e+01 3.550748e+01 4.451460e+01 4.988230e+01 4.410322e+01 4.709135e+01 3.279338e+01 4.499968e+01 2.729059e+01 3.501986e+00 3.212325e+00 4.743456e+00 4.958394e+00 5.217358e+00 6.448394e+00 6.795490e+00 7.556544e+00 6.176013e+00 5.389074e+00 5.868569e+00 4.306516e+00 2.537575e-03
<GCONST> 1.018605e+02
<MIXTURE> 71 1.406903e-02
<MEAN> 25
 6.390693e+00 5.186025e+00 4.263410e+00 3.114521e+00 -3.463290e+00 -3.429343e+00 -3.436977e+00 -6.654505e+00 -4.671009e+00 -2.511684e+00 -5.231098e+00 -3.239458e+00 -1.576600e+00 -6.966731e-01 -2.508824e-01 -1.777639e+00 1.129649e+00 -1.480806e-01 4.920120e-02 1.535000e+00 3.096699e-01 -1.785074e-01 6.868798e-01 1.846588e-01 4.091540e-02
<VARIANCE> 25
 1.888716e+01 2.571788e+01 2.409460e+01 4.496447e+01 4.071055e+01 4.058347e+01 4.259303e+01 4.147766e+01 3.901620e+01 4.408795e+01 3.658573e+01 3.452029e+01 1.751708e+00 3.044423e+00 5.298107e+00 4.884206e+00 4.703269e+00 4.737124e+00 4.875984e+00 5.395808e+00 4.303181e+00 4.094253e+00 3.627416e+00 3.296844e+00 1.421268e-03
<GCONST> 9.869363e+01
<MIXTURE> 72 8.134747e-03
<MEAN> 25
 3.787053e+00 -3.679116e+00 5.451368e+00 -2.461806e+00 -1.039462e+01 -9.614791e+00 -2.452652e+00 1.918028e+00 -4.940552e+00 -2.202948e+00 -1.881947e+00 6.202393e-01 9.324688e-01 -7.868844e-01 -2.575982e+00 4.624838e-01 2.135471e+00 -6.531644e-01 -1.315104e+00 1.524761e+00 1.811809e+00 -5.964794e-01 -1.288379e+00 4.021982e-01 -6.146318e-03
<VARIANCE> 25
 1.079419e+01 1.948095e+01 3.285941e+01 3.841341e+01 3.236924e+01 3.344109e+01 4.102514e+01 3.619741e+01 4.365815e+01 4.132912e+01 3.877552e+01 2.848897e+01 4.318506e-01 1.025584e+00 2.020511e+00 1.468346e+00 2.184240e+00 2.355859e+00 3.062208e+00 2.729604e+00 2.608582e+00 2.957951e+00 2.023150e+00 2.126688e+00 5.405633e-04
<GCONST> 8.724562e+01
<MIXTURE> 73 1.213625e-02
<MEAN> 25
 -5.640504e+00 -7.917286e-01 -1.304273e+00 4.916941e+00 4.240322e+00 2.343081e+00 5.518840e+00 3.455042e+00 4.369095e+00 3.435400e+00 4.270555e+00 3.028828e+00 8.031618e-01 -1.030939e+00 -9.460295e-01 -2.649095e+00 -1.261602e+00 -1.752289e+00 -9.020018e-01 -5.084506e-01 -9.206337e-01 -7.017937e-01 -1.105288e+00 -2.828406e-01 1.549223e-01
<VARIANCE> 25
 1.284165e+01 1.340050e+01 1.520347e+01 2.263467e+01 2.333798e+01 2.477575e+01 2.038902e+01 2.000530e+01 1.777401e+01 1.906309e+01 2.279650e+01 1.557964e+01 4.047403e+00 3.091406e+00 5.966817e+00 4.675771e+00 6.153833e+00 4.561658e+00 4.304226e+00 4.250814e+00 3.898939e+00 4.232365e+00 3.542266e+00 2.674434e+00 4.296771e-03
<GCONST> 9.270378e+01
<MIXTURE> 74 1.756491e-02
<MEAN> 25
 4.520565e+00 -1.595973e+00 5.274090e+00 -1.154030e+00 -8.772698e+00 -8.327132e+00 -2.707671e+00 7.599071e-01 -4.123377e+00 -2.842405e+00 -1.705893e+00 2.610205e-01 3.110775e-01 2.025201e+00 4.419514e-02 1.720413e+00 1.235825e+00 3.581555e-01 -3.569196e-03 -1.334898e+00 1.744544e-01 1.789276e-01 -2.383048e-01 -1.059279e-01 -7.876176e-02
<VARIANCE> 25
 1.170622e+01 2.202650e+01 3.768044e+01 3.872980e+01 3.719975e+01 3.973413e+01 5.169285e+01 4.673030e+01 4.814981e+01 4.480452e+01 4.121916e+01 3.448066e+01 2.103970e+00 2.053357e+00 3.930995e+00 2.596425e+00 3.932433e+00 3.920570e+00 5.070497e+00 4.288072e+00 4.176765e+00 4.045017e+00 3.658581e+00 3.205451e+00 1.755009e-03
<GCONST> 9.735394e+01
<MIXTURE> 75 9.711651e-03
<MEAN> 25
 2.665153e+00 -1.247008e+00 1.104093e+01 1.730940e+00 -1.184556e+01 -7.675667e+00 -4.582171e+00 -4.825293e-01 -4.512228e+00 -4.626374e+00 3.268839e+00 1.547519e-01 1.754104e+00 -1.768700e+00 2.011454e-01 -2.581137e-01 -2.403977e+00 -5.192741e-01 -1.468112e+00 9.668649e-01 -1.532326e-01 -3.533703e-01 1.083265e+00 -6.309912e-01 3.865912e-02
<VARIANCE> 25
 1.114244e+01 1.783523e+01 3.037013e+01 2.782730e+01 2.689288e+01 3.276383e+01 3.148147e+01 3.115667e+01 3.372863e+01 3.163561e+01 2.045171e+01 2.172715e+01 2.381847e+00 1.901697e+00 4.294820e+00 2.492084e+00 3.880982e+00 4.348777e+00 4.162266e+00 3.520334e+00 3.951905e+00 3.383149e+00 3.107292e+00 2.513311e+00 1.544128e-03
<GCONST> 9.228401e+01
<MIXTURE> 76 1.052359e-02
<MEAN> 25
 -5.229639e+00 -1.094028e+00 -2.374998e+00 3.035345e+00 3.360337e+00 1.671557e+00 3.098844e+00 1.623149e+00 2.041400e+00 1.420378e-01 1.082210e+00 2.127554e+00 -7.013487e-02 -5.284297e-01 -3.262849e-01 -8.042912e-01 -5.593521e-01 -7.129304e-01 -5.665860e-01 -4.063760e-01 -4.911570e-01 -3.665949e-01 -3.310613e-01 -2.874521e-01 1.269359e-02
<VARIANCE> 25
 3.591820e+01 2.301149e+01 2.415947e+01 2.438063e+01 2.713873e+01 2.597285e+01 2.698208e+01 2.388326e+01 2.106668e+01 2.108229e+01 2.429628e+01 1.778648e+01 9.770567e-01 9.248955e-01 1.186129e+00 1.032723e+00 1.303131e+00 1.462533e+00 1.598689e+00 1.660964e+00 1.395327e+00 1.360987e+00 1.433013e+00 1.304228e+00 1.207259e-03
<GCONST> 8.050435e+01
<MIXTURE> 77 1.244626e-02
<MEAN> 25
 -4.655517e-01 8.554317e+00 1.241358e+01 -1.156944e+01 -6.991521e+00 9.448721e-01 -9.254562e+00 -7.224711e+00 -3.369011e+00 -1.948460e-01 -4.633339e+00 -1.472161e+00 6.772888e-02 1.365879e-01 7.265399e-02 2.506570e-01 -2.021595e-02 7.932049e-02 -6.302869e-02 -6.163511e-02 8.178552e-02 -4.579786e-02 2.682271e-02 1.203599e-01 -9.855560e-03
<VARIANCE> 25
 1.040400e+01 2.024173e+01 2.799453e+01 4.203910e+01 3.314727e+01 3.371525e+01 3.674366e+01 3.171097e+01 3.511856e+01 3.312975e+01 3.758040e+01 3.491406e+01 2.994387e-01 7.770229e-01 6.451289e-01 1.083398e+00 1.237395e+00 9.852082e-01 1.224522e+00 1.073477e+00 1.041280e+00 1.063754e+00 9.695453e-01 9.233851e-01 5.398904e-04
<GCONST> 7.780823e+01
<MIXTURE> 78 9.702551e-03
<MEAN> 25
 -1.164006e+01 1.105535e+00 -1.644625e+00 2.262421e+00 4.443985e+00 -2.270809e+00 3.789376e+00 2.659927e+00 2.620242e+00 7.487033e-01 -4.804521e-01 3.060077e+00 2.408711e+00 -2.757089e-01 1.839457e-01 5.848407e-01 -3.158743e-02 2.026783e-02 -3.070237e-01 -9.036085e-02 2.172885e-01 1.439142e-01 -3.776562e-01 -4.627710e-01 -6.215254e-02
<VARIANCE> 25
 4.087961e+01 3.289511e+01 3.281704e+01 3.263419e+01 3.986415e+01 3.733768e+01 3.590533e+01 3.298130e+01 2.826502e+01 2.776928e+01 2.722486e+01 2.021418e+01 4.937146e+00 2.591310e+00 2.867711e+00 3.081372e+00 2.863307e+00 3.522660e+00 3.276231e+00 2.841441e+00 2.357452e+00 2.373599e+00 2.255511e+00 2.133910e+00 4.713370e-03
<GCONST> 9.469157e+01
<MIXTURE> 79 1.156824e-02
<MEAN> 25
 2.420302e+00 1.578167e+00 9.193758e+00 -6.607068e+00 -1.207660e+01 -1.818213e+00 -1.916249e+00 -6.477053e+00 -6.578680e+00 3.229079e-01 -3.516320e+00 -3.294600e+00 1.222043e+00 -5.265245e-01 -1.433448e+00 2.354131e+00 3.806369e-01 -1.472913e+00 5.353776e-01 8.880513e-01 -4.364699e-01 -5.431026e-01 3.580804e-01 2.799176e-01 -3.632478e-02
<VARIANCE> 25
 1.423836e+01 2.413998e+01 3.789797e+01 4.981303e+01 3.340788e+01 4.352295e+01 4.286752e+01 3.678117e+01 3.896424e+01 3.982522e+01 4.394286e+01 3.070899e+01 9.431287e-01 2.262724e+00 1.894597e+00 2.088006e+00 2.473360e+00 2.818616e+00 3.197681e+00 3.534278e+00 2.516086e+00 2.735109e+00 2.317442e+00 2.031030e+00 1.232542e-03
<GCONST> 9.180888e+01
<MIXTURE> 80 7.550998e-03
<MEAN> 25
 -1.460866e+01 3.982978e+00 6.888527e-01 2.865978e+00 2.449390e+00 1.410288e+00 6.397008e+00 2.496773e+00 2.719634e+00 2.373497e+00 4.852879e+00 1.186962e+00 4.286331e+00 -1.602020e-02 1.637934e+00 -1.135554e+00 -2.889475e+00 -2.777582e+00 -2.323244e+00 -2.021465e+00 -1.975032e+00 -1.685194e+00 -1.650844e+00 -6.027454e-01 -4.423228e-02
<VARIANCE> 25
 2.094969e+01 1.984664e+01 3.444448e+01 3.470766e+01 3.018093e+01 2.920889e+01 2.828683e+01 2.855507e+01 2.674643e+01 2.881129e+01 2.685423e+01 1.810697e+01 2.357266e+00 2.666195e+00 2.673126e+00 4.119907e+00 3.394136e+00 2.705081e+00 3.025253e+00 3.204086e+00 2.749122e+00 2.701698e+00 2.782157e+00 2.145745e+00 1.512166e-03
<GCONST> 9.139670e+01
<MIXTURE> 81 8.025434e-03
<MEAN> 25
 -1.118530e+00 4.066874e+00 1.017909e+01 -1.480345e+01 -9.080150e+00 -1.422738e+00 -6.767281e+00 -8.425864e+00 -4.151330e+00 -4.163636e-01 -7.574811e+00 -2.247138e+00 1.339105e-01 -5.872517e-01 -2.687164e-03 -5.564409e-01 -4.640433e-01 3.352244e-01 3.198680e-01 1.368759e-01 -1.403458e-01 1.066482e-01 -4.694382e-01 -1.252675e-01 1.151066e-02
<VARIANCE> 25
 1.015145e+01 3.280595e+01 2.646173e+01 2.928014e+01 3.370756e+01 3.052155e+01 4.544620e+01 2.825671e+01 3.799170e+01 3.188809e+01 2.529951e+01 3.105297e+01 7.722226e-01 2.277262e+00 1.545948e+00 2.872494e+00 2.663140e+00 2.126194e+00 3.280764e+00 2.287909e+00 2.355460e+00 2.539022e+00 2.298524e+00 2.078525e+00 1.183362e-03
<GCONST> 8.868577e+01
<MIXTURE> 82 8.213053e-03
<MEAN> 25
 -9.966157e+00 -3.903429e+00 1.640071e+00 -2.971834e+00 3.113790e+00 6.711376e-01 1.994631e+00 9.377558e-01 2.976376e+00 1.729290e+00 1.742767e+00 3.085325e+00 -1.314340e+00 -1.249124e-01 2.896895e-01 -2.604442e+00 -1.105517e+00 -1.265398e+00 -1.013560e+00 -8.702849e-01 -3.166661e-01 -4.782856e-01 -3.166563e-01 -9.514859e-02 1.784482e-01
<VARIANCE> 25
 1.801140e+01 2.493733e+01 3.237074e+01 3.088865e+01 3.302561e+01 3.229254e+01 3.178375e+01 3.298361e+01 3.085964e+01 2.512617e+01 3.079019e+01 1.750371e+01 3.754955e+00 3.049236e+00 3.316895e+00 3.268532e+00 3.562312e+00 3.286626e+00 2.943598e+00 3.016129e+00 2.795053e+00 2.490964e+00 2.449373e+00 1.865931e+00 3.429989e-03
<GCONST> 9.308212e+01
<MIXTURE> 83 1.167529e-02
<MEAN> 25
 -2.004081e+01 5.504238e+00 -1.789702e+00 -4.051103e-01 7.829639e+00 -1.234488e+00 5.460100e+00 3.044532e+00 1.192393e+00 2.190908e+00 7.244872e-01 2.881716e+00 -2.631321e-02 -4.501706e-01 4.872012e-03 -3.655977e-01 -4.974648e-01 -1.258521e-01 -1.343577e-01 -9.942717e-02 -4.144356e-02 -3.920248e-02 -3.058213e-02 -3.465528e-02 4.403248e-03
<VARIANCE> 25
 8.819281e+00 1.645402e+01 2.851271e+01 2.248555e+01 2.127508e+01 2.407955e+01 2.202746e+01 2.336420e+01 2.042958e+01 2.221887e+01 2.319599e+01 1.448780e+01 1.060910e+00 9.362046e-01 1.240790e+00 1.065688e+00 1.359398e+00 1.291389e+00 1.283447e+00 1.388157e+00 1.349015e+00 1.310737e+00 1.220778e+00 1.071650e+00 8.923843e-04
<GCONST> 7.703519e+01
<MIXTURE> 84 1.066614e-02
<MEAN> 25
 1.177893e+00 9.017187e+00 7.241011e+00 7.985385e+00 2.833040e+00 -9.158295e-01 -1.524657e+00 -4.479412e+00 -4.116321e+00 -2.912832e+00 -2.412152e+00 -1.595492e+00 -1.786306e+00 -1.184379e+00 -1.205061e+00 1.288588e+00 2.254289e+00 1.504410e+00 1.453585e+00 1.290501e+00 1.168618e+00 4.019163e-01 4.161278e-01 4.259411e-01 -7.164755e-02
<VARIANCE> 25
 2.347972e+01 1.828577e+01 2.161767e+01 2.411935e+01 2.915916e+01 2.828834e+01 2.793693e+01 2.653124e+01 2.529069e+01 2.523364e+01 2.358398e+01 2.459295e+01 2.103127e+00 2.541228e+00 3.848797e+00 3.299494e+00 3.273504e+00 3.374763e+00 3.288429e+00 3.405114e+00 3.481354e+00 3.251065e+00 3.587283e+00 2.803860e+00 3.530468e-03
<GCONST> 9.253480e+01
<MIXTURE> 85 7.591393e-03
<MEAN> 25
 -3.110719e+00 7.892380e+00 5.725119e+00 1.286123e+00 -3.493886e+00 -5.325594e+00 -2.980340e+00 -6.121626e+00 -3.542509e+00 -3.184667e+00 -4.793602e-01 -1.899521e+00 3.943540e+00 3.247992e-01 1.756039e+00 -2.091562e+00 -3.414684e+00 -2.583327e+00 -2.886126e+00 -2.341582e+00 -2.249178e+00 -1.264159e+00 -2.302943e+00 -6.158324e-01 9.208782e-03
<VARIANCE> 25
 4.247471e+01 2.343091e+01 3.647598e+01 3.822340e+01 3.974855e+01 4.119092e+01 3.216690e+01 2.789583e+01 2.664456e+01 2.611916e+01 2.622751e+01 2.056922e+01 2.704109e+00 4.326328e+00 4.058795e+00 5.182798e+00 4.408378e+00 3.880895e+00 3.853545e+00 3.987244e+00 3.849566e+00 4.040565e+00 3.941542e+00 3.485200e+00 5.446285e-03
<GCONST> 9.835508e+01
<MIXTURE> 86 1.273941e-02
<MEAN> 25
 -3.869612e+00 -8.323264e-01 -3.947830e-01 5.164310e+00 4.218552e+00 3.872031e+00 4.862074e+00 4.087653e+00 4.013712e+00 3.614664e+00 4.903326e+00 2.735132e+00 5.700210e-03 2.357672e-03 -9.307399e-02 1.457092e-02 -6.213742e-02 -2.688014e-01 -3.958895e-01 -4.364650e-01 -3.668211e-01 -3.717681e-01 -2.420954e-01 -7.279907e-02 8.367628e-05
<VARIANCE> 25
 9.493602e+00 5.053695e+00 8.667298e+00 1.375184e+01 1.459795e+01 1.403438e+01 1.226884e+01 1.243815e+01 1.453014e+01 1.168140e+01 1.433898e+01 1.128166e+01 9.243193e-02 1.687873e-01 2.857183e-01 4.496999e-01 6.204366e-01 7.002186e-01 9.982400e-01 7.005191e-01 1.011410e+00 7.509402e-01 1.013358e+00 8.560913e-01 6.796764e-05
<GCONST> 5.775162e+01
<MIXTURE> 87 1.100681e-02
<MEAN> 25
 -3.302625e+00 4.543689e+00 3.506430e+00 7.024518e+00 5.571197e+00 8.927538e-01 1.643437e+00 -9.471881e-01 -5.888819e-01 -8.892832e-01 -7.871979e-01 2.990798e-02 -2.152119e+00 -2.787143e+00 -2.102667e+00 -2.225971e+00 -3.749401e-02 -1.824466e-01 6.134053e-01 1.299882e+00 1.403898e+00 1.030883e+00 9.449993e-01 1.003853e+00 1.047128e-01
<VARIANCE> 25
 3.812075e+01 2.954541e+01 2.805895e+01 3.371807e+01 2.872225e+01 3.191743e+01 2.814896e+01 2.731097e+01 2.594379e+01 2.470211e+01 2.482109e+01 2.316261e+01 3.861208e+00 2.715424e+00 3.918868e+00 3.654053e+00 4.794627e+00 4.312070e+00 4.156393e+00 3.898763e+00 3.535401e+00 3.386642e+00 3.383918e+00 2.733032e+00 4.956866e-03
<GCONST> 9.633455e+01
<MIXTURE> 88 1.256585e-02
<MEAN> 25
 -3.773169e+00 -7.423594e-01 -1.303606e+00 4.779466e+00 4.158174e+00 3.281773e+00 4.231673e+00 3.028260e+00 3.226927e+00 2.044116e+00 2.698212e+00 2.478359e+00 9.614520e-03 1.484924e-01 1.816994e-01 3.505786e-01 3.113734e-01 2.376784e-01 -8.454575e-03 -2.379765e-01 -3.248600e-01 -2.198329e-01 -1.131907e-01 -5.635641e-02 -6.254285e-03
<VARIANCE> 25
 1.020728e+01 9.098701e+00 1.377943e+01 1.721678e+01 1.960344e+01 1.910445e+01 1.922042e+01 1.782801e+01 1.694159e+01 1.773197e+01 2.044738e+01 1.413244e+01 1.211541e+00 1.496091e+00 1.950786e+00 2.083720e+00 2.471765e+00 2.471380e+00 2.566137e+00 2.356387e+00 2.392931e+00 2.355118e+00 2.233883e+00 1.929896e+00 1.348591e-03
<GCONST> 8.126905e+01
<MIXTURE> 89 9.333527e-03
<MEAN> 25
 6.076591e+00 -6.831084e+00 -3.558736e+00 -3.167248e+00 -1.610795e+00 -5.588683e+00 -6.116086e+00 4.098988e+00 3.471843e+00 -2.804037e+00 -6.030565e+00 -3.288591e+00 -5.710530e-01 1.566503e-01 1.990338e+00 9.013383e-01 -1.868983e+00 -1.649168e+00 8.838378e-01 1.264608e+00 -7.889485e-01 -1.315856e+00 4.037711e-01 1.536240e+00 -4.875271e-03
<VARIANCE> 25
 9.002163e+00 2.671016e+01 3.106460e+01 3.019827e+01 3.608928e+01 4.166777e+01 5.967520e+01 4.212844e+01 3.909645e+01 4.241446e+01 3.581213e+01 3.238786e+01 3.538037e-01 8.413333e-01 1.471982e+00 1.316874e+00 1.917983e+00 2.125864e+00 2.576415e+00 2.041072e+00 2.248933e+00 2.128654e+00 2.330795e+00 1.470318e+00 3.665694e-04
<GCONST> 8.528996e+01
<MIXTURE> 90 7.114505e-03
<MEAN> 25
 2.416653e+00 -9.633837e+00 -4.732763e+00 -3.950619e+00 -3.353515e+00 -1.813266e+00 3.314057e+00 1.158948e+00 -7.484265e+00 -1.015260e+01 -3.453227e+00 -7.979960e-01 -1.616191e-01 9.016672e-01 1.161562e+00 -8.467700e-01 -1.600564e+00 -1.991797e-01 6.360395e-01 -2.213452e-01 -1.606912e-01 7.369399e-01 1.850684e-01 -5.432822e-01 -1.106597e-02
<VARIANCE> 25
 8.514578e+00 1.839882e+01 1.974580e+01 2.783464e+01 3.657113e+01 3.195015e+01 3.852206e+01 3.612251e+01 3.510621e+01 2.786160e+01 2.687368e+01 2.650225e+01 2.234258e-01 6.127462e-01 7.869917e-01 1.039932e+00 1.477268e+00 1.622197e+00 1.778186e+00 1.665380e+00 1.810283e+00 1.663404e+00 1.482665e+00 1.305976e+00 2.155362e-04
<GCONST> 7.815732e+01
<MIXTURE> 91 7.852945e-03
<MEAN> 25
 6.365708e+00 -7.625983e+00 -8.567204e+00 -5.155430e+00 3.953328e+00 -1.304638e-01 -2.196307e+00 7.224829e-01 7.707067e-01 -2.951901e+00 -4.944072e+00 -5.199461e+00 2.591763e-01 1.000592e+00 1.929589e-01 4.478970e-01 -6.999740e-02 -5.504318e-01 -3.871517e-01 -1.065452e-01 -9.947614e-02 4.581559e-01 -1.154626e-01 2.110811e-01 -3.488189e-02
<VARIANCE> 25
 1.027744e+01 2.271485e+01 1.992447e+01 4.048398e+01 3.515078e+01 5.536062e+01 5.429482e+01 3.955727e+01 5.181962e+01 6.405914e+01 3.817453e+01 4.147903e+01 4.447344e-01 8.867102e-01 1.125171e+00 1.383253e+00 2.188458e+00 2.401758e+00 2.366469e+00 2.390871e+00 2.246614e+00 2.210068e+00 2.008679e+00 1.816534e+00 5.884563e-04
<GCONST> 8.717653e+01
<MIXTURE> 92 7.852945e-03
<MEAN> 25
 6.365708e+00 -7.625983e+00 -8.567204e+00 -5.155430e+00 3.953328e+00 -1.304638e-01 -2.196307e+00 7.224829e-01 7.707067e-01 -2.951901e+00 -4.944072e+00 -5.199461e+00 2.591763e-01 1.000592e+00 1.929589e-01 4.478970e-01 -6.999740e-02 -5.504318e-01 -3.871517e-01 -1.065452e-01 -9.947614e-02 4.581559e-01 -1.154626e-01 2.110811e-01 -3.488189e-02
<VARIANCE> 25
 1.027744e+01 2.271485e+01 1.992447e+01 4.048398e+01 3.515078e+01 5.536062e+01 5.429482e+01 3.955727e+01 5.181962e+01 6.405914e+01 3.817453e+01 4.147903e+01 4.447344e-01 8.867102e-01 1.125171e+00 1.383253e+00 2.188458e+00 2.401758e+00 2.366469e+00 2.390871e+00 2.246614e+00 2.210068e+00 2.008679e+00 1.816534e+00 5.884563e-04
<GCONST> 8.717653e+01
<MIXTURE> 93 6.122769e-03
<MEAN> 25
 -6.805286e+00 -9.581552e-01 -2.393841e+00 5.780032e+00 5.894691e+00 3.917773e+00 6.109516e+00 3.601801e+00 4.111854e+00 2.505564e+00 1.816954e+00 3.685399e+00 -6.196946e-02 -1.548036e-01 -2.568050e-01 -3.305492e-01 -3.331410e-01 -2.857323e-01 -2.158359e-01 -1.727517e-01 -1.668089e-01 -1.495486e-01 -1.047040e-01 -3.425197e-02 -6.020475e-06
<VARIANCE> 25
 9.191591e+00 6.015776e+00 8.180991e+00 1.145070e+01 1.152406e+01 1.594700e+01 1.530769e+01 1.641978e+01 1.473516e+01 1.452115e+01 1.676001e+01 1.356265e+01 8.269363e-02 1.530667e-01 2.632704e-01 3.804289e-01 4.974607e-01 6.455359e-01 7.794356e-01 8.858606e-01 9.150893e-01 8.741680e-01 8.920354e-01 9.171898e-01 1.002549e-06
<GCONST> 5.361848e+01
<MIXTURE> 94 6.122769e-03
<MEAN> 25
 -6.805286e+00 -9.581552e-01 -2.393841e+00 5.780032e+00 5.894691e+00 3.917773e+00 6.109516e+00 3.601801e+00 4.111854e+00 2.505564e+00 1.816954e+00 3.685399e+00 -6.196946e-02 -1.548036e-01 -2.568050e-01 -3.305492e-01 -3.331410e-01 -2.857323e-01 -2.158359e-01 -1.727517e-01 -1.668089e-01 -1.495486e-01 -1.047040e-01 -3.425197e-02 -6.020475e-06
<VARIANCE> 25
 9.191591e+00 6.015776e+00 8.180991e+00 1.145070e+01 1.152406e+01 1.594700e+01 1.530769e+01 1.641978e+01 1.473516e+01 1.452115e+01 1.676001e+01 1.356265e+01 8.269363e-02 1.530667e-01 2.632704e-01 3.804289e-01 4.974607e-01 6.455359e-01 7.794356e-01 8.858606e-01 9.150893e-01 8.741680e-01 8.920354e-01 9.171898e-01 1.002549e-06
<GCONST> 5.361848e+01
<MIXTURE> 95 5.258835e-03
<MEAN> 25
 -3.807951e+00 -2.491217e-01 -1.303642e+00 3.606519e+00 3.333851e+00 2.291406e+00 3.375433e+00 1.031238e+00 1.929963e+00 1.146000e+00 1.638458e+00 2.159031e+00 1.255385e-01 6.720832e-02 4.867995e-02 1.744766e-02 -2.602697e-01 -7.609410e-01 -9.862614e-01 -1.222861e+00 -1.151338e+00 -9.665276e-01 -7.933655e-01 -4.172946e-01 -1.959164e-03
<VARIANCE> 25
 1.223491e+01 4.947571e+00 9.296669e+00 1.114810e+01 1.119298e+01 1.484161e+01 1.574148e+01 1.376264e+01 1.430425e+01 1.094430e+01 1.694871e+01 1.101474e+01 1.778315e-01 2.310941e-01 4.357417e-01 6.027377e-01 8.691782e-01 1.056147e+00 7.347054e-01 8.299614e-01 8.391424e-01 9.508844e-01 1.272547e+00 1.092046e+00 4.990044e-05
<GCONST> 6.055361e+01
<MIXTURE> 96 7.034694e-03
<MEAN> 25
 -4.363989e+00 -3.245435e-01 -1.898852e+00 4.596251e+00 3.326659e+00 1.600073e+00 2.916928e+00 1.773098e+00 2.597649e+00 9.238108e-01 1.268358e+00 2.521220e+00 -5.404263e-02 6.720704e-02 2.270390e-01 4.172498e-01 5.644457e-01 5.320740e-01 3.416999e-01 -2.282352e-02 -4.556696e-01 -6.757109e-01 -6.300234e-01 -3.389532e-01 6.472014e-05
<VARIANCE> 25
 1.261596e+01 8.702676e+00 1.209245e+01 1.446679e+01 1.478714e+01 1.825367e+01 1.978359e+01 1.819802e+01 1.906801e+01 1.549995e+01 1.811854e+01 1.515379e+01 1.111905e-01 2.040393e-01 2.823629e-01 3.735676e-01 4.551995e-01 6.901791e-01 9.380272e-01 1.020408e+00 9.142526e-01 7.865883e-01 8.276033e-01 9.756207e-01 1.089666e-06
<GCONST> 5.708827e+01
<MIXTURE> 97 7.034694e-03
<MEAN> 25
 -4.363989e+00 -3.245435e-01 -1.898852e+00 4.596251e+00 3.326659e+00 1.600073e+00 2.916928e+00 1.773098e+00 2.597649e+00 9.238108e-01 1.268358e+00 2.521220e+00 -5.404263e-02 6.720704e-02 2.270390e-01 4.172498e-01 5.644457e-01 5.320740e-01 3.416999e-01 -2.282352e-02 -4.556696e-01 -6.757109e-01 -6.300234e-01 -3.389532e-01 6.472014e-05
<VARIANCE> 25
 1.261596e+01 8.702676e+00 1.209245e+01 1.446679e+01 1.478714e+01 1.825367e+01 1.978359e+01 1.819802e+01 1.906801e+01 1.549995e+01 1.811854e+01 1.515379e+01 1.111905e-01 2.040393e-01 2.823629e-01 3.735676e-01 4.551995e-01 6.901791e-01 9.380272e-01 1.020408e+00 9.142526e-01 7.865883e-01 8.276033e-01 9.756207e-01 1.089666e-06
<GCONST> 5.708827e+01
<MIXTURE> 98 9.917808e-03
<MEAN> 25
 -1.467581e+00 9.535052e-01 -1.470623e-01 4.577176e+00 3.662970e+00 2.631996e+00 3.136856e+00 1.649510e+00 1.583622e+00 9.008408e-01 7.319435e-01 1.005282e+00 -1.797154e+00 -1.480327e+00 -1.006143e+00 1.570470e-01 6.423299e-01 8.222476e-01 1.262611e+00 1.438673e+00 1.685443e+00 1.142416e+00 1.324978e+00 9.704415e-01 -3.469729e-02
<VARIANCE> 25
 1.421465e+01 1.981436e+01 3.148829e+01 3.246663e+01 4.264936e+01 3.637703e+01 3.237082e+01 2.912223e+01 2.743626e+01 3.007621e+01 2.651178e+01 2.358817e+01 1.374159e+00 1.520563e+00 2.379610e+00 2.431369e+00 2.856323e+00 2.905770e+00 2.857340e+00 2.774790e+00 2.602217e+00 3.002519e+00 2.761474e+00 2.128885e+00 2.379093e-03
<GCONST> 9.033223e+01
<MIXTURE> 99 6.696178e-03
<MEAN> 25
 -6.232161e+00 9.678285e+00 6.586470e+00 3.397868e+00 8.882598e-01 -5.230586e+00 -1.825554e+00 -4.195569e+00 -3.432448e+00 -3.686026e+00 -1.513161e+00 3.646317e-01 5.158214e-01 -6.991945e-01 3.193938e-01 -3.875948e-01 -1.095843e+00 -5.137805e-01 -3.584234e-01 -2.678760e-01 -8.926884e-02 -3.645028e-02 2.399329e-01 1.772012e-01 1.030106e-02
<VARIANCE> 25
 3.607080e+01 2.754395e+01 4.699545e+01 3.093725e+01 3.554528e+01 3.447286e+01 2.753627e+01 2.870455e+01 2.615652e+01 2.727567e+01 2.052403e+01 2.826550e+01 2.231921e+00 1.863143e+00 1.417964e+00 1.692412e+00 2.671542e+00 2.054400e+00 1.596099e+00 1.643060e+00 1.531877e+00 1.544074e+00 1.276055e+00 1.247446e+00 1.525201e-03
<GCONST> 8.665451e+01
<MIXTURE> 100 4.498084e-03
<MEAN> 25
 -1.598878e+00 6.344827e+00 1.027700e+01 -7.462759e+00 -1.078206e+01 -5.075294e+00 -4.941668e+00 -9.968847e+00 -4.718240e+00 -8.551691e-01 -2.733300e+00 -2.708267e+00 2.917895e+00 -1.260455e+00 1.299659e+00 -2.185945e+00 -3.419489e+00 -7.841161e-01 -1.218778e+00 -8.197802e-01 -1.475479e+00 3.466953e-01 -1.655620e+00 -2.862392e-01 2.015521e-03
<VARIANCE> 25
 1.362666e+01 2.105913e+01 2.246177e+01 2.642710e+01 2.301848e+01 2.372172e+01 2.911146e+01 2.170685e+01 2.748231e+01 2.265230e+01 2.241141e+01 2.134114e+01 1.799129e+00 3.953767e+00 2.919965e+00 4.286306e+00 4.184435e+00 4.537227e+00 4.015484e+00 4.340374e+00 4.167888e+00 3.896067e+00 3.910382e+00 3.225015e+00 1.674840e-03
<GCONST> 9.256865e+01
<MIXTURE> 101 6.007792e-03
<MEAN> 25
 8.087474e+00 -3.486294e+00 -6.310662e+00 -6.862679e+00 8.451148e-01 -1.261405e+00 -1.058307e+01 -2.058974e+00 1.618582e+00 2.707252e+00 -2.391387e+00 -5.146109e+00 6.731660e-01 6.507004e-01 -1.455235e+00 -1.609141e+00 1.031529e+00 2.318807e+00 1.970646e-01 -1.460445e+00 -1.062468e+00 1.036634e+00 1.372775e+00 -4.148732e-01 -4.799147e-03
<VARIANCE> 25
 9.341100e+00 1.670447e+01 2.982323e+01 4.277623e+01 3.619865e+01 3.579323e+01 3.703767e+01 3.619453e+01 3.784782e+01 4.400389e+01 5.175511e+01 2.424961e+01 2.935615e-01 6.689062e-01 1.175210e+00 1.552893e+00 1.686852e+00 2.094977e+00 2.084648e+00 1.990860e+00 2.352150e+00 2.214748e+00 1.784647e+00 1.934429e+00 3.448158e-04
<GCONST> 8.364507e+01
<MIXTURE> 102 6.007792e-03
<MEAN> 25
 8.087474e+00 -3.486294e+00 -6.310662e+00 -6.862679e+00 8.451148e-01 -1.261405e+00 -1.058307e+01 -2.058974e+00 1.618582e+00 2.707252e+00 -2.391387e+00 -5.146109e+00 6.731660e-01 6.507004e-01 -1.455235e+00 -1.609141e+00 1.031529e+00 2.318807e+00 1.970646e-01 -1.460445e+00 -1.062468e+00 1.036634e+00 1.372775e+00 -4.148732e-01 -4.799147e-03
<VARIANCE> 25
 9.341100e+00 1.670447e+01 2.982323e+01 4.277623e+01 3.619865e+01 3.579323e+01 3.703767e+01 3.619453e+01 3.784782e+01 4.400389e+01 5.175511e+01 2.424961e+01 2.935615e-01 6.689062e-01 1.175210e+00 1.552893e+00 1.686852e+00 2.094977e+00 2.084648e+00 1.990860e+00 2.352150e+00 2.214748e+00 1.784647e+00 1.934429e+00 3.448158e-04
<GCONST> 8.364507e+01
<MIXTURE> 103 5.694618e-03
<MEAN> 25
 3.357985e+00 -9.454632e+00 -6.119743e+00 -3.083832e+00 -1.328795e+00 -1.965150e+00 2.430865e+00 2.509585e+00 -4.605722e+00 -9.240988e+00 -5.056008e+00 3.568663e-01 -1.579931e-01 -1.485227e+00 -9.795852e-01 3.745901e-01 1.212806e+00 1.019918e+00 1.599111e-01 -2.683649e-01 -7.832058e-01 -9.450748e-01 -3.716691e-02 1.192227e-01 2.681688e-02
<VARIANCE> 25
 1.033947e+01 2.049337e+01 2.290902e+01 3.161186e+01 4.792039e+01 3.493975e+01 4.632472e+01 3.661010e+01 4.202388e+01 2.934463e+01 3.001927e+01 2.641794e+01 6.434337e-01 1.253343e+00 1.535138e+00 1.935786e+00 2.920341e+00 2.406224e+00 2.883643e+00 2.572364e+00 2.566691e+00 2.518925e+00 2.095012e+00 2.012332e+00 8.111611e-04
<GCONST> 8.755638e+01
<MIXTURE> 104 5.694618e-03
<MEAN> 25
 3.357985e+00 -9.454632e+00 -6.119743e+00 -3.083832e+00 -1.328795e+00 -1.965150e+00 2.430865e+00 2.509585e+00 -4.605722e+00 -9.240988e+00 -5.056008e+00 3.568663e-01 -1.579931e-01 -1.485227e+00 -9.795852e-01 3.745901e-01 1.212806e+00 1.019918e+00 1.599111e-01 -2.683649e-01 -7.832058e-01 -9.450748e-01 -3.716691e-02 1.192227e-01 2.681688e-02
<VARIANCE> 25
 1.033947e+01 2.049337e+01 2.290902e+01 3.161186e+01 4.792039e+01 3.493975e+01 4.632472e+01 3.661010e+01 4.202388e+01 2.934463e+01 3.001927e+01 2.641794e+01 6.434337e-01 1.253343e+00 1.535138e+00 1.935786e+00 2.920341e+00 2.406224e+00 2.883643e+00 2.572364e+00 2.566691e+00 2.518925e+00 2.095012e+00 2.012332e+00 8.111611e-04
<GCONST> 8.755638e+01
<MIXTURE> 105 4.710235e-03
<MEAN> 25
 1.959753e+00 -1.284464e+00 7.742305e+00 -2.681354e+00 -1.053503e+01 -4.786989e+00 -4.163982e+00 -1.281583e+00 -3.615201e+00 -2.633031e+00 1.583608e+00 -9.056078e-01 3.823502e-03 5.833974e-02 7.198711e-02 1.897866e-03 -1.106269e-02 3.209158e-02 -7.273078e-03 8.820615e-03 -6.566467e-02 -7.293575e-02 2.593436e-02 2.819311e-02 -9.696757e-04
<VARIANCE> 25
 1.180700e+01 2.477367e+01 4.665882e+01 3.888313e+01 3.849310e+01 4.698513e+01 3.663480e+01 4.018509e+01 3.518690e+01 3.862191e+01 3.694672e+01 2.741006e+01 8.250084e-02 1.815629e-01 3.238839e-01 2.729534e-01 3.462651e-01 4.099406e-01 4.264432e-01 4.853715e-01 4.694292e-01 4.844148e-01 3.958472e-01 4.023314e-01 9.965895e-05
<GCONST> 6.537215e+01
<MIXTURE> 106 4.710235e-03
<MEAN> 25
 1.959753e+00 -1.284464e+00 7.742305e+00 -2.681354e+00 -1.053503e+01 -4.786989e+00 -4.163982e+00 -1.281583e+00 -3.615201e+00 -2.633031e+00 1.583608e+00 -9.056078e-01 3.823502e-03 5.833974e-02 7.198711e-02 1.897866e-03 -1.106269e-02 3.209158e-02 -7.273078e-03 8.820615e-03 -6.566467e-02 -7.293575e-02 2.593436e-02 2.819311e-02 -9.696757e-04
<VARIANCE> 25
 1.180700e+01 2.477367e+01 4.665882e+01 3.888313e+01 3.849310e+01 4.698513e+01 3.663480e+01 4.018509e+01 3.518690e+01 3.862191e+01 3.694672e+01 2.741006e+01 8.250084e-02 1.815629e-01 3.238839e-01 2.729534e-01 3.462651e-01 4.099406e-01 4.264432e-01 4.853715e-01 4.694292e-01 4.844148e-01 3.958472e-01 4.023314e-01 9.965895e-05
<GCONST> 6.537215e+01
<MIXTURE> 107 5.452374e-03
<MEAN> 25
 8.641658e+00 -2.310585e+00 -8.040830e+00 -9.561996e+00 1.965764e+00 2.958345e+00 -8.642018e+00 -4.554169e+00 -8.843715e-01 3.389118e+00 8.549491e-01 -5.074706e+00 -6.100116e-01 -7.684692e-01 8.360484e-01 1.773335e+00 2.254765e-01 -2.012958e+00 -9.218511e-01 8.485800e-01 1.767474e+00 4.706811e-02 -1.658153e+00 -8.203440e-01 -1.792987e-03
<VARIANCE> 25
 9.246569e+00 2.047030e+01 2.835356e+01 4.281373e+01 3.577188e+01 3.848131e+01 5.117594e+01 3.627413e+01 4.579974e+01 4.174098e+01 5.138065e+01 3.037107e+01 3.557568e-01 9.686576e-01 1.461974e+00 2.414171e+00 2.286794e+00 2.824248e+00 2.614743e+00 2.542222e+00 2.297755e+00 3.031247e+00 1.945474e+00 2.206990e+00 7.029679e-04
<GCONST> 8.804720e+01
<MIXTURE> 108 5.452374e-03
<MEAN> 25
 8.641658e+00 -2.310585e+00 -8.040830e+00 -9.561996e+00 1.965764e+00 2.958345e+00 -8.642018e+00 -4.554169e+00 -8.843715e-01 3.389118e+00 8.549491e-01 -5.074706e+00 -6.100116e-01 -7.684692e-01 8.360484e-01 1.773335e+00 2.254765e-01 -2.012958e+00 -9.218511e-01 8.485800e-01 1.767474e+00 4.706811e-02 -1.658153e+00 -8.203440e-01 -1.792987e-03
<VARIANCE> 25
 9.246569e+00 2.047030e+01 2.835356e+01 4.281373e+01 3.577188e+01 3.848131e+01 5.117594e+01 3.627413e+01 4.579974e+01 4.174098e+01 5.138065e+01 3.037107e+01 3.557568e-01 9.686576e-01 1.461974e+00 2.414171e+00 2.286794e+00 2.824248e+00 2.614743e+00 2.542222e+00 2.297755e+00 3.031247e+00 1.945474e+00 2.206990e+00 7.029679e-04
<GCONST> 8.804720e+01
<MIXTURE> 109 6.661064e-03
<MEAN> 25
 3.920010e+00 -1.026364e+01 -8.169887e+00 -1.381896e+00 2.642776e+00 -1.451388e-01 -1.802744e-01 1.354048e+00 -2.577490e+00 -8.250375e+00 -5.414695e+00 -2.007325e-01 -2.526490e-02 -1.212230e-01 -1.839921e-02 2.466261e-01 1.909354e-01 1.746204e-01 -1.146143e-01 -1.378650e-01 -8.107587e-03 -1.071023e-01 2.299003e-01 2.345799e-02 -3.317924e-03
<VARIANCE> 25
 9.584390e+00 2.007796e+01 2.005510e+01 3.047996e+01 3.991615e+01 3.610346e+01 4.579470e+01 3.368135e+01 4.465709e+01 3.472927e+01 2.894173e+01 3.019122e+01 1.911885e-01 4.163900e-01 5.393986e-01 6.234494e-01 1.200547e+00 1.115832e+00 1.232741e+00 1.117505e+00 1.147792e+00 9.470978e-01 8.628025e-01 8.729352e-01 1.815477e-04
<GCONST> 7.453430e+01
<MIXTURE> 110 6.661064e-03
<MEAN> 25
 3.920010e+00 -1.026364e+01 -8.169887e+00 -1.381896e+00 2.642776e+00 -1.451388e-01 -1.802744e-01 1.354048e+00 -2.577490e+00 -8.250375e+00 -5.414695e+00 -2.007325e-01 -2.526490e-02 -1.212230e-01 -1.839921e-02 2.466261e-01 1.909354e-01 1.746204e-01 -1.146143e-01 -1.378650e-01 -8.107587e-03 -1.071023e-01 2.299003e-01 2.345799e-02 -3.317924e-03
<VARIANCE> 25
 9.584390e+00 2.007796e+01 2.005510e+01 3.047996e+01 3.991615e+01 3.610346e+01 4.579470e+01 3.368135e+01 4.465709e+01 3.472927e+01 2.894173e+01 3.019122e+01 1.911885e-01 4.163900e-01 5.393986e-01 6.234494e-01 1.200547e+00 1.115832e+00 1.232741e+00 1.117505e+00 1.147792e+00 9.470978e-01 8.628025e-01 8.729352e-01 1.815477e-04
<GCONST> 7.453430e+01
<MIXTURE> 111 4.337247e-03
<MEAN> 25
 -1.165026e+00 -3.127505e-01 -4.749884e-01 3.924806e-01 2.696573e-01 3.434429e-03 -2.980395e-01 -2.638488e-01 -6.940162e-01 -6.362637e-01 -6.199176e-01 -3.092129e-02 8.771771e-03 -3.808529e-02 -1.999838e-02 -1.390130e-02 2.900302e-02 -2.514029e-02 -3.559513e-02 -6.806269e-02 -1.958593e-01 -1.788360e-01 -3.017875e-01 -1.682774e-01 -1.532012e-04
<VARIANCE> 25
 3.605611e+00 2.910689e+00 5.329237e+00 4.883802e+00 7.231166e+00 1.354903e+01 9.420815e+00 8.362628e+00 9.372835e+00 7.171926e+00 9.609223e+00 7.406647e+00 7.177956e-02 1.362170e-01 2.804158e-01 4.483750e-01 5.552996e-01 8.974810e-01 8.473583e-01 7.434101e-01 7.910852e-01 7.506920e-01 9.071441e-01 7.614439e-01 5.485331e-05
<GCONST> 5.041968e+01
<MIXTURE> 112 4.337247e-03
<MEAN> 25
 -1.165026e+00 -3.127505e-01 -4.749884e-01 3.924806e-01 2.696573e-01 3.434429e-03 -2.980395e-01 -2.638488e-01 -6.940162e-01 -6.362637e-01 -6.199176e-01 -3.092129e-02 8.771771e-03 -3.808529e-02 -1.999838e-02 -1.390130e-02 2.900302e-02 -2.514029e-02 -3.559513e-02 -6.806269e-02 -1.958593e-01 -1.788360e-01 -3.017875e-01 -1.682774e-01 -1.532012e-04
<VARIANCE> 25
 3.605611e+00 2.910689e+00 5.329237e+00 4.883802e+00 7.231166e+00 1.354903e+01 9.420815e+00 8.362628e+00 9.372835e+00 7.171926e+00 9.609223e+00 7.406647e+00 7.177956e-02 1.362170e-01 2.804158e-01 4.483750e-01 5.552996e-01 8.974810e-01 8.473583e-01 7.434101e-01 7.910852e-01 7.506920e-01 9.071441e-01 7.614439e-01 5.485331e-05
<GCONST> 5.041968e+01
<MIXTURE> 113 5.938666e-03
<MEAN> 25
 9.977365e+00 1.754898e+00 -8.781043e+00 -1.704677e+01 -1.034415e+00 5.658786e+00 -5.281087e+00 -1.466605e+00 -5.695627e+00 -4.937721e-01 2.989553e-01 -1.977353e-01 4.819975e-03 1.387394e-02 -5.950054e-02 -1.133744e-01 1.042892e-01 1.505681e-01 5.931064e-02 3.606499e-02 -5.693092e-02 -5.125591e-02 1.797411e-01 3.528692e-02 -1.409116e-03
<VARIANCE> 25
 8.880457e+00 1.639056e+01 2.967482e+01 3.420811e+01 5.273586e+01 3.386972e+01 3.970594e+01 3.914280e+01 3.737323e+01 4.640147e+01 3.629589e+01 2.844068e+01 1.217854e-01 3.205783e-01 3.161355e-01 6.313820e-01 6.128253e-01 6.536281e-01 7.765020e-01 8.452034e-01 9.594409e-01 9.052376e-01 7.244785e-01 7.135392e-01 1.247843e-04
<GCONST> 7.110433e+01
<MIXTURE> 114 5.938666e-03
<MEAN> 25
 9.977365e+00 1.754898e+00 -8.781043e+00 -1.704677e+01 -1.034415e+00 5.658786e+00 -5.281087e+00 -1.466605e+00 -5.695627e+00 -4.937721e-01 2.989553e-01 -1.977353e-01 4.819975e-03 1.387394e-02 -5.950054e-02 -1.133744e-01 1.042892e-01 1.505681e-01 5.931064e-02 3.606499e-02 -5.693092e-02 -5.125591e-02 1.797411e-01 3.528692e-02 -1.409116e-03
<VARIANCE> 25
 8.880457e+00 1.639056e+01 2.967482e+01 3.420811e+01 5.273586e+01 3.386972e+01 3.970594e+01 3.914280e+01 3.737323e+01 4.640147e+01 3.629589e+01 2.844068e+01 1.217854e-01 3.205783e-01 3.161355e-01 6.313820e-01 6.128253e-01 6.536281e-01 7.765020e-01 8.452034e-01 9.594409e-01 9.052376e-01 7.244785e-01 7.135392e-01 1.247843e-04
<GCONST> 7.110433e+01
<MIXTURE> 115 2.935202e-03
<MEAN> 25
 -3.840873e+00 -7.172539e-01 -2.970858e+00 3.428452e+00 2.252792e+00 -3.705736e-01 2.242830e+00 4.407612e-01 1.371583e+00 -2.785861e-02 8.355591e-03 2.548701e+00 3.070879e-02 -8.083308e-02 -2.318730e-01 -4.323196e-01 -6.503677e-01 -7.027111e-01 -5.698542e-01 -4.990332e-01 -4.734887e-01 -4.201508e-01 -3.058007e-01 -1.544060e-01 2.147783e-05
<VARIANCE> 25
 9.576263e+00 9.488992e+00 1.340919e+01 1.342802e+01 1.379250e+01 1.701754e+01 1.699932e+01 2.011429e+01 1.731155e+01 1.661658e+01 1.872735e+01 1.461826e+01 1.956180e-01 3.366544e-01 4.797611e-01 5.470490e-01 6.688083e-01 8.159347e-01 9.802058e-01 1.109742e+00 1.059698e+00 1.004902e+00 1.074131e+00 1.041306e+00 1.086636e-06
<GCONST> 6.007955e+01
<MIXTURE> 116 2.935202e-03
<MEAN> 25
 -3.840873e+00 -7.172539e-01 -2.970858e+00 3.428452e+00 2.252792e+00 -3.705736e-01 2.242830e+00 4.407612e-01 1.371583e+00 -2.785861e-02 8.355591e-03 2.548701e+00 3.070879e-02 -8.083308e-02 -2.318730e-01 -4.323196e-01 -6.503677e-01 -7.027111e-01 -5.698542e-01 -4.990332e-01 -4.734887e-01 -4.201508e-01 -3.058007e-01 -1.544060e-01 2.147783e-05
<VARIANCE> 25
 9.576263e+00 9.488992e+00 1.340919e+01 1.342802e+01 1.379250e+01 1.701754e+01 1.699932e+01 2.011429e+01 1.731155e+01 1.661658e+01 1.872735e+01 1.461826e+01 1.956180e-01 3.366544e-01 4.797611e-01 5.470490e-01 6.688083e-01 8.159347e-01 9.802058e-01 1.109742e+00 1.059698e+00 1.004902e+00 1.074131e+00 1.041306e+00 1.086636e-06
<GCONST> 6.007955e+01
<MIXTURE> 117 6.506003e-03
<MEAN> 25
 -4.642923e+00 1.117724e+00 1.054678e+00 9.754913e+00 6.257655e+00 6.255095e+00 6.461871e+00 5.043469e+00 6.383748e+00 4.928636e+00 6.366899e+00 2.708913e+00 -7.512223e-02 -2.340975e-01 -3.582740e-01 -4.197303e-01 -3.673050e-01 -3.030051e-01 -2.874962e-01 -3.315108e-01 -3.915781e-01 -3.688142e-01 -2.626968e-01 -1.158038e-01 -8.887704e-06
<VARIANCE> 25
 7.191836e+00 8.750134e+00 9.806371e+00 1.433750e+01 1.563083e+01 1.534962e+01 1.772587e+01 1.795952e+01 1.640884e+01 1.636637e+01 1.673781e+01 1.476165e+01 2.165874e-01 3.073973e-01 4.259940e-01 6.170770e-01 8.535697e-01 1.055527e+00 1.177658e+00 1.232563e+00 1.223752e+00 1.194493e+00 1.167887e+00 1.113546e+00 1.000927e-06
<GCONST> 6.043176e+01
<MIXTURE> 118 6.506003e-03
<MEAN> 25
 -4.642923e+00 1.117724e+00 1.054678e+00 9.754913e+00 6.257655e+00 6.255095e+00 6.461871e+00 5.043469e+00 6.383748e+00 4.928636e+00 6.366899e+00 2.708913e+00 -7.512223e-02 -2.340975e-01 -3.582740e-01 -4.197303e-01 -3.673050e-01 -3.030051e-01 -2.874962e-01 -3.315108e-01 -3.915781e-01 -3.688142e-01 -2.626968e-01 -1.158038e-01 -8.887704e-06
<VARIANCE> 25
 7.191836e+00 8.750134e+00 9.806371e+00 1.433750e+01 1.563083e+01 1.534962e+01 1.772587e+01 1.795952e+01 1.640884e+01 1.636637e+01 1.673781e+01 1.476165e+01 2.165874e-01 3.073973e-01 4.259940e-01 6.170770e-01 8.535697e-01 1.055527e+00 1.177658e+00 1.232563e+00 1.223752e+00 1.194493e+00 1.167887e+00 1.113546e+00 1.000927e-06
<GCONST> 6.043176e+01
<MIXTURE> 119 4.297961e-03
<MEAN> 25
 -4.840590e+00 -7.448793e+00 2.153397e+00 1.946321e+00 2.159227e+00 2.043076e-01 5.178605e+00 5.837046e+00 1.161607e+00 9.611722e-01 6.448447e+00 1.552959e+00 -5.092426e-02 -7.745636e-02 2.751665e-02 -6.174656e-02 -1.323358e-01 -1.711585e-01 -7.312939e-02 -2.101667e-02 -1.002074e-01 -1.045807e-01 -4.084316e-02 -6.542631e-02 8.520979e-04
<VARIANCE> 25
 8.892533e+00 1.075715e+01 1.636349e+01 1.987693e+01 2.259881e+01 2.271472e+01 2.474770e+01 2.632888e+01 2.452970e+01 2.739828e+01 2.094291e+01 2.007459e+01 1.586279e-01 2.775649e-01 4.582286e-01 6.260915e-01 7.992349e-01 1.005977e+00 1.107222e+00 1.267839e+00 1.273515e+00 1.227598e+00 1.244378e+00 1.104517e+00 2.348292e-04
<GCONST> 6.972197e+01
<MIXTURE> 120 4.297961e-03
<MEAN> 25
 -4.840590e+00 -7.448793e+00 2.153397e+00 1.946321e+00 2.159227e+00 2.043076e-01 5.178605e+00 5.837046e+00 1.161607e+00 9.611722e-01 6.448447e+00 1.552959e+00 -5.092426e-02 -7.745636e-02 2.751665e-02 -6.174656e-02 -1.323358e-01 -1.711585e-01 -7.312939e-02 -2.101667e-02 -1.002074e-01 -1.045807e-01 -4.084316e-02 -6.542631e-02 8.520979e-04
<VARIANCE> 25
 8.892533e+00 1.075715e+01 1.636349e+01 1.987693e+01 2.259881e+01 2.271472e+01 2.474770e+01 2.632888e+01 2.452970e+01 2.739828e+01 2.094291e+01 2.007459e+01 1.586279e-01 2.775649e-01 4.582286e-01 6.260915e-01 7.992349e-01 1.005977e+00 1.107222e+00 1.267839e+00 1.273515e+00 1.227598e+00 1.244378e+00 1.104517e+00 2.348292e-04
<GCONST> 6.972197e+01
<MIXTURE> 121 4.567511e-03
<MEAN> 25
 2.052062e-01 -2.494586e+00 5.042090e+00 -1.273901e+01 -1.250918e+01 -1.670238e+00 9.593759e-01 -5.074539e+00 -4.168879e+00 -4.772718e-01 -5.433528e+00 -4.285065e+00 2.363828e-02 1.293217e-01 -4.438787e-02 7.892901e-02 1.529206e-01 7.560390e-02 -7.415032e-02 -1.892685e-01 -2.676367e-01 -2.581681e-01 -1.151762e-01 5.330930e-03 -7.382595e-03
<VARIANCE> 25
 7.608689e+00 1.540079e+01 1.777527e+01 2.161157e+01 2.520019e+01 2.880684e+01 2.942842e+01 2.455198e+01 3.478056e+01 2.795693e+01 1.988093e+01 2.103777e+01 1.543022e-01 6.380543e-01 6.209264e-01 6.986868e-01 7.607314e-01 1.145725e+00 1.109194e+00 1.113423e+00 1.211895e+00 1.178180e+00 9.329404e-01 8.658229e-01 2.121821e-04
<GCONST> 7.135266e+01
<MIXTURE> 122 4.567511e-03
<MEAN> 25
 2.052062e-01 -2.494586e+00 5.042090e+00 -1.273901e+01 -1.250918e+01 -1.670238e+00 9.593759e-01 -5.074539e+00 -4.168879e+00 -4.772718e-01 -5.433528e+00 -4.285065e+00 2.363828e-02 1.293217e-01 -4.438787e-02 7.892901e-02 1.529206e-01 7.560390e-02 -7.415032e-02 -1.892685e-01 -2.676367e-01 -2.581681e-01 -1.151762e-01 5.330930e-03 -7.382595e-03
<VARIANCE> 25
 7.608689e+00 1.540079e+01 1.777527e+01 2.161157e+01 2.520019e+01 2.880684e+01 2.942842e+01 2.455198e+01 3.478056e+01 2.795693e+01 1.988093e+01 2.103777e+01 1.543022e-01 6.380543e-01 6.209264e-01 6.986868e-01 7.607314e-01 1.145725e+00 1.109194e+00 1.113423e+00 1.211895e+00 1.178180e+00 9.329404e-01 8.658229e-01 2.121821e-04
<GCONST> 7.135266e+01
<MIXTURE> 123 4.393044e-03
<MEAN> 25
 -2.846580e+00 6.501935e-01 3.316158e-01 4.331939e+00 4.066360e+00 2.351514e+00 2.257721e+00 3.669600e-01 1.706782e-01 -5.211988e-01 -6.889122e-01 4.608553e-01 -3.570805e-01 -7.615435e-01 -8.033639e-01 -6.420168e-01 -3.603936e-01 -6.476645e-02 3.276269e-01 6.998227e-01 6.731265e-01 4.907252e-01 5.836236e-01 3.779577e-01 -6.758152e-03
<VARIANCE> 25
 1.035227e+01 7.395354e+00 1.123736e+01 1.792822e+01 1.942793e+01 2.328769e+01 1.974925e+01 1.399926e+01 1.411211e+01 1.377922e+01 1.736417e+01 1.575247e+01 4.179345e-01 3.325891e-01 4.492834e-01 5.567029e-01 9.104552e-01 9.768046e-01 1.005619e+00 1.008890e+00 1.053746e+00 1.004075e+00 1.304398e+00 9.660634e-01 1.387024e-04
<GCONST> 6.615149e+01
<MIXTURE> 124 4.069876e-03
<MEAN> 25
 -6.310347e+00 -1.176024e+00 -2.790615e+00 4.890476e+00 4.839355e+00 3.338171e+00 5.231647e+00 2.563678e+00 3.094298e+00 1.294730e+00 1.085694e+00 2.871658e+00 -2.020672e-01 -3.224353e-01 -3.581718e-01 -2.230161e-01 1.303442e-01 5.401011e-01 8.333780e-01 8.529219e-01 6.256695e-01 3.252374e-01 6.685364e-02 -1.008551e-02 1.895283e-05
<VARIANCE> 25
 1.190429e+01 6.783076e+00 1.108237e+01 1.288762e+01 1.201081e+01 1.918248e+01 1.602826e+01 1.680016e+01 1.519057e+01 1.554935e+01 1.876160e+01 1.504181e+01 1.033756e-01 1.644770e-01 2.644948e-01 4.075836e-01 5.792477e-01 7.009196e-01 7.400967e-01 7.891545e-01 9.487215e-01 9.567631e-01 9.870754e-01 9.954857e-01 1.812947e-05
<GCONST> 5.866945e+01
<MIXTURE> 125 4.069876e-03
<MEAN> 25
 -6.310347e+00 -1.176024e+00 -2.790615e+00 4.890476e+00 4.839355e+00 3.338171e+00 5.231647e+00 2.563678e+00 3.094298e+00 1.294730e+00 1.085694e+00 2.871658e+00 -2.020672e-01 -3.224353e-01 -3.581718e-01 -2.230161e-01 1.303442e-01 5.401011e-01 8.333780e-01 8.529219e-01 6.256695e-01 3.252374e-01 6.685364e-02 -1.008551e-02 1.895283e-05
<VARIANCE> 25
 1.190429e+01 6.783076e+00 1.108237e+01 1.288762e+01 1.201081e+01 1.918248e+01 1.602826e+01 1.680016e+01 1.519057e+01 1.554935e+01 1.876160e+01 1.504181e+01 1.033756e-01 1.644770e-01 2.644948e-01 4.075836e-01 5.792477e-01 7.009196e-01 7.400967e-01 7.891545e-01 9.487215e-01 9.567631e-01 9.870754e-01 9.954857e-01 1.812947e-05
<GCONST> 5.866945e+01
<MIXTURE> 126 2.402244e-03
<MEAN> 25
 -3.408986e+00 -6.265429e+00 -4.815671e+00 1.973680e+00 3.729714e+00 -2.969898e+00 1.680913e-01 3.213672e+00 2.948628e+00 -2.481965e+00 -1.431895e+00 2.819908e+00 7.812685e-04 -1.225031e-02 -6.764581e-02 -1.945045e-01 -3.660010e-01 -3.752911e-01 -3.141938e-01 -1.887145e-01 -1.309435e-01 -6.719458e-02 -9.320261e-02 -6.140575e-02 -2.456347e-03
<VARIANCE> 25
 7.677818e+00 1.454600e+01 1.396799e+01 1.460775e+01 2.448481e+01 2.243781e+01 2.091590e+01 2.707507e+01 2.960583e+01 2.408267e+01 2.009977e+01 1.896292e+01 1.643462e-01 3.278143e-01 4.803227e-01 5.572278e-01 7.854245e-01 1.006299e+00 1.086649e+00 1.278008e+00 1.282485e+00 1.238367e+00 1.207317e+00 1.134250e+00 2.288910e-04
<GCONST> 6.939016e+01
<MIXTURE> 127 2.402244e-03
<MEAN> 25
 -3.408986e+00 -6.265429e+00 -4.815671e+00 1.973680e+00 3.729714e+00 -2.969898e+00 1.680913e-01 3.213672e+00 2.948628e+00 -2.481965e+00 -1.431895e+00 2.819908e+00 7.812685e-04 -1.225031e-02 -6.764581e-02 -1.945045e-01 -3.660010e-01 -3.752911e-01 -3.141938e-01 -1.887145e-01 -1.309435e-01 -6.719458e-02 -9.320261e-02 -6.140575e-02 -2.456347e-03
<VARIANCE> 25
 7.677818e+00 1.454600e+01 1.396799e+01 1.460775e+01 2.448481e+01 2.243781e+01 2.091590e+01 2.707507e+01 2.960583e+01 2.408267e+01 2.009977e+01 1.896292e+01 1.643462e-01 3.278143e-01 4.803227e-01 5.572278e-01 7.854245e-01 1.006299e+00 1.086649e+00 1.278008e+00 1.282485e+00 1.238367e+00 1.207317e+00 1.134250e+00 2.288910e-04
<GCONST> 6.939016e+01
<MIXTURE> 128 3.790457e-03
<MEAN> 25
 -3.891232e+00 1.531329e+00 -3.308884e-01 6.507511e+00 3.573167e+00 1.841884e+00 3.568007e+00 2.394410e+00 3.952162e+00 3.678682e+00 3.779398e+00 3.498362e+00 -3.974414e-01 -1.966533e-01 1.009310e-01 7.294576e-01 1.185102e+00 1.140378e+00 7.240341e-01 1.321222e-01 -4.517397e-01 -7.817441e-01 -6.997553e-01 -3.911487e-01 -1.319943e-05
<VARIANCE> 25
 1.028999e+01 1.160479e+01 1.486131e+01 1.964211e+01 2.009558e+01 2.106618e+01 2.429046e+01 2.451039e+01 2.619419e+01 2.376736e+01 2.659662e+01 1.819838e+01 8.853266e-01 1.135756e+00 1.353682e+00 1.491359e+00 1.567151e+00 1.848935e+00 2.234895e+00 2.309711e+00 2.148821e+00 1.850624e+00 1.733094e+00 1.740381e+00 1.054742e-06
<GCONST> 7.359470e+01
<TRANSP> 3
 0.000000e+00 1.000000e+00 0.000000e+00
 0.000000e+00 9.999990e-01 9.999998e-07
 0.000000e+00 0.000000e+00 0.000000e+00
<ENDHMM>
