~o
<STREAMINFO> 1 25
<VECSIZE> 25<NULLD><MFCC_E_D_N><DIAGC>
~h "jmodel"
<BEGINHMM>
<NUMSTATES> 3
<STATE> 2
<NUMMIXES> 128
<MIXTURE> 1 5.748963e-03
<MEAN> 25
 -2.583310e+00 3.181520e+00 2.311426e+00 8.752575e+00 4.371082e+00 3.449759e+00 4.061881e+00 3.934726e+00 5.829454e+00 5.249835e+00 5.880388e+00 3.079067e+00 -2.003661e+00 -1.633702e+00 -8.644174e-01 1.075022e+00 1.560830e+00 2.232425e+00 2.154308e+00 2.084905e+00 1.693328e+00 1.269161e+00 1.566770e+00 6.130821e-01 -4.691738e-02
<VARIANCE> 25
 1.006119e+01 1.175597e+01 1.494449e+01 1.868600e+01 2.318634e+01 2.214491e+01 2.189290e+01 2.197106e+01 2.101480e+01 2.255014e+01 2.098458e+01 1.708957e+01 1.790258e+00 2.113612e+00 3.025167e+00 3.210695e+00 3.737843e+00 3.355532e+00 3.317534e+00 3.379075e+00 3.519971e+00 3.726110e+00 3.513548e+00 2.833441e+00 3.120475e-03
<GCONST> 8.846469e+01
<MIXTURE> 2 4.549242e-03
<MEAN> 25
 -4.854455e+00 1.324600e+00 9.954882e-01 9.891008e+00 6.706525e+00 7.419082e+00 7.832047e+00 6.928039e+00 8.351752e+00 6.372667e+00 7.595430e+00 3.062000e+00 -6.383800e-02 3.899589e-02 1.413460e-01 2.248015e-01 2.642079e-01 2.779963e-01 2.958274e-01 3.191152e-01 3.541853e-01 3.111358e-01 1.942381e-01 7.856058e-02 1.769009e-06
<VARIANCE> 25
 7.011635e+00 8.900239e+00 1.060477e+01 1.587437e+01 1.722189e+01 1.549704e+01 1.687017e+01 1.860365e+01 1.660887e+01 1.736800e+01 1.820346e+01 1.431628e+01 1.254714e-01 2.272287e-01 3.355825e-01 4.651481e-01 6.466978e-01 8.143541e-01 9.272954e-01 9.990280e-01 1.051473e+00 1.074697e+00 1.072570e+00 1.010475e+00 1.000336e-06
<GCONST> 5.802499e+01
<MIXTURE> 3 4.549242e-03
<MEAN> 25
 -4.854455e+00 1.324600e+00 9.954882e-01 9.891008e+00 6.706525e+00 7.419082e+00 7.832047e+00 6.928039e+00 8.351752e+00 6.372667e+00 7.595430e+00 3.062000e+00 -6.383800e-02 3.899589e-02 1.413460e-01 2.248015e-01 2.642079e-01 2.779963e-01 2.958274e-01 3.191152e-01 3.541853e-01 3.111358e-01 1.942381e-01 7.856058e-02 1.769009e-06
<VARIANCE> 25
 7.011635e+00 8.900239e+00 1.060477e+01 1.587437e+01 1.722189e+01 1.549704e+01 1.687017e+01 1.860365e+01 1.660887e+01 1.736800e+01 1.820346e+01 1.431628e+01 1.254714e-01 2.272287e-01 3.355825e-01 4.651481e-01 6.466978e-01 8.143541e-01 9.272954e-01 9.990280e-01 1.051473e+00 1.074697e+00 1.072570e+00 1.010475e+00 1.000336e-06
<GCONST> 5.802499e+01
<MIXTURE> 4 1.671429e-02
<MEAN> 25
 2.867170e+00 1.371649e+00 -3.364295e+00 3.459505e-02 3.685592e+00 1.292402e-01 6.562774e-01 -5.897258e-02 2.008494e+00 2.007797e+00 -2.608801e+00 -6.774548e-01 -2.987684e+00 1.468430e+00 1.654095e+00 2.375125e+00 1.268744e+00 7.220249e-01 1.462375e+00 9.177071e-01 7.607389e-01 5.396938e-01 9.900594e-01 7.130114e-01 -8.506028e-02
<VARIANCE> 25
 2.021844e+01 3.124019e+01 2.590175e+01 3.657678e+01 3.995118e+01 6.459812e+01 5.417736e+01 5.807914e+01 4.816007e+01 6.515279e+01 4.270547e+01 3.094308e+01 2.256084e+00 5.077114e+00 3.086120e+00 5.859478e+00 4.667182e+00 5.216925e+00 5.279466e+00 7.411952e+00 4.955260e+00 6.684855e+00 5.174175e+00 3.685607e+00 6.751054e-03
<GCONST> 1.040397e+02
<MIXTURE> 5 3.206198e-03
<MEAN> 25
 -3.415624e+00 2.181774e+00 6.099890e-01 9.423881e+00 6.696236e+00 6.316807e+00 7.112226e+00 4.722525e+00 5.496357e+00 3.847162e+00 4.654909e+00 2.605427e+00 -3.244333e-01 7.521881e-01 1.223930e+00 1.031966e+00 3.071438e-01 -1.003264e-01 -8.392614e-02 3.385791e-02 4.581178e-01 6.838660e-01 4.038486e-01 8.793880e-02 -2.932092e-05
<VARIANCE> 25
 1.024834e+01 1.393731e+01 2.347398e+01 2.564070e+01 2.021206e+01 1.941693e+01 2.010921e+01 2.035611e+01 2.140952e+01 2.128686e+01 2.410509e+01 1.635565e+01 1.209401e+00 1.244658e+00 1.357570e+00 1.673181e+00 2.284180e+00 2.375128e+00 2.301840e+00 2.274423e+00 2.315577e+00 2.238166e+00 2.084611e+00 1.873108e+00 1.004902e-06
<GCONST> 7.516737e+01
<MIXTURE> 6 5.475854e-03
<MEAN> 25
 9.708024e+00 -9.057598e-01 -6.717931e+00 -1.087547e+01 -2.388695e+00 7.197625e+00 -5.279345e+00 -5.791200e+00 -4.169041e+00 2.071986e+00 4.727117e+00 -1.224031e+00 4.843869e-01 9.294516e-01 -4.258004e-01 -1.382617e+00 -7.433707e-01 1.250262e+00 1.363422e+00 1.923334e-01 -1.079272e+00 -1.069364e+00 3.755805e-01 1.184173e+00 -8.483288e-03
<VARIANCE> 25
 8.256205e+00 1.833442e+01 2.210312e+01 3.669976e+01 3.482940e+01 3.056997e+01 4.495631e+01 3.778066e+01 4.040963e+01 3.701340e+01 3.914219e+01 2.632008e+01 3.002891e-01 8.469846e-01 1.009113e+00 1.965943e+00 1.623421e+00 1.910051e+00 2.162381e+00 1.953425e+00 2.436532e+00 2.081172e+00 2.249015e+00 1.348319e+00 6.403427e-04
<GCONST> 8.358880e+01
<MIXTURE> 7 5.475854e-03
<MEAN> 25
 9.708024e+00 -9.057598e-01 -6.717931e+00 -1.087547e+01 -2.388695e+00 7.197625e+00 -5.279345e+00 -5.791200e+00 -4.169041e+00 2.071986e+00 4.727117e+00 -1.224031e+00 4.843869e-01 9.294516e-01 -4.258004e-01 -1.382617e+00 -7.433707e-01 1.250262e+00 1.363422e+00 1.923334e-01 -1.079272e+00 -1.069364e+00 3.755805e-01 1.184173e+00 -8.483288e-03
<VARIANCE> 25
 8.256205e+00 1.833442e+01 2.210312e+01 3.669976e+01 3.482940e+01 3.056997e+01 4.495631e+01 3.778066e+01 4.040963e+01 3.701340e+01 3.914219e+01 2.632008e+01 3.002891e-01 8.469846e-01 1.009113e+00 1.965943e+00 1.623421e+00 1.910051e+00 2.162381e+00 1.953425e+00 2.436532e+00 2.081172e+00 2.249015e+00 1.348319e+00 6.403427e-04
<GCONST> 8.358880e+01
<MIXTURE> 8 1.165917e-02
<MEAN> 25
 -4.722385e+00 1.370826e+00 1.310803e+00 9.487123e+00 6.575508e+00 6.226906e+00 6.466617e+00 5.707504e+00 6.622603e+00 5.558946e+00 6.531601e+00 3.135737e+00 -6.215562e-01 -1.423617e+00 -1.080881e+00 -1.724252e+00 -2.244524e-01 -9.428517e-01 -1.828444e-01 -2.874283e-01 -2.556328e-01 -1.743435e-01 -2.317545e-01 7.496321e-02 9.819464e-02
<VARIANCE> 25
 9.302800e+00 9.788115e+00 1.170835e+01 1.648987e+01 1.660110e+01 1.574324e+01 1.800962e+01 1.749350e+01 1.716482e+01 1.794238e+01 1.901780e+01 1.392837e+01 2.742314e+00 2.807832e+00 3.890613e+00 3.757167e+00 3.432949e+00 3.291571e+00 3.108002e+00 3.057022e+00 2.864321e+00 2.636991e+00 2.487287e+00 1.892242e+00 6.687841e-03
<GCONST> 8.631252e+01
<MIXTURE> 9 1.199672e-02
<MEAN> 25
 8.749196e+00 1.499299e+00 -6.113606e+00 -9.660856e+00 -2.033955e+00 5.836968e+00 -1.268831e-01 -3.793084e+00 -6.795465e+00 -9.122930e-02 5.162187e-01 -2.207868e-01 1.300856e+00 -3.153372e-01 -5.064401e-01 -2.395889e+00 -1.252199e+00 6.709127e-01 -1.090121e+00 -8.312061e-02 -3.877891e-01 -2.574155e-01 9.028135e-01 -3.043106e-01 7.142919e-02
<VARIANCE> 25
 1.300565e+01 2.841311e+01 2.944391e+01 5.232690e+01 4.090680e+01 2.962858e+01 4.197218e+01 5.798217e+01 3.567027e+01 3.501646e+01 2.856568e+01 2.087408e+01 2.140947e+00 2.352806e+00 3.497820e+00 4.794255e+00 4.827946e+00 3.093192e+00 3.976785e+00 5.890567e+00 4.623553e+00 3.482550e+00 3.628906e+00 2.672431e+00 1.782379e-03
<GCONST> 9.663209e+01
<MIXTURE> 10 6.596976e-03
<MEAN> 25
 8.248729e-01 7.614792e+00 5.381845e+00 7.136416e+00 1.531652e+00 -2.136752e+00 -5.447695e-01 -1.713160e+00 8.680258e-01 8.422852e-01 8.307821e-01 6.728013e-01 -1.916553e+00 -6.720484e-01 -4.674269e-01 3.007901e+00 2.469634e+00 2.709050e+00 2.373637e+00 2.280093e+00 1.854764e+00 1.547955e+00 2.314637e+00 5.124429e-01 -1.377740e-01
<VARIANCE> 25
 1.943408e+01 2.062368e+01 2.219209e+01 2.891424e+01 3.865609e+01 3.482504e+01 3.506368e+01 3.377500e+01 2.749361e+01 2.894361e+01 2.681639e+01 2.495070e+01 2.232822e+00 3.406318e+00 5.515099e+00 5.204925e+00 5.525804e+00 4.443115e+00 4.671651e+00 4.815965e+00 4.369896e+00 4.993454e+00 4.491214e+00 3.198843e+00 2.702802e-03
<GCONST> 9.740616e+01
<MIXTURE> 11 1.633820e-02
<MEAN> 25
 7.451634e+00 2.800928e+00 2.196211e+00 4.697174e+00 -3.179051e+00 -1.294852e+00 -1.343725e+00 -5.901577e+00 -3.487399e+00 4.081828e-01 -2.879644e+00 -2.149626e+00 -2.758706e-01 4.753566e-01 2.552490e-01 2.308748e-01 5.405310e-01 1.832129e-02 2.225522e-01 -6.583112e-02 -4.987575e-02 -2.121088e-01 -3.074375e-01 1.752466e-01 -1.892215e-02
<VARIANCE> 25
 1.023580e+01 3.119903e+01 2.048328e+01 3.104526e+01 3.104305e+01 4.487106e+01 5.262380e+01 5.246080e+01 4.281571e+01 2.873232e+01 3.238910e+01 2.285327e+01 7.789112e-01 1.142382e+00 1.507910e+00 1.981751e+00 1.887264e+00 2.161956e+00 2.008561e+00 2.619979e+00 1.848394e+00 1.758451e+00 1.991896e+00 1.349477e+00 9.482905e-04
<GCONST> 8.630389e+01
<MIXTURE> 12 5.904134e-03
<MEAN> 25
 1.071684e+01 3.514502e+00 -4.580661e+00 -1.576457e+01 -8.648448e+00 8.738917e+00 -8.569784e-01 -2.249824e+00 -1.972258e+00 -4.664756e+00 1.888077e+00 7.052419e-01 5.795307e-02 3.357650e-01 7.800659e-02 -3.424928e-01 -3.342587e-01 2.513879e-02 3.028445e-01 4.222588e-01 1.628228e-01 -3.924752e-01 -3.928097e-01 7.749600e-02 -7.964510e-03
<VARIANCE> 25
 8.836243e+00 2.225854e+01 2.282412e+01 3.564586e+01 4.103954e+01 3.048558e+01 4.080832e+01 5.113348e+01 4.466734e+01 3.783219e+01 3.769603e+01 2.804563e+01 2.451012e-01 7.304928e-01 6.847126e-01 1.158739e+00 1.216644e+00 1.021949e+00 1.143506e+00 1.372901e+00 1.229841e+00 1.191909e+00 1.199327e+00 9.456412e-01 6.562457e-04
<GCONST> 7.899751e+01
<MIXTURE> 13 5.904134e-03
<MEAN> 25
 1.071684e+01 3.514502e+00 -4.580661e+00 -1.576457e+01 -8.648448e+00 8.738917e+00 -8.569784e-01 -2.249824e+00 -1.972258e+00 -4.664756e+00 1.888077e+00 7.052419e-01 5.795307e-02 3.357650e-01 7.800659e-02 -3.424928e-01 -3.342587e-01 2.513879e-02 3.028445e-01 4.222588e-01 1.628228e-01 -3.924752e-01 -3.928097e-01 7.749600e-02 -7.964510e-03
<VARIANCE> 25
 8.836243e+00 2.225854e+01 2.282412e+01 3.564586e+01 4.103954e+01 3.048558e+01 4.080832e+01 5.113348e+01 4.466734e+01 3.783219e+01 3.769603e+01 2.804563e+01 2.451012e-01 7.304928e-01 6.847126e-01 1.158739e+00 1.216644e+00 1.021949e+00 1.143506e+00 1.372901e+00 1.229841e+00 1.191909e+00 1.199327e+00 9.456412e-01 6.562457e-04
<GCONST> 7.899751e+01
<MIXTURE> 14 6.488954e-03
<MEAN> 25
 -4.109907e+00 -1.831222e-01 -3.422406e-01 8.587541e+00 7.451055e+00 7.358282e+00 7.784696e+00 7.298392e+00 7.310628e+00 4.833094e+00 6.474563e+00 4.104626e+00 -2.613700e-01 1.929349e-01 3.659438e-01 2.905463e-01 -2.156038e-02 6.581831e-02 1.137175e-01 1.820392e-01 2.672168e-01 5.040368e-01 4.896065e-01 8.963271e-02 -8.637819e-03
<VARIANCE> 25
 9.585603e+00 1.384695e+01 1.779613e+01 1.870530e+01 2.002655e+01 1.862795e+01 2.117432e+01 1.991407e+01 1.968880e+01 2.609960e+01 2.322789e+01 1.553304e+01 9.314672e-01 1.625930e+00 1.823298e+00 1.883327e+00 2.213628e+00 2.158945e+00 2.174180e+00 2.166162e+00 2.218899e+00 2.458587e+00 2.139714e+00 1.863144e+00 1.004000e-03
<GCONST> 8.167769e+01
<MIXTURE> 15 2.475190e-03
<MEAN> 25
 -5.408241e+00 -6.296831e-01 -1.967598e-01 7.351730e+00 5.716077e+00 5.705220e+00 6.062387e+00 4.970638e+00 5.163678e+00 4.140297e+00 5.474580e+00 2.540984e+00 -1.205909e-01 -2.893371e-02 7.433024e-02 2.417657e-01 4.885051e-01 7.828618e-01 1.067311e+00 1.181349e+00 1.061027e+00 7.575702e-01 4.194881e-01 1.531208e-01 -8.910147e-05
<VARIANCE> 25
 7.030367e+00 5.673395e+00 9.025270e+00 1.285641e+01 1.406199e+01 1.425680e+01 1.489387e+01 1.489894e+01 1.409319e+01 1.425613e+01 1.525650e+01 1.252149e+01 1.246620e-01 2.079014e-01 3.190767e-01 5.033519e-01 7.000991e-01 7.954944e-01 7.759011e-01 7.905189e-01 9.084335e-01 1.026983e+00 1.071281e+00 1.041677e+00 2.793290e-05
<GCONST> 5.864392e+01
<MIXTURE> 16 2.475190e-03
<MEAN> 25
 -5.408241e+00 -6.296831e-01 -1.967598e-01 7.351730e+00 5.716077e+00 5.705220e+00 6.062387e+00 4.970638e+00 5.163678e+00 4.140297e+00 5.474580e+00 2.540984e+00 -1.205909e-01 -2.893371e-02 7.433024e-02 2.417657e-01 4.885051e-01 7.828618e-01 1.067311e+00 1.181349e+00 1.061027e+00 7.575702e-01 4.194881e-01 1.531208e-01 -8.910147e-05
<VARIANCE> 25
 7.030367e+00 5.673395e+00 9.025270e+00 1.285641e+01 1.406199e+01 1.425680e+01 1.489387e+01 1.489894e+01 1.409319e+01 1.425613e+01 1.525650e+01 1.252149e+01 1.246620e-01 2.079014e-01 3.190767e-01 5.033519e-01 7.000991e-01 7.954944e-01 7.759011e-01 7.905189e-01 9.084335e-01 1.026983e+00 1.071281e+00 1.041677e+00 2.793290e-05
<GCONST> 5.864392e+01
<MIXTURE> 17 9.518312e-03
<MEAN> 25
 3.850280e+00 -9.361029e-01 5.886810e+00 2.561451e+00 -5.794215e+00 -6.477063e+00 -3.026189e+00 4.301024e-02 -2.296812e+00 -3.159743e+00 -1.167794e-01 -4.165985e-02 -8.123941e-01 -1.237004e+00 1.252309e+00 -2.094863e+00 -2.171113e+00 -5.977364e-02 1.869770e-01 5.467566e-01 -2.605480e-01 4.053272e-02 1.070417e+00 3.852675e-01 8.109117e-02
<VARIANCE> 25
 1.627128e+01 3.182240e+01 3.213437e+01 3.818106e+01 4.333170e+01 4.719460e+01 4.063929e+01 3.777316e+01 3.749277e+01 2.679125e+01 2.787683e+01 2.659144e+01 1.962627e+00 2.565768e+00 3.846878e+00 3.032907e+00 4.408977e+00 5.393212e+00 5.018133e+00 5.534989e+00 3.849358e+00 4.737164e+00 2.959275e+00 2.575394e+00 2.039841e-03
<GCONST> 9.709453e+01
<MIXTURE> 18 1.221018e-02
<MEAN> 25
 3.778764e+00 4.246890e+00 6.483520e+00 4.794755e+00 -4.983508e+00 -8.227397e+00 -2.064855e+00 -1.391718e+00 -3.008740e+00 -2.638701e+00 -1.086226e+00 6.590826e-01 -7.259173e-01 1.924362e+00 -3.082371e-01 1.818190e+00 3.096240e+00 1.539347e+00 8.496863e-01 -7.878622e-02 6.948577e-01 6.800609e-01 -4.431267e-01 -2.028168e-01 -1.196036e-01
<VARIANCE> 25
 1.438224e+01 2.460945e+01 3.088252e+01 2.326569e+01 3.830256e+01 2.991567e+01 3.504027e+01 3.984193e+01 3.704342e+01 3.171429e+01 2.968180e+01 2.926124e+01 2.275285e+00 3.158006e+00 4.319344e+00 3.915091e+00 3.668944e+00 4.127750e+00 4.222487e+00 4.321761e+00 4.065633e+00 4.243167e+00 4.141899e+00 3.329483e+00 3.735859e-03
<GCONST> 9.681799e+01
<MIXTURE> 19 9.912824e-03
<MEAN> 25
 -1.077383e+01 2.596949e+00 1.449321e+00 -5.772849e-01 3.735975e+00 1.411834e+00 3.394580e+00 1.522141e+00 3.378415e+00 2.280199e+00 1.919644e-01 1.423566e+00 1.894078e+00 1.594922e+00 2.077970e+00 8.285385e-01 -1.080618e+00 -1.465828e+00 -1.326410e+00 -1.462316e+00 -1.699277e+00 -1.279858e+00 -7.772045e-01 -5.225167e-01 3.238487e-04
<VARIANCE> 25
 4.483654e+01 2.679871e+01 4.375641e+01 5.336604e+01 2.749702e+01 2.992317e+01 3.007620e+01 2.771528e+01 3.068140e+01 2.641914e+01 2.703780e+01 1.789673e+01 2.303968e+00 1.908134e+00 1.785756e+00 2.018995e+00 2.112448e+00 3.219370e+00 2.229379e+00 2.646284e+00 1.886080e+00 2.774910e+00 1.937080e+00 1.909636e+00 1.948771e-03
<GCONST> 9.028992e+01
<MIXTURE> 20 6.308331e-03
<MEAN> 25
 -1.418076e+01 7.414853e+00 8.482295e-01 6.147887e+00 4.845893e+00 1.638828e+00 5.205138e+00 8.574103e-01 9.217928e-01 7.973743e-01 2.568756e+00 -3.017570e-01 -3.284940e+00 -8.666532e-01 -1.563980e+00 3.318168e-01 1.539635e+00 2.061533e+00 1.978460e+00 2.056099e+00 2.144595e+00 2.040068e+00 1.684249e+00 9.445940e-01 4.731660e-02
<VARIANCE> 25
 1.966561e+01 2.345397e+01 3.097009e+01 3.719662e+01 3.085077e+01 2.788769e+01 2.995341e+01 3.150756e+01 2.796198e+01 2.821395e+01 2.515468e+01 2.091042e+01 2.093117e+00 2.181702e+00 1.912225e+00 2.541400e+00 2.705833e+00 2.317474e+00 2.310347e+00 2.319489e+00 2.234843e+00 2.651283e+00 2.241200e+00 1.865709e+00 1.885755e-03
<GCONST> 8.922405e+01
<MIXTURE> 21 7.928653e-03
<MEAN> 25
 4.041650e+00 -4.762133e+00 5.586543e+00 -1.463429e+00 -1.042655e+01 -8.809490e+00 -2.789178e+00 4.262449e+00 -2.066141e+00 -3.315150e+00 2.943279e-01 2.921925e-01 -7.010926e-01 1.337936e+00 2.517413e+00 -1.500845e-02 -1.527409e+00 3.081439e-01 6.351113e-01 -1.434091e+00 -1.909471e+00 2.841513e-01 1.271924e+00 2.386269e-01 -1.323639e-02
<VARIANCE> 25
 8.662251e+00 1.955820e+01 2.958363e+01 2.786110e+01 2.847243e+01 3.225553e+01 4.247805e+01 3.830606e+01 4.141113e+01 3.094013e+01 3.334239e+01 2.250969e+01 3.722365e-01 9.438503e-01 1.939391e+00 1.279361e+00 2.206870e+00 2.135295e+00 3.572242e+00 2.536148e+00 2.227094e+00 2.531716e+00 2.034635e+00 2.257356e+00 4.520149e-04
<GCONST> 8.495639e+01
<MIXTURE> 22 8.827789e-03
<MEAN> 25
 -1.791746e+01 7.154098e+00 -4.122712e+00 7.375181e+00 4.602457e+00 2.757234e+00 8.392868e+00 1.756901e+00 5.386127e+00 3.297288e+00 5.712069e+00 1.185676e+00 -3.096651e-01 -2.075783e-01 -1.245003e-01 -1.493047e-01 -7.808811e-03 1.381099e-01 1.819319e-01 1.778704e-01 2.484439e-01 2.083686e-01 1.726884e-01 1.923408e-01 8.834586e-03
<VARIANCE> 25
 8.119195e+00 1.680732e+01 1.743129e+01 2.540664e+01 2.287152e+01 2.083042e+01 1.945459e+01 1.875358e+01 1.816731e+01 2.086013e+01 1.924081e+01 1.377804e+01 1.089893e+00 1.356069e+00 1.363635e+00 1.570404e+00 1.407633e+00 1.526959e+00 1.508927e+00 1.531492e+00 1.612637e+00 1.544487e+00 1.356453e+00 1.166959e+00 1.744195e-03
<GCONST> 7.831495e+01
<MIXTURE> 23 6.455497e-03
<MEAN> 25
 7.716685e+00 2.070613e+00 2.576376e+00 2.592701e+00 -4.848807e+00 -2.983824e+00 -3.638060e+00 -6.399558e+00 -3.370322e+00 -8.837413e-01 -4.043316e+00 -2.137531e+00 2.552755e-02 1.408274e-01 2.305611e-02 4.288480e-02 -8.609616e-03 3.725683e-02 4.292307e-02 -2.028028e-02 4.699574e-02 6.372201e-03 -3.257442e-02 9.218286e-02 -4.697004e-03
<VARIANCE> 25
 1.076155e+01 2.322939e+01 2.496630e+01 3.783740e+01 3.569885e+01 5.567961e+01 6.102941e+01 5.538749e+01 4.696716e+01 4.330644e+01 4.616516e+01 3.685090e+01 1.233472e-01 3.382841e-01 4.188874e-01 6.274996e-01 6.077953e-01 6.910162e-01 8.018326e-01 8.570231e-01 8.460178e-01 9.044841e-01 8.623812e-01 8.407753e-01 9.104771e-05
<GCONST> 7.344778e+01
<MIXTURE> 24 6.455497e-03
<MEAN> 25
 7.716685e+00 2.070613e+00 2.576376e+00 2.592701e+00 -4.848807e+00 -2.983824e+00 -3.638060e+00 -6.399558e+00 -3.370322e+00 -8.837413e-01 -4.043316e+00 -2.137531e+00 2.552755e-02 1.408274e-01 2.305611e-02 4.288480e-02 -8.609616e-03 3.725683e-02 4.292307e-02 -2.028028e-02 4.699574e-02 6.372201e-03 -3.257442e-02 9.218286e-02 -4.697004e-03
<VARIANCE> 25
 1.076155e+01 2.322939e+01 2.496630e+01 3.783740e+01 3.569885e+01 5.567961e+01 6.102941e+01 5.538749e+01 4.696716e+01 4.330644e+01 4.616516e+01 3.685090e+01 1.233472e-01 3.382841e-01 4.188874e-01 6.274996e-01 6.077953e-01 6.910162e-01 8.018326e-01 8.570231e-01 8.460178e-01 9.044841e-01 8.623812e-01 8.407753e-01 9.104771e-05
<GCONST> 7.344778e+01
<MIXTURE> 25 1.118642e-02
<MEAN> 25
 2.805437e-01 4.411253e+00 1.507476e+01 6.371123e-01 -1.141679e+01 -4.713236e+00 -5.272762e+00 -4.187735e+00 -6.133552e+00 -6.512453e+00 2.847812e+00 -2.827645e-01 5.880248e-02 2.718135e-01 2.449495e-02 2.934961e-01 -2.175563e-01 1.604078e-01 1.590246e-01 -2.226628e-01 -1.591383e-01 5.349420e-02 -2.441991e-02 -2.152349e-01 -1.418135e-02
<VARIANCE> 25
 6.334396e+00 1.700123e+01 1.980322e+01 2.470077e+01 2.668320e+01 4.368845e+01 1.950173e+01 2.474597e+01 2.153267e+01 2.942527e+01 1.798223e+01 2.294711e+01 5.007489e-01 1.186607e+00 1.353366e+00 1.139208e+00 2.675526e+00 2.194572e+00 1.387582e+00 1.227255e+00 1.234177e+00 1.445843e+00 1.064017e+00 1.122470e+00 1.013311e-03
<GCONST> 7.861016e+01
<MIXTURE> 26 7.727677e-03
<MEAN> 25
 1.598501e+00 -4.738064e+00 -9.888687e+00 -1.827753e+00 7.803289e+00 5.836230e+00 3.656216e+00 8.399384e-01 1.196115e+00 -1.255955e+00 -2.686881e+00 -1.235416e+00 -7.002173e-01 5.881171e-01 3.782422e-01 8.434337e-01 1.653672e-01 4.453228e-01 2.686550e-01 1.764120e-01 3.961452e-01 -1.014270e-01 2.182105e-01 5.227824e-01 -4.722234e-02
<VARIANCE> 25
 2.512959e+01 4.559963e+01 2.439534e+01 6.578194e+01 3.654254e+01 4.178827e+01 4.196569e+01 4.956813e+01 4.356753e+01 5.050743e+01 3.601913e+01 4.318641e+01 1.600993e+00 1.851012e+00 1.744269e+00 2.098545e+00 2.391896e+00 2.535788e+00 2.346794e+00 3.564501e+00 2.154693e+00 2.503167e+00 2.049415e+00 2.011558e+00 3.115326e-03
<GCONST> 9.402975e+01
<MIXTURE> 27 7.727677e-03
<MEAN> 25
 1.598501e+00 -4.738064e+00 -9.888687e+00 -1.827753e+00 7.803289e+00 5.836230e+00 3.656216e+00 8.399384e-01 1.196115e+00 -1.255955e+00 -2.686881e+00 -1.235416e+00 -7.002173e-01 5.881171e-01 3.782422e-01 8.434337e-01 1.653672e-01 4.453228e-01 2.686550e-01 1.764120e-01 3.961452e-01 -1.014270e-01 2.182105e-01 5.227824e-01 -4.722234e-02
<VARIANCE> 25
 2.512959e+01 4.559963e+01 2.439534e+01 6.578194e+01 3.654254e+01 4.178827e+01 4.196569e+01 4.956813e+01 4.356753e+01 5.050743e+01 3.601913e+01 4.318641e+01 1.600993e+00 1.851012e+00 1.744269e+00 2.098545e+00 2.391896e+00 2.535788e+00 2.346794e+00 3.564501e+00 2.154693e+00 2.503167e+00 2.049415e+00 2.011558e+00 3.115326e-03
<GCONST> 9.402975e+01
<MIXTURE> 28 5.036674e-03
<MEAN> 25
 -5.330650e+00 1.137930e-01 -1.551644e+00 6.551530e+00 5.207434e+00 3.545091e+00 5.434165e+00 3.079044e+00 3.893857e+00 2.311887e+00 2.567063e+00 3.185019e+00 -1.185866e-01 2.130830e-01 5.200714e-01 7.795663e-01 8.230277e-01 7.055471e-01 5.182160e-01 3.864204e-01 4.431176e-01 4.682485e-01 3.651932e-01 1.964729e-01 -1.557294e-05
<VARIANCE> 25
 1.094938e+01 8.758447e+00 1.196749e+01 1.477971e+01 1.465458e+01 1.743293e+01 1.776027e+01 1.910242e+01 1.698120e+01 1.681439e+01 2.061379e+01 1.490504e+01 2.523528e-01 3.366494e-01 4.101952e-01 4.583988e-01 6.285076e-01 8.374438e-01 1.042208e+00 1.131631e+00 1.086132e+00 1.027797e+00 1.021994e+00 1.058478e+00 1.033953e-06
<GCONST> 6.023050e+01
<MIXTURE> 29 5.036674e-03
<MEAN> 25
 -5.330650e+00 1.137930e-01 -1.551644e+00 6.551530e+00 5.207434e+00 3.545091e+00 5.434165e+00 3.079044e+00 3.893857e+00 2.311887e+00 2.567063e+00 3.185019e+00 -1.185866e-01 2.130830e-01 5.200714e-01 7.795663e-01 8.230277e-01 7.055471e-01 5.182160e-01 3.864204e-01 4.431176e-01 4.682485e-01 3.651932e-01 1.964729e-01 -1.557294e-05
<VARIANCE> 25
 1.094938e+01 8.758447e+00 1.196749e+01 1.477971e+01 1.465458e+01 1.743293e+01 1.776027e+01 1.910242e+01 1.698120e+01 1.681439e+01 2.061379e+01 1.490504e+01 2.523528e-01 3.366494e-01 4.101952e-01 4.583988e-01 6.285076e-01 8.374438e-01 1.042208e+00 1.131631e+00 1.086132e+00 1.027797e+00 1.021994e+00 1.058478e+00 1.033953e-06
<GCONST> 6.023050e+01
<MIXTURE> 30 8.917812e-03
<MEAN> 25
 -4.351372e+00 -5.993178e-02 6.270565e-01 8.882432e+00 7.725298e+00 7.488918e+00 7.561248e+00 6.851278e+00 6.512148e+00 4.685823e+00 6.675428e+00 3.414773e+00 -1.955856e-02 2.879219e-02 5.548220e-02 9.172610e-02 7.269869e-02 3.705172e-02 3.672817e-02 7.353819e-03 1.153369e-03 3.590766e-02 6.009366e-02 4.077906e-02 -5.391913e-04
<VARIANCE> 25
 7.282508e+00 1.016486e+01 1.022531e+01 1.448984e+01 1.549009e+01 1.598767e+01 1.885930e+01 1.789447e+01 1.613886e+01 1.933285e+01 2.356553e+01 1.425026e+01 9.754667e-02 2.037346e-01 3.261580e-01 4.697421e-01 6.147211e-01 7.159642e-01 8.637417e-01 8.039520e-01 9.289659e-01 9.766399e-01 9.007081e-01 8.833490e-01 5.126464e-05
<GCONST> 6.095860e+01
<MIXTURE> 31 4.136493e-03
<MEAN> 25
 -3.238827e+00 -5.469902e+00 7.184370e-02 4.830037e+00 3.720471e+00 1.782715e+00 5.168396e+00 6.634559e+00 2.875395e+00 1.200848e+00 6.330336e+00 3.170702e+00 2.568614e-01 4.922987e-01 -2.296664e-01 2.805749e-01 1.356518e-01 4.151531e-01 1.958892e-01 2.116292e-02 3.717873e-01 3.829040e-01 1.125636e-01 8.816171e-02 -1.816776e-02
<VARIANCE> 25
 7.170984e+00 1.690895e+01 1.713782e+01 1.770497e+01 2.485953e+01 2.367596e+01 2.361252e+01 2.517864e+01 2.655435e+01 2.751652e+01 2.149447e+01 1.840654e+01 1.887619e-01 5.051395e-01 6.108729e-01 7.878991e-01 9.595921e-01 1.082344e+00 1.234448e+00 1.398715e+00 1.352111e+00 1.300571e+00 1.235906e+00 1.155333e+00 2.540401e-04
<GCONST> 7.194516e+01
<MIXTURE> 32 4.136493e-03
<MEAN> 25
 -3.238827e+00 -5.469902e+00 7.184370e-02 4.830037e+00 3.720471e+00 1.782715e+00 5.168396e+00 6.634559e+00 2.875395e+00 1.200848e+00 6.330336e+00 3.170702e+00 2.568614e-01 4.922987e-01 -2.296664e-01 2.805749e-01 1.356518e-01 4.151531e-01 1.958892e-01 2.116292e-02 3.717873e-01 3.829040e-01 1.125636e-01 8.816171e-02 -1.816776e-02
<VARIANCE> 25
 7.170984e+00 1.690895e+01 1.713782e+01 1.770497e+01 2.485953e+01 2.367596e+01 2.361252e+01 2.517864e+01 2.655435e+01 2.751652e+01 2.149447e+01 1.840654e+01 1.887619e-01 5.051395e-01 6.108729e-01 7.878991e-01 9.595921e-01 1.082344e+00 1.234448e+00 1.398715e+00 1.352111e+00 1.300571e+00 1.235906e+00 1.155333e+00 2.540401e-04
<GCONST> 7.194516e+01
<MIXTURE> 33 1.508826e-02
<MEAN> 25
 6.830845e+00 -4.762698e+00 -2.195591e+00 -1.734581e+00 -2.689827e+00 -5.742324e+00 -7.194064e+00 1.122213e+00 1.925505e+00 4.969985e-02 -3.714166e+00 -2.417184e+00 5.154590e-01 -1.156254e+00 -1.997915e+00 -1.852693e+00 1.365444e+00 1.321498e+00 -8.511801e-01 5.594262e-01 8.315012e-01 6.787406e-01 -1.054464e-01 -1.129003e+00 3.791697e-02
<VARIANCE> 25
 1.025622e+01 2.442706e+01 2.479446e+01 3.611825e+01 3.804737e+01 3.948962e+01 3.974097e+01 5.112486e+01 3.821209e+01 4.255684e+01 3.540522e+01 2.574437e+01 1.249997e+00 1.761401e+00 2.758891e+00 1.897423e+00 3.672976e+00 3.023626e+00 4.203344e+00 5.309785e+00 3.429860e+00 4.248358e+00 3.575062e+00 2.391969e+00 1.311672e-03
<GCONST> 9.355467e+01
<MIXTURE> 34 1.588179e-02
<MEAN> 25
 8.849648e+00 -2.758405e-01 -5.247600e-02 1.103356e+00 -3.022150e+00 -1.456242e+00 -5.723944e+00 -4.729351e+00 -1.824843e+00 3.287393e-01 -2.629864e+00 -3.725545e+00 -3.703446e-02 1.293634e+00 1.435824e+00 2.353536e+00 -2.251611e-02 -1.194568e-01 8.321636e-01 -1.555458e+00 -8.643492e-01 2.193518e-01 -6.385252e-01 2.594265e-01 -6.116946e-02
<VARIANCE> 25
 7.653411e+00 3.223026e+01 2.881771e+01 4.916695e+01 4.055702e+01 5.019260e+01 5.674815e+01 5.618383e+01 5.335697e+01 4.193624e+01 4.695455e+01 3.018767e+01 1.238939e+00 1.999243e+00 4.104465e+00 3.905988e+00 5.458869e+00 5.664783e+00 5.316032e+00 6.156262e+00 5.044318e+00 4.768839e+00 4.923438e+00 3.731472e+00 1.181136e-03
<GCONST> 9.931802e+01
<MIXTURE> 35 1.467755e-02
<MEAN> 25
 -2.366532e+00 -5.300233e+00 -8.811863e+00 -2.356949e-01 8.883823e+00 5.641326e-01 1.015384e+00 2.834482e+00 1.041180e+00 3.529920e+00 9.348526e-02 1.827608e+00 4.806675e-01 -1.153039e+00 -1.452281e+00 -1.458168e+00 3.056270e-01 -8.707327e-01 -9.396046e-01 -5.288515e-01 -2.481889e-01 6.702125e-01 -4.739031e-01 -6.112007e-01 9.996931e-02
<VARIANCE> 25
 1.610139e+01 3.070665e+01 3.928945e+01 5.658678e+01 3.658801e+01 4.934230e+01 4.589767e+01 4.799756e+01 4.540217e+01 4.234572e+01 3.262336e+01 2.516666e+01 3.527001e+00 3.291449e+00 5.867132e+00 5.037450e+00 4.610063e+00 4.767980e+00 4.749791e+00 5.126544e+00 4.604481e+00 4.951345e+00 3.956302e+00 3.319892e+00 4.288480e-03
<GCONST> 1.016959e+02
<MIXTURE> 36 1.093293e-02
<MEAN> 25
 5.469726e+00 -4.587101e+00 3.936863e+00 3.373588e+00 -1.039331e+01 -9.872256e+00 -6.699125e+00 2.480061e+00 -1.242692e+00 -3.701085e+00 3.534623e+00 9.075814e-01 1.969406e-01 1.693006e-01 -8.655990e-01 -1.470281e-01 5.828511e-01 2.770714e-02 -1.600193e-01 4.671947e-02 4.558779e-01 3.742997e-01 -3.728059e-01 -6.590893e-02 -1.349089e-02
<VARIANCE> 25
 7.694736e+00 2.023595e+01 3.151958e+01 2.034775e+01 2.536323e+01 2.205847e+01 3.144442e+01 3.241107e+01 2.663255e+01 2.607123e+01 2.423475e+01 1.857978e+01 3.466171e-01 9.782685e-01 1.393933e+00 1.055306e+00 1.788646e+00 1.230831e+00 2.404105e+00 1.616452e+00 1.681761e+00 1.468347e+00 1.168515e+00 1.174805e+00 6.537519e-04
<GCONST> 7.870410e+01
<MIXTURE> 37 1.246826e-02
<MEAN> 25
 5.543191e-01 7.712427e+00 1.197950e+01 -5.387507e+00 -8.081671e+00 -1.143411e+00 -5.117881e+00 -8.383187e+00 -3.720213e+00 -1.037593e+00 -3.645989e+00 -1.223093e+00 1.743050e-01 6.324275e-01 -1.360217e+00 3.518022e+00 2.008951e+00 -2.727675e-01 1.084711e+00 4.277628e-01 5.294170e-01 -2.563583e-01 5.128601e-01 -1.079326e-01 -9.453665e-02
<VARIANCE> 25
 1.566209e+01 2.572869e+01 3.065562e+01 5.164143e+01 3.354237e+01 3.193332e+01 4.331693e+01 3.474545e+01 3.800768e+01 3.634561e+01 3.713172e+01 3.062659e+01 2.910087e+00 3.368376e+00 2.969049e+00 4.255780e+00 4.580266e+00 3.742921e+00 4.142857e+00 3.765525e+00 3.389423e+00 3.821248e+00 3.835953e+00 2.751898e+00 3.869888e-03
<GCONST> 9.764464e+01
<MIXTURE> 38 1.154525e-02
<MEAN> 25
 -4.200142e+00 8.419568e+00 4.259108e+00 3.175688e+00 8.958321e-01 -5.252481e+00 -4.796107e-01 -2.264593e+00 -2.364439e+00 -2.890974e+00 -1.710238e+00 -6.599295e-01 -4.481411e+00 1.164539e+00 -2.320581e-01 1.251563e+00 2.495876e+00 1.436397e+00 2.053758e+00 6.564294e-01 7.426723e-01 8.513015e-01 1.037822e+00 3.033371e-01 4.938298e-02
<VARIANCE> 25
 3.172083e+01 3.322099e+01 3.905217e+01 3.219045e+01 4.670511e+01 3.731654e+01 3.505377e+01 4.843507e+01 3.757009e+01 3.523374e+01 2.427474e+01 2.742849e+01 2.271531e+00 4.051298e+00 3.831157e+00 5.596645e+00 4.104140e+00 4.818950e+00 4.639160e+00 6.290585e+00 4.249198e+00 5.760508e+00 4.190895e+00 3.094442e+00 2.007913e-03
<GCONST> 9.982586e+01
<MIXTURE> 39 9.501865e-03
<MEAN> 25
 1.341302e+00 2.608691e+00 1.020861e+01 -9.215749e+00 -1.128667e+01 -9.881197e-01 -2.962894e+00 -6.574510e+00 -4.525470e+00 8.672606e-01 -3.680946e+00 -2.295503e+00 -7.287892e-01 1.521936e+00 1.626088e+00 -1.389051e+00 7.949766e-02 1.222522e+00 -1.200421e+00 -1.251650e+00 4.288644e-01 4.449143e-01 -5.061003e-01 1.230652e-01 1.309426e-03
<VARIANCE> 25
 8.904967e+00 3.008015e+01 3.174290e+01 3.827125e+01 3.726106e+01 4.274528e+01 4.443966e+01 3.348171e+01 3.941275e+01 3.322461e+01 3.618433e+01 2.942709e+01 6.913850e-01 1.547801e+00 1.511689e+00 2.926596e+00 2.419456e+00 2.822261e+00 3.050666e+00 2.750444e+00 2.434466e+00 2.618725e+00 2.120764e+00 2.069000e+00 1.184623e-03
<GCONST> 8.966199e+01
<MIXTURE> 40 1.030800e-02
<MEAN> 25
 -8.284302e+00 2.377160e+00 -9.720669e-01 7.397212e+00 3.870943e+00 5.608787e+00 5.204298e+00 4.212387e+00 4.749362e+00 3.732375e+00 4.946814e+00 1.799628e+00 -1.081017e-01 -2.116271e-01 -7.988719e-02 -2.471520e-01 -1.320208e-01 -8.663190e-02 7.461145e-02 8.478205e-02 -3.779423e-02 4.254056e-02 3.968032e-02 -4.484528e-02 2.274152e-03
<VARIANCE> 25
 4.480498e+01 1.873761e+01 2.635225e+01 2.821528e+01 2.381953e+01 1.753937e+01 1.836931e+01 1.775983e+01 1.689195e+01 1.891851e+01 2.080703e+01 1.435359e+01 7.049986e-01 7.273843e-01 9.375979e-01 1.050359e+00 1.102121e+00 1.188250e+00 1.377295e+00 1.228869e+00 1.261748e+00 1.287667e+00 1.116536e+00 1.161704e+00 7.941957e-04
<GCONST> 7.630008e+01
<MIXTURE> 41 6.713375e-03
<MEAN> 25
 1.284454e+00 1.752008e+00 1.043595e+01 -6.945774e+00 -1.040479e+01 -3.793782e+00 -2.444956e+00 -5.087599e+00 -4.624582e+00 2.739448e+00 -1.751104e+00 -9.634508e-01 5.827962e-02 -7.555297e-01 1.699052e+00 -3.551811e+00 -2.443567e+00 -1.028448e-01 -4.891148e-01 -3.786008e-01 -8.271573e-01 1.103288e+00 -1.036106e+00 8.294998e-02 8.625531e-02
<VARIANCE> 25
 1.180272e+01 2.970290e+01 3.274326e+01 3.992373e+01 3.931889e+01 4.085910e+01 3.737275e+01 3.010929e+01 3.309278e+01 2.979789e+01 3.169991e+01 2.708603e+01 3.266197e+00 3.299356e+00 3.806670e+00 3.786764e+00 4.948662e+00 5.868808e+00 4.755544e+00 4.620340e+00 3.955583e+00 4.260612e+00 3.830065e+00 3.209739e+00 2.914085e-03
<GCONST> 9.803844e+01
<MIXTURE> 42 1.106211e-02
<MEAN> 25
 -2.368475e+00 4.758211e+00 4.582569e+00 1.840220e+00 2.471641e-01 -5.454678e+00 -1.082173e+00 -2.208127e+00 -1.903405e+00 -1.306092e+00 -2.153941e+00 1.434796e+00 4.053927e+00 -4.881318e-01 1.418120e+00 4.908406e-01 -2.818438e+00 -1.382880e+00 -2.009208e+00 -1.296300e+00 -1.186880e+00 -7.460821e-01 5.993541e-01 -7.429667e-01 1.527723e-02
<VARIANCE> 25
 3.523265e+01 1.915261e+01 4.973076e+01 2.735527e+01 3.367778e+01 4.837334e+01 3.481161e+01 2.564031e+01 2.630649e+01 2.676586e+01 1.770726e+01 1.652574e+01 3.144096e+00 4.208951e+00 5.170382e+00 4.331143e+00 4.036150e+00 5.270037e+00 5.147324e+00 5.534759e+00 5.043205e+00 6.319267e+00 3.634800e+00 3.879939e+00 4.346477e-03
<GCONST> 9.887060e+01
<MIXTURE> 43 7.108249e-03
<MEAN> 25
 3.172692e+00 -6.347031e+00 -2.226248e+00 -5.151558e+00 -7.367369e+00 -3.465299e+00 4.064734e+00 1.362531e+00 -5.035029e+00 -7.041602e+00 -4.298066e+00 -1.257026e+00 2.331936e-01 2.166771e+00 1.900244e+00 -1.186263e-01 -1.419557e+00 -7.947466e-01 -9.451010e-01 -7.690138e-01 7.978199e-01 1.446205e+00 3.380965e-01 1.370216e-02 -4.530314e-02
<VARIANCE> 25
 9.518473e+00 1.977601e+01 2.717845e+01 3.507768e+01 3.818279e+01 3.681014e+01 3.365749e+01 3.978412e+01 3.940639e+01 3.860777e+01 2.639483e+01 2.929555e+01 6.868671e-01 1.239585e+00 1.577686e+00 2.493558e+00 2.368987e+00 2.363406e+00 2.698604e+00 3.011440e+00 2.649778e+00 2.608634e+00 2.314230e+00 1.908379e+00 9.406157e-04
<GCONST> 8.794666e+01
<MIXTURE> 44 7.328289e-03
<MEAN> 25
 -1.499693e+01 3.557207e+00 4.688726e+00 -4.485041e+00 4.880785e+00 2.380158e+00 -5.178928e-01 5.537524e+00 3.100874e+00 -1.523595e+00 1.479273e+00 1.035716e+00 -3.880188e-01 -2.028757e-01 3.118172e-01 1.880860e-02 -5.121154e-01 -1.954448e-02 5.416785e-01 2.145963e-01 6.524630e-01 2.872319e-01 4.742216e-01 2.230012e-01 7.828836e-03
<VARIANCE> 25
 3.170139e+01 1.891420e+01 2.867735e+01 2.145997e+01 2.175710e+01 2.237119e+01 1.751052e+01 2.839402e+01 3.144157e+01 2.024366e+01 1.978167e+01 1.632607e+01 1.212508e+00 1.294440e+00 1.157630e+00 1.203192e+00 1.591200e+00 1.747947e+00 1.134150e+00 1.846763e+00 1.627814e+00 1.559533e+00 1.490021e+00 1.049247e+00 9.657510e-04
<GCONST> 8.037592e+01
<MIXTURE> 45 1.364932e-02
<MEAN> 25
 -1.163008e+01 3.288799e+00 -9.627874e-01 1.095806e+00 5.910449e+00 2.719648e-01 4.764983e+00 2.865990e+00 3.924362e+00 2.935376e+00 9.643351e-01 9.318922e-01 -3.197825e+00 1.050308e+00 4.533697e-02 -6.886735e-01 3.176181e-01 5.288341e-02 2.751196e-01 2.072802e-02 1.132532e-02 -5.451486e-02 4.460523e-01 7.523452e-02 9.768564e-02
<VARIANCE> 25
 3.034933e+01 2.585431e+01 2.512855e+01 3.539764e+01 2.715271e+01 2.459239e+01 3.008184e+01 4.326789e+01 2.145263e+01 3.072937e+01 3.401159e+01 1.990689e+01 2.246798e+00 3.322294e+00 3.069358e+00 2.200415e+00 2.214706e+00 2.117743e+00 2.464011e+00 2.708351e+00 1.906665e+00 1.948430e+00 1.689785e+00 1.308457e+00 4.471500e-03
<GCONST> 9.014658e+01
<MIXTURE> 46 9.336259e-03
<MEAN> 25
 -9.348987e+00 1.513301e+00 1.667786e+00 6.514182e+00 5.583183e+00 2.542802e+00 6.240368e+00 5.391079e+00 5.369219e+00 4.082264e+00 6.132704e+00 3.047589e+00 1.339695e+00 -2.757025e-01 -7.623851e-02 1.037648e+00 6.838831e-01 8.910888e-01 4.255943e-01 6.475092e-01 2.638368e-01 5.101733e-01 6.446453e-01 5.171447e-01 -1.057569e-01
<VARIANCE> 25
 3.168957e+01 4.178551e+01 3.540104e+01 5.035831e+01 4.503602e+01 4.038810e+01 3.615832e+01 3.694530e+01 2.950348e+01 2.965572e+01 3.294003e+01 1.848080e+01 3.953386e+00 3.801994e+00 3.524928e+00 3.630415e+00 3.744807e+00 3.279039e+00 2.940913e+00 2.729493e+00 2.871276e+00 2.601300e+00 2.231218e+00 1.556099e+00 6.970518e-03
<GCONST> 9.664978e+01
<MIXTURE> 47 7.116147e-03
<MEAN> 25
 7.343680e+00 -7.732810e+00 -7.429883e+00 -5.964675e+00 6.926250e-01 -3.468831e-02 -2.883970e+00 1.025683e+00 2.821066e+00 2.920721e-01 -3.690427e+00 -6.107033e+00 -1.886689e-01 -1.284905e+00 -5.912982e-01 -3.037372e-01 6.216442e-01 7.897083e-01 9.052714e-01 3.594409e-01 9.043077e-02 -7.020262e-01 -6.423365e-01 -3.636350e-01 2.974118e-02
<VARIANCE> 25
 9.782980e+00 2.013840e+01 1.943614e+01 3.268811e+01 3.771407e+01 5.648273e+01 4.481009e+01 4.093355e+01 4.225663e+01 4.256242e+01 4.652561e+01 3.411567e+01 4.806167e-01 7.593780e-01 1.174430e+00 1.981974e+00 1.923621e+00 1.990229e+00 2.429618e+00 2.345407e+00 2.052739e+00 2.218595e+00 2.443118e+00 1.989436e+00 5.065905e-04
<GCONST> 8.615613e+01
<MIXTURE> 48 7.116147e-03
<MEAN> 25
 7.343680e+00 -7.732810e+00 -7.429883e+00 -5.964675e+00 6.926250e-01 -3.468831e-02 -2.883970e+00 1.025683e+00 2.821066e+00 2.920721e-01 -3.690427e+00 -6.107033e+00 -1.886689e-01 -1.284905e+00 -5.912982e-01 -3.037372e-01 6.216442e-01 7.897083e-01 9.052714e-01 3.594409e-01 9.043077e-02 -7.020262e-01 -6.423365e-01 -3.636350e-01 2.974118e-02
<VARIANCE> 25
 9.782980e+00 2.013840e+01 1.943614e+01 3.268811e+01 3.771407e+01 5.648273e+01 4.481009e+01 4.093355e+01 4.225663e+01 4.256242e+01 4.652561e+01 3.411567e+01 4.806167e-01 7.593780e-01 1.174430e+00 1.981974e+00 1.923621e+00 1.990229e+00 2.429618e+00 2.345407e+00 2.052739e+00 2.218595e+00 2.443118e+00 1.989436e+00 5.065905e-04
<GCONST> 8.615613e+01
<MIXTURE> 49 5.548473e-03
<MEAN> 25
 -5.035234e+00 3.923910e-01 1.715651e-01 8.374509e+00 6.125064e+00 5.618340e+00 6.030163e+00 4.478258e+00 5.023918e+00 3.675961e+00 4.848690e+00 2.829569e+00 3.634809e-01 6.502886e-01 6.942817e-01 3.508864e-01 -1.986472e-01 -6.649208e-01 -9.934235e-01 -1.103851e+00 -9.553621e-01 -6.838406e-01 -4.848594e-01 -2.643753e-01 -1.079448e-06
<VARIANCE> 25
 9.686396e+00 1.006779e+01 1.412304e+01 1.611156e+01 1.577586e+01 1.698938e+01 1.956122e+01 1.937601e+01 1.808871e+01 1.802173e+01 2.089771e+01 1.423146e+01 2.787670e-01 2.634134e-01 3.678673e-01 6.055556e-01 8.644616e-01 9.646660e-01 1.061747e+00 1.062981e+00 1.137313e+00 1.213300e+00 1.273178e+00 1.208655e+00 1.459649e-05
<GCONST> 6.440958e+01
<MIXTURE> 50 6.234641e-03
<MEAN> 25
 -4.474698e+00 1.984242e-01 -1.400872e+00 6.041536e+00 4.249489e+00 2.451649e+00 3.790509e+00 1.977679e+00 2.875802e+00 1.428942e+00 1.956856e+00 2.750547e+00 4.801483e-02 1.510522e-01 8.059085e-02 -1.641770e-01 -5.009829e-01 -6.162447e-01 -4.204430e-01 -5.657343e-02 4.370497e-01 7.910306e-01 7.189082e-01 4.175058e-01 -1.192016e-04
<VARIANCE> 25
 1.069492e+01 1.104041e+01 1.403717e+01 1.533377e+01 1.487691e+01 1.842649e+01 1.821229e+01 1.930898e+01 1.831967e+01 1.734066e+01 2.153390e+01 1.484587e+01 1.426631e-01 2.542139e-01 3.673188e-01 4.999539e-01 5.880551e-01 7.097353e-01 9.937549e-01 1.141023e+00 1.107278e+00 9.646526e-01 9.075593e-01 9.725708e-01 1.199556e-06
<GCONST> 5.964248e+01
<MIXTURE> 51 6.234641e-03
<MEAN> 25
 -4.474698e+00 1.984242e-01 -1.400872e+00 6.041536e+00 4.249489e+00 2.451649e+00 3.790509e+00 1.977679e+00 2.875802e+00 1.428942e+00 1.956856e+00 2.750547e+00 4.801483e-02 1.510522e-01 8.059085e-02 -1.641770e-01 -5.009829e-01 -6.162447e-01 -4.204430e-01 -5.657343e-02 4.370497e-01 7.910306e-01 7.189082e-01 4.175058e-01 -1.192016e-04
<VARIANCE> 25
 1.069492e+01 1.104041e+01 1.403717e+01 1.533377e+01 1.487691e+01 1.842649e+01 1.821229e+01 1.930898e+01 1.831967e+01 1.734066e+01 2.153390e+01 1.484587e+01 1.426631e-01 2.542139e-01 3.673188e-01 4.999539e-01 5.880551e-01 7.097353e-01 9.937549e-01 1.141023e+00 1.107278e+00 9.646526e-01 9.075593e-01 9.725708e-01 1.199556e-06
<GCONST> 5.964248e+01
<MIXTURE> 52 6.367945e-03
<MEAN> 25
 1.008235e+01 1.871017e+00 -6.193258e+00 -1.398861e+01 -4.253340e+00 8.590492e+00 -2.519979e+00 -3.287012e+00 -4.574877e+00 -1.957851e+00 3.312823e+00 6.917413e-01 -3.771572e-01 -4.595471e-01 -5.797358e-02 1.111665e+00 1.283782e+00 -4.556610e-01 -5.872650e-01 -6.465331e-01 4.040613e-02 1.197859e+00 3.598475e-01 -5.220702e-01 -1.379317e-02
<VARIANCE> 25
 9.253611e+00 2.139032e+01 2.465895e+01 4.041829e+01 4.460982e+01 3.005286e+01 4.696594e+01 4.941050e+01 4.284962e+01 4.578997e+01 3.913919e+01 2.942443e+01 4.522133e-01 1.521049e+00 1.321290e+00 2.786569e+00 2.398502e+00 2.154274e+00 2.979884e+00 2.806517e+00 2.977109e+00 2.664432e+00 2.593968e+00 2.236122e+00 1.621446e-03
<GCONST> 8.982029e+01
<MIXTURE> 53 6.367945e-03
<MEAN> 25
 1.008235e+01 1.871017e+00 -6.193258e+00 -1.398861e+01 -4.253340e+00 8.590492e+00 -2.519979e+00 -3.287012e+00 -4.574877e+00 -1.957851e+00 3.312823e+00 6.917413e-01 -3.771572e-01 -4.595471e-01 -5.797358e-02 1.111665e+00 1.283782e+00 -4.556610e-01 -5.872650e-01 -6.465331e-01 4.040613e-02 1.197859e+00 3.598475e-01 -5.220702e-01 -1.379317e-02
<VARIANCE> 25
 9.253611e+00 2.139032e+01 2.465895e+01 4.041829e+01 4.460982e+01 3.005286e+01 4.696594e+01 4.941050e+01 4.284962e+01 4.578997e+01 3.913919e+01 2.942443e+01 4.522133e-01 1.521049e+00 1.321290e+00 2.786569e+00 2.398502e+00 2.154274e+00 2.979884e+00 2.806517e+00 2.977109e+00 2.664432e+00 2.593968e+00 2.236122e+00 1.621446e-03
<GCONST> 8.982029e+01
<MIXTURE> 54 7.368620e-03
<MEAN> 25
 -3.329532e+00 4.192690e-01 -6.320802e-01 7.838591e+00 6.591611e+00 4.671200e+00 4.834521e+00 4.542021e+00 3.976533e+00 3.418853e+00 4.218105e+00 2.278286e+00 -2.117628e-02 -8.046123e-03 5.300275e-02 5.521057e-02 3.608484e-02 4.574231e-02 9.072313e-02 1.170558e-02 6.423709e-02 2.388347e-02 -6.033559e-03 4.611428e-02 -8.026854e-07
<VARIANCE> 25
 9.464930e+00 1.106916e+01 8.754656e+00 1.789193e+01 1.283631e+01 1.259622e+01 1.205909e+01 1.170461e+01 1.059906e+01 1.518551e+01 1.735126e+01 1.192055e+01 4.710575e-02 9.667325e-02 1.673145e-01 2.107877e-01 2.924558e-01 4.242730e-01 4.625163e-01 4.955656e-01 5.888903e-01 5.331339e-01 4.853267e-01 5.500249e-01 1.135668e-06
<GCONST> 4.763712e+01
<MIXTURE> 55 7.368620e-03
<MEAN> 25
 -3.329532e+00 4.192690e-01 -6.320802e-01 7.838591e+00 6.591611e+00 4.671200e+00 4.834521e+00 4.542021e+00 3.976533e+00 3.418853e+00 4.218105e+00 2.278286e+00 -2.117628e-02 -8.046123e-03 5.300275e-02 5.521057e-02 3.608484e-02 4.574231e-02 9.072313e-02 1.170558e-02 6.423709e-02 2.388347e-02 -6.033559e-03 4.611428e-02 -8.026854e-07
<VARIANCE> 25
 9.464930e+00 1.106916e+01 8.754656e+00 1.789193e+01 1.283631e+01 1.259622e+01 1.205909e+01 1.170461e+01 1.059906e+01 1.518551e+01 1.735126e+01 1.192055e+01 4.710575e-02 9.667325e-02 1.673145e-01 2.107877e-01 2.924558e-01 4.242730e-01 4.625163e-01 4.955656e-01 5.888903e-01 5.331339e-01 4.853267e-01 5.500249e-01 1.135668e-06
<GCONST> 4.763712e+01
<MIXTURE> 56 6.132464e-03
<MEAN> 25
 7.562977e+00 -6.775437e+00 -9.039317e+00 -8.497650e+00 3.841626e+00 3.821819e+00 -2.253148e+00 -1.521438e+00 1.864581e+00 6.941838e-01 -2.386837e+00 -7.046447e+00 -1.965378e-02 2.924848e-02 -8.126863e-02 2.718797e-02 2.586648e-01 4.955304e-02 1.111108e-01 -1.159958e-01 -5.056495e-02 -5.642632e-02 -8.797096e-02 1.250071e-02 -6.956542e-03
<VARIANCE> 25
 9.277734e+00 2.336073e+01 2.046888e+01 4.212078e+01 3.344250e+01 5.162714e+01 6.288853e+01 3.680833e+01 3.906408e+01 3.718683e+01 4.053212e+01 3.122490e+01 2.098436e-01 4.337481e-01 4.621198e-01 7.746728e-01 7.943696e-01 1.127474e+00 9.138814e-01 9.580869e-01 9.028767e-01 9.465569e-01 1.044524e+00 7.850021e-01 2.384458e-04
<GCONST> 7.534647e+01
<MIXTURE> 57 6.132464e-03
<MEAN> 25
 7.562977e+00 -6.775437e+00 -9.039317e+00 -8.497650e+00 3.841626e+00 3.821819e+00 -2.253148e+00 -1.521438e+00 1.864581e+00 6.941838e-01 -2.386837e+00 -7.046447e+00 -1.965378e-02 2.924848e-02 -8.126863e-02 2.718797e-02 2.586648e-01 4.955304e-02 1.111108e-01 -1.159958e-01 -5.056495e-02 -5.642632e-02 -8.797096e-02 1.250071e-02 -6.956542e-03
<VARIANCE> 25
 9.277734e+00 2.336073e+01 2.046888e+01 4.212078e+01 3.344250e+01 5.162714e+01 6.288853e+01 3.680833e+01 3.906408e+01 3.718683e+01 4.053212e+01 3.122490e+01 2.098436e-01 4.337481e-01 4.621198e-01 7.746728e-01 7.943696e-01 1.127474e+00 9.138814e-01 9.580869e-01 9.028767e-01 9.465569e-01 1.044524e+00 7.850021e-01 2.384458e-04
<GCONST> 7.534647e+01
<MIXTURE> 58 6.172147e-03
<MEAN> 25
 2.616738e+00 -3.150820e+00 7.257723e+00 -5.176116e+00 -1.338001e+01 -5.658132e+00 1.562360e+00 8.798529e-01 -2.385385e+00 1.813148e+00 5.268021e-01 -8.192386e-01 -3.172156e-02 -1.350721e-01 -6.517532e-02 -1.636566e-01 -1.482163e-02 2.330876e-01 3.808937e-01 2.266900e-01 1.333564e-02 1.818869e-02 -8.508234e-02 -1.429013e-01 -2.924487e-03
<VARIANCE> 25
 7.412271e+00 1.570012e+01 2.108517e+01 2.762614e+01 2.377771e+01 4.624353e+01 3.313491e+01 3.478016e+01 3.190970e+01 3.115923e+01 2.285544e+01 2.005877e+01 3.052288e-01 8.064501e-01 7.611414e-01 1.015250e+00 8.977826e-01 1.201844e+00 1.167660e+00 1.289372e+00 1.077109e+00 1.054873e+00 9.186247e-01 8.798465e-01 7.193901e-04
<GCONST> 7.565655e+01
<MIXTURE> 59 6.172147e-03
<MEAN> 25
 2.616738e+00 -3.150820e+00 7.257723e+00 -5.176116e+00 -1.338001e+01 -5.658132e+00 1.562360e+00 8.798529e-01 -2.385385e+00 1.813148e+00 5.268021e-01 -8.192386e-01 -3.172156e-02 -1.350721e-01 -6.517532e-02 -1.636566e-01 -1.482163e-02 2.330876e-01 3.808937e-01 2.266900e-01 1.333564e-02 1.818869e-02 -8.508234e-02 -1.429013e-01 -2.924487e-03
<VARIANCE> 25
 7.412271e+00 1.570012e+01 2.108517e+01 2.762614e+01 2.377771e+01 4.624353e+01 3.313491e+01 3.478016e+01 3.190970e+01 3.115923e+01 2.285544e+01 2.005877e+01 3.052288e-01 8.064501e-01 7.611414e-01 1.015250e+00 8.977826e-01 1.201844e+00 1.167660e+00 1.289372e+00 1.077109e+00 1.054873e+00 9.186247e-01 8.798465e-01 7.193901e-04
<GCONST> 7.565655e+01
<MIXTURE> 60 4.479129e-03
<MEAN> 25
 -3.953003e+00 -4.152998e-01 -7.735231e-01 3.691101e+00 1.821623e+00 2.439937e+00 1.785536e+00 1.525298e+00 2.408689e+00 1.103772e+00 1.929046e+00 1.971053e+00 -2.248430e-02 5.715975e-02 1.147043e-01 9.589343e-02 1.015353e-01 1.118072e-01 6.168458e-02 2.987030e-01 5.370035e-01 6.599273e-01 4.888079e-01 3.035354e-01 -2.693232e-04
<VARIANCE> 25
 7.045421e+00 5.130613e+00 1.063304e+01 1.049499e+01 1.302543e+01 1.617207e+01 1.378162e+01 1.213314e+01 1.303638e+01 1.309999e+01 1.604897e+01 1.178536e+01 8.800487e-02 1.832016e-01 2.966954e-01 4.359545e-01 5.869727e-01 7.249462e-01 1.193406e+00 9.538091e-01 9.212706e-01 9.207262e-01 8.276588e-01 8.477376e-01 2.366609e-05
<GCONST> 5.703359e+01
<MIXTURE> 61 4.479129e-03
<MEAN> 25
 -3.953003e+00 -4.152998e-01 -7.735231e-01 3.691101e+00 1.821623e+00 2.439937e+00 1.785536e+00 1.525298e+00 2.408689e+00 1.103772e+00 1.929046e+00 1.971053e+00 -2.248430e-02 5.715975e-02 1.147043e-01 9.589343e-02 1.015353e-01 1.118072e-01 6.168458e-02 2.987030e-01 5.370035e-01 6.599273e-01 4.888079e-01 3.035354e-01 -2.693232e-04
<VARIANCE> 25
 7.045421e+00 5.130613e+00 1.063304e+01 1.049499e+01 1.302543e+01 1.617207e+01 1.378162e+01 1.213314e+01 1.303638e+01 1.309999e+01 1.604897e+01 1.178536e+01 8.800487e-02 1.832016e-01 2.966954e-01 4.359545e-01 5.869727e-01 7.249462e-01 1.193406e+00 9.538091e-01 9.212706e-01 9.207262e-01 8.276588e-01 8.477376e-01 2.366609e-05
<GCONST> 5.703359e+01
<MIXTURE> 62 3.278034e-03
<MEAN> 25
 -5.072559e+00 1.253939e+00 1.020536e+00 8.776555e+00 6.133104e+00 5.057093e+00 5.514535e+00 4.021329e+00 4.977553e+00 3.903750e+00 4.929901e+00 2.926827e+00 -9.982666e-01 -1.164213e+00 -9.505366e-01 -2.786780e-01 4.238417e-01 9.983999e-01 1.377077e+00 1.551233e+00 1.481697e+00 1.249957e+00 1.065565e+00 7.189184e-01 -1.276182e-03
<VARIANCE> 25
 9.886799e+00 9.946015e+00 1.305508e+01 1.697864e+01 1.733475e+01 1.747182e+01 1.965567e+01 1.904841e+01 1.880408e+01 1.877542e+01 2.170357e+01 1.484778e+01 4.043548e-01 4.318485e-01 5.533240e-01 7.775228e-01 1.035209e+00 1.195574e+00 1.264494e+00 1.274064e+00 1.326452e+00 1.367526e+00 1.393906e+00 1.375417e+00 1.627384e-05
<GCONST> 6.753897e+01
<MIXTURE> 63 4.351215e-03
<MEAN> 25
 -3.161284e+00 -1.055022e+00 -3.900044e+00 2.697313e+00 3.556596e+00 7.627213e-01 2.683920e+00 1.137856e+00 2.290251e+00 -9.263753e-01 -1.027511e+00 2.100080e+00 -9.039363e-02 3.076285e-01 2.972784e-01 5.086836e-01 5.046254e-01 4.729699e-01 4.586846e-01 1.923217e-01 1.734213e-01 1.093937e-01 1.980461e-01 2.310890e-01 -2.398137e-03
<VARIANCE> 25
 9.313056e+00 1.743397e+01 1.747218e+01 1.289158e+01 1.518590e+01 2.513758e+01 2.091330e+01 2.223977e+01 2.200270e+01 1.855306e+01 1.918747e+01 1.578188e+01 3.072583e-01 4.461665e-01 5.987840e-01 6.911730e-01 8.557968e-01 1.071410e+00 1.389556e+00 1.277210e+00 1.219848e+00 1.925498e+00 1.103098e+00 1.507303e+00 1.816151e-04
<GCONST> 7.063217e+01
<MIXTURE> 64 4.351215e-03
<MEAN> 25
 -3.161284e+00 -1.055022e+00 -3.900044e+00 2.697313e+00 3.556596e+00 7.627213e-01 2.683920e+00 1.137856e+00 2.290251e+00 -9.263753e-01 -1.027511e+00 2.100080e+00 -9.039363e-02 3.076285e-01 2.972784e-01 5.086836e-01 5.046254e-01 4.729699e-01 4.586846e-01 1.923217e-01 1.734213e-01 1.093937e-01 1.980461e-01 2.310890e-01 -2.398137e-03
<VARIANCE> 25
 9.313056e+00 1.743397e+01 1.747218e+01 1.289158e+01 1.518590e+01 2.513758e+01 2.091330e+01 2.223977e+01 2.200270e+01 1.855306e+01 1.918747e+01 1.578188e+01 3.072583e-01 4.461665e-01 5.987840e-01 6.911730e-01 8.557968e-01 1.071410e+00 1.389556e+00 1.277210e+00 1.219848e+00 1.925498e+00 1.103098e+00 1.507303e+00 1.816151e-04
<GCONST> 7.063217e+01
<MIXTURE> 65 1.721197e-02
<MEAN> 25
 8.070765e+00 3.229258e-01 9.990026e-01 1.150548e+00 -5.281736e+00 -3.116063e+00 -4.123500e+00 -7.179055e+00 -4.350930e+00 -1.138098e+00 -4.533815e+00 -1.899431e+00 1.082011e-01 4.108063e-02 1.296170e-01 8.253076e-02 -1.011298e-01 1.793921e-01 -5.180361e-02 -1.058610e-01 1.458652e-01 -1.979179e-01 -1.741737e-01 1.675449e-02 -4.191120e-03
<VARIANCE> 25
 9.143037e+00 2.745616e+01 2.325311e+01 3.087884e+01 3.085928e+01 6.568703e+01 7.275590e+01 5.915738e+01 5.271329e+01 5.045236e+01 5.210524e+01 4.109155e+01 4.846433e-01 8.983649e-01 1.467327e+00 1.855985e+00 1.837173e+00 1.954011e+00 2.333922e+00 2.825834e+00 2.061115e+00 2.238636e+00 2.567482e+00 1.905082e+00 4.082222e-04
<GCONST> 8.823331e+01
<MIXTURE> 66 1.191532e-02
<MEAN> 25
 6.604753e+00 -4.412703e+00 -5.434269e+00 -4.841722e+00 9.794948e-01 -5.173461e+00 -6.544783e+00 1.135133e+00 9.105088e-01 -1.813344e+00 -6.115035e+00 -3.530714e+00 -1.077204e-01 1.657958e+00 2.125187e+00 2.299613e+00 -1.109502e+00 -1.130544e+00 1.775578e-01 -4.257016e-01 -1.767591e-01 -2.046762e-01 -2.937133e-01 1.017436e+00 -6.355165e-02
<VARIANCE> 25
 8.606364e+00 2.318319e+01 2.625449e+01 3.212030e+01 3.774959e+01 5.109885e+01 5.549632e+01 4.412376e+01 5.318618e+01 6.410645e+01 3.552978e+01 3.457323e+01 1.307538e+00 2.357088e+00 2.425414e+00 2.351957e+00 4.342649e+00 4.374556e+00 4.376197e+00 4.846963e+00 4.068763e+00 4.720359e+00 3.875552e+00 3.133976e+00 1.404867e-03
<GCONST> 9.634608e+01
<MIXTURE> 67 1.559142e-02
<MEAN> 25
 8.762027e+00 1.522042e+00 -6.195976e+00 -7.859276e+00 -1.233004e+00 4.600554e+00 -1.579557e+00 -4.017313e+00 -4.054520e+00 1.490766e+00 3.005857e-01 -8.806842e-01 -1.182461e+00 1.981957e+00 9.342495e-01 2.681470e+00 1.392818e+00 -7.559510e-01 1.322614e+00 5.998520e-01 6.910421e-01 -7.643347e-03 -6.794849e-01 3.870323e-01 -1.279205e-01
<VARIANCE> 25
 1.048150e+01 3.330437e+01 2.382327e+01 4.458711e+01 5.154013e+01 5.098621e+01 5.601748e+01 5.281880e+01 5.503006e+01 4.511551e+01 4.550245e+01 3.923406e+01 1.750667e+00 2.767076e+00 2.558421e+00 3.839187e+00 3.858033e+00 3.879497e+00 3.724691e+00 4.699021e+00 5.127096e+00 3.930533e+00 4.338489e+00 3.153818e+00 2.488501e-03
<GCONST> 9.899522e+01
<MIXTURE> 68 1.485092e-02
<MEAN> 25
 -2.468319e+00 -2.634599e+00 -4.513199e+00 4.937125e-01 5.989075e+00 -1.572707e-02 1.063845e+00 1.290614e+00 1.771432e+00 2.312337e+00 4.291530e-01 1.758259e+00 2.822491e+00 3.412106e-01 8.821424e-02 -2.420241e+00 -2.451516e+00 -1.744922e+00 -2.132810e+00 -2.152344e+00 -1.388306e+00 -7.332810e-01 -1.455522e+00 -1.328733e+00 9.853716e-02
<VARIANCE> 25
 2.276622e+01 3.356120e+01 4.747664e+01 4.431092e+01 4.117231e+01 5.291084e+01 4.699291e+01 3.874663e+01 3.530767e+01 4.982775e+01 3.068607e+01 2.121968e+01 1.622542e+00 3.431661e+00 4.923946e+00 5.932977e+00 3.922463e+00 4.658800e+00 5.452113e+00 4.834443e+00 4.320281e+00 6.106894e+00 4.923701e+00 3.230432e+00 4.935151e-03
<GCONST> 1.013788e+02
<MIXTURE> 69 1.204884e-02
<MEAN> 25
 4.624301e+00 -4.285797e+00 -3.584952e+00 -3.468693e+00 -3.503407e+00 -7.921717e+00 -1.318730e+00 2.406669e+00 -2.100544e-01 -4.622244e+00 -5.417325e+00 9.178309e-01 1.566854e+00 -2.207841e+00 -1.270273e+00 -2.210893e+00 -4.723928e-01 -3.006572e-01 -4.412513e-01 5.362182e-01 -6.273498e-01 -1.285560e+00 -2.140163e+00 -1.805576e-01 6.192354e-02
<VARIANCE> 25
 9.021802e+00 2.185958e+01 2.566958e+01 2.673746e+01 4.228552e+01 3.490963e+01 4.874628e+01 3.190433e+01 3.908263e+01 3.675559e+01 3.214386e+01 2.419145e+01 3.782524e+00 2.836389e+00 3.369287e+00 3.592214e+00 5.686879e+00 4.923388e+00 6.989455e+00 6.338003e+00 5.727058e+00 6.477117e+00 4.388406e+00 3.547395e+00 2.374813e-03
<GCONST> 9.864069e+01
<MIXTURE> 70 1.329190e-02
<MEAN> 25
 7.253930e+00 -3.001261e+00 -3.364507e+00 -3.649121e+00 -1.256461e+00 -1.526905e+00 -6.811070e+00 -5.080803e+00 -5.311226e-01 3.145111e+00 8.604687e-01 -4.973892e+00 2.204335e+00 -1.177247e+00 -4.344025e-01 -1.551699e+00 -2.043191e+00 3.635942e-01 -8.953876e-01 -6.152761e-01 2.198661e-01 2.051643e-02 4.918664e-01 -1.291438e+00 6.589413e-02
<VARIANCE> 25
 8.462559e+00 2.099264e+01 2.053391e+01 5.020763e+01 2.700628e+01 4.497114e+01 4.867458e+01 3.462378e+01 4.267996e+01 2.275393e+01 3.276479e+01 2.277455e+01 3.052488e+00 2.428500e+00 3.264512e+00 4.753362e+00 4.795524e+00 6.092271e+00 5.883226e+00 6.107779e+00 4.415618e+00 4.752033e+00 4.480123e+00 3.276247e+00 1.923103e-03
<GCONST> 9.726807e+01
<MIXTURE> 71 1.406903e-02
<MEAN> 25
 6.227008e+00 4.898039e+00 3.818792e+00 2.879149e+00 -3.259054e+00 -2.700674e+00 -2.732839e+00 -6.526724e+00 -4.506487e+00 -2.364532e+00 -5.259839e+00 -2.970481e+00 -1.555022e+00 -8.094184e-01 -2.366541e-01 -1.653374e+00 1.093210e+00 -2.246423e-01 -5.634087e-02 1.381466e+00 2.818272e-01 -1.142963e-01 8.385361e-01 1.559034e-01 4.299726e-02
<VARIANCE> 25
 1.882247e+01 2.777654e+01 2.423522e+01 4.237243e+01 3.841261e+01 4.647239e+01 4.518032e+01 4.453934e+01 3.988626e+01 4.224706e+01 3.460870e+01 3.262232e+01 1.702897e+00 2.994254e+00 4.900337e+00 5.066323e+00 4.333044e+00 4.722707e+00 4.784941e+00 5.550645e+00 3.981382e+00 4.056242e+00 3.605907e+00 3.077024e+00 1.374708e-03
<GCONST> 9.843130e+01
<MIXTURE> 72 8.134747e-03
<MEAN> 25
 3.805345e+00 -3.699072e+00 5.420575e+00 -2.444017e+00 -1.040071e+01 -9.631204e+00 -2.474602e+00 1.919659e+00 -4.922063e+00 -2.198497e+00 -1.859846e+00 6.252370e-01 9.279027e-01 -7.878447e-01 -2.565210e+00 4.576467e-01 2.131733e+00 -6.509526e-01 -1.314953e+00 1.524102e+00 1.804280e+00 -5.918831e-01 -1.289150e+00 4.016775e-01 -6.071671e-03
<VARIANCE> 25
 1.079894e+01 1.952342e+01 3.310487e+01 3.843763e+01 3.222606e+01 3.326377e+01 4.107316e+01 3.621178e+01 4.362737e+01 4.125988e+01 3.885710e+01 2.841951e+01 4.362539e-01 1.027249e+00 2.048778e+00 1.475298e+00 2.186851e+00 2.353365e+00 3.057572e+00 2.724004e+00 2.620426e+00 2.959218e+00 2.024014e+00 2.122385e+00 5.410295e-04
<GCONST> 8.727659e+01
<MIXTURE> 73 1.213625e-02
<MEAN> 25
 -5.345451e+00 -4.886478e-01 -1.671492e+00 4.219736e+00 4.103115e+00 2.730440e+00 5.501216e+00 3.498737e+00 4.117832e+00 3.192599e+00 3.645836e+00 2.720691e+00 7.951404e-01 -9.968643e-01 -1.135869e+00 -2.801380e+00 -1.114290e+00 -1.776337e+00 -8.857927e-01 -4.141426e-01 -1.143063e+00 -6.122503e-01 -1.060408e+00 -3.366622e-01 1.436440e-01
<VARIANCE> 25
 1.228717e+01 1.370178e+01 1.563084e+01 2.420632e+01 2.242597e+01 2.402204e+01 1.907432e+01 1.885866e+01 1.652654e+01 1.801057e+01 2.397492e+01 1.475908e+01 3.724671e+00 2.828058e+00 5.831950e+00 4.710199e+00 5.754910e+00 4.134422e+00 3.976574e+00 4.025176e+00 4.126483e+00 3.933976e+00 3.288058e+00 2.429964e+00 4.850116e-03
<GCONST> 9.189472e+01
<MIXTURE> 74 1.756491e-02
<MEAN> 25
 4.470208e+00 -2.506233e+00 3.952685e+00 1.632603e-01 -7.843650e+00 -8.838545e+00 -2.616296e+00 2.300101e+00 -4.055005e+00 -2.262706e+00 -2.331563e+00 -2.903073e-01 1.529259e-01 2.080879e+00 7.400245e-02 1.750963e+00 1.240155e+00 4.841642e-01 1.770198e-01 -1.005011e+00 3.972783e-01 2.945179e-02 -4.958589e-01 -2.648132e-01 -8.637200e-02
<VARIANCE> 25
 8.959293e+00 2.232699e+01 3.289741e+01 3.539661e+01 3.267107e+01 3.161510e+01 3.967472e+01 4.583131e+01 4.315372e+01 3.669216e+01 3.344941e+01 2.770812e+01 1.752286e+00 1.727555e+00 2.982669e+00 2.142489e+00 3.201677e+00 3.243069e+00 4.002886e+00 3.659910e+00 3.841608e+00 3.316268e+00 2.996860e+00 2.479574e+00 1.608427e-03
<GCONST> 9.305527e+01
<MIXTURE> 75 9.711651e-03
<MEAN> 25
 2.708322e+00 -1.271689e+00 1.085965e+01 1.768983e+00 -1.171080e+01 -7.697894e+00 -4.663386e+00 -6.462253e-01 -4.506045e+00 -4.529711e+00 3.251243e+00 1.346463e-01 1.748731e+00 -1.750690e+00 2.060919e-01 -2.265788e-01 -2.415485e+00 -5.449829e-01 -1.433290e+00 9.281386e-01 -1.507381e-01 -3.448077e-01 1.051805e+00 -6.229417e-01 3.840739e-02
<VARIANCE> 25
 1.131813e+01 1.843631e+01 3.202026e+01 2.744814e+01 2.745687e+01 3.218952e+01 3.128046e+01 3.171537e+01 3.302986e+01 3.209445e+01 2.032128e+01 2.155716e+01 2.345381e+00 1.881032e+00 4.202203e+00 2.504061e+00 3.869778e+00 4.418390e+00 4.152576e+00 3.511629e+00 3.871482e+00 3.323789e+00 3.094953e+00 2.466733e+00 1.528157e-03
<GCONST> 9.225913e+01
<MIXTURE> 76 1.052359e-02
<MEAN> 25
 -5.829857e+00 -6.814325e-01 -2.212930e+00 3.104702e+00 4.368074e+00 2.122535e+00 4.179426e+00 2.681566e+00 2.220250e+00 7.659001e-02 1.491244e+00 2.221710e+00 -5.494681e-02 -6.163473e-01 -4.504730e-01 -8.183411e-01 -3.758382e-01 -7.698528e-01 -6.237556e-01 -1.973038e-01 -5.021149e-01 -3.501543e-01 -4.147151e-01 -2.880372e-01 2.072194e-02
<VARIANCE> 25
 3.419063e+01 2.620416e+01 3.021443e+01 2.781312e+01 2.631792e+01 2.798525e+01 2.307911e+01 2.885806e+01 2.254685e+01 2.372045e+01 2.370113e+01 1.711033e+01 9.843983e-01 1.199280e+00 1.608089e+00 1.357165e+00 1.519551e+00 1.488840e+00 1.498928e+00 1.639868e+00 1.807675e+00 1.419361e+00 1.929269e+00 1.267577e+00 1.199314e-03
<GCONST> 8.264170e+01
<MIXTURE> 77 1.244626e-02
<MEAN> 25
 -4.447896e-01 8.534775e+00 1.237219e+01 -1.129417e+01 -7.043381e+00 7.626824e-01 -9.154232e+00 -7.221405e+00 -3.393769e+00 -3.318492e-01 -4.579750e+00 -1.397748e+00 7.364228e-02 1.297115e-01 7.591869e-02 2.629368e-01 -4.818904e-02 7.703804e-02 -7.277471e-02 -6.514877e-02 7.816785e-02 -4.640155e-02 3.128906e-02 1.065972e-01 -9.929165e-03
<VARIANCE> 25
 1.024916e+01 1.976359e+01 2.796835e+01 4.522383e+01 3.328359e+01 3.587130e+01 3.672515e+01 3.132198e+01 3.461188e+01 3.387125e+01 3.703680e+01 3.471585e+01 3.013727e-01 7.701990e-01 6.411389e-01 1.079425e+00 1.266845e+00 1.012086e+00 1.215712e+00 1.065113e+00 1.035131e+00 1.049325e+00 9.598057e-01 9.187725e-01 5.301909e-04
<GCONST> 7.785234e+01
<MIXTURE> 78 9.702551e-03
<MEAN> 25
 -1.171251e+01 7.772686e-01 -7.882891e-01 1.900267e+00 4.626362e+00 -1.954600e+00 3.514489e+00 3.326291e+00 2.577600e+00 3.007580e-01 5.593683e-01 2.733227e+00 2.478825e+00 -4.292384e-01 -5.364666e-03 6.890351e-01 -3.753107e-02 -2.037490e-02 -2.041687e-01 -4.630840e-02 8.043730e-02 1.773167e-01 -1.165723e-01 -2.937174e-01 -6.356251e-02
<VARIANCE> 25
 3.981166e+01 3.001139e+01 3.446241e+01 2.974693e+01 3.550114e+01 3.508014e+01 3.159981e+01 3.314342e+01 2.506888e+01 2.628210e+01 3.404909e+01 1.950597e+01 4.514889e+00 2.628512e+00 2.793573e+00 2.798437e+00 2.713662e+00 3.207668e+00 2.930154e+00 2.649688e+00 2.209343e+00 2.148025e+00 2.772055e+00 2.056720e+00 4.328097e-03
<GCONST> 9.363432e+01
<MIXTURE> 79 1.156824e-02
<MEAN> 25
 2.377856e+00 1.615917e+00 9.205518e+00 -6.508109e+00 -1.198808e+01 -1.954042e+00 -1.979596e+00 -6.446248e+00 -6.508448e+00 1.901671e-01 -3.501424e+00 -3.181293e+00 1.222129e+00 -5.150130e-01 -1.418235e+00 2.343103e+00 3.488534e-01 -1.487100e+00 5.398117e-01 8.756257e-01 -4.323517e-01 -5.403746e-01 3.422296e-01 2.592945e-01 -3.606393e-02
<VARIANCE> 25
 1.424021e+01 2.400210e+01 3.748321e+01 4.971932e+01 3.343017e+01 4.405250e+01 4.250969e+01 3.637394e+01 3.870924e+01 4.051496e+01 4.332273e+01 3.114559e+01 9.321778e-01 2.237954e+00 1.882396e+00 2.064776e+00 2.514344e+00 2.793415e+00 3.154894e+00 3.492329e+00 2.482050e+00 2.705063e+00 2.300856e+00 2.037311e+00 1.220390e-03
<GCONST> 9.169720e+01
<MIXTURE> 80 7.550998e-03
<MEAN> 25
 -1.442002e+01 4.112134e+00 1.503931e+00 2.321005e+00 2.519822e+00 9.893524e-01 6.362768e+00 1.583532e+00 2.807820e+00 2.975336e+00 4.174682e+00 6.051263e-01 4.013196e+00 6.499562e-02 1.692453e+00 -7.746053e-01 -2.710323e+00 -2.974299e+00 -2.465466e+00 -1.946877e+00 -2.204685e+00 -1.936917e+00 -1.554933e+00 -4.190160e-01 -3.979836e-02
<VARIANCE> 25
 1.895234e+01 1.802582e+01 3.542233e+01 3.494715e+01 2.678767e+01 2.757244e+01 2.732204e+01 3.576392e+01 2.634296e+01 2.869817e+01 2.730720e+01 1.956899e+01 2.658099e+00 2.422311e+00 2.394910e+00 4.562251e+00 3.246645e+00 2.787292e+00 2.875503e+00 3.120605e+00 2.863266e+00 3.067778e+00 2.607281e+00 2.197859e+00 1.475704e-03
<GCONST> 9.135088e+01
<MIXTURE> 81 8.025434e-03
<MEAN> 25
 -1.118428e+00 4.067694e+00 1.017998e+01 -1.479910e+01 -9.079791e+00 -1.425686e+00 -6.767091e+00 -8.424946e+00 -4.150909e+00 -4.192808e-01 -7.573428e+00 -2.244539e+00 1.342729e-01 -5.870286e-01 -2.845974e-03 -5.556929e-01 -4.644160e-01 3.343547e-01 3.199527e-01 1.368552e-01 -1.404261e-01 1.065807e-01 -4.695348e-01 -1.257354e-01 1.149947e-02
<VARIANCE> 25
 1.014883e+01 3.279471e+01 2.644392e+01 2.933756e+01 3.369901e+01 3.054735e+01 4.543473e+01 2.825225e+01 3.798172e+01 3.190672e+01 2.529707e+01 3.105766e+01 7.724261e-01 2.276760e+00 1.545613e+00 2.873182e+00 2.663315e+00 2.127985e+00 3.279773e+00 2.287229e+00 2.354702e+00 2.538750e+00 2.297804e+00 2.078338e+00 1.183456e-03
<GCONST> 8.868661e+01
<MIXTURE> 82 8.213053e-03
<MEAN> 25
 -9.932419e+00 -3.879561e+00 1.618566e+00 -2.976610e+00 3.118639e+00 7.082946e-01 2.069244e+00 8.481311e-01 2.983311e+00 1.836101e+00 1.747260e+00 3.022634e+00 -1.329143e+00 -1.142316e-01 3.030450e-01 -2.587309e+00 -1.087109e+00 -1.252321e+00 -9.910343e-01 -8.916789e-01 -3.239920e-01 -4.496891e-01 -3.031021e-01 -1.003445e-01 1.769717e-01
<VARIANCE> 25
 1.799480e+01 2.491080e+01 3.215623e+01 3.059943e+01 3.275361e+01 3.216494e+01 3.230434e+01 3.425307e+01 3.059935e+01 2.657596e+01 3.057526e+01 1.767676e+01 3.793851e+00 3.050292e+00 3.342680e+00 3.268416e+00 3.555951e+00 3.280038e+00 3.002273e+00 3.045597e+00 2.777441e+00 2.549319e+00 2.451625e+00 1.851250e+00 3.561883e-03
<GCONST> 9.324795e+01
<MIXTURE> 83 1.167529e-02
<MEAN> 25
 -1.964030e+01 5.500030e+00 -7.870297e-01 -1.145433e+00 7.632946e+00 -8.691940e-01 4.953232e+00 3.979265e+00 1.902277e+00 1.698518e+00 8.094383e-01 2.450501e+00 -6.475335e-02 -4.669329e-01 2.872151e-02 -3.146392e-01 -5.327376e-01 -1.329077e-01 -1.804048e-02 -1.849789e-01 2.503340e-02 3.967119e-02 1.012309e-02 -2.986097e-03 4.243315e-03
<VARIANCE> 25
 9.029089e+00 1.461687e+01 3.263606e+01 2.366036e+01 1.926134e+01 2.249338e+01 2.177677e+01 2.644620e+01 2.236287e+01 2.201008e+01 2.137843e+01 1.458101e+01 9.912171e-01 9.022478e-01 1.154316e+00 1.025883e+00 1.222973e+00 1.274864e+00 1.259822e+00 1.420351e+00 1.295653e+00 1.430679e+00 1.177069e+00 9.820454e-01 8.323155e-04
<GCONST> 7.660119e+01
<MIXTURE> 84 1.066614e-02
<MEAN> 25
 1.044715e+00 8.412049e+00 6.929678e+00 7.502120e+00 1.892511e+00 -1.265454e+00 -1.992064e+00 -4.653109e+00 -3.933315e+00 -2.633983e+00 -2.362230e+00 -1.344118e+00 -1.599813e+00 -1.051104e+00 -1.323347e+00 1.054410e+00 2.365041e+00 1.649975e+00 1.553592e+00 1.469884e+00 1.138690e+00 5.569870e-01 3.071800e-01 2.537099e-01 -7.106979e-02
<VARIANCE> 25
 2.066265e+01 1.800665e+01 1.962254e+01 2.231979e+01 3.196583e+01 2.612730e+01 2.693633e+01 2.463550e+01 2.282654e+01 2.303896e+01 2.088154e+01 2.271113e+01 2.025050e+00 2.318595e+00 3.425889e+00 3.188413e+00 2.957972e+00 3.079049e+00 2.935316e+00 3.213639e+00 3.031513e+00 3.033555e+00 3.240418e+00 2.643818e+00 3.093819e-03
<GCONST> 9.057943e+01
<MIXTURE> 85 7.591393e-03
<MEAN> 25
 -3.587043e+00 7.622674e+00 6.394268e+00 9.107500e-01 -3.176388e+00 -5.847068e+00 -3.152514e+00 -6.074590e+00 -3.639707e+00 -3.139376e+00 -6.752347e-01 -1.386700e+00 3.791831e+00 1.917146e-01 1.694474e+00 -1.464011e+00 -3.135927e+00 -2.641275e+00 -2.834668e+00 -2.389330e+00 -2.516830e+00 -1.603699e+00 -1.908363e+00 -2.499367e-01 7.722200e-03
<VARIANCE> 25
 3.883778e+01 2.206381e+01 3.391983e+01 3.568718e+01 3.481145e+01 3.984840e+01 2.913564e+01 2.717863e+01 2.586514e+01 2.428843e+01 2.362308e+01 2.077888e+01 2.442324e+00 3.801290e+00 3.501409e+00 6.388119e+00 4.167939e+00 3.358506e+00 3.412767e+00 3.520356e+00 3.720567e+00 4.085459e+00 4.163424e+00 3.897724e+00 4.680515e-03
<GCONST> 9.695211e+01
<MIXTURE> 86 1.273941e-02
<MEAN> 25
 -4.511495e+00 -6.752797e-01 -8.185656e-01 5.581567e+00 4.867853e+00 4.446494e+00 5.068234e+00 4.402757e+00 4.849792e+00 3.919797e+00 4.600031e+00 2.083451e+00 2.002972e-02 -3.796290e-02 -8.223252e-02 -9.210893e-03 -1.375758e-01 -2.446753e-01 -5.046814e-01 -2.881748e-01 -2.800116e-01 -3.890492e-01 -1.931949e-01 -6.969237e-02 -9.080198e-04
<VARIANCE> 25
 7.598931e+00 6.000956e+00 8.477400e+00 1.300984e+01 1.382201e+01 1.291686e+01 1.292619e+01 1.168969e+01 1.181892e+01 1.381328e+01 1.538801e+01 1.274549e+01 1.189414e-01 1.949803e-01 3.246265e-01 4.680983e-01 6.631953e-01 7.305456e-01 1.141135e+00 7.573754e-01 8.133273e-01 9.554377e-01 8.755893e-01 8.044479e-01 5.274439e-05
<GCONST> 5.807546e+01
<MIXTURE> 87 1.100681e-02
<MEAN> 25
 -2.805253e+00 4.091680e+00 2.778248e+00 6.143166e+00 4.826834e+00 7.900925e-01 1.553920e+00 -9.460741e-01 -5.951691e-01 -9.518382e-01 -6.809635e-01 -2.577382e-01 -2.111992e+00 -2.855183e+00 -2.064898e+00 -1.766242e+00 7.662809e-02 -4.546689e-01 3.741537e-01 1.000449e+00 1.161740e+00 9.759192e-01 1.322035e+00 8.131391e-01 1.044552e-01
<VARIANCE> 25
 3.511485e+01 2.957895e+01 2.769630e+01 3.382200e+01 2.850866e+01 2.965439e+01 2.503433e+01 2.593971e+01 2.440176e+01 2.187863e+01 2.561802e+01 2.105400e+01 3.374262e+00 2.457644e+00 3.565600e+00 4.414068e+00 4.238878e+00 4.407667e+00 3.968617e+00 3.950942e+00 3.403900e+00 3.038719e+00 3.917820e+00 2.582704e+00 4.369095e-03
<GCONST> 9.529046e+01
<MIXTURE> 88 1.256585e-02
<MEAN> 25
 -3.636391e+00 -3.945076e-02 -1.339612e+00 4.526342e+00 5.634489e+00 4.171819e+00 4.017328e+00 3.196484e+00 3.299860e+00 1.321457e+00 2.794445e+00 2.370184e+00 2.541981e-01 2.709967e-01 1.275891e-01 1.703267e-01 4.023741e-01 4.211504e-01 4.107003e-03 2.738691e-03 -1.515478e-01 -3.140328e-01 -5.305824e-01 -9.011964e-02 -1.232558e-02
<VARIANCE> 25
 8.499871e+00 9.513700e+00 1.612547e+01 1.175630e+01 1.872380e+01 1.606930e+01 1.805510e+01 2.037172e+01 2.024713e+01 1.603017e+01 2.114139e+01 1.304379e+01 1.188638e+00 1.421849e+00 2.029121e+00 1.771397e+00 2.109196e+00 2.253626e+00 2.264802e+00 2.061213e+00 1.970019e+00 2.233774e+00 2.769954e+00 1.846323e+00 1.468198e-03
<GCONST> 8.009462e+01
<MIXTURE> 89 9.333527e-03
<MEAN> 25
 6.445152e+00 -7.638510e+00 -3.062980e+00 -1.435748e+00 -2.660507e+00 -6.836017e+00 -7.597170e+00 3.268858e+00 1.800193e+00 -1.939395e+00 -2.966067e+00 -2.680288e+00 -5.493551e-01 1.294452e-01 1.598516e+00 9.383267e-01 -1.837525e+00 -1.470505e+00 9.020278e-01 1.412625e+00 -6.085720e-01 -1.165326e+00 1.723292e-01 1.187711e+00 -5.195096e-04
<VARIANCE> 25
 7.124546e+00 2.090101e+01 2.307365e+01 2.915944e+01 3.089870e+01 3.409803e+01 5.167912e+01 3.816527e+01 3.404049e+01 3.326799e+01 4.533293e+01 2.416199e+01 2.951361e-01 6.597973e-01 1.449706e+00 1.033567e+00 1.691377e+00 1.704594e+00 2.032660e+00 1.612981e+00 1.772869e+00 1.654787e+00 1.959027e+00 1.529334e+00 3.353829e-04
<GCONST> 8.122747e+01
<MIXTURE> 90 7.114505e-03
<MEAN> 25
 2.500595e+00 -9.768450e+00 -4.667388e+00 -3.919131e+00 -3.394928e+00 -1.973674e+00 3.164176e+00 1.340913e+00 -7.404197e+00 -9.933607e+00 -3.411518e+00 -7.411453e-01 -1.651402e-01 9.052058e-01 1.171882e+00 -8.265027e-01 -1.566638e+00 -2.067339e-01 6.699380e-01 -1.931672e-01 -1.937896e-01 7.170811e-01 1.590629e-01 -5.581555e-01 -1.120291e-02
<VARIANCE> 25
 8.425785e+00 1.762915e+01 1.971534e+01 2.764165e+01 3.606031e+01 3.266565e+01 3.950172e+01 3.677464e+01 3.516312e+01 3.059690e+01 2.655415e+01 2.557018e+01 2.191233e-01 6.010726e-01 7.761364e-01 1.055882e+00 1.539627e+00 1.558750e+00 1.769268e+00 1.631708e+00 1.808464e+00 1.659781e+00 1.492968e+00 1.292228e+00 2.110152e-04
<GCONST> 7.810480e+01
<MIXTURE> 91 7.852945e-03
<MEAN> 25
 6.365279e+00 -7.661403e+00 -8.290728e+00 -5.070583e+00 3.631617e+00 -3.200820e-01 -2.164039e+00 6.944281e-01 7.947977e-01 -2.742982e+00 -4.849907e+00 -5.090804e+00 2.156319e-01 1.006461e+00 2.029861e-01 4.907676e-01 -3.145035e-02 -5.158467e-01 -3.066184e-01 -5.175024e-02 -1.309139e-01 4.053875e-01 -1.740071e-01 2.103611e-01 -3.525848e-02
<VARIANCE> 25
 9.851397e+00 2.291726e+01 2.093381e+01 4.010559e+01 3.595301e+01 5.554954e+01 5.346074e+01 3.949463e+01 5.130846e+01 6.242219e+01 3.779502e+01 4.004399e+01 4.770860e-01 8.788622e-01 1.103572e+00 1.410921e+00 2.172808e+00 2.383221e+00 2.478912e+00 2.397955e+00 2.198776e+00 2.190907e+00 2.068329e+00 1.776250e+00 5.909819e-04
<GCONST> 8.718811e+01
<MIXTURE> 92 7.852945e-03
<MEAN> 25
 6.365279e+00 -7.661403e+00 -8.290728e+00 -5.070583e+00 3.631617e+00 -3.200820e-01 -2.164039e+00 6.944281e-01 7.947977e-01 -2.742982e+00 -4.849907e+00 -5.090804e+00 2.156319e-01 1.006461e+00 2.029861e-01 4.907676e-01 -3.145035e-02 -5.158467e-01 -3.066184e-01 -5.175024e-02 -1.309139e-01 4.053875e-01 -1.740071e-01 2.103611e-01 -3.525848e-02
<VARIANCE> 25
 9.851397e+00 2.291726e+01 2.093381e+01 4.010559e+01 3.595301e+01 5.554954e+01 5.346074e+01 3.949463e+01 5.130846e+01 6.242219e+01 3.779502e+01 4.004399e+01 4.770860e-01 8.788622e-01 1.103572e+00 1.410921e+00 2.172808e+00 2.383221e+00 2.478912e+00 2.397955e+00 2.198776e+00 2.190907e+00 2.068329e+00 1.776250e+00 5.909819e-04
<GCONST> 8.718811e+01
<MIXTURE> 93 6.122769e-03
<MEAN> 25
 -6.630266e+00 -8.626207e-01 -2.375348e+00 5.751558e+00 5.926044e+00 3.966201e+00 6.116040e+00 3.574684e+00 4.115679e+00 2.449648e+00 1.667662e+00 3.567885e+00 -7.351750e-02 -1.589757e-01 -2.562994e-01 -3.286280e-01 -3.512650e-01 -2.817722e-01 -2.271221e-01 -1.646159e-01 -1.697872e-01 -1.594225e-01 -1.054980e-01 -2.772210e-02 -6.955268e-05
<VARIANCE> 25
 9.934675e+00 6.190436e+00 7.984367e+00 1.109939e+01 1.115682e+01 1.558989e+01 1.497280e+01 1.656785e+01 1.442962e+01 1.442102e+01 1.695883e+01 1.362000e+01 8.763487e-02 1.516481e-01 2.574268e-01 3.777878e-01 5.029067e-01 6.382156e-01 7.995871e-01 9.075888e-01 9.013517e-01 9.336566e-01 8.761164e-01 8.996399e-01 1.123430e-06
<GCONST> 5.378510e+01
<MIXTURE> 94 6.122769e-03
<MEAN> 25
 -6.630266e+00 -8.626207e-01 -2.375348e+00 5.751558e+00 5.926044e+00 3.966201e+00 6.116040e+00 3.574684e+00 4.115679e+00 2.449648e+00 1.667662e+00 3.567885e+00 -7.351750e-02 -1.589757e-01 -2.562994e-01 -3.286280e-01 -3.512650e-01 -2.817722e-01 -2.271221e-01 -1.646159e-01 -1.697872e-01 -1.594225e-01 -1.054980e-01 -2.772210e-02 -6.955268e-05
<VARIANCE> 25
 9.934675e+00 6.190436e+00 7.984367e+00 1.109939e+01 1.115682e+01 1.558989e+01 1.497280e+01 1.656785e+01 1.442962e+01 1.442102e+01 1.695883e+01 1.362000e+01 8.763487e-02 1.516481e-01 2.574268e-01 3.777878e-01 5.029067e-01 6.382156e-01 7.995871e-01 9.075888e-01 9.013517e-01 9.336566e-01 8.761164e-01 8.996399e-01 1.123430e-06
<GCONST> 5.378510e+01
<MIXTURE> 95 5.258835e-03
<MEAN> 25
 -5.428375e+00 -4.222709e-01 -1.794922e+00 4.766480e+00 4.168756e+00 3.084160e+00 3.842836e+00 1.708711e+00 2.294059e+00 8.322402e-01 9.391507e-01 2.346546e+00 1.197751e-01 1.645942e-01 1.076252e-01 -8.907252e-02 -3.716246e-01 -6.483594e-01 -1.012164e+00 -1.191496e+00 -1.205709e+00 -9.674612e-01 -5.543917e-01 -2.262403e-01 -2.772744e-04
<VARIANCE> 25
 1.026685e+01 6.656651e+00 1.154899e+01 1.176815e+01 1.262533e+01 1.736985e+01 1.772871e+01 1.558046e+01 1.442151e+01 1.497724e+01 1.873826e+01 1.363839e+01 2.064430e-01 2.892829e-01 4.602197e-01 5.955489e-01 7.802919e-01 8.600206e-01 1.118937e+00 1.005432e+00 9.767093e-01 1.040571e+00 1.141569e+00 1.066758e+00 4.519703e-05
<GCONST> 6.282908e+01
<MIXTURE> 96 7.034694e-03
<MEAN> 25
 -4.582516e+00 4.541662e-02 -2.187737e+00 4.919231e+00 3.788640e+00 2.024688e+00 3.742231e+00 1.664067e+00 2.373001e+00 7.730979e-01 9.271696e-01 2.598274e+00 -3.833022e-02 7.374956e-02 1.870126e-01 4.150299e-01 5.553179e-01 4.803219e-01 2.768086e-01 -1.085081e-01 -4.586015e-01 -6.494977e-01 -5.227895e-01 -2.787757e-01 -9.882900e-05
<VARIANCE> 25
 1.252849e+01 1.151851e+01 1.189342e+01 1.378365e+01 1.451965e+01 1.847070e+01 1.805108e+01 2.012242e+01 1.726093e+01 1.594968e+01 1.930151e+01 1.424627e+01 1.181432e-01 2.092099e-01 3.140415e-01 3.769590e-01 5.376080e-01 6.677600e-01 8.293982e-01 9.626682e-01 9.995813e-01 8.303330e-01 9.035210e-01 9.953663e-01 1.117904e-06
<GCONST> 5.765945e+01
<MIXTURE> 97 7.034694e-03
<MEAN> 25
 -4.582516e+00 4.541662e-02 -2.187737e+00 4.919231e+00 3.788640e+00 2.024688e+00 3.742231e+00 1.664067e+00 2.373001e+00 7.730979e-01 9.271696e-01 2.598274e+00 -3.833022e-02 7.374956e-02 1.870126e-01 4.150299e-01 5.553179e-01 4.803219e-01 2.768086e-01 -1.085081e-01 -4.586015e-01 -6.494977e-01 -5.227895e-01 -2.787757e-01 -9.882900e-05
<VARIANCE> 25
 1.252849e+01 1.151851e+01 1.189342e+01 1.378365e+01 1.451965e+01 1.847070e+01 1.805108e+01 2.012242e+01 1.726093e+01 1.594968e+01 1.930151e+01 1.424627e+01 1.181432e-01 2.092099e-01 3.140415e-01 3.769590e-01 5.376080e-01 6.677600e-01 8.293982e-01 9.626682e-01 9.995813e-01 8.303330e-01 9.035210e-01 9.953663e-01 1.117904e-06
<GCONST> 5.765945e+01
<MIXTURE> 98 9.917808e-03
<MEAN> 25
 -1.368107e+00 1.045061e+00 -1.771365e-01 4.268008e+00 3.313268e+00 2.366333e+00 3.017763e+00 1.825680e+00 1.254986e+00 4.749500e-01 4.013480e-01 6.545348e-01 -1.707170e+00 -1.378596e+00 -1.034723e+00 6.541278e-02 6.989190e-01 9.021789e-01 1.230453e+00 1.260965e+00 1.565934e+00 1.087538e+00 1.278921e+00 8.721479e-01 -2.953465e-02
<VARIANCE> 25
 1.364217e+01 1.979101e+01 2.941687e+01 3.162806e+01 3.983019e+01 3.708527e+01 2.903031e+01 3.090275e+01 2.880537e+01 2.802901e+01 2.804001e+01 2.235978e+01 1.352138e+00 1.558006e+00 2.215421e+00 2.421163e+00 2.649686e+00 2.844247e+00 2.742386e+00 3.271476e+00 2.437943e+00 2.995926e+00 2.752791e+00 2.026607e+00 2.572571e-03
<GCONST> 8.999577e+01
<MIXTURE> 99 6.696178e-03
<MEAN> 25
 -5.565008e+00 9.247418e+00 7.555803e+00 3.123365e+00 -2.542941e-01 -6.152114e+00 -2.672714e+00 -4.465469e+00 -3.755848e+00 -4.668800e+00 -1.585683e+00 1.554877e+00 7.113044e-01 -6.618982e-01 3.091528e-01 -2.890744e-02 -1.261870e+00 -6.545182e-01 -2.090615e-01 -3.580942e-01 -1.570878e-01 -1.511006e-01 2.372474e-01 3.662763e-02 7.026238e-03
<VARIANCE> 25
 3.239108e+01 2.273901e+01 4.107288e+01 2.692141e+01 3.938334e+01 3.633635e+01 2.749700e+01 2.483800e+01 2.293758e+01 2.594028e+01 1.736887e+01 3.155194e+01 2.029959e+00 1.648607e+00 1.224162e+00 1.911442e+00 2.283214e+00 2.319942e+00 1.397433e+00 1.477538e+00 1.306457e+00 1.436444e+00 1.133688e+00 1.154306e+00 1.348569e-03
<GCONST> 8.478462e+01
<MIXTURE> 100 4.498084e-03
<MEAN> 25
 -1.620342e+00 6.347419e+00 1.028246e+01 -7.426673e+00 -1.073484e+01 -5.089704e+00 -4.946014e+00 -9.945580e+00 -4.713762e+00 -8.910477e-01 -2.711703e+00 -2.658062e+00 2.919457e+00 -1.258597e+00 1.299168e+00 -2.159249e+00 -3.409793e+00 -7.950506e-01 -1.221282e+00 -8.291015e-01 -1.487298e+00 3.246723e-01 -1.643678e+00 -2.743842e-01 1.978861e-03
<VARIANCE> 25
 1.363130e+01 2.096571e+01 2.234040e+01 2.651958e+01 2.323865e+01 2.369755e+01 2.895737e+01 2.169319e+01 2.736514e+01 2.275400e+01 2.237671e+01 2.167057e+01 1.790028e+00 3.930970e+00 2.902720e+00 4.375854e+00 4.174235e+00 4.529626e+00 3.996655e+00 4.328676e+00 4.168296e+00 3.951141e+00 3.909204e+00 3.233183e+00 1.665194e-03
<GCONST> 9.258214e+01
<MIXTURE> 101 6.007792e-03
<MEAN> 25
 8.129884e+00 -3.598550e+00 -6.254987e+00 -6.738528e+00 7.380584e-01 -1.290133e+00 -1.057033e+01 -2.137516e+00 1.567497e+00 2.770388e+00 -2.325499e+00 -5.070410e+00 6.689146e-01 6.383063e-01 -1.440361e+00 -1.618563e+00 1.029149e+00 2.297258e+00 1.632768e-01 -1.433225e+00 -1.051696e+00 1.027940e+00 1.386437e+00 -4.165853e-01 -4.390026e-03
<VARIANCE> 25
 9.258637e+00 1.748683e+01 2.973708e+01 4.359679e+01 3.673132e+01 3.554103e+01 3.667025e+01 3.631679e+01 3.764700e+01 4.370328e+01 5.149108e+01 2.433378e+01 2.931130e-01 6.770044e-01 1.180489e+00 1.539074e+00 1.672690e+00 2.107879e+00 2.153836e+00 2.028983e+00 2.333127e+00 2.204090e+00 1.777642e+00 1.912753e+00 3.560386e-04
<GCONST> 8.374444e+01
<MIXTURE> 102 6.007792e-03
<MEAN> 25
 8.129884e+00 -3.598550e+00 -6.254987e+00 -6.738528e+00 7.380584e-01 -1.290133e+00 -1.057033e+01 -2.137516e+00 1.567497e+00 2.770388e+00 -2.325499e+00 -5.070410e+00 6.689146e-01 6.383063e-01 -1.440361e+00 -1.618563e+00 1.029149e+00 2.297258e+00 1.632768e-01 -1.433225e+00 -1.051696e+00 1.027940e+00 1.386437e+00 -4.165853e-01 -4.390026e-03
<VARIANCE> 25
 9.258637e+00 1.748683e+01 2.973708e+01 4.359679e+01 3.673132e+01 3.554103e+01 3.667025e+01 3.631679e+01 3.764700e+01 4.370328e+01 5.149108e+01 2.433378e+01 2.931130e-01 6.770044e-01 1.180489e+00 1.539074e+00 1.672690e+00 2.107879e+00 2.153836e+00 2.028983e+00 2.333127e+00 2.204090e+00 1.777642e+00 1.912753e+00 3.560386e-04
<GCONST> 8.374444e+01
<MIXTURE> 103 5.694618e-03
<MEAN> 25
 3.425687e+00 -9.460423e+00 -6.042230e+00 -2.892210e+00 -1.504676e+00 -2.254149e+00 2.118126e+00 2.507113e+00 -4.503266e+00 -8.930853e+00 -4.821992e+00 4.441779e-01 -1.643107e-01 -1.490780e+00 -9.207022e-01 3.391947e-01 1.215099e+00 1.006227e+00 1.393050e-01 -2.305562e-01 -7.862851e-01 -8.713380e-01 -7.315862e-02 1.082695e-01 2.709405e-02
<VARIANCE> 25
 1.043814e+01 2.010051e+01 2.244364e+01 3.234492e+01 4.767298e+01 3.631782e+01 4.799559e+01 3.673063e+01 4.110572e+01 3.101628e+01 3.106500e+01 2.572279e+01 6.418411e-01 1.225004e+00 1.616035e+00 1.941725e+00 2.847408e+00 2.330250e+00 2.866577e+00 2.547676e+00 2.490848e+00 2.578564e+00 2.215587e+00 1.968190e+00 7.919772e-04
<GCONST> 8.762138e+01
<MIXTURE> 104 5.694618e-03
<MEAN> 25
 3.425687e+00 -9.460423e+00 -6.042230e+00 -2.892210e+00 -1.504676e+00 -2.254149e+00 2.118126e+00 2.507113e+00 -4.503266e+00 -8.930853e+00 -4.821992e+00 4.441779e-01 -1.643107e-01 -1.490780e+00 -9.207022e-01 3.391947e-01 1.215099e+00 1.006227e+00 1.393050e-01 -2.305562e-01 -7.862851e-01 -8.713380e-01 -7.315862e-02 1.082695e-01 2.709405e-02
<VARIANCE> 25
 1.043814e+01 2.010051e+01 2.244364e+01 3.234492e+01 4.767298e+01 3.631782e+01 4.799559e+01 3.673063e+01 4.110572e+01 3.101628e+01 3.106500e+01 2.572279e+01 6.418411e-01 1.225004e+00 1.616035e+00 1.941725e+00 2.847408e+00 2.330250e+00 2.866577e+00 2.547676e+00 2.490848e+00 2.578564e+00 2.215587e+00 1.968190e+00 7.919772e-04
<GCONST> 8.762138e+01
<MIXTURE> 105 4.710235e-03
<MEAN> 25
 2.244545e+00 -1.253536e+00 9.263645e+00 -2.297960e+00 -1.177742e+01 -5.239821e+00 -4.233503e+00 -1.141774e+00 -3.772601e+00 -3.477419e+00 1.555117e+00 -9.828103e-01 2.322174e-02 9.793310e-03 1.491769e-02 -6.352371e-02 -9.609036e-04 9.268167e-02 -6.257379e-02 4.313745e-02 -2.589392e-02 -1.239265e-02 5.212895e-02 -8.076980e-03 -2.815896e-03
<VARIANCE> 25
 1.286788e+01 2.892891e+01 4.214486e+01 4.511213e+01 3.642774e+01 5.204024e+01 3.908798e+01 4.470686e+01 3.824712e+01 4.234145e+01 4.011409e+01 2.959232e+01 8.486783e-02 1.891683e-01 3.811751e-01 2.995431e-01 3.780588e-01 4.595781e-01 4.944648e-01 4.687698e-01 4.723194e-01 4.443350e-01 4.389106e-01 3.964328e-01 9.601305e-05
<GCONST> 6.682428e+01
<MIXTURE> 106 4.710235e-03
<MEAN> 25
 2.244545e+00 -1.253536e+00 9.263645e+00 -2.297960e+00 -1.177742e+01 -5.239821e+00 -4.233503e+00 -1.141774e+00 -3.772601e+00 -3.477419e+00 1.555117e+00 -9.828103e-01 2.322174e-02 9.793310e-03 1.491769e-02 -6.352371e-02 -9.609036e-04 9.268167e-02 -6.257379e-02 4.313745e-02 -2.589392e-02 -1.239265e-02 5.212895e-02 -8.076980e-03 -2.815896e-03
<VARIANCE> 25
 1.286788e+01 2.892891e+01 4.214486e+01 4.511213e+01 3.642774e+01 5.204024e+01 3.908798e+01 4.470686e+01 3.824712e+01 4.234145e+01 4.011409e+01 2.959232e+01 8.486783e-02 1.891683e-01 3.811751e-01 2.995431e-01 3.780588e-01 4.595781e-01 4.944648e-01 4.687698e-01 4.723194e-01 4.443350e-01 4.389106e-01 3.964328e-01 9.601305e-05
<GCONST> 6.682428e+01
<MIXTURE> 107 5.452374e-03
<MEAN> 25
 8.628667e+00 -2.402564e+00 -7.932487e+00 -9.354234e+00 1.856309e+00 2.853405e+00 -8.575965e+00 -4.557982e+00 -9.514830e-01 3.367215e+00 9.197774e-01 -4.994591e+00 -6.087234e-01 -7.463022e-01 8.252233e-01 1.749630e+00 2.252364e-01 -1.987647e+00 -8.981036e-01 8.529724e-01 1.720945e+00 1.499231e-02 -1.638879e+00 -8.033419e-01 -1.816587e-03
<VARIANCE> 25
 9.167391e+00 2.104945e+01 2.828769e+01 4.386576e+01 3.558122e+01 3.915921e+01 5.226362e+01 3.581674e+01 4.533728e+01 4.101476e+01 5.075069e+01 3.009168e+01 3.529372e-01 9.795201e-01 1.454936e+00 2.401205e+00 2.263196e+00 2.816078e+00 2.614140e+00 2.545243e+00 2.349015e+00 3.018968e+00 1.962857e+00 2.184945e+00 6.920300e-04
<GCONST> 8.804152e+01
<MIXTURE> 108 5.452374e-03
<MEAN> 25
 8.628667e+00 -2.402564e+00 -7.932487e+00 -9.354234e+00 1.856309e+00 2.853405e+00 -8.575965e+00 -4.557982e+00 -9.514830e-01 3.367215e+00 9.197774e-01 -4.994591e+00 -6.087234e-01 -7.463022e-01 8.252233e-01 1.749630e+00 2.252364e-01 -1.987647e+00 -8.981036e-01 8.529724e-01 1.720945e+00 1.499231e-02 -1.638879e+00 -8.033419e-01 -1.816587e-03
<VARIANCE> 25
 9.167391e+00 2.104945e+01 2.828769e+01 4.386576e+01 3.558122e+01 3.915921e+01 5.226362e+01 3.581674e+01 4.533728e+01 4.101476e+01 5.075069e+01 3.009168e+01 3.529372e-01 9.795201e-01 1.454936e+00 2.401205e+00 2.263196e+00 2.816078e+00 2.614140e+00 2.545243e+00 2.349015e+00 3.018968e+00 1.962857e+00 2.184945e+00 6.920300e-04
<GCONST> 8.804152e+01
<MIXTURE> 109 6.661064e-03
<MEAN> 25
 4.119996e+00 -1.055640e+01 -8.122462e+00 -1.321371e+00 2.571601e+00 -2.642373e-01 -2.399351e-01 1.567896e+00 -2.541328e+00 -8.100861e+00 -5.285005e+00 6.338587e-02 -4.056258e-02 -1.205695e-01 -5.065837e-03 2.494308e-01 2.074411e-01 1.140606e-01 -9.036034e-02 -8.294819e-02 -6.262714e-02 -1.320682e-01 1.908324e-01 -7.182448e-03 -3.534049e-03
<VARIANCE> 25
 8.966442e+00 1.807694e+01 2.072904e+01 3.090937e+01 4.107143e+01 3.776349e+01 4.682643e+01 3.465916e+01 4.493185e+01 3.714354e+01 2.958484e+01 2.755258e+01 1.926337e-01 4.321252e-01 5.688277e-01 6.297974e-01 1.221756e+00 9.798313e-01 1.301315e+00 1.091871e+00 1.122980e+00 9.431351e-01 9.054793e-01 8.923100e-01 1.833758e-04
<GCONST> 7.461847e+01
<MIXTURE> 110 6.661064e-03
<MEAN> 25
 4.119996e+00 -1.055640e+01 -8.122462e+00 -1.321371e+00 2.571601e+00 -2.642373e-01 -2.399351e-01 1.567896e+00 -2.541328e+00 -8.100861e+00 -5.285005e+00 6.338587e-02 -4.056258e-02 -1.205695e-01 -5.065837e-03 2.494308e-01 2.074411e-01 1.140606e-01 -9.036034e-02 -8.294819e-02 -6.262714e-02 -1.320682e-01 1.908324e-01 -7.182448e-03 -3.534049e-03
<VARIANCE> 25
 8.966442e+00 1.807694e+01 2.072904e+01 3.090937e+01 4.107143e+01 3.776349e+01 4.682643e+01 3.465916e+01 4.493185e+01 3.714354e+01 2.958484e+01 2.755258e+01 1.926337e-01 4.321252e-01 5.688277e-01 6.297974e-01 1.221756e+00 9.798313e-01 1.301315e+00 1.091871e+00 1.122980e+00 9.431351e-01 9.054793e-01 8.923100e-01 1.833758e-04
<GCONST> 7.461847e+01
<MIXTURE> 111 4.337247e-03
<MEAN> 25
 -3.869950e+00 -3.047866e-01 -1.385414e+00 1.804218e+00 9.084907e-01 1.577902e+00 6.956767e-01 -9.381608e-02 3.830117e-02 -5.670509e-01 -8.656548e-01 1.789091e+00 2.441366e-03 3.487572e-03 -5.107948e-02 -1.362027e-01 1.686055e-03 6.565166e-02 9.967238e-02 -1.249753e-01 -1.885060e-01 -1.746051e-01 -1.734325e-01 -6.379760e-02 -3.815128e-04
<VARIANCE> 25
 7.901367e+00 6.328509e+00 9.874208e+00 8.606937e+00 1.249543e+01 2.236188e+01 1.422593e+01 1.380034e+01 1.293557e+01 1.112710e+01 1.300358e+01 1.111881e+01 9.042346e-02 1.671254e-01 2.736904e-01 4.799691e-01 5.387211e-01 7.285358e-01 1.101229e+00 9.674325e-01 8.598933e-01 9.796175e-01 7.645841e-01 9.850708e-01 2.409546e-05
<GCONST> 5.697472e+01
<MIXTURE> 112 4.337247e-03
<MEAN> 25
 -3.869950e+00 -3.047866e-01 -1.385414e+00 1.804218e+00 9.084907e-01 1.577902e+00 6.956767e-01 -9.381608e-02 3.830117e-02 -5.670509e-01 -8.656548e-01 1.789091e+00 2.441366e-03 3.487572e-03 -5.107948e-02 -1.362027e-01 1.686055e-03 6.565166e-02 9.967238e-02 -1.249753e-01 -1.885060e-01 -1.746051e-01 -1.734325e-01 -6.379760e-02 -3.815128e-04
<VARIANCE> 25
 7.901367e+00 6.328509e+00 9.874208e+00 8.606937e+00 1.249543e+01 2.236188e+01 1.422593e+01 1.380034e+01 1.293557e+01 1.112710e+01 1.300358e+01 1.111881e+01 9.042346e-02 1.671254e-01 2.736904e-01 4.799691e-01 5.387211e-01 7.285358e-01 1.101229e+00 9.674325e-01 8.598933e-01 9.796175e-01 7.645841e-01 9.850708e-01 2.409546e-05
<GCONST> 5.697472e+01
<MIXTURE> 113 5.938666e-03
<MEAN> 25
 9.977612e+00 1.755312e+00 -8.780721e+00 -1.704600e+01 -1.034050e+00 5.659659e+00 -5.279891e+00 -1.466755e+00 -5.695743e+00 -4.935153e-01 2.986089e-01 -1.977529e-01 4.731812e-03 1.375957e-02 -5.944792e-02 -1.133527e-01 1.043728e-01 1.505140e-01 5.916937e-02 3.608138e-02 -5.699058e-02 -5.127554e-02 1.796289e-01 3.518282e-02 -1.411196e-03
<VARIANCE> 25
 8.876060e+00 1.639283e+01 2.967712e+01 3.422434e+01 5.273376e+01 3.386422e+01 3.971969e+01 3.914595e+01 3.737434e+01 4.640025e+01 3.629732e+01 2.843983e+01 1.218368e-01 3.206220e-01 3.162791e-01 6.314787e-01 6.128379e-01 6.536890e-01 7.766436e-01 8.452157e-01 9.593658e-01 9.053012e-01 7.244906e-01 7.136818e-01 1.247856e-04
<GCONST> 7.110643e+01
<MIXTURE> 114 5.938666e-03
<MEAN> 25
 9.977612e+00 1.755312e+00 -8.780721e+00 -1.704600e+01 -1.034050e+00 5.659659e+00 -5.279891e+00 -1.466755e+00 -5.695743e+00 -4.935153e-01 2.986089e-01 -1.977529e-01 4.731812e-03 1.375957e-02 -5.944792e-02 -1.133527e-01 1.043728e-01 1.505140e-01 5.916937e-02 3.608138e-02 -5.699058e-02 -5.127554e-02 1.796289e-01 3.518282e-02 -1.411196e-03
<VARIANCE> 25
 8.876060e+00 1.639283e+01 2.967712e+01 3.422434e+01 5.273376e+01 3.386422e+01 3.971969e+01 3.914595e+01 3.737434e+01 4.640025e+01 3.629732e+01 2.843983e+01 1.218368e-01 3.206220e-01 3.162791e-01 6.314787e-01 6.128379e-01 6.536890e-01 7.766436e-01 8.452157e-01 9.593658e-01 9.053012e-01 7.244906e-01 7.136818e-01 1.247856e-04
<GCONST> 7.110643e+01
<MIXTURE> 115 2.935202e-03
<MEAN> 25
 -3.862023e+00 -5.851813e-01 -3.088679e+00 3.625610e+00 2.578383e+00 -2.421499e-01 2.314687e+00 2.464837e-01 1.396947e+00 -2.407669e-02 -4.127805e-02 2.521721e+00 2.857716e-03 -6.926937e-02 -2.233049e-01 -4.258653e-01 -6.343921e-01 -6.518635e-01 -5.928473e-01 -4.573586e-01 -5.044860e-01 -4.818704e-01 -3.056872e-01 -1.400053e-01 -5.341752e-05
<VARIANCE> 25
 9.202182e+00 1.010808e+01 1.286132e+01 1.229025e+01 1.338974e+01 1.713882e+01 1.655639e+01 2.084316e+01 1.737095e+01 1.635569e+01 1.864197e+01 1.424318e+01 2.205588e-01 3.285674e-01 4.589659e-01 5.386036e-01 6.146292e-01 7.633775e-01 1.040898e+00 1.142238e+00 1.091073e+00 9.810594e-01 1.008361e+00 1.032382e+00 1.006679e-06
<GCONST> 5.974700e+01
<MIXTURE> 116 2.935202e-03
<MEAN> 25
 -3.862023e+00 -5.851813e-01 -3.088679e+00 3.625610e+00 2.578383e+00 -2.421499e-01 2.314687e+00 2.464837e-01 1.396947e+00 -2.407669e-02 -4.127805e-02 2.521721e+00 2.857716e-03 -6.926937e-02 -2.233049e-01 -4.258653e-01 -6.343921e-01 -6.518635e-01 -5.928473e-01 -4.573586e-01 -5.044860e-01 -4.818704e-01 -3.056872e-01 -1.400053e-01 -5.341752e-05
<VARIANCE> 25
 9.202182e+00 1.010808e+01 1.286132e+01 1.229025e+01 1.338974e+01 1.713882e+01 1.655639e+01 2.084316e+01 1.737095e+01 1.635569e+01 1.864197e+01 1.424318e+01 2.205588e-01 3.285674e-01 4.589659e-01 5.386036e-01 6.146292e-01 7.633775e-01 1.040898e+00 1.142238e+00 1.091073e+00 9.810594e-01 1.008361e+00 1.032382e+00 1.006679e-06
<GCONST> 5.974700e+01
<MIXTURE> 117 6.506003e-03
<MEAN> 25
 -4.588896e+00 1.147282e+00 1.042186e+00 9.712031e+00 6.291636e+00 6.256954e+00 6.443758e+00 5.002717e+00 6.360856e+00 4.921714e+00 6.270733e+00 2.662227e+00 -8.072690e-02 -2.359736e-01 -3.562420e-01 -4.175535e-01 -3.699427e-01 -3.008527e-01 -2.855356e-01 -3.198330e-01 -3.799115e-01 -3.655274e-01 -2.656268e-01 -1.155203e-01 -2.446602e-05
<VARIANCE> 25
 7.300126e+00 8.717748e+00 9.703835e+00 1.436175e+01 1.553961e+01 1.514437e+01 1.753599e+01 1.793209e+01 1.624251e+01 1.635656e+01 1.724232e+01 1.471750e+01 2.165037e-01 3.045965e-01 4.207880e-01 6.112560e-01 8.503541e-01 1.045505e+00 1.178014e+00 1.230252e+00 1.233775e+00 1.203940e+00 1.154156e+00 1.100462e+00 1.035476e-06
<GCONST> 6.039863e+01
<MIXTURE> 118 6.506003e-03
<MEAN> 25
 -4.588896e+00 1.147282e+00 1.042186e+00 9.712031e+00 6.291636e+00 6.256954e+00 6.443758e+00 5.002717e+00 6.360856e+00 4.921714e+00 6.270733e+00 2.662227e+00 -8.072690e-02 -2.359736e-01 -3.562420e-01 -4.175535e-01 -3.699427e-01 -3.008527e-01 -2.855356e-01 -3.198330e-01 -3.799115e-01 -3.655274e-01 -2.656268e-01 -1.155203e-01 -2.446602e-05
<VARIANCE> 25
 7.300126e+00 8.717748e+00 9.703835e+00 1.436175e+01 1.553961e+01 1.514437e+01 1.753599e+01 1.793209e+01 1.624251e+01 1.635656e+01 1.724232e+01 1.471750e+01 2.165037e-01 3.045965e-01 4.207880e-01 6.112560e-01 8.503541e-01 1.045505e+00 1.178014e+00 1.230252e+00 1.233775e+00 1.203940e+00 1.154156e+00 1.100462e+00 1.035476e-06
<GCONST> 6.039863e+01
<MIXTURE> 119 4.297961e-03
<MEAN> 25
 -4.973588e+00 -7.629649e+00 2.231201e+00 2.017335e+00 2.239702e+00 2.097245e-01 5.273807e+00 5.937551e+00 1.168759e+00 9.674442e-01 6.609500e+00 1.570394e+00 -4.997901e-02 -7.928485e-02 3.731603e-02 -5.716306e-02 -1.259411e-01 -1.799541e-01 -6.999030e-02 -1.364241e-02 -9.144627e-02 -1.118037e-01 -5.530257e-02 -5.827983e-02 1.108469e-03
<VARIANCE> 25
 8.504424e+00 9.852905e+00 1.656288e+01 2.017482e+01 2.285448e+01 2.320363e+01 2.498969e+01 2.648725e+01 2.503961e+01 2.806653e+01 2.042704e+01 2.040430e+01 1.604301e-01 2.824875e-01 4.597400e-01 6.326138e-01 8.035085e-01 1.003567e+00 1.102011e+00 1.277619e+00 1.286023e+00 1.246153e+00 1.191937e+00 1.112242e+00 2.315531e-04
<GCONST> 6.972391e+01
<MIXTURE> 120 4.297961e-03
<MEAN> 25
 -4.973588e+00 -7.629649e+00 2.231201e+00 2.017335e+00 2.239702e+00 2.097245e-01 5.273807e+00 5.937551e+00 1.168759e+00 9.674442e-01 6.609500e+00 1.570394e+00 -4.997901e-02 -7.928485e-02 3.731603e-02 -5.716306e-02 -1.259411e-01 -1.799541e-01 -6.999030e-02 -1.364241e-02 -9.144627e-02 -1.118037e-01 -5.530257e-02 -5.827983e-02 1.108469e-03
<VARIANCE> 25
 8.504424e+00 9.852905e+00 1.656288e+01 2.017482e+01 2.285448e+01 2.320363e+01 2.498969e+01 2.648725e+01 2.503961e+01 2.806653e+01 2.042704e+01 2.040430e+01 1.604301e-01 2.824875e-01 4.597400e-01 6.326138e-01 8.035085e-01 1.003567e+00 1.102011e+00 1.277619e+00 1.286023e+00 1.246153e+00 1.191937e+00 1.112242e+00 2.315531e-04
<GCONST> 6.972391e+01
<MIXTURE> 121 4.567511e-03
<MEAN> 25
 2.080639e-01 -2.518757e+00 5.148935e+00 -1.289330e+01 -1.263655e+01 -1.660083e+00 1.000576e+00 -5.107122e+00 -4.197568e+00 -4.875054e-01 -5.505960e+00 -4.311711e+00 2.382229e-02 1.320067e-01 -4.166304e-02 7.959987e-02 1.586944e-01 7.795355e-02 -7.989353e-02 -1.828045e-01 -2.680511e-01 -2.570184e-01 -1.148437e-01 -4.352770e-05 -7.441524e-03
<VARIANCE> 25
 7.727704e+00 1.563014e+01 1.728725e+01 2.046338e+01 2.452244e+01 2.926440e+01 2.952469e+01 2.456229e+01 3.527566e+01 2.833109e+01 1.973849e+01 2.117191e+01 1.550077e-01 6.428576e-01 6.229802e-01 7.045665e-01 7.700949e-01 1.149891e+00 1.117969e+00 1.121457e+00 1.217602e+00 1.193194e+00 9.411069e-01 8.734642e-01 2.108196e-04
<GCONST> 7.140240e+01
<MIXTURE> 122 4.567511e-03
<MEAN> 25
 2.080639e-01 -2.518757e+00 5.148935e+00 -1.289330e+01 -1.263655e+01 -1.660083e+00 1.000576e+00 -5.107122e+00 -4.197568e+00 -4.875054e-01 -5.505960e+00 -4.311711e+00 2.382229e-02 1.320067e-01 -4.166304e-02 7.959987e-02 1.586944e-01 7.795355e-02 -7.989353e-02 -1.828045e-01 -2.680511e-01 -2.570184e-01 -1.148437e-01 -4.352770e-05 -7.441524e-03
<VARIANCE> 25
 7.727704e+00 1.563014e+01 1.728725e+01 2.046338e+01 2.452244e+01 2.926440e+01 2.952469e+01 2.456229e+01 3.527566e+01 2.833109e+01 1.973849e+01 2.117191e+01 1.550077e-01 6.428576e-01 6.229802e-01 7.045665e-01 7.700949e-01 1.149891e+00 1.117969e+00 1.121457e+00 1.217602e+00 1.193194e+00 9.411069e-01 8.734642e-01 2.108196e-04
<GCONST> 7.140240e+01
<MIXTURE> 123 4.393044e-03
<MEAN> 25
 -3.055729e+00 2.006890e+00 -1.985545e-02 4.675209e+00 4.811875e+00 4.105968e+00 4.093066e+00 6.077278e-01 9.014642e-01 -1.692418e-01 -6.021966e-01 5.058088e-01 -4.119724e-01 -6.453090e-01 -8.158240e-01 -6.990364e-01 -1.971939e-01 7.708117e-03 3.238201e-01 5.968112e-01 7.858780e-01 9.350059e-01 5.535336e-01 1.405772e-01 -5.454134e-03
<VARIANCE> 25
 1.076948e+01 8.924616e+00 1.105778e+01 1.609615e+01 1.811699e+01 2.106081e+01 1.877689e+01 1.623101e+01 1.590436e+01 1.622910e+01 1.691404e+01 1.652337e+01 2.942578e-01 3.383982e-01 5.492200e-01 7.293134e-01 8.325301e-01 1.028416e+00 1.424862e+00 1.203454e+00 1.379180e+00 1.380273e+00 1.032901e+00 1.246553e+00 9.671584e-05
<GCONST> 6.735936e+01
<MIXTURE> 124 4.069876e-03
<MEAN> 25
 -6.241131e+00 -8.848519e-01 -2.774466e+00 4.972262e+00 5.088115e+00 3.552351e+00 5.386117e+00 2.493530e+00 3.136899e+00 1.101967e+00 9.065049e-01 2.868588e+00 -1.993548e-01 -3.330224e-01 -3.534097e-01 -2.250068e-01 1.440844e-01 5.168306e-01 7.924718e-01 8.394079e-01 6.582611e-01 3.814735e-01 7.114708e-02 -4.472668e-02 -2.184905e-04
<VARIANCE> 25
 1.190873e+01 8.173923e+00 1.088920e+01 1.215446e+01 1.218380e+01 1.912114e+01 1.522850e+01 1.654259e+01 1.491645e+01 1.608909e+01 1.887572e+01 1.429509e+01 1.030863e-01 1.702056e-01 2.604883e-01 4.364575e-01 6.020573e-01 6.992795e-01 8.447695e-01 8.083862e-01 9.377089e-01 1.072287e+00 9.650599e-01 9.634497e-01 1.824329e-05
<GCONST> 5.902627e+01
<MIXTURE> 125 4.069876e-03
<MEAN> 25
 -6.241131e+00 -8.848519e-01 -2.774466e+00 4.972262e+00 5.088115e+00 3.552351e+00 5.386117e+00 2.493530e+00 3.136899e+00 1.101967e+00 9.065049e-01 2.868588e+00 -1.993548e-01 -3.330224e-01 -3.534097e-01 -2.250068e-01 1.440844e-01 5.168306e-01 7.924718e-01 8.394079e-01 6.582611e-01 3.814735e-01 7.114708e-02 -4.472668e-02 -2.184905e-04
<VARIANCE> 25
 1.190873e+01 8.173923e+00 1.088920e+01 1.215446e+01 1.218380e+01 1.912114e+01 1.522850e+01 1.654259e+01 1.491645e+01 1.608909e+01 1.887572e+01 1.429509e+01 1.030863e-01 1.702056e-01 2.604883e-01 4.364575e-01 6.020573e-01 6.992795e-01 8.447695e-01 8.083862e-01 9.377089e-01 1.072287e+00 9.650599e-01 9.634497e-01 1.824329e-05
<GCONST> 5.902627e+01
<MIXTURE> 126 2.402244e-03
<MEAN> 25
 -3.782719e+00 -6.922259e+00 -5.274160e+00 2.318723e+00 4.273245e+00 -3.231945e+00 7.276363e-02 3.551044e+00 3.340041e+00 -2.691530e+00 -1.428479e+00 3.050937e+00 -2.597387e-03 -6.625416e-03 -3.588270e-02 -1.578413e-01 -3.174326e-01 -3.885306e-01 -2.742086e-01 -1.567232e-01 -1.130747e-01 -1.159979e-01 -9.787975e-02 -3.131169e-02 -1.491063e-03
<VARIANCE> 25
 7.450432e+00 1.276546e+01 1.386196e+01 1.510745e+01 2.464534e+01 2.372764e+01 2.272779e+01 2.839211e+01 3.124479e+01 2.623144e+01 2.174724e+01 1.918828e+01 1.707268e-01 3.522208e-01 4.831696e-01 5.667730e-01 7.545724e-01 9.957179e-01 1.124331e+00 1.262274e+00 1.328923e+00 1.310890e+00 1.212101e+00 1.147750e+00 2.108943e-04
<GCONST> 6.980873e+01
<MIXTURE> 127 2.402244e-03
<MEAN> 25
 -3.782719e+00 -6.922259e+00 -5.274160e+00 2.318723e+00 4.273245e+00 -3.231945e+00 7.276363e-02 3.551044e+00 3.340041e+00 -2.691530e+00 -1.428479e+00 3.050937e+00 -2.597387e-03 -6.625416e-03 -3.588270e-02 -1.578413e-01 -3.174326e-01 -3.885306e-01 -2.742086e-01 -1.567232e-01 -1.130747e-01 -1.159979e-01 -9.787975e-02 -3.131169e-02 -1.491063e-03
<VARIANCE> 25
 7.450432e+00 1.276546e+01 1.386196e+01 1.510745e+01 2.464534e+01 2.372764e+01 2.272779e+01 2.839211e+01 3.124479e+01 2.623144e+01 2.174724e+01 1.918828e+01 1.707268e-01 3.522208e-01 4.831696e-01 5.667730e-01 7.545724e-01 9.957179e-01 1.124331e+00 1.262274e+00 1.328923e+00 1.310890e+00 1.212101e+00 1.147750e+00 2.108943e-04
<GCONST> 6.980873e+01
<MIXTURE> 128 3.790457e-03
<MEAN> 25
 -3.918148e+00 1.552731e+00 -3.430990e-01 6.558318e+00 3.622571e+00 1.869217e+00 3.572298e+00 2.367552e+00 3.964321e+00 3.688709e+00 3.753694e+00 3.519334e+00 -3.940831e-01 -1.945622e-01 9.629326e-02 7.239828e-01 1.183419e+00 1.133370e+00 7.184091e-01 1.329984e-01 -4.379629e-01 -7.866094e-01 -6.995034e-01 -3.926390e-01 -4.344738e-05
<VARIANCE> 25
 1.023494e+01 1.170179e+01 1.494602e+01 1.933374e+01 2.001128e+01 2.115018e+01 2.430982e+01 2.465135e+01 2.638247e+01 2.384507e+01 2.681608e+01 1.818680e+01 8.910400e-01 1.146724e+00 1.363769e+00 1.501707e+00 1.578342e+00 1.860436e+00 2.243777e+00 2.322484e+00 2.148597e+00 1.853682e+00 1.742138e+00 1.746462e+00 1.020475e-06
<GCONST> 7.364223e+01
<TRANSP> 3
 0.000000e+00 1.000000e+00 0.000000e+00
 0.000000e+00 9.999990e-01 9.999998e-07
 0.000000e+00 0.000000e+00 0.000000e+00
<ENDHMM>
