~o
<STREAMINFO> 1 25
<VECSIZE> 25<NULLD><MFCC_E_D_N><DIAGC>
~h "jmodel"
<BEGINHMM>
<NUMSTATES> 3
<STATE> 2
<NUMMIXES> 128
<MIXTURE> 1 5.748963e-03
<MEAN> 25
 -2.579165e+00 3.197036e+00 2.272573e+00 8.668173e+00 4.395348e+00 3.393310e+00 4.101328e+00 3.969408e+00 5.871700e+00 5.201741e+00 5.801046e+00 3.055830e+00 -1.993677e+00 -1.612138e+00 -8.547189e-01 1.079277e+00 1.548722e+00 2.217718e+00 2.134628e+00 2.079383e+00 1.666144e+00 1.255216e+00 1.568079e+00 6.079630e-01 -4.623931e-02
<VARIANCE> 25
 9.995748e+00 1.163566e+01 1.493010e+01 1.903248e+01 2.300546e+01 2.211495e+01 2.190976e+01 2.180664e+01 2.095512e+01 2.256006e+01 2.122631e+01 1.692359e+01 1.783125e+00 2.135622e+00 2.996974e+00 3.184787e+00 3.737280e+00 3.371712e+00 3.331188e+00 3.342425e+00 3.543833e+00 3.744310e+00 3.479383e+00 2.811541e+00 3.136611e-03
<GCONST> 8.843467e+01
<MIXTURE> 2 4.549242e-03
<MEAN> 25
 -4.874411e+00 1.313547e+00 9.933850e-01 9.895180e+00 6.693368e+00 7.422999e+00 7.844455e+00 6.957919e+00 8.373201e+00 6.369558e+00 7.621158e+00 3.074841e+00 -6.213474e-02 4.158373e-02 1.425245e-01 2.256930e-01 2.654099e-01 2.813216e-01 2.951936e-01 3.197261e-01 3.495282e-01 3.088610e-01 1.975956e-01 8.040411e-02 1.773042e-06
<VARIANCE> 25
 6.952359e+00 8.904854e+00 1.064827e+01 1.594851e+01 1.723074e+01 1.556223e+01 1.690631e+01 1.847748e+01 1.658015e+01 1.740346e+01 1.812402e+01 1.433445e+01 1.252399e-01 2.265432e-01 3.363535e-01 4.669821e-01 6.490719e-01 8.145549e-01 9.295906e-01 1.002834e+00 1.051368e+00 1.077316e+00 1.075742e+00 1.013899e+00 1.000778e-06
<GCONST> 5.804366e+01
<MIXTURE> 3 4.549242e-03
<MEAN> 25
 -4.874411e+00 1.313547e+00 9.933850e-01 9.895180e+00 6.693368e+00 7.422999e+00 7.844455e+00 6.957919e+00 8.373201e+00 6.369558e+00 7.621158e+00 3.074841e+00 -6.213474e-02 4.158373e-02 1.425245e-01 2.256930e-01 2.654099e-01 2.813216e-01 2.951936e-01 3.197261e-01 3.495282e-01 3.088610e-01 1.975956e-01 8.040411e-02 1.773042e-06
<VARIANCE> 25
 6.952359e+00 8.904854e+00 1.064827e+01 1.594851e+01 1.723074e+01 1.556223e+01 1.690631e+01 1.847748e+01 1.658015e+01 1.740346e+01 1.812402e+01 1.433445e+01 1.252399e-01 2.265432e-01 3.363535e-01 4.669821e-01 6.490719e-01 8.145549e-01 9.295906e-01 1.002834e+00 1.051368e+00 1.077316e+00 1.075742e+00 1.013899e+00 1.000778e-06
<GCONST> 5.804366e+01
<MIXTURE> 4 1.671429e-02
<MEAN> 25
 3.532133e+00 1.897945e+00 -4.365184e+00 7.791133e-01 4.649428e+00 -4.668609e-01 -6.945934e-01 2.674586e-01 1.563218e+00 1.929373e+00 -1.556817e+00 2.439202e-03 -2.689074e+00 1.173662e+00 1.596239e+00 2.811473e+00 9.715615e-01 4.219513e-01 1.632398e+00 1.189331e+00 1.274832e+00 3.401798e-01 1.150623e+00 1.084204e+00 -1.042429e-01
<VARIANCE> 25
 1.967550e+01 2.993468e+01 2.866928e+01 3.626587e+01 4.256415e+01 6.239598e+01 6.634284e+01 5.013662e+01 5.429022e+01 5.839735e+01 4.554631e+01 3.384824e+01 2.151976e+00 4.597692e+00 3.627795e+00 4.972966e+00 4.695011e+00 5.531501e+00 5.560329e+00 5.227028e+00 6.172656e+00 5.810594e+00 5.655898e+00 4.357102e+00 5.483879e-03
<GCONST> 1.040578e+02
<MIXTURE> 5 3.206198e-03
<MEAN> 25
 -3.408295e+00 2.183061e+00 5.981708e-01 9.404047e+00 6.691109e+00 6.297544e+00 7.100441e+00 4.728937e+00 5.503466e+00 3.838204e+00 4.639479e+00 2.594120e+00 -3.268265e-01 7.535563e-01 1.221631e+00 1.032725e+00 3.054530e-01 -1.001659e-01 -7.847255e-02 3.710087e-02 4.583552e-01 6.806954e-01 4.074046e-01 8.789211e-02 -3.077996e-05
<VARIANCE> 25
 1.026420e+01 1.391307e+01 2.349917e+01 2.583158e+01 2.019380e+01 1.953286e+01 2.013193e+01 2.032677e+01 2.139591e+01 2.127827e+01 2.420332e+01 1.640005e+01 1.209724e+00 1.241920e+00 1.359007e+00 1.669776e+00 2.281957e+00 2.370952e+00 2.310858e+00 2.276451e+00 2.310692e+00 2.237483e+00 2.086470e+00 1.869709e+00 1.003918e-06
<GCONST> 7.518098e+01
<MIXTURE> 6 5.475854e-03
<MEAN> 25
 9.891714e+00 -1.517573e+00 -7.340465e+00 -9.791556e+00 -2.450059e+00 6.845846e+00 -5.142771e+00 -5.871751e+00 -4.413123e+00 2.047256e+00 5.151050e+00 -1.487932e+00 4.937346e-01 1.019800e+00 -3.677581e-01 -1.474135e+00 -5.068998e-01 1.285585e+00 1.639436e+00 5.983758e-02 -1.189667e+00 -1.156439e+00 1.479082e-01 1.111944e+00 -8.526297e-03
<VARIANCE> 25
 7.657409e+00 1.989668e+01 2.188170e+01 4.006316e+01 3.344032e+01 2.922977e+01 4.235205e+01 3.352308e+01 3.682647e+01 3.502244e+01 3.851661e+01 2.503976e+01 2.761896e-01 8.302000e-01 8.149216e-01 1.730283e+00 1.548935e+00 1.841351e+00 2.122339e+00 1.998617e+00 2.292136e+00 1.699478e+00 2.202317e+00 1.393586e+00 5.025491e-04
<GCONST> 8.217551e+01
<MIXTURE> 7 5.475854e-03
<MEAN> 25
 9.891714e+00 -1.517573e+00 -7.340465e+00 -9.791556e+00 -2.450059e+00 6.845846e+00 -5.142771e+00 -5.871751e+00 -4.413123e+00 2.047256e+00 5.151050e+00 -1.487932e+00 4.937346e-01 1.019800e+00 -3.677581e-01 -1.474135e+00 -5.068998e-01 1.285585e+00 1.639436e+00 5.983758e-02 -1.189667e+00 -1.156439e+00 1.479082e-01 1.111944e+00 -8.526297e-03
<VARIANCE> 25
 7.657409e+00 1.989668e+01 2.188170e+01 4.006316e+01 3.344032e+01 2.922977e+01 4.235205e+01 3.352308e+01 3.682647e+01 3.502244e+01 3.851661e+01 2.503976e+01 2.761896e-01 8.302000e-01 8.149216e-01 1.730283e+00 1.548935e+00 1.841351e+00 2.122339e+00 1.998617e+00 2.292136e+00 1.699478e+00 2.202317e+00 1.393586e+00 5.025491e-04
<GCONST> 8.217551e+01
<MIXTURE> 8 1.165917e-02
<MEAN> 25
 -4.537130e+00 1.491650e+00 1.237319e+00 9.221018e+00 6.609149e+00 6.134142e+00 6.090115e+00 5.619946e+00 6.796740e+00 5.441683e+00 6.277817e+00 3.127361e+00 -6.754372e-01 -1.334581e+00 -1.004003e+00 -1.740898e+00 -9.496424e-02 -9.766772e-01 -1.601304e-01 -3.857490e-01 -3.230700e-01 -1.814017e-01 -1.802439e-01 6.994440e-02 9.665093e-02
<VARIANCE> 25
 9.825665e+00 9.635203e+00 1.132521e+01 1.724102e+01 1.735324e+01 1.529006e+01 2.037414e+01 1.703273e+01 1.764793e+01 1.776474e+01 1.940111e+01 1.343053e+01 2.658972e+00 2.828572e+00 3.780158e+00 3.613965e+00 3.632101e+00 3.185117e+00 3.014631e+00 3.313020e+00 2.863741e+00 2.559593e+00 2.344043e+00 1.841047e+00 6.426249e-03
<GCONST> 8.630149e+01
<MIXTURE> 9 1.199672e-02
<MEAN> 25
 9.299948e+00 3.389586e+00 -6.215919e+00 -1.066452e+01 -2.218580e+00 4.966435e+00 -2.200266e+00 -2.307092e+00 -5.391032e+00 -1.257547e+00 5.703340e-01 -1.481326e-02 1.437999e+00 -1.285845e-01 -4.904253e-01 -2.701697e+00 -1.643474e+00 8.547295e-01 -9.713940e-01 -2.332344e-01 -1.815424e-01 -5.760511e-01 6.154109e-01 -1.526830e-01 7.329442e-02
<VARIANCE> 25
 1.223141e+01 2.140308e+01 3.354848e+01 5.352853e+01 5.016417e+01 3.229310e+01 4.325828e+01 5.213548e+01 4.210472e+01 4.156404e+01 3.607739e+01 2.691016e+01 2.093129e+00 2.448184e+00 4.575065e+00 4.876894e+00 5.017172e+00 4.091099e+00 4.235155e+00 6.039950e+00 5.034363e+00 4.076132e+00 4.017493e+00 2.801937e+00 2.212485e-03
<GCONST> 9.879583e+01
<MIXTURE> 10 6.596976e-03
<MEAN> 25
 8.214319e-01 7.629035e+00 5.374119e+00 7.142689e+00 1.582188e+00 -2.115349e+00 -5.118253e-01 -1.684739e+00 8.715851e-01 8.575303e-01 8.337908e-01 6.592118e-01 -1.925627e+00 -6.709714e-01 -4.584096e-01 3.021792e+00 2.464101e+00 2.708261e+00 2.370726e+00 2.277526e+00 1.863569e+00 1.543183e+00 2.332732e+00 5.238234e-01 -1.380388e-01
<VARIANCE> 25
 1.953649e+01 2.068134e+01 2.231625e+01 2.905228e+01 3.831035e+01 3.492400e+01 3.517190e+01 3.381233e+01 2.758879e+01 2.903084e+01 2.695919e+01 2.498587e+01 2.233635e+00 3.428422e+00 5.528342e+00 5.194311e+00 5.547430e+00 4.469265e+00 4.705534e+00 4.843675e+00 4.386086e+00 5.017046e+00 4.443554e+00 3.189961e+00 2.700746e-03
<GCONST> 9.745988e+01
<MIXTURE> 11 1.633820e-02
<MEAN> 25
 7.549550e+00 4.279999e+00 3.372629e+00 4.376047e+00 -3.846035e+00 -5.575651e-01 3.628042e-01 -6.942816e+00 -4.212693e+00 -1.432636e-01 -3.747258e+00 -2.484080e+00 -1.619335e-01 5.125538e-01 9.254274e-02 4.195207e-01 6.745042e-01 -3.467728e-01 3.984351e-01 -2.503095e-02 9.491319e-02 -2.153256e-01 -1.643842e-01 3.854191e-01 -2.433342e-02
<VARIANCE> 25
 8.391521e+00 1.852174e+01 1.598446e+01 2.598136e+01 3.037527e+01 3.575897e+01 5.633585e+01 3.452053e+01 3.410332e+01 2.792736e+01 2.949457e+01 2.345615e+01 1.014859e+00 9.708852e-01 1.390219e+00 1.809009e+00 1.788990e+00 1.957746e+00 1.984852e+00 2.776152e+00 1.880557e+00 1.711878e+00 1.445569e+00 1.507717e+00 9.564310e-04
<GCONST> 8.384720e+01
<MIXTURE> 12 5.904134e-03
<MEAN> 25
 1.080920e+01 3.187320e+00 -4.889174e+00 -1.506167e+01 -8.717477e+00 8.602423e+00 -4.201275e-01 -2.242634e+00 -2.048957e+00 -4.748257e+00 1.713887e+00 3.937864e-01 6.094605e-02 3.784678e-01 5.743334e-02 -3.449965e-01 -3.432202e-01 -3.558466e-02 3.740705e-01 4.440177e-01 1.690675e-01 -4.142568e-01 -4.630797e-01 2.535308e-02 -7.375017e-03
<VARIANCE> 25
 8.307276e+00 2.352267e+01 2.366762e+01 4.370969e+01 3.952846e+01 2.889530e+01 4.228968e+01 4.700640e+01 4.238424e+01 3.537063e+01 3.579388e+01 2.833209e+01 2.321715e-01 7.491567e-01 6.501821e-01 1.099805e+00 1.133667e+00 1.062783e+00 1.169631e+00 1.295439e+00 1.176272e+00 1.162346e+00 1.265643e+00 9.099129e-01 5.618464e-04
<GCONST> 7.852075e+01
<MIXTURE> 13 5.904134e-03
<MEAN> 25
 1.080920e+01 3.187320e+00 -4.889174e+00 -1.506167e+01 -8.717477e+00 8.602423e+00 -4.201275e-01 -2.242634e+00 -2.048957e+00 -4.748257e+00 1.713887e+00 3.937864e-01 6.094605e-02 3.784678e-01 5.743334e-02 -3.449965e-01 -3.432202e-01 -3.558466e-02 3.740705e-01 4.440177e-01 1.690675e-01 -4.142568e-01 -4.630797e-01 2.535308e-02 -7.375017e-03
<VARIANCE> 25
 8.307276e+00 2.352267e+01 2.366762e+01 4.370969e+01 3.952846e+01 2.889530e+01 4.228968e+01 4.700640e+01 4.238424e+01 3.537063e+01 3.579388e+01 2.833209e+01 2.321715e-01 7.491567e-01 6.501821e-01 1.099805e+00 1.133667e+00 1.062783e+00 1.169631e+00 1.295439e+00 1.176272e+00 1.162346e+00 1.265643e+00 9.099129e-01 5.618464e-04
<GCONST> 7.852075e+01
<MIXTURE> 14 6.488954e-03
<MEAN> 25
 -4.220132e+00 -1.560571e-01 -3.489080e-01 8.618670e+00 7.483214e+00 7.053214e+00 7.695397e+00 7.315093e+00 7.343695e+00 5.076204e+00 6.495958e+00 4.043728e+00 -2.938456e-01 1.956156e-01 3.545061e-01 3.140589e-01 5.888280e-02 7.201978e-02 9.512302e-02 1.985099e-01 2.707820e-01 5.453725e-01 5.179991e-01 7.508140e-02 -8.317279e-03
<VARIANCE> 25
 9.184131e+00 1.417513e+01 1.802832e+01 1.881880e+01 2.026393e+01 2.077894e+01 2.124707e+01 1.969687e+01 1.946961e+01 2.377262e+01 2.304777e+01 1.584515e+01 9.574516e-01 1.606117e+00 1.710156e+00 1.899526e+00 2.305665e+00 2.246486e+00 2.307351e+00 2.219833e+00 2.229478e+00 2.533358e+00 2.148166e+00 1.775757e+00 1.059475e-03
<GCONST> 8.186693e+01
<MIXTURE> 15 2.475190e-03
<MEAN> 25
 -5.416481e+00 -6.273361e-01 -2.047693e-01 7.354139e+00 5.731987e+00 5.696070e+00 6.053665e+00 4.980833e+00 5.169890e+00 4.130796e+00 5.478441e+00 2.555443e+00 -1.207401e-01 -2.885051e-02 7.613014e-02 2.430527e-01 4.893004e-01 7.847555e-01 1.066622e+00 1.180356e+00 1.058469e+00 7.566857e-01 4.199114e-01 1.507652e-01 -8.048766e-05
<VARIANCE> 25
 6.999994e+00 5.671427e+00 9.007828e+00 1.283668e+01 1.409624e+01 1.428552e+01 1.490404e+01 1.486339e+01 1.407840e+01 1.431121e+01 1.521295e+01 1.254624e+01 1.251568e-01 2.057754e-01 3.198177e-01 5.020716e-01 6.974732e-01 7.942836e-01 7.718294e-01 7.902416e-01 9.119238e-01 1.020922e+00 1.068797e+00 1.041927e+00 2.796504e-05
<GCONST> 5.861996e+01
<MIXTURE> 16 2.475190e-03
<MEAN> 25
 -5.416481e+00 -6.273361e-01 -2.047693e-01 7.354139e+00 5.731987e+00 5.696070e+00 6.053665e+00 4.980833e+00 5.169890e+00 4.130796e+00 5.478441e+00 2.555443e+00 -1.207401e-01 -2.885051e-02 7.613014e-02 2.430527e-01 4.893004e-01 7.847555e-01 1.066622e+00 1.180356e+00 1.058469e+00 7.566857e-01 4.199114e-01 1.507652e-01 -8.048766e-05
<VARIANCE> 25
 6.999994e+00 5.671427e+00 9.007828e+00 1.283668e+01 1.409624e+01 1.428552e+01 1.490404e+01 1.486339e+01 1.407840e+01 1.431121e+01 1.521295e+01 1.254624e+01 1.251568e-01 2.057754e-01 3.198177e-01 5.020716e-01 6.974732e-01 7.942836e-01 7.718294e-01 7.902416e-01 9.119238e-01 1.020922e+00 1.068797e+00 1.041927e+00 2.796504e-05
<GCONST> 5.861996e+01
<MIXTURE> 17 9.518312e-03
<MEAN> 25
 3.666540e+00 -6.553832e-01 6.034031e+00 2.303521e+00 -5.799922e+00 -6.373445e+00 -3.208485e+00 -2.230437e-02 -2.389492e+00 -3.025933e+00 1.571643e-01 3.263916e-03 -7.750446e-01 -1.236781e+00 1.372184e+00 -2.083069e+00 -2.366693e+00 -1.462182e-01 2.240601e-01 6.480638e-01 -3.348940e-01 -1.983220e-01 9.261526e-01 4.117336e-01 8.212459e-02
<VARIANCE> 25
 1.622028e+01 3.104399e+01 3.316227e+01 3.863921e+01 4.547780e+01 4.726302e+01 4.085748e+01 3.340747e+01 3.729518e+01 2.752663e+01 2.725868e+01 2.698080e+01 1.835332e+00 2.643887e+00 4.041110e+00 3.033539e+00 3.975427e+00 5.294780e+00 4.867257e+00 5.097349e+00 4.062014e+00 3.909910e+00 3.269602e+00 2.657064e+00 2.075619e-03
<GCONST> 9.684405e+01
<MIXTURE> 18 1.221018e-02
<MEAN> 25
 3.528095e+00 3.865687e+00 7.030889e+00 5.128681e+00 -5.517326e+00 -8.556510e+00 -2.442602e+00 -1.134239e+00 -3.758393e+00 -1.945015e+00 -6.566733e-02 1.570358e+00 -1.102130e+00 2.374753e+00 -9.061047e-02 1.382574e+00 3.216474e+00 1.618774e+00 1.218995e+00 -2.213342e-01 1.119412e+00 7.102360e-01 -4.946879e-01 -2.959627e-01 -1.163140e-01
<VARIANCE> 25
 1.500064e+01 2.497750e+01 2.854209e+01 2.325505e+01 3.795078e+01 2.886041e+01 3.680937e+01 3.007231e+01 3.602250e+01 3.102440e+01 3.151525e+01 3.235074e+01 2.774007e+00 2.810987e+00 4.064371e+00 5.607949e+00 3.605548e+00 4.106730e+00 4.786170e+00 3.790995e+00 4.969132e+00 3.911014e+00 4.087523e+00 3.392164e+00 3.752244e-03
<GCONST> 9.710982e+01
<MIXTURE> 19 9.912824e-03
<MEAN> 25
 -1.078677e+01 2.246043e+00 1.770090e+00 -5.602151e-01 4.150238e+00 6.691623e-01 2.569222e+00 2.386724e-01 1.865565e+00 4.587567e-01 -4.022052e-03 1.811946e+00 1.915049e+00 1.427283e+00 2.079864e+00 9.189668e-01 -1.314347e+00 -1.127839e+00 -1.182353e+00 -1.534974e+00 -1.302091e+00 -1.005401e+00 -6.535277e-01 -6.888471e-01 4.822110e-03
<VARIANCE> 25
 4.707476e+01 2.963615e+01 4.333099e+01 4.791500e+01 3.124956e+01 2.681869e+01 2.690394e+01 3.213351e+01 2.304660e+01 2.502532e+01 2.684944e+01 1.644566e+01 2.685971e+00 2.013380e+00 2.327343e+00 2.070786e+00 3.074379e+00 1.899093e+00 2.173256e+00 2.206915e+00 1.668413e+00 1.599060e+00 2.059154e+00 1.536120e+00 2.509442e-03
<GCONST> 8.950492e+01
<MIXTURE> 20 6.308331e-03
<MEAN> 25
 -1.417266e+01 7.411464e+00 8.587534e-01 6.134636e+00 4.843881e+00 1.636976e+00 5.199812e+00 8.547336e-01 9.289783e-01 7.967544e-01 2.567337e+00 -3.019090e-01 -3.284778e+00 -8.647730e-01 -1.561625e+00 3.283865e-01 1.543496e+00 2.061007e+00 1.975375e+00 2.052866e+00 2.141175e+00 2.034887e+00 1.684093e+00 9.448881e-01 4.728149e-02
<VARIANCE> 25
 1.968945e+01 2.342597e+01 3.104119e+01 3.729349e+01 3.084400e+01 2.785330e+01 2.994269e+01 3.147553e+01 2.795035e+01 2.818126e+01 2.513117e+01 2.088265e+01 2.090583e+00 2.181013e+00 1.913612e+00 2.548834e+00 2.703681e+00 2.311794e+00 2.314764e+00 2.323455e+00 2.239331e+00 2.670620e+00 2.238212e+00 1.864110e+00 1.885101e-03
<GCONST> 8.923153e+01
<MIXTURE> 21 7.928653e-03
<MEAN> 25
 4.004386e+00 -4.532035e+00 5.778099e+00 -1.542292e+00 -1.058835e+01 -8.724017e+00 -2.619699e+00 4.172432e+00 -2.079000e+00 -3.412553e+00 2.480065e-01 3.429508e-01 -7.190019e-01 1.341611e+00 2.586803e+00 -4.489893e-02 -1.549006e+00 3.370892e-01 5.894980e-01 -1.496987e+00 -1.956159e+00 3.144580e-01 1.323845e+00 2.477186e-01 -1.279365e-02
<VARIANCE> 25
 8.892320e+00 1.872475e+01 2.963814e+01 2.842041e+01 2.854529e+01 3.323517e+01 4.296365e+01 3.933212e+01 4.294704e+01 3.156699e+01 3.381350e+01 2.322786e+01 3.762233e-01 9.493985e-01 1.859113e+00 1.290080e+00 2.218103e+00 2.187112e+00 3.638322e+00 2.499548e+00 2.165390e+00 2.596100e+00 2.022081e+00 2.285084e+00 4.287197e-04
<GCONST> 8.509852e+01
<MIXTURE> 22 8.827789e-03
<MEAN> 25
 -1.792037e+01 7.154788e+00 -4.130692e+00 7.391530e+00 4.603732e+00 2.761055e+00 8.399770e+00 1.749203e+00 5.379390e+00 3.300708e+00 5.715549e+00 1.185059e+00 -3.096502e-01 -2.075283e-01 -1.254888e-01 -1.493221e-01 -7.260053e-03 1.370263e-01 1.807657e-01 1.778749e-01 2.484854e-01 2.072775e-01 1.726643e-01 1.925380e-01 8.859822e-03
<VARIANCE> 25
 8.122321e+00 1.682407e+01 1.738706e+01 2.517988e+01 2.290951e+01 2.083958e+01 1.943349e+01 1.871935e+01 1.813927e+01 2.086749e+01 1.924856e+01 1.378670e+01 1.090798e+00 1.357315e+00 1.363918e+00 1.572015e+00 1.408745e+00 1.526893e+00 1.508814e+00 1.532798e+00 1.614089e+00 1.544806e+00 1.357305e+00 1.168031e+00 1.745689e-03
<GCONST> 7.831186e+01
<MIXTURE> 23 6.455497e-03
<MEAN> 25
 7.962391e+00 2.438128e+00 2.943597e+00 2.398807e+00 -4.900195e+00 -3.057681e+00 -4.117790e+00 -6.509135e+00 -3.464978e+00 -1.028978e+00 -4.126945e+00 -2.157302e+00 3.242856e-02 1.866017e-01 8.164590e-03 5.932344e-02 5.575315e-03 3.862016e-02 2.892147e-02 -4.871688e-02 1.365353e-02 3.784693e-02 4.931288e-03 4.506635e-02 -4.511852e-03
<VARIANCE> 25
 1.040239e+01 2.220545e+01 2.553525e+01 4.038433e+01 3.796006e+01 5.415360e+01 6.040304e+01 5.445216e+01 4.785500e+01 4.648107e+01 4.801011e+01 3.991274e+01 1.181102e-01 2.985869e-01 3.824466e-01 4.872408e-01 5.939564e-01 7.171821e-01 7.762215e-01 8.734276e-01 8.741501e-01 8.811070e-01 8.160448e-01 7.586734e-01 9.194887e-05
<GCONST> 7.301800e+01
<MIXTURE> 24 6.455497e-03
<MEAN> 25
 7.962391e+00 2.438128e+00 2.943597e+00 2.398807e+00 -4.900195e+00 -3.057681e+00 -4.117790e+00 -6.509135e+00 -3.464978e+00 -1.028978e+00 -4.126945e+00 -2.157302e+00 3.242856e-02 1.866017e-01 8.164590e-03 5.932344e-02 5.575315e-03 3.862016e-02 2.892147e-02 -4.871688e-02 1.365353e-02 3.784693e-02 4.931288e-03 4.506635e-02 -4.511852e-03
<VARIANCE> 25
 1.040239e+01 2.220545e+01 2.553525e+01 4.038433e+01 3.796006e+01 5.415360e+01 6.040304e+01 5.445216e+01 4.785500e+01 4.648107e+01 4.801011e+01 3.991274e+01 1.181102e-01 2.985869e-01 3.824466e-01 4.872408e-01 5.939564e-01 7.171821e-01 7.762215e-01 8.734276e-01 8.741501e-01 8.811070e-01 8.160448e-01 7.586734e-01 9.194887e-05
<GCONST> 7.301800e+01
<MIXTURE> 25 1.118642e-02
<MEAN> 25
 3.309080e-01 3.384564e+00 1.648323e+01 -1.080611e+00 -1.135737e+01 -1.509684e+00 -4.801568e+00 -2.966502e+00 -6.922261e+00 -5.411497e+00 3.913938e+00 -1.646453e+00 -1.203268e-01 4.596962e-01 1.390668e-01 1.510301e-01 2.682768e-01 1.378544e-01 1.841075e-01 -1.769435e-01 -2.645852e-01 1.062537e-01 -1.109657e-01 -1.118496e-01 -1.351670e-02
<VARIANCE> 25
 8.637925e+00 2.211384e+01 2.321375e+01 2.815797e+01 3.075736e+01 4.308498e+01 2.818436e+01 2.927953e+01 2.765244e+01 3.561758e+01 2.185557e+01 2.689937e+01 5.952762e-01 1.421257e+00 1.404992e+00 1.352463e+00 2.298867e+00 2.017763e+00 1.718563e+00 1.593139e+00 1.513144e+00 1.657980e+00 1.371029e+00 1.270018e+00 1.262092e-03
<GCONST> 8.267170e+01
<MIXTURE> 26 7.727677e-03
<MEAN> 25
 2.268278e+00 -5.831823e+00 -1.017940e+01 -1.059586e+00 7.142073e+00 5.146219e+00 4.067798e+00 1.053412e-01 3.023170e+00 1.199399e-01 -2.752669e+00 -2.017826e+00 -7.488837e-01 8.054288e-01 4.523838e-01 6.445799e-01 2.638148e-01 1.124605e-01 5.333534e-01 5.316133e-01 4.472624e-01 -9.229131e-02 9.179506e-02 5.195119e-01 -5.913900e-02
<VARIANCE> 25
 2.238307e+01 3.242798e+01 2.258027e+01 5.409585e+01 3.820063e+01 3.866283e+01 4.437220e+01 4.295415e+01 3.765292e+01 5.289042e+01 3.752859e+01 5.156567e+01 1.473407e+00 1.844699e+00 1.736638e+00 1.748114e+00 2.173966e+00 2.133038e+00 2.885039e+00 2.770893e+00 2.286682e+00 2.175294e+00 2.644126e+00 2.241254e+00 3.121856e-03
<GCONST> 9.299466e+01
<MIXTURE> 27 7.727677e-03
<MEAN> 25
 2.268278e+00 -5.831823e+00 -1.017940e+01 -1.059586e+00 7.142073e+00 5.146219e+00 4.067798e+00 1.053412e-01 3.023170e+00 1.199399e-01 -2.752669e+00 -2.017826e+00 -7.488837e-01 8.054288e-01 4.523838e-01 6.445799e-01 2.638148e-01 1.124605e-01 5.333534e-01 5.316133e-01 4.472624e-01 -9.229131e-02 9.179506e-02 5.195119e-01 -5.913900e-02
<VARIANCE> 25
 2.238307e+01 3.242798e+01 2.258027e+01 5.409585e+01 3.820063e+01 3.866283e+01 4.437220e+01 4.295415e+01 3.765292e+01 5.289042e+01 3.752859e+01 5.156567e+01 1.473407e+00 1.844699e+00 1.736638e+00 1.748114e+00 2.173966e+00 2.133038e+00 2.885039e+00 2.770893e+00 2.286682e+00 2.175294e+00 2.644126e+00 2.241254e+00 3.121856e-03
<GCONST> 9.299466e+01
<MIXTURE> 28 5.036674e-03
<MEAN> 25
 -5.369185e+00 8.967784e-02 -1.590129e+00 6.514370e+00 5.273895e+00 3.493256e+00 5.345234e+00 3.170458e+00 3.976313e+00 2.312846e+00 2.546306e+00 3.239800e+00 -1.151255e-01 2.335404e-01 5.392106e-01 7.796040e-01 8.039637e-01 6.924726e-01 5.230008e-01 3.791617e-01 4.394596e-01 4.647416e-01 3.884040e-01 1.861664e-01 1.164693e-05
<VARIANCE> 25
 1.057694e+01 8.486920e+00 1.195813e+01 1.509872e+01 1.457885e+01 1.750559e+01 1.796823e+01 1.874846e+01 1.702156e+01 1.673617e+01 2.066621e+01 1.489930e+01 2.554568e-01 3.382454e-01 4.111960e-01 4.576806e-01 6.276349e-01 8.360903e-01 1.049723e+00 1.141821e+00 1.090279e+00 1.030403e+00 1.036834e+00 1.052629e+00 1.078304e-06
<GCONST> 6.026494e+01
<MIXTURE> 29 5.036674e-03
<MEAN> 25
 -5.369185e+00 8.967784e-02 -1.590129e+00 6.514370e+00 5.273895e+00 3.493256e+00 5.345234e+00 3.170458e+00 3.976313e+00 2.312846e+00 2.546306e+00 3.239800e+00 -1.151255e-01 2.335404e-01 5.392106e-01 7.796040e-01 8.039637e-01 6.924726e-01 5.230008e-01 3.791617e-01 4.394596e-01 4.647416e-01 3.884040e-01 1.861664e-01 1.164693e-05
<VARIANCE> 25
 1.057694e+01 8.486920e+00 1.195813e+01 1.509872e+01 1.457885e+01 1.750559e+01 1.796823e+01 1.874846e+01 1.702156e+01 1.673617e+01 2.066621e+01 1.489930e+01 2.554568e-01 3.382454e-01 4.111960e-01 4.576806e-01 6.276349e-01 8.360903e-01 1.049723e+00 1.141821e+00 1.090279e+00 1.030403e+00 1.036834e+00 1.052629e+00 1.078304e-06
<GCONST> 6.026494e+01
<MIXTURE> 30 8.917812e-03
<MEAN> 25
 -4.500572e+00 4.894164e-01 2.482598e-01 8.358941e+00 8.293374e+00 7.313969e+00 7.198900e+00 6.806197e+00 6.598059e+00 3.843493e+00 5.622215e+00 3.791770e+00 1.237897e-02 1.425216e-02 6.436824e-02 9.523837e-02 1.432116e-01 1.612553e-01 -1.422414e-01 6.415648e-04 -2.221394e-02 1.348457e-01 3.226279e-02 -8.138561e-02 -1.048725e-03
<VARIANCE> 25
 6.791134e+00 1.040017e+01 9.672595e+00 1.429770e+01 1.485947e+01 1.565462e+01 1.763395e+01 1.599929e+01 1.459547e+01 2.104118e+01 2.667659e+01 1.556383e+01 1.044126e-01 1.707183e-01 2.989729e-01 4.444780e-01 5.723123e-01 7.627953e-01 8.569968e-01 7.579886e-01 8.356728e-01 8.713586e-01 8.244427e-01 8.342619e-01 5.266316e-05
<GCONST> 6.013275e+01
<MIXTURE> 31 4.136493e-03
<MEAN> 25
 -3.289719e+00 -5.558152e+00 6.730065e-02 4.863578e+00 3.740022e+00 1.692226e+00 5.211897e+00 6.657825e+00 2.792411e+00 1.252156e+00 6.449816e+00 3.144156e+00 2.533784e-01 4.628272e-01 -2.073175e-01 2.996438e-01 1.180190e-01 4.216200e-01 1.783158e-01 1.316023e-02 3.819694e-01 3.807188e-01 1.058255e-01 1.170140e-01 -1.844217e-02
<VARIANCE> 25
 7.113735e+00 1.639157e+01 1.731891e+01 1.783701e+01 2.531255e+01 2.363877e+01 2.355444e+01 2.509951e+01 2.598835e+01 2.791266e+01 2.070781e+01 1.863726e+01 1.930641e-01 4.994328e-01 5.996082e-01 7.724799e-01 9.579602e-01 1.085297e+00 1.235068e+00 1.376836e+00 1.344875e+00 1.306526e+00 1.236953e+00 1.126907e+00 2.538675e-04
<GCONST> 7.183583e+01
<MIXTURE> 32 4.136493e-03
<MEAN> 25
 -3.289719e+00 -5.558152e+00 6.730065e-02 4.863578e+00 3.740022e+00 1.692226e+00 5.211897e+00 6.657825e+00 2.792411e+00 1.252156e+00 6.449816e+00 3.144156e+00 2.533784e-01 4.628272e-01 -2.073175e-01 2.996438e-01 1.180190e-01 4.216200e-01 1.783158e-01 1.316023e-02 3.819694e-01 3.807188e-01 1.058255e-01 1.170140e-01 -1.844217e-02
<VARIANCE> 25
 7.113735e+00 1.639157e+01 1.731891e+01 1.783701e+01 2.531255e+01 2.363877e+01 2.355444e+01 2.509951e+01 2.598835e+01 2.791266e+01 2.070781e+01 1.863726e+01 1.930641e-01 4.994328e-01 5.996082e-01 7.724799e-01 9.579602e-01 1.085297e+00 1.235068e+00 1.376836e+00 1.344875e+00 1.306526e+00 1.236953e+00 1.126907e+00 2.538675e-04
<GCONST> 7.183583e+01
<MIXTURE> 33 1.508826e-02
<MEAN> 25
 6.699406e+00 -5.385943e+00 -2.139922e+00 -1.710418e+00 -2.297676e+00 -6.407227e+00 -7.041163e+00 1.995914e+00 2.631113e+00 -1.890983e-02 -4.698715e+00 -1.766296e+00 8.264809e-01 -1.334532e+00 -2.655767e+00 -1.430026e+00 1.185527e+00 1.508656e+00 -8.565315e-01 3.382424e-01 9.851641e-01 6.450564e-01 6.868958e-02 -1.595833e+00 3.691246e-02
<VARIANCE> 25
 8.221974e+00 2.398360e+01 2.433797e+01 3.397589e+01 3.737037e+01 4.109368e+01 3.524266e+01 3.915099e+01 3.374638e+01 3.966039e+01 3.034960e+01 3.323632e+01 1.092881e+00 2.177500e+00 2.027770e+00 2.479609e+00 3.963149e+00 3.090218e+00 3.604289e+00 5.326694e+00 3.224633e+00 3.619296e+00 3.628082e+00 2.424667e+00 1.384571e-03
<GCONST> 9.262217e+01
<MIXTURE> 34 1.588179e-02
<MEAN> 25
 8.874865e+00 1.044375e-02 -2.528572e-02 1.083470e+00 -2.949173e+00 -1.516247e+00 -6.225047e+00 -4.646143e+00 -1.823369e+00 3.224458e-01 -2.570791e+00 -3.819709e+00 -3.785462e-02 1.294367e+00 1.425930e+00 2.366556e+00 3.557532e-02 -1.500136e-01 8.098987e-01 -1.553406e+00 -8.349643e-01 2.520757e-01 -5.417824e-01 2.892471e-01 -6.255778e-02
<VARIANCE> 25
 7.589409e+00 3.070052e+01 2.980357e+01 4.938161e+01 4.135313e+01 4.852972e+01 5.451161e+01 5.543144e+01 5.147570e+01 4.332899e+01 4.760149e+01 3.133704e+01 1.255886e+00 2.065934e+00 4.260774e+00 4.004454e+00 5.751115e+00 5.693038e+00 5.409302e+00 6.331530e+00 5.239069e+00 4.865225e+00 4.926379e+00 3.919504e+00 1.131711e-03
<GCONST> 9.955502e+01
<MIXTURE> 35 1.467755e-02
<MEAN> 25
 -2.094327e+00 -5.062541e+00 -9.853463e+00 1.971056e-01 9.563928e+00 7.032918e-01 1.483706e+00 2.544416e+00 1.595917e+00 4.547192e+00 7.613231e-02 1.864181e+00 4.964676e-01 -1.119694e+00 -1.326278e+00 -1.378971e+00 3.687384e-01 -7.875401e-01 -6.353305e-01 -2.061264e-01 -2.088360e-01 1.420858e-01 -6.782023e-01 -4.673730e-01 1.072226e-01
<VARIANCE> 25
 1.939028e+01 3.038928e+01 4.339718e+01 6.109849e+01 4.236713e+01 5.679726e+01 5.071719e+01 4.274272e+01 5.015796e+01 3.783926e+01 3.599482e+01 3.034710e+01 3.510811e+00 3.526788e+00 7.129201e+00 5.459106e+00 5.231643e+00 5.475636e+00 4.918680e+00 4.897473e+00 5.054626e+00 4.448292e+00 4.046547e+00 3.760045e+00 5.225248e-03
<GCONST> 1.035160e+02
<MIXTURE> 36 1.093293e-02
<MEAN> 25
 4.495459e+00 -5.914025e+00 6.657792e+00 3.633181e+00 -1.181988e+01 -8.573255e+00 -7.300874e+00 3.616630e+00 -4.468403e+00 -5.353124e+00 4.028093e+00 1.635147e-01 3.356728e-01 1.598091e-01 -9.385995e-01 3.222933e-01 7.656301e-01 2.041965e-01 -5.036708e-01 -6.963633e-02 6.010877e-01 5.310764e-01 -4.976439e-01 1.494142e-02 -1.283752e-02
<VARIANCE> 25
 6.703810e+00 1.801172e+01 2.053435e+01 1.910823e+01 2.310518e+01 3.146714e+01 3.188971e+01 2.793316e+01 3.623624e+01 2.289424e+01 2.536695e+01 2.000755e+01 3.638718e-01 8.554727e-01 1.455918e+00 9.260498e-01 1.236062e+00 1.237455e+00 1.612781e+00 1.700547e+00 1.531077e+00 1.881854e+00 1.238624e+00 2.225036e+00 6.112598e-04
<GCONST> 7.828210e+01
<MIXTURE> 37 1.246826e-02
<MEAN> 25
 5.527273e-01 7.758280e+00 1.202426e+01 -5.543293e+00 -8.024252e+00 -1.009634e+00 -5.046148e+00 -8.308986e+00 -3.722913e+00 -9.075995e-01 -3.673708e+00 -1.301943e+00 1.863028e-01 6.463120e-01 -1.353937e+00 3.573117e+00 1.987988e+00 -3.009653e-01 1.088914e+00 4.319662e-01 5.264100e-01 -3.176310e-01 5.312037e-01 -9.979367e-02 -9.471772e-02
<VARIANCE> 25
 1.590057e+01 2.593707e+01 3.096406e+01 5.085486e+01 3.385482e+01 3.236039e+01 4.410176e+01 3.495271e+01 3.847667e+01 3.583165e+01 3.760420e+01 3.079918e+01 2.950605e+00 3.401700e+00 3.005349e+00 4.100624e+00 4.599097e+00 3.738335e+00 4.194401e+00 3.804164e+00 3.438604e+00 3.613919e+00 3.863757e+00 2.784068e+00 3.922189e-03
<GCONST> 9.774023e+01
<MIXTURE> 38 1.154525e-02
<MEAN> 25
 -4.696307e+00 8.583013e+00 5.463870e+00 2.965978e+00 6.702428e-01 -5.178735e+00 -2.967279e-01 -2.157627e+00 -2.383642e+00 -2.527657e+00 -1.445058e+00 -4.306459e-01 -4.424600e+00 1.291052e+00 -2.291756e-01 9.348842e-01 2.748284e+00 1.498736e+00 1.917215e+00 8.096405e-01 1.009944e+00 4.658474e-01 9.384919e-01 1.974073e-01 4.116020e-02
<VARIANCE> 25
 2.876937e+01 2.766768e+01 4.095611e+01 3.081074e+01 4.445604e+01 3.269699e+01 3.372739e+01 4.047279e+01 3.305523e+01 3.193644e+01 2.226227e+01 2.588208e+01 2.180202e+00 3.584954e+00 3.552910e+00 6.709711e+00 4.100242e+00 4.630463e+00 4.457142e+00 4.324303e+00 4.491693e+00 4.683855e+00 3.994902e+00 3.129426e+00 2.298734e-03
<GCONST> 9.821272e+01
<MIXTURE> 39 9.501865e-03
<MEAN> 25
 1.337442e+00 2.584209e+00 1.017483e+01 -9.153990e+00 -1.130476e+01 -8.965307e-01 -2.878807e+00 -6.552729e+00 -4.554032e+00 8.280721e-01 -3.680140e+00 -2.287091e+00 -7.196783e-01 1.521131e+00 1.601104e+00 -1.378473e+00 9.967264e-02 1.229753e+00 -1.188097e+00 -1.250571e+00 4.147379e-01 4.538798e-01 -5.142448e-01 1.156088e-01 9.959998e-04
<VARIANCE> 25
 8.812133e+00 2.979641e+01 3.141293e+01 3.817470e+01 3.677035e+01 4.297571e+01 4.458976e+01 3.315450e+01 3.906787e+01 3.300717e+01 3.580849e+01 2.911501e+01 6.922175e-01 1.529920e+00 1.551364e+00 2.905568e+00 2.428055e+00 2.797486e+00 3.032939e+00 2.719148e+00 2.425901e+00 2.597542e+00 2.104414e+00 2.051774e+00 1.181489e-03
<GCONST> 8.953362e+01
<MIXTURE> 40 1.030800e-02
<MEAN> 25
 -7.955986e+00 2.623763e+00 -8.322452e-01 7.421743e+00 4.699746e+00 4.754977e+00 5.084542e+00 4.710130e+00 5.091760e+00 4.134371e+00 4.787530e+00 1.402044e+00 -1.289116e-02 -2.694717e-01 4.662834e-02 -2.947175e-01 -7.883237e-02 -1.195650e-01 -6.085585e-02 2.725921e-02 -4.111184e-02 8.957518e-02 4.881360e-02 3.630019e-02 5.331362e-04
<VARIANCE> 25
 4.022613e+01 1.784077e+01 2.555610e+01 2.489246e+01 2.589065e+01 1.865697e+01 1.977903e+01 1.600779e+01 1.523024e+01 1.704974e+01 1.926498e+01 1.305444e+01 7.433592e-01 6.456450e-01 8.056011e-01 1.120896e+00 1.011611e+00 1.026090e+00 1.258930e+00 1.086390e+00 1.150537e+00 1.171123e+00 1.011047e+00 9.679036e-01 8.192902e-04
<GCONST> 7.468680e+01
<MIXTURE> 41 6.713375e-03
<MEAN> 25
 1.301491e+00 1.779491e+00 1.045230e+01 -6.945920e+00 -1.044818e+01 -3.857135e+00 -2.486409e+00 -5.033432e+00 -4.633839e+00 2.663527e+00 -1.741666e+00 -9.412760e-01 7.528893e-02 -7.632145e-01 1.700132e+00 -3.549343e+00 -2.461064e+00 -1.125204e-01 -5.010988e-01 -3.633792e-01 -8.302675e-01 1.082081e+00 -1.047880e+00 8.423088e-02 8.633001e-02
<VARIANCE> 25
 1.171524e+01 2.963958e+01 3.283770e+01 4.003066e+01 3.899078e+01 4.005299e+01 3.707301e+01 2.988048e+01 3.319585e+01 2.870637e+01 3.180938e+01 2.717360e+01 3.185300e+00 3.309102e+00 3.831514e+00 3.818480e+00 4.896026e+00 5.859696e+00 4.714656e+00 4.570056e+00 3.970982e+00 4.217229e+00 3.827208e+00 3.216345e+00 2.927417e-03
<GCONST> 9.792332e+01
<MIXTURE> 42 1.106211e-02
<MEAN> 25
 -2.785162e+00 4.144775e+00 6.511571e+00 2.024717e+00 1.241733e-01 -6.595137e+00 -1.132666e+00 -2.873863e+00 -1.208925e+00 -1.707881e+00 -2.527058e+00 1.694994e+00 3.905279e+00 -7.107002e-01 1.096398e+00 6.997871e-01 -3.234905e+00 -1.333975e+00 -2.044735e+00 -4.411168e-01 -7.353970e-01 -2.155949e-01 3.425072e-01 -9.122733e-01 1.689726e-02
<VARIANCE> 25
 3.138059e+01 1.736334e+01 4.220184e+01 2.178512e+01 3.161218e+01 3.082341e+01 2.775141e+01 3.146377e+01 2.687541e+01 2.265239e+01 1.837279e+01 1.535496e+01 3.120055e+00 4.617191e+00 6.334648e+00 4.402261e+00 4.307167e+00 4.554230e+00 3.794962e+00 4.583115e+00 4.188923e+00 4.750771e+00 4.042871e+00 2.794970e+00 3.513630e-03
<GCONST> 9.637148e+01
<MIXTURE> 43 7.108249e-03
<MEAN> 25
 3.166886e+00 -6.307078e+00 -2.252842e+00 -5.188596e+00 -7.397818e+00 -3.401087e+00 4.142518e+00 1.309500e+00 -5.062001e+00 -7.092698e+00 -4.324840e+00 -1.251062e+00 2.376561e-01 2.165020e+00 1.913729e+00 -1.331892e-01 -1.429499e+00 -7.948902e-01 -9.698532e-01 -7.792615e-01 8.215265e-01 1.467883e+00 3.419793e-01 2.149533e-02 -4.510508e-02
<VARIANCE> 25
 9.605680e+00 1.969406e+01 2.735354e+01 3.519683e+01 3.842667e+01 3.666040e+01 3.328402e+01 3.980663e+01 3.967360e+01 3.865203e+01 2.653335e+01 2.955207e+01 6.904575e-01 1.248706e+00 1.570473e+00 2.490292e+00 2.376976e+00 2.382204e+00 2.653418e+00 3.025929e+00 2.606083e+00 2.578490e+00 2.331738e+00 1.921140e+00 9.429816e-04
<GCONST> 8.796933e+01
<MIXTURE> 44 7.328289e-03
<MEAN> 25
 -1.472300e+01 2.575559e+00 5.141351e+00 -3.732603e+00 4.411251e+00 1.303247e+00 -4.641986e-01 2.500865e+00 1.635221e+00 -1.642793e+00 2.037362e+00 2.621346e+00 -1.615752e-01 -9.204053e-02 2.587264e-01 1.283945e-01 -1.445608e-01 4.291049e-02 4.405161e-01 6.707191e-02 4.620056e-02 -1.512627e-01 -5.527323e-02 3.632543e-01 6.204173e-03
<VARIANCE> 25
 3.408320e+01 2.255511e+01 3.376561e+01 2.433510e+01 3.123436e+01 2.886534e+01 2.064398e+01 3.193568e+01 2.276064e+01 2.291772e+01 2.457520e+01 1.767093e+01 1.850310e+00 1.258338e+00 1.091411e+00 1.453601e+00 2.224305e+00 1.452520e+00 1.377238e+00 1.815167e+00 1.317104e+00 1.869023e+00 1.586407e+00 1.205507e+00 1.188817e-03
<GCONST> 8.313905e+01
<MIXTURE> 45 1.364932e-02
<MEAN> 25
 -1.120417e+01 4.184973e+00 9.673990e-02 9.644397e-01 8.518715e+00 -3.551879e-02 3.688333e+00 4.653379e+00 3.289387e+00 1.389330e+00 1.094818e+00 1.572425e+00 -2.725563e+00 5.037107e-01 -3.435027e-02 -8.388588e-01 4.429757e-01 9.520310e-02 3.032934e-01 5.685632e-02 -2.867999e-01 -4.672550e-01 1.375940e-01 5.954147e-02 1.026383e-01
<VARIANCE> 25
 3.047392e+01 2.110816e+01 2.691431e+01 2.846476e+01 3.995113e+01 2.895370e+01 2.581036e+01 3.401694e+01 2.178249e+01 2.044547e+01 2.338172e+01 1.622028e+01 1.810679e+00 2.014455e+00 2.188619e+00 2.125507e+00 2.093730e+00 2.231041e+00 1.960135e+00 2.427902e+00 1.959421e+00 2.221258e+00 1.586659e+00 1.437544e+00 3.354860e-03
<GCONST> 8.745359e+01
<MIXTURE> 46 9.336259e-03
<MEAN> 25
 -9.263183e+00 2.374421e+00 1.040616e+00 7.289708e+00 5.969345e+00 3.099244e+00 7.014066e+00 4.563290e+00 5.882823e+00 4.673084e+00 4.912929e+00 2.946071e+00 9.936061e-01 -2.074837e-01 7.864039e-02 9.840273e-01 5.437674e-01 9.489146e-01 4.027286e-01 6.753842e-01 4.735752e-01 4.541972e-01 6.255215e-01 5.176986e-01 -1.039314e-01
<VARIANCE> 25
 3.427426e+01 4.262625e+01 3.856620e+01 5.066267e+01 4.991558e+01 4.116082e+01 3.715487e+01 3.465908e+01 3.351608e+01 3.036093e+01 2.800692e+01 1.964387e+01 3.919874e+00 4.109857e+00 3.823056e+00 4.037564e+00 4.188016e+00 3.696341e+00 3.342355e+00 3.034179e+00 2.919433e+00 2.886907e+00 2.245125e+00 1.732878e+00 7.829150e-03
<GCONST> 9.804778e+01
<MIXTURE> 47 7.116147e-03
<MEAN> 25
 7.394403e+00 -7.367703e+00 -7.838283e+00 -6.489336e+00 1.386599e+00 9.632431e-01 -2.393285e+00 9.746626e-01 2.868867e+00 2.819614e-01 -4.036911e+00 -6.706096e+00 -1.935846e-01 -1.248716e+00 -6.750348e-01 -4.013998e-01 5.843393e-01 8.052186e-01 8.873086e-01 3.076376e-01 1.202954e-01 -8.555908e-01 -4.687757e-01 -4.862824e-01 2.949082e-02
<VARIANCE> 25
 1.062425e+01 2.062332e+01 2.032700e+01 3.254682e+01 3.610628e+01 5.233085e+01 4.449403e+01 4.267434e+01 4.346267e+01 4.689866e+01 4.974594e+01 3.287595e+01 5.127926e-01 7.605969e-01 1.119439e+00 1.652345e+00 2.028897e+00 2.166986e+00 2.299228e+00 2.437486e+00 2.148347e+00 2.141464e+00 2.160719e+00 2.013049e+00 5.562306e-04
<GCONST> 8.632352e+01
<MIXTURE> 48 7.116147e-03
<MEAN> 25
 7.394403e+00 -7.367703e+00 -7.838283e+00 -6.489336e+00 1.386599e+00 9.632431e-01 -2.393285e+00 9.746626e-01 2.868867e+00 2.819614e-01 -4.036911e+00 -6.706096e+00 -1.935846e-01 -1.248716e+00 -6.750348e-01 -4.013998e-01 5.843393e-01 8.052186e-01 8.873086e-01 3.076376e-01 1.202954e-01 -8.555908e-01 -4.687757e-01 -4.862824e-01 2.949082e-02
<VARIANCE> 25
 1.062425e+01 2.062332e+01 2.032700e+01 3.254682e+01 3.610628e+01 5.233085e+01 4.449403e+01 4.267434e+01 4.346267e+01 4.689866e+01 4.974594e+01 3.287595e+01 5.127926e-01 7.605969e-01 1.119439e+00 1.652345e+00 2.028897e+00 2.166986e+00 2.299228e+00 2.437486e+00 2.148347e+00 2.141464e+00 2.160719e+00 2.013049e+00 5.562306e-04
<GCONST> 8.632352e+01
<MIXTURE> 49 5.548473e-03
<MEAN> 25
 -5.056227e+00 4.950306e-01 5.518845e-02 8.357200e+00 6.216362e+00 5.514850e+00 6.025237e+00 4.590862e+00 5.071149e+00 3.528025e+00 4.752851e+00 2.847616e+00 3.560230e-01 6.316528e-01 7.134115e-01 3.529686e-01 -1.734084e-01 -6.366951e-01 -1.019353e+00 -1.084696e+00 -9.574983e-01 -6.290472e-01 -4.553088e-01 -2.898956e-01 -3.172165e-05
<VARIANCE> 25
 9.397644e+00 1.033902e+01 1.435643e+01 1.582320e+01 1.560914e+01 1.717570e+01 1.906985e+01 1.927918e+01 1.780650e+01 1.858647e+01 2.106636e+01 1.427373e+01 2.784551e-01 2.772126e-01 3.602877e-01 5.958907e-01 8.653697e-01 9.812367e-01 1.005331e+00 1.064986e+00 1.108660e+00 1.275810e+00 1.295450e+00 1.192107e+00 1.468332e-05
<GCONST> 6.441279e+01
<MIXTURE> 50 6.234641e-03
<MEAN> 25
 -4.615731e+00 1.601161e-01 -1.472796e+00 6.118469e+00 4.287569e+00 2.294468e+00 3.675590e+00 2.033480e+00 2.844767e+00 1.338245e+00 2.077414e+00 2.882829e+00 5.498904e-02 1.800941e-01 1.020156e-01 -1.792436e-01 -5.028244e-01 -6.023099e-01 -4.205332e-01 -5.546609e-02 4.402802e-01 7.518402e-01 7.370451e-01 4.424750e-01 1.191162e-05
<VARIANCE> 25
 1.049329e+01 1.120273e+01 1.412653e+01 1.552488e+01 1.533340e+01 1.834040e+01 1.833526e+01 1.929259e+01 1.845455e+01 1.747912e+01 2.163677e+01 1.502114e+01 1.430439e-01 2.406528e-01 3.871208e-01 5.231768e-01 5.942899e-01 7.316948e-01 9.540164e-01 1.104084e+00 1.045617e+00 9.241950e-01 9.145699e-01 9.782957e-01 1.064727e-06
<GCONST> 5.952722e+01
<MIXTURE> 51 6.234641e-03
<MEAN> 25
 -4.615731e+00 1.601161e-01 -1.472796e+00 6.118469e+00 4.287569e+00 2.294468e+00 3.675590e+00 2.033480e+00 2.844767e+00 1.338245e+00 2.077414e+00 2.882829e+00 5.498904e-02 1.800941e-01 1.020156e-01 -1.792436e-01 -5.028244e-01 -6.023099e-01 -4.205332e-01 -5.546609e-02 4.402802e-01 7.518402e-01 7.370451e-01 4.424750e-01 1.191162e-05
<VARIANCE> 25
 1.049329e+01 1.120273e+01 1.412653e+01 1.552488e+01 1.533340e+01 1.834040e+01 1.833526e+01 1.929259e+01 1.845455e+01 1.747912e+01 2.163677e+01 1.502114e+01 1.430439e-01 2.406528e-01 3.871208e-01 5.231768e-01 5.942899e-01 7.316948e-01 9.540164e-01 1.104084e+00 1.045617e+00 9.241950e-01 9.145699e-01 9.782957e-01 1.064727e-06
<GCONST> 5.952722e+01
<MIXTURE> 52 6.367945e-03
<MEAN> 25
 1.011934e+01 1.544480e+00 -7.235182e+00 -1.273927e+01 -4.441970e+00 8.590310e+00 -1.683566e+00 -3.865100e+00 -4.847234e+00 -2.102338e+00 3.537905e+00 -1.788497e-01 -4.307339e-01 -4.198028e-01 -1.927411e-01 1.018234e+00 1.467695e+00 -4.199742e-01 -8.056250e-01 -7.302628e-01 4.154744e-02 1.306248e+00 6.164392e-01 -6.689745e-01 -1.048897e-02
<VARIANCE> 25
 8.147511e+00 1.933765e+01 2.862206e+01 4.724910e+01 4.150606e+01 2.751615e+01 4.929175e+01 4.685504e+01 3.863165e+01 4.143930e+01 3.677176e+01 3.129138e+01 4.051346e-01 1.321519e+00 1.241608e+00 2.496905e+00 2.182930e+00 1.982109e+00 3.037177e+00 2.502116e+00 2.635622e+00 2.435149e+00 2.562240e+00 2.165545e+00 1.428931e-03
<GCONST> 8.844956e+01
<MIXTURE> 53 6.367945e-03
<MEAN> 25
 1.011934e+01 1.544480e+00 -7.235182e+00 -1.273927e+01 -4.441970e+00 8.590310e+00 -1.683566e+00 -3.865100e+00 -4.847234e+00 -2.102338e+00 3.537905e+00 -1.788497e-01 -4.307339e-01 -4.198028e-01 -1.927411e-01 1.018234e+00 1.467695e+00 -4.199742e-01 -8.056250e-01 -7.302628e-01 4.154744e-02 1.306248e+00 6.164392e-01 -6.689745e-01 -1.048897e-02
<VARIANCE> 25
 8.147511e+00 1.933765e+01 2.862206e+01 4.724910e+01 4.150606e+01 2.751615e+01 4.929175e+01 4.685504e+01 3.863165e+01 4.143930e+01 3.677176e+01 3.129138e+01 4.051346e-01 1.321519e+00 1.241608e+00 2.496905e+00 2.182930e+00 1.982109e+00 3.037177e+00 2.502116e+00 2.635622e+00 2.435149e+00 2.562240e+00 2.165545e+00 1.428931e-03
<GCONST> 8.844956e+01
<MIXTURE> 54 7.368620e-03
<MEAN> 25
 -3.562139e+00 3.117112e-01 -7.116618e-01 7.621043e+00 6.627328e+00 4.599291e+00 4.542921e+00 4.689176e+00 4.252631e+00 3.338709e+00 4.263539e+00 2.410594e+00 -1.889505e-02 2.193399e-02 3.914555e-02 3.960265e-02 7.484365e-02 5.896098e-02 2.652467e-02 6.017596e-02 1.890978e-02 3.835281e-02 6.365050e-02 3.718324e-02 2.652099e-05
<VARIANCE> 25
 8.733383e+00 1.099150e+01 8.829496e+00 2.013184e+01 1.308304e+01 1.300920e+01 1.182306e+01 1.093253e+01 1.164685e+01 1.399290e+01 1.752049e+01 1.222830e+01 4.529903e-02 8.477940e-02 1.504244e-01 2.197925e-01 3.080636e-01 3.791546e-01 4.461661e-01 5.199800e-01 5.352808e-01 4.991232e-01 5.557265e-01 5.541375e-01 1.100530e-06
<GCONST> 4.735385e+01
<MIXTURE> 55 7.368620e-03
<MEAN> 25
 -3.562139e+00 3.117112e-01 -7.116618e-01 7.621043e+00 6.627328e+00 4.599291e+00 4.542921e+00 4.689176e+00 4.252631e+00 3.338709e+00 4.263539e+00 2.410594e+00 -1.889505e-02 2.193399e-02 3.914555e-02 3.960265e-02 7.484365e-02 5.896098e-02 2.652467e-02 6.017596e-02 1.890978e-02 3.835281e-02 6.365050e-02 3.718324e-02 2.652099e-05
<VARIANCE> 25
 8.733383e+00 1.099150e+01 8.829496e+00 2.013184e+01 1.308304e+01 1.300920e+01 1.182306e+01 1.093253e+01 1.164685e+01 1.399290e+01 1.752049e+01 1.222830e+01 4.529903e-02 8.477940e-02 1.504244e-01 2.197925e-01 3.080636e-01 3.791546e-01 4.461661e-01 5.199800e-01 5.352808e-01 4.991232e-01 5.557265e-01 5.541375e-01 1.100530e-06
<GCONST> 4.735385e+01
<MIXTURE> 56 6.132464e-03
<MEAN> 25
 7.783306e+00 -7.122712e+00 -9.360526e+00 -7.895180e+00 1.852525e+00 4.857888e+00 -2.054374e+00 -3.195221e+00 3.929679e-01 2.461907e+00 -5.646943e-01 -7.558947e+00 -8.603436e-02 -2.858645e-02 -7.600090e-02 1.224472e-01 2.725459e-01 3.544075e-02 6.272923e-02 -7.201305e-03 1.265365e-01 3.005693e-02 -1.445226e-01 -7.255799e-02 -6.457434e-03
<VARIANCE> 25
 7.523130e+00 1.893362e+01 1.551272e+01 3.311645e+01 3.538962e+01 3.974467e+01 4.771549e+01 3.344030e+01 3.516298e+01 3.674724e+01 3.865228e+01 2.495771e+01 2.029598e-01 4.835545e-01 5.024050e-01 7.417772e-01 7.976946e-01 1.017359e+00 8.891833e-01 7.529010e-01 1.042574e+00 8.355054e-01 8.805451e-01 8.103725e-01 2.359103e-04
<GCONST> 7.306126e+01
<MIXTURE> 57 6.132464e-03
<MEAN> 25
 7.783306e+00 -7.122712e+00 -9.360526e+00 -7.895180e+00 1.852525e+00 4.857888e+00 -2.054374e+00 -3.195221e+00 3.929679e-01 2.461907e+00 -5.646943e-01 -7.558947e+00 -8.603436e-02 -2.858645e-02 -7.600090e-02 1.224472e-01 2.725459e-01 3.544075e-02 6.272923e-02 -7.201305e-03 1.265365e-01 3.005693e-02 -1.445226e-01 -7.255799e-02 -6.457434e-03
<VARIANCE> 25
 7.523130e+00 1.893362e+01 1.551272e+01 3.311645e+01 3.538962e+01 3.974467e+01 4.771549e+01 3.344030e+01 3.516298e+01 3.674724e+01 3.865228e+01 2.495771e+01 2.029598e-01 4.835545e-01 5.024050e-01 7.417772e-01 7.976946e-01 1.017359e+00 8.891833e-01 7.529010e-01 1.042574e+00 8.355054e-01 8.805451e-01 8.103725e-01 2.359103e-04
<GCONST> 7.306126e+01
<MIXTURE> 58 6.172147e-03
<MEAN> 25
 2.704410e+00 -3.654625e+00 6.735284e+00 -3.724216e+00 -1.394181e+01 -4.438596e+00 8.414008e-01 1.669495e+00 -2.709779e+00 7.607704e-01 4.041246e-01 -9.302156e-01 1.416642e-03 -2.924848e-01 -1.080672e-01 -2.558333e-01 6.121495e-02 6.518635e-01 4.286712e-01 3.192632e-01 -1.443870e-01 -2.123532e-01 -6.644427e-02 -1.501653e-01 1.749471e-04
<VARIANCE> 25
 5.477274e+00 1.561937e+01 1.562009e+01 2.475350e+01 1.825437e+01 4.179617e+01 2.848645e+01 3.469098e+01 2.407417e+01 2.541899e+01 1.748662e+01 1.464906e+01 2.624285e-01 1.051822e+00 6.684436e-01 9.300257e-01 1.029153e+00 1.213440e+00 1.177809e+00 1.266508e+00 9.078840e-01 9.825191e-01 7.417891e-01 6.728227e-01 6.368167e-04
<GCONST> 7.254038e+01
<MIXTURE> 59 6.172147e-03
<MEAN> 25
 2.704410e+00 -3.654625e+00 6.735284e+00 -3.724216e+00 -1.394181e+01 -4.438596e+00 8.414008e-01 1.669495e+00 -2.709779e+00 7.607704e-01 4.041246e-01 -9.302156e-01 1.416642e-03 -2.924848e-01 -1.080672e-01 -2.558333e-01 6.121495e-02 6.518635e-01 4.286712e-01 3.192632e-01 -1.443870e-01 -2.123532e-01 -6.644427e-02 -1.501653e-01 1.749471e-04
<VARIANCE> 25
 5.477274e+00 1.561937e+01 1.562009e+01 2.475350e+01 1.825437e+01 4.179617e+01 2.848645e+01 3.469098e+01 2.407417e+01 2.541899e+01 1.748662e+01 1.464906e+01 2.624285e-01 1.051822e+00 6.684436e-01 9.300257e-01 1.029153e+00 1.213440e+00 1.177809e+00 1.266508e+00 9.078840e-01 9.825191e-01 7.417891e-01 6.728227e-01 6.368167e-04
<GCONST> 7.254038e+01
<MIXTURE> 60 4.479129e-03
<MEAN> 25
 -4.087956e+00 -3.846301e-01 -1.067982e+00 3.617369e+00 2.040645e+00 2.148812e+00 1.697928e+00 1.656674e+00 2.339467e+00 1.042868e+00 2.205449e+00 2.158909e+00 -4.263813e-02 6.530226e-02 1.274058e-01 1.111724e-01 1.418296e-01 1.027660e-01 1.563472e-01 3.463734e-01 6.030250e-01 6.726648e-01 5.634900e-01 2.731313e-01 -3.131728e-04
<VARIANCE> 25
 7.151311e+00 5.625620e+00 9.770638e+00 1.089668e+01 1.489301e+01 1.622120e+01 1.351819e+01 1.163216e+01 1.284354e+01 1.367052e+01 1.570473e+01 1.295842e+01 9.209565e-02 1.687412e-01 2.964690e-01 4.229054e-01 5.658060e-01 7.135509e-01 8.057348e-01 8.805979e-01 9.791108e-01 8.122669e-01 8.131344e-01 8.614210e-01 2.338338e-05
<GCONST> 5.659877e+01
<MIXTURE> 61 4.479129e-03
<MEAN> 25
 -4.087956e+00 -3.846301e-01 -1.067982e+00 3.617369e+00 2.040645e+00 2.148812e+00 1.697928e+00 1.656674e+00 2.339467e+00 1.042868e+00 2.205449e+00 2.158909e+00 -4.263813e-02 6.530226e-02 1.274058e-01 1.111724e-01 1.418296e-01 1.027660e-01 1.563472e-01 3.463734e-01 6.030250e-01 6.726648e-01 5.634900e-01 2.731313e-01 -3.131728e-04
<VARIANCE> 25
 7.151311e+00 5.625620e+00 9.770638e+00 1.089668e+01 1.489301e+01 1.622120e+01 1.351819e+01 1.163216e+01 1.284354e+01 1.367052e+01 1.570473e+01 1.295842e+01 9.209565e-02 1.687412e-01 2.964690e-01 4.229054e-01 5.658060e-01 7.135509e-01 8.057348e-01 8.805979e-01 9.791108e-01 8.122669e-01 8.131344e-01 8.614210e-01 2.338338e-05
<GCONST> 5.659877e+01
<MIXTURE> 62 3.278034e-03
<MEAN> 25
 -5.088604e+00 1.242507e+00 1.024939e+00 8.815506e+00 6.134119e+00 5.049358e+00 5.496252e+00 4.032840e+00 4.987859e+00 3.916103e+00 4.962974e+00 2.951558e+00 -1.003092e+00 -1.166117e+00 -9.528229e-01 -2.769893e-01 4.274450e-01 1.004024e+00 1.383561e+00 1.551814e+00 1.478852e+00 1.243173e+00 1.066665e+00 7.257792e-01 -1.266185e-03
<VARIANCE> 25
 9.877678e+00 9.956016e+00 1.311141e+01 1.674187e+01 1.742344e+01 1.751866e+01 1.970956e+01 1.910411e+01 1.885448e+01 1.872273e+01 2.157024e+01 1.478938e+01 4.016077e-01 4.324187e-01 5.541561e-01 7.790728e-01 1.034486e+00 1.193866e+00 1.253990e+00 1.278649e+00 1.328953e+00 1.363268e+00 1.399672e+00 1.370736e+00 1.631778e-05
<GCONST> 6.752583e+01
<MIXTURE> 63 4.351215e-03
<MEAN> 25
 -3.450250e+00 -1.761572e-01 -3.975170e+00 2.544684e+00 4.411691e+00 -1.602850e-01 2.872372e+00 1.943112e+00 2.881245e+00 -1.198586e+00 -1.927203e+00 2.341000e+00 -1.609487e-01 3.611581e-01 4.096743e-01 4.977754e-01 3.603371e-01 2.700661e-01 1.900032e-01 1.984899e-01 1.994442e-01 1.432220e-01 3.448187e-01 1.804849e-01 -5.112860e-03
<VARIANCE> 25
 9.616942e+00 1.917521e+01 1.449777e+01 1.403256e+01 1.661787e+01 2.089470e+01 2.089261e+01 2.197169e+01 2.928911e+01 2.069092e+01 1.856576e+01 1.564853e+01 3.086523e-01 3.908655e-01 6.094204e-01 6.242819e-01 8.092803e-01 9.477631e-01 1.505486e+00 1.219283e+00 1.306594e+00 1.406748e+00 1.131624e+00 1.156928e+00 1.787662e-04
<GCONST> 7.004666e+01
<MIXTURE> 64 4.351215e-03
<MEAN> 25
 -3.450250e+00 -1.761572e-01 -3.975170e+00 2.544684e+00 4.411691e+00 -1.602850e-01 2.872372e+00 1.943112e+00 2.881245e+00 -1.198586e+00 -1.927203e+00 2.341000e+00 -1.609487e-01 3.611581e-01 4.096743e-01 4.977754e-01 3.603371e-01 2.700661e-01 1.900032e-01 1.984899e-01 1.994442e-01 1.432220e-01 3.448187e-01 1.804849e-01 -5.112860e-03
<VARIANCE> 25
 9.616942e+00 1.917521e+01 1.449777e+01 1.403256e+01 1.661787e+01 2.089470e+01 2.089261e+01 2.197169e+01 2.928911e+01 2.069092e+01 1.856576e+01 1.564853e+01 3.086523e-01 3.908655e-01 6.094204e-01 6.242819e-01 8.092803e-01 9.477631e-01 1.505486e+00 1.219283e+00 1.306594e+00 1.406748e+00 1.131624e+00 1.156928e+00 1.787662e-04
<GCONST> 7.004666e+01
<MIXTURE> 65 1.721197e-02
<MEAN> 25
 7.983162e+00 2.116640e+00 1.941894e+00 6.598802e-01 -5.447307e+00 -4.046368e+00 -5.430660e+00 -6.876815e+00 -3.914399e+00 -2.256434e+00 -5.573917e+00 -2.011778e+00 2.024464e-01 1.290634e-01 3.716468e-03 1.728276e-01 -1.484512e-01 2.071253e-01 -6.121432e-02 -1.971328e-01 1.957767e-01 3.011428e-03 -5.512270e-02 -1.358315e-01 -5.213946e-03
<VARIANCE> 25
 9.888158e+00 1.877467e+01 2.549775e+01 3.540163e+01 3.729704e+01 5.972123e+01 6.306258e+01 5.794088e+01 5.443169e+01 5.691023e+01 5.484566e+01 5.032170e+01 5.702279e-01 9.331262e-01 1.584511e+00 1.811409e+00 1.998661e+00 2.276858e+00 2.344036e+00 2.924466e+00 2.391070e+00 2.454458e+00 2.363575e+00 2.099002e+00 4.277722e-04
<GCONST> 8.932773e+01
<MIXTURE> 66 1.191532e-02
<MEAN> 25
 6.644121e+00 -4.056826e+00 -5.662636e+00 -4.812110e+00 1.260267e+00 -4.975999e+00 -6.811275e+00 1.182073e+00 7.144660e-01 -1.914958e+00 -6.067290e+00 -3.563658e+00 -6.408974e-02 1.649738e+00 2.207478e+00 2.291388e+00 -1.192400e+00 -1.240713e+00 7.835853e-02 -5.067425e-01 -1.179935e-01 -2.025255e-01 -2.147163e-01 1.063588e+00 -6.418432e-02
<VARIANCE> 25
 8.953591e+00 2.220935e+01 2.671362e+01 3.254573e+01 3.807823e+01 5.350470e+01 5.730051e+01 4.496186e+01 5.359010e+01 6.670724e+01 3.696524e+01 3.648090e+01 1.284241e+00 2.458923e+00 2.384515e+00 2.475387e+00 4.337675e+00 4.248161e+00 4.368463e+00 4.875907e+00 4.234200e+00 4.918282e+00 3.884523e+00 3.269463e+00 1.464456e-03
<GCONST> 9.681862e+01
<MIXTURE> 67 1.559142e-02
<MEAN> 25
 8.575805e+00 8.590741e-01 -6.443879e+00 -7.687661e+00 7.730978e-01 2.889731e+00 -3.353280e+00 -2.287837e+00 -3.134625e+00 1.755001e+00 2.815879e-01 -2.706610e+00 -1.147132e+00 1.687978e+00 9.689066e-01 2.629843e+00 1.449337e+00 -4.691930e-01 1.553467e+00 5.681042e-01 4.417392e-01 9.123573e-02 -4.132804e-01 6.638473e-01 -1.252619e-01
<VARIANCE> 25
 1.083703e+01 4.225696e+01 2.768226e+01 4.968355e+01 4.549177e+01 4.919161e+01 6.101102e+01 4.605896e+01 5.979703e+01 5.333155e+01 5.053109e+01 4.910890e+01 1.911847e+00 3.274373e+00 2.939179e+00 4.932131e+00 4.046155e+00 3.886504e+00 4.446088e+00 5.371230e+00 5.317231e+00 4.279711e+00 4.860239e+00 3.810516e+00 2.732088e-03
<GCONST> 1.014159e+02
<MIXTURE> 68 1.485092e-02
<MEAN> 25
 -2.013494e+00 -2.291288e+00 -4.088161e+00 1.243679e+00 5.245935e+00 -6.877970e-01 2.106511e+00 1.825069e+00 2.023738e+00 1.689884e+00 4.871362e-01 1.877463e+00 2.755838e+00 5.414101e-01 2.368466e-02 -2.574529e+00 -2.417162e+00 -1.586726e+00 -2.340436e+00 -1.795377e+00 -1.650558e+00 -1.475543e+00 -1.984838e+00 -1.051907e+00 1.030889e-01
<VARIANCE> 25
 2.597154e+01 3.201694e+01 5.883363e+01 5.241248e+01 4.657041e+01 5.496902e+01 4.525228e+01 4.216106e+01 4.036622e+01 4.340724e+01 3.726314e+01 2.568321e+01 1.922292e+00 3.749930e+00 5.964322e+00 5.871692e+00 4.681454e+00 5.594900e+00 5.798061e+00 4.965788e+00 4.965106e+00 5.255986e+00 5.029632e+00 3.422021e+00 6.127070e-03
<GCONST> 1.036071e+02
<MIXTURE> 69 1.204884e-02
<MEAN> 25
 4.716216e+00 -4.322025e+00 -2.925531e+00 -3.191814e+00 -3.577976e+00 -8.286878e+00 -1.202838e+00 1.826332e+00 5.597322e-02 -4.005788e+00 -5.654393e+00 1.693480e+00 1.831330e+00 -2.361795e+00 -1.613175e+00 -1.965251e+00 -5.771221e-01 -4.729055e-01 -6.043555e-01 5.163839e-01 -4.860004e-01 -1.041775e+00 -2.093464e+00 -2.426357e-01 6.270950e-02
<VARIANCE> 25
 8.111338e+00 2.022914e+01 2.799220e+01 2.508125e+01 3.886359e+01 3.371326e+01 4.456990e+01 3.001869e+01 3.729921e+01 3.874697e+01 2.840559e+01 2.694567e+01 3.504607e+00 2.788854e+00 3.848497e+00 3.995092e+00 5.228601e+00 4.727767e+00 6.607399e+00 5.608821e+00 5.578410e+00 6.856985e+00 4.068391e+00 3.421749e+00 2.208102e-03
<GCONST> 9.788914e+01
<MIXTURE> 70 1.329190e-02
<MEAN> 25
 7.507151e+00 -2.068453e+00 -3.893477e+00 -3.572588e+00 -4.215166e-01 -7.303879e-01 -7.671215e+00 -3.986281e+00 6.206318e-01 2.899976e+00 -1.399094e-01 -4.852616e+00 1.921482e+00 -1.142012e+00 -8.192260e-01 -2.189180e+00 -1.515192e+00 1.177742e+00 -1.327191e+00 -1.051726e-01 3.259465e-01 -2.366878e-02 6.887395e-01 -1.451985e+00 5.855971e-02
<VARIANCE> 25
 9.969020e+00 2.297535e+01 2.820108e+01 4.677023e+01 3.528387e+01 4.472490e+01 4.950391e+01 4.399329e+01 4.699969e+01 3.251490e+01 4.475136e+01 2.758740e+01 3.519872e+00 3.198766e+00 4.799155e+00 4.951917e+00 5.183472e+00 6.418375e+00 6.768010e+00 7.544543e+00 6.156349e+00 5.357777e+00 5.891319e+00 4.302367e+00 2.525210e-03
<GCONST> 1.018401e+02
<MIXTURE> 71 1.406903e-02
<MEAN> 25
 6.395121e+00 5.193767e+00 4.262313e+00 3.114410e+00 -3.461505e+00 -3.421870e+00 -3.425418e+00 -6.645594e+00 -4.660696e+00 -2.508415e+00 -5.238736e+00 -3.238266e+00 -1.577406e+00 -6.979172e-01 -2.508507e-01 -1.778811e+00 1.131533e+00 -1.482996e-01 5.197183e-02 1.534242e+00 3.081342e-01 -1.807137e-01 6.855845e-01 1.853618e-01 4.088310e-02
<VARIANCE> 25
 1.886643e+01 2.566978e+01 2.415268e+01 4.497809e+01 4.074413e+01 4.063016e+01 4.270871e+01 4.157663e+01 3.924011e+01 4.411993e+01 3.654572e+01 3.454248e+01 1.751525e+00 3.043155e+00 5.303781e+00 4.885719e+00 4.712306e+00 4.737048e+00 4.872878e+00 5.415507e+00 4.313166e+00 4.093697e+00 3.631068e+00 3.298554e+00 1.433926e-03
<GCONST> 9.872478e+01
<MIXTURE> 72 8.134747e-03
<MEAN> 25
 3.794567e+00 -3.803688e+00 5.424858e+00 -2.357334e+00 -1.049254e+01 -9.549417e+00 -2.528933e+00 1.985780e+00 -4.978825e+00 -2.274281e+00 -1.798365e+00 5.817785e-01 9.274036e-01 -7.798898e-01 -2.568079e+00 4.688984e-01 2.121027e+00 -6.376497e-01 -1.311541e+00 1.493840e+00 1.803681e+00 -5.962909e-01 -1.268428e+00 3.797384e-01 -6.098109e-03
<VARIANCE> 25
 1.062745e+01 2.013721e+01 3.274223e+01 3.854733e+01 3.225998e+01 3.358889e+01 4.080704e+01 3.617038e+01 4.331558e+01 4.108931e+01 3.895472e+01 2.815463e+01 4.273896e-01 1.017506e+00 2.003329e+00 1.452083e+00 2.172775e+00 2.348316e+00 3.017858e+00 2.799047e+00 2.590321e+00 2.922387e+00 2.043637e+00 2.148458e+00 5.385479e-04
<GCONST> 8.719865e+01
<MIXTURE> 73 1.213625e-02
<MEAN> 25
 -4.995015e+00 -4.320742e-01 -1.277432e+00 4.460722e+00 4.252329e+00 1.923568e+00 4.637774e+00 3.297973e+00 4.325912e+00 3.391798e+00 3.804032e+00 2.798272e+00 5.012131e-01 -1.179303e+00 -4.466648e-01 -2.426140e+00 -1.231326e+00 -1.579097e+00 -6.217225e-01 -9.095457e-01 -1.147434e+00 -6.718656e-01 -1.212955e+00 -1.453858e-01 1.523726e-01
<VARIANCE> 25
 1.449890e+01 1.290617e+01 1.383909e+01 2.183379e+01 2.134948e+01 2.381825e+01 2.414586e+01 1.815420e+01 1.722993e+01 1.770498e+01 2.251865e+01 1.434000e+01 4.271523e+00 3.163115e+00 7.318507e+00 4.696911e+00 5.775770e+00 4.355239e+00 4.460454e+00 4.989954e+00 3.867712e+00 3.789703e+00 3.439652e+00 2.546623e+00 4.041730e-03
<GCONST> 9.251463e+01
<MIXTURE> 74 1.756491e-02
<MEAN> 25
 4.470375e+00 -1.781125e+00 5.422020e+00 -7.610357e-01 -8.974754e+00 -8.360150e+00 -3.038695e+00 7.945656e-01 -4.378639e+00 -2.850268e+00 -1.376398e+00 5.395619e-01 2.425960e-01 2.056916e+00 2.999799e-02 1.632320e+00 1.255141e+00 3.945314e-01 1.033065e-01 -1.298939e+00 2.761621e-01 2.824645e-01 -3.009947e-01 -9.105461e-02 -7.793288e-02
<VARIANCE> 25
 1.124881e+01 2.224464e+01 3.711693e+01 4.037925e+01 3.660260e+01 3.896816e+01 5.189363e+01 4.481328e+01 4.758419e+01 4.302564e+01 4.181731e+01 3.542131e+01 2.145811e+00 2.043737e+00 3.785304e+00 2.646767e+00 3.823884e+00 3.780960e+00 5.143417e+00 4.151968e+00 4.238679e+00 4.080359e+00 3.582677e+00 3.135243e+00 1.703184e-03
<GCONST> 9.713046e+01
<MIXTURE> 75 9.711651e-03
<MEAN> 25
 2.087633e+00 -1.461611e+00 1.033053e+01 2.533029e+00 -1.224161e+01 -8.081529e+00 -4.821698e+00 -1.415813e+00 -5.340538e+00 -3.751206e+00 2.874871e+00 2.012379e-01 1.914391e+00 -1.988820e+00 -2.361917e-01 -1.424054e-02 -2.838267e+00 -3.929309e-01 -1.281119e+00 1.431821e+00 -6.119445e-01 -2.993602e-01 1.228703e+00 -6.540778e-01 4.498652e-02
<VARIANCE> 25
 8.313822e+00 1.693840e+01 2.617988e+01 1.932692e+01 2.537645e+01 2.399986e+01 1.985071e+01 2.565358e+01 2.930714e+01 2.436569e+01 1.518386e+01 1.326557e+01 1.787422e+00 2.000116e+00 3.005861e+00 1.991054e+00 3.743097e+00 2.992358e+00 2.819902e+00 2.456972e+00 4.327530e+00 2.510966e+00 2.607543e+00 1.545306e+00 1.059980e-03
<GCONST> 8.598673e+01
<MIXTURE> 76 1.052359e-02
<MEAN> 25
 -6.446412e+00 -5.947524e-01 -2.275131e+00 3.607307e+00 5.249508e+00 1.562581e+00 4.115865e+00 2.298924e+00 2.986904e+00 9.278226e-01 1.325646e+00 2.506852e+00 -1.812957e-01 -4.876798e-01 -1.606932e-01 -8.023663e-01 -4.776262e-01 -8.068970e-01 -5.302879e-01 -3.166571e-01 -5.157418e-01 -4.532062e-01 -2.221456e-01 -1.518171e-01 2.147662e-02
<VARIANCE> 25
 3.297618e+01 3.111106e+01 2.879005e+01 2.556383e+01 3.672766e+01 3.134285e+01 2.962478e+01 2.724325e+01 2.424961e+01 2.382803e+01 2.549918e+01 1.770189e+01 1.100113e+00 1.024972e+00 1.429821e+00 1.201562e+00 1.600216e+00 1.528826e+00 1.638463e+00 1.748456e+00 1.562724e+00 1.556610e+00 1.337858e+00 1.302606e+00 1.320475e-03
<GCONST> 8.311800e+01
<MIXTURE> 77 1.244626e-02
<MEAN> 25
 -4.532123e-01 8.534134e+00 1.240720e+01 -1.155475e+01 -7.036835e+00 1.033042e+00 -9.183986e+00 -7.220102e+00 -3.400906e+00 -2.246356e-01 -4.653181e+00 -1.495085e+00 7.415001e-02 1.447909e-01 6.236452e-02 2.532664e-01 -3.605437e-03 8.263807e-02 -6.721406e-02 -6.488339e-02 7.532346e-02 -3.220274e-02 1.193520e-02 1.122850e-01 -1.017011e-02
<VARIANCE> 25
 1.038248e+01 2.024465e+01 2.766321e+01 4.175916e+01 3.306453e+01 3.419768e+01 3.751402e+01 3.154741e+01 3.501174e+01 3.304433e+01 3.725519e+01 3.467645e+01 3.014616e-01 7.783354e-01 6.553211e-01 1.079376e+00 1.267970e+00 9.821706e-01 1.216412e+00 1.067085e+00 1.042172e+00 1.076366e+00 9.870245e-01 9.190444e-01 5.431984e-04
<GCONST> 7.785487e+01
<MIXTURE> 78 9.702551e-03
<MEAN> 25
 -1.113481e+01 1.514877e+00 -5.685874e-01 1.750039e+00 4.865647e+00 -2.528455e+00 3.743663e+00 2.907253e+00 2.826807e+00 1.935430e-01 -6.784196e-01 3.298800e+00 2.432524e+00 -3.088037e-01 1.256683e-01 6.812226e-01 -1.857946e-01 -1.358138e-01 -2.520090e-01 -1.876326e-01 2.304618e-01 1.818056e-01 -5.015207e-01 -3.530794e-01 -5.636626e-02
<VARIANCE> 25
 3.928708e+01 3.117470e+01 4.211705e+01 3.074306e+01 3.902325e+01 3.384948e+01 3.453753e+01 3.119164e+01 2.818002e+01 3.085606e+01 2.483094e+01 1.896196e+01 5.202837e+00 2.489474e+00 2.750194e+00 2.862183e+00 2.820197e+00 3.490868e+00 3.087829e+00 2.671592e+00 2.139371e+00 2.393121e+00 2.302228e+00 1.934187e+00 4.380106e-03
<GCONST> 9.403191e+01
<MIXTURE> 79 1.156824e-02
<MEAN> 25
 2.515316e+00 1.882619e+00 8.446105e+00 -6.031960e+00 -1.129791e+01 -2.295147e-01 -1.214270e+00 -6.191464e+00 -6.718632e+00 2.887689e-01 -3.792516e+00 -3.386778e+00 1.252800e+00 -3.848834e-01 -1.412616e+00 2.226394e+00 5.761380e-01 -1.401577e+00 6.478168e-01 6.068868e-01 -3.643310e-01 -3.266895e-01 1.735265e-01 1.327577e-01 -3.651596e-02
<VARIANCE> 25
 1.260400e+01 2.140631e+01 3.568557e+01 4.538487e+01 3.231378e+01 5.073019e+01 3.962685e+01 3.216190e+01 3.385320e+01 3.455613e+01 3.889115e+01 2.654375e+01 8.291743e-01 2.050984e+00 1.635132e+00 1.894814e+00 2.347562e+00 2.566700e+00 2.957549e+00 3.456981e+00 2.206478e+00 2.605814e+00 2.181187e+00 1.885565e+00 1.061684e-03
<GCONST> 8.958896e+01
<MIXTURE> 80 7.550998e-03
<MEAN> 25
 -1.461902e+01 3.999634e+00 7.180064e-01 2.807632e+00 2.508369e+00 1.395574e+00 6.350467e+00 2.499390e+00 2.691195e+00 2.339185e+00 4.785548e+00 1.175704e+00 4.279802e+00 -1.427412e-02 1.629498e+00 -1.110132e+00 -2.873456e+00 -2.773536e+00 -2.317000e+00 -2.021015e+00 -1.963116e+00 -1.678813e+00 -1.647035e+00 -5.971698e-01 -4.415574e-02
<VARIANCE> 25
 2.086053e+01 1.976530e+01 3.436692e+01 3.494268e+01 3.051085e+01 2.903396e+01 2.838294e+01 2.836805e+01 2.667826e+01 2.879041e+01 2.730193e+01 1.802249e+01 2.348063e+00 2.649974e+00 2.664884e+00 4.179874e+00 3.409473e+00 2.689985e+00 3.012059e+00 3.184514e+00 2.749289e+00 2.690890e+00 2.767343e+00 2.135470e+00 1.502602e-03
<GCONST> 9.137242e+01
<MIXTURE> 81 8.025434e-03
<MEAN> 25
 -1.114515e+00 4.063286e+00 1.017236e+01 -1.478462e+01 -9.084033e+00 -1.401877e+00 -6.750597e+00 -8.420227e+00 -4.155305e+00 -4.213565e-01 -7.568954e+00 -2.247411e+00 1.350694e-01 -5.842854e-01 -4.861673e-03 -5.544690e-01 -4.592751e-01 3.357469e-01 3.186027e-01 1.358442e-01 -1.415861e-01 1.091028e-01 -4.716190e-01 -1.261909e-01 1.141965e-02
<VARIANCE> 25
 1.014492e+01 3.276008e+01 2.643440e+01 2.942935e+01 3.365139e+01 3.070373e+01 4.552227e+01 2.822415e+01 3.793256e+01 3.185097e+01 2.527265e+01 3.099828e+01 7.717523e-01 2.278149e+00 1.546221e+00 2.869921e+00 2.671377e+00 2.123107e+00 3.276262e+00 2.284650e+00 2.352175e+00 2.538036e+00 2.297059e+00 2.075266e+00 1.186185e-03
<GCONST> 8.868331e+01
<MIXTURE> 82 8.213053e-03
<MEAN> 25
 -9.092090e+00 -3.292815e+00 2.288099e+00 -3.380854e+00 3.468882e+00 -3.344510e-01 2.163350e+00 -6.618489e-01 2.473927e+00 1.224545e+00 5.937718e-01 3.614147e+00 -1.591934e+00 -1.892936e-01 9.494091e-01 -2.279333e+00 -1.047892e+00 -1.214542e+00 -5.879549e-01 -1.382712e+00 -6.006958e-01 -4.980726e-01 -4.738913e-01 -1.290701e-01 1.613679e-01
<VARIANCE> 25
 1.717993e+01 2.920710e+01 2.848537e+01 2.634565e+01 3.560950e+01 2.841202e+01 2.551079e+01 3.848478e+01 2.740015e+01 2.519666e+01 3.293444e+01 1.566899e+01 3.275254e+00 2.636632e+00 3.851337e+00 3.258218e+00 3.200531e+00 3.012574e+00 2.968812e+00 3.437580e+00 2.518600e+00 1.962262e+00 2.165375e+00 1.502767e+00 3.475971e-03
<GCONST> 9.176840e+01
<MIXTURE> 83 1.167529e-02
<MEAN> 25
 -1.972023e+01 6.032446e+00 1.763465e-01 -2.328508e+00 8.220356e+00 -4.041851e-01 4.391845e+00 3.879368e+00 8.972296e-01 1.404359e+00 -2.636575e-02 2.791385e+00 -1.167317e-01 -3.381002e-01 1.377106e-02 -3.386868e-01 -8.066252e-01 -3.273904e-01 -5.263342e-02 -4.684806e-01 -2.221372e-01 -1.017727e-01 -1.623676e-01 5.380864e-02 2.075625e-03
<VARIANCE> 25
 7.003007e+00 1.289732e+01 2.967401e+01 2.545369e+01 1.893809e+01 2.009184e+01 2.212708e+01 2.037705e+01 1.737760e+01 1.849514e+01 1.981976e+01 1.152478e+01 9.536527e-01 7.906120e-01 9.334698e-01 1.121361e+00 1.753601e+00 1.125054e+00 1.068257e+00 1.430843e+00 1.241878e+00 1.075313e+00 9.688876e-01 9.888412e-01 8.146463e-04
<GCONST> 7.433470e+01
<MIXTURE> 84 1.066614e-02
<MEAN> 25
 1.219756e+00 8.799127e+00 6.905570e+00 7.645938e+00 2.578816e+00 -8.188583e-01 -7.795394e-01 -4.703912e+00 -4.194783e+00 -2.968533e+00 -2.884992e+00 -1.293746e+00 -1.713434e+00 -1.078853e+00 -1.213097e+00 1.207379e+00 2.229807e+00 1.385423e+00 1.289406e+00 1.371072e+00 1.202031e+00 3.616119e-01 4.421955e-01 4.401429e-01 -7.114024e-02
<VARIANCE> 25
 2.393406e+01 1.728942e+01 2.102460e+01 2.308663e+01 2.804005e+01 2.670942e+01 3.353451e+01 2.520441e+01 2.330394e+01 2.307691e+01 2.400903e+01 2.351445e+01 2.070636e+00 2.418587e+00 3.546681e+00 3.118743e+00 3.060216e+00 3.213456e+00 3.310102e+00 3.296487e+00 3.432503e+00 2.997959e+00 3.299129e+00 2.563292e+00 3.277136e-03
<GCONST> 9.157455e+01
<MIXTURE> 85 7.591393e-03
<MEAN> 25
 -3.168236e+00 7.860301e+00 5.773695e+00 1.233805e+00 -3.451885e+00 -5.331569e+00 -2.953047e+00 -6.155553e+00 -3.494419e+00 -3.197339e+00 -4.959640e-01 -1.858277e+00 3.916952e+00 3.131037e-01 1.765561e+00 -2.046418e+00 -3.424257e+00 -2.574114e+00 -2.872060e+00 -2.326722e+00 -2.238533e+00 -1.252010e+00 -2.272800e+00 -6.158897e-01 9.714969e-03
<VARIANCE> 25
 4.247903e+01 2.330790e+01 3.645503e+01 3.823861e+01 3.968631e+01 4.081981e+01 3.197751e+01 2.782494e+01 2.665898e+01 2.594144e+01 2.616188e+01 2.053392e+01 2.780225e+00 4.313595e+00 4.073366e+00 5.332955e+00 4.390232e+00 3.851261e+00 3.833173e+00 4.005895e+00 3.838094e+00 4.020153e+00 3.992001e+00 3.453411e+00 5.423956e-03
<GCONST> 9.835611e+01
<MIXTURE> 86 1.273941e-02
<MEAN> 25
 -4.479704e+00 -2.519036e-01 -9.226608e-01 5.794009e+00 5.965372e+00 4.670335e+00 4.988504e+00 5.074789e+00 5.243531e+00 3.226442e+00 4.127808e+00 2.760413e+00 2.705736e-02 -1.728268e-02 -4.521139e-02 -1.081349e-01 -5.696787e-02 -8.623947e-02 -3.125313e-01 -3.547156e-01 -4.110529e-01 -2.534907e-01 -2.519384e-01 -2.206546e-01 -1.534153e-03
<VARIANCE> 25
 7.681719e+00 7.825977e+00 8.655787e+00 1.140391e+01 1.692294e+01 1.348037e+01 1.210332e+01 1.259809e+01 1.328783e+01 1.387185e+01 1.765183e+01 1.388596e+01 1.234446e-01 1.604694e-01 2.985416e-01 4.322641e-01 5.992004e-01 7.996517e-01 7.015029e-01 7.306138e-01 7.524578e-01 8.016878e-01 8.128375e-01 8.724363e-01 6.371293e-05
<GCONST> 5.792718e+01
<MIXTURE> 87 1.100681e-02
<MEAN> 25
 -3.322188e+00 4.545289e+00 3.524004e+00 6.974734e+00 5.562001e+00 8.914801e-01 1.631892e+00 -9.412704e-01 -5.656958e-01 -8.911572e-01 -7.783129e-01 3.323245e-02 -2.154033e+00 -2.772758e+00 -2.090207e+00 -2.224472e+00 -2.446129e-02 -1.793368e-01 6.085919e-01 1.292455e+00 1.397370e+00 1.019000e+00 9.454045e-01 1.001821e+00 1.042911e-01
<VARIANCE> 25
 3.810017e+01 2.940237e+01 2.812415e+01 3.408613e+01 2.865144e+01 3.179219e+01 2.808141e+01 2.725958e+01 2.597392e+01 2.460133e+01 2.479482e+01 2.307018e+01 3.850087e+00 2.744005e+00 3.934879e+00 3.644894e+00 4.816252e+00 4.297527e+00 4.142466e+00 3.908249e+00 3.537740e+00 3.408377e+00 3.372136e+00 2.724048e+00 4.977188e-03
<GCONST> 9.633739e+01
<MIXTURE> 88 1.256585e-02
<MEAN> 25
 -3.406199e+00 9.541311e-01 -1.359586e+00 4.642871e+00 5.246634e+00 2.187650e+00 4.777958e+00 4.571090e+00 5.435130e+00 1.900492e+00 1.403741e+00 2.724593e+00 -2.248091e-01 1.632734e-01 1.737767e-01 3.408098e-01 5.320303e-01 2.098128e-01 -4.421168e-02 -6.822628e-02 -1.933985e-01 -7.401250e-02 6.487647e-02 1.817857e-01 -6.429587e-04
<VARIANCE> 25
 7.723066e+00 9.841923e+00 1.127049e+01 1.196336e+01 1.456531e+01 1.581200e+01 1.819695e+01 1.409364e+01 1.706442e+01 1.532101e+01 1.650544e+01 1.346611e+01 1.061133e+00 1.544528e+00 1.528579e+00 1.977582e+00 2.948330e+00 3.614988e+00 2.881464e+00 2.692591e+00 1.912316e+00 2.803372e+00 1.873057e+00 1.745060e+00 1.581047e-03
<GCONST> 7.956751e+01
<MIXTURE> 89 9.333527e-03
<MEAN> 25
 6.054627e+00 -6.781789e+00 -3.565649e+00 -3.160441e+00 -1.579201e+00 -5.562951e+00 -6.075503e+00 4.105942e+00 3.501952e+00 -2.790910e+00 -6.033411e+00 -3.284972e+00 -5.735958e-01 1.614936e-01 1.981213e+00 9.019159e-01 -1.862074e+00 -1.642300e+00 8.861148e-01 1.266354e+00 -7.809111e-01 -1.314126e+00 4.109017e-01 1.530832e+00 -4.889863e-03
<VARIANCE> 25
 9.058460e+00 2.706448e+01 3.091712e+01 3.005917e+01 3.611050e+01 4.162217e+01 5.971947e+01 4.194647e+01 3.901384e+01 4.225049e+01 3.568103e+01 3.223534e+01 3.541946e-01 8.415229e-01 1.483752e+00 1.310491e+00 1.919109e+00 2.124312e+00 2.578815e+00 2.033267e+00 2.250012e+00 2.117764e+00 2.328946e+00 1.471158e+00 3.651022e-04
<GCONST> 8.527404e+01
<MIXTURE> 90 7.114505e-03
<MEAN> 25
 2.454009e+00 -9.720770e+00 -4.758077e+00 -3.977350e+00 -3.387321e+00 -1.806837e+00 3.368413e+00 1.176219e+00 -7.532146e+00 -1.021288e+01 -3.427183e+00 -7.410228e-01 -1.635078e-01 9.096315e-01 1.168022e+00 -8.534251e-01 -1.612605e+00 -2.124067e-01 6.454948e-01 -2.095523e-01 -1.682536e-01 7.358924e-01 1.815368e-01 -5.498699e-01 -1.116049e-02
<VARIANCE> 25
 8.537280e+00 1.778943e+01 1.981830e+01 2.800430e+01 3.683813e+01 3.222318e+01 3.850474e+01 3.642331e+01 3.519299e+01 2.770370e+01 2.699788e+01 2.612566e+01 2.236564e-01 6.128762e-01 7.872028e-01 1.042625e+00 1.469603e+00 1.591173e+00 1.779909e+00 1.653824e+00 1.809847e+00 1.679616e+00 1.497819e+00 1.307900e+00 2.150598e-04
<GCONST> 7.813921e+01
<MIXTURE> 91 7.852945e-03
<MEAN> 25
 6.273650e+00 -7.389656e+00 -8.645853e+00 -4.995138e+00 3.680459e+00 2.814520e-01 -1.819940e+00 4.188045e-01 9.652092e-01 -2.167929e+00 -4.597532e+00 -5.369242e+00 2.100244e-01 1.011208e+00 2.004653e-01 4.748211e-01 -1.098552e-02 -5.655115e-01 -3.586640e-01 -9.326664e-02 9.558626e-03 3.883704e-01 -1.760289e-01 2.781714e-01 -3.572966e-02
<VARIANCE> 25
 1.033906e+01 2.295097e+01 1.876908e+01 3.764473e+01 3.395218e+01 5.271613e+01 5.446832e+01 3.906220e+01 4.939295e+01 6.565140e+01 3.875734e+01 3.865156e+01 4.503995e-01 8.224141e-01 1.138194e+00 1.303138e+00 2.084453e+00 2.206546e+00 2.511667e+00 2.239226e+00 2.259307e+00 2.090584e+00 1.904662e+00 2.126937e+00 5.787013e-04
<GCONST> 8.667619e+01
<MIXTURE> 92 7.852945e-03
<MEAN> 25
 6.273650e+00 -7.389656e+00 -8.645853e+00 -4.995138e+00 3.680459e+00 2.814520e-01 -1.819940e+00 4.188045e-01 9.652092e-01 -2.167929e+00 -4.597532e+00 -5.369242e+00 2.100244e-01 1.011208e+00 2.004653e-01 4.748211e-01 -1.098552e-02 -5.655115e-01 -3.586640e-01 -9.326664e-02 9.558626e-03 3.883704e-01 -1.760289e-01 2.781714e-01 -3.572966e-02
<VARIANCE> 25
 1.033906e+01 2.295097e+01 1.876908e+01 3.764473e+01 3.395218e+01 5.271613e+01 5.446832e+01 3.906220e+01 4.939295e+01 6.565140e+01 3.875734e+01 3.865156e+01 4.503995e-01 8.224141e-01 1.138194e+00 1.303138e+00 2.084453e+00 2.206546e+00 2.511667e+00 2.239226e+00 2.259307e+00 2.090584e+00 1.904662e+00 2.126937e+00 5.787013e-04
<GCONST> 8.667619e+01
<MIXTURE> 93 6.122769e-03
<MEAN> 25
 -6.664797e+00 -7.931138e-01 -2.413868e+00 5.639691e+00 5.999506e+00 3.911908e+00 5.970093e+00 3.644486e+00 4.164787e+00 2.328993e+00 1.666566e+00 3.734795e+00 -5.806280e-02 -1.496803e-01 -2.630761e-01 -3.591577e-01 -3.339851e-01 -2.824788e-01 -2.253681e-01 -1.768881e-01 -1.489727e-01 -1.723221e-01 -1.228287e-01 -1.692104e-02 2.549209e-05
<VARIANCE> 25
 9.349354e+00 6.464097e+00 7.985431e+00 1.162034e+01 1.134557e+01 1.567360e+01 1.549935e+01 1.606386e+01 1.423730e+01 1.518150e+01 1.688680e+01 1.305769e+01 8.069008e-02 1.541983e-01 2.551346e-01 4.030788e-01 4.900660e-01 6.439433e-01 7.874437e-01 8.572942e-01 9.068817e-01 8.668041e-01 8.891615e-01 9.112495e-01 1.084062e-06
<GCONST> 5.365545e+01
<MIXTURE> 94 6.122769e-03
<MEAN> 25
 -6.664797e+00 -7.931138e-01 -2.413868e+00 5.639691e+00 5.999506e+00 3.911908e+00 5.970093e+00 3.644486e+00 4.164787e+00 2.328993e+00 1.666566e+00 3.734795e+00 -5.806280e-02 -1.496803e-01 -2.630761e-01 -3.591577e-01 -3.339851e-01 -2.824788e-01 -2.253681e-01 -1.768881e-01 -1.489727e-01 -1.723221e-01 -1.228287e-01 -1.692104e-02 2.549209e-05
<VARIANCE> 25
 9.349354e+00 6.464097e+00 7.985431e+00 1.162034e+01 1.134557e+01 1.567360e+01 1.549935e+01 1.606386e+01 1.423730e+01 1.518150e+01 1.688680e+01 1.305769e+01 8.069008e-02 1.541983e-01 2.551346e-01 4.030788e-01 4.900660e-01 6.439433e-01 7.874437e-01 8.572942e-01 9.068817e-01 8.668041e-01 8.891615e-01 9.112495e-01 1.084062e-06
<GCONST> 5.365545e+01
<MIXTURE> 95 5.258835e-03
<MEAN> 25
 -5.579716e+00 -4.436261e-01 -2.070470e+00 4.507365e+00 4.702816e+00 2.757500e+00 3.926814e+00 2.082107e+00 2.551274e+00 7.717168e-01 6.724385e-01 2.678345e+00 1.615898e-01 1.189208e-01 4.359428e-02 -1.047283e-01 -4.186185e-01 -7.495527e-01 -9.905242e-01 -1.209659e+00 -1.204641e+00 -1.017559e+00 -6.399589e-01 -1.687263e-01 -6.809940e-04
<VARIANCE> 25
 9.946014e+00 6.892444e+00 1.141635e+01 1.356148e+01 1.491089e+01 1.784544e+01 1.712468e+01 1.735233e+01 1.540007e+01 1.495128e+01 2.122775e+01 1.446021e+01 2.004075e-01 2.779131e-01 4.533218e-01 5.891228e-01 7.793959e-01 8.797439e-01 8.932137e-01 9.022701e-01 9.267855e-01 1.098325e+00 1.077041e+00 1.376660e+00 4.541415e-05
<GCONST> 6.327146e+01
<MIXTURE> 96 7.034694e-03
<MEAN> 25
 -4.997656e+00 -3.046541e-01 -2.242369e+00 5.060787e+00 4.135414e+00 1.952965e+00 3.387054e+00 1.861602e+00 2.512154e+00 7.910268e-01 1.145769e+00 3.028979e+00 -3.281687e-02 9.439137e-02 2.351515e-01 4.059820e-01 5.245085e-01 4.987929e-01 2.328713e-01 -1.346299e-01 -4.845021e-01 -6.118740e-01 -5.783929e-01 -3.916967e-01 -6.467848e-05
<VARIANCE> 25
 1.085109e+01 9.910114e+00 1.240245e+01 1.402775e+01 1.645043e+01 1.967023e+01 1.814369e+01 1.870584e+01 1.750017e+01 1.665933e+01 1.919934e+01 1.504275e+01 1.168874e-01 2.159306e-01 3.222703e-01 3.859334e-01 4.832866e-01 6.371625e-01 8.459331e-01 9.619815e-01 9.617752e-01 8.836638e-01 8.912402e-01 9.495696e-01 1.167684e-06
<GCONST> 5.759349e+01
<MIXTURE> 97 7.034694e-03
<MEAN> 25
 -4.997656e+00 -3.046541e-01 -2.242369e+00 5.060787e+00 4.135414e+00 1.952965e+00 3.387054e+00 1.861602e+00 2.512154e+00 7.910268e-01 1.145769e+00 3.028979e+00 -3.281687e-02 9.439137e-02 2.351515e-01 4.059820e-01 5.245085e-01 4.987929e-01 2.328713e-01 -1.346299e-01 -4.845021e-01 -6.118740e-01 -5.783929e-01 -3.916967e-01 -6.467848e-05
<VARIANCE> 25
 1.085109e+01 9.910114e+00 1.240245e+01 1.402775e+01 1.645043e+01 1.967023e+01 1.814369e+01 1.870584e+01 1.750017e+01 1.665933e+01 1.919934e+01 1.504275e+01 1.168874e-01 2.159306e-01 3.222703e-01 3.859334e-01 4.832866e-01 6.371625e-01 8.459331e-01 9.619815e-01 9.617752e-01 8.836638e-01 8.912402e-01 9.495696e-01 1.167684e-06
<GCONST> 5.759349e+01
<MIXTURE> 98 9.917808e-03
<MEAN> 25
 -7.972633e-01 1.581779e+00 -3.059635e-01 4.011877e+00 3.640306e+00 2.398298e+00 3.630340e+00 1.896019e+00 2.081947e+00 4.371777e-01 -2.837853e-01 8.887289e-01 -1.744997e+00 -1.195721e+00 -9.123071e-01 1.586037e-01 7.621237e-01 6.484571e-01 7.634488e-01 1.803892e+00 1.899016e+00 9.823634e-01 1.333632e+00 9.198496e-01 -3.893508e-02
<VARIANCE> 25
 1.372548e+01 1.795030e+01 2.629149e+01 2.704195e+01 3.535405e+01 2.962887e+01 3.032137e+01 2.548853e+01 2.526104e+01 2.692660e+01 2.539852e+01 1.950392e+01 1.123327e+00 1.516094e+00 1.942160e+00 2.020476e+00 2.530844e+00 2.427910e+00 3.529199e+00 2.878741e+00 2.551972e+00 2.620128e+00 2.243899e+00 1.825933e+00 2.211829e-03
<GCONST> 8.758237e+01
<MIXTURE> 99 6.696178e-03
<MEAN> 25
 -6.552011e+00 9.369052e+00 5.989715e+00 3.612255e+00 2.507813e+00 -5.004818e+00 -1.916634e+00 -4.298243e+00 -3.462484e+00 -3.851985e+00 -2.162925e+00 1.925949e+00 8.993027e-01 -5.915001e-01 1.872084e-01 9.345540e-02 -1.282353e+00 -6.338642e-01 -1.806034e-01 -2.254637e-01 -2.918389e-01 -1.472346e-01 3.429263e-01 1.477762e-01 8.441822e-03
<VARIANCE> 25
 2.432692e+01 1.744902e+01 3.579740e+01 2.372112e+01 2.790798e+01 2.546603e+01 1.969573e+01 1.994802e+01 1.950495e+01 1.938499e+01 1.668367e+01 2.203942e+01 2.055223e+00 1.473334e+00 1.821462e+00 2.114781e+00 2.662196e+00 1.836880e+00 1.188867e+00 1.692719e+00 1.186772e+00 1.209257e+00 1.139669e+00 1.092713e+00 1.465628e-03
<GCONST> 8.192247e+01
<MIXTURE> 100 4.498084e-03
<MEAN> 25
 -1.624434e+00 6.222241e+00 1.035679e+01 -7.212487e+00 -1.072848e+01 -5.125303e+00 -4.909447e+00 -9.902965e+00 -4.583473e+00 -8.242103e-01 -2.698891e+00 -2.613588e+00 2.924477e+00 -1.208342e+00 1.256660e+00 -2.062849e+00 -3.487407e+00 -7.630086e-01 -1.237283e+00 -7.536284e-01 -1.461556e+00 2.990603e-01 -1.571478e+00 -3.170108e-01 2.775571e-03
<VARIANCE> 25
 1.345765e+01 2.078144e+01 2.195299e+01 2.728060e+01 2.295525e+01 2.304112e+01 2.830683e+01 2.133311e+01 2.718624e+01 2.213340e+01 2.207015e+01 2.089696e+01 1.746287e+00 3.967116e+00 2.946842e+00 4.616407e+00 4.180274e+00 4.419236e+00 3.891632e+00 4.318803e+00 4.067534e+00 3.851890e+00 3.984941e+00 3.145725e+00 1.642489e-03
<GCONST> 9.233607e+01
<MIXTURE> 101 6.007792e-03
<MEAN> 25
 8.297408e+00 -5.057204e+00 -6.636307e+00 -5.142006e+00 -6.185331e-01 -7.825812e-01 -1.000330e+01 -2.485681e+00 1.468569e+00 2.772385e+00 -9.305328e-01 -4.959352e+00 7.298297e-01 7.626502e-01 -1.575990e+00 -1.682476e+00 1.074246e+00 2.481688e+00 3.403118e-01 -1.844941e+00 -1.403986e+00 1.136599e+00 1.679214e+00 -4.789402e-01 -4.165175e-03
<VARIANCE> 25
 7.818956e+00 2.165819e+01 2.474045e+01 4.659674e+01 3.755341e+01 3.268076e+01 3.098190e+01 3.440809e+01 3.469101e+01 3.951915e+01 5.131034e+01 2.188527e+01 2.948787e-01 7.091672e-01 1.082630e+00 1.351176e+00 1.543316e+00 1.816963e+00 2.060825e+00 2.233246e+00 2.579787e+00 1.953802e+00 2.165895e+00 1.795201e+00 2.941714e-04
<GCONST> 8.267731e+01
<MIXTURE> 102 6.007792e-03
<MEAN> 25
 8.297408e+00 -5.057204e+00 -6.636307e+00 -5.142006e+00 -6.185331e-01 -7.825812e-01 -1.000330e+01 -2.485681e+00 1.468569e+00 2.772385e+00 -9.305328e-01 -4.959352e+00 7.298297e-01 7.626502e-01 -1.575990e+00 -1.682476e+00 1.074246e+00 2.481688e+00 3.403118e-01 -1.844941e+00 -1.403986e+00 1.136599e+00 1.679214e+00 -4.789402e-01 -4.165175e-03
<VARIANCE> 25
 7.818956e+00 2.165819e+01 2.474045e+01 4.659674e+01 3.755341e+01 3.268076e+01 3.098190e+01 3.440809e+01 3.469101e+01 3.951915e+01 5.131034e+01 2.188527e+01 2.948787e-01 7.091672e-01 1.082630e+00 1.351176e+00 1.543316e+00 1.816963e+00 2.060825e+00 2.233246e+00 2.579787e+00 1.953802e+00 2.165895e+00 1.795201e+00 2.941714e-04
<GCONST> 8.267731e+01
<MIXTURE> 103 5.694618e-03
<MEAN> 25
 3.373159e+00 -9.477632e+00 -6.131262e+00 -3.083560e+00 -1.349979e+00 -1.966537e+00 2.435778e+00 2.516021e+00 -4.613576e+00 -9.251959e+00 -5.054222e+00 3.580202e-01 -1.572907e-01 -1.486708e+00 -9.820705e-01 3.753310e-01 1.214036e+00 1.020544e+00 1.574847e-01 -2.689050e-01 -7.795992e-01 -9.451271e-01 -3.339453e-02 1.186748e-01 2.691637e-02
<VARIANCE> 25
 1.036241e+01 2.033409e+01 2.294556e+01 3.168452e+01 4.819695e+01 3.501120e+01 4.643788e+01 3.673111e+01 4.207276e+01 2.931249e+01 3.007458e+01 2.638941e+01 6.435773e-01 1.253908e+00 1.537583e+00 1.938072e+00 2.924978e+00 2.407507e+00 2.887820e+00 2.577129e+00 2.562692e+00 2.523325e+00 2.098898e+00 2.016599e+00 8.072384e-04
<GCONST> 8.757721e+01
<MIXTURE> 104 5.694618e-03
<MEAN> 25
 3.373159e+00 -9.477632e+00 -6.131262e+00 -3.083560e+00 -1.349979e+00 -1.966537e+00 2.435778e+00 2.516021e+00 -4.613576e+00 -9.251959e+00 -5.054222e+00 3.580202e-01 -1.572907e-01 -1.486708e+00 -9.820705e-01 3.753310e-01 1.214036e+00 1.020544e+00 1.574847e-01 -2.689050e-01 -7.795992e-01 -9.451271e-01 -3.339453e-02 1.186748e-01 2.691637e-02
<VARIANCE> 25
 1.036241e+01 2.033409e+01 2.294556e+01 3.168452e+01 4.819695e+01 3.501120e+01 4.643788e+01 3.673111e+01 4.207276e+01 2.931249e+01 3.007458e+01 2.638941e+01 6.435773e-01 1.253908e+00 1.537583e+00 1.938072e+00 2.924978e+00 2.407507e+00 2.887820e+00 2.577129e+00 2.562692e+00 2.523325e+00 2.098898e+00 2.016599e+00 8.072384e-04
<GCONST> 8.757721e+01
<MIXTURE> 105 4.710235e-03
<MEAN> 25
 2.226439e+00 -1.593629e+00 9.179854e+00 -2.588673e+00 -1.161304e+01 -5.068707e+00 -4.216277e+00 -6.885916e-01 -3.898915e+00 -3.238698e+00 1.603523e+00 -1.133102e+00 1.289388e-02 2.095836e-02 3.809413e-02 -3.346149e-02 5.878979e-03 5.193084e-02 -2.551432e-02 5.801360e-02 -3.394997e-02 1.970046e-02 3.458526e-02 -1.477358e-02 -1.992770e-03
<VARIANCE> 25
 1.323110e+01 2.909954e+01 4.062434e+01 4.483825e+01 3.801162e+01 5.337259e+01 4.075849e+01 4.348503e+01 3.958313e+01 4.172268e+01 4.205674e+01 3.038775e+01 8.361208e-02 1.914759e-01 3.474651e-01 2.972756e-01 3.748358e-01 4.360761e-01 4.772043e-01 4.939914e-01 4.897220e-01 4.485338e-01 4.253577e-01 4.130996e-01 9.097405e-05
<GCONST> 6.684490e+01
<MIXTURE> 106 4.710235e-03
<MEAN> 25
 2.226439e+00 -1.593629e+00 9.179854e+00 -2.588673e+00 -1.161304e+01 -5.068707e+00 -4.216277e+00 -6.885916e-01 -3.898915e+00 -3.238698e+00 1.603523e+00 -1.133102e+00 1.289388e-02 2.095836e-02 3.809413e-02 -3.346149e-02 5.878979e-03 5.193084e-02 -2.551432e-02 5.801360e-02 -3.394997e-02 1.970046e-02 3.458526e-02 -1.477358e-02 -1.992770e-03
<VARIANCE> 25
 1.323110e+01 2.909954e+01 4.062434e+01 4.483825e+01 3.801162e+01 5.337259e+01 4.075849e+01 4.348503e+01 3.958313e+01 4.172268e+01 4.205674e+01 3.038775e+01 8.361208e-02 1.914759e-01 3.474651e-01 2.972756e-01 3.748358e-01 4.360761e-01 4.772043e-01 4.939914e-01 4.897220e-01 4.485338e-01 4.253577e-01 4.130996e-01 9.097405e-05
<GCONST> 6.684490e+01
<MIXTURE> 107 5.452374e-03
<MEAN> 25
 8.684528e+00 -2.575312e+00 -8.539058e+00 -9.040313e+00 1.466561e+00 3.224384e+00 -8.089522e+00 -5.181021e+00 -1.274085e+00 3.674454e+00 1.421797e+00 -5.484876e+00 -6.152571e-01 -7.456425e-01 7.237800e-01 1.634802e+00 1.928867e-01 -1.835261e+00 -8.040737e-01 7.899895e-01 1.642261e+00 1.532173e-01 -1.519419e+00 -9.076127e-01 -2.816861e-03
<VARIANCE> 25
 8.506491e+00 1.943027e+01 2.761239e+01 4.132025e+01 3.359718e+01 3.528125e+01 4.821611e+01 3.556961e+01 4.218531e+01 3.777567e+01 4.808010e+01 2.925838e+01 3.191437e-01 9.001554e-01 1.398862e+00 2.298885e+00 2.358719e+00 2.806322e+00 2.899288e+00 2.334486e+00 2.179806e+00 2.838417e+00 1.936548e+00 2.200599e+00 6.800322e-04
<GCONST> 8.694374e+01
<MIXTURE> 108 5.452374e-03
<MEAN> 25
 8.684528e+00 -2.575312e+00 -8.539058e+00 -9.040313e+00 1.466561e+00 3.224384e+00 -8.089522e+00 -5.181021e+00 -1.274085e+00 3.674454e+00 1.421797e+00 -5.484876e+00 -6.152571e-01 -7.456425e-01 7.237800e-01 1.634802e+00 1.928867e-01 -1.835261e+00 -8.040737e-01 7.899895e-01 1.642261e+00 1.532173e-01 -1.519419e+00 -9.076127e-01 -2.816861e-03
<VARIANCE> 25
 8.506491e+00 1.943027e+01 2.761239e+01 4.132025e+01 3.359718e+01 3.528125e+01 4.821611e+01 3.556961e+01 4.218531e+01 3.777567e+01 4.808010e+01 2.925838e+01 3.191437e-01 9.001554e-01 1.398862e+00 2.298885e+00 2.358719e+00 2.806322e+00 2.899288e+00 2.334486e+00 2.179806e+00 2.838417e+00 1.936548e+00 2.200599e+00 6.800322e-04
<GCONST> 8.694374e+01
<MIXTURE> 109 6.661064e-03
<MEAN> 25
 4.085155e+00 -1.052908e+01 -8.299805e+00 -1.358964e+00 2.735731e+00 -3.384431e-02 -6.587809e-02 1.449113e+00 -2.568767e+00 -8.354414e+00 -5.376624e+00 5.557225e-02 -3.320722e-02 -1.306270e-01 -3.324983e-02 2.512453e-01 1.963683e-01 1.180897e-01 -1.255142e-01 -1.050594e-01 -3.975945e-02 -1.327959e-01 2.194292e-01 1.280492e-02 -3.520214e-03
<VARIANCE> 25
 9.133639e+00 1.841394e+01 2.003354e+01 3.136452e+01 4.103650e+01 3.674314e+01 4.656242e+01 3.440610e+01 4.603076e+01 3.540560e+01 2.960869e+01 2.817891e+01 1.932065e-01 4.244442e-01 5.393994e-01 6.334163e-01 1.230097e+00 9.929299e-01 1.257878e+00 1.092987e+00 1.115510e+00 9.527705e-01 8.777559e-01 8.861083e-01 1.819209e-04
<GCONST> 7.447649e+01
<MIXTURE> 110 6.661064e-03
<MEAN> 25
 4.085155e+00 -1.052908e+01 -8.299805e+00 -1.358964e+00 2.735731e+00 -3.384431e-02 -6.587809e-02 1.449113e+00 -2.568767e+00 -8.354414e+00 -5.376624e+00 5.557225e-02 -3.320722e-02 -1.306270e-01 -3.324983e-02 2.512453e-01 1.963683e-01 1.180897e-01 -1.255142e-01 -1.050594e-01 -3.975945e-02 -1.327959e-01 2.194292e-01 1.280492e-02 -3.520214e-03
<VARIANCE> 25
 9.133639e+00 1.841394e+01 2.003354e+01 3.136452e+01 4.103650e+01 3.674314e+01 4.656242e+01 3.440610e+01 4.603076e+01 3.540560e+01 2.960869e+01 2.817891e+01 1.932065e-01 4.244442e-01 5.393994e-01 6.334163e-01 1.230097e+00 9.929299e-01 1.257878e+00 1.092987e+00 1.115510e+00 9.527705e-01 8.777559e-01 8.861083e-01 1.819209e-04
<GCONST> 7.447649e+01
<MIXTURE> 111 4.337247e-03
<MEAN> 25
 -4.443129e+00 -8.342009e-01 -1.730948e+00 1.698454e+00 1.090154e+00 1.019213e+00 3.377033e-01 2.595651e-01 1.556030e-01 -5.685685e-01 -6.656722e-01 1.991413e+00 -2.073581e-02 -3.085339e-02 -7.209055e-02 -8.349093e-02 -3.892645e-02 4.395807e-03 -7.128612e-03 -6.268315e-02 -1.383138e-01 -2.040964e-01 -1.918898e-01 -1.036435e-01 -2.135259e-04
<VARIANCE> 25
 6.972007e+00 5.246518e+00 1.009414e+01 9.314561e+00 1.397973e+01 2.391746e+01 1.455415e+01 1.319106e+01 1.196316e+01 1.192121e+01 1.359809e+01 1.177116e+01 7.918384e-02 1.628907e-01 2.750074e-01 4.292324e-01 5.656451e-01 7.010026e-01 7.998062e-01 8.482559e-01 8.920077e-01 8.536536e-01 8.534778e-01 8.532936e-01 2.256940e-05
<GCONST> 5.610643e+01
<MIXTURE> 112 4.337247e-03
<MEAN> 25
 -4.443129e+00 -8.342009e-01 -1.730948e+00 1.698454e+00 1.090154e+00 1.019213e+00 3.377033e-01 2.595651e-01 1.556030e-01 -5.685685e-01 -6.656722e-01 1.991413e+00 -2.073581e-02 -3.085339e-02 -7.209055e-02 -8.349093e-02 -3.892645e-02 4.395807e-03 -7.128612e-03 -6.268315e-02 -1.383138e-01 -2.040964e-01 -1.918898e-01 -1.036435e-01 -2.135259e-04
<VARIANCE> 25
 6.972007e+00 5.246518e+00 1.009414e+01 9.314561e+00 1.397973e+01 2.391746e+01 1.455415e+01 1.319106e+01 1.196316e+01 1.192121e+01 1.359809e+01 1.177116e+01 7.918384e-02 1.628907e-01 2.750074e-01 4.292324e-01 5.656451e-01 7.010026e-01 7.998062e-01 8.482559e-01 8.920077e-01 8.536536e-01 8.534778e-01 8.532936e-01 2.256940e-05
<GCONST> 5.610643e+01
<MIXTURE> 113 5.938666e-03
<MEAN> 25
 1.003381e+01 1.390213e+00 -8.964214e+00 -1.624352e+01 -1.202955e+00 5.760828e+00 -5.080838e+00 -2.024925e+00 -5.669324e+00 -2.069705e-01 5.978143e-01 -4.085037e-01 -6.637720e-03 3.338411e-02 -9.996883e-02 -1.473768e-01 6.059392e-02 2.027852e-01 9.329347e-02 1.737333e-02 -1.362159e-02 -4.959925e-02 1.226956e-01 -5.771014e-02 -9.337526e-04
<VARIANCE> 25
 8.269629e+00 1.686195e+01 2.792254e+01 3.997667e+01 5.143721e+01 3.157838e+01 4.073774e+01 4.022585e+01 3.469321e+01 4.478651e+01 3.645529e+01 2.742273e+01 1.171960e-01 3.344370e-01 3.219484e-01 6.160593e-01 6.236835e-01 6.698224e-01 7.402595e-01 7.921332e-01 9.536186e-01 8.492835e-01 7.811928e-01 7.906597e-01 1.198685e-04
<GCONST> 7.096732e+01
<MIXTURE> 114 5.938666e-03
<MEAN> 25
 1.003381e+01 1.390213e+00 -8.964214e+00 -1.624352e+01 -1.202955e+00 5.760828e+00 -5.080838e+00 -2.024925e+00 -5.669324e+00 -2.069705e-01 5.978143e-01 -4.085037e-01 -6.637720e-03 3.338411e-02 -9.996883e-02 -1.473768e-01 6.059392e-02 2.027852e-01 9.329347e-02 1.737333e-02 -1.362159e-02 -4.959925e-02 1.226956e-01 -5.771014e-02 -9.337526e-04
<VARIANCE> 25
 8.269629e+00 1.686195e+01 2.792254e+01 3.997667e+01 5.143721e+01 3.157838e+01 4.073774e+01 4.022585e+01 3.469321e+01 4.478651e+01 3.645529e+01 2.742273e+01 1.171960e-01 3.344370e-01 3.219484e-01 6.160593e-01 6.236835e-01 6.698224e-01 7.402595e-01 7.921332e-01 9.536186e-01 8.492835e-01 7.811928e-01 7.906597e-01 1.198685e-04
<GCONST> 7.096732e+01
<MIXTURE> 115 2.935202e-03
<MEAN> 25
 -4.012302e+00 -6.851217e-01 -3.100296e+00 3.639462e+00 2.518995e+00 -3.447129e-01 2.215103e+00 4.736254e-01 1.450675e+00 -6.162859e-02 5.676900e-03 2.715416e+00 3.064150e-02 -6.907770e-02 -2.337419e-01 -4.521959e-01 -6.284589e-01 -6.681194e-01 -5.948762e-01 -5.073087e-01 -4.774466e-01 -4.655598e-01 -3.475859e-01 -1.605203e-01 2.157913e-05
<VARIANCE> 25
 9.147407e+00 1.000206e+01 1.338874e+01 1.253109e+01 1.395204e+01 1.774492e+01 1.686018e+01 2.080407e+01 1.787688e+01 1.724482e+01 1.908106e+01 1.453809e+01 2.006230e-01 3.423986e-01 4.792187e-01 5.686527e-01 6.314349e-01 7.984870e-01 1.000434e+00 1.113938e+00 1.071427e+00 9.859024e-01 1.023951e+00 1.050795e+00 1.031908e-06
<GCONST> 6.010339e+01
<MIXTURE> 116 2.935202e-03
<MEAN> 25
 -4.012302e+00 -6.851217e-01 -3.100296e+00 3.639462e+00 2.518995e+00 -3.447129e-01 2.215103e+00 4.736254e-01 1.450675e+00 -6.162859e-02 5.676900e-03 2.715416e+00 3.064150e-02 -6.907770e-02 -2.337419e-01 -4.521959e-01 -6.284589e-01 -6.681194e-01 -5.948762e-01 -5.073087e-01 -4.774466e-01 -4.655598e-01 -3.475859e-01 -1.605203e-01 2.157913e-05
<VARIANCE> 25
 9.147407e+00 1.000206e+01 1.338874e+01 1.253109e+01 1.395204e+01 1.774492e+01 1.686018e+01 2.080407e+01 1.787688e+01 1.724482e+01 1.908106e+01 1.453809e+01 2.006230e-01 3.423986e-01 4.792187e-01 5.686527e-01 6.314349e-01 7.984870e-01 1.000434e+00 1.113938e+00 1.071427e+00 9.859024e-01 1.023951e+00 1.050795e+00 1.031908e-06
<GCONST> 6.010339e+01
<MIXTURE> 117 6.506003e-03
<MEAN> 25
 -4.624693e+00 1.240900e+00 1.054272e+00 9.492738e+00 6.399208e+00 6.135741e+00 6.249902e+00 5.164048e+00 6.319394e+00 4.869832e+00 6.239309e+00 2.651470e+00 -7.402242e-02 -2.376472e-01 -3.605948e-01 -4.279154e-01 -4.016905e-01 -3.645390e-01 -2.750703e-01 -3.206792e-01 -4.187998e-01 -4.122738e-01 -3.280493e-01 -1.109047e-01 3.480477e-05
<VARIANCE> 25
 6.951601e+00 8.863301e+00 9.476143e+00 1.573028e+01 1.560666e+01 1.521943e+01 1.835096e+01 1.773740e+01 1.595941e+01 1.591528e+01 1.661382e+01 1.434520e+01 2.092051e-01 2.973253e-01 4.117049e-01 5.978103e-01 8.567075e-01 1.124270e+00 1.141371e+00 1.193746e+00 1.202372e+00 1.205459e+00 1.243205e+00 1.076412e+00 1.019390e-06
<GCONST> 6.029747e+01
<MIXTURE> 118 6.506003e-03
<MEAN> 25
 -4.624693e+00 1.240900e+00 1.054272e+00 9.492738e+00 6.399208e+00 6.135741e+00 6.249902e+00 5.164048e+00 6.319394e+00 4.869832e+00 6.239309e+00 2.651470e+00 -7.402242e-02 -2.376472e-01 -3.605948e-01 -4.279154e-01 -4.016905e-01 -3.645390e-01 -2.750703e-01 -3.206792e-01 -4.187998e-01 -4.122738e-01 -3.280493e-01 -1.109047e-01 3.480477e-05
<VARIANCE> 25
 6.951601e+00 8.863301e+00 9.476143e+00 1.573028e+01 1.560666e+01 1.521943e+01 1.835096e+01 1.773740e+01 1.595941e+01 1.591528e+01 1.661382e+01 1.434520e+01 2.092051e-01 2.973253e-01 4.117049e-01 5.978103e-01 8.567075e-01 1.124270e+00 1.141371e+00 1.193746e+00 1.202372e+00 1.205459e+00 1.243205e+00 1.076412e+00 1.019390e-06
<GCONST> 6.029747e+01
<MIXTURE> 119 4.297961e-03
<MEAN> 25
 -4.975116e+00 -7.632903e+00 2.231386e+00 2.016729e+00 2.240284e+00 2.080520e-01 5.274621e+00 5.939891e+00 1.167211e+00 9.680192e-01 6.613005e+00 1.570055e+00 -4.994430e-02 -7.936440e-02 3.731344e-02 -5.729966e-02 -1.261062e-01 -1.798764e-01 -6.908803e-02 -1.397506e-02 -9.179128e-02 -1.120375e-01 -5.518549e-02 -5.812960e-02 1.108733e-03
<VARIANCE> 25
 8.502493e+00 9.831004e+00 1.656321e+01 2.017990e+01 2.286811e+01 2.320347e+01 2.499548e+01 2.648256e+01 2.504127e+01 2.807333e+01 2.040673e+01 2.040879e+01 1.604543e-01 2.824805e-01 4.597104e-01 6.328593e-01 8.034307e-01 1.003799e+00 1.099884e+00 1.277612e+00 1.285838e+00 1.245765e+00 1.192281e+00 1.112448e+00 2.316503e-04
<GCONST> 6.972099e+01
<MIXTURE> 120 4.297961e-03
<MEAN> 25
 -4.975116e+00 -7.632903e+00 2.231386e+00 2.016729e+00 2.240284e+00 2.080520e-01 5.274621e+00 5.939891e+00 1.167211e+00 9.680192e-01 6.613005e+00 1.570055e+00 -4.994430e-02 -7.936440e-02 3.731344e-02 -5.729966e-02 -1.261062e-01 -1.798764e-01 -6.908803e-02 -1.397506e-02 -9.179128e-02 -1.120375e-01 -5.518549e-02 -5.812960e-02 1.108733e-03
<VARIANCE> 25
 8.502493e+00 9.831004e+00 1.656321e+01 2.017990e+01 2.286811e+01 2.320347e+01 2.499548e+01 2.648256e+01 2.504127e+01 2.807333e+01 2.040673e+01 2.040879e+01 1.604543e-01 2.824805e-01 4.597104e-01 6.328593e-01 8.034307e-01 1.003799e+00 1.099884e+00 1.277612e+00 1.285838e+00 1.245765e+00 1.192281e+00 1.112448e+00 2.316503e-04
<GCONST> 6.972099e+01
<MIXTURE> 121 4.567511e-03
<MEAN> 25
 2.703090e-01 -2.370465e+00 5.231037e+00 -1.238622e+01 -1.265213e+01 -1.249359e+00 1.177268e+00 -5.043394e+00 -4.318725e+00 -6.247720e-01 -5.372886e+00 -4.168778e+00 2.022875e-02 1.909434e-01 -6.083245e-02 5.199789e-02 2.460838e-01 1.739778e-01 -6.580184e-02 -2.230405e-01 -2.995718e-01 -2.040695e-01 -1.618477e-01 -2.402394e-02 -8.305066e-03
<VARIANCE> 25
 7.410848e+00 1.525387e+01 1.647694e+01 2.383956e+01 2.322198e+01 3.092030e+01 2.865733e+01 2.350751e+01 3.379645e+01 2.726068e+01 1.917109e+01 2.042818e+01 1.542172e-01 6.744965e-01 6.084361e-01 6.893085e-01 8.630520e-01 1.256752e+00 1.095655e+00 1.103477e+00 1.173232e+00 1.227932e+00 9.467360e-01 8.416570e-01 2.170781e-04
<GCONST> 7.137505e+01
<MIXTURE> 122 4.567511e-03
<MEAN> 25
 2.703090e-01 -2.370465e+00 5.231037e+00 -1.238622e+01 -1.265213e+01 -1.249359e+00 1.177268e+00 -5.043394e+00 -4.318725e+00 -6.247720e-01 -5.372886e+00 -4.168778e+00 2.022875e-02 1.909434e-01 -6.083245e-02 5.199789e-02 2.460838e-01 1.739778e-01 -6.580184e-02 -2.230405e-01 -2.995718e-01 -2.040695e-01 -1.618477e-01 -2.402394e-02 -8.305066e-03
<VARIANCE> 25
 7.410848e+00 1.525387e+01 1.647694e+01 2.383956e+01 2.322198e+01 3.092030e+01 2.865733e+01 2.350751e+01 3.379645e+01 2.726068e+01 1.917109e+01 2.042818e+01 1.542172e-01 6.744965e-01 6.084361e-01 6.893085e-01 8.630520e-01 1.256752e+00 1.095655e+00 1.103477e+00 1.173232e+00 1.227932e+00 9.467360e-01 8.416570e-01 2.170781e-04
<GCONST> 7.137505e+01
<MIXTURE> 123 4.393044e-03
<MEAN> 25
 -3.951323e+00 1.595438e+00 1.090730e-01 5.935509e+00 5.394524e+00 2.911518e+00 2.873878e+00 5.991813e-01 6.167376e-01 -7.491246e-01 -1.475059e-01 1.273438e+00 -4.600489e-01 -6.825483e-01 -8.003661e-01 -5.432772e-01 -1.053589e-01 1.217513e-02 2.296553e-01 5.861407e-01 8.151686e-01 7.247095e-01 6.914272e-01 4.900555e-01 -4.587661e-03
<VARIANCE> 25
 1.054116e+01 1.145370e+01 1.350205e+01 1.551917e+01 2.199264e+01 2.703316e+01 2.021259e+01 1.819617e+01 2.257720e+01 1.600931e+01 1.968623e+01 1.819117e+01 3.416678e-01 3.551991e-01 5.159088e-01 7.141265e-01 9.897684e-01 1.045340e+00 1.263053e+00 1.067638e+00 1.157628e+00 1.061846e+00 1.082159e+00 1.082931e+00 1.162769e-04
<GCONST> 6.868269e+01
<MIXTURE> 124 4.069876e-03
<MEAN> 25
 -6.368635e+00 -9.929463e-01 -2.870442e+00 4.934464e+00 5.142694e+00 3.311317e+00 5.324192e+00 2.670951e+00 3.337420e+00 1.236113e+00 1.016635e+00 3.099041e+00 -1.981051e-01 -3.245449e-01 -3.543929e-01 -2.189894e-01 1.136345e-01 4.936935e-01 7.783436e-01 8.404099e-01 6.735411e-01 3.328245e-01 5.387272e-02 1.143209e-02 -6.277082e-05
<VARIANCE> 25
 1.136883e+01 7.588049e+00 1.069737e+01 1.272124e+01 1.256881e+01 1.943605e+01 1.541583e+01 1.670772e+01 1.526333e+01 1.551227e+01 1.856131e+01 1.402112e+01 1.092257e-01 1.637898e-01 2.634274e-01 4.066283e-01 5.828637e-01 7.169022e-01 7.745510e-01 7.881789e-01 8.943815e-01 9.431067e-01 9.850426e-01 1.011653e+00 1.773467e-05
<GCONST> 5.865885e+01
<MIXTURE> 125 4.069876e-03
<MEAN> 25
 -6.368635e+00 -9.929463e-01 -2.870442e+00 4.934464e+00 5.142694e+00 3.311317e+00 5.324192e+00 2.670951e+00 3.337420e+00 1.236113e+00 1.016635e+00 3.099041e+00 -1.981051e-01 -3.245449e-01 -3.543929e-01 -2.189894e-01 1.136345e-01 4.936935e-01 7.783436e-01 8.404099e-01 6.735411e-01 3.328245e-01 5.387272e-02 1.143209e-02 -6.277082e-05
<VARIANCE> 25
 1.136883e+01 7.588049e+00 1.069737e+01 1.272124e+01 1.256881e+01 1.943605e+01 1.541583e+01 1.670772e+01 1.526333e+01 1.551227e+01 1.856131e+01 1.402112e+01 1.092257e-01 1.637898e-01 2.634274e-01 4.066283e-01 5.828637e-01 7.169022e-01 7.745510e-01 7.881789e-01 8.943815e-01 9.431067e-01 9.850426e-01 1.011653e+00 1.773467e-05
<GCONST> 5.865885e+01
<MIXTURE> 126 2.402244e-03
<MEAN> 25
 -3.772301e+00 -6.731467e+00 -5.240228e+00 2.264437e+00 4.374656e+00 -3.154285e+00 8.338582e-02 3.597804e+00 3.368411e+00 -2.686142e+00 -1.525662e+00 3.097137e+00 7.294230e-03 -7.324231e-03 -4.398587e-02 -1.565125e-01 -3.322685e-01 -4.002139e-01 -2.699398e-01 -1.672139e-01 -1.194252e-01 -1.521641e-01 -1.054919e-01 9.549102e-03 -1.670583e-03
<VARIANCE> 25
 7.317183e+00 1.413396e+01 1.361766e+01 1.497009e+01 2.457324e+01 2.349671e+01 2.224998e+01 2.805981e+01 3.108043e+01 2.628923e+01 2.175405e+01 1.887667e+01 1.738982e-01 3.471690e-01 4.800279e-01 5.559150e-01 7.515904e-01 1.001766e+00 1.107787e+00 1.243004e+00 1.305754e+00 1.348793e+00 1.190874e+00 1.210510e+00 2.079001e-04
<GCONST> 6.978290e+01
<MIXTURE> 127 2.402244e-03
<MEAN> 25
 -3.772301e+00 -6.731467e+00 -5.240228e+00 2.264437e+00 4.374656e+00 -3.154285e+00 8.338582e-02 3.597804e+00 3.368411e+00 -2.686142e+00 -1.525662e+00 3.097137e+00 7.294230e-03 -7.324231e-03 -4.398587e-02 -1.565125e-01 -3.322685e-01 -4.002139e-01 -2.699398e-01 -1.672139e-01 -1.194252e-01 -1.521641e-01 -1.054919e-01 9.549102e-03 -1.670583e-03
<VARIANCE> 25
 7.317183e+00 1.413396e+01 1.361766e+01 1.497009e+01 2.457324e+01 2.349671e+01 2.224998e+01 2.805981e+01 3.108043e+01 2.628923e+01 2.175405e+01 1.887667e+01 1.738982e-01 3.471690e-01 4.800279e-01 5.559150e-01 7.515904e-01 1.001766e+00 1.107787e+00 1.243004e+00 1.305754e+00 1.348793e+00 1.190874e+00 1.210510e+00 2.079001e-04
<GCONST> 6.978290e+01
<MIXTURE> 128 3.790457e-03
<MEAN> 25
 -3.892591e+00 1.552837e+00 -3.780423e-01 6.503139e+00 3.622820e+00 1.825727e+00 3.562076e+00 2.412110e+00 4.005529e+00 3.666086e+00 3.705906e+00 3.467835e+00 -4.042620e-01 -1.861283e-01 9.515311e-02 7.298797e-01 1.168258e+00 1.124821e+00 7.328388e-01 1.447148e-01 -4.295957e-01 -7.875058e-01 -6.794913e-01 -3.900425e-01 -4.823069e-05
<VARIANCE> 25
 1.030638e+01 1.161172e+01 1.503088e+01 1.974128e+01 1.988144e+01 2.112892e+01 2.412926e+01 2.465228e+01 2.639707e+01 2.380595e+01 2.706092e+01 1.844831e+01 8.931930e-01 1.150941e+00 1.355872e+00 1.491264e+00 1.598213e+00 1.860535e+00 2.256891e+00 2.327644e+00 2.140512e+00 1.841795e+00 1.791082e+00 1.735278e+00 1.009358e-06
<GCONST> 7.368936e+01
<TRANSP> 3
 0.000000e+00 1.000000e+00 0.000000e+00
 0.000000e+00 9.999990e-01 9.999998e-07
 0.000000e+00 0.000000e+00 0.000000e+00
<ENDHMM>
