~o
<STREAMINFO> 1 25
<VECSIZE> 25<NULLD><MFCC_E_D_N><DIAGC>
~h "jmodel"
<BEGINHMM>
<NUMSTATES> 3
<STATE> 2
<NUMMIXES> 128
<MIXTURE> 1 5.748963e-03
<MEAN> 25
 -2.582332e+00 3.181610e+00 2.311517e+00 8.751111e+00 4.370563e+00 3.450170e+00 4.062091e+00 3.936238e+00 5.831576e+00 5.251257e+00 5.882560e+00 3.078105e+00 -2.003220e+00 -1.634082e+00 -8.640925e-01 1.075477e+00 1.559929e+00 2.231625e+00 2.154858e+00 2.084832e+00 1.693266e+00 1.269555e+00 1.567461e+00 6.137470e-01 -4.688251e-02
<VARIANCE> 25
 1.006102e+01 1.175622e+01 1.493541e+01 1.869416e+01 2.317938e+01 2.213677e+01 2.188468e+01 2.196592e+01 2.098711e+01 2.252940e+01 2.094592e+01 1.707747e+01 1.791006e+00 2.111139e+00 3.024158e+00 3.208357e+00 3.738363e+00 3.355920e+00 3.316452e+00 3.378254e+00 3.519378e+00 3.724467e+00 3.511413e+00 2.832642e+00 3.122340e-03
<GCONST> 8.845544e+01
<MIXTURE> 2 4.549242e-03
<MEAN> 25
 -4.875563e+00 1.311758e+00 9.942896e-01 9.899573e+00 6.692192e+00 7.424586e+00 7.847096e+00 6.958062e+00 8.373206e+00 6.372918e+00 7.624313e+00 3.074788e+00 -6.200260e-02 4.159773e-02 1.425144e-01 2.258441e-01 2.652998e-01 2.813735e-01 2.954520e-01 3.195621e-01 3.497490e-01 3.089086e-01 1.971773e-01 8.008391e-02 1.282380e-06
<VARIANCE> 25
 6.952717e+00 8.901781e+00 1.065123e+01 1.591335e+01 1.723580e+01 1.556296e+01 1.689864e+01 1.848528e+01 1.658654e+01 1.738634e+01 1.811031e+01 1.434013e+01 1.252477e-01 2.266458e-01 3.364764e-01 4.671275e-01 6.492695e-01 8.148740e-01 9.298829e-01 1.003158e+00 1.051644e+00 1.077755e+00 1.075636e+00 1.013930e+00 1.000123e-06
<GCONST> 5.804328e+01
<MIXTURE> 3 4.549242e-03
<MEAN> 25
 -4.875563e+00 1.311758e+00 9.942896e-01 9.899573e+00 6.692192e+00 7.424586e+00 7.847096e+00 6.958062e+00 8.373206e+00 6.372918e+00 7.624313e+00 3.074788e+00 -6.200260e-02 4.159773e-02 1.425144e-01 2.258441e-01 2.652998e-01 2.813735e-01 2.954520e-01 3.195621e-01 3.497490e-01 3.089086e-01 1.971773e-01 8.008391e-02 1.282380e-06
<VARIANCE> 25
 6.952717e+00 8.901781e+00 1.065123e+01 1.591335e+01 1.723580e+01 1.556296e+01 1.689864e+01 1.848528e+01 1.658654e+01 1.738634e+01 1.811031e+01 1.434013e+01 1.252477e-01 2.266458e-01 3.364764e-01 4.671275e-01 6.492695e-01 8.148740e-01 9.298829e-01 1.003158e+00 1.051644e+00 1.077755e+00 1.075636e+00 1.013930e+00 1.000123e-06
<GCONST> 5.804328e+01
<MIXTURE> 4 1.671429e-02
<MEAN> 25
 3.442863e+00 2.547965e+00 -3.797537e+00 9.417360e-01 4.318341e+00 -2.185318e-01 6.870075e-02 8.376736e-03 1.501155e+00 1.299498e+00 -1.885239e+00 1.045567e-01 -2.771653e+00 1.217136e+00 1.778208e+00 3.090890e+00 9.214021e-01 5.023646e-01 1.519700e+00 1.043987e+00 9.767318e-01 4.313384e-01 1.240671e+00 9.001963e-01 -1.040874e-01
<VARIANCE> 25
 2.117519e+01 2.954393e+01 2.923968e+01 3.983104e+01 4.581580e+01 6.888771e+01 6.539936e+01 5.377736e+01 5.550236e+01 6.221595e+01 4.981446e+01 3.593124e+01 2.348508e+00 5.057824e+00 3.734885e+00 4.949165e+00 5.020970e+00 6.163334e+00 6.109193e+00 5.575303e+00 5.967922e+00 6.435018e+00 6.121756e+00 4.464893e+00 6.089497e-03
<GCONST> 1.055123e+02
<MIXTURE> 5 3.206198e-03
<MEAN> 25
 -3.416847e+00 2.180673e+00 6.107126e-01 9.427735e+00 6.696551e+00 6.315666e+00 7.111249e+00 4.722656e+00 5.495411e+00 3.848405e+00 4.659225e+00 2.606383e+00 -3.247015e-01 7.528457e-01 1.224685e+00 1.032498e+00 3.078263e-01 -9.986269e-02 -8.338513e-02 3.357905e-02 4.579919e-01 6.837891e-01 4.038610e-01 8.807404e-02 -2.755414e-05
<VARIANCE> 25
 1.025012e+01 1.394462e+01 2.348437e+01 2.562427e+01 2.022199e+01 1.942482e+01 2.012468e+01 2.036221e+01 2.141973e+01 2.128205e+01 2.409798e+01 1.635877e+01 1.209977e+00 1.244265e+00 1.357199e+00 1.673603e+00 2.284759e+00 2.376906e+00 2.302682e+00 2.275123e+00 2.315309e+00 2.237959e+00 2.085377e+00 1.873743e+00 1.000152e-06
<GCONST> 7.516756e+01
<MIXTURE> 6 5.475854e-03
<MEAN> 25
 9.702170e+00 -4.176754e-01 -6.691711e+00 -1.104546e+01 -2.117021e+00 6.734972e+00 -5.899639e+00 -5.296861e+00 -3.657394e+00 1.829341e+00 4.644064e+00 -1.252110e+00 4.850655e-01 8.962306e-01 -3.510997e-01 -1.468821e+00 -6.383827e-01 1.314933e+00 1.536758e+00 2.476224e-01 -1.218790e+00 -1.218121e+00 3.231396e-01 1.228786e+00 -8.163985e-03
<VARIANCE> 25
 8.966114e+00 1.707924e+01 2.395589e+01 3.912168e+01 3.678177e+01 3.064846e+01 4.407747e+01 3.807252e+01 4.075415e+01 3.947496e+01 4.210685e+01 2.841838e+01 3.115985e-01 8.572949e-01 9.455267e-01 1.977939e+00 1.605799e+00 2.015910e+00 1.919293e+00 2.051840e+00 2.398866e+00 1.963907e+00 2.246154e+00 1.438151e+00 5.859792e-04
<GCONST> 8.387633e+01
<MIXTURE> 7 5.475854e-03
<MEAN> 25
 9.702170e+00 -4.176754e-01 -6.691711e+00 -1.104546e+01 -2.117021e+00 6.734972e+00 -5.899639e+00 -5.296861e+00 -3.657394e+00 1.829341e+00 4.644064e+00 -1.252110e+00 4.850655e-01 8.962306e-01 -3.510997e-01 -1.468821e+00 -6.383827e-01 1.314933e+00 1.536758e+00 2.476224e-01 -1.218790e+00 -1.218121e+00 3.231396e-01 1.228786e+00 -8.163985e-03
<VARIANCE> 25
 8.966114e+00 1.707924e+01 2.395589e+01 3.912168e+01 3.678177e+01 3.064846e+01 4.407747e+01 3.807252e+01 4.075415e+01 3.947496e+01 4.210685e+01 2.841838e+01 3.115985e-01 8.572949e-01 9.455267e-01 1.977939e+00 1.605799e+00 2.015910e+00 1.919293e+00 2.051840e+00 2.398866e+00 1.963907e+00 2.246154e+00 1.438151e+00 5.859792e-04
<GCONST> 8.387633e+01
<MIXTURE> 8 1.165917e-02
<MEAN> 25
 -4.728402e+00 1.364248e+00 1.292298e+00 9.555576e+00 6.573753e+00 6.253407e+00 6.480088e+00 5.688822e+00 6.658843e+00 5.631689e+00 6.570885e+00 3.151567e+00 -6.296530e-01 -1.425288e+00 -1.070971e+00 -1.730500e+00 -2.309543e-01 -9.448762e-01 -1.779719e-01 -2.903973e-01 -2.540340e-01 -1.741352e-01 -2.133858e-01 8.112966e-02 9.884876e-02
<VARIANCE> 25
 9.344063e+00 9.847638e+00 1.160669e+01 1.608920e+01 1.663494e+01 1.570738e+01 1.812245e+01 1.750669e+01 1.703576e+01 1.736968e+01 1.888661e+01 1.399838e+01 2.756311e+00 2.814841e+00 3.905778e+00 3.761586e+00 3.454863e+00 3.316501e+00 3.128386e+00 3.081931e+00 2.875253e+00 2.654908e+00 2.434229e+00 1.901447e+00 6.684154e-03
<GCONST> 8.628908e+01
<MIXTURE> 9 1.199672e-02
<MEAN> 25
 9.301387e+00 3.396297e+00 -6.204686e+00 -1.064780e+01 -2.219688e+00 4.938232e+00 -2.225422e+00 -2.312082e+00 -5.397445e+00 -1.246994e+00 5.773705e-01 -1.439143e-02 1.440270e+00 -1.303362e-01 -4.919999e-01 -2.696107e+00 -1.645036e+00 8.515168e-01 -9.744707e-01 -2.296499e-01 -1.828924e-01 -5.767476e-01 6.163555e-01 -1.525142e-01 7.333867e-02
<VARIANCE> 25
 1.220176e+01 2.137063e+01 3.352122e+01 5.380810e+01 5.010561e+01 3.271689e+01 4.326735e+01 5.210222e+01 4.200891e+01 4.156589e+01 3.609252e+01 2.688403e+01 2.085429e+00 2.448314e+00 4.566021e+00 4.905662e+00 5.002783e+00 4.097733e+00 4.233090e+00 6.038263e+00 5.034692e+00 4.073815e+00 4.011979e+00 2.799315e+00 2.208565e-03
<GCONST> 9.879860e+01
<MIXTURE> 10 6.596976e-03
<MEAN> 25
 8.210059e-01 7.634367e+00 5.375957e+00 7.148989e+00 1.587359e+00 -2.115164e+00 -5.181956e-01 -1.685375e+00 8.743564e-01 8.599326e-01 8.390179e-01 6.573990e-01 -1.924940e+00 -6.733400e-01 -4.585977e-01 3.028214e+00 2.463276e+00 2.710474e+00 2.373911e+00 2.277892e+00 1.861639e+00 1.545136e+00 2.335875e+00 5.248725e-01 -1.381432e-01
<VARIANCE> 25
 1.954187e+01 2.068566e+01 2.230444e+01 2.906123e+01 3.831321e+01 3.494081e+01 3.514595e+01 3.384125e+01 2.761283e+01 2.904954e+01 2.695905e+01 2.501452e+01 2.234845e+00 3.426175e+00 5.535602e+00 5.169560e+00 5.552354e+00 4.469520e+00 4.699816e+00 4.843578e+00 4.388601e+00 5.021101e+00 4.442219e+00 3.191094e+00 2.696751e-03
<GCONST> 9.745956e+01
<MIXTURE> 11 1.633820e-02
<MEAN> 25
 7.812996e+00 4.245750e+00 2.982156e+00 5.154197e+00 -3.453316e+00 -2.583742e+00 -2.718558e+00 -6.359600e+00 -3.665943e+00 2.724076e-01 -2.128405e+00 -2.128670e+00 -2.568527e-01 3.920888e-01 1.666700e-01 3.123885e-01 4.645913e-01 3.254247e-03 2.082306e-01 -9.844386e-02 -1.831274e-01 -1.050965e-01 -1.753426e-01 1.195963e-01 -1.210894e-02
<VARIANCE> 25
 1.123020e+01 2.348291e+01 2.308639e+01 2.949288e+01 3.652020e+01 3.924283e+01 4.970883e+01 4.113094e+01 4.144023e+01 3.392491e+01 3.582830e+01 2.745495e+01 9.330553e-01 1.347021e+00 1.609333e+00 2.391682e+00 1.956157e+00 2.185073e+00 2.179682e+00 2.820896e+00 2.082512e+00 1.875110e+00 1.847199e+00 1.528172e+00 1.238285e-03
<GCONST> 8.762669e+01
<MIXTURE> 12 5.904134e-03
<MEAN> 25
 1.076514e+01 3.743694e+00 -4.502461e+00 -1.599333e+01 -8.696044e+00 8.642499e+00 -8.967841e-01 -1.922109e+00 -1.723011e+00 -4.886339e+00 1.774602e+00 7.166873e-01 6.775416e-02 2.937791e-01 7.963187e-02 -3.682733e-01 -3.102926e-01 2.954085e-02 3.055520e-01 4.478397e-01 1.410621e-01 -3.846951e-01 -3.856529e-01 5.390523e-02 -6.302547e-03
<VARIANCE> 25
 8.887312e+00 2.100128e+01 2.335619e+01 3.503560e+01 4.206143e+01 3.096007e+01 4.179648e+01 4.898050e+01 4.406260e+01 3.738995e+01 3.799749e+01 2.892640e+01 2.468010e-01 6.883526e-01 6.860247e-01 1.169868e+00 1.186440e+00 1.053844e+00 1.171052e+00 1.386235e+00 1.240541e+00 1.222197e+00 1.221545e+00 9.565001e-01 5.786245e-04
<GCONST> 7.892104e+01
<MIXTURE> 13 5.904134e-03
<MEAN> 25
 1.076514e+01 3.743694e+00 -4.502461e+00 -1.599333e+01 -8.696044e+00 8.642499e+00 -8.967841e-01 -1.922109e+00 -1.723011e+00 -4.886339e+00 1.774602e+00 7.166873e-01 6.775416e-02 2.937791e-01 7.963187e-02 -3.682733e-01 -3.102926e-01 2.954085e-02 3.055520e-01 4.478397e-01 1.410621e-01 -3.846951e-01 -3.856529e-01 5.390523e-02 -6.302547e-03
<VARIANCE> 25
 8.887312e+00 2.100128e+01 2.335619e+01 3.503560e+01 4.206143e+01 3.096007e+01 4.179648e+01 4.898050e+01 4.406260e+01 3.738995e+01 3.799749e+01 2.892640e+01 2.468010e-01 6.883526e-01 6.860247e-01 1.169868e+00 1.186440e+00 1.053844e+00 1.171052e+00 1.386235e+00 1.240541e+00 1.222197e+00 1.221545e+00 9.565001e-01 5.786245e-04
<GCONST> 7.892104e+01
<MIXTURE> 14 6.488954e-03
<MEAN> 25
 -4.307725e+00 -3.695306e-01 -3.102692e-01 8.890306e+00 7.504205e+00 7.371964e+00 7.824374e+00 7.321832e+00 7.244241e+00 5.219924e+00 6.857084e+00 4.097900e+00 -2.742210e-01 1.933466e-01 3.649993e-01 3.103219e-01 5.901430e-03 5.912238e-02 9.656888e-02 1.753065e-01 2.955304e-01 5.387892e-01 5.041788e-01 7.549549e-02 -9.321191e-03
<VARIANCE> 25
 9.311078e+00 1.386645e+01 1.858346e+01 1.796763e+01 2.090103e+01 1.956734e+01 2.147002e+01 2.059733e+01 2.006127e+01 2.387334e+01 2.137812e+01 1.596606e+01 9.600446e-01 1.636989e+00 1.770575e+00 1.930676e+00 2.241084e+00 2.256133e+00 2.256118e+00 2.243925e+00 2.287066e+00 2.502850e+00 2.198674e+00 1.810986e+00 1.028346e-03
<GCONST> 8.189867e+01
<MIXTURE> 15 2.475190e-03
<MEAN> 25
 -5.315212e+00 -5.931649e-01 -2.063317e-01 7.259472e+00 5.640457e+00 5.630061e+00 5.999864e+00 4.954464e+00 5.176076e+00 4.130812e+00 5.406167e+00 2.540773e+00 -1.205109e-01 -2.631966e-02 7.651589e-02 2.373773e-01 4.849882e-01 7.882195e-01 1.086810e+00 1.198888e+00 1.068839e+00 7.580736e-01 4.044162e-01 1.326029e-01 5.694676e-05
<VARIANCE> 25
 7.513103e+00 5.732774e+00 8.917150e+00 1.324174e+01 1.419414e+01 1.437019e+01 1.498734e+01 1.476148e+01 1.396355e+01 1.401500e+01 1.563620e+01 1.235245e+01 1.239924e-01 2.051160e-01 3.170761e-01 4.993505e-01 6.968972e-01 7.894518e-01 7.703200e-01 8.113940e-01 9.135785e-01 1.007721e+00 1.082902e+00 1.075316e+00 2.908734e-05
<GCONST> 5.878046e+01
<MIXTURE> 16 2.475190e-03
<MEAN> 25
 -5.315212e+00 -5.931649e-01 -2.063317e-01 7.259472e+00 5.640457e+00 5.630061e+00 5.999864e+00 4.954464e+00 5.176076e+00 4.130812e+00 5.406167e+00 2.540773e+00 -1.205109e-01 -2.631966e-02 7.651589e-02 2.373773e-01 4.849882e-01 7.882195e-01 1.086810e+00 1.198888e+00 1.068839e+00 7.580736e-01 4.044162e-01 1.326029e-01 5.694676e-05
<VARIANCE> 25
 7.513103e+00 5.732774e+00 8.917150e+00 1.324174e+01 1.419414e+01 1.437019e+01 1.498734e+01 1.476148e+01 1.396355e+01 1.401500e+01 1.563620e+01 1.235245e+01 1.239924e-01 2.051160e-01 3.170761e-01 4.993505e-01 6.968972e-01 7.894518e-01 7.703200e-01 8.113940e-01 9.135785e-01 1.007721e+00 1.082902e+00 1.075316e+00 2.908734e-05
<GCONST> 5.878046e+01
<MIXTURE> 17 9.518312e-03
<MEAN> 25
 4.402776e+00 -2.253578e+00 5.982563e+00 3.159867e+00 -6.999609e+00 -7.383834e+00 -4.486256e+00 -1.303337e+00 -4.244207e+00 -3.128868e+00 6.168218e-01 1.618093e-01 -6.973150e-01 -1.440310e+00 1.538069e+00 -1.844475e+00 -1.969592e+00 -1.867052e-01 1.594763e-01 5.486909e-01 -4.514312e-01 -3.824160e-01 7.444087e-01 4.026735e-01 7.377709e-02
<VARIANCE> 25
 1.626018e+01 3.433349e+01 2.958300e+01 3.582082e+01 3.733436e+01 5.104151e+01 4.679049e+01 3.231166e+01 3.449088e+01 2.172375e+01 2.741616e+01 2.223480e+01 1.631550e+00 2.365617e+00 3.316960e+00 3.443944e+00 3.762447e+00 5.612097e+00 5.876188e+00 4.054102e+00 3.584206e+00 3.383354e+00 3.207775e+00 2.230859e+00 2.523758e-03
<GCONST> 9.563128e+01
<MIXTURE> 18 1.221018e-02
<MEAN> 25
 4.024853e+00 4.373468e+00 6.729747e+00 4.819973e+00 -4.782407e+00 -8.497562e+00 -1.838021e+00 -1.219220e+00 -3.528628e+00 -2.475103e+00 -7.987408e-01 6.211061e-01 -7.822955e-01 2.086486e+00 -1.640853e-01 1.965549e+00 3.058253e+00 1.522277e+00 8.788430e-01 -2.239701e-01 6.277668e-01 5.012538e-01 -3.287258e-01 -4.397478e-02 -1.223137e-01
<VARIANCE> 25
 1.605923e+01 2.793037e+01 3.228323e+01 2.596375e+01 4.075365e+01 3.405843e+01 3.896822e+01 3.456439e+01 3.978204e+01 3.393054e+01 3.236130e+01 3.047919e+01 2.532931e+00 3.250979e+00 4.705621e+00 4.200450e+00 4.186655e+00 4.672299e+00 4.856813e+00 4.391065e+00 4.409188e+00 4.248953e+00 4.577917e+00 3.580978e+00 4.152474e-03
<GCONST> 9.869608e+01
<MIXTURE> 19 9.912824e-03
<MEAN> 25
 -9.746776e+00 1.909501e+00 3.358652e-01 1.056177e+00 3.882242e+00 1.543785e+00 3.371066e+00 1.182547e+00 2.189646e+00 1.245283e+00 8.892478e-01 1.911565e+00 2.081355e+00 1.686869e+00 2.103362e+00 7.558591e-01 -1.067419e+00 -1.074128e+00 -1.141424e+00 -1.446768e+00 -1.490869e+00 -1.081641e+00 -7.632467e-01 -8.189919e-01 3.412295e-03
<VARIANCE> 25
 5.525343e+01 2.917583e+01 4.639125e+01 5.159341e+01 3.283503e+01 3.160277e+01 3.014835e+01 2.871918e+01 2.783529e+01 2.625624e+01 3.038717e+01 1.958809e+01 2.346249e+00 2.230228e+00 2.192288e+00 2.266425e+00 2.486835e+00 2.252273e+00 2.609252e+00 2.349443e+00 2.077472e+00 2.094953e+00 2.367919e+00 1.729345e+00 2.447685e-03
<GCONST> 9.146638e+01
<MIXTURE> 20 6.308331e-03
<MEAN> 25
 -1.418145e+01 7.416194e+00 8.452314e-01 6.152289e+00 4.843555e+00 1.637090e+00 5.209284e+00 8.536933e-01 9.223132e-01 7.987435e-01 2.568580e+00 -3.024292e-01 -3.285946e+00 -8.668866e-01 -1.565170e+00 3.325815e-01 1.541046e+00 2.063141e+00 1.979244e+00 2.056207e+00 2.144594e+00 2.040245e+00 1.684746e+00 9.453121e-01 4.732136e-02
<VARIANCE> 25
 1.966348e+01 2.345561e+01 3.096064e+01 3.717621e+01 3.084978e+01 2.789033e+01 2.993287e+01 3.147528e+01 2.796411e+01 2.821392e+01 2.515978e+01 2.091775e+01 2.092036e+00 2.182255e+00 1.909938e+00 2.541362e+00 2.702739e+00 2.313095e+00 2.310106e+00 2.320019e+00 2.235433e+00 2.652243e+00 2.241424e+00 1.865659e+00 1.886420e-03
<GCONST> 8.921882e+01
<MIXTURE> 21 7.928653e-03
<MEAN> 25
 4.011492e+00 -4.539480e+00 5.776962e+00 -1.524785e+00 -1.058546e+01 -8.743876e+00 -2.636899e+00 4.154130e+00 -2.102795e+00 -3.409718e+00 2.636212e-01 3.478746e-01 -7.219238e-01 1.334422e+00 2.584177e+00 -4.832060e-02 -1.547865e+00 3.408886e-01 5.979784e-01 -1.493716e+00 -1.946920e+00 3.112940e-01 1.317398e+00 2.490811e-01 -1.284112e-02
<VARIANCE> 25
 8.895451e+00 1.873990e+01 2.961848e+01 2.854452e+01 2.850089e+01 3.322982e+01 4.315768e+01 3.935614e+01 4.318260e+01 3.150937e+01 3.382708e+01 2.316983e+01 3.779207e-01 9.622919e-01 1.857703e+00 1.293024e+00 2.210848e+00 2.190374e+00 3.678462e+00 2.501256e+00 2.190598e+00 2.590489e+00 2.033756e+00 2.281128e+00 4.312894e-04
<GCONST> 8.515710e+01
<MIXTURE> 22 8.827789e-03
<MEAN> 25
 -1.792091e+01 7.154785e+00 -4.131347e+00 7.392482e+00 4.602546e+00 2.761039e+00 8.399819e+00 1.748462e+00 5.379299e+00 3.301012e+00 5.716434e+00 1.185148e+00 -3.095726e-01 -2.075880e-01 -1.255633e-01 -1.492641e-01 -7.208806e-03 1.369678e-01 1.807591e-01 1.779423e-01 2.484757e-01 2.073076e-01 1.726615e-01 1.924446e-01 8.857626e-03
<VARIANCE> 25
 8.116920e+00 1.682541e+01 1.738343e+01 2.517213e+01 2.289636e+01 2.083704e+01 1.943101e+01 1.871084e+01 1.813996e+01 2.086667e+01 1.924184e+01 1.378720e+01 1.090756e+00 1.357369e+00 1.363971e+00 1.572030e+00 1.408815e+00 1.526971e+00 1.508942e+00 1.532825e+00 1.614233e+00 1.544764e+00 1.357418e+00 1.168007e+00 1.745583e-03
<GCONST> 7.830949e+01
<MIXTURE> 23 6.455497e-03
<MEAN> 25
 7.703465e+00 2.457939e+00 2.930888e+00 2.287678e+00 -4.777255e+00 -3.134223e+00 -4.234848e+00 -6.431509e+00 -3.395558e+00 -1.115968e+00 -4.151167e+00 -2.130955e+00 3.449171e-02 1.687611e-01 -4.138001e-03 4.387501e-02 2.806824e-03 5.750732e-02 3.190275e-02 -5.507914e-02 -2.384364e-02 2.185664e-02 -2.486045e-02 4.496186e-02 -4.349954e-03
<VARIANCE> 25
 1.206424e+01 2.167348e+01 2.423888e+01 4.021212e+01 3.743401e+01 5.246265e+01 5.770961e+01 5.374238e+01 4.701406e+01 4.646954e+01 4.759377e+01 3.930614e+01 1.171201e-01 2.963488e-01 3.827129e-01 5.002766e-01 6.010939e-01 7.103003e-01 7.726638e-01 8.766202e-01 9.461501e-01 8.944681e-01 8.377143e-01 7.884608e-01 8.802753e-05
<GCONST> 7.306703e+01
<MIXTURE> 24 6.455497e-03
<MEAN> 25
 7.703465e+00 2.457939e+00 2.930888e+00 2.287678e+00 -4.777255e+00 -3.134223e+00 -4.234848e+00 -6.431509e+00 -3.395558e+00 -1.115968e+00 -4.151167e+00 -2.130955e+00 3.449171e-02 1.687611e-01 -4.138001e-03 4.387501e-02 2.806824e-03 5.750732e-02 3.190275e-02 -5.507914e-02 -2.384364e-02 2.185664e-02 -2.486045e-02 4.496186e-02 -4.349954e-03
<VARIANCE> 25
 1.206424e+01 2.167348e+01 2.423888e+01 4.021212e+01 3.743401e+01 5.246265e+01 5.770961e+01 5.374238e+01 4.701406e+01 4.646954e+01 4.759377e+01 3.930614e+01 1.171201e-01 2.963488e-01 3.827129e-01 5.002766e-01 6.010939e-01 7.103003e-01 7.726638e-01 8.766202e-01 9.461501e-01 8.944681e-01 8.377143e-01 7.884608e-01 8.802753e-05
<GCONST> 7.306703e+01
<MIXTURE> 25 1.118642e-02
<MEAN> 25
 3.001264e-01 3.464935e+00 1.678798e+01 -1.039460e+00 -1.134013e+01 -1.773033e+00 -5.001180e+00 -2.946398e+00 -6.950031e+00 -5.443779e+00 4.105160e+00 -1.640747e+00 -1.354475e-01 4.405956e-01 1.689374e-01 1.508815e-01 2.156350e-01 1.103797e-01 1.925550e-01 -1.689990e-01 -2.489929e-01 7.558022e-02 -7.405715e-02 -1.073906e-01 -1.291611e-02
<VARIANCE> 25
 8.865265e+00 2.247270e+01 2.081233e+01 2.867446e+01 3.162945e+01 4.121881e+01 2.739333e+01 2.996676e+01 2.843532e+01 3.660963e+01 2.094447e+01 2.759480e+01 5.958043e-01 1.444586e+00 1.404323e+00 1.382844e+00 2.276377e+00 2.035732e+00 1.747537e+00 1.630108e+00 1.535449e+00 1.649179e+00 1.348659e+00 1.296656e+00 1.282170e-03
<GCONST> 8.274650e+01
<MIXTURE> 26 7.727677e-03
<MEAN> 25
 2.177551e+00 -6.450894e+00 -1.040103e+01 -7.026430e-01 8.011584e+00 5.494617e+00 4.068262e+00 -2.776566e-01 2.275392e+00 -9.624830e-01 -2.901871e+00 -9.918965e-01 -6.545621e-01 6.287184e-01 3.665115e-01 6.967029e-01 1.746562e-01 2.413241e-01 2.880463e-01 3.355402e-01 2.891764e-01 8.383739e-02 3.868485e-01 4.284455e-01 -5.281635e-02
<VARIANCE> 25
 2.512615e+01 3.405632e+01 2.564095e+01 6.240917e+01 3.896188e+01 4.244272e+01 4.612385e+01 4.403432e+01 3.935878e+01 5.444779e+01 4.011017e+01 4.676337e+01 1.651295e+00 1.958872e+00 1.929609e+00 2.002738e+00 2.321171e+00 2.369430e+00 2.521520e+00 2.739587e+00 2.335468e+00 2.337214e+00 2.164474e+00 2.002834e+00 3.321223e-03
<GCONST> 9.393013e+01
<MIXTURE> 27 7.727677e-03
<MEAN> 25
 2.177551e+00 -6.450894e+00 -1.040103e+01 -7.026430e-01 8.011584e+00 5.494617e+00 4.068262e+00 -2.776566e-01 2.275392e+00 -9.624830e-01 -2.901871e+00 -9.918965e-01 -6.545621e-01 6.287184e-01 3.665115e-01 6.967029e-01 1.746562e-01 2.413241e-01 2.880463e-01 3.355402e-01 2.891764e-01 8.383739e-02 3.868485e-01 4.284455e-01 -5.281635e-02
<VARIANCE> 25
 2.512615e+01 3.405632e+01 2.564095e+01 6.240917e+01 3.896188e+01 4.244272e+01 4.612385e+01 4.403432e+01 3.935878e+01 5.444779e+01 4.011017e+01 4.676337e+01 1.651295e+00 1.958872e+00 1.929609e+00 2.002738e+00 2.321171e+00 2.369430e+00 2.521520e+00 2.739587e+00 2.335468e+00 2.337214e+00 2.164474e+00 2.002834e+00 3.321223e-03
<GCONST> 9.393013e+01
<MIXTURE> 28 5.036674e-03
<MEAN> 25
 -5.393321e+00 -2.996749e-02 -1.525764e+00 6.527382e+00 5.192382e+00 3.510996e+00 5.320163e+00 3.072449e+00 3.873492e+00 2.418415e+00 2.692518e+00 3.168518e+00 -1.186976e-01 2.239274e-01 5.182492e-01 7.725247e-01 8.282062e-01 7.190199e-01 5.479496e-01 3.927844e-01 4.434267e-01 4.839351e-01 3.704742e-01 1.937397e-01 -1.278548e-06
<VARIANCE> 25
 1.053301e+01 8.398656e+00 1.216168e+01 1.519361e+01 1.464172e+01 1.751659e+01 1.861684e+01 1.903543e+01 1.712758e+01 1.669961e+01 2.083084e+01 1.506954e+01 2.588654e-01 3.327589e-01 4.098947e-01 4.704772e-01 6.204926e-01 8.675054e-01 1.116284e+00 1.132246e+00 1.095438e+00 1.024100e+00 1.025419e+00 1.059489e+00 1.009613e-06
<GCONST> 6.038037e+01
<MIXTURE> 29 5.036674e-03
<MEAN> 25
 -5.393321e+00 -2.996749e-02 -1.525764e+00 6.527382e+00 5.192382e+00 3.510996e+00 5.320163e+00 3.072449e+00 3.873492e+00 2.418415e+00 2.692518e+00 3.168518e+00 -1.186976e-01 2.239274e-01 5.182492e-01 7.725247e-01 8.282062e-01 7.190199e-01 5.479496e-01 3.927844e-01 4.434267e-01 4.839351e-01 3.704742e-01 1.937397e-01 -1.278548e-06
<VARIANCE> 25
 1.053301e+01 8.398656e+00 1.216168e+01 1.519361e+01 1.464172e+01 1.751659e+01 1.861684e+01 1.903543e+01 1.712758e+01 1.669961e+01 2.083084e+01 1.506954e+01 2.588654e-01 3.327589e-01 4.098947e-01 4.704772e-01 6.204926e-01 8.675054e-01 1.116284e+00 1.132246e+00 1.095438e+00 1.024100e+00 1.025419e+00 1.059489e+00 1.009613e-06
<GCONST> 6.038037e+01
<MIXTURE> 30 8.917812e-03
<MEAN> 25
 -4.406650e+00 -1.411014e-01 6.486189e-01 8.926271e+00 7.706430e+00 7.499722e+00 7.603447e+00 6.864744e+00 6.518438e+00 4.839907e+00 6.872076e+00 3.490672e+00 -2.756092e-02 2.247625e-02 5.362452e-02 7.103628e-02 8.346810e-02 3.895103e-02 9.486019e-03 -7.714516e-03 -5.161590e-03 3.049600e-02 4.717739e-02 3.153492e-02 -7.620873e-04
<VARIANCE> 25
 7.133290e+00 9.844126e+00 1.019474e+01 1.465256e+01 1.569627e+01 1.625296e+01 1.900344e+01 1.809395e+01 1.601395e+01 1.816118e+01 2.171307e+01 1.412596e+01 9.704492e-02 2.021197e-01 3.232762e-01 4.924225e-01 6.136539e-01 7.144911e-01 7.655720e-01 8.038529e-01 8.959719e-01 9.447072e-01 9.185683e-01 8.484209e-01 5.225573e-05
<GCONST> 6.063111e+01
<MIXTURE> 31 4.136493e-03
<MEAN> 25
 -3.211962e+00 -5.579513e+00 4.405272e-02 4.710929e+00 3.623273e+00 1.750195e+00 5.143133e+00 6.564337e+00 2.673285e+00 1.226722e+00 6.324633e+00 3.033251e+00 2.490012e-01 4.581270e-01 -2.034220e-01 2.960145e-01 9.876857e-02 3.954840e-01 1.825965e-01 5.446522e-03 3.920311e-01 3.739834e-01 8.335876e-02 9.721473e-02 -1.802075e-02
<VARIANCE> 25
 7.119146e+00 1.538884e+01 1.689579e+01 1.810737e+01 2.457949e+01 2.338004e+01 2.333691e+01 2.466326e+01 2.527178e+01 2.725277e+01 2.110955e+01 1.864953e+01 1.957992e-01 4.918547e-01 5.958171e-01 7.581906e-01 9.751325e-01 1.124414e+00 1.241921e+00 1.378975e+00 1.377563e+00 1.286828e+00 1.259780e+00 1.125013e+00 2.529510e-04
<GCONST> 7.172040e+01
<MIXTURE> 32 4.136493e-03
<MEAN> 25
 -3.211962e+00 -5.579513e+00 4.405272e-02 4.710929e+00 3.623273e+00 1.750195e+00 5.143133e+00 6.564337e+00 2.673285e+00 1.226722e+00 6.324633e+00 3.033251e+00 2.490012e-01 4.581270e-01 -2.034220e-01 2.960145e-01 9.876857e-02 3.954840e-01 1.825965e-01 5.446522e-03 3.920311e-01 3.739834e-01 8.335876e-02 9.721473e-02 -1.802075e-02
<VARIANCE> 25
 7.119146e+00 1.538884e+01 1.689579e+01 1.810737e+01 2.457949e+01 2.338004e+01 2.333691e+01 2.466326e+01 2.527178e+01 2.725277e+01 2.110955e+01 1.864953e+01 1.957992e-01 4.918547e-01 5.958171e-01 7.581906e-01 9.751325e-01 1.124414e+00 1.241921e+00 1.378975e+00 1.377563e+00 1.286828e+00 1.259780e+00 1.125013e+00 2.529510e-04
<GCONST> 7.172040e+01
<MIXTURE> 33 1.508826e-02
<MEAN> 25
 6.589975e+00 -4.002656e+00 -2.217112e+00 -2.624490e+00 -1.968477e+00 -5.627719e+00 -7.272352e+00 1.728852e+00 2.307079e+00 -4.623582e-01 -4.703049e+00 -3.004478e+00 6.525400e-01 -1.172763e+00 -2.438396e+00 -1.864705e+00 1.457862e+00 1.418419e+00 -7.546509e-01 6.538665e-01 1.017961e+00 5.564185e-01 -3.074217e-01 -1.334030e+00 3.765241e-02
<VARIANCE> 25
 9.923635e+00 2.123665e+01 2.898646e+01 3.613824e+01 4.060260e+01 4.404021e+01 4.312552e+01 4.669867e+01 4.055526e+01 4.380101e+01 3.498271e+01 2.836344e+01 1.160923e+00 1.939954e+00 2.207193e+00 2.203782e+00 4.212337e+00 3.439139e+00 4.317564e+00 5.625177e+00 3.791421e+00 4.401964e+00 3.381995e+00 2.602149e+00 1.478717e-03
<GCONST> 9.446078e+01
<MIXTURE> 34 1.588179e-02
<MEAN> 25
 8.887534e+00 -1.266779e-01 2.704819e-01 1.400159e+00 -3.163223e+00 -1.909157e+00 -6.292827e+00 -4.662320e+00 -2.083265e+00 1.963474e-02 -2.437425e+00 -3.557773e+00 -6.218164e-02 1.277396e+00 1.482202e+00 2.318832e+00 -4.889408e-02 -8.672437e-02 9.076710e-01 -1.600420e+00 -8.399404e-01 2.312194e-01 -5.734740e-01 2.766111e-01 -6.214064e-02
<VARIANCE> 25
 7.540258e+00 3.143196e+01 2.938476e+01 4.990775e+01 4.314893e+01 5.366381e+01 5.478682e+01 5.528342e+01 5.412654e+01 4.287843e+01 4.895427e+01 3.148112e+01 1.305816e+00 2.112826e+00 4.160841e+00 4.183630e+00 5.495278e+00 5.875075e+00 5.884190e+00 6.087166e+00 5.212370e+00 4.886122e+00 4.936528e+00 3.826933e+00 1.128991e-03
<GCONST> 9.987349e+01
<MIXTURE> 35 1.467755e-02
<MEAN> 25
 -2.155677e+00 -5.250586e+00 -9.988936e+00 2.183940e-01 9.713157e+00 7.986603e-01 1.608184e+00 2.540033e+00 1.472894e+00 4.582723e+00 4.529758e-02 1.882829e+00 5.482782e-01 -1.117585e+00 -1.428604e+00 -1.386991e+00 4.078632e-01 -7.989589e-01 -6.822904e-01 -1.326871e-01 -1.603655e-01 1.642777e-01 -6.517103e-01 -4.977326e-01 1.077452e-01
<VARIANCE> 25
 1.958992e+01 2.947553e+01 4.337336e+01 6.240429e+01 4.210315e+01 5.749049e+01 5.102684e+01 4.362788e+01 5.042278e+01 3.852750e+01 3.659941e+01 3.096590e+01 3.466210e+00 3.574810e+00 6.784926e+00 5.560455e+00 5.223449e+00 5.584160e+00 4.927960e+00 4.748979e+00 5.055955e+00 4.518810e+00 4.080460e+00 3.797911e+00 5.300713e-03
<GCONST> 1.036164e+02
<MIXTURE> 36 1.093293e-02
<MEAN> 25
 5.026324e+00 -3.624779e+00 7.115579e+00 2.623739e+00 -1.022363e+01 -8.998587e+00 -6.316284e+00 3.060024e+00 -2.042033e+00 -4.546398e+00 2.844441e+00 -1.377397e-01 3.505414e-01 1.539391e-01 -9.004639e-01 5.944338e-03 8.507975e-01 5.346153e-02 -4.711628e-01 2.166029e-02 4.116111e-01 5.668591e-01 -4.341331e-01 -3.177457e-01 -1.568714e-02
<VARIANCE> 25
 9.818128e+00 1.758970e+01 2.239723e+01 2.839159e+01 3.161985e+01 3.193907e+01 4.631599e+01 3.495851e+01 4.109654e+01 3.259470e+01 2.776056e+01 2.653061e+01 4.777949e-01 7.434184e-01 1.523639e+00 1.246499e+00 1.666749e+00 1.631742e+00 2.156437e+00 1.745554e+00 2.013597e+00 1.688674e+00 1.408693e+00 1.435837e+00 7.273505e-04
<GCONST> 8.229734e+01
<MIXTURE> 37 1.246826e-02
<MEAN> 25
 5.453933e-01 7.774000e+00 1.205734e+01 -5.554834e+00 -8.030883e+00 -1.052847e+00 -5.080258e+00 -8.324246e+00 -3.710587e+00 -9.075087e-01 -3.670138e+00 -1.292467e+00 1.825934e-01 6.471671e-01 -1.353863e+00 3.583693e+00 1.988058e+00 -3.007365e-01 1.091273e+00 4.361628e-01 5.280795e-01 -3.232073e-01 5.374086e-01 -9.756135e-02 -9.493677e-02
<VARIANCE> 25
 1.593117e+01 2.598245e+01 3.084145e+01 5.101070e+01 3.393684e+01 3.201438e+01 4.398240e+01 3.505069e+01 3.861115e+01 3.596832e+01 3.775222e+01 3.088911e+01 2.956275e+00 3.415828e+00 3.018535e+00 4.092242e+00 4.617562e+00 3.752818e+00 4.208166e+00 3.810772e+00 3.449690e+00 3.621684e+00 3.870069e+00 2.792063e+00 3.928627e-03
<GCONST> 9.778168e+01
<MIXTURE> 38 1.154525e-02
<MEAN> 25
 -4.475922e+00 8.974269e+00 4.601461e+00 3.232589e+00 8.458421e-01 -5.220650e+00 -6.064509e-01 -2.744975e+00 -2.856127e+00 -3.103251e+00 -1.491754e+00 -5.419814e-01 -4.518524e+00 1.251752e+00 -3.113795e-01 1.454507e+00 2.563176e+00 1.392790e+00 2.051519e+00 9.534084e-01 7.859347e-01 6.377147e-01 1.004397e+00 3.257583e-01 4.856528e-02
<VARIANCE> 25
 3.140408e+01 2.957540e+01 3.901207e+01 3.301136e+01 4.887080e+01 3.558871e+01 3.636579e+01 4.164975e+01 3.487622e+01 3.250072e+01 2.429016e+01 2.873016e+01 2.352858e+00 3.941601e+00 3.909599e+00 5.164873e+00 4.247832e+00 5.020739e+00 4.781848e+00 4.644636e+00 4.446362e+00 4.938339e+00 4.391196e+00 3.263844e+00 2.049568e-03
<GCONST> 9.926131e+01
<MIXTURE> 39 9.501865e-03
<MEAN> 25
 1.352136e+00 2.402773e+00 1.010971e+01 -8.958527e+00 -1.120182e+01 -9.973826e-01 -2.880404e+00 -6.543081e+00 -4.527175e+00 7.850075e-01 -3.642801e+00 -2.223390e+00 -7.337567e-01 1.476119e+00 1.624536e+00 -1.413704e+00 9.046021e-02 1.215038e+00 -1.184997e+00 -1.249542e+00 4.236389e-01 4.310147e-01 -5.092791e-01 1.117410e-01 2.029617e-03
<VARIANCE> 25
 8.754728e+00 3.203704e+01 3.177641e+01 4.063305e+01 3.687505e+01 4.208952e+01 4.416801e+01 3.323370e+01 3.895112e+01 3.289919e+01 3.578218e+01 2.916897e+01 6.856354e-01 1.618521e+00 1.485291e+00 2.915179e+00 2.378396e+00 2.815798e+00 3.081344e+00 2.716772e+00 2.418343e+00 2.578903e+00 2.113952e+00 2.034079e+00 1.209506e-03
<GCONST> 8.965956e+01
<MIXTURE> 40 1.030800e-02
<MEAN> 25
 -8.278081e+00 2.290855e+00 -9.637517e-01 7.339643e+00 3.660163e+00 5.188458e+00 5.118149e+00 4.043908e+00 4.400173e+00 4.006174e+00 5.334256e+00 1.667117e+00 -1.186780e-01 -1.910423e-01 9.853576e-03 -1.858550e-01 -1.491222e-01 -1.624835e-01 -1.577184e-02 3.890900e-02 1.066530e-02 3.168321e-02 5.908128e-02 6.057586e-02 3.981263e-03
<VARIANCE> 25
 4.439916e+01 1.883235e+01 2.641675e+01 2.946095e+01 2.406564e+01 1.781911e+01 1.808504e+01 1.771817e+01 1.596319e+01 1.689637e+01 1.779386e+01 1.330488e+01 6.812636e-01 6.834304e-01 8.429790e-01 1.004254e+00 1.089512e+00 1.177163e+00 1.395571e+00 1.280005e+00 1.230512e+00 1.147980e+00 1.189938e+00 1.056155e+00 7.944693e-04
<GCONST> 7.556203e+01
<MIXTURE> 41 6.713375e-03
<MEAN> 25
 1.329368e+00 1.491702e+00 1.045700e+01 -6.783251e+00 -1.044323e+01 -3.920012e+00 -2.538526e+00 -5.160573e+00 -4.743520e+00 2.472108e+00 -1.743858e+00 -8.849346e-01 8.568107e-02 -7.869782e-01 1.715965e+00 -3.541239e+00 -2.420090e+00 -1.654918e-01 -5.741894e-01 -3.556886e-01 -8.648129e-01 1.049744e+00 -9.784768e-01 7.128538e-02 8.681714e-02
<VARIANCE> 25
 1.143969e+01 3.229389e+01 3.182346e+01 4.034078e+01 3.778168e+01 4.053593e+01 3.639034e+01 2.969116e+01 3.258130e+01 2.939014e+01 3.123615e+01 2.668024e+01 3.122554e+00 3.263861e+00 3.747816e+00 3.714241e+00 4.871340e+00 5.919322e+00 4.819417e+00 4.456200e+00 3.972465e+00 4.164951e+00 3.937799e+00 3.146420e+00 2.910353e-03
<GCONST> 9.779247e+01
<MIXTURE> 42 1.106211e-02
<MEAN> 25
 -1.247264e+00 4.597049e+00 4.356000e+00 2.539192e+00 3.801204e-03 -5.941677e+00 -1.101646e+00 -1.605988e+00 -1.031510e+00 -1.102100e+00 -2.593449e+00 9.266459e-01 3.899991e+00 -3.352695e-01 1.298572e+00 2.506917e-01 -2.867266e+00 -1.439973e+00 -2.483330e+00 -1.116403e+00 -1.019209e+00 -5.204289e-01 8.092464e-01 -1.065417e+00 1.718065e-02
<VARIANCE> 25
 3.463733e+01 1.844630e+01 4.112846e+01 2.336014e+01 3.484987e+01 3.676807e+01 3.456733e+01 2.469677e+01 2.743653e+01 2.546425e+01 1.859065e+01 1.620230e+01 3.519449e+00 4.231109e+00 5.666547e+00 4.182844e+00 4.096829e+00 5.671612e+00 4.677026e+00 5.094000e+00 4.637539e+00 4.449855e+00 4.128977e+00 2.963791e+00 4.177270e-03
<GCONST> 9.767290e+01
<MIXTURE> 43 7.108249e-03
<MEAN> 25
 3.164165e+00 -6.302594e+00 -2.250775e+00 -5.186584e+00 -7.393755e+00 -3.403402e+00 4.140415e+00 1.310651e+00 -5.061252e+00 -7.091676e+00 -4.323005e+00 -1.248511e+00 2.377675e-01 2.164055e+00 1.913154e+00 -1.333857e-01 -1.429897e+00 -7.952583e-01 -9.702145e-01 -7.793850e-01 8.221263e-01 1.467851e+00 3.424433e-01 2.081683e-02 -4.507279e-02
<VARIANCE> 25
 9.601363e+00 1.973468e+01 2.733363e+01 3.519891e+01 3.844321e+01 3.661651e+01 3.326914e+01 3.978754e+01 3.965223e+01 3.863533e+01 2.653308e+01 2.954455e+01 6.904348e-01 1.250471e+00 1.570788e+00 2.489764e+00 2.374523e+00 2.381982e+00 2.652943e+00 3.027190e+00 2.605700e+00 2.577435e+00 2.330758e+00 1.918963e+00 9.443908e-04
<GCONST> 8.796719e+01
<MIXTURE> 44 7.328289e-03
<MEAN> 25
 -1.484041e+01 1.603696e+00 3.470656e+00 -3.196834e+00 3.280632e+00 1.966598e+00 -2.229149e-03 2.394495e+00 1.462955e+00 -8.078975e-01 1.645866e+00 1.941455e+00 -1.389715e-01 -1.341199e-02 1.786989e-01 3.156478e-01 -1.305056e-01 1.680298e-01 4.667651e-01 1.297552e-01 2.515847e-01 1.071451e-01 1.791849e-02 9.909294e-02 5.019496e-03
<VARIANCE> 25
 4.678959e+01 2.701885e+01 3.371386e+01 2.926629e+01 2.864379e+01 2.940944e+01 2.408492e+01 3.090965e+01 2.723461e+01 2.650681e+01 2.699724e+01 1.914191e+01 1.199482e+00 1.540187e+00 1.357412e+00 1.315938e+00 2.139378e+00 1.632399e+00 1.563411e+00 1.617681e+00 1.576603e+00 1.512733e+00 1.415841e+00 1.218941e+00 1.249488e-03
<GCONST> 8.426413e+01
<MIXTURE> 45 1.364932e-02
<MEAN> 25
 -1.244499e+01 3.421432e+00 -1.252405e+00 2.845342e+00 5.733070e+00 1.083230e-01 4.763567e+00 2.862680e+00 3.300299e+00 2.189577e+00 2.365954e+00 2.590545e+00 -2.939546e+00 5.939783e-01 -4.857408e-01 -5.339890e-01 1.936787e-01 -1.677195e-02 4.600387e-01 6.677485e-02 -6.890269e-02 -6.763811e-02 2.500273e-01 9.424398e-02 1.190687e-01
<VARIANCE> 25
 3.357210e+01 3.029234e+01 3.080793e+01 3.501143e+01 3.142089e+01 2.911757e+01 2.966798e+01 2.654434e+01 2.480201e+01 2.335947e+01 2.803576e+01 1.560119e+01 2.428231e+00 3.064973e+00 2.851599e+00 2.681592e+00 2.500538e+00 2.632637e+00 2.313791e+00 2.268615e+00 2.144356e+00 2.117902e+00 1.974362e+00 1.641452e+00 4.087767e-03
<GCONST> 9.055880e+01
<MIXTURE> 46 9.336259e-03
<MEAN> 25
 -9.464296e+00 2.310116e+00 1.199543e+00 7.569962e+00 5.943107e+00 3.337391e+00 7.069443e+00 4.497020e+00 5.709141e+00 4.693621e+00 5.040493e+00 2.927072e+00 1.060997e+00 -2.405715e-01 4.076432e-02 1.001759e+00 6.037126e-01 9.429752e-01 3.869594e-01 6.744649e-01 4.730272e-01 5.080353e-01 6.407216e-01 5.240948e-01 -1.056975e-01
<VARIANCE> 25
 3.423389e+01 4.384231e+01 3.853384e+01 4.994586e+01 5.084113e+01 4.080626e+01 3.706565e+01 3.537121e+01 3.315899e+01 3.095590e+01 2.824163e+01 2.022993e+01 3.912017e+00 4.144031e+00 3.882780e+00 4.139902e+00 4.176002e+00 3.698240e+00 3.382284e+00 3.116206e+00 2.983304e+00 2.866088e+00 2.309413e+00 1.783812e+00 7.952586e-03
<GCONST> 9.830396e+01
<MIXTURE> 47 7.116147e-03
<MEAN> 25
 7.331428e+00 -7.364598e+00 -7.755180e+00 -6.443722e+00 1.501156e+00 8.308435e-01 -2.394517e+00 1.220362e+00 3.011996e+00 1.478503e-01 -4.254226e+00 -6.708858e+00 -1.834285e-01 -1.257342e+00 -6.924760e-01 -4.181452e-01 6.220675e-01 8.174129e-01 8.749687e-01 2.996562e-01 1.162189e-01 -8.869377e-01 -4.680710e-01 -4.579683e-01 3.011529e-02
<VARIANCE> 25
 1.070867e+01 2.118936e+01 2.052730e+01 3.324464e+01 3.619753e+01 5.279196e+01 4.528931e+01 4.077000e+01 4.342524e+01 4.699688e+01 4.864382e+01 3.353558e+01 5.190885e-01 7.707514e-01 1.123058e+00 1.669794e+00 1.977288e+00 2.201687e+00 2.321221e+00 2.481554e+00 2.192966e+00 2.140886e+00 2.185410e+00 2.010939e+00 5.516100e-04
<GCONST> 8.645058e+01
<MIXTURE> 48 7.116147e-03
<MEAN> 25
 7.331428e+00 -7.364598e+00 -7.755180e+00 -6.443722e+00 1.501156e+00 8.308435e-01 -2.394517e+00 1.220362e+00 3.011996e+00 1.478503e-01 -4.254226e+00 -6.708858e+00 -1.834285e-01 -1.257342e+00 -6.924760e-01 -4.181452e-01 6.220675e-01 8.174129e-01 8.749687e-01 2.996562e-01 1.162189e-01 -8.869377e-01 -4.680710e-01 -4.579683e-01 3.011529e-02
<VARIANCE> 25
 1.070867e+01 2.118936e+01 2.052730e+01 3.324464e+01 3.619753e+01 5.279196e+01 4.528931e+01 4.077000e+01 4.342524e+01 4.699688e+01 4.864382e+01 3.353558e+01 5.190885e-01 7.707514e-01 1.123058e+00 1.669794e+00 1.977288e+00 2.201687e+00 2.321221e+00 2.481554e+00 2.192966e+00 2.140886e+00 2.185410e+00 2.010939e+00 5.516100e-04
<GCONST> 8.645058e+01
<MIXTURE> 49 5.548473e-03
<MEAN> 25
 -4.967359e+00 4.094622e-01 1.501312e-01 8.275716e+00 6.056456e+00 5.562790e+00 6.039770e+00 4.431416e+00 4.923542e+00 3.653054e+00 4.832589e+00 2.843190e+00 3.618096e-01 6.503980e-01 6.879956e-01 3.453617e-01 -1.780224e-01 -6.711248e-01 -1.017207e+00 -1.114323e+00 -9.357856e-01 -6.630974e-01 -4.873177e-01 -2.835484e-01 -8.934773e-05
<VARIANCE> 25
 9.970215e+00 1.001816e+01 1.395912e+01 1.680027e+01 1.591677e+01 1.707795e+01 1.911067e+01 1.932877e+01 1.858711e+01 1.780653e+01 2.061531e+01 1.427212e+01 2.784234e-01 2.603634e-01 3.631251e-01 6.012313e-01 8.840689e-01 9.684558e-01 9.996943e-01 1.036307e+00 1.143498e+00 1.216687e+00 1.285110e+00 1.194201e+00 1.470753e-05
<GCONST> 6.437723e+01
<MIXTURE> 50 6.234641e-03
<MEAN> 25
 -4.419998e+00 -2.930824e-02 -1.359920e+00 5.794288e+00 4.000350e+00 2.168245e+00 3.338240e+00 1.812748e+00 2.629236e+00 1.402929e+00 2.076775e+00 2.489835e+00 8.094127e-02 1.936926e-01 9.143344e-02 -1.820519e-01 -5.144622e-01 -6.114770e-01 -4.479103e-01 -4.169794e-02 4.319844e-01 7.546014e-01 7.679612e-01 4.234326e-01 -2.728039e-05
<VARIANCE> 25
 1.066902e+01 1.102741e+01 1.367390e+01 1.652361e+01 1.505110e+01 1.858322e+01 2.097376e+01 1.878536e+01 1.793133e+01 1.679554e+01 2.078825e+01 1.664490e+01 1.544380e-01 2.338073e-01 3.632183e-01 4.917511e-01 5.843078e-01 7.341320e-01 9.374750e-01 1.103565e+00 1.027039e+00 9.039913e-01 9.080762e-01 9.731755e-01 1.171599e-06
<GCONST> 5.958796e+01
<MIXTURE> 51 6.234641e-03
<MEAN> 25
 -4.419998e+00 -2.930824e-02 -1.359920e+00 5.794288e+00 4.000350e+00 2.168245e+00 3.338240e+00 1.812748e+00 2.629236e+00 1.402929e+00 2.076775e+00 2.489835e+00 8.094127e-02 1.936926e-01 9.143344e-02 -1.820519e-01 -5.144622e-01 -6.114770e-01 -4.479103e-01 -4.169794e-02 4.319844e-01 7.546014e-01 7.679612e-01 4.234326e-01 -2.728039e-05
<VARIANCE> 25
 1.066902e+01 1.102741e+01 1.367390e+01 1.652361e+01 1.505110e+01 1.858322e+01 2.097376e+01 1.878536e+01 1.793133e+01 1.679554e+01 2.078825e+01 1.664490e+01 1.544380e-01 2.338073e-01 3.632183e-01 4.917511e-01 5.843078e-01 7.341320e-01 9.374750e-01 1.103565e+00 1.027039e+00 9.039913e-01 9.080762e-01 9.731755e-01 1.171599e-06
<GCONST> 5.958796e+01
<MIXTURE> 52 6.367945e-03
<MEAN> 25
 1.012408e+01 2.049581e+00 -6.198573e+00 -1.428541e+01 -4.222353e+00 8.536521e+00 -2.753199e+00 -3.061230e+00 -4.408618e+00 -2.132553e+00 3.354841e+00 7.464442e-01 -3.855362e-01 -4.803394e-01 -6.966120e-02 1.140610e+00 1.339651e+00 -4.734864e-01 -6.030116e-01 -6.589787e-01 4.286916e-02 1.246260e+00 3.874888e-01 -5.457472e-01 -1.381460e-02
<VARIANCE> 25
 9.286865e+00 2.048894e+01 2.533283e+01 3.860548e+01 4.572942e+01 3.073476e+01 4.654940e+01 4.894244e+01 4.306256e+01 4.604097e+01 3.994884e+01 3.000779e+01 4.496352e-01 1.480708e+00 1.310520e+00 2.757970e+00 2.328876e+00 2.199724e+00 2.985839e+00 2.799766e+00 3.006122e+00 2.667221e+00 2.520336e+00 2.277474e+00 1.546426e-03
<GCONST> 8.973403e+01
<MIXTURE> 53 6.367945e-03
<MEAN> 25
 1.012408e+01 2.049581e+00 -6.198573e+00 -1.428541e+01 -4.222353e+00 8.536521e+00 -2.753199e+00 -3.061230e+00 -4.408618e+00 -2.132553e+00 3.354841e+00 7.464442e-01 -3.855362e-01 -4.803394e-01 -6.966120e-02 1.140610e+00 1.339651e+00 -4.734864e-01 -6.030116e-01 -6.589787e-01 4.286916e-02 1.246260e+00 3.874888e-01 -5.457472e-01 -1.381460e-02
<VARIANCE> 25
 9.286865e+00 2.048894e+01 2.533283e+01 3.860548e+01 4.572942e+01 3.073476e+01 4.654940e+01 4.894244e+01 4.306256e+01 4.604097e+01 3.994884e+01 3.000779e+01 4.496352e-01 1.480708e+00 1.310520e+00 2.757970e+00 2.328876e+00 2.199724e+00 2.985839e+00 2.799766e+00 3.006122e+00 2.667221e+00 2.520336e+00 2.277474e+00 1.546426e-03
<GCONST> 8.973403e+01
<MIXTURE> 54 7.368620e-03
<MEAN> 25
 -3.510215e+00 4.630486e-02 -7.163412e-01 7.820827e+00 6.361734e+00 4.644782e+00 4.548933e+00 4.537218e+00 4.050306e+00 3.581959e+00 4.425174e+00 2.279002e+00 -4.760932e-03 3.778838e-02 3.669902e-02 3.801729e-02 4.559439e-02 4.771527e-02 2.519822e-02 -1.807426e-02 1.688568e-02 3.630444e-02 1.727156e-03 -2.858997e-03 -5.673999e-05
<VARIANCE> 25
 9.391949e+00 1.028585e+01 9.107466e+00 1.920544e+01 1.343235e+01 1.317233e+01 1.217722e+01 1.116932e+01 1.102975e+01 1.334511e+01 1.733143e+01 1.228594e+01 4.016666e-02 8.990914e-02 1.500432e-01 2.282697e-01 3.028331e-01 3.865087e-01 4.641067e-01 5.872293e-01 5.387814e-01 5.124891e-01 5.064862e-01 5.032253e-01 1.050674e-06
<GCONST> 4.726022e+01
<MIXTURE> 55 7.368620e-03
<MEAN> 25
 -3.510215e+00 4.630486e-02 -7.163412e-01 7.820827e+00 6.361734e+00 4.644782e+00 4.548933e+00 4.537218e+00 4.050306e+00 3.581959e+00 4.425174e+00 2.279002e+00 -4.760932e-03 3.778838e-02 3.669902e-02 3.801729e-02 4.559439e-02 4.771527e-02 2.519822e-02 -1.807426e-02 1.688568e-02 3.630444e-02 1.727156e-03 -2.858997e-03 -5.673999e-05
<VARIANCE> 25
 9.391949e+00 1.028585e+01 9.107466e+00 1.920544e+01 1.343235e+01 1.317233e+01 1.217722e+01 1.116932e+01 1.102975e+01 1.334511e+01 1.733143e+01 1.228594e+01 4.016666e-02 8.990914e-02 1.500432e-01 2.282697e-01 3.028331e-01 3.865087e-01 4.641067e-01 5.872293e-01 5.387814e-01 5.124891e-01 5.064862e-01 5.032253e-01 1.050674e-06
<GCONST> 4.726022e+01
<MIXTURE> 56 6.132464e-03
<MEAN> 25
 7.532209e+00 -6.747820e+00 -9.136525e+00 -8.655318e+00 3.961810e+00 3.920192e+00 -2.179180e+00 -1.470299e+00 1.955500e+00 6.679327e-01 -2.474506e+00 -7.134248e+00 -9.797307e-03 2.542759e-02 -8.572599e-02 2.079139e-02 2.607364e-01 6.301805e-02 1.138209e-01 -1.390270e-01 -4.783715e-02 -3.776021e-02 -8.252615e-02 1.813720e-02 -7.069648e-03
<VARIANCE> 25
 9.535466e+00 2.348035e+01 2.008835e+01 4.115966e+01 3.307391e+01 5.090444e+01 6.177353e+01 3.674734e+01 3.884391e+01 3.765542e+01 4.019456e+01 3.110129e+01 2.057312e-01 4.312173e-01 4.518898e-01 7.704475e-01 7.980024e-01 1.116099e+00 9.082749e-01 9.062673e-01 9.079638e-01 9.245887e-01 1.033541e+00 7.839803e-01 2.385639e-04
<GCONST> 7.513689e+01
<MIXTURE> 57 6.132464e-03
<MEAN> 25
 7.532209e+00 -6.747820e+00 -9.136525e+00 -8.655318e+00 3.961810e+00 3.920192e+00 -2.179180e+00 -1.470299e+00 1.955500e+00 6.679327e-01 -2.474506e+00 -7.134248e+00 -9.797307e-03 2.542759e-02 -8.572599e-02 2.079139e-02 2.607364e-01 6.301805e-02 1.138209e-01 -1.390270e-01 -4.783715e-02 -3.776021e-02 -8.252615e-02 1.813720e-02 -7.069648e-03
<VARIANCE> 25
 9.535466e+00 2.348035e+01 2.008835e+01 4.115966e+01 3.307391e+01 5.090444e+01 6.177353e+01 3.674734e+01 3.884391e+01 3.765542e+01 4.019456e+01 3.110129e+01 2.057312e-01 4.312173e-01 4.518898e-01 7.704475e-01 7.980024e-01 1.116099e+00 9.082749e-01 9.062673e-01 9.079638e-01 9.245887e-01 1.033541e+00 7.839803e-01 2.385639e-04
<GCONST> 7.513689e+01
<MIXTURE> 58 6.172147e-03
<MEAN> 25
 2.534863e+00 -3.170799e+00 7.253430e+00 -5.272744e+00 -1.328489e+01 -5.576523e+00 1.517992e+00 8.817232e-01 -2.366942e+00 1.821382e+00 5.588747e-01 -7.756352e-01 -3.421569e-02 -1.455430e-01 -9.473229e-02 -1.624106e-01 -3.585962e-02 2.386824e-01 3.721226e-01 2.162707e-01 8.145869e-03 1.921796e-02 -9.045517e-02 -1.224268e-01 -2.771494e-03
<VARIANCE> 25
 7.411859e+00 1.550092e+01 2.096437e+01 2.646707e+01 2.481392e+01 4.597166e+01 3.328513e+01 3.421175e+01 3.386139e+01 3.073384e+01 2.260308e+01 1.984436e+01 3.053010e-01 8.037590e-01 7.671224e-01 9.983960e-01 8.827904e-01 1.184127e+00 1.130624e+00 1.275128e+00 1.062977e+00 1.043192e+00 9.040120e-01 8.790864e-01 7.052464e-04
<GCONST> 7.549554e+01
<MIXTURE> 59 6.172147e-03
<MEAN> 25
 2.534863e+00 -3.170799e+00 7.253430e+00 -5.272744e+00 -1.328489e+01 -5.576523e+00 1.517992e+00 8.817232e-01 -2.366942e+00 1.821382e+00 5.588747e-01 -7.756352e-01 -3.421569e-02 -1.455430e-01 -9.473229e-02 -1.624106e-01 -3.585962e-02 2.386824e-01 3.721226e-01 2.162707e-01 8.145869e-03 1.921796e-02 -9.045517e-02 -1.224268e-01 -2.771494e-03
<VARIANCE> 25
 7.411859e+00 1.550092e+01 2.096437e+01 2.646707e+01 2.481392e+01 4.597166e+01 3.328513e+01 3.421175e+01 3.386139e+01 3.073384e+01 2.260308e+01 1.984436e+01 3.053010e-01 8.037590e-01 7.671224e-01 9.983960e-01 8.827904e-01 1.184127e+00 1.130624e+00 1.275128e+00 1.062977e+00 1.043192e+00 9.040120e-01 8.790864e-01 7.052464e-04
<GCONST> 7.549554e+01
<MIXTURE> 60 4.479129e-03
<MEAN> 25
 -2.261409e+00 -1.865790e-01 -8.664246e-01 1.901440e+00 1.264787e+00 1.747675e+00 1.297435e+00 9.292244e-01 1.829035e+00 5.797260e-01 1.060073e+00 7.786431e-01 6.299382e-02 3.488237e-02 9.947006e-02 8.373412e-02 1.513821e-02 1.377704e-01 1.310816e-01 3.049746e-01 6.186280e-01 7.122413e-01 7.678663e-01 3.422972e-01 3.523433e-04
<VARIANCE> 25
 5.005754e+00 5.436099e+00 6.547807e+00 8.202744e+00 8.211274e+00 1.202343e+01 1.312628e+01 9.382287e+00 8.818431e+00 1.153863e+01 1.537539e+01 1.165526e+01 9.128216e-02 1.307193e-01 2.506680e-01 4.201932e-01 5.884570e-01 7.854289e-01 7.287934e-01 9.328250e-01 9.177291e-01 7.886901e-01 8.504303e-01 9.386964e-01 3.806294e-05
<GCONST> 5.388942e+01
<MIXTURE> 61 4.479129e-03
<MEAN> 25
 -2.261409e+00 -1.865790e-01 -8.664246e-01 1.901440e+00 1.264787e+00 1.747675e+00 1.297435e+00 9.292244e-01 1.829035e+00 5.797260e-01 1.060073e+00 7.786431e-01 6.299382e-02 3.488237e-02 9.947006e-02 8.373412e-02 1.513821e-02 1.377704e-01 1.310816e-01 3.049746e-01 6.186280e-01 7.122413e-01 7.678663e-01 3.422972e-01 3.523433e-04
<VARIANCE> 25
 5.005754e+00 5.436099e+00 6.547807e+00 8.202744e+00 8.211274e+00 1.202343e+01 1.312628e+01 9.382287e+00 8.818431e+00 1.153863e+01 1.537539e+01 1.165526e+01 9.128216e-02 1.307193e-01 2.506680e-01 4.201932e-01 5.884570e-01 7.854289e-01 7.287934e-01 9.328250e-01 9.177291e-01 7.886901e-01 8.504303e-01 9.386964e-01 3.806294e-05
<GCONST> 5.388942e+01
<MIXTURE> 62 3.278034e-03
<MEAN> 25
 -5.080286e+00 1.233495e+00 1.027578e+00 8.795014e+00 6.121376e+00 5.045676e+00 5.481503e+00 4.022451e+00 4.976909e+00 3.921128e+00 4.974028e+00 2.946274e+00 -1.002296e+00 -1.163481e+00 -9.515103e-01 -2.769671e-01 4.299995e-01 1.007991e+00 1.388837e+00 1.549458e+00 1.475367e+00 1.242601e+00 1.065236e+00 7.254105e-01 -1.258017e-03
<VARIANCE> 25
 9.892920e+00 9.973422e+00 1.309343e+01 1.690783e+01 1.740658e+01 1.749057e+01 1.982700e+01 1.913683e+01 1.885270e+01 1.869970e+01 2.156407e+01 1.478904e+01 4.013034e-01 4.355685e-01 5.539649e-01 7.774059e-01 1.035749e+00 1.194423e+00 1.257706e+00 1.278949e+00 1.330831e+00 1.361025e+00 1.398128e+00 1.368281e+00 1.630984e-05
<GCONST> 6.754632e+01
<MIXTURE> 63 4.351215e-03
<MEAN> 25
 -2.878855e+00 -9.579296e-01 -3.212509e+00 1.404241e+00 2.445837e+00 2.274699e-01 2.557531e+00 1.246650e+00 1.784765e+00 -6.731432e-01 -1.733373e+00 1.560875e+00 -6.283930e-02 2.951237e-01 4.206810e-01 5.323083e-01 3.956563e-01 2.570152e-01 2.249128e-01 4.134556e-01 4.080631e-01 1.492484e-01 5.352112e-02 -1.429075e-03 -4.499062e-04
<VARIANCE> 25
 7.611151e+00 1.441196e+01 1.397323e+01 1.409130e+01 1.418009e+01 1.958865e+01 1.712571e+01 2.069300e+01 2.020693e+01 1.652184e+01 1.698417e+01 1.392032e+01 2.317166e-01 3.857203e-01 4.795370e-01 5.985717e-01 9.885701e-01 1.166970e+00 1.101587e+00 1.396931e+00 1.460178e+00 1.115317e+00 1.324211e+00 1.458035e+00 1.768676e-04
<GCONST> 6.811720e+01
<MIXTURE> 64 4.351215e-03
<MEAN> 25
 -2.878855e+00 -9.579296e-01 -3.212509e+00 1.404241e+00 2.445837e+00 2.274699e-01 2.557531e+00 1.246650e+00 1.784765e+00 -6.731432e-01 -1.733373e+00 1.560875e+00 -6.283930e-02 2.951237e-01 4.206810e-01 5.323083e-01 3.956563e-01 2.570152e-01 2.249128e-01 4.134556e-01 4.080631e-01 1.492484e-01 5.352112e-02 -1.429075e-03 -4.499062e-04
<VARIANCE> 25
 7.611151e+00 1.441196e+01 1.397323e+01 1.409130e+01 1.418009e+01 1.958865e+01 1.712571e+01 2.069300e+01 2.020693e+01 1.652184e+01 1.698417e+01 1.392032e+01 2.317166e-01 3.857203e-01 4.795370e-01 5.985717e-01 9.885701e-01 1.166970e+00 1.101587e+00 1.396931e+00 1.460178e+00 1.115317e+00 1.324211e+00 1.458035e+00 1.768676e-04
<GCONST> 6.811720e+01
<MIXTURE> 65 1.721197e-02
<MEAN> 25
 7.684822e+00 2.179044e+00 1.735067e+00 6.274658e-01 -5.232637e+00 -4.351089e+00 -5.745445e+00 -6.562972e+00 -3.675148e+00 -2.343175e+00 -5.408506e+00 -1.907320e+00 1.718710e-01 6.633167e-02 -1.717940e-02 1.396914e-01 -1.666281e-01 2.991522e-01 -1.200911e-01 -1.818005e-01 1.151885e-01 -5.381736e-02 -1.054702e-01 -1.786255e-01 -3.708377e-03
<VARIANCE> 25
 1.214927e+01 1.828741e+01 2.530191e+01 3.469102e+01 3.664950e+01 5.550471e+01 5.653693e+01 5.674471e+01 5.387448e+01 5.622672e+01 5.517173e+01 4.835166e+01 5.344667e-01 9.533979e-01 1.547706e+00 1.799459e+00 1.927118e+00 2.158248e+00 2.233511e+00 2.934862e+00 2.449032e+00 2.428579e+00 2.376373e+00 2.150013e+00 4.805436e-04
<GCONST> 8.915315e+01
<MIXTURE> 66 1.191532e-02
<MEAN> 25
 6.681975e+00 -4.094445e+00 -5.622842e+00 -4.829875e+00 1.276446e+00 -5.094005e+00 -6.925241e+00 1.192767e+00 6.832996e-01 -2.051659e+00 -6.139833e+00 -3.475154e+00 -4.574861e-02 1.667197e+00 2.240437e+00 2.317792e+00 -1.251078e+00 -1.253272e+00 5.588623e-02 -5.468898e-01 -1.446038e-01 -1.945962e-01 -2.017276e-01 1.044954e+00 -6.380295e-02
<VARIANCE> 25
 8.927137e+00 2.234473e+01 2.706735e+01 3.307866e+01 3.852769e+01 5.343403e+01 5.600414e+01 4.541394e+01 5.412427e+01 6.678036e+01 3.699693e+01 3.644473e+01 1.283832e+00 2.446308e+00 2.352047e+00 2.470678e+00 4.197228e+00 4.309160e+00 4.371459e+00 4.845368e+00 4.249523e+00 4.994182e+00 3.900028e+00 3.262048e+00 1.469045e-03
<GCONST> 9.683801e+01
<MIXTURE> 67 1.559142e-02
<MEAN> 25
 8.985339e+00 2.034957e+00 -5.978045e+00 -8.273471e+00 9.024869e-01 3.081978e+00 -3.325904e+00 -2.242142e+00 -3.774129e+00 7.780721e-01 -5.415985e-02 -1.732754e+00 -1.074174e+00 1.831774e+00 1.062823e+00 3.072950e+00 1.392497e+00 -5.097043e-01 1.303066e+00 1.202785e-01 1.570757e-01 2.511571e-01 -2.766414e-01 6.253760e-01 -1.299886e-01
<VARIANCE> 25
 1.146516e+01 3.886094e+01 3.079477e+01 5.586701e+01 4.915831e+01 5.409084e+01 6.210550e+01 5.280479e+01 6.478895e+01 5.711904e+01 5.578380e+01 4.737775e+01 2.179739e+00 3.466105e+00 3.290321e+00 4.518112e+00 4.523136e+00 4.553733e+00 4.707559e+00 5.070808e+00 5.476578e+00 4.779235e+00 5.134775e+00 3.746196e+00 3.042586e-03
<GCONST> 1.029192e+02
<MIXTURE> 68 1.485092e-02
<MEAN> 25
 -1.988739e+00 -2.236551e+00 -4.045631e+00 1.250873e+00 5.214087e+00 -6.517960e-01 2.137470e+00 1.834444e+00 2.040802e+00 1.713063e+00 4.152671e-01 1.839946e+00 2.763438e+00 5.408551e-01 2.135056e-02 -2.541491e+00 -2.409577e+00 -1.606216e+00 -2.373279e+00 -1.801105e+00 -1.653776e+00 -1.453310e+00 -1.941054e+00 -1.061312e+00 1.029096e-01
<VARIANCE> 25
 2.578067e+01 3.213317e+01 5.837821e+01 5.200174e+01 4.635911e+01 5.452619e+01 4.478699e+01 4.180305e+01 4.008365e+01 4.307347e+01 3.737759e+01 2.557843e+01 1.844728e+00 3.707178e+00 5.875298e+00 5.961259e+00 4.649805e+00 5.564674e+00 5.736498e+00 4.924123e+00 4.922746e+00 5.266357e+00 5.153197e+00 3.382345e+00 6.079962e-03
<GCONST> 1.034549e+02
<MIXTURE> 69 1.204884e-02
<MEAN> 25
 4.675145e+00 -4.225948e+00 -3.556667e+00 -3.608108e+00 -3.518573e+00 -7.884972e+00 -1.117809e+00 2.201888e+00 -3.611041e-01 -4.731707e+00 -5.672277e+00 9.558027e-01 1.672418e+00 -2.233682e+00 -1.332630e+00 -2.240561e+00 -5.289288e-01 -3.454043e-01 -4.701404e-01 6.123713e-01 -6.416138e-01 -1.458791e+00 -2.201846e+00 -1.726156e-01 6.244111e-02
<VARIANCE> 25
 8.882000e+00 2.180201e+01 2.676961e+01 2.609567e+01 4.268891e+01 3.562300e+01 4.906581e+01 3.158498e+01 3.982418e+01 3.787044e+01 3.114675e+01 2.457720e+01 3.556218e+00 2.918703e+00 3.343355e+00 3.707346e+00 5.756049e+00 5.017876e+00 7.116015e+00 6.076665e+00 5.904952e+00 5.856379e+00 4.350822e+00 3.697626e+00 2.450687e-03
<GCONST> 9.869115e+01
<MIXTURE> 70 1.329190e-02
<MEAN> 25
 7.677020e+00 -1.766320e+00 -3.680657e+00 -3.063534e+00 -9.403208e-01 -1.678139e+00 -8.095641e+00 -4.119796e+00 -1.144324e-01 2.913248e+00 1.209351e-01 -4.769269e+00 1.902957e+00 -1.104366e+00 -8.247765e-01 -1.948264e+00 -1.509192e+00 9.260193e-01 -1.440066e+00 -1.723680e-01 1.275630e-01 -3.554370e-02 8.129516e-01 -1.344385e+00 5.986635e-02
<VARIANCE> 25
 9.578157e+00 2.201097e+01 2.710445e+01 4.716716e+01 3.617572e+01 5.310686e+01 4.846767e+01 4.107310e+01 4.937341e+01 3.037518e+01 4.253559e+01 2.560419e+01 3.295993e+00 3.087117e+00 4.546218e+00 5.368392e+00 4.847867e+00 6.739548e+00 6.478833e+00 7.402918e+00 6.253978e+00 5.103923e+00 5.769522e+00 4.124907e+00 2.366703e-03
<GCONST> 1.013728e+02
<MIXTURE> 71 1.406903e-02
<MEAN> 25
 6.456520e+00 4.990957e+00 4.099036e+00 3.208594e+00 -3.613449e+00 -3.684701e+00 -3.631031e+00 -6.573938e+00 -4.802528e+00 -2.404548e+00 -5.000398e+00 -3.183243e+00 -1.534476e+00 -7.328364e-01 -2.105290e-01 -1.705622e+00 1.085173e+00 -1.398100e-01 4.719824e-02 1.512247e+00 2.780026e-01 -2.123084e-01 6.541615e-01 1.815624e-01 4.122557e-02
<VARIANCE> 25
 1.873003e+01 2.692323e+01 2.490715e+01 4.408965e+01 4.040681e+01 4.221271e+01 4.451522e+01 4.064684e+01 3.888873e+01 4.348476e+01 3.750560e+01 3.387457e+01 1.783504e+00 3.015610e+00 5.231795e+00 5.025575e+00 4.644811e+00 4.717894e+00 4.872617e+00 5.329902e+00 4.256770e+00 4.039384e+00 3.606170e+00 3.208640e+00 1.445691e-03
<GCONST> 9.874384e+01
<MIXTURE> 72 8.134747e-03
<MEAN> 25
 3.788925e+00 -3.680326e+00 5.453829e+00 -2.467909e+00 -1.040159e+01 -9.623208e+00 -2.453548e+00 1.919909e+00 -4.942269e+00 -2.205835e+00 -1.893381e+00 6.161748e-01 9.321750e-01 -7.860270e-01 -2.576292e+00 4.629593e-01 2.136402e+00 -6.541715e-01 -1.315974e+00 1.524684e+00 1.812757e+00 -5.975766e-01 -1.289594e+00 4.035555e-01 -6.120508e-03
<VARIANCE> 25
 1.079707e+01 1.949738e+01 3.287044e+01 3.840884e+01 3.232134e+01 3.337349e+01 4.106189e+01 3.621592e+01 4.368342e+01 4.138137e+01 3.883428e+01 2.850287e+01 4.323409e-01 1.025715e+00 2.022269e+00 1.468796e+00 2.184888e+00 2.355394e+00 3.062725e+00 2.732293e+00 2.609472e+00 2.960523e+00 2.022879e+00 2.128780e+00 5.406392e-04
<GCONST> 8.725458e+01
<MIXTURE> 73 1.213625e-02
<MEAN> 25
 -5.620544e+00 -7.754456e-01 -1.296984e+00 4.902848e+00 4.230278e+00 2.338522e+00 5.511152e+00 3.453419e+00 4.371112e+00 3.436401e+00 4.237824e+00 3.014332e+00 8.077191e-01 -1.027948e+00 -9.404941e-01 -2.636146e+00 -1.262681e+00 -1.754958e+00 -9.114290e-01 -5.150695e-01 -9.238561e-01 -6.967945e-01 -1.096062e+00 -2.855935e-01 1.546131e-01
<VARIANCE> 25
 1.291447e+01 1.343269e+01 1.516684e+01 2.261578e+01 2.328895e+01 2.469835e+01 2.033985e+01 1.994109e+01 1.772061e+01 1.900273e+01 2.303158e+01 1.558973e+01 4.041523e+00 3.083643e+00 5.955343e+00 4.708751e+00 6.134046e+00 4.551774e+00 4.320239e+00 4.250213e+00 3.890364e+00 4.226235e+00 3.556409e+00 2.668035e+00 4.311167e-03
<GCONST> 9.270306e+01
<MIXTURE> 74 1.756491e-02
<MEAN> 25
 4.731769e+00 -1.975021e+00 5.286288e+00 -4.543136e-01 -8.973588e+00 -8.913832e+00 -3.319507e+00 4.449693e-01 -4.725556e+00 -2.994566e+00 -1.179932e+00 3.782257e-01 1.592396e-01 1.777553e+00 1.691688e-01 1.542268e+00 1.124020e+00 5.147876e-01 3.819544e-01 -1.244546e+00 2.680161e-01 1.081374e-01 -3.180495e-01 5.947197e-03 -7.683859e-02
<VARIANCE> 25
 1.140841e+01 2.233462e+01 3.496789e+01 4.165232e+01 3.529154e+01 4.093938e+01 5.398070e+01 4.448289e+01 4.902202e+01 4.199651e+01 4.192493e+01 3.219344e+01 2.220528e+00 2.632113e+00 3.828614e+00 2.814236e+00 3.804554e+00 4.006025e+00 6.475543e+00 4.122046e+00 3.990634e+00 3.820432e+00 3.552936e+00 3.149766e+00 1.676822e-03
<GCONST> 9.756785e+01
<MIXTURE> 75 9.711651e-03
<MEAN> 25
 3.663282e+00 -2.703837e+00 9.974831e+00 1.007266e+00 -1.164083e+01 -9.505415e+00 -6.354704e+00 -1.910071e+00 -6.169524e+00 -3.787842e+00 4.086184e+00 3.590477e-01 1.559323e+00 -1.621489e+00 2.668126e-01 -2.977287e-01 -2.206755e+00 -9.598431e-01 -1.694362e+00 9.831924e-01 -8.114954e-01 -4.124513e-02 1.327391e+00 -4.159440e-01 4.945908e-02
<VARIANCE> 25
 1.130603e+01 3.420063e+01 3.763345e+01 2.551111e+01 2.150904e+01 3.056538e+01 3.016344e+01 3.024852e+01 3.551207e+01 2.687255e+01 1.869723e+01 1.663558e+01 1.874493e+00 1.593760e+00 4.000754e+00 2.590541e+00 2.919746e+00 3.981817e+00 3.486366e+00 3.504796e+00 3.696753e+00 2.976631e+00 2.701770e+00 1.951097e+00 1.551551e-03
<GCONST> 9.065788e+01
<MIXTURE> 76 1.052359e-02
<MEAN> 25
 -5.526642e+00 -8.062751e-01 -2.211890e+00 3.110435e+00 3.629667e+00 1.512901e+00 3.605914e+00 2.005731e+00 2.412011e+00 4.911830e-01 1.255052e+00 2.214147e+00 -4.626156e-02 -4.355890e-01 -2.176894e-01 -6.962472e-01 -6.582019e-01 -8.564684e-01 -6.667088e-01 -4.108738e-01 -3.476626e-01 -4.400410e-01 -2.974785e-01 -1.666704e-01 1.642296e-02
<VARIANCE> 25
 3.466376e+01 2.553732e+01 2.578228e+01 2.486305e+01 2.719004e+01 2.705167e+01 2.394940e+01 2.374542e+01 2.208802e+01 2.152209e+01 2.396839e+01 1.764099e+01 9.358693e-01 1.084405e+00 1.236982e+00 1.166640e+00 1.310499e+00 1.599956e+00 1.698078e+00 1.692034e+00 1.839843e+00 1.527971e+00 1.520478e+00 1.234723e+00 1.121608e-03
<GCONST> 8.139870e+01
<MIXTURE> 77 1.244626e-02
<MEAN> 25
 -4.725828e-01 8.471644e+00 1.221828e+01 -1.145996e+01 -6.905226e+00 8.832998e-01 -9.139141e+00 -7.170187e+00 -3.382901e+00 -3.064465e-01 -4.705240e+00 -1.477991e+00 7.469391e-02 1.229393e-01 6.850697e-02 2.419657e-01 -3.206939e-02 8.574143e-02 -5.153844e-02 -5.358496e-02 8.217140e-02 -5.885711e-02 4.317167e-03 1.155203e-01 -9.706618e-03
<VARIANCE> 25
 1.024074e+01 2.034523e+01 2.995268e+01 4.206345e+01 3.310505e+01 3.348213e+01 3.713379e+01 3.147937e+01 3.466128e+01 3.341070e+01 3.713517e+01 3.432957e+01 2.986633e-01 7.842970e-01 6.397383e-01 1.077440e+00 1.245912e+00 9.708532e-01 1.211328e+00 1.071796e+00 1.067032e+00 1.065356e+00 9.769675e-01 9.239146e-01 5.329524e-04
<GCONST> 7.782108e+01
<MIXTURE> 78 9.702551e-03
<MEAN> 25
 -1.154409e+01 1.133782e+00 -1.618372e+00 2.245109e+00 4.409790e+00 -2.266638e+00 3.780643e+00 2.658531e+00 2.624146e+00 7.314919e-01 -5.006137e-01 3.065784e+00 2.395717e+00 -2.682825e-01 1.919708e-01 5.841278e-01 -3.790051e-02 1.173267e-02 -3.161123e-01 -9.315529e-02 2.231409e-01 1.434864e-01 -3.742745e-01 -4.582914e-01 -6.134495e-02
<VARIANCE> 25
 4.157247e+01 3.272256e+01 3.261381e+01 3.240977e+01 3.970058e+01 3.702992e+01 3.557676e+01 3.269933e+01 2.809210e+01 2.760534e+01 2.705446e+01 2.019026e+01 4.919813e+00 2.584076e+00 2.848016e+00 3.060630e+00 2.847422e+00 3.515283e+00 3.284015e+00 2.830363e+00 2.364293e+00 2.363026e+00 2.253036e+00 2.123457e+00 4.746706e-03
<GCONST> 9.461065e+01
<MIXTURE> 79 1.156824e-02
<MEAN> 25
 2.423113e+00 1.581826e+00 9.182027e+00 -6.602334e+00 -1.207263e+01 -1.830087e+00 -1.925481e+00 -6.480005e+00 -6.576583e+00 3.208064e-01 -3.514527e+00 -3.293148e+00 1.221629e+00 -5.265329e-01 -1.433344e+00 2.353362e+00 3.792772e-01 -1.472825e+00 5.327753e-01 8.865945e-01 -4.382639e-01 -5.426249e-01 3.583921e-01 2.802226e-01 -3.620068e-02
<VARIANCE> 25
 1.424657e+01 2.412267e+01 3.799228e+01 4.978746e+01 3.338441e+01 4.357458e+01 4.290672e+01 3.675298e+01 3.893288e+01 3.983569e+01 4.401705e+01 3.067285e+01 9.428772e-01 2.260554e+00 1.893812e+00 2.086545e+00 2.473379e+00 2.815632e+00 3.202551e+00 3.533524e+00 2.518523e+00 2.735868e+00 2.317880e+00 2.030657e+00 1.244091e-03
<GCONST> 9.181979e+01
<MIXTURE> 80 7.550998e-03
<MEAN> 25
 -1.460848e+01 3.982978e+00 6.888546e-01 2.865955e+00 2.449376e+00 1.410285e+00 6.396967e+00 2.496776e+00 2.719664e+00 2.373516e+00 4.852752e+00 1.186932e+00 4.286308e+00 -1.602164e-02 1.637923e+00 -1.135525e+00 -2.889461e+00 -2.777583e+00 -2.323264e+00 -2.021471e+00 -1.975030e+00 -1.685162e+00 -1.650802e+00 -6.027530e-01 -4.423088e-02
<VARIANCE> 25
 2.095214e+01 1.984640e+01 3.444407e+01 3.470728e+01 3.018058e+01 2.920854e+01 2.828662e+01 2.855473e+01 2.674618e+01 2.881097e+01 2.685523e+01 1.810682e+01 2.357282e+00 2.666163e+00 2.673104e+00 4.119924e+00 3.394112e+00 2.705048e+00 3.025251e+00 3.204051e+00 2.749089e+00 2.701747e+00 2.782267e+00 2.145724e+00 1.512310e-03
<GCONST> 9.139682e+01
<MIXTURE> 81 8.025434e-03
<MEAN> 25
 -1.116097e+00 4.053847e+00 1.011997e+01 -1.473284e+01 -9.040085e+00 -1.431739e+00 -6.738491e+00 -8.400036e+00 -4.148452e+00 -4.515365e-01 -7.577072e+00 -2.240649e+00 1.350995e-01 -5.870817e-01 -3.459313e-03 -5.537639e-01 -4.623202e-01 3.359965e-01 3.211869e-01 1.389583e-01 -1.389527e-01 1.014074e-01 -4.731774e-01 -1.235785e-01 1.147821e-02
<VARIANCE> 25
 1.009388e+01 3.269202e+01 2.689093e+01 2.992164e+01 3.378848e+01 3.037850e+01 4.537698e+01 2.821665e+01 3.779313e+01 3.197318e+01 2.518241e+01 3.088493e+01 7.689741e-01 2.267109e+00 1.540470e+00 2.860300e+00 2.658635e+00 2.113736e+00 3.264006e+00 2.279647e+00 2.354529e+00 2.533869e+00 2.287739e+00 2.073749e+00 1.177758e-03
<GCONST> 8.864950e+01
<MIXTURE> 82 8.213053e-03
<MEAN> 25
 -9.965549e+00 -3.903183e+00 1.640190e+00 -2.971594e+00 3.113553e+00 6.711802e-01 1.994684e+00 9.377781e-01 2.976321e+00 1.729246e+00 1.742308e+00 3.085151e+00 -1.314154e+00 -1.249238e-01 2.897331e-01 -2.604278e+00 -1.105537e+00 -1.265444e+00 -1.013676e+00 -8.703347e-01 -3.167253e-01 -4.782556e-01 -3.165835e-01 -9.519441e-02 1.784413e-01
<VARIANCE> 25
 1.801676e+01 2.494008e+01 3.236967e+01 3.088782e+01 3.302558e+01 3.229049e+01 3.178124e+01 3.298268e+01 3.086020e+01 2.512561e+01 3.079125e+01 1.750372e+01 3.755306e+00 3.049102e+00 3.316754e+00 3.269002e+00 3.562107e+00 3.286525e+00 2.943850e+00 3.016082e+00 2.795008e+00 2.490916e+00 2.449434e+00 1.865868e+00 3.430610e-03
<GCONST> 9.308260e+01
<MIXTURE> 83 1.167529e-02
<MEAN> 25
 -2.004081e+01 5.504238e+00 -1.789702e+00 -4.051103e-01 7.829639e+00 -1.234488e+00 5.460100e+00 3.044532e+00 1.192393e+00 2.190908e+00 7.244872e-01 2.881716e+00 -2.631321e-02 -4.501706e-01 4.872012e-03 -3.655977e-01 -4.974648e-01 -1.258521e-01 -1.343577e-01 -9.942717e-02 -4.144356e-02 -3.920248e-02 -3.058213e-02 -3.465528e-02 4.403248e-03
<VARIANCE> 25
 8.819281e+00 1.645402e+01 2.851271e+01 2.248555e+01 2.127508e+01 2.407955e+01 2.202746e+01 2.336420e+01 2.042958e+01 2.221887e+01 2.319599e+01 1.448780e+01 1.060910e+00 9.362046e-01 1.240790e+00 1.065688e+00 1.359398e+00 1.291389e+00 1.283447e+00 1.388157e+00 1.349015e+00 1.310737e+00 1.220778e+00 1.071650e+00 8.923843e-04
<GCONST> 7.703519e+01
<MIXTURE> 84 1.066614e-02
<MEAN> 25
 1.177928e+00 9.023273e+00 7.244773e+00 7.986596e+00 2.831742e+00 -9.176955e-01 -1.525218e+00 -4.482031e+00 -4.119354e+00 -2.910870e+00 -2.415022e+00 -1.596892e+00 -1.787534e+00 -1.185250e+00 -1.205831e+00 1.289042e+00 2.254373e+00 1.504221e+00 1.453201e+00 1.290206e+00 1.169322e+00 4.031032e-01 4.161533e-01 4.249353e-01 -7.170843e-02
<VARIANCE> 25
 2.349819e+01 1.824928e+01 2.161255e+01 2.415238e+01 2.918924e+01 2.830859e+01 2.795638e+01 2.654446e+01 2.529393e+01 2.524662e+01 2.360010e+01 2.460912e+01 2.102368e+00 2.541813e+00 3.850265e+00 3.302120e+00 3.275117e+00 3.377348e+00 3.290948e+00 3.407883e+00 3.483371e+00 3.250792e+00 3.589249e+00 2.806751e+00 3.527606e-03
<GCONST> 9.254480e+01
<MIXTURE> 85 7.591393e-03
<MEAN> 25
 -3.068561e+00 7.875185e+00 5.709552e+00 1.280725e+00 -3.490311e+00 -5.332283e+00 -2.989228e+00 -6.097202e+00 -3.524027e+00 -3.176307e+00 -4.948029e-01 -1.896490e+00 3.932888e+00 3.214130e-01 1.743099e+00 -2.078314e+00 -3.409306e+00 -2.587627e+00 -2.891269e+00 -2.345865e+00 -2.252271e+00 -1.252980e+00 -2.274473e+00 -6.177705e-01 9.506795e-03
<VARIANCE> 25
 4.259589e+01 2.337505e+01 3.633368e+01 3.802692e+01 3.956858e+01 4.105846e+01 3.208541e+01 2.788499e+01 2.663711e+01 2.602891e+01 2.619120e+01 2.046495e+01 2.710149e+00 4.305339e+00 4.069667e+00 5.187647e+00 4.390725e+00 3.864245e+00 3.837794e+00 3.970661e+00 3.830620e+00 4.041481e+00 4.068454e+00 3.468196e+00 5.433284e-03
<GCONST> 9.832968e+01
<MIXTURE> 86 1.273941e-02
<MEAN> 25
 -3.503433e+00 -3.848650e-01 -5.793087e-01 4.506185e+00 4.153730e+00 4.439615e+00 5.191056e+00 4.520414e+00 4.645514e+00 3.557343e+00 4.538295e+00 2.537120e+00 -1.265405e-02 2.474653e-02 -3.024131e-02 -2.184410e-01 -1.122966e-01 -3.899382e-01 -3.735711e-01 -2.905990e-01 -3.557948e-01 -2.777338e-01 -4.231327e-01 -1.066198e-01 -3.147124e-03
<VARIANCE> 25
 8.638825e+00 7.223095e+00 7.310708e+00 1.395227e+01 1.373808e+01 1.332106e+01 1.316495e+01 1.166856e+01 1.054511e+01 1.199595e+01 1.273368e+01 1.057526e+01 1.004746e-01 1.957634e-01 3.105185e-01 4.884785e-01 6.099299e-01 8.034353e-01 7.435097e-01 8.228711e-01 8.568787e-01 7.719671e-01 1.078246e+00 7.532857e-01 6.005018e-05
<GCONST> 5.733159e+01
<MIXTURE> 87 1.100681e-02
<MEAN> 25
 -3.301684e+00 4.542856e+00 3.505404e+00 7.022730e+00 5.567671e+00 8.916327e-01 1.645370e+00 -9.458233e-01 -5.887936e-01 -8.893763e-01 -7.874548e-01 3.020387e-02 -2.151795e+00 -2.786646e+00 -2.102209e+00 -2.225877e+00 -3.801315e-02 -1.823935e-01 6.141536e-01 1.299353e+00 1.403805e+00 1.030571e+00 9.443966e-01 1.004095e+00 1.046884e-01
<VARIANCE> 25
 3.811672e+01 2.954524e+01 2.805588e+01 3.372678e+01 2.875555e+01 3.191653e+01 2.814343e+01 2.730696e+01 2.593813e+01 2.469524e+01 2.481928e+01 2.315955e+01 3.860933e+00 2.715790e+00 3.918983e+00 3.653649e+00 4.794662e+00 4.312215e+00 4.156816e+00 3.899134e+00 3.534685e+00 3.386299e+00 3.384752e+00 2.732863e+00 4.958147e-03
<GCONST> 9.633503e+01
<MIXTURE> 88 1.256585e-02
<MEAN> 25
 -3.644485e+00 -6.872313e-02 -1.046506e+00 4.150246e+00 4.085387e+00 2.952479e+00 4.491022e+00 3.421141e+00 3.373482e+00 2.141902e+00 2.287683e+00 2.186041e+00 -7.935035e-03 1.072061e-01 2.131032e-01 3.505851e-01 1.616154e-01 1.355167e-01 -9.344376e-02 -3.913639e-01 -4.891116e-01 -3.206867e-01 -2.421495e-01 -4.440576e-02 -4.895708e-03
<VARIANCE> 25
 9.051074e+00 1.122631e+01 1.262955e+01 1.737111e+01 1.751050e+01 1.855409e+01 1.766623e+01 1.667780e+01 1.644918e+01 1.629133e+01 1.940025e+01 1.423386e+01 1.117443e+00 1.460397e+00 1.743835e+00 1.888597e+00 2.289778e+00 2.444625e+00 2.564842e+00 2.631565e+00 3.107030e+00 2.206775e+00 2.171340e+00 1.736191e+00 1.244448e-03
<GCONST> 8.051662e+01
<MIXTURE> 89 9.333527e-03
<MEAN> 25
 6.067612e+00 -6.812467e+00 -3.553601e+00 -3.163043e+00 -1.612604e+00 -5.581138e+00 -6.099651e+00 4.096447e+00 3.462894e+00 -2.805671e+00 -6.028114e+00 -3.281587e+00 -5.699309e-01 1.560567e-01 1.986295e+00 8.990680e-01 -1.869774e+00 -1.648211e+00 8.861481e-01 1.265043e+00 -7.846903e-01 -1.314313e+00 4.036774e-01 1.538118e+00 -4.855006e-03
<VARIANCE> 25
 9.046026e+00 2.685155e+01 3.102516e+01 3.017708e+01 3.603779e+01 4.165683e+01 5.979089e+01 4.205552e+01 3.909016e+01 4.234424e+01 3.578547e+01 3.234869e+01 3.538598e-01 8.421154e-01 1.481097e+00 1.318598e+00 1.915801e+00 2.123037e+00 2.578675e+00 2.037523e+00 2.255314e+00 2.127866e+00 2.326763e+00 1.468979e+00 3.665073e-04
<GCONST> 8.529776e+01
<MIXTURE> 90 7.114505e-03
<MEAN> 25
 2.435236e+00 -9.665634e+00 -4.740426e+00 -3.977376e+00 -3.379898e+00 -1.802390e+00 3.353778e+00 1.162057e+00 -7.505800e+00 -1.019248e+01 -3.420361e+00 -7.192392e-01 -1.634677e-01 9.052842e-01 1.163711e+00 -8.540884e-01 -1.606677e+00 -2.117416e-01 6.453574e-01 -2.163039e-01 -1.743111e-01 7.294935e-01 1.759564e-01 -5.541041e-01 -1.111815e-02
<VARIANCE> 25
 8.479961e+00 1.832227e+01 1.975187e+01 2.788304e+01 3.668315e+01 3.203682e+01 3.836593e+01 3.630801e+01 3.516705e+01 2.770990e+01 2.689344e+01 2.615009e+01 2.228777e-01 6.126915e-01 7.879902e-01 1.038657e+00 1.472128e+00 1.585541e+00 1.778281e+00 1.659253e+00 1.814697e+00 1.683036e+00 1.501188e+00 1.313049e+00 2.141688e-04
<GCONST> 7.813475e+01
<MIXTURE> 91 7.852945e-03
<MEAN> 25
 6.386865e+00 -7.638824e+00 -8.578561e+00 -5.163974e+00 3.970355e+00 -1.213128e-01 -2.187899e+00 7.300766e-01 7.804440e-01 -2.943474e+00 -4.932087e+00 -5.180859e+00 2.593898e-01 1.002594e+00 1.916193e-01 4.486146e-01 -7.125922e-02 -5.604433e-01 -3.906478e-01 -1.032323e-01 -1.024116e-01 4.572908e-01 -1.170954e-01 2.100983e-01 -3.498555e-02
<VARIANCE> 25
 1.013889e+01 2.273398e+01 1.991804e+01 4.056290e+01 3.516457e+01 5.545668e+01 5.442519e+01 3.964178e+01 5.192840e+01 6.421178e+01 3.827858e+01 4.147639e+01 4.454867e-01 8.874162e-01 1.126912e+00 1.386078e+00 2.195128e+00 2.378958e+00 2.372703e+00 2.392899e+00 2.245341e+00 2.216130e+00 2.013633e+00 1.821484e+00 5.855662e-04
<GCONST> 8.718473e+01
<MIXTURE> 92 7.852945e-03
<MEAN> 25
 6.386865e+00 -7.638824e+00 -8.578561e+00 -5.163974e+00 3.970355e+00 -1.213128e-01 -2.187899e+00 7.300766e-01 7.804440e-01 -2.943474e+00 -4.932087e+00 -5.180859e+00 2.593898e-01 1.002594e+00 1.916193e-01 4.486146e-01 -7.125922e-02 -5.604433e-01 -3.906478e-01 -1.032323e-01 -1.024116e-01 4.572908e-01 -1.170954e-01 2.100983e-01 -3.498555e-02
<VARIANCE> 25
 1.013889e+01 2.273398e+01 1.991804e+01 4.056290e+01 3.516457e+01 5.545668e+01 5.442519e+01 3.964178e+01 5.192840e+01 6.421178e+01 3.827858e+01 4.147639e+01 4.454867e-01 8.874162e-01 1.126912e+00 1.386078e+00 2.195128e+00 2.378958e+00 2.372703e+00 2.392899e+00 2.245341e+00 2.216130e+00 2.013633e+00 1.821484e+00 5.855662e-04
<GCONST> 8.718473e+01
<MIXTURE> 93 6.122769e-03
<MEAN> 25
 -6.810117e+00 -9.573034e-01 -2.400875e+00 5.786161e+00 5.899503e+00 3.922968e+00 6.113522e+00 3.604631e+00 4.118031e+00 2.509338e+00 1.819520e+00 3.700439e+00 -6.171392e-02 -1.538926e-01 -2.570806e-01 -3.319593e-01 -3.331467e-01 -2.836320e-01 -2.178070e-01 -1.761855e-01 -1.670126e-01 -1.496384e-01 -1.045137e-01 -3.590033e-02 -6.186959e-06
<VARIANCE> 25
 9.190989e+00 6.028333e+00 8.172058e+00 1.141300e+01 1.150670e+01 1.596147e+01 1.530529e+01 1.642678e+01 1.473427e+01 1.452587e+01 1.676230e+01 1.344824e+01 8.265260e-02 1.537732e-01 2.636953e-01 3.800128e-01 4.974090e-01 6.417676e-01 7.791191e-01 8.892888e-01 9.154119e-01 8.755682e-01 8.913811e-01 9.176733e-01 1.005402e-06
<GCONST> 5.361443e+01
<MIXTURE> 94 6.122769e-03
<MEAN> 25
 -6.810117e+00 -9.573034e-01 -2.400875e+00 5.786161e+00 5.899503e+00 3.922968e+00 6.113522e+00 3.604631e+00 4.118031e+00 2.509338e+00 1.819520e+00 3.700439e+00 -6.171392e-02 -1.538926e-01 -2.570806e-01 -3.319593e-01 -3.331467e-01 -2.836320e-01 -2.178070e-01 -1.761855e-01 -1.670126e-01 -1.496384e-01 -1.045137e-01 -3.590033e-02 -6.186959e-06
<VARIANCE> 25
 9.190989e+00 6.028333e+00 8.172058e+00 1.141300e+01 1.150670e+01 1.596147e+01 1.530529e+01 1.642678e+01 1.473427e+01 1.452587e+01 1.676230e+01 1.344824e+01 8.265260e-02 1.537732e-01 2.636953e-01 3.800128e-01 4.974090e-01 6.417676e-01 7.791191e-01 8.892888e-01 9.154119e-01 8.755682e-01 8.913811e-01 9.176733e-01 1.005402e-06
<GCONST> 5.361443e+01
<MIXTURE> 95 5.258835e-03
<MEAN> 25
 -3.259787e+00 4.075668e-01 -1.283982e+00 2.125560e+00 3.867422e+00 2.711783e+00 3.122521e+00 1.013777e+00 1.533411e+00 8.391744e-01 5.646957e-01 1.434843e+00 8.807220e-02 1.776612e-01 -6.253468e-02 -7.112612e-02 -2.456803e-01 -7.292093e-01 -1.113126e+00 -1.418146e+00 -1.274491e+00 -8.577377e-01 -8.425230e-01 -4.373114e-01 -4.348627e-03
<VARIANCE> 25
 9.531221e+00 6.243267e+00 8.014216e+00 1.285456e+01 1.067163e+01 1.702522e+01 1.422784e+01 1.472899e+01 1.421665e+01 1.046905e+01 1.351412e+01 1.268213e+01 1.891465e-01 2.364829e-01 3.752140e-01 4.334164e-01 6.819678e-01 9.057027e-01 1.045040e+00 8.165662e-01 1.051310e+00 9.816131e-01 1.471024e+00 1.225274e+00 4.861288e-05
<GCONST> 6.048713e+01
<MIXTURE> 96 7.034694e-03
<MEAN> 25
 -4.284532e+00 -9.984023e-01 -2.010077e+00 4.078090e+00 3.445087e+00 1.791272e+00 2.848902e+00 1.686418e+00 2.103163e+00 9.287818e-01 1.197470e+00 1.967333e+00 -9.406652e-02 9.995095e-02 1.972627e-01 3.929564e-01 6.131114e-01 4.982149e-01 2.564954e-01 -1.543644e-01 -5.256075e-01 -7.257547e-01 -6.198430e-01 -3.592437e-01 -1.417406e-04
<VARIANCE> 25
 1.143925e+01 1.160313e+01 1.135036e+01 1.531182e+01 1.403514e+01 1.785131e+01 1.643974e+01 1.736868e+01 1.537217e+01 1.465107e+01 1.968225e+01 1.780452e+01 1.376322e-01 2.084542e-01 2.789778e-01 3.950664e-01 4.673090e-01 6.560047e-01 7.833669e-01 1.111512e+00 9.288394e-01 8.962498e-01 7.656109e-01 1.058435e+00 1.010163e-06
<GCONST> 5.717102e+01
<MIXTURE> 97 7.034694e-03
<MEAN> 25
 -4.284532e+00 -9.984023e-01 -2.010077e+00 4.078090e+00 3.445087e+00 1.791272e+00 2.848902e+00 1.686418e+00 2.103163e+00 9.287818e-01 1.197470e+00 1.967333e+00 -9.406652e-02 9.995095e-02 1.972627e-01 3.929564e-01 6.131114e-01 4.982149e-01 2.564954e-01 -1.543644e-01 -5.256075e-01 -7.257547e-01 -6.198430e-01 -3.592437e-01 -1.417406e-04
<VARIANCE> 25
 1.143925e+01 1.160313e+01 1.135036e+01 1.531182e+01 1.403514e+01 1.785131e+01 1.643974e+01 1.736868e+01 1.537217e+01 1.465107e+01 1.968225e+01 1.780452e+01 1.376322e-01 2.084542e-01 2.789778e-01 3.950664e-01 4.673090e-01 6.560047e-01 7.833669e-01 1.111512e+00 9.288394e-01 8.962498e-01 7.656109e-01 1.058435e+00 1.010163e-06
<GCONST> 5.717102e+01
<MIXTURE> 98 9.917808e-03
<MEAN> 25
 -1.437470e+00 9.498292e-01 -1.414175e-01 4.566241e+00 3.550063e+00 2.576916e+00 3.202253e+00 1.695823e+00 1.579425e+00 8.733492e-01 7.353358e-01 1.017452e+00 -1.794852e+00 -1.476723e+00 -9.987956e-01 1.262094e-01 6.200368e-01 8.225536e-01 1.280827e+00 1.420401e+00 1.684410e+00 1.128865e+00 1.291975e+00 9.665612e-01 -3.439780e-02
<VARIANCE> 25
 1.421961e+01 1.985799e+01 3.122993e+01 3.240204e+01 4.354391e+01 3.661853e+01 3.192805e+01 2.870223e+01 2.730556e+01 2.990544e+01 2.648337e+01 2.341893e+01 1.364859e+00 1.501198e+00 2.368132e+00 2.476761e+00 2.873592e+00 2.918013e+00 2.849940e+00 2.830203e+00 2.573392e+00 2.975705e+00 2.825099e+00 2.127253e+00 2.368110e-03
<GCONST> 9.032362e+01
<MIXTURE> 99 6.696178e-03
<MEAN> 25
 -6.169945e+00 9.732833e+00 6.525570e+00 3.263132e+00 8.747523e-01 -5.191052e+00 -1.644405e+00 -4.015598e+00 -3.385172e+00 -3.767881e+00 -1.753972e+00 4.767955e-01 5.819521e-01 -7.041905e-01 3.217137e-01 -3.641007e-01 -1.141653e+00 -5.065857e-01 -3.351167e-01 -2.251624e-01 -5.206130e-02 -6.204156e-02 2.136948e-01 1.609658e-01 1.071972e-02
<VARIANCE> 25
 3.619113e+01 2.584467e+01 4.680416e+01 3.160178e+01 3.518449e+01 3.418439e+01 2.693276e+01 2.909572e+01 2.688691e+01 2.722992e+01 2.069658e+01 2.866487e+01 2.111171e+00 1.881485e+00 1.397927e+00 1.704288e+00 2.562102e+00 2.050094e+00 1.621758e+00 1.623969e+00 1.602283e+00 1.547652e+00 1.314035e+00 1.233212e+00 1.515635e-03
<GCONST> 8.659846e+01
<MIXTURE> 100 4.498084e-03
<MEAN> 25
 -1.598532e+00 6.344525e+00 1.027660e+01 -7.462286e+00 -1.078172e+01 -5.075523e+00 -4.941706e+00 -9.968554e+00 -4.718066e+00 -8.552718e-01 -2.733154e+00 -2.708048e+00 2.917810e+00 -1.260442e+00 1.299574e+00 -2.185815e+00 -3.419398e+00 -7.842762e-01 -1.218942e+00 -8.198436e-01 -1.475579e+00 3.467160e-01 -1.655341e+00 -2.862734e-01 2.021176e-03
<VARIANCE> 25
 1.362764e+01 2.106120e+01 2.246361e+01 2.642872e+01 2.301970e+01 2.372171e+01 2.911006e+01 2.170827e+01 2.748190e+01 2.265138e+01 2.241203e+01 2.134060e+01 1.799125e+00 3.953554e+00 2.920099e+00 4.286450e+00 4.184307e+00 4.537355e+00 4.015641e+00 4.340323e+00 4.167765e+00 3.895834e+00 3.911300e+00 3.224827e+00 1.675282e-03
<GCONST> 9.256937e+01
<MIXTURE> 101 6.007792e-03
<MEAN> 25
 8.094832e+00 -3.487412e+00 -6.311718e+00 -6.866302e+00 8.467774e-01 -1.258993e+00 -1.058797e+01 -2.059252e+00 1.622350e+00 2.713456e+00 -2.387697e+00 -5.142715e+00 6.734034e-01 6.509103e-01 -1.456916e+00 -1.610579e+00 1.032219e+00 2.318545e+00 1.968956e-01 -1.460585e+00 -1.064676e+00 1.036599e+00 1.373039e+00 -4.157901e-01 -4.810759e-03
<VARIANCE> 25
 9.279651e+00 1.671827e+01 2.984326e+01 4.279269e+01 3.622368e+01 3.581277e+01 3.703538e+01 3.622382e+01 3.786108e+01 4.398809e+01 5.177349e+01 2.422647e+01 2.937383e-01 6.694065e-01 1.172409e+00 1.551408e+00 1.687555e+00 2.096313e+00 2.086134e+00 1.992094e+00 2.348893e+00 2.216738e+00 1.786520e+00 1.935370e+00 3.449342e-04
<GCONST> 8.364349e+01
<MIXTURE> 102 6.007792e-03
<MEAN> 25
 8.094832e+00 -3.487412e+00 -6.311718e+00 -6.866302e+00 8.467774e-01 -1.258993e+00 -1.058797e+01 -2.059252e+00 1.622350e+00 2.713456e+00 -2.387697e+00 -5.142715e+00 6.734034e-01 6.509103e-01 -1.456916e+00 -1.610579e+00 1.032219e+00 2.318545e+00 1.968956e-01 -1.460585e+00 -1.064676e+00 1.036599e+00 1.373039e+00 -4.157901e-01 -4.810759e-03
<VARIANCE> 25
 9.279651e+00 1.671827e+01 2.984326e+01 4.279269e+01 3.622368e+01 3.581277e+01 3.703538e+01 3.622382e+01 3.786108e+01 4.398809e+01 5.177349e+01 2.422647e+01 2.937383e-01 6.694065e-01 1.172409e+00 1.551408e+00 1.687555e+00 2.096313e+00 2.086134e+00 1.992094e+00 2.348893e+00 2.216738e+00 1.786520e+00 1.935370e+00 3.449342e-04
<GCONST> 8.364349e+01
<MIXTURE> 103 5.694618e-03
<MEAN> 25
 3.348187e+00 -9.422277e+00 -6.099762e+00 -3.083788e+00 -1.346425e+00 -1.983928e+00 2.404311e+00 2.487225e+00 -4.594482e+00 -9.249800e+00 -5.080123e+00 3.544360e-01 -1.568403e-01 -1.483501e+00 -9.795086e-01 3.727435e-01 1.209840e+00 1.019333e+00 1.613746e-01 -2.681156e-01 -7.830104e-01 -9.493265e-01 -4.170811e-02 1.237128e-01 2.680619e-02
<VARIANCE> 25
 1.035858e+01 2.087655e+01 2.299787e+01 3.155217e+01 4.786161e+01 3.487540e+01 4.646936e+01 3.667854e+01 4.199678e+01 2.922432e+01 3.004438e+01 2.629334e+01 6.418777e-01 1.251279e+00 1.532866e+00 1.934799e+00 2.918135e+00 2.400835e+00 2.879327e+00 2.567185e+00 2.556343e+00 2.513788e+00 2.095488e+00 2.020458e+00 8.075595e-04
<GCONST> 8.755314e+01
<MIXTURE> 104 5.694618e-03
<MEAN> 25
 3.348187e+00 -9.422277e+00 -6.099762e+00 -3.083788e+00 -1.346425e+00 -1.983928e+00 2.404311e+00 2.487225e+00 -4.594482e+00 -9.249800e+00 -5.080123e+00 3.544360e-01 -1.568403e-01 -1.483501e+00 -9.795086e-01 3.727435e-01 1.209840e+00 1.019333e+00 1.613746e-01 -2.681156e-01 -7.830104e-01 -9.493265e-01 -4.170811e-02 1.237128e-01 2.680619e-02
<VARIANCE> 25
 1.035858e+01 2.087655e+01 2.299787e+01 3.155217e+01 4.786161e+01 3.487540e+01 4.646936e+01 3.667854e+01 4.199678e+01 2.922432e+01 3.004438e+01 2.629334e+01 6.418777e-01 1.251279e+00 1.532866e+00 1.934799e+00 2.918135e+00 2.400835e+00 2.879327e+00 2.567185e+00 2.556343e+00 2.513788e+00 2.095488e+00 2.020458e+00 8.075595e-04
<GCONST> 8.755314e+01
<MIXTURE> 105 4.710235e-03
<MEAN> 25
 2.411007e+00 -2.424396e+00 9.372883e+00 -2.942128e+00 -1.187251e+01 -5.675414e+00 -4.819929e+00 -6.600931e-01 -4.686744e+00 -2.779606e+00 1.851340e+00 -8.007941e-01 -4.042483e-02 9.142071e-02 2.065054e-02 -7.239374e-02 -9.800686e-02 7.901090e-02 -5.632563e-02 3.133804e-02 -5.907940e-02 1.031601e-01 -3.923566e-02 2.169305e-03 -2.065224e-03
<VARIANCE> 25
 1.316053e+01 3.436460e+01 4.039922e+01 4.105072e+01 3.864491e+01 5.398854e+01 4.186586e+01 3.973960e+01 4.846087e+01 3.947667e+01 3.932140e+01 2.914183e+01 1.008771e-01 2.251999e-01 3.321635e-01 2.792682e-01 4.718930e-01 4.005249e-01 4.509038e-01 4.642737e-01 4.618384e-01 4.759683e-01 4.492973e-01 3.735987e-01 8.571237e-05
<GCONST> 6.707904e+01
<MIXTURE> 106 4.710235e-03
<MEAN> 25
 2.411007e+00 -2.424396e+00 9.372883e+00 -2.942128e+00 -1.187251e+01 -5.675414e+00 -4.819929e+00 -6.600931e-01 -4.686744e+00 -2.779606e+00 1.851340e+00 -8.007941e-01 -4.042483e-02 9.142071e-02 2.065054e-02 -7.239374e-02 -9.800686e-02 7.901090e-02 -5.632563e-02 3.133804e-02 -5.907940e-02 1.031601e-01 -3.923566e-02 2.169305e-03 -2.065224e-03
<VARIANCE> 25
 1.316053e+01 3.436460e+01 4.039922e+01 4.105072e+01 3.864491e+01 5.398854e+01 4.186586e+01 3.973960e+01 4.846087e+01 3.947667e+01 3.932140e+01 2.914183e+01 1.008771e-01 2.251999e-01 3.321635e-01 2.792682e-01 4.718930e-01 4.005249e-01 4.509038e-01 4.642737e-01 4.618384e-01 4.759683e-01 4.492973e-01 3.735987e-01 8.571237e-05
<GCONST> 6.707904e+01
<MIXTURE> 107 5.452374e-03
<MEAN> 25
 8.642254e+00 -2.306397e+00 -8.039544e+00 -9.554193e+00 1.962443e+00 2.951688e+00 -8.642847e+00 -4.554811e+00 -8.876628e-01 3.389735e+00 8.571498e-01 -5.073331e+00 -6.093798e-01 -7.687690e-01 8.354268e-01 1.773490e+00 2.251770e-01 -2.011968e+00 -9.219999e-01 8.490566e-01 1.766172e+00 4.639670e-02 -1.657036e+00 -8.199278e-01 -1.756132e-03
<VARIANCE> 25
 9.243317e+00 2.049044e+01 2.834134e+01 4.290074e+01 3.577322e+01 3.854284e+01 5.115321e+01 3.625526e+01 4.579575e+01 4.171799e+01 5.136229e+01 3.035795e+01 3.561762e-01 9.683167e-01 1.461910e+00 2.412838e+00 2.285749e+00 2.824457e+00 2.613396e+00 2.541179e+00 2.299700e+00 3.030391e+00 1.946773e+00 2.206174e+00 7.051055e-04
<GCONST> 8.805149e+01
<MIXTURE> 108 5.452374e-03
<MEAN> 25
 8.642254e+00 -2.306397e+00 -8.039544e+00 -9.554193e+00 1.962443e+00 2.951688e+00 -8.642847e+00 -4.554811e+00 -8.876628e-01 3.389735e+00 8.571498e-01 -5.073331e+00 -6.093798e-01 -7.687690e-01 8.354268e-01 1.773490e+00 2.251770e-01 -2.011968e+00 -9.219999e-01 8.490566e-01 1.766172e+00 4.639670e-02 -1.657036e+00 -8.199278e-01 -1.756132e-03
<VARIANCE> 25
 9.243317e+00 2.049044e+01 2.834134e+01 4.290074e+01 3.577322e+01 3.854284e+01 5.115321e+01 3.625526e+01 4.579575e+01 4.171799e+01 5.136229e+01 3.035795e+01 3.561762e-01 9.683167e-01 1.461910e+00 2.412838e+00 2.285749e+00 2.824457e+00 2.613396e+00 2.541179e+00 2.299700e+00 3.030391e+00 1.946773e+00 2.206174e+00 7.051055e-04
<GCONST> 8.805149e+01
<MIXTURE> 109 6.661064e-03
<MEAN> 25
 4.048836e+00 -1.047988e+01 -8.253618e+00 -1.362781e+00 2.728712e+00 -5.696822e-02 -8.280474e-02 1.440736e+00 -2.565709e+00 -8.342082e+00 -5.376105e+00 5.629977e-02 -3.216241e-02 -1.355119e-01 -3.481311e-02 2.489678e-01 1.939114e-01 1.191197e-01 -1.246525e-01 -1.059345e-01 -4.042028e-02 -1.332925e-01 2.162564e-01 1.385085e-02 -3.497776e-03
<VARIANCE> 25
 9.178676e+00 1.889723e+01 2.026963e+01 3.124425e+01 4.068053e+01 3.659405e+01 4.641422e+01 3.426780e+01 4.585691e+01 3.529863e+01 2.954994e+01 2.804686e+01 1.933280e-01 4.237072e-01 5.378416e-01 6.319151e-01 1.231603e+00 9.926600e-01 1.257994e+00 1.092755e+00 1.119813e+00 9.528515e-01 8.812273e-01 8.878918e-01 1.812159e-04
<GCONST> 7.448215e+01
<MIXTURE> 110 6.661064e-03
<MEAN> 25
 4.048836e+00 -1.047988e+01 -8.253618e+00 -1.362781e+00 2.728712e+00 -5.696822e-02 -8.280474e-02 1.440736e+00 -2.565709e+00 -8.342082e+00 -5.376105e+00 5.629977e-02 -3.216241e-02 -1.355119e-01 -3.481311e-02 2.489678e-01 1.939114e-01 1.191197e-01 -1.246525e-01 -1.059345e-01 -4.042028e-02 -1.332925e-01 2.162564e-01 1.385085e-02 -3.497776e-03
<VARIANCE> 25
 9.178676e+00 1.889723e+01 2.026963e+01 3.124425e+01 4.068053e+01 3.659405e+01 4.641422e+01 3.426780e+01 4.585691e+01 3.529863e+01 2.954994e+01 2.804686e+01 1.933280e-01 4.237072e-01 5.378416e-01 6.319151e-01 1.231603e+00 9.926600e-01 1.257994e+00 1.092755e+00 1.119813e+00 9.528515e-01 8.812273e-01 8.878918e-01 1.812159e-04
<GCONST> 7.448215e+01
<MIXTURE> 111 4.337247e-03
<MEAN> 25
 -1.981993e+00 -2.168510e-02 -1.164813e+00 2.669654e-01 8.206985e-01 9.275878e-01 1.574557e-01 -6.846126e-01 7.512366e-02 -4.469089e-01 -7.746053e-01 5.822037e-01 -2.469016e-02 -1.459735e-02 -2.119731e-03 -6.191469e-02 -2.197303e-02 1.917961e-02 -2.669658e-03 -2.370517e-02 -1.712462e-01 -2.104730e-01 -2.442406e-01 -1.216939e-01 -6.405995e-04
<VARIANCE> 25
 4.786087e+00 7.242655e+00 5.599336e+00 7.057441e+00 8.848078e+00 1.320458e+01 1.162382e+01 1.080413e+01 1.011148e+01 9.272885e+00 9.801759e+00 1.242293e+01 9.922664e-02 2.115987e-01 2.654825e-01 4.104646e-01 6.736040e-01 6.704872e-01 8.301725e-01 1.030411e+00 1.038619e+00 7.013720e-01 1.179508e+00 1.113967e+00 3.921130e-05
<GCONST> 5.488454e+01
<MIXTURE> 112 4.337247e-03
<MEAN> 25
 -1.981993e+00 -2.168510e-02 -1.164813e+00 2.669654e-01 8.206985e-01 9.275878e-01 1.574557e-01 -6.846126e-01 7.512366e-02 -4.469089e-01 -7.746053e-01 5.822037e-01 -2.469016e-02 -1.459735e-02 -2.119731e-03 -6.191469e-02 -2.197303e-02 1.917961e-02 -2.669658e-03 -2.370517e-02 -1.712462e-01 -2.104730e-01 -2.442406e-01 -1.216939e-01 -6.405995e-04
<VARIANCE> 25
 4.786087e+00 7.242655e+00 5.599336e+00 7.057441e+00 8.848078e+00 1.320458e+01 1.162382e+01 1.080413e+01 1.011148e+01 9.272885e+00 9.801759e+00 1.242293e+01 9.922664e-02 2.115987e-01 2.654825e-01 4.104646e-01 6.736040e-01 6.704872e-01 8.301725e-01 1.030411e+00 1.038619e+00 7.013720e-01 1.179508e+00 1.113967e+00 3.921130e-05
<GCONST> 5.488454e+01
<MIXTURE> 113 5.938666e-03
<MEAN> 25
 9.976567e+00 1.755361e+00 -8.780613e+00 -1.704637e+01 -1.033356e+00 5.658785e+00 -5.280543e+00 -1.465878e+00 -5.694954e+00 -4.929896e-01 2.991585e-01 -1.981048e-01 4.847538e-03 1.382403e-02 -5.951982e-02 -1.134476e-01 1.044493e-01 1.504083e-01 5.930929e-02 3.602792e-02 -5.705388e-02 -5.130421e-02 1.796438e-01 3.522919e-02 -1.411472e-03
<VARIANCE> 25
 8.889830e+00 1.638886e+01 2.967587e+01 3.420721e+01 5.273545e+01 3.386541e+01 3.970406e+01 3.913938e+01 3.737664e+01 4.640333e+01 3.629388e+01 2.843980e+01 1.217847e-01 3.205530e-01 3.160951e-01 6.313708e-01 6.129727e-01 6.538538e-01 7.765145e-01 8.452894e-01 9.594472e-01 9.051310e-01 7.244905e-01 7.134988e-01 1.247726e-04
<GCONST> 7.110527e+01
<MIXTURE> 114 5.938666e-03
<MEAN> 25
 9.976567e+00 1.755361e+00 -8.780613e+00 -1.704637e+01 -1.033356e+00 5.658785e+00 -5.280543e+00 -1.465878e+00 -5.694954e+00 -4.929896e-01 2.991585e-01 -1.981048e-01 4.847538e-03 1.382403e-02 -5.951982e-02 -1.134476e-01 1.044493e-01 1.504083e-01 5.930929e-02 3.602792e-02 -5.705388e-02 -5.130421e-02 1.796438e-01 3.522919e-02 -1.411472e-03
<VARIANCE> 25
 8.889830e+00 1.638886e+01 2.967587e+01 3.420721e+01 5.273545e+01 3.386541e+01 3.970406e+01 3.913938e+01 3.737664e+01 4.640333e+01 3.629388e+01 2.843980e+01 1.217847e-01 3.205530e-01 3.160951e-01 6.313708e-01 6.129727e-01 6.538538e-01 7.765145e-01 8.452894e-01 9.594472e-01 9.051310e-01 7.244905e-01 7.134988e-01 1.247726e-04
<GCONST> 7.110527e+01
<MIXTURE> 115 2.935202e-03
<MEAN> 25
 -3.664293e+00 -6.605549e-01 -2.756540e+00 3.236740e+00 2.300745e+00 -4.221754e-01 1.707301e+00 2.748729e-01 1.243904e+00 1.832289e-01 1.400565e-01 2.158498e+00 3.036606e-02 -6.903322e-02 -2.065206e-01 -4.119202e-01 -6.280109e-01 -6.694106e-01 -5.626766e-01 -4.922975e-01 -5.045581e-01 -4.981742e-01 -3.324438e-01 -1.978667e-01 -3.114023e-05
<VARIANCE> 25
 9.199228e+00 1.022309e+01 1.288684e+01 1.243362e+01 1.275413e+01 1.586830e+01 1.781205e+01 1.876853e+01 1.668177e+01 1.638332e+01 1.817653e+01 1.579472e+01 2.069571e-01 3.491837e-01 4.875968e-01 5.418931e-01 6.187544e-01 8.238620e-01 9.640185e-01 1.130112e+00 1.024386e+00 1.089415e+00 1.122831e+00 1.086510e+00 1.063029e-06
<GCONST> 5.996761e+01
<MIXTURE> 116 2.935202e-03
<MEAN> 25
 -3.664293e+00 -6.605549e-01 -2.756540e+00 3.236740e+00 2.300745e+00 -4.221754e-01 1.707301e+00 2.748729e-01 1.243904e+00 1.832289e-01 1.400565e-01 2.158498e+00 3.036606e-02 -6.903322e-02 -2.065206e-01 -4.119202e-01 -6.280109e-01 -6.694106e-01 -5.626766e-01 -4.922975e-01 -5.045581e-01 -4.981742e-01 -3.324438e-01 -1.978667e-01 -3.114023e-05
<VARIANCE> 25
 9.199228e+00 1.022309e+01 1.288684e+01 1.243362e+01 1.275413e+01 1.586830e+01 1.781205e+01 1.876853e+01 1.668177e+01 1.638332e+01 1.817653e+01 1.579472e+01 2.069571e-01 3.491837e-01 4.875968e-01 5.418931e-01 6.187544e-01 8.238620e-01 9.640185e-01 1.130112e+00 1.024386e+00 1.089415e+00 1.122831e+00 1.086510e+00 1.063029e-06
<GCONST> 5.996761e+01
<MIXTURE> 117 6.506003e-03
<MEAN> 25
 -4.643919e+00 1.117968e+00 1.054143e+00 9.757135e+00 6.259611e+00 6.256192e+00 6.462566e+00 5.044035e+00 6.385222e+00 4.928897e+00 6.366752e+00 2.709796e+00 -7.502623e-02 -2.341187e-01 -3.583062e-01 -4.199688e-01 -3.674587e-01 -3.026813e-01 -2.872784e-01 -3.315339e-01 -3.918130e-01 -3.689775e-01 -2.631398e-01 -1.158977e-01 -9.002558e-06
<VARIANCE> 25
 7.189768e+00 8.752334e+00 9.809191e+00 1.431921e+01 1.561789e+01 1.534812e+01 1.772845e+01 1.796144e+01 1.640302e+01 1.637014e+01 1.674009e+01 1.475340e+01 2.165814e-01 3.075140e-01 4.261136e-01 6.170532e-01 8.536490e-01 1.055323e+00 1.177529e+00 1.232928e+00 1.223864e+00 1.194866e+00 1.167134e+00 1.113637e+00 1.000466e-06
<GCONST> 6.042956e+01
<MIXTURE> 118 6.506003e-03
<MEAN> 25
 -4.643919e+00 1.117968e+00 1.054143e+00 9.757135e+00 6.259611e+00 6.256192e+00 6.462566e+00 5.044035e+00 6.385222e+00 4.928897e+00 6.366752e+00 2.709796e+00 -7.502623e-02 -2.341187e-01 -3.583062e-01 -4.199688e-01 -3.674587e-01 -3.026813e-01 -2.872784e-01 -3.315339e-01 -3.918130e-01 -3.689775e-01 -2.631398e-01 -1.158977e-01 -9.002558e-06
<VARIANCE> 25
 7.189768e+00 8.752334e+00 9.809191e+00 1.431921e+01 1.561789e+01 1.534812e+01 1.772845e+01 1.796144e+01 1.640302e+01 1.637014e+01 1.674009e+01 1.475340e+01 2.165814e-01 3.075140e-01 4.261136e-01 6.170532e-01 8.536490e-01 1.055323e+00 1.177529e+00 1.232928e+00 1.223864e+00 1.194866e+00 1.167134e+00 1.113637e+00 1.000466e-06
<GCONST> 6.042956e+01
<MIXTURE> 119 4.297961e-03
<MEAN> 25
 -4.646158e+00 -7.373587e+00 2.046503e+00 1.754612e+00 2.049860e+00 4.112902e-01 4.744854e+00 5.784052e+00 1.270692e+00 1.026041e+00 6.287174e+00 1.293913e+00 -6.698345e-02 -9.441622e-02 -1.365378e-02 -7.813498e-02 -1.099825e-01 -1.674038e-01 -2.632843e-02 -3.070505e-02 -1.186078e-01 -1.038146e-01 -1.069163e-01 -6.695712e-02 6.309680e-04
<VARIANCE> 25
 8.789982e+00 9.823659e+00 1.547384e+01 1.959249e+01 2.181488e+01 2.281372e+01 2.626069e+01 2.469688e+01 2.348555e+01 2.610710e+01 2.006492e+01 1.982742e+01 1.671167e-01 3.007731e-01 4.810085e-01 6.019802e-01 8.145549e-01 9.998719e-01 1.195843e+00 1.251546e+00 1.266094e+00 1.167790e+00 1.236766e+00 1.105731e+00 2.206728e-04
<GCONST> 6.946232e+01
<MIXTURE> 120 4.297961e-03
<MEAN> 25
 -4.646158e+00 -7.373587e+00 2.046503e+00 1.754612e+00 2.049860e+00 4.112902e-01 4.744854e+00 5.784052e+00 1.270692e+00 1.026041e+00 6.287174e+00 1.293913e+00 -6.698345e-02 -9.441622e-02 -1.365378e-02 -7.813498e-02 -1.099825e-01 -1.674038e-01 -2.632843e-02 -3.070505e-02 -1.186078e-01 -1.038146e-01 -1.069163e-01 -6.695712e-02 6.309680e-04
<VARIANCE> 25
 8.789982e+00 9.823659e+00 1.547384e+01 1.959249e+01 2.181488e+01 2.281372e+01 2.626069e+01 2.469688e+01 2.348555e+01 2.610710e+01 2.006492e+01 1.982742e+01 1.671167e-01 3.007731e-01 4.810085e-01 6.019802e-01 8.145549e-01 9.998719e-01 1.195843e+00 1.251546e+00 1.266094e+00 1.167790e+00 1.236766e+00 1.105731e+00 2.206728e-04
<GCONST> 6.946232e+01
<MIXTURE> 121 4.567511e-03
<MEAN> 25
 1.701502e-01 -2.326956e+00 4.922989e+00 -1.247781e+01 -1.224869e+01 -1.752642e+00 7.666906e-01 -5.084183e+00 -4.118192e+00 -7.436283e-01 -5.599888e+00 -4.209152e+00 2.819841e-02 1.178851e-01 -6.888250e-02 6.494498e-02 1.631668e-01 9.573523e-02 -4.884466e-02 -1.865878e-01 -3.129255e-01 -2.970463e-01 -1.592858e-01 2.727296e-02 -7.163118e-03
<VARIANCE> 25
 7.439455e+00 1.584124e+01 1.770172e+01 2.342818e+01 2.695604e+01 2.837470e+01 2.981497e+01 2.372595e+01 3.409788e+01 2.923853e+01 1.979132e+01 2.061132e+01 1.522569e-01 6.323487e-01 6.267887e-01 7.045268e-01 7.745062e-01 1.110599e+00 1.095579e+00 1.097556e+00 1.266987e+00 1.203680e+00 9.475939e-01 9.315160e-01 2.069549e-04
<GCONST> 7.155114e+01
<MIXTURE> 122 4.567511e-03
<MEAN> 25
 1.701502e-01 -2.326956e+00 4.922989e+00 -1.247781e+01 -1.224869e+01 -1.752642e+00 7.666906e-01 -5.084183e+00 -4.118192e+00 -7.436283e-01 -5.599888e+00 -4.209152e+00 2.819841e-02 1.178851e-01 -6.888250e-02 6.494498e-02 1.631668e-01 9.573523e-02 -4.884466e-02 -1.865878e-01 -3.129255e-01 -2.970463e-01 -1.592858e-01 2.727296e-02 -7.163118e-03
<VARIANCE> 25
 7.439455e+00 1.584124e+01 1.770172e+01 2.342818e+01 2.695604e+01 2.837470e+01 2.981497e+01 2.372595e+01 3.409788e+01 2.923853e+01 1.979132e+01 2.061132e+01 1.522569e-01 6.323487e-01 6.267887e-01 7.045268e-01 7.745062e-01 1.110599e+00 1.095579e+00 1.097556e+00 1.266987e+00 1.203680e+00 9.475939e-01 9.315160e-01 2.069549e-04
<GCONST> 7.155114e+01
<MIXTURE> 123 4.393044e-03
<MEAN> 25
 -2.717116e+00 1.400302e+00 8.415678e-02 4.057609e+00 3.745559e+00 3.063587e+00 2.817728e+00 8.090114e-01 3.126103e-01 -6.665985e-01 -3.108064e-01 -4.424282e-02 -2.983668e-01 -6.292402e-01 -7.692190e-01 -5.568436e-01 -5.164421e-01 -4.959352e-02 6.894396e-01 6.748905e-01 6.820387e-01 7.491602e-01 8.066981e-01 6.167120e-01 -2.096042e-05
<VARIANCE> 25
 9.098433e+00 9.380947e+00 1.064114e+01 1.657596e+01 1.888201e+01 1.868555e+01 1.593992e+01 1.531661e+01 1.594271e+01 1.261612e+01 1.614718e+01 1.548389e+01 3.104717e-01 3.011696e-01 3.728575e-01 7.547215e-01 1.073043e+00 1.085372e+00 2.175008e+00 1.032389e+00 1.019731e+00 9.545316e-01 9.788122e-01 1.139396e+00 1.011943e-04
<GCONST> 6.596288e+01
<MIXTURE> 124 4.069876e-03
<MEAN> 25
 -5.769719e+00 -8.074738e-01 -2.800285e+00 4.411415e+00 4.541308e+00 3.284577e+00 5.354992e+00 2.733315e+00 3.306196e+00 1.269108e+00 1.059905e+00 2.954443e+00 -2.024141e-01 -3.496263e-01 -3.609511e-01 -2.272278e-01 1.782977e-01 5.450598e-01 8.651891e-01 8.515460e-01 6.040094e-01 3.439586e-01 7.903715e-02 -1.878827e-02 1.206173e-04
<VARIANCE> 25
 1.397995e+01 7.660050e+00 1.007320e+01 1.442729e+01 1.212627e+01 1.805107e+01 1.481435e+01 1.607070e+01 1.467087e+01 1.448738e+01 1.777156e+01 1.518348e+01 1.041354e-01 1.780470e-01 2.584704e-01 3.810639e-01 6.013340e-01 6.829181e-01 7.168060e-01 8.387046e-01 9.275656e-01 9.191799e-01 9.796818e-01 1.013443e+00 1.927696e-05
<GCONST> 5.869009e+01
<MIXTURE> 125 4.069876e-03
<MEAN> 25
 -5.769719e+00 -8.074738e-01 -2.800285e+00 4.411415e+00 4.541308e+00 3.284577e+00 5.354992e+00 2.733315e+00 3.306196e+00 1.269108e+00 1.059905e+00 2.954443e+00 -2.024141e-01 -3.496263e-01 -3.609511e-01 -2.272278e-01 1.782977e-01 5.450598e-01 8.651891e-01 8.515460e-01 6.040094e-01 3.439586e-01 7.903715e-02 -1.878827e-02 1.206173e-04
<VARIANCE> 25
 1.397995e+01 7.660050e+00 1.007320e+01 1.442729e+01 1.212627e+01 1.805107e+01 1.481435e+01 1.607070e+01 1.467087e+01 1.448738e+01 1.777156e+01 1.518348e+01 1.041354e-01 1.780470e-01 2.584704e-01 3.810639e-01 6.013340e-01 6.829181e-01 7.168060e-01 8.387046e-01 9.275656e-01 9.191799e-01 9.796818e-01 1.013443e+00 1.927696e-05
<GCONST> 5.869009e+01
<MIXTURE> 126 2.402244e-03
<MEAN> 25
 -3.557204e+00 -6.521330e+00 -4.941212e+00 2.105513e+00 4.000200e+00 -2.993471e+00 4.134322e-02 3.467324e+00 3.173880e+00 -2.488361e+00 -1.331888e+00 2.749355e+00 3.210219e-03 -9.749318e-03 -3.606102e-02 -1.617336e-01 -3.355735e-01 -4.018942e-01 -3.168028e-01 -1.654989e-01 -6.735148e-02 -1.047802e-01 -8.294173e-02 -3.648231e-02 -1.545363e-03
<VARIANCE> 25
 7.485259e+00 1.430893e+01 1.435104e+01 1.485313e+01 2.408327e+01 2.316693e+01 2.201503e+01 2.689676e+01 3.021011e+01 2.533829e+01 2.061988e+01 1.922784e+01 1.684371e-01 3.617662e-01 4.727643e-01 5.473599e-01 7.594504e-01 1.019699e+00 1.130687e+00 1.281458e+00 1.324809e+00 1.265340e+00 1.197428e+00 1.113752e+00 2.043898e-04
<GCONST> 6.958832e+01
<MIXTURE> 127 2.402244e-03
<MEAN> 25
 -3.557204e+00 -6.521330e+00 -4.941212e+00 2.105513e+00 4.000200e+00 -2.993471e+00 4.134322e-02 3.467324e+00 3.173880e+00 -2.488361e+00 -1.331888e+00 2.749355e+00 3.210219e-03 -9.749318e-03 -3.606102e-02 -1.617336e-01 -3.355735e-01 -4.018942e-01 -3.168028e-01 -1.654989e-01 -6.735148e-02 -1.047802e-01 -8.294173e-02 -3.648231e-02 -1.545363e-03
<VARIANCE> 25
 7.485259e+00 1.430893e+01 1.435104e+01 1.485313e+01 2.408327e+01 2.316693e+01 2.201503e+01 2.689676e+01 3.021011e+01 2.533829e+01 2.061988e+01 1.922784e+01 1.684371e-01 3.617662e-01 4.727643e-01 5.473599e-01 7.594504e-01 1.019699e+00 1.130687e+00 1.281458e+00 1.324809e+00 1.265340e+00 1.197428e+00 1.113752e+00 2.043898e-04
<GCONST> 6.958832e+01
<MIXTURE> 128 3.790457e-03
<MEAN> 25
 -3.638418e+00 1.161373e+00 -1.132667e-01 6.140002e+00 3.323777e+00 1.785547e+00 3.151733e+00 2.059324e+00 3.650554e+00 3.747709e+00 4.107890e+00 3.322171e+00 -4.405459e-01 -1.737271e-01 1.025208e-01 5.971034e-01 1.204507e+00 1.249871e+00 8.991728e-01 1.084601e-01 -3.690015e-01 -6.633675e-01 -6.658227e-01 -3.383155e-01 2.631310e-05
<VARIANCE> 25
 1.045677e+01 1.227727e+01 1.433286e+01 2.020718e+01 2.103886e+01 2.064239e+01 2.544398e+01 2.373987e+01 2.528960e+01 2.317386e+01 2.677780e+01 1.734053e+01 8.539367e-01 1.073734e+00 1.286608e+00 1.635044e+00 1.469301e+00 1.858742e+00 2.473156e+00 2.221930e+00 2.047344e+00 1.895474e+00 1.691117e+00 1.646817e+00 1.097939e-06
<GCONST> 7.348557e+01
<TRANSP> 3
 0.000000e+00 1.000000e+00 0.000000e+00
 0.000000e+00 9.999990e-01 9.999998e-07
 0.000000e+00 0.000000e+00 0.000000e+00
<ENDHMM>
